// Auto-generated weights file
// DO NOT EDIT

#ifndef WEIGHTS_H_
#define WEIGHTS_H_

#include <stddef.h>
#include <stdint.h>

// Shape: (5, 5, 6, 16), dtype: float32
static const float stem_conv_weight[2400] = {
    -0.06364013f, -0.04143037f, 0.02273134f, -0.02057977f, 0.06007695f, -0.06586924f, 0.00974248f, -0.06275758f,
    -0.00857350f, -0.05161218f, 0.07726061f, 0.01596263f, 0.00913598f, -0.06765450f, -0.05674285f, -0.06241755f,
    -0.02008705f, 0.06205587f, -0.06295248f, 0.00474017f, -0.04240512f, 0.00902606f, -0.02799830f, -0.07815856f,
    -0.04962340f, 0.04960161f, -0.06575605f, 0.00382660f, 0.05780905f, 0.04665753f, -0.00473739f, 0.04916712f,
    -0.01338899f, -0.04087116f, 0.00657044f, -0.03108211f, -0.02386794f, 0.05344784f, 0.04402456f, 0.04770238f,
    0.04089440f, -0.06266195f, -0.02943639f, -0.06784947f, -0.01117584f, 0.01674912f, 0.00160167f, 0.06842471f,
    0.02973901f, -0.07298268f, -0.01990414f, 0.05919574f, -0.03579294f, -0.07021491f, 0.01082451f, -0.05107989f,
    -0.05573548f, 0.00318446f, -0.02095367f, -0.04708013f, -0.00551821f, -0.05848224f, 0.05470683f, 0.01978823f,
    -0.04235918f, -0.02600086f, -0.07481855f, -0.03196859f, 0.04075861f, 0.04432357f, 0.08036842f, -0.08022489f,
    -0.03586703f, 0.00188030f, -0.07977445f, -0.00174667f, 0.04031828f, 0.06183250f, 0.03251102f, 0.02863003f,
    -0.02869014f, -0.00563701f, 0.05052074f, 0.04283161f, -0.05583873f, -0.05808465f, 0.05482702f, 0.07701049f,
    0.02457429f, 0.04960065f, -0.00111122f, 0.04599190f, 0.05339047f, 0.00277571f, -0.01363705f, -0.01026985f,
    -0.05304071f, 0.02995675f, 0.00730238f, 0.01859105f, -0.08145654f, 0.07990035f, -0.00880320f, 0.01109648f,
    -0.04958244f, 0.03343247f, -0.05616777f, -0.02851337f, 0.02059313f, -0.07666201f, -0.06134652f, -0.05892654f,
    0.07031190f, -0.02397324f, 0.05757838f, 0.00239932f, 0.07426804f, 0.00918578f, 0.03001614f, -0.04032457f,
    0.08080842f, 0.06951626f, 0.00981108f, -0.00963387f, 0.07784159f, -0.03987811f, -0.01245441f, 0.01845746f,
    0.04523527f, 0.02707587f, -0.04094044f, -0.02302887f, -0.06695089f, 0.01114544f, -0.03300711f, 0.04817035f,
    -0.07105418f, 0.05597979f, 0.01827569f, 0.02027996f, 0.01574365f, -0.00181502f, 0.01717087f, -0.06603108f,
    0.04828370f, 0.07883701f, 0.02015678f, 0.02138758f, 0.06780604f, 0.03373068f, 0.04146174f, 0.00935713f,
    0.02245751f, -0.01150884f, -0.00676191f, -0.02435998f, -0.04448944f, 0.07782029f, 0.06557770f, -0.00352308f,
    0.01612092f, -0.01198536f, 0.07799400f, 0.00198858f, 0.06885932f, -0.07496915f, -0.03807976f, -0.01166350f,
    -0.02210329f, 0.05829678f, 0.03027611f, -0.04469023f, 0.00010189f, -0.01113515f, 0.06508293f, -0.03196752f,
    0.05042619f, 0.07518817f, 0.07808348f, -0.00226165f, -0.02748007f, -0.05537890f, -0.07215721f, 0.07877824f,
    0.01546907f, 0.03649946f, 0.07345614f, -0.07029846f, 0.03280460f, -0.06379726f, -0.06104166f, 0.05400110f,
    0.04381247f, 0.02810878f, -0.03943770f, -0.08081217f, 0.01552524f, 0.06549280f, 0.05007147f, 0.05928221f,
    0.07535662f, -0.01681059f, -0.01009694f, 0.04828140f, 0.03478083f, -0.03239582f, 0.03232979f, -0.06158775f,
    0.04798571f, -0.00510019f, 0.04692190f, 0.06661705f, -0.06083755f, 0.05084875f, 0.06793779f, -0.01086048f,
    0.06277308f, 0.05211069f, 0.07681882f, 0.04526272f, -0.00960338f, -0.06733773f, 0.00848005f, 0.05559173f,
    -0.06018727f, 0.06063613f, -0.00083952f, 0.00301757f, -0.01676162f, -0.02397858f, -0.02314938f, 0.02082983f,
    0.01125316f, 0.06897413f, 0.00396185f, 0.01179831f, 0.05552281f, -0.07613548f, 0.03855301f, 0.03140174f,
    0.05237257f, 0.03106295f, 0.01582842f, 0.05208183f, 0.06195414f, -0.03066166f, 0.03611142f, 0.07112142f,
    -0.07935303f, 0.03815988f, -0.02438834f, 0.05135713f, -0.03602871f, -0.06015436f, 0.01552613f, 0.00928215f,
    0.07891690f, 0.03675655f, 0.02750965f, 0.05107092f, 0.02465905f, -0.03587740f, 0.07371935f, 0.01653903f,
    0.03011701f, 0.01082385f, -0.06987089f, 0.07850036f, -0.07984610f, -0.02191872f, 0.03719204f, -0.07913768f,
    0.03579332f, 0.04654848f, -0.01169829f, -0.02818970f, -0.03181229f, 0.01893009f, -0.06863281f, 0.06922527f,
    0.06423344f, -0.01564349f, -0.00211473f, -0.01761995f, 0.06376238f, 0.02349430f, -0.03490697f, -0.01595729f,
    -0.03374052f, 0.06744351f, -0.02425310f, 0.03554418f, -0.00342498f, 0.04951408f, 0.04239399f, 0.06307843f,
    0.06122723f, -0.00808119f, 0.07060955f, -0.04801770f, -0.07104124f, -0.03644614f, -0.04606855f, -0.04333112f,
    0.05273400f, -0.06538304f, -0.06417302f, -0.06924324f, 0.06347790f, -0.03961048f, 0.01451754f, -0.04696016f,
    0.01378501f, -0.04273555f, 0.05396987f, -0.07889206f, -0.04418571f, 0.02549925f, 0.05813552f, 0.03910559f,
    -0.01296804f, 0.06859433f, -0.05511962f, 0.05311389f, -0.03718691f, -0.04293731f, -0.01434857f, 0.05050108f,
    0.01203546f, -0.04254288f, 0.03641230f, 0.07647218f, 0.03362545f, -0.00291403f, -0.01141021f, 0.04648941f,
    -0.06782126f, 0.02198360f, -0.02018529f, 0.02102020f, -0.04312955f, -0.02502593f, -0.05990630f, -0.06926502f,
    -0.01894451f, 0.01927255f, -0.00597918f, -0.03542089f, 0.02952392f, -0.05187874f, -0.07101078f, -0.04633614f,
    -0.04736266f, -0.03391375f, -0.05740695f, 0.07887734f, 0.01440829f, 0.01771462f, -0.00903743f, -0.02017147f,
    -0.01097945f, -0.03738894f, 0.06598812f, -0.03492309f, -0.05708232f, 0.01574843f, -0.06244579f, -0.04640656f,
    -0.02322396f, -0.07950957f, 0.04079296f, 0.01061869f, -0.03779718f, -0.00917493f, -0.05785470f, 0.06390192f,
    -0.00477381f, 0.03326181f, 0.02828078f, -0.02170230f, -0.00382384f, 0.00941260f, 0.01696116f, -0.06614472f,
    -0.05606638f, -0.06996708f, -0.04152115f, 0.04502264f, -0.06294119f, -0.01840419f, 0.06196560f, -0.02496456f,
    -0.06689393f, -0.06993581f, -0.00269110f, -0.03601917f, -0.05809036f, 0.00908470f, 0.01128669f, -0.03612540f,
    0.00641252f, 0.08084838f, 0.03365222f, 0.03755450f, 0.07128035f, -0.07482356f, -0.01566138f, 0.07842536f,
    -0.01095488f, -0.06854217f, 0.03442182f, 0.06069218f, 0.06772288f, -0.04897290f, -0.03029710f, 0.07140245f,
    -0.02945921f, -0.05774191f, -0.00206342f, -0.00342958f, 0.05525247f, -0.05043509f, -0.05335129f, 0.04296520f,
    0.07197225f, -0.05274086f, 0.03309378f, 0.06712413f, -0.02159234f, -0.05662477f, 0.03052918f, 0.02460697f,
    -0.05716646f, 0.00128391f, 0.07236043f, -0.00631890f, 0.03930900f, -0.04051644f, 0.01307993f, -0.07330242f,
    0.01907244f, 0.07130777f, 0.07309794f, -0.01954838f, 0.06647851f, -0.00858062f, 0.07242457f, 0.04184539f,
    -0.07642425f, 0.03428029f, 0.02622480f, 0.07339510f, -0.06081185f, 0.01920738f, 0.02780028f, 0.03946558f,
    0.07875906f, -0.03460885f, -0.01076937f, -0.00024470f, -0.03384228f, 0.03996045f, 0.01271114f, 0.02476251f,
    0.00220382f, -0.05336633f, 0.05154380f, 0.00456360f, -0.04664274f, -0.08130153f, 0.02828275f, 0.01446297f,
    0.07397921f, 0.04897390f, -0.01408038f, -0.05672046f, -0.03020760f, -0.07063635f, -0.03733270f, 0.04425981f,
    0.01848073f, 0.02655732f, -0.00646401f, -0.00992864f, 0.01576919f, 0.04771229f, -0.03751551f, 0.01031258f,
    0.00032403f, 0.04981254f, 0.00005775f, -0.03911855f, -0.03229539f, 0.06960265f, 0.03348747f, 0.07242509f,
    -0.01570893f, -0.05341903f, -0.06035072f, 0.05045920f, -0.04697548f, -0.00212176f, -0.06978609f, -0.07301162f,
    -0.01626678f, -0.01416769f, -0.07553755f, -0.01095397f, -0.02490403f, -0.07764441f, -0.00052072f, -0.03878630f,
    -0.05190733f, 0.01816020f, -0.00349386f, -0.00294750f, 0.02892020f, 0.01421998f, 0.06766303f, -0.07248785f,
    -0.04470452f, 0.00351012f, 0.00274520f, -0.06912301f, 0.06441291f, 0.01280552f, 0.00837974f, -0.06225802f,
    0.04125753f, 0.02701732f, 0.03382294f, 0.00617045f, 0.00802438f, 0.01486062f, 0.03292604f, -0.03922343f,
    0.00208319f, -0.07521441f, 0.06452216f, 0.04309516f, -0.06808786f, 0.00354431f, 0.06178174f, 0.02786030f,
    -0.01175972f, -0.01520516f, -0.04620977f, -0.05388002f, -0.07172713f, -0.03129161f, 0.06593747f, 0.03919528f,
    0.02688963f, -0.05537051f, 0.01975073f, -0.07813466f, -0.05623461f, -0.05632475f, -0.04638085f, 0.08063840f,
    -0.03306434f, 0.02749429f, 0.07638136f, 0.02616268f, 0.03913242f, -0.03623968f, -0.05599713f, 0.02405002f,
    0.01480546f, -0.06667428f, -0.01063619f, 0.02003542f, 0.07547709f, 0.00726184f, -0.01784780f, -0.07361279f,
    -0.02221594f, -0.03080040f, 0.01358595f, -0.01532524f, 0.03230483f, 0.05176453f, -0.07968853f, -0.03388807f,
    -0.07304092f, 0.02504162f, -0.06618309f, -0.07348674f, 0.06633805f, -0.06011489f, -0.03799746f, 0.06692337f,
    -0.08079382f, -0.05159437f, 0.01552070f, -0.06170156f, 0.03283216f, 0.00508513f, -0.04517483f, -0.03631764f,
    0.06078756f, 0.02087187f, -0.06047471f, 0.05461054f, -0.05838757f, -0.03094737f, 0.04351150f, 0.05140755f,
    -0.06729737f, -0.04236309f, -0.03365334f, 0.01528984f, -0.04367530f, -0.01227503f, 0.03167775f, 0.07006256f,
    -0.02204480f, -0.04171219f, -0.06276237f, 0.00213002f, -0.05229864f, -0.05228307f, 0.00287355f, 0.01036053f,
    -0.05911546f, 0.06065776f, 0.00119522f, 0.01110305f, 0.07816651f, -0.07954499f, -0.07782497f, -0.08122918f,
    0.06445151f, -0.04159478f, 0.06837759f, 0.01381219f, 0.00338715f, 0.00961554f, 0.00268673f, -0.04352111f,
    0.00717842f, 0.01101826f, -0.07320057f, 0.04475627f, 0.03959047f, -0.05306146f, 0.07051229f, 0.00036923f,
    0.04111587f, -0.06166282f, -0.06286529f, 0.06592677f, 0.01975837f, -0.05585624f, -0.06422193f, -0.00101447f,
    0.06933665f, 0.01939345f, 0.08137160f, 0.04110035f, 0.08150524f, -0.04689245f, -0.04107872f, 0.07167613f,
    0.00606214f, 0.07178806f, 0.02729925f, 0.04477970f, -0.02681800f, -0.06432571f, 0.02603761f, 0.00654469f,
    0.04638495f, -0.00761813f, -0.03196472f, 0.02890240f, -0.05603024f, -0.06171077f, -0.05359485f, 0.03965908f,
    0.00662109f, 0.01197554f, 0.07662565f, 0.00494862f, -0.00533032f, -0.03544296f, -0.03022807f, -0.05565850f,
    -0.02976717f, -0.02712732f, -0.00559452f, 0.00580552f, 0.02517693f, -0.02509103f, -0.06696614f, -0.01631703f,
    -0.03295312f, -0.07318304f, 0.05677808f, 0.02138430f, -0.03161069f, -0.02112036f, -0.02311313f, 0.01326545f,
    -0.05977856f, -0.01774170f, -0.05651349f, -0.03994478f, 0.00905945f, -0.05970476f, 0.05953391f, 0.06367136f,
    -0.06804999f, 0.04006458f, -0.02896970f, 0.01900537f, -0.04995610f, -0.00536729f, 0.05119442f, 0.06466978f,
    0.02731200f, -0.02767057f, -0.03468248f, -0.06018467f, 0.05429766f, -0.01766841f, -0.02998217f, 0.01394591f,
    0.05201180f, -0.06453088f, 0.00124372f, -0.07542284f, -0.01661388f, 0.01016892f, -0.06230621f, 0.02862152f,
    -0.00165296f, 0.04817748f, 0.06579939f, -0.03032664f, -0.06165823f, 0.01490283f, 0.03258824f, 0.03275543f,
    0.00939613f, 0.00667404f, -0.00736218f, 0.04550951f, 0.06165279f, 0.00066066f, -0.01105104f, 0.06023488f,
    0.02720429f, 0.03906541f, -0.01053788f, 0.00455163f, 0.05513655f, 0.02987911f, -0.07857758f, 0.04571515f,
    0.04188992f, -0.06512404f, -0.01723600f, -0.07202610f, -0.00145377f, 0.01445896f, 0.00833291f, 0.04651543f,
    -0.06360824f, 0.03360662f, -0.07842405f, -0.07363786f, 0.07156829f, -0.02062979f, 0.05021388f, 0.05412812f,
    -0.03124136f, -0.06970495f, -0.01676107f, 0.01359561f, 0.05422397f, -0.07435187f, -0.00970294f, -0.01077435f,
    0.06658468f, -0.00027186f, 0.02178960f, 0.07498318f, -0.04671737f, 0.04233381f, -0.07970195f, -0.06070649f,
    -0.07014086f, -0.07670606f, 0.00340190f, 0.04588977f, 0.05810237f, 0.07421413f, -0.04535438f, 0.04587974f,
    0.02557447f, 0.07122076f, -0.07917420f, 0.03426655f, -0.03375672f, -0.07159053f, 0.04756347f, -0.03650960f,
    0.03939953f, -0.02791776f, 0.08078790f, -0.01834668f, -0.00875978f, 0.05345977f, 0.01393764f, 0.00727488f,
    -0.04549076f, -0.01055142f, -0.06738786f, 0.04699245f, -0.02932038f, -0.06815867f, -0.02246384f, -0.00869232f,
    0.07441927f, 0.05736252f, 0.01842801f, 0.01188579f, 0.05182923f, 0.04959909f, -0.07077430f, -0.03742449f,
    -0.02862445f, -0.03447180f, 0.01602846f, 0.02986906f, 0.02846433f, -0.05043328f, 0.01841119f, -0.02634915f,
    -0.04640424f, -0.00735127f, 0.03268638f, 0.07607888f, -0.05401158f, -0.01238627f, 0.05306221f, -0.05491886f,
    0.05784221f, 0.03304367f, -0.00805309f, 0.01614148f, -0.00362298f, -0.02095166f, -0.05575457f, -0.05951403f,
    0.02631741f, -0.02833723f, 0.05680404f, -0.05124707f, 0.07647212f, -0.05109231f, -0.00359566f, -0.02985453f,
    -0.04094394f, 0.04374381f, -0.00027492f, -0.03964506f, 0.07371378f, 0.00347193f, 0.04158084f, 0.00568505f,
    -0.01309372f, -0.02448397f, -0.00404061f, -0.05504210f, 0.00651947f, 0.03770424f, 0.03687418f, -0.05370560f,
    0.04852242f, 0.06787901f, 0.02945029f, -0.05203160f, -0.04584653f, 0.00814767f, 0.04214316f, -0.04329163f,
    -0.05250109f, -0.05989494f, -0.01155200f, 0.01128616f, -0.03608685f, 0.00308829f, -0.04053589f, -0.01619126f,
    -0.06631003f, 0.00439895f, -0.07109613f, 0.03961016f, 0.06738890f, 0.02417058f, 0.07429142f, 0.07615495f,
    0.07294853f, 0.03842009f, -0.01913016f, 0.04481048f, 0.07114839f, -0.06743892f, 0.02058293f, -0.04610953f,
    0.01956603f, -0.03556086f, 0.04426723f, -0.03997307f, -0.02426748f, 0.02810580f, -0.04924070f, 0.01983817f,
    -0.04969903f, -0.05215688f, -0.08064796f, -0.05932452f, 0.00192042f, -0.02188541f, 0.00406245f, 0.00752156f,
    -0.07616550f, -0.07880415f, 0.06517120f, 0.03924047f, -0.02869080f, 0.05209574f, 0.02943305f, -0.07365677f,
    -0.00643530f, -0.01072768f, -0.03295793f, 0.07338496f, -0.00203047f, -0.04329347f, -0.06853364f, 0.04478658f,
    0.05467995f, 0.06512938f, 0.04961565f, -0.07412028f, -0.04507949f, -0.04412114f, -0.01380852f, 0.04441227f,
    -0.02985840f, -0.00322548f, 0.00828417f, -0.00829505f, -0.05683331f, -0.06720576f, -0.04053036f, 0.00844064f,
    -0.06947578f, 0.05446430f, -0.01740258f, -0.07375508f, -0.04214129f, 0.01766915f, 0.06557859f, 0.02616511f,
    -0.00320704f, 0.06482422f, -0.02467204f, -0.07174455f, -0.05854074f, -0.00448137f, -0.04782040f, -0.02391220f,
    0.00005123f, -0.06788038f, 0.00669449f, -0.01121170f, 0.06198647f, 0.00997253f, 0.08115881f, -0.02605042f,
    0.05477198f, 0.07984991f, 0.01569708f, 0.06357703f, 0.06047848f, 0.05905198f, 0.00158822f, 0.03838630f,
    0.01002003f, -0.07851090f, -0.02741112f, 0.04598788f, 0.02417783f, -0.03009330f, -0.05793930f, -0.00931606f,
    -0.07015426f, -0.00007577f, -0.04399291f, -0.00656104f, 0.05216658f, -0.01702113f, 0.06312934f, -0.02303741f,
    -0.07226566f, 0.04853953f, 0.04141185f, -0.06598032f, 0.07708110f, 0.05460521f, 0.05187538f, 0.06439928f,
    -0.01338229f, -0.07985853f, 0.01405372f, 0.00506526f, 0.00405497f, -0.07314895f, 0.05850612f, 0.02869323f,
    -0.00816158f, -0.00489566f, -0.07754141f, 0.01567451f, -0.02274251f, 0.04703388f, -0.05114682f, 0.05760466f,
    -0.07056302f, 0.03312952f, 0.03176273f, -0.01550294f, 0.03175367f, 0.04964637f, -0.07578102f, -0.06977201f,
    0.06266207f, 0.02641688f, -0.04429778f, 0.05298980f, 0.02547279f, 0.01079016f, 0.02708575f, -0.07639610f,
    -0.02427994f, 0.02309230f, -0.00975094f, -0.04695477f, -0.02479073f, -0.06163203f, 0.04590022f, -0.00535948f,
    -0.01580456f, 0.07819336f, 0.03304591f, 0.07403505f, 0.07195202f, 0.00895675f, 0.05917784f, 0.05971977f,
    -0.03735655f, 0.07894025f, -0.06606716f, -0.05244654f, 0.02437025f, 0.01867004f, 0.02104523f, -0.02295210f,
    0.04349029f, 0.08099087f, -0.07426253f, -0.07831089f, 0.05222534f, 0.01902197f, -0.00532459f, -0.02733096f,
    -0.02980907f, 0.00264069f, -0.03882518f, -0.03367640f, 0.08098614f, -0.05863876f, -0.04179559f, 0.00129365f,
    -0.03816303f, -0.06690127f, -0.03590697f, -0.05349663f, -0.00583030f, -0.00260343f, 0.01468282f, -0.05208122f,
    0.00703059f, -0.02752990f, -0.07779711f, 0.04694233f, -0.04081094f, -0.03064586f, 0.00416970f, 0.01171654f,
    0.03946498f, 0.05263001f, 0.02005238f, -0.05950458f, -0.01376537f, -0.02142268f, -0.07673882f, -0.06344471f,
    -0.00458831f, -0.06016121f, 0.06683319f, 0.07792948f, -0.05629442f, -0.02741113f, 0.04420507f, 0.00737339f,
    -0.06524017f, -0.07336212f, -0.01174614f, 0.01141610f, 0.04024417f, -0.02211942f, -0.04398805f, 0.06243459f,
    -0.00537625f, 0.02286935f, -0.01704190f, 0.01287098f, -0.04883511f, 0.05435688f, 0.00750203f, -0.04754695f,
    -0.07871278f, -0.03239168f, 0.06142597f, 0.04949033f, -0.07061088f, 0.01573497f, -0.06740055f, -0.03510414f,
    -0.00643443f, -0.05200154f, 0.04961981f, 0.05732484f, 0.06969132f, 0.05271199f, -0.01826352f, 0.01374226f,
    -0.06406838f, -0.03071520f, 0.04841472f, 0.01032741f, -0.03552204f, -0.02592709f, 0.02506064f, -0.03358790f,
    -0.04109227f, -0.07859765f, 0.03645069f, -0.03378209f, -0.06067361f, -0.02203910f, -0.06291949f, -0.03229403f,
    0.07161594f, 0.05930636f, 0.02148831f, -0.04551354f, 0.02906838f, 0.03652997f, 0.01336370f, -0.06083116f,
    -0.07691281f, -0.06598925f, -0.05798645f, 0.04003504f, 0.03497303f, 0.05442401f, 0.02409031f, 0.08134013f,
    -0.06762911f, 0.04922792f, -0.06075653f, 0.04337057f, 0.05137395f, -0.00313598f, 0.00227558f, 0.06935766f,
    -0.06460619f, 0.00904527f, 0.00273987f, -0.07359686f, 0.02259477f, -0.02396548f, -0.06386001f, -0.01013414f,
    -0.02187030f, -0.08028152f, -0.00006895f, 0.01175806f, -0.06322467f, 0.04088879f, 0.04106406f, 0.04348053f,
    0.05635931f, -0.02848933f, -0.01187972f, 0.07835589f, -0.05610866f, -0.04043914f, -0.01041719f, -0.05171473f,
    -0.04200106f, 0.04416032f, -0.00631611f, -0.02670993f, -0.06588645f, 0.01738638f, 0.06060388f, -0.03773531f,
    -0.01900314f, 0.02582892f, -0.06203489f, -0.07696250f, 0.01844163f, -0.05894928f, 0.00737239f, 0.05176845f,
    0.06478810f, -0.02176771f, -0.07981266f, -0.04700857f, 0.03848256f, 0.01320112f, -0.05239321f, 0.01845398f,
    -0.06091041f, 0.03297617f, -0.06329728f, -0.07716641f, -0.04148439f, 0.05664663f, 0.04524408f, -0.01210946f,
    -0.04963433f, -0.04527904f, 0.06626200f, -0.03237575f, -0.01634890f, -0.02070735f, 0.01706877f, -0.03182184f,
    0.07521868f, -0.08157399f, -0.04840081f, 0.00510536f, 0.03790546f, 0.07880642f, -0.08100510f, 0.06679223f,
    -0.05418896f, 0.01592779f, -0.06077074f, 0.00629292f, 0.06640528f, -0.06396132f, -0.02295477f, -0.04401394f,
    -0.07501701f, 0.05051747f, -0.01953465f, 0.06693040f, 0.00312866f, 0.00450541f, -0.02085900f, 0.06906027f,
    0.06121401f, 0.06791363f, -0.00386831f, -0.03036300f, 0.03889557f, 0.01691250f, 0.00742608f, -0.07446203f,
    -0.00823939f, 0.07796802f, 0.06446831f, 0.00317327f, 0.07045907f, -0.01413348f, -0.02621915f, -0.05515049f,
    -0.02103261f, 0.00793785f, 0.02645869f, 0.00683243f, 0.06371428f, -0.07907544f, 0.02055372f, -0.03335892f,
    -0.01799397f, -0.05942500f, 0.08030228f, -0.00729388f, 0.00449182f, -0.05212335f, -0.00018201f, -0.03590649f,
    -0.05664803f, -0.00963418f, 0.01416274f, 0.06808808f, -0.05044524f, 0.07136998f, -0.02953049f, -0.01146433f,
    -0.03628327f, 0.06017690f, -0.06118399f, -0.06075221f, 0.05428670f, -0.00963480f, -0.03583360f, -0.02231365f,
    -0.00006198f, 0.01374028f, 0.01153705f, -0.00220110f, 0.05727254f, 0.05053596f, -0.04057128f, 0.00089569f,
    -0.06378266f, -0.05594903f, 0.01013972f, 0.01886157f, 0.05384683f, 0.00365124f, -0.03390931f, 0.01009575f,
    0.04797779f, 0.04485694f, 0.04673287f, -0.05561216f, -0.05071007f, 0.06443690f, 0.06202245f, 0.04826127f,
    -0.06940823f, 0.06026036f, 0.03781157f, 0.02411881f, 0.01179059f, 0.02266758f, -0.06175604f, -0.02239379f,
    -0.06582957f, 0.00442704f, 0.05602698f, 0.00078036f, -0.00766353f, -0.00312614f, -0.05889015f, -0.06940706f,
    0.01445799f, 0.03778862f, -0.02079395f, -0.05566004f, 0.02754329f, 0.06390777f, -0.01491667f, -0.05976848f,
    -0.05276567f, 0.04318016f, -0.08136845f, -0.04205694f, 0.02203338f, -0.05724799f, -0.02412802f, -0.00382022f,
    -0.03700586f, 0.01396591f, 0.01705054f, -0.03488910f, -0.07903753f, -0.05486959f, -0.02334477f, 0.01998078f,
    0.01213225f, 0.07398727f, -0.02446917f, 0.04914202f, 0.03416413f, 0.01031940f, 0.01194717f, -0.06774305f,
    0.02537634f, 0.03659843f, 0.05473810f, 0.06486874f, -0.03871198f, 0.01845386f, -0.02821768f, 0.05043069f,
    -0.00866503f, -0.02727893f, -0.01930240f, 0.07794373f, 0.07478419f, 0.06022366f, 0.07006040f, 0.07677328f,
    0.05704884f, 0.04102072f, -0.02836144f, -0.00474268f, -0.02997605f, 0.01053653f, 0.07406884f, -0.01588686f,
    0.03159251f, -0.06536546f, 0.00462616f, 0.05173850f, -0.00977360f, -0.00746880f, 0.00779959f, -0.07593834f,
    -0.05305796f, -0.00467972f, -0.05862338f, 0.03669981f, 0.00381811f, 0.03210066f, -0.05773445f, -0.01040480f,
    -0.00081501f, 0.04957208f, 0.04196295f, 0.03175713f, 0.05314407f, 0.03210228f, -0.07231227f, -0.01459176f,
    0.05825375f, 0.07637215f, 0.06289002f, 0.03550239f, 0.01078183f, 0.02346007f, -0.00710658f, -0.06125859f,
    -0.01118765f, 0.01026127f, 0.00190231f, -0.08019054f, 0.06562374f, -0.01851797f, 0.02152408f, 0.06757782f,
    0.07900658f, -0.03715787f, 0.07255161f, 0.05391828f, -0.00278699f, -0.04492291f, 0.06246299f, 0.00828737f,
    0.05188239f, 0.05331792f, 0.06459291f, -0.06323055f, -0.05737632f, -0.00565216f, -0.02433939f, 0.07889777f,
    0.06949861f, 0.05247612f, -0.06062678f, -0.07556550f, -0.04490482f, -0.02243213f, -0.03833581f, -0.02589116f,
    -0.01594848f, -0.07192792f, 0.03454399f, -0.04565440f, -0.05536965f, -0.00312174f, 0.05845649f, 0.07467113f,
    0.06875143f, 0.07015557f, 0.03264632f, -0.04468263f, -0.07209450f, 0.01821602f, -0.03084576f, 0.01436001f,
    -0.07851214f, -0.00613873f, -0.01991273f, 0.04047471f, 0.01454687f, 0.02998607f, -0.02586153f, -0.00725407f,
    -0.01488592f, 0.08046485f, 0.00408143f, 0.01669710f, 0.02618162f, -0.02792121f, -0.07320820f, 0.06575213f,
    -0.07550859f, -0.02489515f, -0.02843916f, 0.05661520f, -0.01996183f, -0.00685311f, -0.07898916f, -0.07152887f,
    0.01290499f, 0.04186672f, 0.07275282f, -0.01137127f, -0.04227530f, 0.03693512f, 0.03272350f, -0.05871148f,
    -0.00043514f, -0.00532962f, -0.01788542f, -0.04729979f, -0.04513003f, -0.01423142f, 0.05552073f, 0.03346913f,
    0.03809049f, 0.01394910f, 0.00427791f, -0.06750882f, -0.00592021f, 0.02527633f, -0.04281423f, -0.01162657f,
    0.00761175f, 0.06691572f, -0.06293615f, 0.00317742f, 0.01656673f, -0.03042871f, -0.00290696f, 0.02991598f,
    -0.02691155f, -0.03927481f, 0.03147914f, 0.04501553f, -0.05322943f, 0.00934517f, -0.04479175f, 0.00695901f,
    -0.02656812f, 0.01870753f, 0.06107558f, -0.03364222f, 0.03701236f, -0.03884727f, -0.06729306f, -0.04294351f,
    0.03953349f, 0.06792749f, 0.06806441f, 0.00453990f, -0.07163665f, -0.03923939f, 0.04426406f, 0.03043957f,
    -0.06582303f, -0.02244883f, -0.00857163f, -0.06727968f, -0.06867832f, -0.00762839f, 0.05354623f, -0.01279520f,
    -0.04565575f, -0.00673785f, 0.06297635f, 0.00356414f, 0.06033902f, 0.06976917f, -0.04667560f, 0.05230066f,
    -0.02476622f, -0.03167260f, 0.04040553f, -0.05327144f, 0.02389483f, -0.06920182f, -0.03437013f, -0.02562660f,
    0.07597877f, -0.05102699f, -0.05084523f, -0.06751845f, 0.01053345f, -0.07323439f, -0.07652982f, 0.04651081f,
    -0.08075448f, -0.00066841f, 0.01301440f, -0.06354529f, -0.00079578f, -0.03873575f, 0.06657004f, -0.07542876f,
    0.04604822f, -0.07731470f, 0.05226402f, 0.07548587f, 0.08045280f, 0.05904567f, -0.05266298f, 0.02542263f,
    0.01779540f, -0.06812553f, 0.07681006f, 0.02953640f, 0.01800877f, -0.04361996f, 0.06690922f, 0.03839757f,
    -0.00365142f, 0.06785915f, -0.06232740f, 0.00798577f, -0.03995218f, 0.01988593f, 0.07793696f, -0.02597322f,
    0.05557590f, 0.05302061f, 0.07894009f, -0.04325846f, -0.03257918f, -0.01955172f, -0.02073172f, 0.08026993f,
    0.05687645f, -0.02450950f, -0.01481834f, -0.05305897f, -0.03795710f, -0.06949765f, 0.06074196f, 0.06938092f,
    -0.00260758f, 0.06838705f, 0.02658001f, 0.05472764f, 0.04754457f, 0.07166481f, -0.06921778f, -0.05600346f,
    0.04942153f, -0.03202562f, 0.01828053f, 0.05547626f, 0.06381667f, -0.05048996f, 0.07127156f, 0.03140503f,
    0.08057187f, 0.07206336f, 0.04870879f, 0.02007876f, 0.01787783f, 0.02671271f, 0.04941508f, 0.07872047f,
    -0.06210553f, -0.07135046f, -0.05067530f, -0.02943870f, -0.05137151f, 0.00140990f, 0.04310159f, -0.03969702f,
    0.08136031f, 0.00367818f, 0.06277616f, 0.00305079f, 0.04071574f, -0.02098145f, 0.01658362f, 0.00698515f,
    0.07812427f, 0.07058394f, 0.03606779f, 0.06778108f, 0.00466838f, -0.07682045f, -0.07163070f, 0.00846280f,
    -0.03659688f, -0.03143981f, 0.07596061f, -0.03198822f, 0.02317626f, -0.03502168f, -0.02297920f, 0.06258965f,
    0.07487179f, -0.04077303f, -0.04996325f, -0.05099515f, 0.05517638f, 0.01039395f, -0.02856597f, 0.02641127f,
    0.05243632f, -0.01429175f, 0.03889719f, 0.07595774f, 0.03542581f, -0.06781281f, 0.00005117f, -0.07847825f,
    0.04379450f, 0.06571422f, 0.03197348f, 0.05157110f, 0.01070980f, 0.01976297f, 0.02350421f, 0.02514536f,
    -0.01806935f, 0.02809122f, 0.06893794f, 0.04950308f, -0.00589610f, 0.01748977f, -0.07594379f, 0.03511861f,
    -0.07255370f, 0.06741685f, -0.08106637f, 0.05630401f, -0.04998865f, -0.01647312f, -0.01134562f, -0.01265805f,
    -0.00151851f, -0.02756916f, -0.02980152f, 0.07317247f, 0.06682736f, -0.03326672f, -0.00855141f, 0.02526727f,
    0.08064087f, 0.07872810f, 0.04542793f, 0.07974128f, -0.03535929f, 0.04626156f, -0.06818115f, -0.06485881f,
    0.02750106f, -0.07725252f, 0.05231802f, 0.00939364f, 0.02186040f, 0.06722329f, -0.05151499f, -0.01680986f,
    -0.05440995f, -0.03246682f, -0.02362070f, -0.00972783f, 0.04081126f, -0.02359462f, -0.08060940f, -0.03144853f,
    -0.00634799f, -0.06720006f, -0.06137783f, -0.03460507f, -0.07102697f, 0.06049204f, -0.08073536f, 0.00700114f,
    -0.05562202f, -0.07373294f, -0.04616449f, 0.05133240f, -0.08093800f, -0.07204760f, 0.04442462f, 0.02035406f,
    0.02205645f, -0.01167322f, -0.07758814f, 0.06670792f, -0.04400549f, 0.04740306f, 0.01369573f, 0.07176101f,
    -0.05500495f, 0.03006298f, -0.01108603f, 0.01672785f, 0.07383568f, -0.00445487f, 0.05149706f, -0.02049121f,
    -0.07892656f, -0.01244480f, -0.05476979f, -0.06450794f, 0.01214143f, -0.03551874f, 0.02066138f, 0.07644712f,
    0.04726833f, 0.05451145f, -0.04572637f, 0.07156277f, 0.04118212f, 0.05563107f, -0.01371350f, 0.06425567f,
    -0.01679357f, -0.04786535f, -0.04861483f, 0.00496517f, 0.05676645f, -0.03402566f, 0.06019153f, 0.05438461f,
    -0.04673199f, -0.00996339f, 0.00013776f, 0.03890650f, -0.08031229f, 0.07487828f, -0.04853315f, -0.06272449f,
    0.05553534f, -0.00002234f, 0.00485304f, 0.00032027f, -0.06638365f, 0.02492985f, 0.05052910f, -0.07218020f,
    0.00159709f, 0.07652376f, 0.04212677f, 0.03039176f, 0.00416693f, -0.02507835f, -0.03469487f, 0.05673735f,
    -0.02176339f, 0.00274461f, 0.02813643f, 0.02963835f, 0.00801191f, -0.02780411f, 0.04436140f, -0.07308771f,
    0.06329965f, -0.04786498f, -0.05561575f, -0.05365473f, -0.04486395f, -0.02829167f, 0.01406929f, 0.07749977f,
    -0.03010119f, -0.03401993f, 0.06423223f, 0.08130677f, -0.04948135f, -0.05014533f, -0.03937146f, -0.04245391f,
    0.06230905f, -0.01471415f, -0.03689794f, -0.06415423f, 0.05201755f, 0.02446414f, 0.07775749f, -0.02395589f,
    -0.00509875f, -0.02651563f, -0.02790228f, -0.01776399f, 0.00825030f, 0.08017012f, -0.01282702f, -0.07215457f,
    0.00351418f, -0.06490669f, 0.01863131f, 0.00324292f, 0.07357147f, 0.03384686f, 0.01554353f, -0.02058383f,
    -0.07396510f, 0.06996936f, -0.00362079f, -0.02310956f, 0.06881601f, 0.04818150f, 0.03540462f, -0.01718335f,
    0.05114922f, -0.06648466f, 0.04679835f, 0.06752972f, 0.05143576f, -0.03075549f, 0.02722424f, -0.00125761f,
    -0.04115272f, -0.05669834f, 0.05153016f, 0.04711263f, -0.04592914f, 0.05414176f, -0.07150522f, 0.05835061f,
    0.04173964f, -0.02889818f, 0.00940125f, -0.08085110f, 0.03519205f, 0.06284561f, 0.00421260f, 0.04899542f,
    -0.01990636f, 0.07412415f, -0.04394254f, 0.06268498f, -0.06107952f, -0.01532762f, 0.05406669f, -0.06623714f,
    0.07445417f, 0.07254296f, -0.06364204f, 0.01340834f, 0.01382013f, 0.06868410f, -0.06339799f, 0.02898971f,
    -0.04894416f, -0.06954974f, -0.05632446f, -0.06361526f, -0.06409748f, 0.01463834f, -0.08152653f, 0.06557437f,
    -0.00890502f, -0.03183213f, -0.07629461f, -0.07259201f, -0.00963920f, -0.06472844f, -0.03074083f, -0.01429975f,
    -0.04857988f, -0.04505822f, 0.00163673f, -0.07014886f, 0.00887391f, 0.01213586f, 0.00382992f, -0.03097824f,
    0.02342288f, 0.05504583f, 0.01408274f, 0.07803317f, -0.03272711f, 0.03577757f, -0.06381354f, -0.06069463f,
    0.06182551f, 0.07538675f, 0.05359693f, -0.05223071f, 0.03607424f, 0.01408807f, -0.06213527f, 0.00218488f,
    -0.05407737f, -0.06503389f, -0.03718526f, -0.00623509f, 0.00032673f, -0.01006226f, -0.02765051f, 0.01475918f,
    0.07202967f, -0.05150991f, -0.04820486f, 0.04752402f, 0.00740880f, -0.04471456f, 0.07814512f, 0.04699337f,
    0.01415592f, 0.02103463f, 0.01738993f, 0.00047781f, -0.07212294f, -0.02122547f, 0.02566916f, -0.00109502f,
    -0.01480236f, -0.08157929f, -0.04862694f, 0.00966677f, -0.02846192f, -0.03703818f, 0.03477914f, 0.05907736f,
    -0.06933162f, 0.00803198f, -0.00719442f, -0.07360523f, -0.02537521f, 0.01840495f, 0.02262197f, 0.04197414f,
    0.06475983f, 0.07576027f, -0.07411475f, -0.06794859f, -0.02282792f, 0.05712117f, 0.07150397f, -0.00662837f,
    -0.08143571f, -0.01337315f, -0.07345586f, -0.04268299f, -0.02551160f, 0.02819069f, 0.07820908f, -0.04576797f,
    0.01083754f, -0.03543073f, -0.01693269f, 0.00229078f, -0.07785842f, 0.01939774f, 0.00071824f, 0.07001731f,
    0.01560586f, 0.07562236f, 0.06606241f, -0.02204601f, -0.05815831f, -0.01525632f, -0.01556408f, 0.01364157f,
    -0.01745659f, 0.03121130f, -0.05903453f, 0.07072938f, 0.05231665f, 0.05178064f, 0.00083910f, 0.03050853f,
    -0.01025431f, -0.03860735f, 0.03521539f, 0.03585711f, -0.00881458f, 0.06700367f, -0.07472713f, 0.05117236f,
    0.05567645f, -0.06720608f, 0.02549255f, 0.03926706f, -0.00955290f, -0.03202184f, 0.00997169f, 0.01635587f,
    -0.07192959f, -0.07971924f, -0.01320382f, 0.04150035f, -0.05337881f, 0.04432407f, 0.06546379f, -0.01283924f,
    -0.02397839f, 0.06630234f, 0.01851959f, -0.00961289f, 0.00543103f, 0.01757189f, 0.06150077f, -0.06496882f,
    0.04758955f, -0.02023982f, -0.00263543f, 0.04383432f, 0.06248909f, -0.04547090f, 0.06404174f, 0.03700680f,
    -0.02807341f, -0.03397857f, -0.07437648f, 0.01000128f, -0.04787962f, 0.02050735f, 0.01858138f, 0.01233445f,
    0.01613453f, 0.07091617f, -0.01503993f, -0.07592633f, 0.03923324f, -0.05526581f, 0.06139730f, 0.02803514f,
    0.00608433f, -0.02050436f, 0.00084313f, -0.05703729f, -0.03020854f, -0.01639096f, 0.00053539f, -0.00762003f,
    -0.07338715f, -0.05497885f, 0.00936550f, -0.00537008f, -0.02582121f, -0.06513954f, 0.05724146f, 0.01785834f,
    0.07797785f, -0.04453512f, -0.01538230f, 0.02788706f, 0.00568812f, 0.01311203f, -0.04269925f, -0.01655610f,
    0.06205900f, 0.05053027f, -0.00067456f, 0.02193831f, 0.00825436f, -0.04460264f, 0.03440271f, 0.06307115f,
    -0.03296327f, 0.03096966f, 0.05384835f, -0.02256665f, 0.04059069f, -0.01881016f, -0.03060227f, -0.00314752f,
    -0.02257397f, -0.05382252f, 0.06462094f, -0.06965119f, -0.00572889f, 0.00829745f, -0.05588824f, 0.03353059f,
    -0.07682891f, -0.07343036f, -0.04033792f, 0.04642845f, -0.07889751f, 0.00753158f, -0.00598219f, 0.01927704f,
    -0.03494179f, 0.00031075f, -0.00335742f, 0.03151275f, -0.02983909f, 0.04121759f, -0.01363239f, -0.01469791f,
    -0.03562671f, -0.06845623f, -0.03048921f, -0.00035915f, -0.02065488f, -0.02561523f, 0.05774721f, -0.08051204f,
    -0.04639789f, 0.01973762f, -0.04276270f, -0.02003341f, -0.04389036f, -0.01790962f, -0.06322233f, 0.06506805f,
    -0.02491276f, 0.06908759f, 0.02542422f, -0.00223964f, -0.05746116f, -0.04236341f, -0.00498971f, -0.04374086f,
    -0.06199687f, 0.03397189f, 0.06194083f, 0.07127009f, -0.00674384f, -0.00514683f, 0.06273050f, 0.02866616f,
    0.02755740f, 0.05289657f, 0.04647868f, 0.06228258f, -0.03512806f, -0.01610301f, -0.03298643f, -0.03793278f,
    0.01701888f, -0.03160322f, -0.01788964f, -0.06644750f, 0.04758915f, -0.04320024f, 0.00702635f, 0.02899097f,
    -0.06518167f, -0.06678283f, 0.03668309f, 0.00548249f, -0.00962180f, 0.06002473f, 0.01368879f, 0.03416401f,
    -0.00687093f, 0.04572623f, -0.03750950f, 0.05092454f, 0.01407796f, -0.00807537f, 0.02812843f, 0.01635684f,
    -0.01761789f, -0.01689424f, 0.02674286f, -0.00836794f, 0.01321779f, -0.00252821f, 0.06987233f, 0.02036009f,
    -0.02359018f, 0.07789633f, -0.00609786f, -0.06261040f, 0.03387116f, -0.06751987f, -0.03166065f, 0.04326155f,
    -0.00511669f, -0.02477383f, -0.07104753f, 0.05702996f, -0.03206425f, 0.01951595f, 0.06692490f, 0.06592721f,
    -0.02104220f, 0.04646920f, 0.06330480f, 0.02142425f, -0.04825507f, -0.06560207f, 0.03176320f, 0.05226557f,
    -0.01688763f, -0.04303565f, -0.05507777f, 0.07451912f, -0.06149808f, -0.06702862f, 0.07678119f, -0.00210607f,
    0.00325498f, -0.04630797f, -0.00220643f, -0.00941483f, -0.07688867f, -0.00891111f, -0.04918606f, 0.02686252f,
    -0.07633236f, 0.01303501f, 0.04915277f, 0.01686255f, -0.06599682f, 0.03448915f, 0.02502732f, -0.04285565f,
    0.04281764f, 0.03052615f, 0.05347296f, -0.07723717f, -0.05553237f, -0.01328061f, 0.04976830f, -0.05228838f,
    -0.01077537f, 0.07256503f, 0.04916933f, -0.05236633f, 0.01240625f, 0.05797356f, 0.00443757f, 0.04708211f,
    -0.04094988f, 0.06408972f, 0.00966645f, -0.06499831f, -0.05072780f, 0.03496838f, 0.03061177f, 0.07515705f,
    -0.05509986f, 0.05828587f, 0.06517010f, 0.04419057f, 0.08007293f, 0.08113357f, 0.03235696f, 0.05322095f,
    0.00455936f, -0.03197921f, -0.05194637f, 0.03455436f, -0.03934066f, 0.03635785f, 0.00965627f, 0.06682083f,
    0.03521353f, 0.01848331f, -0.03635171f, -0.00564168f, -0.07419834f, 0.04500840f, 0.02256053f, 0.07186030f,
    0.00753524f, -0.02613135f, -0.06837540f, 0.04840608f, -0.00930661f, -0.07780986f, 0.06551270f, 0.00911066f,
    -0.00372444f, 0.07481907f, -0.05532648f, 0.00354171f, 0.05446108f, -0.06726891f, -0.07842431f, -0.01886676f,
    -0.02942565f, -0.01916022f, 0.06491649f, -0.04204337f, 0.05233397f, -0.01162166f, -0.03934944f, 0.05312885f,
};

// Shape: (16,), dtype: float32
static const float stem_bn_gamma[16] = {
    1.00000000f, 1.00000000f, 1.00000000f, 1.00000000f, 1.00000000f, 1.00000000f, 1.00000000f, 1.00000000f,
    1.00000000f, 1.00000000f, 1.00000000f, 1.00000000f, 1.00000000f, 1.00000000f, 1.00000000f, 1.00000000f,
};

// Shape: (16,), dtype: float32
static const float stem_bn_beta[16] = {
    0.00000000f, 0.00000000f, 0.00000000f, 0.00000000f, 0.00000000f, 0.00000000f, 0.00000000f, 0.00000000f,
    0.00000000f, 0.00000000f, 0.00000000f, 0.00000000f, 0.00000000f, 0.00000000f, 0.00000000f, 0.00000000f,
};

// Shape: (16,), dtype: float32
static const float stem_bn_mean[16] = {
    0.00000000f, 0.00000000f, 0.00000000f, 0.00000000f, 0.00000000f, 0.00000000f, 0.00000000f, 0.00000000f,
    0.00000000f, 0.00000000f, 0.00000000f, 0.00000000f, 0.00000000f, 0.00000000f, 0.00000000f, 0.00000000f,
};

// Shape: (16,), dtype: float32
static const float stem_bn_var[16] = {
    1.00000000f, 1.00000000f, 1.00000000f, 1.00000000f, 1.00000000f, 1.00000000f, 1.00000000f, 1.00000000f,
    1.00000000f, 1.00000000f, 1.00000000f, 1.00000000f, 1.00000000f, 1.00000000f, 1.00000000f, 1.00000000f,
};

// Shape: (3, 3, 16, 16), dtype: float32
static const float stage0_block0_conv1_weight[2304] = {
    -0.04061898f, -0.00533372f, 0.06784874f, 0.02300947f, 0.06538197f, 0.04510087f, -0.02866599f, -0.05801887f,
    0.00121966f, 0.07802862f, 0.02108420f, -0.03395031f, -0.02824239f, -0.06714638f, 0.03650558f, 0.05414367f,
    0.05976462f, -0.06074464f, 0.00282546f, 0.02833613f, -0.06237755f, -0.02663847f, -0.06433420f, 0.00198780f,
    0.07890451f, 0.06953796f, -0.02513273f, -0.06272875f, -0.07075902f, 0.06799683f, -0.02863032f, -0.02375598f,
    0.01026098f, -0.03997725f, -0.07299041f, -0.02505425f, 0.03510138f, 0.04971358f, 0.03255380f, 0.04892633f,
    -0.01490260f, 0.05067099f, -0.04658704f, -0.05685283f, 0.01717198f, 0.08084475f, -0.01582924f, -0.06908968f,
    0.01971411f, -0.02195665f, -0.07483155f, -0.03668165f, 0.00779083f, -0.01380688f, 0.03700338f, -0.07489335f,
    -0.00740458f, 0.01623341f, -0.05851315f, -0.07743680f, 0.05140636f, -0.00921087f, 0.00470741f, 0.02958792f,
    -0.02620897f, 0.08295568f, 0.05291118f, 0.05384313f, 0.02492533f, -0.03208565f, 0.03945066f, 0.08080226f,
    -0.07575306f, -0.04361317f, 0.00619966f, -0.04644367f, -0.05412903f, -0.02367336f, -0.02645480f, 0.02593033f,
    -0.06769922f, 0.05672371f, -0.05005197f, 0.02413541f, 0.05889772f, -0.05020975f, 0.05379938f, 0.06372916f,
    -0.03725430f, 0.00575955f, 0.03043175f, 0.08292404f, 0.00716416f, 0.01682051f, -0.04651996f, -0.06243151f,
    -0.04022170f, 0.01832504f, 0.07022171f, 0.00896788f, -0.07271143f, -0.07984524f, -0.05263655f, 0.01493405f,
    0.05866867f, -0.05429487f, -0.08325043f, 0.05788805f, 0.06563614f, 0.07043652f, -0.07887601f, 0.04250237f,
    -0.03378705f, -0.02164694f, 0.05261257f, 0.01801480f, 0.00712191f, -0.04518379f, 0.04507411f, -0.05421170f,
    0.06602982f, -0.07496959f, -0.05516426f, -0.04647171f, -0.02244663f, -0.02416661f, -0.07257267f, 0.06836811f,
    -0.03975443f, 0.01291538f, 0.00449563f, 0.06974938f, -0.05116051f, -0.06327952f, 0.03103299f, 0.08053699f,
    -0.05662116f, 0.06233734f, -0.00992396f, 0.07444888f, -0.00190248f, -0.07630026f, 0.04703176f, 0.01885131f,
    -0.03016342f, 0.06139284f, 0.01851058f, -0.04941725f, 0.05202724f, 0.06054273f, -0.01560812f, 0.07591262f,
    0.02500110f, -0.02500802f, 0.05849429f, -0.06888218f, 0.01592640f, -0.05209399f, -0.05804254f, 0.04112494f,
    0.03180512f, 0.04061925f, -0.04645965f, 0.05077706f, 0.05284668f, -0.07250945f, 0.05526775f, -0.01047902f,
    0.05594043f, 0.04025642f, 0.00631935f, -0.07431346f, 0.03617866f, -0.02940097f, 0.01736854f, -0.05865666f,
    -0.08007443f, 0.04184450f, -0.07528208f, -0.04855198f, -0.05793780f, 0.00873250f, -0.01007001f, 0.02310516f,
    -0.06794467f, -0.02597952f, 0.04590479f, -0.05029647f, -0.02923353f, 0.05140017f, 0.03632139f, -0.00454114f,
    0.00590065f, 0.00429050f, 0.03898832f, -0.02312307f, -0.02168368f, -0.00079472f, 0.07089742f, 0.07149162f,
    -0.01961837f, 0.00017744f, -0.00035121f, -0.02580957f, 0.05368727f, 0.07111241f, 0.07005697f, 0.05782457f,
    -0.00068507f, -0.01522443f, -0.06144217f, -0.03810439f, 0.05659490f, 0.05572967f, 0.02034689f, 0.06511743f,
    0.07415887f, 0.03496905f, -0.06576880f, -0.01818392f, 0.07168802f, 0.06543805f, -0.07871719f, -0.01141681f,
    0.02302930f, 0.03790855f, 0.02335170f, 0.05291946f, 0.05327533f, 0.07701604f, 0.07601495f, -0.08216916f,
    -0.04339544f, -0.02169343f, -0.06915756f, -0.02669232f, -0.05547544f, 0.02190076f, 0.06016495f, 0.04292705f,
    -0.02606915f, -0.01232179f, 0.01965083f, -0.03771068f, -0.02900830f, -0.01299468f, 0.02837270f, -0.01014986f,
    0.06142144f, -0.03749090f, 0.01315787f, 0.07911192f, -0.08120048f, 0.04958528f, 0.02386371f, -0.03168145f,
    -0.04367498f, -0.00061187f, -0.00212195f, -0.07604080f, -0.06550775f, 0.05363768f, 0.04580884f, 0.03671217f,
    0.03533617f, 0.05294058f, 0.05400319f, -0.00830892f, -0.02765760f, -0.04678770f, 0.04611527f, 0.02373781f,
    -0.08176264f, 0.02517869f, 0.00876731f, -0.07009523f, -0.05905765f, -0.03339159f, 0.00398162f, -0.01755035f,
    0.05777485f, 0.07564354f, -0.00990063f, 0.02148977f, -0.05254598f, -0.00976282f, 0.04153938f, 0.05923387f,
    0.05928019f, -0.00353019f, -0.03090606f, -0.00589132f, -0.04303050f, 0.03604545f, -0.03058041f, 0.02282410f,
    -0.01194157f, 0.05445418f, -0.05295096f, 0.01666960f, -0.06713423f, 0.01437018f, -0.04510682f, -0.01831773f,
    -0.01611655f, -0.02910480f, 0.06302828f, 0.06921801f, -0.04351602f, 0.00923745f, 0.03302805f, 0.01801834f,
    -0.08135298f, -0.03644290f, 0.07105836f, 0.03083305f, 0.06548964f, 0.01797637f, 0.02596971f, -0.06803330f,
    0.02557610f, -0.01133741f, 0.01183330f, -0.06738078f, 0.04931509f, -0.00030514f, -0.07446529f, 0.01969679f,
    -0.05814829f, 0.00680248f, 0.00865126f, 0.07170629f, 0.04274431f, -0.08211245f, 0.05106454f, -0.03867782f,
    0.06326046f, -0.00949933f, 0.06598911f, -0.04671711f, 0.00842793f, 0.08282876f, -0.01549757f, 0.00648769f,
    0.06991844f, 0.01644806f, 0.02484004f, 0.02787153f, 0.04817390f, -0.03963224f, -0.06597310f, -0.05425840f,
    0.05927423f, -0.06490423f, -0.00583159f, -0.04143297f, 0.04531153f, 0.04072577f, 0.04156242f, -0.06413584f,
    -0.01885769f, -0.07289203f, 0.06589255f, 0.02848976f, -0.02330447f, 0.05683400f, -0.05098681f, -0.05514655f,
    0.03106320f, -0.05523722f, 0.01658770f, -0.04587515f, 0.07264438f, -0.05759006f, 0.01442748f, 0.04917864f,
    0.00864812f, 0.06129615f, 0.01718839f, 0.03865419f, -0.07292478f, 0.02157080f, 0.00111281f, -0.02522863f,
    -0.05392569f, 0.00152473f, 0.03310392f, -0.06006487f, 0.00744394f, -0.02442947f, 0.07215901f, 0.06814438f,
    -0.06434184f, 0.00468442f, -0.04839153f, -0.01770066f, -0.02820573f, 0.05411866f, -0.06007479f, -0.06622158f,
    -0.00473936f, 0.05037281f, 0.02651920f, -0.01207023f, 0.02164817f, 0.01409583f, 0.00117879f, -0.01011306f,
    -0.07298540f, 0.00770596f, 0.00105020f, -0.07722545f, 0.01069640f, 0.04575794f, 0.02220173f, 0.02545296f,
    -0.05831703f, 0.01062891f, -0.07067238f, -0.06297668f, 0.07302710f, 0.07089899f, 0.06559063f, 0.07207119f,
    0.01056204f, -0.01395740f, -0.02802522f, 0.06384346f, -0.06011239f, 0.04944035f, 0.00834308f, 0.06940629f,
    0.08284573f, -0.03728228f, -0.00881696f, 0.06022528f, 0.08040667f, 0.01965067f, 0.00714155f, 0.01129697f,
    -0.02938564f, -0.00005045f, -0.04944883f, 0.04765057f, -0.01689158f, -0.02448003f, 0.08249777f, 0.00223138f,
    -0.06485447f, 0.04387574f, 0.07752709f, -0.05022359f, -0.05544531f, -0.07746778f, 0.01779955f, 0.07852423f,
    -0.00419854f, -0.05481730f, -0.08005418f, -0.05662873f, -0.06880714f, -0.01439985f, 0.00390731f, 0.01774930f,
    -0.00611619f, -0.00409705f, 0.05777993f, -0.02810471f, -0.06595069f, 0.01864344f, 0.03204560f, 0.06912022f,
    -0.03901145f, 0.07773485f, 0.00977470f, 0.05867656f, 0.03947515f, 0.04249454f, -0.04100758f, 0.04739080f,
    0.00310699f, -0.07237999f, 0.02788730f, 0.04350095f, -0.07630149f, -0.00500578f, -0.01904602f, 0.07229280f,
    0.02526016f, -0.05052730f, -0.04140079f, 0.08057871f, 0.01970597f, -0.07457098f, -0.07579070f, 0.00119553f,
    -0.01889623f, -0.06937370f, 0.00082390f, -0.01722602f, -0.07686238f, -0.01338737f, 0.01016259f, -0.00158968f,
    -0.02454579f, -0.00081152f, -0.01755771f, -0.01794471f, -0.06303217f, -0.04648387f, 0.07462498f, -0.07293739f,
    0.04155255f, 0.05920922f, -0.03077498f, 0.02714044f, -0.03829356f, 0.00931495f, -0.04151688f, -0.06689499f,
    0.02848762f, -0.02724500f, 0.00929062f, -0.06265926f, -0.08264869f, -0.00124568f, -0.06939658f, -0.00696842f,
    0.03564848f, -0.03069954f, 0.06262535f, 0.03552122f, 0.07016885f, 0.02350970f, -0.03369145f, 0.00194176f,
    -0.01420711f, -0.05331000f, 0.05126181f, -0.07128530f, -0.04251853f, -0.05959367f, -0.00407742f, 0.03198265f,
    0.01099121f, 0.02737458f, 0.03551380f, 0.00967538f, 0.02376050f, -0.05419137f, 0.05195297f, -0.02294533f,
    -0.07193206f, -0.07926747f, 0.07115382f, -0.03965860f, -0.00711059f, -0.00318596f, -0.00991382f, 0.05452831f,
    0.04630170f, 0.07874527f, 0.00463829f, -0.05698745f, -0.01279619f, 0.02166378f, 0.05256104f, 0.02820328f,
    0.06640171f, -0.03708601f, -0.05065765f, 0.02429942f, 0.06615590f, 0.05501190f, 0.04387154f, 0.04680806f,
    0.03472275f, 0.02262140f, -0.08057417f, -0.06670697f, 0.04958013f, 0.04542026f, -0.03102518f, 0.03652825f,
    0.02508460f, -0.08077292f, -0.03645129f, -0.06143039f, -0.06141952f, 0.01162180f, -0.07268608f, 0.04547627f,
    -0.05164899f, -0.01171645f, 0.07728918f, -0.00183408f, 0.02399205f, 0.01763196f, -0.07410723f, -0.07909177f,
    0.02075928f, 0.05658762f, 0.02674181f, 0.02761124f, 0.08277595f, -0.00485676f, -0.06463355f, 0.04733197f,
    0.00095505f, 0.04004743f, 0.06193605f, 0.04873584f, -0.03678182f, -0.03327833f, -0.05365617f, 0.04923768f,
    -0.03230419f, 0.05717400f, -0.08143584f, -0.04422499f, -0.07843754f, -0.02517826f, 0.01172107f, 0.05005595f,
    0.07144210f, -0.07949262f, 0.00059916f, 0.00147550f, -0.04927744f, 0.02794328f, 0.03379542f, -0.06980577f,
    -0.07547072f, 0.02946388f, 0.07695335f, 0.02446378f, -0.07049935f, -0.02923644f, 0.02371117f, -0.05642810f,
    0.07942329f, 0.03430045f, 0.03811183f, 0.03178496f, -0.04098874f, -0.01854228f, -0.03656268f, -0.00003691f,
    0.07259923f, 0.04241496f, 0.01086903f, -0.04853892f, 0.04186768f, 0.06657967f, -0.02350634f, 0.02751865f,
    -0.04377491f, 0.07421610f, 0.07036784f, 0.02576685f, 0.07779627f, 0.07080778f, 0.07550293f, 0.04924983f,
    0.01065215f, -0.04116732f, 0.05561697f, -0.03236264f, -0.06100129f, -0.02959436f, 0.08170151f, 0.03950300f,
    0.00068557f, 0.01055918f, 0.02835318f, 0.03893580f, -0.08071373f, -0.02093231f, -0.00197830f, 0.02511574f,
    -0.00503663f, 0.06827310f, 0.05213179f, 0.04800884f, -0.04001443f, 0.05711645f, 0.07747939f, -0.07157300f,
    -0.00458773f, -0.05066569f, -0.04090174f, 0.01843179f, -0.08182903f, 0.07728186f, 0.07502127f, -0.06580769f,
    -0.00487484f, 0.02213857f, 0.04064592f, 0.01484819f, 0.03784596f, 0.04511051f, -0.05187500f, 0.00425707f,
    -0.01710263f, -0.04161882f, 0.04356131f, -0.06445704f, -0.06172758f, -0.03045681f, -0.00634047f, -0.08132755f,
    0.07276453f, 0.05893463f, -0.02538465f, -0.02893369f, -0.07400238f, -0.03815837f, -0.05618165f, -0.01910216f,
    -0.06230053f, -0.01903298f, 0.03344231f, 0.04648552f, -0.01868375f, -0.03029625f, 0.03495764f, 0.07890197f,
    -0.07461387f, -0.07565199f, -0.02132660f, -0.02747289f, 0.07031726f, -0.01683182f, 0.04394615f, 0.05968640f,
    -0.00170615f, -0.02796055f, -0.07055410f, -0.06347200f, 0.04861289f, 0.05823182f, 0.02745518f, -0.00537773f,
    0.06896648f, -0.04351934f, -0.07107253f, -0.04882696f, -0.05113536f, -0.07218984f, -0.05425941f, -0.04978424f,
    -0.02323790f, -0.03982481f, -0.01168043f, -0.03524869f, 0.04374465f, 0.04918588f, -0.05308669f, -0.03760530f,
    -0.02514249f, 0.04260923f, 0.00291896f, -0.04718710f, -0.06369878f, -0.02796482f, 0.02987586f, 0.02756908f,
    0.07984266f, 0.00694406f, -0.07141583f, 0.02419693f, -0.04974509f, -0.05865325f, 0.02785323f, 0.03371307f,
    0.07350652f, 0.06724350f, -0.07045060f, 0.06902387f, -0.05148813f, -0.07737963f, 0.02547868f, 0.06322953f,
    -0.06190034f, 0.02045928f, 0.02758075f, -0.07553211f, 0.01275655f, 0.04500360f, 0.07658038f, 0.03503901f,
    -0.00731573f, 0.01490543f, -0.04724798f, 0.01574810f, 0.04047178f, -0.04885504f, 0.06879606f, -0.08069393f,
    0.03180835f, -0.04423516f, 0.04625186f, 0.03884445f, -0.08282384f, 0.06917610f, -0.00431979f, -0.01963286f,
    0.04175398f, -0.01684168f, 0.07170847f, 0.07939295f, 0.02718246f, -0.02016923f, 0.02341658f, 0.06382775f,
    -0.04981964f, -0.05939373f, 0.00680469f, -0.03586700f, 0.05877586f, 0.07204033f, -0.04075965f, 0.03660467f,
    -0.07876235f, -0.06489726f, 0.01431559f, 0.07512060f, -0.05444212f, 0.05020685f, 0.06260724f, 0.07605868f,
    -0.03768058f, -0.06533334f, -0.05432683f, -0.05406815f, -0.00234086f, 0.01071362f, 0.01259417f, 0.07859676f,
    -0.06997820f, -0.02434275f, 0.07532050f, -0.02364549f, -0.04704010f, -0.08056429f, -0.02423338f, 0.03786578f,
    0.04572099f, -0.03654718f, 0.02111753f, 0.06593856f, -0.08014123f, -0.08111676f, 0.02391885f, -0.04234307f,
    -0.07378181f, -0.07985520f, 0.01067980f, 0.04119846f, 0.03661359f, 0.06009238f, 0.02084459f, 0.05334201f,
    -0.02467779f, 0.05463229f, -0.02440117f, 0.02143660f, 0.02927411f, 0.05208238f, -0.03671404f, -0.06672513f,
    0.04391068f, -0.07607383f, 0.05387781f, 0.04511079f, 0.07604092f, -0.07343234f, 0.07188103f, 0.06845840f,
    0.05837170f, 0.05721515f, -0.06681678f, -0.00189351f, -0.01532327f, 0.06777738f, -0.00348218f, -0.02601187f,
    0.03953084f, 0.05796224f, -0.02905400f, 0.07115864f, 0.05683991f, 0.01916715f, 0.02335068f, -0.05018867f,
    0.06812041f, -0.02465599f, 0.00170620f, -0.03218664f, 0.04918445f, -0.06931329f, -0.05091680f, -0.01554757f,
    -0.06322840f, -0.00427219f, 0.01563968f, -0.01852172f, 0.05470427f, -0.00510950f, -0.08332594f, -0.05454069f,
    0.07750475f, 0.02755330f, -0.06638438f, -0.06261372f, 0.00391041f, -0.04408118f, -0.03632291f, 0.00653635f,
    -0.02618648f, -0.02450275f, 0.08239007f, 0.06826936f, 0.06115881f, -0.01348134f, -0.06286100f, 0.04100775f,
    0.05722269f, 0.02872347f, -0.02883389f, -0.01475096f, 0.00288520f, -0.02058479f, 0.03225122f, 0.02352690f,
    -0.04559457f, -0.00633233f, -0.04611381f, -0.02239401f, 0.01462491f, -0.04956099f, -0.07666858f, 0.03980107f,
    -0.06573480f, 0.02240477f, 0.07321201f, -0.00868395f, 0.00148740f, 0.01928516f, -0.07638692f, -0.01436911f,
    0.07936382f, 0.01374786f, 0.03293934f, 0.01478341f, 0.07306761f, 0.01412811f, -0.00038535f, 0.03584704f,
    0.02881744f, -0.03065730f, -0.02560704f, 0.01901582f, 0.07616509f, 0.07903352f, -0.07109895f, -0.03174301f,
    0.07721107f, 0.07327676f, 0.06712695f, -0.02479149f, 0.00080734f, -0.03961349f, -0.07315876f, 0.04230510f,
    0.05141038f, 0.05316837f, -0.04739085f, -0.06290770f, 0.03971742f, -0.07405356f, -0.03182499f, 0.02187170f,
    0.03943741f, 0.07341750f, -0.03170970f, -0.01536513f, -0.00794560f, 0.00997005f, -0.08261552f, -0.03755249f,
    0.03879058f, 0.03878362f, -0.05563459f, 0.00319707f, -0.03036444f, -0.07864104f, 0.02467935f, -0.04103599f,
    0.07512647f, 0.00879062f, -0.01085724f, 0.06700712f, 0.02928603f, -0.07280754f, -0.05637836f, 0.06613216f,
    -0.03290717f, -0.00480694f, 0.00780341f, -0.05041545f, -0.02272751f, 0.02892402f, 0.05298487f, 0.06438597f,
    0.06565758f, -0.06150262f, 0.04432198f, -0.00867504f, 0.03590846f, -0.02696145f, 0.06613573f, -0.00894981f,
    -0.02510846f, -0.04169914f, 0.05177965f, -0.00243378f, 0.06700808f, -0.01136009f, -0.06927383f, 0.01683798f,
    -0.07662515f, -0.06865403f, 0.02139046f, 0.05699097f, -0.00701199f, -0.06840675f, 0.06752507f, 0.06834352f,
    -0.01515156f, -0.05685024f, 0.03334372f, 0.06855741f, 0.00418257f, -0.07831114f, -0.01245991f, 0.03340312f,
    -0.00359561f, 0.03217370f, 0.06316969f, 0.03427900f, 0.00920642f, 0.01172244f, 0.02993209f, 0.04791542f,
    0.00506715f, -0.02038921f, 0.01875182f, 0.03942029f, 0.03460481f, -0.03736215f, -0.03039949f, 0.01096097f,
    0.07795599f, -0.02733587f, -0.06408861f, -0.03643166f, -0.00362520f, 0.07116842f, -0.06319802f, 0.06772207f,
    0.00344505f, 0.05735363f, 0.04359426f, 0.04662823f, 0.07407750f, -0.02644932f, 0.07071361f, -0.00557140f,
    0.02995080f, -0.03709906f, -0.04751664f, -0.00122291f, -0.01013006f, -0.01096710f, 0.03454505f, -0.03724816f,
    0.03379056f, 0.03719590f, 0.07884626f, -0.06411627f, -0.04267211f, 0.07652643f, 0.01380229f, 0.00772107f,
    -0.02264683f, 0.04366871f, 0.04669613f, -0.07141639f, 0.07919136f, 0.02697501f, -0.01773838f, -0.04230748f,
    0.05830168f, 0.08158367f, 0.06470805f, 0.06681579f, -0.01274191f, -0.03570509f, -0.07391836f, -0.07606499f,
    0.08318829f, -0.01964680f, -0.08283730f, 0.06838906f, -0.07905614f, -0.02248664f, -0.07334717f, -0.04922133f,
    0.00501133f, 0.03960438f, -0.04843161f, -0.00886874f, 0.05230750f, -0.07054880f, -0.01627104f, 0.05295371f,
    0.02270305f, -0.05865578f, 0.04181359f, -0.00860783f, 0.07391612f, 0.03613019f, 0.01019013f, -0.07962267f,
    0.01170063f, 0.02538113f, 0.04657023f, -0.05430885f, 0.02937699f, -0.01643968f, 0.00593723f, -0.02019696f,
    -0.06930254f, 0.05130613f, 0.05386727f, 0.04977881f, -0.01634147f, -0.00108237f, 0.05365188f, 0.04632525f,
    0.05475001f, -0.01918349f, -0.02465329f, -0.01735217f, -0.02228566f, 0.02344443f, 0.07091918f, 0.02626110f,
    0.07083234f, 0.08017421f, 0.08039581f, -0.07105513f, 0.02980746f, 0.01663928f, -0.03506119f, 0.02822142f,
    0.02363550f, 0.00393200f, 0.07168120f, 0.04345820f, 0.02070102f, 0.03633453f, -0.02734427f, 0.01562748f,
    -0.00687018f, -0.03566688f, -0.05212757f, 0.06533124f, -0.07225122f, 0.01451202f, -0.04335319f, -0.01504207f,
    -0.01938916f, -0.00414104f, 0.06536917f, -0.06082788f, -0.04158064f, 0.01911904f, -0.07355504f, 0.08134484f,
    0.00923460f, -0.07065810f, -0.07248431f, 0.00107679f, 0.02879960f, 0.06590486f, -0.03024993f, -0.06633662f,
    -0.00276873f, -0.05674293f, -0.00067370f, -0.08275814f, -0.06892499f, -0.01140965f, 0.07201015f, -0.04295626f,
    -0.01933089f, -0.06594382f, -0.01211054f, 0.01264596f, -0.03922361f, -0.02115651f, 0.07132187f, -0.02809152f,
    0.02631791f, 0.03934818f, -0.00452203f, 0.03904440f, -0.07566354f, -0.04877545f, -0.00704890f, -0.08188310f,
    -0.00407560f, 0.02969629f, 0.07194073f, -0.06980809f, 0.08070447f, 0.03564758f, 0.04193959f, 0.03687018f,
    -0.01598663f, -0.02163534f, 0.01920937f, -0.06293254f, 0.06772172f, 0.02086703f, 0.03684431f, 0.06707844f,
    -0.01504347f, 0.04096819f, 0.01429609f, -0.05587223f, -0.00082268f, -0.06265136f, 0.04338669f, 0.02743738f,
    -0.04195415f, 0.06247049f, -0.05766551f, -0.01997214f, 0.02605467f, 0.06878616f, -0.03944841f, -0.03378695f,
    0.06308248f, 0.03154054f, -0.00869992f, 0.04779099f, 0.07753284f, -0.06806522f, 0.01700404f, 0.03288987f,
    -0.04397067f, -0.06715661f, 0.00348301f, 0.02488621f, -0.07848614f, 0.05142617f, 0.07315733f, 0.06112826f,
    -0.07662079f, -0.04936811f, 0.07242805f, 0.07914287f, 0.07928644f, -0.02369666f, -0.02541362f, 0.03057054f,
    0.02033761f, 0.05517408f, -0.01762299f, 0.07864871f, 0.05332462f, -0.01008397f, 0.04610704f, 0.05175050f,
    -0.01149519f, 0.06523617f, 0.01141492f, 0.02762647f, -0.04090808f, -0.04584390f, 0.01351657f, -0.08101162f,
    0.06108363f, 0.04553197f, 0.06973456f, -0.03109341f, -0.05409383f, -0.05122204f, -0.07291793f, -0.06754818f,
    -0.00380744f, -0.06616884f, 0.05060872f, -0.06980155f, 0.04497531f, 0.01059004f, -0.04349438f, 0.00216329f,
    -0.06406768f, -0.07221609f, 0.01087824f, 0.06831549f, 0.05189711f, -0.04075624f, -0.06206414f, -0.05301820f,
    0.00565826f, 0.07597916f, 0.02214146f, -0.05622831f, -0.07779410f, 0.03677246f, -0.02863029f, 0.00160257f,
    0.02518421f, -0.05299173f, -0.08044223f, 0.04603020f, -0.01934081f, 0.00236722f, 0.04717290f, -0.01696908f,
    -0.03087767f, -0.03343348f, 0.04339186f, -0.04224586f, 0.08320013f, 0.06764220f, 0.04033300f, -0.07787243f,
    -0.00726426f, -0.00950319f, 0.03554014f, -0.02976230f, 0.01711369f, 0.00897179f, -0.04952782f, 0.03858553f,
    0.06621018f, 0.06319626f, -0.05595265f, 0.06961032f, 0.04103878f, 0.05219135f, -0.03039512f, 0.05936887f,
    0.03802152f, -0.04461309f, -0.08100593f, -0.02929988f, -0.00059815f, 0.03220665f, -0.04195923f, 0.05520232f,
    0.07888358f, -0.06518944f, 0.00213443f, -0.04774265f, -0.05464157f, 0.02241430f, 0.04174542f, -0.05880563f,
    0.07944053f, -0.02760727f, -0.04323086f, -0.01826526f, -0.05103776f, -0.03223345f, -0.04954464f, 0.06630331f,
    -0.07463796f, -0.07248464f, -0.01482789f, -0.00893456f, -0.04331839f, 0.06039363f, -0.04920397f, -0.08190404f,
    0.07736530f, 0.05945712f, 0.00669771f, 0.04619967f, -0.01888890f, -0.07343408f, -0.05166202f, 0.06641628f,
    0.07352749f, 0.01624558f, -0.08055140f, -0.08180153f, -0.06366432f, 0.07087742f, -0.02743807f, -0.06867538f,
    -0.02066651f, 0.07692634f, 0.01300638f, -0.05385959f, -0.00277534f, -0.06174209f, -0.06293404f, 0.02785048f,
    0.04295882f, 0.04811689f, 0.01337864f, -0.03220438f, 0.00532776f, 0.02563166f, -0.06532067f, -0.03611236f,
    -0.04369130f, -0.08185987f, 0.07555908f, 0.05004445f, 0.00601973f, 0.01093956f, 0.03639018f, 0.03737826f,
    0.06287538f, -0.07330333f, -0.02872187f, 0.00583881f, -0.00938323f, 0.02646545f, 0.02725525f, -0.07770003f,
    0.08192165f, 0.05822929f, 0.08061419f, 0.07882660f, 0.08289021f, 0.01048839f, -0.07242414f, -0.04518053f,
    -0.07522686f, -0.02387444f, -0.04186326f, -0.07290910f, -0.03721842f, 0.02825768f, -0.00759065f, -0.01153706f,
    -0.05331141f, 0.05078423f, 0.01909099f, 0.08082193f, 0.07755968f, -0.06888631f, 0.04938290f, 0.05446760f,
    -0.01122638f, 0.05599865f, -0.02007883f, -0.08253141f, -0.03770874f, -0.05165580f, 0.05593541f, -0.00465325f,
    -0.03862467f, -0.05129099f, -0.06032364f, -0.05613277f, 0.06819379f, 0.07488489f, 0.07862233f, -0.07894769f,
    -0.01128347f, 0.07559061f, 0.06375858f, -0.03588202f, 0.07414044f, 0.05420310f, -0.02888920f, -0.06098473f,
    -0.04437214f, -0.00521357f, -0.02795610f, -0.05703289f, -0.06033587f, 0.05507769f, -0.02689942f, 0.03251054f,
    -0.02716704f, 0.03167123f, 0.02035972f, 0.05742181f, -0.04348455f, 0.03147911f, 0.07260980f, -0.06247198f,
    -0.05309951f, -0.04224973f, 0.06790884f, -0.07217093f, 0.01786708f, -0.03600593f, 0.00745952f, 0.05880068f,
    -0.07298809f, -0.04694796f, 0.07231867f, 0.07066511f, 0.05268815f, -0.02085934f, 0.04664696f, -0.01685989f,
    0.07281382f, 0.08144102f, 0.06888919f, 0.07965474f, -0.02875257f, -0.00807495f, 0.02590559f, 0.01779801f,
    0.00791963f, -0.07737445f, -0.06032401f, 0.04791418f, 0.00141406f, 0.02845693f, 0.04892965f, -0.04273897f,
    0.03979921f, 0.03519671f, -0.07053997f, -0.00816995f, -0.01998830f, -0.08091788f, -0.07805842f, -0.03368458f,
    0.02238529f, -0.05230839f, 0.01259901f, -0.08192915f, -0.03961239f, 0.07895365f, 0.06788608f, 0.00469056f,
    -0.06628433f, -0.00890630f, -0.06251182f, 0.03929855f, -0.03255024f, 0.04621439f, 0.07827553f, -0.07105871f,
    -0.04525919f, -0.06234501f, -0.08319618f, 0.03348633f, 0.03792693f, -0.00723531f, 0.07953201f, -0.02584889f,
    -0.07378646f, 0.03769320f, 0.04124395f, -0.00881149f, -0.05044277f, 0.04789439f, -0.06608158f, -0.02680012f,
    -0.02158307f, -0.00506498f, 0.00691743f, 0.00987708f, -0.00923235f, 0.05105488f, -0.05008578f, -0.04124227f,
    -0.06629311f, 0.03521351f, -0.01065896f, -0.02652256f, 0.04425210f, 0.05295881f, -0.01836502f, -0.08020454f,
    0.05477994f, -0.00521722f, 0.00686587f, -0.04241602f, -0.06890213f, 0.03497184f, -0.06636252f, -0.00154592f,
    0.04081416f, -0.01914092f, 0.04974487f, -0.07753643f, 0.01592350f, -0.07357365f, -0.04879279f, 0.07868981f,
    -0.06902324f, 0.05914923f, 0.05675810f, 0.04021215f, -0.03024885f, 0.01062334f, -0.01293735f, -0.04590949f,
    -0.03954182f, -0.05164675f, -0.04605629f, -0.02309047f, 0.00510899f, 0.02289929f, 0.05537421f, -0.01957826f,
    -0.03344589f, -0.04100169f, -0.02827455f, -0.02792366f, -0.04524000f, 0.05277080f, 0.05727926f, -0.07783215f,
    0.04991317f, 0.00430778f, -0.07754054f, -0.04161137f, 0.00513760f, -0.01166288f, -0.04221871f, 0.07943739f,
    0.02772364f, 0.03616653f, 0.00836046f, -0.03065476f, -0.04777082f, 0.02165289f, -0.07626724f, -0.01721523f,
    0.06990665f, 0.02253806f, -0.00603465f, -0.06027430f, -0.00932730f, -0.06833741f, 0.03524346f, 0.04225560f,
    0.04337822f, 0.01091119f, -0.06021804f, -0.07141202f, -0.01141372f, -0.02925478f, 0.02600886f, -0.01401263f,
    -0.00928771f, 0.02825648f, -0.06159290f, -0.02298396f, -0.04761541f, 0.03486363f, -0.05251895f, -0.02348082f,
    -0.06214633f, 0.04969700f, 0.03762022f, -0.08304413f, -0.06763928f, 0.00999526f, -0.07122233f, 0.04405244f,
    -0.01475278f, -0.01206922f, -0.01229684f, 0.05087424f, 0.03766911f, 0.03801700f, 0.05061523f, 0.08293676f,
    -0.02675359f, 0.00662047f, -0.03699238f, -0.05833527f, 0.03251469f, -0.08201897f, 0.00594192f, 0.03205706f,
    0.04959643f, 0.03817792f, -0.05380186f, 0.01693673f, 0.02350788f, -0.04556944f, 0.03679413f, -0.01307003f,
    -0.02968749f, 0.03345756f, 0.03735633f, -0.08106168f, 0.06572902f, 0.00823682f, -0.04614831f, 0.03762086f,
    0.07447760f, 0.05766561f, -0.01230398f, -0.01347151f, -0.03481182f, -0.02712715f, -0.06216788f, -0.06307977f,
    0.07585865f, -0.01562804f, 0.05865768f, 0.01748459f, 0.01434902f, -0.03135423f, -0.01016630f, 0.04058176f,
    -0.03029796f, -0.07939073f, -0.03301764f, 0.04964515f, 0.00276888f, -0.06481218f, -0.07126418f, -0.08211561f,
    -0.03240570f, -0.06564435f, 0.07206308f, 0.07242065f, -0.06626319f, 0.04195011f, 0.00872880f, -0.02289350f,
    0.07660984f, 0.01594276f, 0.05283706f, 0.04449912f, -0.02743794f, 0.04954984f, 0.08249654f, -0.04834080f,
    0.05501826f, -0.08133452f, -0.04175043f, 0.05327763f, -0.06243505f, -0.01257650f, -0.03902633f, -0.00418179f,
    0.00500353f, -0.06062453f, -0.07669210f, -0.07077768f, -0.00686107f, 0.03481765f, 0.03900497f, -0.07017681f,
    -0.05101195f, 0.01642084f, -0.04112151f, -0.00271737f, -0.03333300f, -0.07883352f, -0.00587647f, 0.03205886f,
    0.04265050f, 0.05419957f, 0.05932298f, -0.00860445f, 0.01694030f, 0.02776307f, 0.07631274f, 0.08226675f,
    -0.00882064f, -0.04860983f, 0.03886142f, 0.05672916f, 0.07038756f, 0.02799050f, 0.05606050f, -0.02937708f,
    0.01974330f, 0.04608483f, -0.00803118f, 0.05576210f, 0.06230256f, -0.02078379f, -0.03072240f, 0.07328151f,
    0.06229927f, 0.00150399f, 0.07169792f, -0.05582523f, -0.03983172f, 0.04280740f, 0.04937015f, 0.03049151f,
    -0.05582510f, -0.01201559f, -0.03501358f, -0.01058986f, 0.01831791f, -0.07884547f, 0.06672089f, 0.00999359f,
    -0.04708288f, 0.03758663f, 0.01865546f, -0.04798959f, -0.04705276f, -0.05863355f, -0.00077403f, 0.04731228f,
    0.04862742f, -0.05216499f, 0.07579704f, 0.03830939f, -0.02825633f, 0.05182549f, -0.04439589f, 0.06611817f,
    -0.02893242f, 0.02506737f, -0.03850874f, 0.00054147f, 0.05590742f, 0.00286949f, 0.07479503f, 0.00347258f,
    -0.07781722f, -0.01033486f, 0.04484737f, -0.00046635f, 0.05751634f, 0.02436993f, -0.02085699f, -0.02645855f,
    -0.04942896f, 0.07892203f, -0.00865599f, 0.06529106f, -0.00348546f, 0.01719607f, -0.01072643f, 0.04382893f,
    -0.01164943f, 0.07316431f, 0.02275087f, 0.03110183f, 0.05746223f, -0.06168304f, 0.08131182f, -0.04578478f,
    0.05175702f, 0.05773176f, -0.01348983f, -0.03834353f, -0.05148646f, -0.06962570f, 0.01625272f, -0.01243442f,
    0.07281827f, 0.03439438f, -0.00953243f, -0.07278202f, 0.04571726f, 0.07579863f, 0.05474758f, -0.05113022f,
    -0.06039160f, -0.01054323f, -0.03170916f, -0.04005308f, -0.07343787f, -0.05825952f, -0.03428417f, -0.05485837f,
    -0.04636824f, 0.03488854f, 0.00827651f, -0.00381707f, 0.00887804f, 0.00543415f, -0.04139223f, -0.05865112f,
    0.02694244f, 0.00316904f, 0.03401164f, -0.05444668f, 0.02512709f, 0.06091002f, -0.05073729f, 0.04992761f,
    -0.06578372f, -0.05313057f, -0.00623965f, 0.00673076f, 0.02345568f, 0.07195184f, 0.00169147f, -0.07827389f,
    -0.02474092f, 0.02478185f, -0.02109199f, 0.06020343f, 0.02822540f, 0.01937731f, -0.07701619f, 0.02900988f,
    -0.03132843f, 0.07646873f, 0.04155905f, -0.06336010f, -0.03798420f, -0.03412085f, -0.01771435f, -0.07859062f,
    -0.01099308f, 0.05061079f, 0.02269563f, 0.03822675f, -0.08092757f, 0.02662206f, 0.05793761f, 0.07471339f,
    -0.00500956f, -0.03662490f, -0.01363062f, 0.01693568f, 0.08300720f, -0.05049492f, -0.05749437f, 0.07441956f,
    0.06346615f, -0.04898387f, -0.04963442f, -0.00079796f, 0.04154079f, -0.07269908f, 0.02970458f, 0.03199705f,
    0.00093216f, -0.01770550f, -0.00591384f, 0.07068431f, 0.02705008f, -0.05055010f, -0.08068213f, 0.05575327f,
    -0.02335283f, 0.05977392f, -0.07684261f, -0.03365219f, -0.07126497f, -0.04304948f, 0.01812994f, -0.04173163f,
    -0.03601109f, -0.00359210f, -0.00255198f, -0.02003711f, -0.06196414f, 0.05710939f, 0.05064913f, 0.06880271f,
    -0.03088884f, 0.00257465f, -0.02872119f, 0.01188813f, -0.03835949f, -0.05845183f, -0.03724242f, 0.03263488f,
    -0.06166233f, -0.02345478f, 0.04805065f, 0.00905837f, 0.07027378f, -0.03133031f, -0.01039693f, 0.06995119f,
    -0.02974956f, 0.06209579f, -0.07793865f, 0.00627953f, 0.00821030f, 0.00244029f, -0.05659368f, 0.02707062f,
    -0.00578575f, 0.04956026f, 0.02688185f, -0.06675175f, 0.04552477f, 0.03372741f, 0.06988614f, 0.04817623f,
    0.04537926f, -0.05621821f, -0.04355432f, 0.00062037f, -0.05345210f, -0.04860494f, -0.02645569f, 0.00635700f,
    0.02423825f, 0.05182748f, 0.03588149f, 0.05224990f, 0.07444514f, 0.07241021f, 0.00239330f, 0.07221564f,
    -0.04754567f, -0.04217144f, -0.05678573f, 0.05247773f, 0.01646589f, -0.06842228f, -0.03987545f, -0.07396444f,
    0.00701338f, -0.05424038f, -0.01616271f, 0.01960116f, -0.07201196f, 0.02182465f, -0.06680825f, -0.06631307f,
    -0.00573765f, -0.02821448f, 0.08052552f, -0.02048468f, -0.06632014f, 0.07410594f, -0.02334722f, 0.07894542f,
    0.01327219f, -0.06935197f, 0.00591788f, -0.05656722f, 0.04212401f, -0.02541603f, -0.05765922f, 0.06098378f,
    0.07663491f, -0.07834669f, 0.07139068f, 0.02008437f, 0.00230613f, 0.02215034f, 0.02029243f, -0.05521653f,
    0.05576988f, -0.04010978f, -0.04255085f, 0.08063602f, 0.03103507f, 0.07525970f, 0.05864504f, 0.07594800f,
    -0.06664363f, -0.08275649f, 0.07542464f, -0.03896352f, 0.01445959f, -0.07814028f, 0.00230480f, 0.07656141f,
    -0.01452117f, -0.03479133f, 0.04442427f, 0.03703161f, -0.01803011f, -0.01859484f, 0.07990491f, -0.00383260f,
    -0.07990590f, 0.00540171f, 0.02004749f, 0.00189058f, -0.00818901f, 0.00368905f, -0.00870977f, 0.06068298f,
    -0.02491733f, 0.06923221f, 0.01394745f, -0.00486097f, -0.04960220f, 0.07953125f, 0.05340814f, -0.03191834f,
    0.03593478f, 0.04075326f, -0.04159561f, -0.06111362f, -0.03022568f, -0.07100003f, 0.07101914f, -0.06739216f,
    -0.06000687f, -0.01468580f, 0.03648286f, -0.02753867f, 0.07841244f, -0.07863541f, 0.04798494f, -0.04290777f,
    0.02257596f, -0.01001391f, 0.03879803f, 0.04672750f, -0.06365331f, 0.00271656f, -0.03464574f, 0.03273101f,
    -0.02820662f, 0.02287900f, 0.01521795f, 0.01792155f, 0.01282476f, 0.01440255f, -0.01203416f, -0.03037584f,
    -0.07939049f, -0.04901641f, -0.02675893f, 0.03622734f, -0.06633891f, 0.01087458f, -0.07622427f, 0.01937732f,
    -0.05209285f, 0.00768365f, -0.01259637f, 0.00682033f, 0.03199866f, -0.04616668f, -0.01520444f, 0.05383074f,
    0.06004302f, 0.06636765f, -0.02722580f, -0.06664547f, -0.00438530f, -0.04699204f, -0.02816064f, -0.04394248f,
    -0.07781386f, 0.05985197f, -0.03521927f, -0.05720374f, -0.01582563f, -0.00878379f, -0.02373562f, 0.05370135f,
    -0.05234641f, -0.02329173f, -0.04194009f, 0.01956361f, 0.00065318f, -0.01412725f, 0.03008693f, -0.03291722f,
    0.05804045f, -0.02849877f, -0.03662139f, -0.01228537f, -0.03125685f, -0.05858914f, -0.07804125f, -0.07172685f,
    -0.01907143f, 0.01855295f, 0.05039999f, -0.03701672f, 0.05921682f, -0.00232668f, 0.05359490f, -0.02437203f,
    0.05596545f, 0.02318227f, -0.02215057f, -0.02800054f, -0.00460678f, -0.01113335f, 0.07780509f, 0.03291702f,
    0.06974353f, -0.07343613f, -0.06582625f, 0.05392725f, -0.07879417f, -0.03781030f, -0.06019177f, -0.00113909f,
    -0.02269952f, 0.02568384f, 0.00223062f, -0.05233729f, -0.01235192f, -0.03023144f, -0.02634589f, 0.00408140f,
    -0.00044879f, -0.06982537f, 0.02920699f, 0.01183840f, -0.06177310f, 0.04331161f, 0.00970488f, 0.05479644f,
    -0.02064110f, 0.06440961f, -0.06159468f, -0.05613031f, 0.08189401f, 0.02846112f, 0.07033443f, 0.07904916f,
    0.02530059f, 0.00232243f, -0.06406890f, 0.04043410f, 0.02103707f, -0.01858805f, 0.01734557f, -0.03316456f,
    0.04322423f, -0.04409572f, -0.01672522f, -0.02281336f, 0.00954555f, -0.00947227f, -0.01542813f, -0.07200629f,
    0.05016766f, -0.06318164f, 0.07155311f, -0.00118729f, 0.02891934f, -0.03092594f, 0.05787989f, -0.00079423f,
    0.00787869f, 0.05211215f, 0.01751850f, -0.06183065f, 0.02371371f, -0.00843154f, -0.07666343f, 0.00221260f,
    0.06382227f, 0.05714005f, 0.07134619f, 0.05164351f, 0.04790561f, 0.05997797f, -0.03077845f, -0.03495788f,
    -0.06022658f, -0.03995989f, -0.05110151f, 0.04291097f, 0.01016673f, 0.05803540f, -0.01407830f, -0.01712718f,
    0.05866004f, 0.07556256f, 0.04831526f, -0.07118036f, 0.06579739f, 0.06992155f, 0.05425789f, 0.05179452f,
    -0.03393527f, -0.04448208f, -0.00882514f, 0.08051690f, 0.05782451f, 0.06869897f, -0.01716582f, 0.06839989f,
    0.02690533f, 0.00111297f, 0.06578109f, -0.00178891f, -0.05713049f, 0.07778390f, 0.07231112f, -0.04489060f,
};

// Shape: (16,), dtype: float32
static const float stage0_block0_bn1_gamma[16] = {
    1.00000000f, 1.00000000f, 1.00000000f, 1.00000000f, 1.00000000f, 1.00000000f, 1.00000000f, 1.00000000f,
    1.00000000f, 1.00000000f, 1.00000000f, 1.00000000f, 1.00000000f, 1.00000000f, 1.00000000f, 1.00000000f,
};

// Shape: (16,), dtype: float32
static const float stage0_block0_bn1_beta[16] = {
    0.00000000f, 0.00000000f, 0.00000000f, 0.00000000f, 0.00000000f, 0.00000000f, 0.00000000f, 0.00000000f,
    0.00000000f, 0.00000000f, 0.00000000f, 0.00000000f, 0.00000000f, 0.00000000f, 0.00000000f, 0.00000000f,
};

// Shape: (16,), dtype: float32
static const float stage0_block0_bn1_mean[16] = {
    0.00000000f, 0.00000000f, 0.00000000f, 0.00000000f, 0.00000000f, 0.00000000f, 0.00000000f, 0.00000000f,
    0.00000000f, 0.00000000f, 0.00000000f, 0.00000000f, 0.00000000f, 0.00000000f, 0.00000000f, 0.00000000f,
};

// Shape: (16,), dtype: float32
static const float stage0_block0_bn1_var[16] = {
    1.00000000f, 1.00000000f, 1.00000000f, 1.00000000f, 1.00000000f, 1.00000000f, 1.00000000f, 1.00000000f,
    1.00000000f, 1.00000000f, 1.00000000f, 1.00000000f, 1.00000000f, 1.00000000f, 1.00000000f, 1.00000000f,
};

// Shape: (3, 3, 16, 16), dtype: float32
static const float stage0_block0_conv2_weight[2304] = {
    0.05294337f, 0.05547308f, -0.03344948f, -0.04865485f, -0.01350818f, -0.01899672f, -0.06358902f, -0.00566072f,
    0.00793252f, -0.00661567f, 0.01746277f, -0.01787581f, 0.00723537f, 0.05448236f, 0.03769594f, -0.03710032f,
    -0.08317291f, -0.01122761f, 0.02519481f, 0.01975274f, -0.04949698f, -0.08021551f, -0.06023090f, 0.03313318f,
    -0.05443135f, 0.04360709f, 0.04179319f, -0.06763818f, 0.07882114f, -0.04501936f, 0.08006607f, 0.00271551f,
    -0.05421765f, 0.06791632f, 0.06987362f, -0.06430644f, 0.04254195f, 0.00296064f, -0.00521843f, -0.02019616f,
    -0.05167753f, -0.07571700f, -0.04006004f, 0.00829359f, 0.01881375f, -0.07093006f, 0.05441701f, -0.05830222f,
    -0.03022474f, -0.00522946f, 0.01726902f, 0.00803559f, 0.06195096f, 0.06036313f, 0.05028921f, 0.06226784f,
    -0.07238873f, 0.05657265f, -0.07251056f, -0.06022684f, 0.05875904f, -0.03446413f, -0.03311732f, -0.07937034f,
    0.07043043f, -0.03942639f, 0.05745251f, -0.07263972f, 0.02111873f, -0.00018110f, -0.07302797f, 0.02121136f,
    0.06518523f, -0.01578274f, -0.03281476f, 0.03476912f, -0.01632870f, 0.08179320f, -0.04975306f, 0.01079582f,
    -0.02900248f, 0.06864314f, 0.04164957f, -0.07092767f, -0.03391188f, 0.02263778f, -0.05033317f, -0.03263330f,
    0.01807952f, 0.03667498f, -0.07509615f, 0.06417416f, 0.03888267f, -0.03460277f, 0.05653332f, 0.06007787f,
    0.01691309f, -0.07174522f, 0.00430694f, -0.00823108f, 0.03167243f, -0.05652190f, -0.07483329f, -0.02169231f,
    0.00063590f, 0.00524147f, 0.00746601f, 0.06127217f, 0.07288782f, -0.06714474f, 0.05059300f, 0.03695372f,
    -0.04948615f, 0.05386538f, 0.04240699f, 0.05901720f, -0.02811388f, 0.02473070f, 0.06601201f, -0.01347832f,
    0.08250065f, -0.06252801f, -0.05084774f, -0.02387386f, -0.01724220f, 0.00266471f, -0.08212933f, -0.02988346f,
    0.00438861f, 0.05644295f, -0.07772699f, 0.06507768f, 0.04908135f, -0.04621472f, 0.06595194f, 0.05342228f,
    -0.04546243f, -0.05271595f, 0.01456206f, 0.00092019f, -0.07757353f, -0.05401849f, 0.05636768f, 0.07737710f,
    0.07361443f, 0.05326247f, 0.07969254f, -0.03885258f, 0.07747053f, 0.03336295f, 0.01662097f, -0.07874560f,
    0.00344391f, -0.08021902f, 0.00938404f, -0.05929349f, -0.00522634f, -0.01543645f, -0.05375201f, -0.06143721f,
    0.04968625f, -0.00531958f, -0.02232277f, -0.07574217f, -0.04427966f, 0.06411024f, -0.06331023f, 0.04030947f,
    -0.05879606f, -0.05793134f, -0.05696708f, -0.03474598f, 0.01416553f, 0.05959951f, -0.03228945f, 0.00412784f,
    0.06012425f, -0.06682171f, -0.04269307f, -0.02255113f, -0.07237899f, -0.07854423f, -0.01839717f, -0.01771949f,
    0.01852155f, 0.01696400f, 0.01944279f, 0.02421272f, 0.01900879f, 0.01581990f, 0.05831438f, 0.07662483f,
    0.05616801f, -0.00523378f, 0.02209769f, -0.05594535f, 0.03596106f, 0.05674084f, 0.06735206f, -0.03240290f,
    -0.00023440f, -0.01183396f, 0.01535409f, -0.03003467f, -0.07343762f, -0.07127903f, -0.08317836f, 0.06646922f,
    -0.06614080f, 0.01996747f, -0.04796029f, -0.02157384f, 0.00347337f, -0.04775465f, 0.04985902f, 0.04877612f,
    0.01325272f, -0.06871857f, 0.06843149f, -0.04398657f, 0.03972727f, 0.03033314f, -0.01615558f, -0.03395212f,
    0.07663448f, 0.01185286f, 0.04676590f, -0.05145705f, 0.06825335f, -0.06190011f, -0.04154429f, 0.04127314f,
    -0.07096388f, 0.06139707f, -0.00640173f, 0.01159249f, 0.04819965f, 0.04260732f, -0.06189938f, -0.05941462f,
    0.02270583f, 0.07776371f, 0.03961874f, 0.08132546f, 0.00537180f, -0.03395905f, -0.06228771f, 0.00445294f,
    -0.02421725f, 0.02616545f, 0.02390331f, 0.06468993f, -0.00813993f, -0.00590998f, 0.07151495f, -0.01690836f,
    -0.05733266f, 0.02176972f, -0.04108800f, -0.07520142f, 0.05017514f, -0.03455609f, 0.06851248f, 0.05946781f,
    -0.06363552f, 0.04149790f, 0.07310163f, -0.05526388f, 0.05809733f, 0.04745570f, -0.07761946f, 0.00898816f,
    0.08003627f, 0.02633968f, 0.01379010f, -0.02807873f, 0.05484902f, 0.04929335f, -0.04686003f, 0.06624507f,
    -0.07877561f, 0.00835737f, 0.02763844f, -0.06030994f, -0.01768171f, -0.05599122f, 0.00520675f, -0.01774189f,
    0.08332574f, -0.00653872f, 0.07470790f, 0.03522676f, 0.06820013f, -0.03857310f, 0.03500604f, 0.00822883f,
    -0.00050779f, 0.03434585f, -0.02755794f, 0.07056955f, 0.04632878f, 0.04110738f, -0.01986388f, -0.02200807f,
    0.04253709f, -0.01493007f, 0.06832343f, -0.03064866f, -0.07676416f, 0.05061585f, -0.01961545f, -0.02959296f,
    -0.04705387f, 0.08164769f, -0.01619309f, 0.04237925f, -0.06754549f, -0.02347573f, -0.04309307f, 0.06274751f,
    -0.00404170f, 0.04549413f, 0.06048205f, 0.06132263f, 0.06428130f, -0.01382936f, -0.06296064f, -0.04759148f,
    -0.00628597f, 0.04897448f, -0.08330571f, 0.04149687f, -0.04555612f, -0.03371296f, 0.08069842f, 0.00993338f,
    0.00706964f, -0.06853899f, -0.05464822f, 0.01583181f, 0.07139236f, -0.06698261f, -0.06475156f, -0.03723460f,
    0.01339366f, -0.00410921f, 0.05179697f, -0.06001289f, -0.03252259f, 0.02860379f, 0.00448812f, -0.04264173f,
    -0.03113150f, -0.01372675f, -0.03479837f, 0.05471679f, -0.02220961f, -0.01854188f, -0.03924560f, 0.00400650f,
    0.03708386f, -0.06598877f, -0.04584899f, 0.02842798f, 0.02561834f, 0.02171745f, 0.01402388f, -0.05735905f,
    0.06393024f, -0.05280996f, -0.04089272f, -0.06115810f, 0.07500008f, -0.00728822f, 0.07199731f, 0.04416385f,
    -0.07778793f, -0.04125220f, -0.05063055f, 0.03082871f, -0.00916165f, 0.05248965f, 0.03954786f, 0.06862101f,
    0.02329597f, 0.03044893f, -0.07438232f, -0.04676262f, 0.04740226f, 0.05953477f, -0.06551066f, 0.01123108f,
    -0.04830145f, -0.08236507f, -0.04718583f, -0.07455262f, 0.05337761f, 0.04228839f, 0.08133847f, 0.01058831f,
    0.00121706f, -0.03283047f, 0.00726918f, -0.01962607f, 0.04666778f, 0.01373763f, 0.07423039f, 0.04239475f,
    0.06390085f, 0.03564151f, -0.02231239f, -0.04931816f, -0.02642654f, -0.06205323f, 0.05162198f, -0.04071405f,
    0.06960519f, -0.06350173f, -0.05899885f, 0.05293630f, -0.07297235f, -0.02541223f, -0.01372557f, -0.02332485f,
    0.00410224f, -0.05918393f, -0.01978610f, -0.00785519f, -0.06011724f, 0.00110337f, -0.01450070f, -0.02173650f,
    -0.00387987f, -0.06507637f, 0.02194255f, 0.06848879f, -0.04223718f, 0.04007341f, -0.01979262f, 0.07143851f,
    -0.04815432f, 0.06506895f, -0.04718904f, 0.07352930f, 0.05548119f, -0.02388960f, -0.07689631f, -0.03880772f,
    -0.06852841f, 0.04733469f, 0.07055061f, 0.03377496f, -0.04864990f, -0.07607245f, 0.04805674f, -0.05854208f,
    0.08314370f, 0.05767845f, -0.04806023f, 0.00057079f, 0.07732170f, -0.01373585f, 0.04265658f, -0.02529282f,
    -0.06634139f, 0.02374098f, -0.03508176f, 0.04397604f, -0.00233293f, -0.00677804f, -0.06172154f, -0.06580650f,
    -0.06100021f, -0.03414834f, -0.06871077f, 0.07797991f, 0.03670360f, -0.02642294f, -0.07949974f, -0.01901402f,
    -0.07812941f, 0.04776707f, -0.02773104f, -0.07819091f, -0.02629911f, -0.03532380f, 0.02189456f, 0.01308107f,
    -0.04409664f, -0.03897946f, -0.05228075f, 0.05416688f, 0.08235325f, 0.05100451f, -0.00682671f, 0.04037883f,
    0.07711797f, -0.06082314f, 0.07915975f, 0.03736715f, -0.06341901f, -0.06230621f, 0.04793673f, -0.04003146f,
    -0.03843432f, -0.06387066f, -0.04999831f, 0.05895535f, -0.04720122f, -0.02474814f, -0.03077348f, -0.01994182f,
    -0.07326607f, 0.07947505f, -0.00145209f, -0.00446300f, 0.05802558f, 0.05585911f, -0.02379357f, 0.03598590f,
    -0.06464153f, 0.08015613f, -0.05972300f, 0.03516614f, -0.04164228f, 0.05177474f, -0.02043940f, 0.07734071f,
    0.00539300f, -0.07724147f, 0.03526299f, -0.07544537f, 0.02144136f, -0.06266047f, -0.05547052f, -0.05501073f,
    0.04092458f, 0.08313172f, 0.04475946f, 0.06434795f, -0.05381208f, 0.05504804f, -0.06652737f, 0.05607645f,
    0.04624660f, 0.00637902f, 0.07765936f, 0.04613867f, -0.03832089f, 0.00681570f, 0.01679243f, -0.00238496f,
    -0.04686482f, -0.02220510f, -0.07317432f, -0.05309663f, -0.04417858f, -0.08113417f, 0.03620521f, -0.08013202f,
    -0.03297430f, 0.05486366f, 0.06414203f, -0.07478453f, -0.02022832f, -0.07633086f, -0.02512911f, 0.06889434f,
    -0.04248679f, 0.07899879f, -0.01693322f, 0.04404910f, 0.06838621f, 0.00891637f, 0.07365530f, -0.03310546f,
    -0.02082280f, -0.01964718f, -0.00508407f, 0.08168700f, -0.00406024f, -0.05678130f, -0.04863186f, 0.01462913f,
    0.06848519f, -0.06000447f, -0.06624516f, 0.06527299f, 0.06584752f, 0.08226421f, 0.03285097f, -0.05872532f,
    0.07677930f, 0.02711152f, 0.07570390f, -0.07197626f, 0.02942884f, -0.07893492f, 0.05775861f, -0.07737159f,
    0.07183649f, 0.05039754f, 0.01839291f, -0.02997028f, -0.00154007f, -0.03332888f, -0.04551877f, 0.05774265f,
    -0.07604636f, -0.02446347f, 0.05929174f, -0.02436902f, -0.07901939f, 0.02215537f, 0.04398605f, -0.05532697f,
    0.03033754f, 0.00096014f, 0.07342732f, 0.00429064f, -0.06044690f, -0.00960370f, 0.07597642f, 0.03335981f,
    0.04760236f, 0.01353877f, 0.07051425f, -0.05117364f, 0.00254105f, -0.07117982f, 0.07161184f, -0.07421243f,
    0.02964793f, 0.05957782f, -0.04787003f, 0.04484028f, -0.05121514f, 0.04981656f, -0.01086968f, 0.07555877f,
    -0.03554928f, 0.07538742f, 0.01703375f, -0.02984840f, -0.00890109f, 0.05978694f, -0.04891610f, -0.01843066f,
    0.00160899f, 0.06592827f, -0.00845411f, -0.01416917f, -0.05498148f, 0.03538784f, -0.03908858f, -0.03551200f,
    -0.02510355f, 0.08092632f, 0.04625104f, -0.08121338f, -0.02757359f, -0.05010863f, 0.02008862f, 0.07532831f,
    0.00434335f, -0.04908190f, -0.05014330f, 0.07396245f, -0.05897229f, -0.05378946f, 0.04953260f, 0.02157043f,
    -0.01555713f, -0.05454659f, 0.00743446f, 0.05728069f, -0.04102004f, 0.00636561f, -0.03042163f, 0.08202433f,
    0.04024215f, 0.00332071f, 0.06568518f, 0.03866758f, -0.07612328f, 0.05726641f, 0.01958836f, -0.01761597f,
    -0.08148739f, 0.02630510f, 0.07123360f, -0.04729267f, 0.05735837f, -0.06282680f, 0.01869231f, -0.03320959f,
    -0.01557672f, -0.06706076f, -0.07724777f, 0.03452787f, -0.00669380f, -0.06710933f, 0.01359553f, 0.00668328f,
    -0.03856039f, -0.07228920f, -0.02088011f, 0.07225715f, 0.03564311f, -0.01512370f, 0.07059771f, 0.03996121f,
    -0.00620642f, 0.03486615f, -0.03411283f, -0.03890350f, 0.06428996f, -0.04916748f, 0.00431092f, 0.05719730f,
    0.00286430f, -0.05352079f, 0.07655276f, 0.03302906f, -0.03646472f, 0.07114842f, -0.05327998f, -0.05565473f,
    0.06586143f, 0.05621484f, 0.04631869f, -0.02011982f, -0.05380092f, -0.00751061f, -0.06384521f, -0.03247094f,
    0.01796811f, -0.00676656f, 0.02652317f, 0.01140511f, 0.03009617f, -0.04964965f, -0.01081723f, 0.08126306f,
    -0.02043288f, -0.01515064f, -0.02739103f, 0.04079254f, 0.07576372f, -0.00494261f, -0.03984028f, 0.02273172f,
    -0.00872130f, 0.03517150f, 0.06595594f, -0.02702206f, 0.03638202f, -0.02854907f, 0.05067022f, -0.03960741f,
    0.03802434f, 0.06043674f, -0.01287582f, -0.04448843f, -0.07853460f, -0.03255954f, 0.03339618f, 0.05037708f,
    -0.03768698f, -0.08263920f, -0.07030716f, -0.08279472f, 0.08273688f, 0.02144751f, -0.00187989f, -0.06360450f,
    0.03414859f, -0.00165413f, -0.04739933f, 0.02629710f, 0.02878653f, 0.05661773f, 0.06602435f, -0.02688653f,
    0.05612862f, -0.03574532f, 0.06344895f, -0.06774321f, 0.04821883f, -0.04554217f, 0.02048318f, 0.06681868f,
    -0.06787188f, -0.04669490f, -0.02840761f, -0.00684350f, -0.07862300f, 0.06848717f, 0.01592641f, -0.05435312f,
    0.01661943f, 0.06397983f, 0.05038609f, -0.06702104f, -0.04115972f, -0.05587277f, -0.05020675f, -0.05086781f,
    -0.04728610f, 0.01925514f, -0.02679262f, 0.07811324f, 0.00316101f, -0.02630780f, -0.07164642f, -0.03850941f,
    0.05815223f, 0.06488165f, -0.01785545f, 0.01835920f, -0.04295091f, -0.02715862f, 0.06671201f, -0.06389451f,
    -0.07935696f, 0.07708716f, -0.04428903f, -0.08309048f, 0.03944865f, -0.03927737f, 0.07586160f, -0.05821682f,
    -0.07195630f, -0.07107018f, -0.08214179f, -0.00165535f, -0.08301055f, -0.04274295f, -0.03447537f, -0.04925557f,
    -0.02920200f, -0.03354050f, -0.05813217f, -0.01827835f, 0.04675054f, 0.00726854f, 0.00352713f, -0.02304726f,
    -0.02003390f, -0.03967997f, -0.04558220f, 0.04719913f, -0.02984664f, 0.07695012f, 0.07365490f, -0.03346145f,
    -0.07375374f, 0.02074528f, -0.03615471f, 0.03361772f, 0.01519941f, -0.03010582f, 0.04661860f, -0.05064705f,
    0.02883521f, -0.05794872f, 0.04337717f, 0.03334921f, -0.05063074f, 0.02515870f, -0.05273127f, -0.07666518f,
    -0.04791129f, 0.07293385f, -0.04643211f, 0.07316153f, 0.02674233f, 0.05086299f, 0.03985330f, -0.06041383f,
    -0.04928502f, -0.08261989f, -0.05694951f, -0.02223786f, -0.06909855f, -0.01505275f, 0.05939224f, 0.08331418f,
    0.03755157f, -0.04295912f, -0.06347062f, -0.00862749f, 0.07281084f, 0.07477526f, -0.04499844f, 0.04144203f,
    -0.01372990f, 0.00995800f, 0.04124721f, -0.04567068f, -0.07409154f, 0.03245594f, 0.07711764f, -0.07821620f,
    0.05147228f, 0.01375462f, -0.03422803f, 0.05748640f, 0.06885712f, 0.04181289f, 0.07272481f, 0.08108968f,
    0.01706496f, -0.02390934f, -0.06033072f, -0.08015646f, -0.03311236f, 0.01623189f, 0.02478749f, -0.04890009f,
    0.07862370f, -0.05133295f, 0.02871048f, 0.08116489f, 0.06067926f, -0.00235221f, -0.02610654f, -0.03643176f,
    -0.02221389f, -0.00599746f, 0.00009456f, 0.03067632f, 0.08003035f, 0.07058556f, 0.07912858f, 0.06849238f,
    -0.04170623f, 0.02101549f, 0.00341474f, -0.03989830f, 0.03765514f, -0.07387383f, -0.04080062f, -0.06275728f,
    -0.00937902f, 0.08252101f, -0.03815902f, -0.02063043f, 0.01218760f, -0.06730805f, 0.07411520f, -0.03938761f,
    -0.02615632f, -0.00331437f, -0.07881074f, -0.03447871f, -0.06897067f, 0.02404910f, 0.03425257f, -0.05482300f,
    -0.00619212f, 0.03030512f, -0.02618643f, -0.00861578f, -0.05294192f, -0.04569443f, -0.00794933f, 0.06586516f,
    -0.00906253f, -0.07847130f, -0.07083905f, 0.08208337f, -0.00580921f, -0.02443842f, 0.01973223f, 0.06946623f,
    0.02145727f, 0.06842464f, -0.07045289f, -0.03272587f, -0.05621832f, -0.05197106f, -0.03091206f, -0.00798430f,
    0.02718911f, 0.03614023f, -0.04715692f, -0.01467162f, -0.06099775f, -0.06222874f, -0.07964435f, -0.04484777f,
    0.01091092f, 0.05754916f, 0.01168342f, 0.00894498f, -0.00088228f, -0.04643966f, -0.04786838f, 0.08299296f,
    -0.06099605f, -0.07891011f, 0.05842159f, 0.04247689f, -0.04804800f, -0.07263422f, -0.00015327f, 0.02362444f,
    -0.04238270f, 0.04601919f, 0.03969377f, 0.01164631f, -0.02144167f, 0.06251045f, 0.00281540f, 0.05907193f,
    -0.07316203f, 0.07037799f, 0.03756139f, 0.07918500f, 0.07616609f, 0.08124208f, -0.00533396f, 0.05834680f,
    -0.01372002f, 0.04229426f, 0.02527959f, -0.05004063f, 0.07363283f, 0.04412219f, -0.02138506f, 0.01671309f,
    -0.00763657f, 0.05419713f, -0.03194722f, 0.07922079f, -0.00079929f, -0.04450665f, -0.04566866f, 0.00417391f,
    -0.04933810f, 0.07840531f, 0.04611966f, 0.06156174f, 0.06046923f, 0.07780825f, -0.05241081f, 0.05900607f,
    0.07286984f, 0.03105696f, -0.08149651f, -0.05105528f, -0.04901630f, 0.07565904f, -0.01347201f, 0.01719282f,
    -0.03050388f, -0.02833185f, -0.07728353f, -0.05515313f, -0.08012234f, -0.05405477f, 0.02593726f, -0.00386052f,
    0.03263084f, 0.05824748f, -0.01695167f, -0.04910111f, -0.04547818f, -0.08077826f, -0.04493656f, 0.08161487f,
    -0.04448306f, 0.06358370f, 0.04724721f, 0.04354975f, -0.00810015f, -0.02140631f, 0.06284347f, -0.00486520f,
    0.03223712f, 0.07397866f, -0.01533998f, -0.06491026f, 0.03717582f, -0.01575535f, -0.05195717f, -0.02112639f,
    -0.00391456f, -0.04704711f, 0.00564986f, -0.01129334f, -0.05458743f, 0.03805728f, 0.05154854f, 0.00456496f,
    0.07807368f, 0.05637760f, -0.01307081f, 0.05262925f, 0.00806919f, 0.06902419f, -0.01498381f, 0.02500123f,
    0.04411461f, -0.02835554f, 0.04524332f, 0.01896161f, -0.05389110f, -0.01324469f, -0.02728935f, 0.02347256f,
    -0.05398863f, 0.00836289f, -0.04927026f, 0.00610678f, -0.02692291f, -0.03274301f, -0.06118249f, 0.02504813f,
    0.00498046f, -0.03631998f, -0.02851327f, -0.06029230f, 0.06986734f, 0.07237353f, -0.07161997f, 0.01060925f,
    -0.08122601f, 0.03817072f, -0.00400160f, 0.04851852f, 0.03162092f, 0.05182323f, -0.07600945f, 0.01421907f,
    -0.07200094f, -0.07625231f, 0.05019877f, 0.06618035f, 0.01680557f, -0.05742976f, -0.05973393f, -0.05081698f,
    0.05128209f, -0.04955411f, -0.02893950f, 0.07842696f, -0.07097309f, 0.03741773f, -0.05582105f, 0.07034646f,
    -0.04699995f, -0.05436891f, -0.02243996f, -0.03076927f, 0.05621973f, 0.03642645f, 0.07570630f, 0.06356114f,
    -0.05559555f, -0.08250250f, 0.07892767f, 0.03101273f, 0.01873483f, -0.02778944f, -0.03558146f, 0.07746674f,
    0.05164501f, -0.02152338f, -0.03286445f, -0.03912539f, -0.03229007f, -0.06781646f, 0.00760591f, 0.01206367f,
    -0.07229929f, 0.03525188f, -0.01802745f, 0.06533527f, -0.06958863f, -0.02854162f, -0.05722278f, 0.06174093f,
    0.01486599f, 0.01672713f, -0.07097492f, -0.08174081f, 0.05754569f, -0.03693314f, -0.02100413f, -0.07080854f,
    -0.07019855f, -0.02510166f, 0.07939765f, 0.00506269f, 0.05628297f, 0.06206854f, -0.05450487f, 0.03580556f,
    -0.07911398f, 0.01353383f, 0.05087514f, -0.04068442f, -0.01615538f, 0.05524145f, 0.07317476f, 0.02903605f,
    0.04250833f, -0.03088592f, 0.03872610f, 0.07211974f, 0.01322729f, 0.04074178f, 0.05768514f, -0.07827100f,
    0.00419645f, 0.06936260f, -0.04999409f, -0.03122222f, 0.07962524f, 0.02183645f, -0.04548091f, -0.02464581f,
    -0.03058575f, 0.00104859f, 0.07763250f, 0.04014237f, 0.03305858f, 0.06030720f, 0.00711240f, 0.06942355f,
    -0.02866961f, 0.01856603f, -0.01070503f, 0.00936021f, -0.04651642f, 0.06958999f, 0.02539140f, 0.06329349f,
    0.04277741f, 0.03836250f, -0.04859584f, 0.02011259f, 0.04585152f, 0.01895111f, 0.04308519f, -0.00929410f,
    0.07314836f, 0.00050717f, -0.01389788f, -0.05307224f, -0.05540088f, 0.07114069f, 0.02065153f, 0.04106371f,
    0.02006688f, -0.00782047f, -0.05818420f, -0.06715336f, 0.02124954f, -0.08062171f, 0.00484019f, -0.01984121f,
    0.05355790f, -0.04809878f, -0.02823323f, 0.00188198f, -0.08127948f, 0.04342191f, 0.02201466f, 0.07421189f,
    -0.07033031f, 0.04247276f, 0.08153131f, 0.02461891f, -0.03450674f, -0.07713529f, 0.05759940f, 0.01206200f,
    0.03620499f, -0.05332790f, 0.02826269f, -0.01172000f, 0.07965590f, -0.00067436f, 0.01622754f, 0.01835045f,
    -0.00857686f, 0.01210975f, -0.05741988f, -0.00932404f, -0.00605114f, -0.04451200f, 0.00568782f, -0.07974684f,
    -0.07204752f, -0.02844518f, -0.02309530f, 0.02188087f, -0.05798179f, 0.00004850f, 0.00408629f, 0.03102807f,
    0.03635253f, -0.01315777f, 0.00594674f, -0.04031243f, -0.05694735f, 0.05752691f, -0.00559182f, 0.06921455f,
    0.02996662f, -0.04009498f, -0.02607501f, 0.00929874f, -0.03907515f, -0.08234139f, 0.02238984f, 0.01779016f,
    0.03447928f, -0.06548122f, 0.01227974f, 0.07691505f, 0.05818184f, 0.06356929f, -0.02978032f, 0.06790999f,
    -0.08205347f, 0.02850862f, -0.06970851f, 0.03508846f, 0.05788860f, 0.06113466f, 0.07541162f, 0.00346041f,
    0.00780515f, 0.07619520f, 0.02860553f, -0.01424498f, 0.03645353f, 0.04955582f, 0.00878711f, 0.04976922f,
    -0.06357984f, -0.00004545f, -0.02560601f, 0.02741126f, -0.05405940f, 0.06932216f, 0.00942412f, -0.05842961f,
    0.03849230f, -0.00598145f, 0.02921461f, 0.06371351f, 0.07821359f, -0.08178660f, 0.03917335f, -0.05614761f,
    -0.03736212f, -0.05054830f, 0.03622656f, 0.05397528f, -0.02030372f, 0.04060945f, 0.05498406f, 0.05451591f,
    0.00402811f, 0.02027565f, -0.07248552f, 0.00464740f, 0.04479277f, -0.02326241f, 0.02728242f, 0.07446872f,
    0.04410266f, -0.07630720f, -0.03079379f, 0.00556872f, -0.01254782f, -0.01694188f, 0.04573848f, -0.08145734f,
    0.03012935f, 0.07099962f, 0.03435075f, 0.07001200f, -0.07498240f, -0.01540172f, 0.00808876f, -0.02521944f,
    0.00036546f, -0.05812235f, 0.02469232f, 0.02809441f, 0.07992490f, -0.02480996f, 0.00839663f, -0.02778921f,
    0.08293043f, -0.00443781f, -0.02520138f, -0.01016005f, -0.00999857f, 0.01182875f, -0.02789200f, 0.05124610f,
    0.01363125f, 0.02636867f, -0.05692548f, -0.07367507f, -0.02773848f, -0.00807308f, -0.04065495f, -0.04865318f,
    0.08011489f, 0.05190482f, 0.00618311f, -0.06491309f, 0.06972545f, -0.04095867f, -0.04435722f, -0.06132182f,
    -0.00090863f, -0.01858772f, -0.02964327f, -0.01138960f, -0.03053526f, -0.05938686f, -0.05368059f, -0.03365154f,
    -0.06956603f, -0.04320419f, -0.04396157f, 0.00045275f, 0.05592445f, 0.02286579f, 0.06926661f, -0.03990264f,
    0.02463066f, -0.04123371f, -0.05888861f, 0.06221523f, -0.01209714f, -0.00709218f, 0.01792960f, -0.07141638f,
    -0.05130178f, 0.07350242f, 0.04707238f, 0.03982934f, -0.01333581f, 0.02319181f, -0.05698034f, 0.00932086f,
    0.06817798f, -0.06613355f, -0.01706041f, 0.07525878f, 0.05880482f, -0.04803954f, -0.03576975f, 0.06872835f,
    -0.04128494f, -0.08156350f, -0.00249657f, -0.02267013f, -0.01127114f, -0.03763977f, -0.03397933f, 0.04393129f,
    -0.07639664f, 0.07700022f, -0.07336998f, 0.01475286f, -0.07737783f, 0.07736098f, 0.04839272f, 0.00937874f,
    0.02468905f, 0.06598096f, 0.01627280f, 0.02018756f, 0.03793333f, -0.06310984f, -0.01093188f, -0.01373082f,
    -0.00298651f, -0.02961483f, -0.06960283f, -0.04424931f, 0.07852878f, -0.06844129f, -0.08249137f, -0.02968579f,
    -0.04319345f, 0.05301389f, -0.03132835f, -0.07048076f, -0.00256146f, -0.06669387f, -0.04297447f, 0.07263132f,
    0.02266834f, -0.07580095f, -0.05273746f, -0.01771600f, -0.06558919f, -0.00532013f, 0.00996566f, -0.07858645f,
    -0.04328021f, -0.08298151f, 0.00395091f, 0.06365612f, -0.07361832f, 0.02948648f, -0.04324641f, -0.01453511f,
    0.02673580f, 0.05144828f, 0.06744077f, -0.04497262f, 0.05330960f, -0.06163248f, 0.01013505f, -0.03987597f,
    -0.01729592f, -0.01494884f, 0.01246039f, 0.01132669f, 0.07227637f, 0.04594411f, 0.07466291f, 0.06500449f,
    0.01779240f, 0.03521246f, 0.04862626f, 0.05956241f, -0.06934467f, 0.03363441f, 0.06316695f, -0.02910476f,
    -0.06397261f, -0.01556914f, -0.02599670f, 0.08207085f, -0.01666882f, 0.01168319f, 0.07272974f, 0.00289103f,
    -0.03596840f, 0.00620538f, 0.00806767f, -0.03899467f, 0.03214101f, 0.02513610f, -0.04885151f, 0.06013751f,
    0.05356749f, -0.04808120f, 0.06506068f, 0.00110922f, -0.04384617f, -0.02495238f, -0.07268354f, 0.07373502f,
    0.06689101f, 0.06936413f, -0.08238028f, 0.06853133f, -0.01996657f, 0.00934457f, -0.08053401f, -0.01883250f,
    0.06151392f, 0.06095303f, 0.00034474f, 0.00317642f, 0.04200051f, -0.03467796f, 0.03215978f, 0.02645120f,
    0.02748662f, 0.02580643f, 0.07703690f, -0.02975391f, 0.01249934f, 0.01880527f, 0.02538477f, -0.01142443f,
    -0.03920899f, -0.03211953f, -0.04466848f, -0.07264351f, -0.03167563f, 0.06705315f, 0.00007979f, -0.07584186f,
    0.01863307f, -0.07078775f, 0.05534368f, -0.01378292f, 0.01518219f, -0.02875285f, 0.03310471f, -0.05655685f,
    -0.00374718f, 0.01182827f, -0.04686790f, -0.07589108f, -0.02750880f, 0.06150067f, -0.03039627f, 0.07243900f,
    -0.04982685f, 0.05205761f, 0.06926324f, -0.02868833f, 0.00394677f, 0.06055915f, -0.01169410f, 0.01910786f,
    -0.04938930f, 0.03222510f, -0.01896586f, -0.01576903f, 0.01365406f, -0.04146405f, 0.04686978f, -0.01090016f,
    -0.00339852f, 0.00404248f, -0.07421615f, 0.03941600f, 0.04518133f, -0.04480275f, -0.03175622f, 0.05421624f,
    -0.04843390f, 0.04439580f, 0.07814270f, 0.00346324f, -0.01310740f, 0.01596711f, 0.04942931f, 0.07533617f,
    0.02225021f, -0.00199522f, 0.01825562f, -0.03541675f, -0.08140840f, -0.00418875f, 0.04928459f, 0.01007215f,
    0.06055249f, -0.01939237f, 0.02280772f, -0.02107677f, 0.07237238f, 0.07552864f, -0.04367223f, 0.03709528f,
    0.03402853f, -0.01117819f, -0.00243964f, -0.03501310f, 0.03323942f, -0.01962031f, 0.02314578f, 0.01499762f,
    -0.07172969f, 0.05893862f, 0.01495578f, 0.01871744f, 0.04319518f, 0.03165552f, 0.04991185f, -0.06126534f,
    0.02114024f, 0.04568366f, 0.05452396f, 0.00313586f, 0.00089850f, 0.02620040f, -0.04227920f, 0.05899278f,
    0.06145869f, 0.01328687f, 0.02448990f, 0.01444177f, -0.01341770f, -0.00599094f, -0.01168297f, 0.00604486f,
    -0.03643359f, 0.07734761f, 0.01953431f, -0.07272857f, -0.00062838f, 0.03317764f, 0.07791313f, -0.00860598f,
    -0.08081867f, 0.07137981f, -0.05539130f, 0.04519984f, 0.01843729f, -0.06668045f, -0.03352990f, 0.06228685f,
    -0.07973319f, -0.06093951f, -0.00687264f, -0.04840627f, 0.01819014f, 0.01172137f, 0.03912030f, -0.03513209f,
    -0.01656728f, 0.06955755f, -0.07128408f, -0.02130448f, -0.01498565f, 0.06567100f, -0.05077822f, 0.06139392f,
    -0.07456945f, 0.04629364f, -0.03055671f, -0.07787993f, 0.07926331f, -0.02492873f, 0.02642517f, -0.05778102f,
    0.08016938f, 0.06124434f, 0.03771484f, -0.02516292f, 0.03428679f, -0.08071291f, 0.01936182f, -0.04578028f,
    0.02277046f, -0.02700583f, -0.03729481f, 0.04011219f, -0.07903802f, -0.07596280f, -0.00229859f, 0.06754266f,
    0.02857815f, -0.01412940f, 0.00570977f, -0.02949648f, -0.07706355f, 0.04878274f, 0.02152889f, 0.06745948f,
    0.07442169f, 0.00436559f, -0.07605119f, -0.07585108f, 0.00151450f, 0.03828869f, 0.03665973f, 0.05400259f,
    0.01847439f, 0.01391844f, 0.01723474f, 0.05463273f, 0.03197645f, 0.07624596f, 0.00889039f, 0.06011615f,
    -0.02163792f, 0.05694773f, 0.03162047f, -0.01951219f, -0.06697494f, 0.07602072f, 0.01145992f, -0.05869145f,
    0.07366697f, -0.07283655f, 0.03592957f, 0.02547660f, 0.01389973f, 0.07090949f, -0.02130425f, -0.07077062f,
    0.07791552f, -0.01174131f, 0.03036554f, 0.00710928f, -0.02982280f, 0.01550230f, -0.02642533f, 0.02823779f,
    0.06200250f, -0.05865441f, 0.03256397f, -0.00791914f, -0.07363533f, -0.05220076f, -0.05541700f, 0.02745667f,
    0.02809522f, 0.01054534f, -0.04602508f, -0.02783768f, 0.00203469f, 0.03418455f, 0.03819936f, 0.00788457f,
    -0.01918302f, 0.06442508f, 0.04254417f, 0.03039179f, 0.05421579f, -0.00091237f, -0.05819635f, -0.05195373f,
    -0.06642865f, -0.06649425f, -0.02038976f, 0.01558820f, 0.06471445f, -0.08058473f, -0.04898410f, -0.02885356f,
    -0.06765439f, -0.00638932f, -0.04107224f, -0.01646080f, 0.04265286f, -0.03376006f, -0.05196997f, 0.04987296f,
    -0.05553933f, -0.00355422f, 0.03381808f, -0.05226422f, -0.08080392f, 0.05052234f, -0.00428432f, -0.04150213f,
    0.02469271f, -0.01487287f, -0.01593038f, 0.04628623f, 0.06808268f, -0.01897974f, -0.02072873f, -0.03048030f,
    -0.04541462f, 0.01446600f, 0.04991759f, -0.05384747f, -0.00903713f, 0.03576247f, -0.01171360f, -0.05103352f,
    0.00749361f, -0.07794814f, 0.03685226f, 0.05667093f, 0.04084284f, -0.00902450f, -0.04398431f, -0.06159621f,
    -0.04877478f, 0.03918779f, 0.02271128f, -0.05529451f, -0.06389361f, 0.03202761f, 0.06890817f, -0.01276754f,
    0.06998803f, 0.07367076f, -0.03367816f, -0.02329762f, -0.06438188f, -0.07303920f, 0.05952613f, 0.04654904f,
    -0.01781301f, -0.00499130f, 0.03812304f, 0.03660903f, 0.03639513f, 0.06251742f, -0.01209159f, 0.08048528f,
    -0.01695548f, -0.01284467f, -0.07725632f, -0.00401235f, -0.05093127f, 0.05067715f, 0.02155822f, 0.05300320f,
    0.07211067f, -0.01700004f, 0.02950446f, -0.02958893f, 0.06279286f, -0.04436120f, 0.03032014f, -0.05266014f,
    0.06533226f, -0.07089068f, 0.03052073f, 0.01330151f, -0.04792232f, -0.07946819f, -0.04933354f, -0.06198813f,
    -0.07901113f, -0.08029090f, 0.00763360f, -0.07979979f, -0.02194875f, 0.02873351f, -0.01749271f, -0.02816653f,
    0.03681383f, 0.06050371f, 0.06437302f, 0.00135956f, -0.06014551f, -0.03121401f, 0.01679423f, -0.07724905f,
    -0.03332219f, 0.08126345f, -0.02139550f, -0.04038474f, -0.04353605f, 0.00042685f, -0.01637396f, 0.01640753f,
    0.02335023f, -0.00723450f, 0.04729974f, 0.04906278f, 0.03707705f, 0.04653950f, 0.05506247f, 0.05396905f,
    0.07365789f, -0.02620796f, -0.01233090f, 0.06236706f, 0.07167678f, 0.04511062f, 0.04533604f, -0.00781229f,
    0.03379209f, 0.00252147f, 0.03363016f, 0.00593640f, 0.07506700f, -0.03957981f, 0.08250084f, 0.05873060f,
    0.06160858f, 0.04665800f, 0.00775056f, 0.00142792f, -0.05121141f, 0.04463516f, -0.07827389f, 0.04910750f,
    -0.07045181f, 0.07357856f, 0.00668983f, 0.00878858f, -0.01606013f, -0.00008961f, -0.04789545f, -0.06861846f,
    0.08005668f, -0.02874982f, 0.06137322f, 0.08091687f, -0.00055972f, 0.07491636f, -0.03470567f, 0.07229783f,
    -0.03796219f, -0.00333269f, 0.04226431f, -0.00218016f, -0.08258152f, -0.05714440f, -0.01924714f, 0.04155004f,
    0.02084984f, 0.00069075f, -0.02726453f, 0.07455327f, -0.07668856f, 0.02101276f, 0.06320744f, -0.00446082f,
    -0.07925411f, -0.06090721f, 0.03361282f, 0.04218918f, 0.05311088f, 0.00340713f, -0.07667057f, 0.03734149f,
    -0.04634096f, -0.07855000f, -0.03599095f, -0.06108096f, -0.01055771f, 0.03314608f, -0.00131481f, -0.06670065f,
    -0.01525581f, -0.01815568f, -0.07845964f, -0.01464836f, 0.07315980f, -0.04836790f, -0.08071958f, -0.04343513f,
    -0.02465448f, -0.06673476f, -0.05893843f, -0.02754989f, 0.03634343f, 0.04025010f, -0.04568718f, 0.03124611f,
    -0.07873350f, 0.06470540f, 0.07095172f, -0.07338213f, -0.04798080f, 0.06330743f, -0.01900244f, -0.05619690f,
    0.00666896f, -0.07737213f, -0.02429750f, 0.01588174f, 0.00432409f, -0.04768572f, -0.07880401f, -0.03114089f,
    0.00906867f, 0.05143246f, -0.05772371f, -0.07508242f, -0.03633898f, -0.05635800f, -0.02662632f, 0.04081520f,
    -0.07007098f, -0.08309784f, -0.03704343f, -0.06674731f, -0.06314638f, 0.05668998f, -0.07962863f, 0.07726116f,
    0.03305467f, 0.05542856f, 0.05346733f, -0.02065587f, 0.03513421f, 0.08057913f, -0.01930593f, 0.01577157f,
    0.00407674f, 0.05427361f, -0.01680265f, 0.04795251f, -0.02906055f, 0.02644783f, -0.04624952f, -0.00375529f,
    -0.08299799f, -0.02404309f, -0.00738150f, -0.00339074f, -0.04421992f, 0.04588959f, -0.06643640f, -0.00419807f,
    0.07887354f, -0.04878310f, -0.07139908f, 0.03354785f, -0.04902412f, 0.08297338f, 0.04990056f, -0.02981765f,
    -0.06684661f, -0.02144894f, -0.03355822f, -0.03051625f, -0.07803777f, 0.06867507f, 0.04499246f, -0.03522822f,
    -0.05911925f, -0.03773651f, -0.04601836f, -0.06534211f, 0.00644483f, -0.03119810f, 0.01732784f, 0.05236713f,
    0.07530867f, 0.04655505f, 0.01034092f, -0.08270811f, 0.01751919f, 0.03474764f, -0.04058092f, 0.02506739f,
    0.08215952f, 0.03796264f, 0.03382193f, 0.06902384f, -0.06107464f, -0.08065122f, -0.05351900f, 0.06246759f,
    -0.06720573f, 0.03987954f, 0.02061152f, -0.08276629f, -0.05230012f, -0.01957231f, 0.04094572f, 0.07797344f,
    -0.04815055f, 0.03533975f, 0.06427121f, -0.02153574f, -0.00370938f, 0.05739353f, -0.01552720f, -0.04396656f,
    0.00688502f, -0.01656443f, -0.02361840f, 0.05521362f, -0.02252160f, 0.04304840f, 0.01214601f, -0.01412223f,
    0.06076140f, -0.05463414f, -0.00819652f, -0.06606261f, 0.06840228f, 0.06068046f, -0.03170177f, 0.03452661f,
    -0.00347642f, 0.00315662f, 0.02920236f, -0.03817682f, 0.04827043f, 0.06193341f, 0.03139734f, -0.04423618f,
    -0.00433985f, -0.07559744f, 0.08260681f, 0.07060533f, -0.03968307f, 0.00232970f, 0.05483593f, -0.01918448f,
    -0.03701045f, -0.05027001f, 0.05617503f, 0.03466026f, -0.02367253f, -0.08134551f, 0.07762112f, 0.05588030f,
    0.07622986f, -0.02160571f, 0.06459276f, 0.06654041f, -0.06101671f, 0.03635513f, 0.05672351f, -0.01096912f,
    -0.08219627f, -0.01867944f, -0.07085045f, 0.01226171f, 0.00185534f, 0.02967341f, 0.00740760f, -0.02239531f,
    0.00795054f, 0.04884232f, -0.05586319f, -0.06318306f, 0.05636766f, 0.06064326f, -0.00015651f, -0.00551740f,
    -0.03386463f, 0.07384181f, 0.05634610f, 0.07468377f, -0.02103408f, -0.01145991f, -0.04345793f, 0.00861232f,
    -0.01511593f, 0.05106006f, -0.06797179f, -0.00923654f, 0.05225419f, -0.05844504f, 0.01184855f, -0.04907212f,
