// Auto-generated weights file
// DO NOT EDIT

#ifndef WEIGHTS_H_
#define WEIGHTS_H_

#include <stddef.h>
#include <stdint.h>

// Shape: (5, 5, 6, 16), dtype: float32
static const float stem_conv_weight[2400] = {
    -0.00270562f, -0.04381891f, -0.02190991f, -0.01493391f, 0.07991014f, 0.07131173f, 0.04724284f, -0.05500143f,
    -0.05810265f, -0.03626468f, -0.06836992f, -0.02335852f, 0.08127031f, -0.02248046f, -0.04220067f, -0.05368247f,
    0.07004884f, 0.03762693f, 0.04922505f, -0.05950482f, -0.03250806f, 0.00022560f, 0.04496386f, 0.07615001f,
    -0.00635290f, 0.04294619f, -0.05326705f, -0.00717919f, 0.04902063f, -0.03508354f, -0.03251017f, 0.02195952f,
    -0.04533522f, 0.06280212f, -0.05076548f, -0.03885196f, 0.07000949f, 0.01943880f, 0.00122640f, -0.01521315f,
    0.03810489f, 0.04528623f, 0.03420039f, -0.04555732f, -0.05729761f, -0.04041590f, 0.07838745f, 0.07742979f,
    0.07661785f, -0.06673207f, -0.00641691f, 0.06914978f, 0.00534471f, -0.05889854f, -0.01532461f, -0.04059758f,
    -0.02628301f, -0.03588304f, 0.04267558f, 0.07812651f, 0.07612588f, -0.01965994f, 0.05744890f, 0.02852921f,
    -0.01500739f, -0.07034446f, 0.07398080f, -0.06622288f, 0.02955250f, 0.03283416f, 0.06030028f, 0.00447082f,
    0.04564038f, 0.07755183f, 0.00395970f, -0.03200095f, -0.04350085f, -0.02232175f, 0.07509205f, 0.03072903f,
    0.01291608f, 0.08042988f, 0.03987565f, 0.00922561f, 0.06558234f, -0.00355775f, -0.05770303f, 0.08046019f,
    -0.04749312f, 0.05639213f, 0.04567357f, 0.07160296f, -0.06465708f, -0.07285421f, -0.01254320f, -0.00213597f,
    -0.07695306f, -0.07059258f, 0.05953517f, 0.05989486f, -0.03081165f, 0.00961339f, -0.06591636f, -0.07831093f,
    0.08117549f, 0.04368597f, -0.06050971f, -0.00709592f, 0.02354460f, -0.01131300f, -0.08000870f, -0.03428590f,
    -0.03546686f, 0.06606045f, -0.05832557f, 0.03995389f, -0.04972468f, -0.03967246f, 0.00452060f, 0.07697333f,
    -0.06502999f, 0.03878906f, -0.00417092f, -0.01549833f, 0.05946732f, -0.04460194f, -0.05562574f, 0.06564714f,
    -0.00910794f, 0.00994708f, -0.02333100f, -0.07397910f, 0.07413904f, 0.02803950f, -0.03133379f, 0.05637109f,
    -0.06869481f, 0.00585577f, -0.07795123f, -0.03315156f, -0.01256252f, 0.06148901f, -0.02175246f, -0.04742205f,
    0.02720038f, -0.03877287f, -0.04201629f, -0.03294076f, -0.06696512f, 0.00150595f, -0.00064909f, -0.02182567f,
    0.06745094f, 0.06026232f, -0.05275334f, 0.03363947f, 0.05128637f, -0.03673100f, 0.02705097f, -0.06794102f,
    -0.00310659f, -0.07814787f, 0.02817105f, 0.04448072f, 0.02178382f, 0.04795056f, -0.01341806f, -0.06065760f,
    -0.00681531f, -0.00694472f, 0.00441230f, 0.00287683f, -0.01759487f, 0.05464479f, -0.01572379f, 0.00638979f,
    -0.05041955f, -0.00288804f, 0.05862727f, 0.01523955f, -0.04487203f, 0.00636029f, 0.06517964f, -0.06770582f,
    0.05494103f, -0.04843269f, -0.04156914f, -0.07610925f, -0.04576647f, 0.06719665f, -0.00136933f, 0.01416742f,
    -0.00131378f, 0.07043519f, 0.07907821f, 0.03454031f, 0.00194633f, -0.06300419f, 0.05826342f, -0.04809802f,
    -0.00527074f, -0.00133916f, 0.04749989f, 0.01020004f, -0.05377392f, 0.01907836f, -0.02333328f, 0.04219895f,
    -0.05555706f, 0.06266482f, 0.01595289f, -0.07603936f, -0.07743856f, -0.00546195f, -0.00487044f, 0.02763723f,
    -0.07682329f, -0.03773198f, 0.04270496f, -0.02192573f, 0.00025115f, -0.01247251f, 0.05531073f, -0.03546143f,
    -0.04718213f, 0.02757767f, 0.07499513f, -0.07713508f, -0.00179596f, 0.05105578f, -0.05658564f, -0.07828977f,
    0.01769784f, 0.06330483f, -0.04403682f, -0.04304418f, 0.01837162f, -0.04703699f, -0.03208395f, 0.04901612f,
    0.04976094f, -0.02778413f, 0.00063765f, 0.00667959f, 0.02755443f, 0.00406285f, 0.04138203f, -0.07368059f,
    0.06929488f, 0.05083504f, -0.03606548f, -0.06452122f, -0.07377477f, 0.05301825f, -0.04422927f, -0.04375650f,
    0.04057188f, -0.07314634f, 0.04091223f, -0.07833380f, 0.00870412f, 0.02102269f, -0.08015212f, -0.02602061f,
    -0.04785718f, 0.06117972f, -0.05684063f, 0.04205399f, 0.04246999f, 0.02690861f, -0.04167394f, 0.06355175f,
    0.00980096f, 0.06620531f, -0.01925877f, 0.06496072f, -0.03948431f, -0.05761168f, -0.02917105f, 0.02557158f,
    0.00277849f, 0.00742532f, -0.00540650f, 0.07709131f, 0.02566792f, -0.06237590f, 0.06993071f, 0.05092672f,
    0.05566589f, 0.00828692f, -0.06613914f, 0.04862159f, 0.06266514f, -0.04183254f, -0.04299979f, -0.07901099f,
    -0.01013028f, -0.01829410f, 0.03726240f, -0.01273259f, 0.02412262f, -0.03731728f, -0.02903799f, 0.07208707f,
    0.03663884f, -0.06073030f, 0.05029650f, 0.04351367f, -0.05162826f, 0.02915600f, 0.01566914f, 0.05869567f,
    -0.07295433f, 0.07732045f, 0.00196871f, -0.06776217f, -0.07415283f, -0.05193257f, 0.02612894f, 0.00479851f,
    -0.04052141f, -0.00602279f, 0.06149248f, -0.07366811f, -0.07752294f, 0.05156977f, -0.04112007f, -0.05424582f,
    0.04647231f, 0.04513684f, -0.01519634f, 0.06780048f, -0.07224129f, 0.05741944f, 0.06230627f, -0.00020392f,
    -0.05294454f, -0.05877647f, -0.02082809f, -0.02634669f, 0.00471074f, -0.07456356f, 0.00465609f, -0.04991488f,
    -0.06995539f, -0.07214796f, -0.00467335f, 0.04915736f, 0.06887785f, -0.08047604f, -0.00767916f, 0.01590737f,
    -0.05946551f, -0.01312335f, 0.01822991f, 0.05416785f, -0.03911922f, 0.04888630f, -0.07220877f, 0.04193123f,
    -0.00393973f, 0.03748466f, -0.06886040f, -0.01234737f, -0.03992245f, -0.04383630f, 0.07200720f, -0.02274846f,
    -0.06452751f, 0.07447861f, -0.05757224f, -0.01945528f, -0.06477446f, -0.01791698f, 0.00813802f, -0.05744644f,
    -0.04362158f, -0.00034879f, 0.04330935f, 0.01942141f, 0.04568098f, 0.05597559f, -0.02755113f, -0.05672875f,
    -0.03434386f, -0.00247781f, -0.01209273f, -0.02230620f, 0.03031096f, -0.03343048f, -0.05110767f, -0.07638791f,
    -0.07986537f, 0.05935887f, 0.06294596f, 0.07198824f, -0.00762110f, -0.05425090f, 0.03559923f, -0.00048282f,
    0.06765061f, -0.01866253f, 0.02084926f, 0.04076428f, -0.00101451f, 0.00658227f, 0.07380059f, -0.01474917f,
    0.00313630f, 0.07431959f, 0.04641466f, 0.00841154f, 0.07571019f, -0.01442512f, 0.01099549f, -0.01312107f,
    0.04827401f, -0.02249325f, 0.07131455f, -0.05769322f, -0.04640540f, -0.03758772f, 0.04426039f, 0.01411011f,
    -0.01594542f, 0.04377422f, -0.00243487f, -0.05920868f, -0.07707969f, -0.06520139f, 0.01507918f, 0.05720488f,
    0.04845680f, -0.05632762f, 0.03901061f, -0.03643700f, -0.00938647f, 0.05052499f, -0.00642893f, 0.07011377f,
    -0.07495052f, 0.03968982f, -0.03871274f, -0.01356537f, 0.03510769f, -0.03683545f, 0.03899415f, -0.05314664f,
    0.01812834f, -0.01999946f, 0.00733067f, 0.05561522f, 0.04851954f, 0.01087987f, 0.05779088f, -0.00982027f,
    0.06608462f, -0.05059090f, 0.01890012f, 0.06936903f, 0.05680940f, -0.02037631f, 0.05171742f, 0.00512754f,
    0.06270980f, -0.00255817f, -0.00903045f, -0.02603314f, 0.03111111f, -0.02520271f, 0.02414090f, -0.03393257f,
    0.01654159f, -0.04679615f, 0.01926866f, -0.04162287f, 0.06609064f, -0.00513668f, -0.06940747f, -0.00387306f,
    -0.00142623f, 0.07797350f, -0.05813170f, 0.07417756f, 0.07169076f, -0.04758547f, 0.03837184f, 0.03193580f,
    0.05526864f, -0.05819006f, -0.07784605f, 0.07772595f, 0.05978202f, 0.01418430f, -0.07570288f, 0.00774513f,
    0.03157873f, 0.01899148f, -0.05154657f, -0.04821007f, 0.01429281f, -0.07764819f, 0.00785221f, -0.01128610f,
    -0.06170563f, -0.06111181f, -0.01497556f, 0.07028013f, -0.05624869f, 0.04174746f, -0.06373300f, -0.06737582f,
    0.05862155f, 0.06501755f, 0.05721674f, -0.06665634f, -0.05783631f, -0.07347041f, -0.01680179f, 0.01275134f,
    -0.01044473f, -0.02034758f, -0.05621091f, 0.05641490f, 0.00226870f, -0.00830659f, 0.02275611f, 0.06103491f,
    0.08041674f, 0.01214931f, 0.02837425f, -0.04998367f, -0.04594700f, -0.01236875f, 0.00154507f, -0.03704916f,
    -0.03008211f, 0.02868412f, 0.02756746f, -0.07803832f, -0.06019681f, -0.03839615f, -0.04781386f, -0.06464837f,
    -0.03580131f, -0.03079007f, 0.02262647f, 0.02863105f, 0.06121426f, 0.04407135f, 0.03840732f, -0.00442026f,
    0.01619786f, 0.04945287f, -0.05781085f, -0.03951189f, -0.05165100f, 0.07200804f, 0.04528519f, 0.06263223f,
    -0.05224331f, 0.07873591f, -0.03240164f, 0.04589435f, 0.06197303f, -0.04433135f, -0.05534537f, -0.00874748f,
    0.02090259f, -0.00786945f, 0.07767163f, -0.02366999f, -0.00601250f, -0.02286344f, -0.00137411f, -0.05195516f,
    -0.03427934f, -0.07665950f, 0.00037050f, -0.08149289f, 0.01376441f, -0.07920462f, 0.04764255f, 0.04682694f,
    -0.05065627f, 0.05741635f, -0.00220617f, 0.05331170f, -0.06424103f, 0.07967705f, 0.00005862f, -0.06058528f,
    -0.02610417f, -0.03241296f, -0.02579849f, -0.04649812f, -0.00841764f, 0.05788652f, -0.00455823f, -0.03678383f,
    -0.03104217f, -0.02253001f, -0.01260753f, -0.06729894f, 0.01256728f, -0.00732106f, 0.04180237f, 0.03313905f,
    -0.02117804f, 0.01693311f, 0.02294477f, 0.02489973f, 0.00761744f, -0.03831818f, 0.01400705f, 0.06394709f,
    0.01532116f, -0.01033313f, -0.06407050f, 0.04625220f, -0.03718892f, -0.05508734f, 0.06824205f, -0.08148085f,
    0.01277621f, 0.03384819f, 0.00613473f, -0.07768389f, -0.04140627f, -0.07814033f, 0.00988304f, -0.02755645f,
    0.03618357f, -0.04491255f, 0.02826934f, -0.01328355f, -0.05999094f, -0.05717135f, -0.01171399f, 0.06922787f,
    0.03151155f, 0.04318419f, 0.05982312f, -0.06912241f, 0.04779652f, -0.06976818f, -0.03332018f, -0.02038119f,
    -0.05462709f, 0.04536834f, 0.04617677f, 0.00804750f, -0.00020760f, 0.05287171f, -0.05831126f, -0.07575719f,
    -0.03721928f, -0.01805727f, -0.07695449f, -0.06526921f, 0.04129473f, -0.00832206f, -0.07677481f, -0.02318952f,
    -0.03958787f, 0.02721813f, -0.00389669f, 0.00369756f, 0.06213258f, 0.02834737f, 0.03659401f, -0.03764479f,
    0.01451466f, 0.06633494f, 0.00207521f, 0.03121496f, -0.02130887f, -0.03321316f, -0.02733975f, 0.00759500f,
    0.08084592f, -0.07821731f, -0.07547767f, -0.04394400f, 0.01444474f, 0.07037163f, 0.02048356f, 0.06264794f,
    -0.05160478f, 0.02429940f, 0.02084233f, 0.06971542f, 0.00021900f, 0.02533472f, -0.01886624f, -0.07390462f,
    -0.06065944f, 0.03076409f, 0.01329461f, -0.08157709f, -0.07035997f, -0.06380796f, -0.06315816f, -0.02925387f,
    0.02711560f, 0.08088979f, 0.04361842f, -0.07286095f, -0.04573054f, -0.07056607f, 0.02622168f, -0.02188081f,
    0.05004475f, -0.02433839f, 0.01323131f, 0.03316621f, -0.00324510f, 0.01405266f, -0.00183275f, -0.01877456f,
    -0.05122296f, 0.03109062f, -0.02349146f, -0.04471453f, 0.02147866f, -0.05937608f, 0.02128776f, -0.05190548f,
    0.04844037f, 0.01024576f, -0.01675696f, 0.06950423f, 0.01500086f, 0.05882307f, 0.01070526f, 0.04620061f,
    0.08119553f, -0.00929846f, 0.06131232f, 0.02295292f, -0.04420970f, 0.03598546f, 0.03571210f, 0.03541286f,
    -0.04406785f, -0.06908935f, -0.04222478f, -0.01104671f, -0.03522161f, 0.07996812f, -0.03167463f, -0.01442622f,
    0.00765367f, 0.00644102f, -0.06909848f, 0.02613015f, -0.04989631f, -0.02807256f, 0.05597888f, 0.05252717f,
    -0.04565329f, 0.00001826f, 0.04535213f, 0.02387138f, -0.06695975f, -0.06899212f, 0.01304832f, -0.02696527f,
    0.05100521f, -0.07048054f, 0.00796882f, -0.06834720f, 0.07663661f, -0.00193580f, 0.00114385f, 0.07971763f,
    -0.00824212f, -0.06295934f, -0.01828520f, -0.05522001f, 0.00375773f, 0.06975749f, 0.04853371f, -0.06491298f,
    -0.04676910f, -0.05928313f, -0.04436515f, 0.00860017f, 0.00333419f, 0.05791158f, -0.06433224f, 0.07460149f,
    -0.06114424f, -0.01043469f, -0.01674774f, -0.08057892f, 0.01261708f, 0.05771499f, -0.03265919f, 0.01366359f,
    -0.00408934f, 0.02038731f, 0.03849211f, -0.03495715f, -0.05406919f, -0.03312246f, 0.04727538f, 0.00888773f,
    0.06836145f, -0.02688129f, -0.07964148f, -0.01715473f, -0.06830584f, -0.03854130f, -0.05392772f, -0.04153848f,
    -0.07603314f, -0.02225198f, 0.05072964f, 0.07324687f, -0.07321983f, -0.03825986f, 0.06941833f, 0.00089247f,
    0.02203167f, 0.00785751f, -0.07038171f, 0.02997315f, -0.07093912f, 0.02968077f, 0.07343248f, 0.05805589f,
    -0.06140653f, 0.07568590f, -0.00541346f, -0.06913438f, 0.02640678f, -0.04890155f, -0.04645493f, -0.05734553f,
    -0.04449906f, -0.06343502f, 0.07207988f, 0.01570225f, -0.01335155f, 0.00197472f, 0.08113427f, 0.01765513f,
    -0.02124196f, -0.04453682f, -0.06530485f, -0.00906881f, -0.04504957f, 0.00653693f, -0.06091205f, -0.01698838f,
    -0.06745111f, 0.03135320f, 0.02590119f, 0.08018243f, 0.05664413f, 0.06350230f, 0.01177101f, -0.01034659f,
    -0.06884269f, -0.01643791f, -0.02583621f, -0.01409535f, -0.02772172f, 0.06007117f, -0.06043408f, 0.03930115f,
    -0.06516793f, 0.03242227f, -0.01514086f, 0.03750937f, 0.01558432f, -0.07395385f, -0.03270922f, 0.04379179f,
    0.00027212f, 0.05537848f, -0.06312809f, -0.03624291f, 0.06464121f, -0.00345463f, 0.02054163f, 0.07396328f,
    -0.00006025f, 0.04804061f, -0.06073586f, -0.05310084f, 0.04341630f, 0.04936326f, 0.02972233f, -0.04392174f,
    0.07554814f, -0.00316662f, -0.00140462f, -0.01472377f, 0.06995251f, 0.00995032f, -0.02261908f, -0.07376019f,
    0.02154372f, 0.01680693f, -0.07840524f, -0.05266057f, 0.07810993f, -0.00091921f, 0.07097368f, -0.02360613f,
    -0.05225703f, 0.00298413f, 0.07930108f, 0.00740417f, 0.00815082f, 0.07704211f, -0.00885077f, 0.06832293f,
    0.06124805f, -0.07317536f, -0.02277215f, 0.04721573f, -0.06832417f, 0.02392289f, 0.03505370f, 0.02868077f,
    0.05559373f, -0.04463974f, -0.03305481f, 0.06513931f, 0.05712346f, -0.01582937f, -0.02514835f, -0.00025313f,
    0.04716581f, 0.01708617f, -0.07754666f, -0.01166882f, 0.03770370f, 0.07779004f, 0.04577595f, -0.05802668f,
    -0.03062967f, -0.04768020f, 0.02202077f, 0.01421120f, 0.02902510f, -0.01304816f, -0.03539428f, -0.03414461f,
    -0.03687005f, -0.03650409f, -0.01268562f, -0.06634035f, -0.04161358f, -0.00258144f, 0.05283765f, 0.01938236f,
    0.03599218f, 0.02707561f, -0.05196750f, 0.06384712f, 0.07450929f, -0.07377609f, -0.07835191f, -0.05076244f,
    0.04566365f, 0.05867154f, -0.04765663f, -0.07139970f, 0.02359467f, 0.06937356f, -0.04072649f, 0.02123860f,
    -0.05105111f, -0.06312817f, 0.03450971f, -0.04597455f, -0.06218329f, 0.02375337f, -0.07910833f, -0.04627375f,
    -0.05217537f, -0.08137655f, -0.01431958f, -0.02614826f, -0.01713478f, -0.03928625f, 0.02776300f, -0.05847214f,
    -0.07518947f, -0.06389387f, 0.04388482f, -0.03039430f, 0.05071056f, 0.04670459f, -0.03519978f, -0.00463493f,
    0.00707360f, -0.07349181f, -0.01244003f, 0.00994440f, 0.07308934f, -0.00780670f, 0.05541509f, -0.03639512f,
    0.06852967f, 0.06491192f, 0.03283586f, -0.06727649f, 0.04413322f, -0.06212991f, 0.03085346f, 0.04983604f,
    -0.05612973f, -0.05316321f, 0.04830351f, -0.01945645f, 0.03186438f, -0.03756860f, 0.00552879f, 0.04567009f,
    0.03451411f, -0.02383613f, 0.04405320f, 0.03458164f, 0.00442945f, 0.07581513f, -0.00039992f, 0.05079715f,
    -0.06558470f, 0.05735293f, 0.07944623f, 0.07192073f, 0.06553809f, 0.03607326f, -0.03272278f, 0.05932017f,
    0.06199123f, -0.07984999f, -0.07456144f, -0.04645051f, -0.02097699f, 0.04997040f, 0.02623213f, 0.04542860f,
    -0.02617357f, -0.06331852f, 0.03707631f, 0.02240718f, 0.06504779f, -0.04246990f, -0.02317660f, -0.07713342f,
    -0.03667575f, 0.00422796f, -0.02511721f, -0.01438607f, 0.04186923f, 0.01239008f, 0.01058532f, 0.01236284f,
    -0.04814873f, 0.07548136f, 0.05945224f, 0.02202174f, -0.05749471f, -0.03847299f, -0.07995313f, 0.02361882f,
    -0.04572910f, -0.03637074f, -0.00467779f, 0.05970351f, -0.04057377f, -0.04812964f, 0.07921757f, -0.07399689f,
    -0.02754123f, -0.07115535f, -0.04577573f, 0.05796386f, -0.07517479f, -0.04025593f, -0.00456951f, -0.06105011f,
    -0.03477666f, 0.06783629f, -0.06015112f, -0.04202140f, 0.00172605f, -0.00491011f, -0.04783165f, 0.07781682f,
    0.04859068f, 0.07987137f, -0.06736355f, -0.04147994f, -0.02720189f, -0.03963367f, -0.01631582f, 0.00718785f,
    0.00254055f, 0.03041266f, -0.06194447f, 0.05597879f, -0.07664628f, 0.07360324f, -0.00860089f, 0.07132126f,
    -0.01912216f, -0.04599873f, -0.02790474f, -0.07996318f, 0.05924897f, -0.02832311f, -0.00373015f, -0.03959386f,
    0.02221346f, 0.00535916f, -0.07723966f, -0.00876350f, -0.03679157f, -0.00125866f, 0.08012736f, 0.03551229f,
    -0.01590932f, -0.00260175f, 0.02794754f, -0.07580238f, -0.02498861f, 0.07476619f, -0.06997067f, -0.04055792f,
    -0.05232483f, -0.02111261f, 0.04105383f, 0.00139969f, -0.05007857f, 0.00604900f, -0.01738178f, -0.07323739f,
    -0.01779344f, -0.06183860f, -0.05653551f, -0.05662266f, -0.03658700f, -0.02149198f, 0.05319975f, 0.06904577f,
    -0.04243040f, -0.03330046f, 0.03258066f, 0.00446991f, -0.05846264f, -0.01299195f, 0.03367814f, 0.04822784f,
    0.04510370f, 0.00856067f, 0.05889829f, 0.05463940f, 0.02216571f, -0.05739967f, -0.03755434f, -0.00391041f,
    -0.05499853f, -0.04211526f, 0.02414728f, 0.01524773f, 0.06481718f, 0.07015185f, -0.04605417f, -0.03017360f,
    -0.01275971f, -0.05484358f, 0.04711747f, 0.04428956f, -0.00834552f, 0.05213811f, 0.02602652f, 0.04643469f,
    -0.08046383f, -0.07025864f, -0.06608323f, -0.00376409f, -0.07559004f, -0.07156796f, 0.03582096f, 0.00429895f,
    -0.03301539f, 0.06699601f, -0.06847564f, -0.04635460f, -0.01923003f, -0.01051211f, 0.01764450f, 0.04461604f,
    -0.00654902f, 0.03583765f, 0.04361149f, 0.06009857f, 0.07611927f, -0.03316744f, 0.02577549f, 0.04904477f,
    0.02795236f, 0.05507731f, 0.01731557f, -0.07825033f, -0.07829295f, 0.07039433f, 0.00391404f, -0.01370568f,
    -0.03098768f, -0.08023883f, -0.06599703f, -0.04872826f, 0.00460963f, -0.08087101f, 0.03256807f, 0.04987398f,
    0.07300685f, -0.04790713f, -0.06606565f, -0.01955692f, 0.00171202f, -0.05839866f, 0.02592302f, -0.04096830f,
    -0.05611090f, 0.05060238f, -0.03529073f, 0.02762420f, -0.01381962f, 0.04599927f, 0.03607662f, -0.08016504f,
    -0.02330451f, -0.01952642f, -0.07717610f, 0.03369525f, 0.00153103f, -0.03157289f, -0.05836440f, -0.05380725f,
    0.04547998f, -0.05532042f, -0.02546530f, 0.07172924f, 0.03060516f, -0.06697875f, 0.07309213f, 0.02223860f,
    -0.07333440f, 0.07399020f, -0.02176255f, 0.01373866f, -0.01193018f, -0.02412659f, -0.04840884f, -0.01865972f,
    0.03254154f, -0.04472667f, -0.01760472f, 0.08064931f, 0.07639436f, 0.04069356f, 0.07953019f, 0.05653451f,
    0.07321374f, 0.00524710f, 0.07146222f, 0.06483611f, 0.06996807f, 0.01711755f, -0.02868022f, -0.04248967f,
    -0.05597677f, -0.07294926f, 0.01177771f, -0.01201529f, -0.07596637f, 0.02202301f, 0.04043147f, -0.01604030f,
    -0.02945074f, 0.00165783f, -0.04061395f, -0.03690251f, 0.00310750f, -0.06458075f, -0.01513916f, 0.04388127f,
    0.03349359f, -0.06738621f, 0.06074046f, -0.08117117f, 0.03722507f, -0.01015376f, -0.01672936f, -0.00400383f,
    0.00289627f, 0.02520613f, 0.07575710f, -0.01678681f, 0.01593864f, -0.06817871f, -0.06630729f, 0.07462214f,
    0.06086510f, 0.06894967f, -0.00872364f, -0.02999281f, 0.05643291f, -0.02268736f, 0.03099233f, -0.06565510f,
    -0.06422458f, 0.07180481f, -0.03025276f, 0.07758962f, -0.07597420f, 0.05650022f, -0.01044239f, -0.03638661f,
    0.07670338f, 0.04442197f, 0.04861796f, 0.07664688f, 0.06459412f, 0.06181734f, -0.00189667f, 0.01752540f,
    0.06981552f, 0.00510343f, -0.02439261f, -0.03696207f, -0.08024871f, 0.03635450f, -0.01852935f, 0.04573381f,
    0.06073089f, -0.00825432f, -0.03560478f, -0.04421109f, -0.07804167f, -0.06429232f, -0.04019030f, 0.00332549f,
    -0.02940312f, 0.03909039f, -0.08058243f, 0.06496930f, -0.03223573f, 0.01925270f, 0.02082939f, 0.03427497f,
    0.05926919f, -0.04953072f, 0.00568601f, 0.06140525f, -0.06099999f, 0.01630119f, 0.04248835f, -0.03687070f,
    0.01356946f, 0.04594326f, -0.02361625f, -0.04718823f, 0.05726070f, -0.02644058f, -0.05910993f, -0.07964714f,
    -0.01198505f, 0.01296351f, -0.07302729f, -0.00211989f, 0.02953172f, -0.02182708f, -0.07454923f, 0.07137913f,
    0.02347601f, 0.06881479f, 0.07081629f, 0.02924435f, 0.07360768f, -0.02644747f, -0.00494588f, 0.02407241f,
    0.01331235f, 0.06319486f, 0.03942400f, 0.07105312f, -0.06779609f, 0.04575995f, -0.04984348f, -0.04079613f,
    -0.05268770f, -0.03038415f, 0.06961429f, 0.07707883f, -0.02598764f, -0.07499770f, -0.01039250f, 0.01067483f,
    0.00207829f, -0.02545927f, -0.08122900f, -0.07200981f, 0.05097498f, 0.03185065f, -0.01522682f, -0.02082846f,
    -0.03590136f, -0.01656324f, -0.05041011f, -0.05206635f, -0.03073685f, -0.00166940f, 0.07692578f, 0.03103750f,
    -0.06442372f, 0.04887219f, -0.07622968f, -0.03449897f, 0.05538089f, -0.00922607f, 0.04867181f, 0.01538308f,
    -0.07119098f, -0.04840969f, 0.03402234f, 0.04655285f, 0.05745280f, 0.00065444f, -0.02011387f, 0.00522888f,
    -0.01935083f, 0.01491090f, -0.00174666f, 0.00360388f, 0.03973754f, 0.05775573f, -0.05000027f, -0.08155349f,
    -0.00362370f, -0.07633247f, 0.02946881f, -0.03790338f, 0.06503867f, -0.05342847f, -0.04150844f, 0.00614612f,
    0.00690070f, -0.04236016f, 0.07916162f, 0.00725888f, 0.07202350f, -0.01719762f, 0.01002299f, -0.04590629f,
    0.03969802f, 0.02784227f, 0.06214862f, -0.06210401f, 0.05556464f, -0.01233623f, 0.03561793f, -0.03131058f,
    0.01112688f, 0.04548124f, -0.06606696f, -0.00798821f, 0.04433335f, 0.06714566f, -0.05158897f, -0.08158460f,
    -0.07027279f, 0.04935200f, -0.02236264f, -0.03704081f, 0.08023783f, 0.03361956f, -0.07076667f, 0.05466527f,
    0.07202986f, -0.01161086f, 0.03291608f, -0.00772230f, 0.06167368f, -0.04523940f, 0.02599221f, 0.05623714f,
    0.01563688f, 0.03684144f, 0.01388075f, -0.04127305f, 0.00777547f, 0.03641817f, -0.01445446f, -0.00203778f,
    -0.01039476f, -0.03639677f, 0.05640317f, 0.01087807f, -0.05582612f, -0.06423432f, -0.01540606f, -0.08069229f,
    -0.05545823f, 0.05827789f, -0.02340265f, 0.06149120f, -0.07674396f, 0.04926373f, 0.06209181f, 0.07408132f,
    0.07044303f, -0.04616089f, -0.05028380f, 0.03040039f, 0.05036501f, -0.03164665f, -0.08065362f, 0.03706475f,
    -0.00268477f, 0.01725532f, 0.02455685f, -0.04245076f, -0.06969479f, -0.06405859f, 0.06965281f, 0.03881188f,
    0.06239554f, -0.06965655f, -0.01780548f, -0.01771744f, 0.04815564f, 0.00606979f, -0.06443122f, -0.07111501f,
    0.04293301f, 0.07195269f, 0.00236633f, -0.02233430f, 0.06112946f, 0.05503196f, -0.06756108f, 0.03848034f,
    -0.07759362f, 0.06347060f, -0.04923349f, -0.06662701f, 0.03853993f, 0.03335570f, -0.06248831f, 0.06232934f,
    -0.07038257f, -0.07275929f, -0.04727921f, 0.02835049f, 0.00228358f, -0.07827354f, -0.01802904f, -0.08101745f,
    -0.01650340f, 0.01654322f, 0.04895457f, 0.04989273f, 0.02072392f, -0.01696437f, -0.02532797f, 0.06695679f,
    0.01662999f, -0.00792454f, -0.04968680f, -0.00467751f, -0.07053304f, 0.06186632f, 0.00055643f, -0.05431469f,
    -0.01430524f, 0.07754897f, 0.03104229f, -0.05795558f, -0.00415586f, 0.02205392f, 0.06094011f, -0.05049742f,
    0.06298834f, 0.00245829f, 0.05472636f, 0.03577214f, -0.00333285f, 0.05505843f, -0.02732146f, -0.00897768f,
    0.00269933f, 0.01353251f, -0.07833954f, 0.04585102f, 0.07811898f, -0.03644474f, -0.04741602f, 0.03741435f,
    -0.08070028f, 0.01870143f, 0.01372325f, 0.02496923f, 0.04046092f, 0.04396216f, -0.05974366f, -0.00916737f,
    -0.06685021f, -0.06957019f, 0.05201470f, -0.01413029f, 0.05093427f, -0.03730238f, 0.05540915f, 0.03124370f,
    0.02780890f, -0.03916163f, -0.01883998f, 0.04111100f, -0.04638610f, -0.00953773f, 0.03534028f, -0.04320789f,
    0.02231691f, 0.03677231f, -0.03643166f, -0.07001674f, -0.02159126f, -0.03597124f, 0.07179165f, -0.02893635f,
    0.02627773f, 0.00690971f, -0.02407624f, -0.02396546f, -0.02603087f, -0.06637927f, 0.07156448f, -0.06970570f,
    0.04997232f, 0.00506167f, 0.03472254f, 0.05897212f, -0.06724074f, 0.00593215f, 0.00035408f, -0.06905854f,
    0.03559011f, 0.06012435f, -0.03692001f, 0.02341120f, -0.06528040f, 0.04010454f, -0.02031236f, 0.01936675f,
    0.05152132f, -0.02015494f, -0.04733631f, 0.07552063f, -0.01071279f, 0.07268222f, 0.01588474f, 0.01780537f,
    -0.05933794f, 0.00808023f, 0.06574799f, 0.01904405f, -0.01707428f, 0.07420665f, 0.02081888f, -0.07209580f,
    -0.04212716f, -0.05470496f, -0.04462825f, 0.05318322f, -0.05616364f, 0.03895969f, -0.04223388f, -0.06766572f,
    0.04950982f, 0.00398076f, -0.05479814f, -0.05372806f, 0.00217202f, -0.08083308f, -0.06812544f, 0.06003765f,
    0.06126436f, 0.04863194f, 0.03785319f, 0.00489643f, -0.06033399f, 0.03057593f, -0.06908882f, 0.08164874f,
    -0.04766727f, 0.05913530f, 0.03423151f, 0.02933104f, -0.03600587f, -0.03912039f, 0.07093752f, -0.01557810f,
    -0.03931858f, -0.01447474f, 0.01725949f, 0.05621805f, 0.06938981f, 0.05092340f, -0.07475817f, -0.03003322f,
    0.05548287f, 0.05274422f, -0.02671697f, -0.06062474f, -0.04723160f, 0.06387684f, -0.01026110f, -0.01511149f,
    -0.06736534f, 0.06083413f, -0.04162623f, 0.05658872f, 0.00413192f, -0.06031301f, -0.02684663f, -0.03528256f,
    0.04648022f, -0.04960066f, -0.01222933f, 0.02610663f, -0.07775737f, 0.01920815f, 0.02160276f, -0.00816023f,
    -0.00847670f, 0.02295803f, -0.06178509f, -0.01354349f, -0.02910447f, -0.05616487f, -0.06950779f, 0.05514644f,
    0.01306291f, 0.04431218f, 0.02554331f, -0.00395780f, 0.06291775f, -0.02348962f, 0.06530385f, -0.05541132f,
    0.03269056f, -0.07422924f, -0.02625060f, -0.01337274f, -0.04087641f, -0.07028485f, -0.04738205f, 0.05669007f,
    0.05999033f, 0.07975715f, 0.04945277f, 0.00574818f, 0.03984383f, 0.04508835f, -0.06332222f, 0.06797493f,
    0.04510128f, 0.01114642f, -0.06421684f, -0.03287739f, 0.01550938f, -0.06073857f, -0.04723958f, -0.02313812f,
    -0.03739057f, -0.01817462f, -0.06422695f, 0.06172170f, 0.03327871f, 0.00811169f, 0.00655990f, 0.01646539f,
    0.05906071f, -0.04953729f, -0.05574016f, 0.03463581f, 0.01986359f, 0.00181731f, 0.05191859f, -0.02922717f,
    0.01579216f, 0.00564677f, -0.01186442f, -0.06499255f, -0.04278719f, 0.06268162f, -0.01771276f, 0.03635954f,
    0.03828716f, -0.05844309f, 0.04786035f, 0.05265703f, -0.02796140f, 0.00594570f, -0.07970092f, -0.02187469f,
    -0.01628623f, -0.02290658f, 0.03289023f, 0.04047845f, -0.06559031f, -0.01192169f, -0.03690475f, 0.07635360f,
    0.05285932f, 0.05270007f, 0.06924187f, -0.05173547f, -0.04987873f, 0.04403869f, 0.05979054f, 0.01005183f,
    -0.02636266f, -0.05341816f, -0.01393414f, -0.02716468f, 0.06742857f, 0.03746420f, 0.03616131f, -0.01257225f,
    0.02918951f, -0.04754155f, -0.04675938f, -0.05351445f, 0.02645717f, -0.00724919f, 0.04270411f, 0.02390448f,
    -0.01294725f, -0.03203034f, 0.01262444f, -0.06806390f, -0.08107530f, -0.00315420f, -0.05834216f, -0.02814724f,
    0.04086051f, 0.06976854f, -0.03447732f, 0.03290050f, 0.02831767f, -0.05335863f, -0.04227562f, 0.01866196f,
    -0.05917576f, 0.00695161f, -0.01154722f, 0.04955197f, 0.01481421f, 0.01501238f, -0.06634861f, -0.02672616f,
    -0.02748442f, 0.03810316f, -0.06720491f, -0.00675697f, 0.06771938f, -0.01600253f, -0.00883667f, -0.00219421f,
    -0.05089397f, -0.01906574f, -0.01528693f, 0.05051519f, -0.06455707f, 0.05573170f, 0.00223317f, 0.02511637f,
    -0.05493835f, 0.00288204f, 0.04320773f, -0.04651663f, 0.06549183f, 0.06658874f, 0.06678712f, 0.00077685f,
    0.06682657f, -0.08124046f, 0.02275797f, 0.03094099f, -0.02457544f, -0.04916178f, 0.07683196f, -0.03329093f,
    -0.04666339f, 0.03931173f, 0.05956499f, 0.04013813f, 0.02823012f, -0.05467171f, 0.05403809f, -0.07133519f,
    -0.08019704f, -0.00215167f, -0.03304284f, 0.03712251f, -0.08051530f, -0.06553030f, -0.08010042f, -0.04774781f,
    -0.01089152f, -0.05075026f, 0.02505638f, -0.01071011f, -0.03591554f, 0.00181529f, -0.05351322f, -0.00914653f,
    -0.03652466f, -0.06248957f, 0.05215650f, 0.04485170f, -0.03336691f, 0.02926757f, -0.01555849f, 0.00436307f,
    0.05696578f, -0.06167450f, 0.02934999f, -0.05062129f, -0.02185094f, 0.05737210f, 0.06982668f, 0.00760850f,
    0.06075772f, -0.01043430f, -0.05896258f, -0.00406309f, 0.02636804f, -0.04565337f, -0.06587985f, 0.00698559f,
    -0.02890708f, 0.04480233f, -0.02245980f, -0.00569916f, -0.03375363f, -0.00322037f, 0.07095042f, -0.07424872f,
    -0.07124385f, 0.03132127f, -0.01932602f, -0.01767506f, 0.03458678f, 0.07667346f, 0.00776681f, -0.01235612f,
    0.05967154f, -0.06940030f, -0.05657730f, 0.04652124f, 0.01769526f, -0.04966272f, -0.06760625f, -0.06152030f,
    -0.02530783f, -0.00962744f, 0.06605298f, -0.03386156f, -0.03748659f, 0.01828073f, 0.04323678f, 0.07925493f,
    0.00213600f, 0.03260317f, 0.06899704f, -0.06453303f, -0.02529894f, 0.00048363f, -0.00878137f, -0.05192866f,
    0.04516433f, -0.06842324f, 0.03801010f, -0.03377563f, 0.07879940f, -0.06472377f, 0.04000448f, -0.04437703f,
    0.02331276f, 0.04065197f, 0.05824993f, 0.04669945f, -0.07338945f, -0.01152203f, -0.01988575f, -0.03768458f,
    0.04680359f, -0.06861996f, 0.00437880f, -0.02072777f, -0.06975756f, 0.00291073f, -0.03783290f, 0.06669077f,
    -0.07880649f, -0.06174743f, 0.03750437f, -0.00229970f, -0.06802116f, 0.03720385f, 0.00920997f, 0.08036613f,
    -0.01690605f, -0.02334348f, -0.02969755f, -0.03433910f, -0.05010135f, 0.07602747f, -0.01892287f, -0.07074545f,
    0.04431096f, 0.08123244f, -0.06962371f, 0.02963449f, -0.07669357f, 0.04848022f, -0.04519374f, -0.07381359f,
    0.04848360f, -0.06658827f, 0.03031814f, 0.00791715f, 0.03306169f, 0.00143581f, 0.07622027f, 0.02636451f,
    0.02791073f, -0.07913295f, 0.02789646f, -0.04523163f, 0.04980839f, -0.01000162f, 0.01777539f, 0.00694981f,
    -0.06334144f, -0.02033338f, -0.02922472f, -0.06627018f, -0.05816606f, -0.06174866f, 0.01295102f, -0.03993834f,
    -0.07781587f, -0.04312736f, 0.00144137f, 0.03653419f, -0.06870936f, 0.03266071f, 0.00824359f, -0.01106647f,
    -0.00193854f, -0.04816802f, -0.06545223f, -0.06391814f, 0.06009107f, -0.02557604f, 0.04962176f, -0.01328235f,
    0.04696479f, -0.06661566f, 0.00997810f, -0.01027871f, -0.06893974f, -0.07302700f, -0.06036379f, -0.02840110f,
    -0.05302900f, -0.04783900f, 0.06611969f, 0.08104413f, 0.05494162f, -0.04672706f, -0.03889484f, -0.07777114f,
    0.01575101f, 0.07495255f, -0.00318039f, 0.03979167f, 0.05010274f, 0.02739458f, 0.04506626f, 0.01434805f,
    0.04116276f, -0.07228809f, 0.06169327f, 0.05538141f, -0.02524708f, -0.04346531f, 0.00390055f, 0.02432792f,
    -0.07035816f, -0.01598085f, 0.02098708f, 0.04977309f, -0.01699322f, -0.00471215f, -0.01801593f, 0.07681227f,
    -0.00104856f, 0.01259727f, -0.05539223f, 0.07134353f, -0.00652234f, 0.07055613f, -0.08045293f, -0.06125445f,
    0.07815063f, -0.05656964f, -0.00896963f, 0.05474061f, 0.05914947f, 0.05747010f, 0.06292718f, 0.07540241f,
    -0.05439024f, -0.05153783f, 0.07729132f, 0.02009242f, -0.04317265f, -0.08006805f, -0.04703702f, 0.04189282f,
    0.04208698f, -0.07630942f, -0.03192708f, -0.03241957f, 0.01531375f, -0.03078843f, 0.06947874f, 0.00902329f,
    0.02050657f, 0.05464561f, 0.00114275f, -0.03704221f, -0.04968747f, 0.03991893f, -0.05321072f, 0.07276486f,
    0.04010134f, -0.05645178f, -0.07143335f, -0.04908999f, 0.02424739f, 0.01126122f, 0.05002377f, 0.05853201f,
    0.05865669f, -0.00674109f, -0.04319334f, 0.00075130f, -0.00461486f, -0.02537033f, 0.03348346f, -0.00011078f,
    0.06443638f, 0.05209759f, 0.02036447f, 0.02214675f, -0.04868469f, -0.01845200f, 0.03099267f, 0.06006029f,
    -0.06967322f, 0.01363343f, 0.06196249f, -0.05129119f, -0.00936433f, 0.03321855f, 0.01793295f, 0.01414437f,
    -0.02323938f, 0.04634421f, 0.02498318f, -0.06015502f, -0.05609661f, 0.06298765f, 0.04304221f, 0.02242205f,
    0.07769533f, -0.05500355f, -0.07547504f, 0.01457339f, 0.07529921f, -0.04098244f, -0.06084499f, -0.00590317f,
    0.01531840f, 0.06888691f, -0.01845192f, -0.00747043f, 0.00982159f, 0.00578741f, -0.00825335f, 0.07956571f,
    -0.07035431f, 0.00060144f, -0.03114312f, 0.02525959f, 0.02279188f, 0.02531950f, 0.05470096f, 0.03622127f,
    0.02151145f, 0.00672883f, 0.06864733f, 0.05271708f, 0.04472158f, -0.04962847f, -0.03808615f, 0.03422095f,
    -0.00015254f, 0.07737924f, -0.00668154f, -0.03128698f, -0.01993610f, -0.03281661f, -0.00491259f, -0.06262352f,
    0.07648040f, -0.07512405f, 0.02353692f, 0.05069827f, 0.07364250f, -0.06630944f, -0.07044944f, -0.01202202f,
    0.06589782f, -0.07220648f, 0.05169661f, 0.06463152f, -0.01075247f, -0.05120434f, 0.05481685f, 0.08041361f,
    0.01167511f, -0.04689562f, 0.03638673f, -0.07881444f, -0.03217434f, 0.07518836f, 0.01869404f, 0.07218488f,
    -0.07969365f, 0.08061916f, -0.01643413f, 0.01973852f, 0.06190313f, -0.00726965f, 0.01173470f, 0.02299928f,
    -0.05984168f, -0.03609972f, -0.06151304f, -0.03575863f, 0.00240938f, -0.06967143f, 0.00261174f, -0.00695537f,
    -0.03377698f, -0.01386376f, 0.01270176f, 0.04348075f, -0.03212617f, -0.07880380f, 0.05302644f, -0.04653247f,
    -0.03450388f, -0.02028990f, 0.01002661f, 0.05019093f, 0.00989786f, -0.02171751f, -0.06618525f, -0.02821429f,
    0.02561543f, 0.05957220f, -0.04624433f, -0.06617694f, -0.02419120f, 0.01022474f, 0.00979976f, -0.04053386f,
    -0.02081878f, 0.00074355f, -0.00966821f, 0.08127172f, 0.01842714f, 0.07051423f, -0.01383227f, 0.01333699f,
    -0.06493918f, -0.05315560f, 0.01096105f, -0.05240088f, -0.05356580f, 0.02410491f, -0.07418814f, 0.04212384f,
    -0.03832921f, -0.07954735f, -0.03552448f, 0.04429915f, 0.04443219f, 0.07763635f, -0.01570770f, 0.04791886f,
    -0.02829507f, -0.00415128f, -0.07199699f, -0.01567422f, 0.04034092f, -0.03037562f, -0.06137051f, -0.04937257f,
    -0.06899256f, 0.02424594f, 0.06701828f, -0.02848345f, 0.07612558f, 0.05897781f, -0.07865169f, -0.02475324f,
    0.04254152f, 0.07813311f, 0.00362876f, -0.07461162f, -0.07958864f, 0.00748427f, 0.05640240f, -0.02811113f,
    -0.06989501f, 0.03010949f, -0.02961089f, 0.02091870f, -0.02409072f, 0.04249699f, -0.01801243f, -0.01909510f,
    -0.02305325f, 0.02494154f, -0.01414467f, -0.03541852f, 0.06266659f, 0.05426262f, -0.04895338f, 0.02191458f,
    0.01113669f, -0.06372394f, -0.02406171f, 0.07128090f, 0.03250115f, 0.02022978f, -0.04953609f, -0.00528723f,
    0.00957526f, -0.02090167f, -0.00619163f, -0.01842721f, 0.04786787f, 0.05852031f, 0.02350978f, 0.03820811f,
    -0.01803303f, 0.04324058f, -0.08136394f, -0.07369295f, -0.00396645f, -0.05480798f, -0.04357991f, 0.02296555f,
    -0.04330094f, 0.07346457f, -0.03448097f, -0.08155592f, 0.02585058f, 0.00583156f, 0.03103583f, 0.07325039f,
};

// Shape: (16,), dtype: float32
static const float stem_bn_gamma[16] = {
    1.00000000f, 1.00000000f, 1.00000000f, 1.00000000f, 1.00000000f, 1.00000000f, 1.00000000f, 1.00000000f,
    1.00000000f, 1.00000000f, 1.00000000f, 1.00000000f, 1.00000000f, 1.00000000f, 1.00000000f, 1.00000000f,
};

// Shape: (16,), dtype: float32
static const float stem_bn_beta[16] = {
    0.00000000f, 0.00000000f, 0.00000000f, 0.00000000f, 0.00000000f, 0.00000000f, 0.00000000f, 0.00000000f,
    0.00000000f, 0.00000000f, 0.00000000f, 0.00000000f, 0.00000000f, 0.00000000f, 0.00000000f, 0.00000000f,
};

// Shape: (16,), dtype: float32
static const float stem_bn_mean[16] = {
    0.00000000f, 0.00000000f, 0.00000000f, 0.00000000f, 0.00000000f, 0.00000000f, 0.00000000f, 0.00000000f,
    0.00000000f, 0.00000000f, 0.00000000f, 0.00000000f, 0.00000000f, 0.00000000f, 0.00000000f, 0.00000000f,
};

// Shape: (16,), dtype: float32
static const float stem_bn_var[16] = {
    1.00000000f, 1.00000000f, 1.00000000f, 1.00000000f, 1.00000000f, 1.00000000f, 1.00000000f, 1.00000000f,
    1.00000000f, 1.00000000f, 1.00000000f, 1.00000000f, 1.00000000f, 1.00000000f, 1.00000000f, 1.00000000f,
};

// Shape: (3, 3, 16, 16), dtype: float32
static const float stage0_block0_conv1_weight[2304] = {
    -0.08229365f, -0.08151057f, -0.01657948f, 0.06733182f, 0.03617075f, -0.00053757f, 0.07787739f, 0.08200001f,
    0.05676435f, -0.04686805f, 0.03140733f, 0.06611984f, -0.03476696f, -0.01324678f, 0.05893110f, 0.05003889f,
    0.06714956f, 0.05412967f, 0.05843086f, 0.06857052f, -0.06801446f, 0.05773790f, 0.00154093f, 0.01878394f,
    -0.07297665f, 0.05807242f, 0.01487876f, -0.06362735f, 0.05455914f, 0.01784121f, 0.03254747f, -0.06880705f,
    0.02326319f, 0.01744129f, 0.06448700f, 0.05937129f, 0.00154475f, -0.03135264f, 0.05341458f, 0.02529018f,
    0.02625874f, -0.08268130f, -0.05203900f, -0.02534808f, -0.07344900f, 0.06907745f, -0.01108410f, 0.07280429f,
    0.06179044f, -0.06153100f, -0.04914331f, 0.04155235f, -0.01758991f, -0.03442484f, -0.07171211f, 0.01257645f,
    -0.04604638f, -0.07412013f, -0.06667461f, 0.05630548f, 0.06629669f, -0.08305748f, 0.05653860f, 0.05996725f,
    0.03287991f, -0.07509153f, -0.04509686f, -0.03056076f, 0.07371597f, 0.04049250f, -0.04397909f, 0.00698365f,
    0.03777949f, -0.01719072f, -0.06257908f, 0.00976541f, 0.03123448f, -0.01641447f, 0.05375005f, 0.07247006f,
    0.05377202f, -0.04574202f, 0.06918065f, 0.03591765f, -0.04383128f, 0.01167115f, -0.02301843f, -0.06142200f,
    -0.04751113f, -0.06773499f, 0.02740101f, 0.01821844f, 0.08260598f, 0.03683069f, 0.03997930f, -0.07987639f,
    -0.01843460f, -0.07017295f, 0.07855996f, -0.08028951f, -0.01309160f, -0.07468235f, -0.03252172f, 0.08288484f,
    -0.02342040f, 0.07565434f, 0.06289240f, -0.01345317f, 0.07952815f, -0.04429167f, 0.03939380f, 0.08100970f,
    -0.00749087f, -0.00034973f, -0.07848221f, -0.00541101f, -0.07954647f, -0.02808817f, -0.04130130f, 0.06154641f,
    0.02706083f, -0.05404292f, -0.01846544f, 0.07283059f, 0.01600735f, 0.08092384f, -0.07264467f, -0.01778952f,
    0.01173460f, -0.06831302f, -0.01972812f, 0.05776910f, 0.01235659f, 0.05336761f, 0.03499951f, -0.00098138f,
    0.02548692f, -0.07702386f, 0.05174622f, -0.02623852f, -0.02095431f, -0.04275013f, -0.06847885f, 0.04089766f,
    0.05424101f, -0.04032179f, 0.02789065f, 0.01987445f, 0.06355398f, -0.01632968f, 0.06577041f, 0.02087212f,
    -0.02022788f, 0.02693849f, 0.03403515f, 0.05530690f, -0.00070965f, -0.06307334f, 0.01466508f, -0.07329473f,
    0.07126235f, -0.06168620f, -0.02497253f, 0.05178831f, -0.08148536f, -0.03712330f, 0.05871940f, 0.01508442f,
    0.01449481f, 0.06235704f, -0.02480233f, 0.00916290f, 0.01262422f, -0.00044755f, 0.02054523f, -0.02032943f,
    -0.02157484f, -0.05468547f, 0.06567847f, -0.01471616f, 0.00537399f, -0.07672258f, 0.07465603f, -0.04125803f,
    -0.05472832f, 0.06096926f, -0.04605190f, -0.05933448f, -0.00889797f, 0.02825641f, 0.05926795f, -0.02467524f,
    0.07122669f, 0.04142814f, -0.00124402f, -0.02081070f, -0.00647858f, -0.02843649f, 0.05212260f, 0.06580739f,
    0.03764874f, -0.06165547f, 0.01483430f, -0.01785335f, -0.07023211f, 0.07086131f, -0.07017222f, 0.02748353f,
    -0.04925331f, -0.01504464f, -0.06854936f, 0.07305359f, 0.06111541f, -0.01107790f, 0.04467973f, -0.02228018f,
    0.00582307f, -0.04128837f, -0.03476279f, 0.08192280f, 0.06138236f, -0.01931559f, 0.04466150f, 0.06526838f,
    0.07752895f, -0.02204997f, 0.03224052f, 0.06961956f, 0.05084455f, 0.07757208f, 0.02000197f, -0.05351307f,
    -0.04111132f, 0.04240623f, 0.02716072f, -0.06076689f, -0.04809856f, -0.01310732f, 0.07990323f, -0.01873258f,
    -0.08215159f, 0.06806316f, 0.06878631f, -0.01696540f, 0.07314645f, -0.05600384f, 0.02553730f, -0.01515068f,
    0.03821791f, -0.06981547f, 0.01951266f, -0.01679002f, -0.01429544f, 0.06972769f, -0.03193279f, 0.01957428f,
    -0.02362801f, -0.06403246f, -0.07391684f, -0.03367487f, 0.02469462f, -0.05031835f, -0.00756893f, 0.04772630f,
    -0.04976818f, -0.00907362f, -0.06040811f, -0.01861000f, -0.07359348f, 0.04124016f, -0.06670519f, 0.06028968f,
    -0.03772426f, 0.01680070f, 0.05342942f, 0.08225860f, 0.03391381f, -0.04866388f, -0.07465064f, 0.06992334f,
    -0.05702108f, -0.03952985f, 0.03088497f, 0.02322293f, -0.08234289f, 0.07945486f, 0.03689764f, 0.06785049f,
    0.05533264f, 0.08085288f, -0.04789384f, 0.00307562f, -0.03117949f, -0.03612717f, 0.01107370f, 0.03609728f,
    0.08024956f, 0.02793606f, 0.06982663f, -0.00286863f, 0.00899238f, -0.06416428f, -0.01360584f, -0.07916217f,
    0.04928024f, -0.00106551f, 0.04323494f, 0.02743385f, 0.02862629f, 0.07309236f, -0.05372579f, 0.00024325f,
    -0.02448407f, 0.00680658f, 0.04854041f, -0.02175262f, 0.07198717f, -0.01842641f, 0.05428962f, -0.02476082f,
    0.02550535f, -0.02246254f, -0.04403929f, 0.02939435f, 0.08290926f, -0.01574552f, -0.00112298f, 0.03274339f,
    -0.06341340f, -0.07641473f, 0.00270643f, 0.08026486f, -0.01630926f, 0.01887080f, -0.05277818f, 0.05623767f,
    0.03628879f, -0.01977451f, 0.00179987f, 0.06823744f, -0.02891387f, -0.05481976f, -0.03710878f, -0.02266065f,
    -0.01990239f, -0.01236848f, -0.03958249f, 0.06884058f, -0.07751714f, 0.01266039f, -0.04239761f, 0.00338252f,
    -0.03506438f, -0.08010195f, 0.00209678f, -0.00756984f, -0.07099794f, 0.06791034f, -0.04453656f, 0.04649734f,
    -0.04191003f, 0.06218996f, -0.00646298f, -0.03022771f, 0.00841867f, -0.06953020f, 0.01027957f, 0.06232580f,
    -0.02966334f, 0.08317598f, -0.05982148f, 0.01901930f, -0.03579233f, -0.03205473f, 0.01027713f, -0.07487579f,
    0.00895438f, -0.03702042f, 0.07792457f, -0.07476731f, 0.03205454f, -0.06825672f, 0.05715930f, 0.01330640f,
    -0.00969550f, 0.07990246f, 0.03436407f, 0.02750872f, -0.00193104f, -0.00923488f, -0.06666981f, -0.00702086f,
    -0.04578474f, 0.04802371f, 0.01789331f, 0.06335421f, -0.01186649f, 0.06306149f, 0.00201710f, -0.04232856f,
    0.05458573f, -0.05825698f, 0.00275261f, -0.07445120f, 0.06438296f, -0.02381194f, -0.02025296f, -0.05022914f,
    0.05890664f, -0.07110593f, 0.06892285f, -0.00664690f, 0.06487335f, -0.02439903f, 0.06678817f, -0.05818644f,
    -0.05029629f, 0.05478988f, 0.01446352f, 0.01281166f, 0.02058778f, 0.07621299f, 0.05199746f, 0.06672779f,
    0.07074159f, 0.03371438f, -0.01955683f, -0.03799983f, -0.05593988f, -0.02902873f, 0.03020995f, 0.00245525f,
    -0.04990610f, -0.05323018f, 0.02364535f, 0.00335479f, 0.07658036f, 0.06340130f, 0.01662884f, -0.01532892f,
    0.00351770f, 0.08150821f, -0.06414437f, -0.07184052f, -0.02566012f, -0.06474896f, 0.07030383f, 0.05763338f,
    -0.04168547f, 0.03453457f, -0.00096025f, -0.07003202f, -0.03499187f, 0.07684892f, 0.08258334f, -0.03639723f,
    -0.05881324f, 0.03194007f, 0.01035195f, 0.01065899f, -0.01403124f, -0.03026732f, -0.08075796f, -0.07391986f,
    -0.04544033f, 0.04417808f, -0.02426105f, 0.01552031f, 0.05411437f, -0.06157983f, -0.04795493f, -0.03794878f,
    -0.04097344f, -0.07255837f, 0.01975056f, -0.01268113f, 0.02248480f, 0.01646714f, -0.06779506f, 0.00525446f,
    -0.07270780f, -0.04006812f, -0.03676867f, 0.02126151f, 0.07299044f, 0.05306570f, 0.00827503f, 0.06634971f,
    0.02370238f, 0.07414567f, -0.03565222f, 0.00818242f, -0.01826345f, 0.07836603f, 0.03040418f, 0.07382589f,
    0.04352529f, 0.02010854f, -0.06590884f, 0.03346618f, 0.01751407f, -0.01626007f, -0.02820246f, 0.07715692f,
    0.05991290f, 0.01757814f, -0.07370182f, 0.05905534f, 0.04023738f, 0.00881501f, 0.05044056f, -0.05753453f,
    -0.00887278f, 0.03367943f, 0.04238917f, 0.06546019f, -0.05014045f, 0.06850493f, -0.02784839f, -0.01632515f,
    0.06819385f, 0.06137246f, 0.07564010f, 0.00834776f, -0.06041592f, 0.07539325f, 0.08096838f, -0.05099666f,
    0.01581381f, -0.03659394f, -0.05904112f, 0.04184146f, -0.03191624f, -0.02354698f, 0.02164569f, -0.06330532f,
    0.06575613f, 0.07887512f, 0.00774985f, 0.06195039f, 0.01394796f, 0.01625377f, -0.01068047f, -0.01652670f,
    -0.01940447f, 0.04680570f, -0.03552022f, 0.00021811f, -0.04016940f, 0.04253367f, -0.06569400f, 0.02298377f,
    -0.03315857f, -0.03061422f, 0.06462201f, -0.03461353f, 0.06073086f, 0.05798062f, -0.00060792f, -0.05111831f,
    0.02238812f, 0.04715345f, -0.04376694f, 0.00390450f, 0.03472615f, -0.01825924f, 0.06683883f, 0.01182806f,
    0.00879075f, 0.01510211f, -0.01060425f, 0.07962885f, -0.02715885f, -0.02938182f, -0.08241116f, 0.04414139f,
    -0.04507818f, -0.07258319f, -0.03862463f, 0.03085007f, 0.05512896f, 0.04114839f, -0.01988824f, 0.01610340f,
    -0.05546771f, 0.07709877f, -0.00811391f, 0.02123835f, -0.06318661f, 0.03766757f, -0.02568193f, 0.02271674f,
    -0.00491487f, 0.07484978f, -0.07776727f, 0.05480441f, 0.00982293f, -0.08206074f, 0.00904728f, 0.05862361f,
    0.08295012f, 0.06580111f, 0.00355901f, 0.06221722f, -0.07906325f, 0.01786653f, -0.02452224f, -0.08197664f,
    -0.06878082f, 0.03847393f, 0.06052261f, 0.00601060f, 0.06162938f, -0.00027660f, -0.04552216f, 0.01075703f,
    0.05482927f, 0.03021623f, 0.01463463f, 0.06990340f, 0.04206411f, -0.01319396f, -0.07158679f, -0.01863618f,
    -0.03699618f, -0.01549236f, 0.01986342f, 0.05540985f, 0.04873788f, 0.01229145f, 0.03780305f, 0.07874730f,
    -0.02898308f, -0.02777502f, 0.07035887f, 0.04136289f, -0.00281998f, -0.06045581f, 0.05465095f, 0.07412791f,
    -0.05507876f, 0.06831738f, 0.06416357f, 0.01781349f, 0.05433911f, 0.00809719f, 0.07620006f, 0.02480657f,
    0.04573780f, 0.08143523f, -0.01428890f, 0.03238934f, 0.04743099f, 0.06281891f, -0.01315705f, 0.05352183f,
    0.06187760f, 0.07832594f, 0.07731777f, 0.08131081f, 0.03681770f, -0.02441422f, -0.02956198f, -0.00961007f,
    -0.07595363f, -0.02993784f, -0.02920281f, 0.02078315f, 0.07040911f, -0.03205652f, 0.01227259f, -0.04700605f,
    0.02739154f, -0.07153034f, -0.05812318f, -0.02629551f, 0.00413041f, 0.02757430f, -0.01945602f, 0.08212306f,
    0.01350541f, 0.05329865f, -0.05577229f, 0.05437815f, 0.03891618f, 0.05891265f, 0.02657351f, -0.06734695f,
    -0.03343579f, 0.03532559f, -0.06362362f, -0.02205827f, 0.05165960f, 0.00967904f, -0.00295231f, -0.04707982f,
    -0.03907766f, -0.04041010f, 0.04927395f, 0.02833307f, -0.04423470f, 0.02264576f, 0.01733863f, -0.04745749f,
    -0.06243455f, 0.00693213f, -0.07278790f, 0.02353354f, 0.01649886f, 0.04193184f, -0.05402487f, -0.00417617f,
    0.05916872f, 0.00796500f, 0.06259347f, -0.07566071f, 0.06415828f, -0.04088985f, 0.03403343f, -0.05095677f,
    -0.01321198f, 0.02547576f, 0.04606501f, -0.07369187f, 0.08168063f, 0.02079558f, -0.01040219f, -0.04546487f,
    0.00931780f, 0.04307982f, 0.04987478f, -0.06487748f, 0.08312485f, -0.03229204f, -0.00206885f, -0.00378659f,
    -0.07920313f, -0.06082251f, 0.07838147f, 0.03934608f, 0.03477225f, -0.07590118f, 0.03279839f, -0.00505988f,
    -0.01473915f, 0.03279499f, 0.01747018f, -0.02238079f, -0.00408660f, 0.08126911f, -0.07402599f, -0.06159185f,
    0.02885617f, -0.08181619f, 0.03893844f, 0.02144025f, -0.01994362f, 0.06470595f, -0.05221044f, 0.02768499f,
    0.01904756f, 0.04012461f, 0.06127542f, -0.03867427f, 0.06361534f, 0.04506242f, 0.04873239f, 0.03924718f,
    0.06628405f, 0.02541254f, -0.05018998f, 0.03759035f, 0.01916248f, 0.02594003f, -0.01815596f, 0.04211453f,
    -0.00464803f, 0.03376915f, 0.04474022f, -0.04463257f, -0.08239874f, 0.02654218f, -0.07960348f, 0.06076004f,
    -0.02260058f, -0.08013676f, -0.04650101f, -0.00242168f, 0.05892203f, -0.04499388f, -0.03553303f, 0.06657669f,
    0.07759102f, 0.04791474f, -0.07052203f, -0.07510293f, -0.04183934f, -0.03483427f, 0.02469485f, 0.06524149f,
    -0.03767702f, 0.01452023f, -0.02305846f, -0.03600609f, -0.07223408f, -0.05441779f, -0.01660455f, 0.07079091f,
    0.05272939f, -0.04927330f, 0.01629032f, -0.00820739f, 0.03230557f, 0.00286557f, -0.04226510f, -0.01968628f,
    -0.00759087f, -0.07874750f, -0.06372624f, 0.04450832f, -0.03507474f, -0.07484441f, -0.01863761f, -0.01473983f,
    -0.03582313f, -0.03033323f, 0.03572650f, -0.06236580f, 0.00234538f, -0.05760380f, 0.01562585f, -0.02974593f,
    -0.00852187f, 0.03794158f, -0.04479704f, -0.01823529f, -0.02953672f, -0.07476114f, -0.01311959f, -0.01180035f,
    0.06708951f, 0.07786395f, 0.01623909f, 0.07536341f, -0.00631993f, 0.07961491f, -0.02358482f, -0.00986110f,
    0.05200044f, 0.08032726f, 0.07247239f, 0.04984937f, 0.07738146f, 0.03926563f, -0.05127589f, -0.07052546f,
    0.07843378f, -0.03337595f, 0.05481761f, 0.04773117f, -0.00716733f, 0.01635340f, -0.01715567f, 0.06496876f,
    0.01083255f, 0.06077659f, 0.08225115f, -0.01613685f, -0.01961818f, 0.06466737f, -0.00778144f, 0.02601868f,
    -0.00363568f, -0.03441080f, 0.00748502f, 0.05037487f, 0.03951433f, -0.07461873f, 0.08189347f, -0.02249661f,
    0.05325061f, 0.07263246f, -0.06744841f, 0.00677243f, 0.05488166f, 0.02798479f, 0.08176102f, 0.07565444f,
    0.07435228f, 0.01678482f, 0.03368586f, -0.00364316f, -0.03414169f, 0.03931063f, 0.00249211f, -0.01907367f,
    -0.00770932f, -0.00163257f, 0.01682140f, 0.00909896f, -0.00496462f, -0.05051585f, 0.04138108f, 0.02526715f,
    0.04725245f, 0.02677217f, 0.00475907f, -0.06280413f, 0.05248901f, -0.01891641f, -0.04045882f, 0.03198173f,
    -0.01668395f, -0.01726229f, -0.04029819f, -0.06267689f, 0.03808759f, -0.04248722f, 0.08029810f, 0.05889537f,
    -0.05932232f, 0.01239889f, -0.04388047f, -0.05044914f, -0.03157192f, 0.00800028f, -0.07445046f, 0.00492306f,
    -0.01609680f, 0.04220712f, -0.05515138f, -0.00183882f, -0.05837880f, -0.07078183f, 0.06849778f, 0.02487497f,
    0.01309692f, 0.02543980f, 0.06514467f, 0.04513982f, 0.01885226f, -0.00540084f, -0.02744282f, 0.05894797f,
    0.03043262f, -0.00332371f, 0.04066516f, -0.05966973f, 0.05586703f, -0.06790587f, 0.00759585f, 0.08092239f,
    0.04388751f, 0.04163737f, 0.00800140f, 0.05454185f, -0.03390782f, 0.07659837f, -0.00148114f, -0.05785058f,
    -0.07433355f, 0.02048287f, -0.06880902f, 0.00787207f, -0.02774199f, -0.05414432f, -0.00875499f, -0.04470557f,
    0.04109629f, 0.01745130f, 0.06770720f, -0.07161409f, -0.00153615f, 0.00980011f, 0.03427548f, -0.05010261f,
    -0.07713699f, 0.01348978f, -0.07000233f, -0.00175314f, -0.01866809f, -0.00627212f, 0.02282510f, -0.07193942f,
    0.02425271f, 0.06826898f, -0.01037231f, 0.01955147f, 0.00260741f, -0.01427855f, 0.03537953f, -0.05702612f,
    0.05548512f, -0.02910399f, 0.08228289f, 0.01257413f, -0.02053889f, 0.05491417f, -0.05417061f, 0.00154631f,
    0.00538418f, -0.07337400f, -0.08207352f, -0.03702065f, 0.05498550f, -0.00035333f, 0.04012262f, -0.04283030f,
    0.05464932f, 0.03369049f, -0.05305949f, 0.00239840f, 0.03112963f, -0.05878246f, 0.07832588f, 0.07594724f,
    0.04152722f, -0.06116484f, 0.05295930f, -0.02053729f, -0.05190331f, 0.07026507f, 0.01048725f, -0.05844503f,
    -0.01998259f, -0.07485278f, -0.07028606f, 0.05423412f, 0.07569756f, -0.01098367f, 0.06220750f, -0.00014023f,
    -0.04741153f, 0.06036149f, 0.06041341f, 0.08082241f, -0.05328409f, -0.02466336f, -0.07901551f, -0.00250515f,
    0.07702081f, 0.07390863f, -0.07852285f, -0.07906784f, -0.01610280f, -0.06133985f, 0.01696150f, 0.07756296f,
    -0.06143603f, 0.08237931f, -0.07510035f, -0.02558413f, 0.01863253f, -0.04075870f, 0.01981789f, -0.06646811f,
    -0.05284582f, -0.08293854f, -0.04276540f, 0.01976948f, 0.01948713f, 0.07302590f, 0.02643501f, 0.00032734f,
    -0.02508514f, -0.00572447f, 0.03113552f, 0.06039248f, -0.08181016f, -0.07115553f, -0.06739666f, -0.04324564f,
    -0.00679106f, -0.07502498f, 0.07351004f, -0.00366687f, 0.00490248f, 0.05174359f, -0.00879841f, -0.06312539f,
    -0.04207782f, -0.06234311f, -0.00464535f, 0.04174570f, 0.05797022f, -0.07698818f, -0.02272110f, 0.00556862f,
    -0.01009866f, 0.00848227f, -0.01513504f, 0.04376067f, -0.03553352f, 0.07485449f, -0.00386743f, 0.01319910f,
    0.05348101f, 0.02637792f, -0.03908116f, -0.05265389f, -0.04175455f, -0.03591409f, -0.01293677f, 0.07494885f,
    -0.07180931f, 0.00874653f, -0.07124864f, -0.07563119f, 0.02173879f, 0.03866761f, -0.01978409f, -0.02684774f,
    -0.06163003f, -0.01448326f, 0.08034988f, 0.03586973f, -0.05735063f, 0.05436639f, -0.06862070f, 0.07495201f,
    -0.04770359f, -0.07780468f, -0.07388728f, 0.07167746f, -0.06317431f, 0.01022904f, -0.06198063f, 0.01580688f,
    -0.04166580f, 0.04841638f, -0.08178615f, 0.06984821f, 0.01371363f, -0.01389859f, 0.06722160f, -0.06550353f,
    0.05401541f, 0.01273501f, -0.07409388f, 0.08109748f, 0.00226281f, -0.00292513f, 0.01712953f, 0.07658376f,
    0.02261797f, -0.00316902f, -0.06499599f, -0.06689620f, -0.01107167f, -0.01220025f, 0.02893456f, -0.05213713f,
    0.02902334f, -0.02703652f, 0.06000309f, 0.02411658f, 0.01043892f, 0.07822036f, -0.05017677f, -0.07151883f,
    -0.01299807f, 0.02834444f, 0.04455924f, -0.07184626f, 0.03586718f, -0.06444805f, 0.00482170f, -0.06098866f,
    -0.07131526f, 0.01968300f, 0.03165137f, -0.02434636f, -0.02779586f, -0.07691982f, 0.00277130f, -0.07437471f,
    -0.01646328f, 0.06848343f, -0.02653864f, -0.03751957f, 0.00215766f, 0.08244199f, 0.00070153f, 0.05851814f,
    -0.03461917f, 0.04737275f, 0.07137950f, 0.04671849f, 0.02987087f, 0.02656667f, 0.06243166f, -0.02062583f,
    -0.07509345f, 0.07270156f, 0.07673359f, -0.02695101f, -0.03746198f, 0.07482293f, -0.05269090f, 0.01814060f,
    0.02951778f, 0.04127274f, -0.03514936f, -0.07784396f, 0.00028421f, -0.01506880f, 0.04202369f, 0.07464188f,
    -0.05932092f, -0.04229290f, -0.04942849f, -0.02946929f, 0.08268937f, 0.08178660f, 0.07252151f, 0.01253616f,
    0.05841257f, -0.01017078f, 0.05011918f, 0.00830629f, -0.03664462f, -0.00188468f, 0.05562961f, -0.00593270f,
    0.01408490f, -0.07580630f, -0.06259575f, -0.05013422f, 0.05761384f, 0.00279290f, -0.02964796f, 0.00305794f,
    -0.04315786f, 0.06068810f, -0.00045844f, -0.06440300f, 0.01455227f, 0.06371619f, -0.01472713f, 0.06853165f,
    -0.05844266f, -0.03087044f, 0.00952071f, -0.01714229f, 0.00715664f, 0.05923830f, 0.06600600f, 0.07367875f,
    0.08167285f, 0.01026350f, -0.02015464f, -0.07678135f, 0.03969566f, 0.05841934f, -0.05667473f, 0.07564412f,
    -0.04930475f, -0.08248048f, -0.06700175f, 0.05173451f, -0.00248386f, 0.07291719f, -0.04742529f, -0.01945496f,
    -0.00810838f, -0.07713196f, 0.02840731f, -0.05061908f, -0.00238552f, 0.07370114f, 0.05000640f, 0.05219391f,
    -0.00980397f, 0.06470509f, 0.02723963f, 0.02764302f, -0.03625238f, -0.01755228f, -0.00571030f, -0.00648489f,
    0.07094134f, -0.06361157f, -0.03202064f, 0.05269105f, 0.07272319f, -0.05528460f, 0.01175037f, -0.07848775f,
    -0.01035909f, -0.00194010f, 0.02530447f, 0.07240300f, 0.05638164f, -0.06328274f, 0.03425103f, 0.04981762f,
    0.04273670f, -0.02067650f, 0.01680982f, -0.02025582f, 0.02854517f, -0.01791463f, 0.05019341f, -0.02499688f,
    0.02031313f, -0.07740651f, -0.01270162f, -0.03023826f, 0.01514265f, -0.06314786f, -0.00069638f, -0.01460501f,
    -0.06071790f, -0.02998303f, -0.05762636f, 0.00432106f, 0.04436479f, 0.08114245f, 0.02934562f, -0.02029809f,
    0.05162753f, 0.07283989f, 0.00138108f, 0.01258013f, -0.04407471f, 0.00317605f, -0.03705496f, 0.00189220f,
    -0.04605096f, -0.01353776f, 0.07743843f, 0.04820002f, -0.02516190f, 0.08296029f, 0.02160557f, -0.00043510f,
    -0.05209062f, -0.05048544f, 0.08119538f, -0.02904910f, 0.03072368f, 0.05725381f, -0.08110508f, 0.04213168f,
    -0.07676779f, 0.02231568f, -0.04820430f, -0.01390540f, -0.05520176f, 0.07780894f, -0.05437353f, 0.07648614f,
    0.01729100f, 0.02710611f, 0.06412998f, 0.00773326f, -0.06702796f, -0.06580827f, 0.04002879f, -0.02369574f,
    -0.02513002f, 0.01180732f, 0.03601344f, 0.03535390f, -0.06689265f, -0.08293322f, -0.07964186f, -0.07592686f,
    0.03099239f, -0.00042083f, -0.06836968f, -0.08156155f, 0.04650825f, 0.04091142f, 0.07287633f, -0.05481911f,
    0.02749174f, -0.07910239f, -0.05649099f, -0.02320394f, -0.04851065f, -0.08028113f, 0.06420263f, -0.00032846f,
    -0.00408430f, 0.07937209f, -0.03247873f, -0.04769679f, -0.08130394f, 0.05617263f, -0.06526776f, 0.01248939f,
    0.04566791f, 0.01634398f, 0.05956682f, -0.03016724f, 0.03440226f, 0.01441670f, 0.01425665f, -0.08248116f,
    0.01512138f, 0.03164719f, -0.00717904f, 0.07265290f, -0.07614052f, 0.01411979f, 0.08129241f, -0.02454500f,
    -0.02759115f, -0.00772652f, 0.04315513f, -0.01950312f, -0.03090689f, 0.02855372f, -0.05891384f, 0.03237820f,
    -0.05752901f, -0.05920474f, 0.03210440f, 0.04992831f, -0.03489083f, -0.02277634f, -0.08077236f, 0.06298190f,
    0.07558708f, -0.08259355f, -0.03521772f, 0.04133187f, -0.05604550f, -0.07029767f, -0.07173283f, 0.07284525f,
    0.06593904f, 0.00011016f, 0.04146258f, -0.00394809f, 0.00440761f, -0.03354940f, -0.04294765f, -0.00350666f,
    -0.01972124f, 0.04432986f, -0.03385285f, 0.07052003f, 0.04541843f, 0.01739290f, 0.03503483f, 0.01500733f,
    0.00894634f, 0.00487498f, -0.02576616f, 0.07584937f, -0.01536419f, -0.05584087f, -0.04516754f, -0.07462265f,
    0.05107384f, 0.06767385f, 0.04828673f, -0.04333444f, 0.02721114f, -0.04196721f, 0.02113547f, 0.08255997f,
    0.06372404f, 0.04684199f, 0.04445579f, 0.02972379f, -0.05598718f, 0.05200034f, -0.00157555f, 0.00357457f,
    0.00723138f, 0.06532721f, -0.01669388f, 0.04918600f, 0.06168875f, 0.00748211f, 0.06830873f, 0.03159692f,
    0.01583856f, -0.04040026f, -0.05204189f, 0.07913893f, -0.01307233f, 0.05694261f, 0.02686207f, -0.00062726f,
    -0.05705467f, 0.00616584f, 0.06632316f, 0.03897611f, 0.01369010f, -0.07312323f, -0.02001412f, 0.01631621f,
    -0.06643786f, -0.03791108f, 0.07054888f, 0.01563164f, 0.01161048f, -0.06247758f, 0.01583662f, 0.06730282f,
    0.06883087f, 0.04550192f, 0.04349096f, 0.03154768f, -0.05182071f, 0.06518604f, -0.08093676f, 0.00121901f,
    -0.04071019f, -0.05184696f, 0.02920781f, 0.04157237f, -0.00519718f, -0.07279363f, -0.07488634f, 0.00703979f,
    0.01687317f, -0.07823876f, 0.00071523f, 0.06335615f, -0.04369359f, -0.06679857f, -0.05563669f, -0.03227578f,
    0.05753047f, 0.04703547f, 0.07860382f, -0.00712826f, 0.06374535f, -0.05339026f, 0.07132946f, 0.05771942f,
    0.08266406f, -0.07426958f, -0.04340800f, 0.05076349f, -0.03458164f, -0.00038425f, 0.06355004f, -0.01071616f,
    -0.06500918f, 0.04833065f, 0.07810717f, 0.04206064f, 0.08329254f, 0.03594302f, 0.02064835f, -0.01904248f,
    0.01284412f, 0.00018511f, 0.06899460f, 0.03302937f, 0.07472074f, 0.06040925f, 0.03040489f, 0.01951984f,
    0.04488413f, -0.06088883f, -0.02466157f, 0.07488262f, -0.05061200f, 0.06275778f, -0.03704078f, 0.01028114f,
    0.01098263f, -0.07903165f, -0.00267876f, 0.00222053f, 0.06688252f, -0.04794740f, -0.01115505f, -0.03356611f,
    0.00607818f, -0.05129387f, 0.00801208f, -0.02552286f, 0.00169438f, -0.00357054f, -0.08066299f, 0.01724015f,
    0.00797714f, -0.06587430f, -0.07140060f, 0.01500574f, -0.02989177f, -0.05187037f, 0.06679755f, 0.00769850f,
    0.01119826f, -0.03843289f, 0.07996070f, 0.08019900f, 0.06168820f, -0.00559931f, -0.03773343f, 0.03848185f,
    0.03154318f, 0.04200829f, 0.04810714f, -0.05702612f, 0.00886474f, -0.05129530f, 0.03064501f, -0.02624897f,
    0.06120754f, -0.03281756f, -0.01749131f, 0.01117256f, 0.01625673f, -0.00822341f, -0.02915226f, -0.08183987f,
    -0.03961786f, -0.06602544f, 0.05235870f, 0.03325928f, -0.06862997f, 0.06876694f, -0.05182325f, -0.06397228f,
    -0.00849926f, -0.07028302f, -0.07657264f, 0.05990493f, -0.02474905f, -0.04019087f, 0.07422189f, -0.02797785f,
    -0.06852748f, -0.03164366f, 0.08160286f, 0.06564295f, 0.01090392f, 0.02892568f, -0.07938471f, 0.01508534f,
    0.01304907f, 0.07815059f, -0.04706078f, 0.04617545f, 0.04617407f, 0.07112785f, -0.04932826f, 0.03233551f,
    0.05208772f, -0.05773218f, 0.05283175f, -0.08065775f, 0.07980090f, -0.04341116f, 0.01559176f, 0.05119208f,
    0.07402778f, -0.01083284f, 0.04675516f, 0.00290893f, -0.04300860f, -0.03167066f, -0.00589745f, -0.05825689f,
    0.00074909f, -0.05117333f, -0.00507804f, -0.02508052f, 0.05686433f, 0.01415913f, -0.01370652f, 0.03333433f,
    0.00156256f, -0.04058852f, 0.02551420f, -0.04116771f, -0.01023082f, 0.01982370f, -0.05937528f, -0.07056987f,
    -0.07084897f, -0.02550100f, -0.06857291f, 0.03962427f, 0.07624682f, 0.08305553f, -0.07459691f, -0.06034683f,
    -0.01807531f, 0.02568436f, 0.00552856f, 0.02365220f, -0.00466423f, -0.07555404f, -0.06110777f, 0.02051940f,
    0.08129685f, -0.04735528f, 0.07855137f, 0.01356643f, 0.06660126f, -0.05533984f, -0.03599427f, 0.02886200f,
    0.06930606f, -0.04990085f, -0.02647065f, 0.05689120f, -0.05042437f, 0.01924198f, -0.03579206f, 0.08311556f,
    0.01406930f, -0.04254603f, 0.05413517f, -0.00174531f, -0.01742997f, -0.01770781f, -0.02974525f, 0.01426765f,
    -0.05678190f, 0.06733851f, -0.03576506f, 0.03417081f, 0.03155036f, 0.03467759f, -0.06656885f, 0.06830557f,
    0.05430959f, 0.03141745f, 0.05566585f, -0.00586808f, -0.06411943f, -0.03283188f, -0.02191862f, -0.06427449f,
    0.02626325f, 0.03643255f, 0.04526773f, 0.01718295f, 0.07164752f, -0.05539815f, -0.06982227f, 0.00088471f,
    -0.02510916f, -0.07693778f, -0.03576425f, -0.04456247f, 0.05659139f, 0.03934915f, 0.06834777f, -0.00266183f,
    0.05542750f, 0.04067720f, -0.06343576f, -0.06709086f, 0.03422289f, 0.00571281f, -0.05296974f, 0.00207850f,
    -0.06343088f, 0.08093297f, -0.07679292f, -0.04110066f, -0.00017868f, 0.03408410f, 0.03003505f, 0.05930860f,
    -0.02266409f, -0.03723912f, -0.05201849f, -0.04263852f, 0.02966561f, 0.08078505f, -0.03642756f, 0.01772855f,
    0.05200958f, -0.03823146f, -0.08249775f, 0.02299504f, 0.03715608f, -0.07849836f, -0.01796284f, 0.06637958f,
    0.00924339f, 0.06764629f, -0.02439190f, -0.07318868f, -0.01285386f, -0.03963376f, -0.07116570f, -0.05199095f,
    0.07302269f, -0.04211617f, -0.02423581f, 0.05075099f, -0.01195384f, -0.03229949f, 0.08141156f, 0.02752265f,
    -0.02140683f, 0.07519646f, 0.02756898f, 0.03247799f, 0.02108167f, 0.03703753f, -0.04009545f, 0.01046574f,
    -0.01797432f, -0.05858126f, 0.04077538f, -0.05926592f, -0.01825224f, 0.02409591f, 0.00289171f, -0.01000680f,
    -0.07678464f, -0.06528520f, 0.07748797f, -0.06256183f, 0.02597484f, 0.01934979f, 0.04865053f, 0.06430878f,
    -0.05372695f, 0.06699723f, -0.01655334f, -0.05907425f, 0.00185684f, 0.04357387f, 0.08169117f, -0.00676224f,
    0.00480134f, -0.03923529f, -0.00406635f, -0.05649966f, -0.01539768f, 0.06096623f, 0.05597545f, -0.07806490f,
    0.05385792f, 0.06114180f, -0.01639019f, 0.06200159f, -0.01630401f, 0.00893891f, 0.01312835f, -0.05676472f,
    0.04694533f, -0.04749375f, 0.06252080f, -0.02717116f, -0.01030655f, 0.03935615f, -0.05922157f, -0.02964453f,
    -0.04958787f, 0.05220209f, 0.00105555f, 0.03568809f, 0.05001116f, 0.01271577f, 0.03965367f, 0.06254970f,
    -0.06628381f, -0.00378238f, -0.05930085f, 0.00641331f, 0.06655829f, -0.03109041f, -0.05987768f, -0.04834942f,
    -0.07053892f, -0.04868306f, -0.06266209f, -0.00533928f, 0.04749217f, 0.07668464f, 0.03224134f, 0.03728607f,
    0.05058604f, -0.06616118f, 0.03201029f, 0.07748979f, 0.00934632f, -0.03295709f, 0.05732375f, 0.05178203f,
    0.07384854f, -0.04523122f, 0.05628505f, -0.07815781f, 0.01483434f, 0.04305814f, -0.07054382f, 0.05297468f,
    -0.06861945f, 0.07530756f, 0.04723830f, -0.08122014f, 0.01779886f, -0.07791024f, 0.06589085f, -0.07643832f,
    0.06025044f, -0.03447602f, 0.07792856f, 0.05209577f, 0.05474026f, 0.07687861f, -0.06951346f, 0.02765366f,
    0.01978890f, -0.01004517f, -0.07667191f, 0.04596505f, 0.03890432f, 0.06432986f, -0.04868881f, -0.02621815f,
    -0.05224232f, -0.05554375f, -0.01122162f, -0.02141450f, -0.05360236f, 0.04150711f, 0.02888150f, -0.07082617f,
    -0.02787296f, 0.06188484f, -0.05017602f, 0.01234583f, -0.00457738f, -0.00091955f, 0.02528594f, -0.00132631f,
    0.05237539f, 0.01498303f, -0.05600047f, 0.01624317f, -0.05663372f, -0.01133751f, -0.08216640f, 0.08181483f,
    -0.01086825f, -0.05020692f, 0.01688592f, 0.02646099f, 0.07226875f, 0.02304051f, 0.01729136f, -0.01808418f,
    -0.02257755f, -0.01028225f, -0.05123091f, -0.05838424f, 0.02786472f, -0.04091072f, 0.07944347f, 0.02815923f,
    -0.06562844f, -0.04316210f, -0.05402152f, 0.04009084f, 0.07895708f, 0.03220838f, 0.07596438f, -0.06131870f,
    -0.07905021f, 0.08271328f, -0.00403423f, 0.02035484f, 0.00364289f, -0.01818009f, -0.03822992f, 0.02281578f,
    -0.06524169f, -0.01806807f, 0.00167441f, -0.00736159f, -0.04013514f, 0.02749789f, 0.07179981f, 0.05230756f,
    -0.04181676f, 0.07641228f, -0.07985982f, -0.01302486f, 0.06575380f, -0.08084951f, -0.01403404f, 0.05515256f,
    -0.06953265f, 0.07826008f, 0.05739284f, 0.03863851f, 0.04036199f, -0.08146628f, 0.00383580f, -0.05257341f,
    0.05735746f, -0.06300868f, 0.04993703f, -0.03662018f, 0.07071705f, -0.03998801f, 0.03454047f, -0.06292506f,
    -0.07129490f, 0.00325790f, 0.04602219f, 0.03966164f, -0.06698194f, -0.04807394f, -0.05464488f, 0.03621111f,
    -0.03611816f, -0.00496671f, 0.05636891f, 0.05414299f, 0.05234839f, -0.03319309f, 0.07845435f, 0.04229083f,
    -0.05697953f, 0.02705031f, -0.02822671f, 0.05671226f, -0.02342386f, 0.02293563f, 0.02112983f, 0.01510863f,
    0.06810455f, 0.08116376f, 0.00070663f, 0.01164803f, -0.07478838f, -0.04936197f, -0.04022696f, 0.03341592f,
    -0.06645655f, 0.02621816f, -0.06610920f, -0.02854719f, -0.06529742f, -0.01301247f, -0.08311003f, 0.01173543f,
    0.01732733f, -0.03442135f, -0.03165513f, 0.03408721f, -0.06761011f, -0.06184065f, 0.01218569f, -0.01022750f,
    -0.07744029f, -0.07842353f, -0.04549760f, 0.07639487f, 0.02657479f, 0.01678153f, -0.00693590f, -0.00810659f,
    0.03822085f, -0.05667190f, 0.06956312f, -0.00880281f, 0.06661393f, 0.06685692f, -0.06230974f, -0.03683650f,
    0.06136736f, -0.08045345f, -0.06165512f, 0.00793079f, -0.05754969f, -0.02679202f, 0.02243409f, -0.08170837f,
    -0.04982993f, -0.01698078f, -0.03117791f, -0.00676468f, 0.03367922f, -0.04039496f, -0.03337451f, -0.05599658f,
    -0.05747468f, 0.07917529f, 0.03384638f, -0.06569313f, 0.02524604f, 0.00908090f, 0.06906985f, 0.01537212f,
    -0.07105067f, -0.00204362f, -0.04212505f, -0.06494224f, -0.04249219f, 0.00363752f, -0.03523317f, -0.00324690f,
    -0.03162938f, -0.00942002f, -0.04070178f, 0.05616503f, 0.01623903f, 0.05466845f, 0.02048144f, 0.00315540f,
    -0.07643470f, -0.01578945f, 0.03701714f, -0.02081149f, 0.02556568f, 0.03933470f, 0.04108006f, -0.00530268f,
    -0.04333952f, 0.02041751f, -0.06298377f, 0.04624506f, 0.05067196f, -0.01536378f, -0.05475128f, 0.00505985f,
    -0.05384566f, -0.05552091f, 0.04891338f, -0.03547131f, 0.04861742f, 0.02686437f, 0.05574527f, 0.06885910f,
    -0.02816269f, 0.06118446f, -0.00532699f, -0.00964358f, -0.02288605f, 0.04394279f, -0.07791071f, 0.02012428f,
    -0.07230373f, 0.00347165f, -0.03591729f, 0.00021432f, -0.01145873f, -0.06672496f, -0.04857634f, -0.00998643f,
    -0.08316915f, -0.04625534f, 0.05467222f, 0.08066478f, -0.01912030f, 0.06505571f, 0.05069127f, -0.05983561f,
    0.02504048f, -0.05265130f, -0.02011208f, -0.00544782f, 0.04719679f, -0.07386561f, 0.04744946f, -0.04591399f,
    -0.07801607f, 0.05535533f, 0.01806862f, 0.01570552f, 0.05660642f, -0.01163611f, 0.06613350f, 0.02131665f,
    0.05521161f, -0.00033482f, -0.00914172f, -0.00972344f, -0.04328227f, 0.06152072f, -0.07812467f, -0.05041138f,
    -0.00170232f, 0.03401541f, -0.03927916f, 0.08116677f, 0.07042125f, 0.06236997f, -0.01878868f, -0.00410483f,
    -0.05535007f, -0.06496908f, -0.01442953f, 0.00233546f, -0.04772719f, -0.07038095f, 0.01378819f, -0.02576905f,
    -0.04371149f, 0.06723981f, 0.05666533f, -0.00925190f, -0.01521048f, -0.07159765f, 0.07392076f, -0.04530266f,
    -0.02284023f, 0.02997737f, -0.01711636f, -0.02768416f, -0.05013788f, -0.00779295f, 0.04858110f, -0.00213638f,
    -0.01451126f, 0.02347513f, 0.03677853f, 0.02797437f, -0.02601857f, -0.08288665f, -0.03162318f, -0.01245615f,
    -0.05821806f, 0.03794485f, 0.05350837f, 0.03821188f, -0.02745872f, -0.07821968f, 0.00729670f, 0.08038065f,
    0.01763549f, 0.04212794f, 0.05342677f, -0.00885940f, -0.00003983f, -0.00055015f, -0.04285419f, -0.01422164f,
    -0.08010213f, -0.02762028f, 0.06462937f, 0.03280834f, -0.07414629f, -0.01833256f, 0.02989775f, -0.01985655f,
    -0.07377835f, -0.06698164f, -0.01755685f, -0.05327396f, 0.02913212f, -0.00814118f, -0.06824118f, -0.02160381f,
    -0.07656436f, -0.01690542f, -0.02875968f, 0.03100608f, -0.06145861f, 0.03034352f, 0.06813415f, -0.01394782f,
    -0.02851362f, -0.05452440f, -0.04488130f, 0.08292057f, 0.04261376f, -0.00652271f, 0.07820695f, -0.07382789f,
    -0.03713376f, 0.01763759f, -0.04795080f, -0.06206716f, 0.01217708f, 0.05459925f, -0.03402349f, 0.02364450f,
    -0.03898017f, -0.04711450f, -0.00940603f, 0.02321069f, -0.04159960f, -0.05058693f, 0.01153014f, -0.06051308f,
    0.06068575f, 0.02331557f, 0.03655286f, 0.04178230f, -0.00242878f, 0.05528535f, 0.00848970f, 0.06299921f,
    -0.07887958f, 0.03398649f, 0.07710576f, 0.00284707f, 0.07296710f, -0.01697670f, -0.02214920f, 0.01325877f,
};

// Shape: (16,), dtype: float32
static const float stage0_block0_bn1_gamma[16] = {
    1.00000000f, 1.00000000f, 1.00000000f, 1.00000000f, 1.00000000f, 1.00000000f, 1.00000000f, 1.00000000f,
    1.00000000f, 1.00000000f, 1.00000000f, 1.00000000f, 1.00000000f, 1.00000000f, 1.00000000f, 1.00000000f,
};

// Shape: (16,), dtype: float32
static const float stage0_block0_bn1_beta[16] = {
    0.00000000f, 0.00000000f, 0.00000000f, 0.00000000f, 0.00000000f, 0.00000000f, 0.00000000f, 0.00000000f,
    0.00000000f, 0.00000000f, 0.00000000f, 0.00000000f, 0.00000000f, 0.00000000f, 0.00000000f, 0.00000000f,
};

// Shape: (16,), dtype: float32
static const float stage0_block0_bn1_mean[16] = {
    0.00000000f, 0.00000000f, 0.00000000f, 0.00000000f, 0.00000000f, 0.00000000f, 0.00000000f, 0.00000000f,
    0.00000000f, 0.00000000f, 0.00000000f, 0.00000000f, 0.00000000f, 0.00000000f, 0.00000000f, 0.00000000f,
};

// Shape: (16,), dtype: float32
static const float stage0_block0_bn1_var[16] = {
    1.00000000f, 1.00000000f, 1.00000000f, 1.00000000f, 1.00000000f, 1.00000000f, 1.00000000f, 1.00000000f,
    1.00000000f, 1.00000000f, 1.00000000f, 1.00000000f, 1.00000000f, 1.00000000f, 1.00000000f, 1.00000000f,
};

// Shape: (3, 3, 16, 16), dtype: float32
static const float stage0_block0_conv2_weight[2304] = {
    -0.02593477f, -0.05919084f, -0.05571532f, 0.05119618f, -0.07993495f, -0.03755086f, -0.04682690f, -0.03714974f,
    -0.02262840f, -0.02518995f, -0.05505543f, -0.04706102f, -0.03043943f, -0.03592464f, -0.04891419f, -0.06453630f,
    -0.02283841f, 0.05298304f, 0.00219319f, -0.06460672f, -0.08042406f, -0.02125162f, -0.01959492f, 0.05533683f,
    0.04988773f, 0.06300999f, -0.08134501f, 0.01511941f, 0.04968438f, 0.05221727f, -0.04347137f, 0.07250915f,
    -0.04693882f, 0.03759173f, -0.08109541f, -0.02026877f, -0.07157135f, 0.00572323f, 0.05706479f, -0.05548998f,
    0.01544434f, 0.01219002f, -0.02342388f, -0.07383063f, 0.03607120f, 0.06450274f, -0.01188218f, -0.01581510f,
    0.05685452f, 0.00100590f, 0.07955803f, 0.01780072f, 0.02613665f, -0.01749325f, -0.07172637f, 0.04584021f,
    0.01389838f, 0.05026066f, 0.05570843f, 0.01612567f, -0.03020638f, 0.03658342f, -0.04612532f, 0.04978579f,
    -0.03097774f, -0.01407723f, 0.08305531f, 0.07650613f, 0.01666037f, 0.05115953f, -0.02154230f, 0.02640900f,
    0.04366109f, 0.06307453f, 0.05728716f, -0.06223105f, 0.01031013f, 0.05081944f, 0.03285952f, -0.05972649f,
    0.00832820f, -0.00815543f, -0.03416627f, 0.00443661f, -0.01563755f, -0.02223842f, -0.07741084f, -0.05569036f,
    0.07806523f, -0.00070943f, -0.05473230f, -0.02774485f, -0.01071207f, -0.04839600f, 0.00340279f, -0.04658826f,
    0.01117554f, -0.06253599f, 0.01022888f, 0.03389252f, 0.06567623f, -0.03747411f, 0.07341968f, -0.02793111f,
    0.05111960f, -0.00343349f, 0.03917602f, -0.01307859f, 0.07338777f, 0.02895188f, -0.03919714f, -0.06156511f,
    0.05606043f, 0.06167087f, 0.03335552f, -0.04940885f, 0.00446048f, -0.03471826f, -0.07358485f, 0.08280494f,
    0.05955141f, 0.04012564f, 0.05213528f, 0.01503197f, 0.08011889f, 0.03751396f, 0.08069386f, 0.03566387f,
    -0.07450478f, 0.04528181f, 0.03106793f, 0.04323700f, -0.05456367f, -0.06259106f, -0.03599955f, -0.03358322f,
    -0.06067719f, -0.02457787f, 0.03841248f, -0.03463475f, -0.02689319f, 0.01378604f, 0.06772112f, -0.00639794f,
    -0.06883269f, 0.00211175f, -0.01725980f, 0.00703173f, -0.04129452f, 0.06506052f, -0.05497698f, 0.02042007f,
    -0.06718911f, 0.04099943f, 0.05597960f, -0.04977542f, 0.02460795f, -0.04668645f, 0.01467755f, -0.07286651f,
    0.08300161f, -0.06904449f, -0.01009302f, 0.01551032f, -0.07624368f, -0.02790302f, 0.07549362f, 0.00736192f,
    0.02365280f, 0.03943124f, 0.07411020f, -0.01127785f, 0.04849031f, -0.01964062f, 0.06337762f, -0.04320295f,
    -0.05374216f, 0.04580224f, 0.05773102f, 0.06638634f, 0.05031515f, -0.03568587f, -0.00326953f, 0.01990334f,
    -0.03807054f, -0.04666239f, 0.06414636f, -0.01158168f, -0.01296888f, -0.08016339f, -0.07440372f, 0.07976999f,
    0.00009056f, -0.04938401f, -0.06485173f, 0.00343077f, -0.06365006f, 0.02980971f, -0.00351036f, 0.04738260f,
    0.04500291f, -0.06960591f, 0.08001231f, 0.00633769f, 0.07776430f, 0.05773667f, 0.03218406f, -0.07896172f,
    0.07153466f, -0.03630382f, -0.05342172f, 0.07092412f, -0.04222196f, -0.02720343f, 0.03938855f, 0.07364927f,
    0.07851603f, 0.04598841f, 0.03803318f, 0.03374194f, 0.01663348f, 0.02665564f, -0.02662551f, -0.03008903f,
    0.02553895f, -0.05131984f, -0.02882932f, 0.01440690f, 0.06120035f, -0.03756506f, -0.03598845f, -0.07063018f,
    -0.02707797f, -0.07666606f, -0.04443610f, 0.08280074f, -0.03083438f, -0.03057330f, 0.02100586f, 0.04246604f,
    -0.06401989f, 0.07837372f, 0.05025231f, 0.02478557f, 0.02075385f, -0.05842543f, -0.05644929f, -0.07566838f,
    0.01437443f, -0.02917766f, 0.05780121f, -0.03069976f, -0.05414657f, -0.03499738f, 0.03483429f, -0.07139625f,
    -0.03958197f, -0.01925979f, -0.02812742f, -0.03375231f, 0.00068448f, -0.02123005f, 0.02545248f, 0.07612912f,
    0.01834429f, 0.06546606f, 0.05555066f, 0.07051872f, 0.03696536f, 0.06163662f, 0.05608548f, -0.00277385f,
    -0.01543705f, -0.06807195f, -0.05381773f, -0.03375375f, 0.06388974f, -0.00089813f, -0.07634701f, 0.06191228f,
    0.08166713f, 0.07477812f, -0.03764042f, 0.04241911f, 0.08018947f, -0.04319875f, 0.03127549f, 0.08225617f,
    -0.07513997f, 0.03698401f, 0.07415615f, -0.05758055f, 0.02602924f, -0.07981612f, -0.05551545f, -0.07652988f,
    -0.05585545f, 0.07758858f, 0.07286865f, -0.06768031f, -0.06084777f, -0.08067656f, -0.01899005f, -0.00899408f,
    -0.02767693f, -0.02154811f, -0.04316025f, 0.03645044f, -0.07671136f, -0.06762722f, -0.04653654f, 0.01756868f,
    0.05845663f, -0.07627660f, -0.05751325f, 0.03627804f, -0.03162565f, -0.07167058f, -0.06367654f, -0.05933296f,
    0.03835490f, 0.00542859f, -0.06949797f, -0.02817335f, 0.04641744f, 0.00839904f, -0.04448074f, -0.06478123f,
    0.05990207f, 0.04178339f, -0.07956763f, 0.02251504f, 0.04125767f, 0.03712664f, 0.05793582f, 0.01801869f,
    -0.04571735f, 0.00377167f, -0.05298889f, 0.03141421f, 0.04982762f, -0.04679912f, -0.06898554f, -0.03521222f,
    -0.06640473f, -0.05972370f, 0.01872008f, 0.01631061f, -0.04740723f, -0.06141995f, -0.03005594f, 0.03209563f,
    -0.03577637f, 0.07791992f, -0.00505570f, -0.00293775f, -0.03055004f, 0.02316309f, 0.00044094f, -0.05681336f,
    0.04792915f, -0.02380449f, 0.07531242f, 0.05955087f, 0.01996619f, -0.01630858f, -0.02771638f, -0.05324849f,
    0.01966389f, 0.07877880f, -0.01395994f, -0.06363878f, -0.05636525f, -0.01835151f, -0.05301359f, 0.08063020f,
    0.03410274f, -0.00036431f, 0.02465634f, -0.04464605f, -0.07480235f, -0.00581620f, -0.02157784f, 0.01444500f,
    -0.07399847f, 0.03112594f, 0.00249721f, 0.01168219f, 0.07640010f, -0.06038240f, 0.05551719f, 0.05523546f,
    -0.00028971f, -0.00732599f, -0.03073026f, -0.03506769f, 0.06774165f, 0.01484217f, 0.01719381f, 0.04913219f,
    0.03216693f, 0.00170184f, 0.03261940f, -0.08292745f, 0.06052760f, 0.04376879f, 0.06571409f, 0.07142186f,
    0.02103696f, -0.00604405f, 0.01470193f, -0.04006972f, -0.08026846f, -0.06170402f, -0.07687108f, 0.06028216f,
    -0.07271674f, 0.05892321f, 0.06063493f, -0.06713574f, -0.06386961f, 0.03901747f, 0.00905040f, 0.00815186f,
    -0.02775195f, 0.07597251f, -0.04323068f, -0.01304447f, -0.06961721f, -0.00259763f, -0.07620017f, 0.05643119f,
    -0.04580576f, 0.00137834f, -0.03702780f, -0.06375798f, 0.01435008f, 0.01476486f, -0.03275145f, -0.02180406f,
    0.08053415f, 0.06343295f, -0.04012120f, 0.04381923f, 0.05988979f, 0.04459491f, 0.04913034f, 0.04652032f,
    0.01129683f, 0.06265746f, -0.04969007f, 0.02530935f, 0.07323994f, -0.00482942f, -0.05206423f, -0.05433860f,
    0.01210742f, 0.07277959f, -0.05797216f, -0.04889876f, -0.03007424f, -0.07376859f, 0.07521890f, -0.03309695f,
    -0.00626111f, 0.08006541f, 0.05044664f, 0.07449224f, 0.01179046f, -0.07363250f, 0.02341934f, -0.03776623f,
    0.03209174f, 0.06659485f, -0.03223603f, -0.07970731f, -0.01659997f, -0.02814642f, 0.01580794f, 0.05755726f,
    0.08331616f, 0.04411560f, -0.03650173f, 0.04740955f, -0.08302587f, -0.04738867f, 0.02734321f, -0.05298070f,
    -0.06736569f, -0.06918591f, -0.04459839f, 0.05415362f, 0.00708804f, -0.02831989f, -0.01550808f, 0.00392805f,
    -0.06515373f, 0.03210512f, 0.02960466f, -0.03238997f, 0.08080870f, -0.00316030f, -0.07833377f, -0.00652058f,
    -0.03909057f, -0.05725149f, 0.05609139f, -0.05769690f, -0.02204229f, -0.07448995f, -0.06947291f, 0.01701062f,
    0.02424592f, 0.04442018f, 0.03568361f, -0.05576497f, -0.02106139f, 0.05810369f, -0.02048342f, -0.04930379f,
    -0.03051282f, 0.05623019f, -0.03565047f, -0.08273821f, -0.03135213f, -0.03583773f, -0.01063937f, -0.02280360f,
    0.07401006f, 0.00172454f, -0.07199259f, 0.05418954f, -0.03493224f, 0.00471103f, 0.06441872f, 0.00044973f,
    -0.06242203f, 0.05639049f, -0.06372504f, -0.05011380f, 0.00851821f, -0.07203436f, -0.00959639f, -0.03656983f,
    -0.02378422f, -0.03369650f, -0.07430261f, -0.04190555f, -0.02651162f, 0.07546010f, 0.06951257f, -0.00727683f,
    -0.02810843f, 0.03074409f, -0.07139020f, 0.04075987f, -0.03518190f, 0.06314699f, 0.05902332f, 0.03016144f,
    0.02355840f, 0.04644031f, -0.01272917f, 0.05601185f, -0.04095193f, 0.01922701f, -0.06831526f, -0.05351497f,
    -0.00063937f, 0.00117359f, -0.07755078f, -0.01929495f, -0.07688191f, -0.07767951f, -0.02370659f, -0.04456229f,
    0.07475446f, 0.06261517f, 0.06982606f, 0.01167038f, 0.02407291f, 0.04573705f, -0.02271712f, 0.02727317f,
    -0.05430360f, 0.05679431f, 0.06959018f, -0.01269979f, 0.01036784f, -0.00102058f, 0.06434559f, 0.01747842f,
    0.01861161f, -0.05556543f, 0.06981514f, 0.06846982f, -0.00990933f, -0.00192164f, -0.02643049f, -0.07200715f,
    -0.00092409f, 0.01245114f, -0.03276312f, 0.00024642f, 0.08182508f, -0.00138889f, -0.00964532f, -0.05309188f,
    -0.02296567f, 0.01871179f, 0.06199550f, 0.05314433f, -0.04724671f, -0.01074172f, 0.01935303f, 0.04864896f,
    -0.05557557f, -0.02946995f, 0.03955091f, 0.04312382f, -0.04071342f, -0.04136354f, 0.00101644f, -0.04408516f,
    -0.00790049f, -0.04944603f, 0.01230332f, 0.01361565f, 0.05008608f, -0.03912082f, 0.05020338f, -0.07635029f,
    -0.00846569f, 0.04871347f, -0.02266258f, -0.00029305f, 0.01820672f, -0.04389715f, 0.06784232f, 0.01862973f,
    0.07153841f, 0.04144913f, 0.03396339f, 0.06658326f, 0.07650751f, -0.02301758f, 0.02558860f, -0.02351349f,
    0.02811437f, 0.03688341f, 0.01358992f, 0.05222531f, -0.06594659f, 0.01531817f, -0.07977457f, -0.06625859f,
    -0.04655000f, -0.03339512f, -0.02173732f, -0.01820264f, 0.04132859f, 0.05285194f, -0.03513300f, -0.06321453f,
    0.05798186f, -0.06042896f, 0.01618233f, 0.00083721f, 0.06293871f, 0.07868689f, 0.06239208f, 0.06328632f,
    0.04770326f, 0.02505373f, -0.01335407f, -0.04139783f, 0.01509226f, 0.02261744f, 0.05876005f, -0.04956098f,
    0.05546116f, 0.06918743f, -0.01547524f, 0.08056607f, -0.06840592f, 0.06128342f, -0.00148912f, -0.06188087f,
    -0.03457141f, 0.00527866f, 0.07283984f, 0.05288459f, -0.04146554f, -0.02938558f, -0.05775872f, 0.00109294f,
    0.02943032f, -0.08323550f, -0.04300912f, -0.04789187f, -0.02053814f, -0.05445453f, -0.05629986f, -0.04056272f,
    0.07481583f, -0.02121480f, 0.01716834f, -0.02870272f, -0.03142310f, 0.01953398f, 0.00439700f, 0.05312929f,
    -0.00768455f, -0.06632322f, 0.06789146f, 0.03030752f, -0.06512955f, -0.04977738f, -0.00634814f, -0.03496259f,
    0.05658707f, 0.04590733f, 0.00719934f, 0.04248351f, 0.02535207f, 0.08158212f, 0.05274893f, 0.06906279f,
    0.07464530f, -0.00126806f, -0.02193715f, 0.06752326f, -0.00828152f, -0.05264127f, 0.03894453f, -0.01233144f,
    -0.03156919f, -0.08028533f, 0.06967824f, -0.01886170f, -0.04069608f, 0.02477393f, 0.07809900f, 0.00316293f,
    -0.00198374f, -0.02935084f, -0.06250247f, 0.01896441f, 0.04713529f, 0.02184658f, -0.05078682f, -0.01560818f,
    0.00155843f, -0.03315747f, -0.01954326f, -0.04356049f, -0.03637732f, -0.05275911f, -0.05282711f, -0.04168710f,
    0.00435563f, 0.01293933f, -0.04360025f, -0.03111385f, -0.07061112f, -0.08000530f, -0.02736871f, -0.01011936f,
    0.05846350f, 0.04331582f, -0.02617004f, 0.01554421f, 0.00724029f, -0.02061846f, 0.06583489f, 0.07720228f,
    -0.01871869f, 0.06953037f, 0.00174724f, 0.04284783f, 0.05284625f, 0.01056927f, -0.02454939f, 0.06420934f,
    0.07425565f, 0.04395125f, -0.06480777f, 0.06199919f, -0.06389534f, -0.00640067f, -0.00959311f, 0.06632125f,
    -0.03001748f, 0.05820414f, -0.02311639f, -0.07946630f, -0.07228325f, -0.07111498f, -0.01201843f, 0.03326762f,
    -0.06141350f, -0.08172660f, -0.07426895f, -0.00078307f, -0.01279594f, 0.02295193f, 0.04889551f, 0.06068188f,
    -0.01732629f, 0.07176902f, 0.02844965f, -0.04828834f, -0.03183035f, -0.05639544f, -0.00761235f, 0.03557738f,
    -0.07472251f, -0.04651774f, 0.04696580f, -0.01724431f, 0.02719213f, 0.07985681f, -0.06186146f, 0.00150002f,
    -0.07699328f, 0.06273000f, -0.01124423f, -0.05583386f, 0.08211720f, -0.05964071f, 0.07522458f, -0.02823093f,
    -0.01154451f, 0.03344963f, -0.05229738f, 0.03299631f, -0.02401577f, -0.07637915f, 0.01888669f, 0.04463049f,
    0.06378212f, -0.07366081f, -0.01915812f, -0.03470477f, 0.06771240f, 0.02848853f, 0.00428115f, 0.00025496f,
    -0.05471188f, 0.07645705f, 0.07049584f, -0.06668559f, -0.05406561f, 0.06996983f, 0.06317198f, 0.01151826f,
    0.03761929f, 0.04267669f, 0.00686621f, 0.03447669f, 0.01214170f, 0.04586908f, 0.03233603f, -0.01824874f,
    -0.05716750f, -0.06476905f, 0.03416967f, -0.02895001f, -0.06949105f, -0.03773358f, -0.07077378f, -0.00925336f,
    0.05268860f, 0.06413518f, 0.02187889f, -0.05740817f, 0.00232095f, 0.07603781f, 0.07267080f, 0.06597926f,
    0.04802943f, -0.05440472f, -0.01990082f, -0.07236649f, 0.06348762f, 0.08169707f, 0.03507492f, 0.02400224f,
    -0.02032523f, 0.05154609f, -0.00238720f, -0.08019250f, 0.01497311f, -0.02729657f, 0.07530185f, -0.05174904f,
    0.02184366f, 0.02485423f, 0.07396265f, -0.04295845f, 0.00010062f, 0.01946085f, -0.03153082f, 0.01619353f,
    -0.07829183f, 0.00794863f, 0.05101728f, -0.04418089f, -0.03168371f, 0.02365780f, 0.03462004f, 0.01337250f,
    -0.02963797f, 0.05921657f, 0.05856290f, -0.07042770f, 0.00003759f, 0.02736524f, -0.03323966f, 0.07313514f,
    0.01959888f, -0.01930147f, -0.02253057f, -0.05256834f, -0.00145885f, 0.02969918f, 0.06034269f, -0.01146209f,
    -0.03597953f, -0.07543938f, 0.05087978f, -0.00936940f, -0.05527988f, 0.03097265f, 0.00468050f, -0.06229688f,
    -0.00622377f, -0.01206340f, -0.01235934f, -0.03877148f, 0.00423503f, 0.04209124f, -0.04634660f, -0.06868497f,
    0.04557998f, -0.05204455f, -0.04009422f, -0.00096970f, 0.05691379f, -0.07249092f, 0.07857319f, -0.00563333f,
    0.02123296f, 0.04527438f, 0.04329704f, -0.07607046f, -0.02032404f, 0.01307948f, 0.05441123f, -0.07913908f,
    -0.04731809f, 0.00065077f, -0.06418324f, 0.00957815f, -0.05485848f, 0.05408658f, 0.03987912f, -0.06648597f,
    0.07397869f, -0.01385580f, -0.07988479f, 0.03116545f, 0.01681989f, -0.00561622f, -0.02076259f, 0.06405502f,
    -0.04760444f, 0.04774108f, -0.02837302f, 0.06120589f, 0.07597967f, 0.04489705f, 0.08251157f, 0.07313639f,
    -0.06968817f, 0.08130723f, 0.05681307f, -0.06902924f, 0.06959049f, -0.03943671f, 0.07880655f, -0.02102269f,
    -0.00524602f, -0.03226696f, 0.05857762f, 0.01923005f, -0.00573228f, -0.06492153f, 0.07044801f, -0.00904754f,
    0.06120744f, 0.02793795f, -0.01005369f, -0.06233526f, 0.03066134f, -0.03450084f, 0.04417066f, -0.04748878f,
    -0.05078832f, -0.04059672f, 0.07857554f, 0.08319931f, 0.00567416f, -0.03619314f, -0.06096504f, 0.05187327f,
    0.00951972f, -0.07458177f, 0.01562326f, 0.06505872f, -0.00116842f, -0.07159933f, 0.04894185f, 0.03903029f,
    0.07982370f, -0.04795613f, 0.03890442f, 0.03318208f, -0.04210589f, -0.02707791f, 0.03403619f, 0.02218136f,
    0.00955013f, 0.05601221f, -0.05846484f, -0.01899909f, -0.01562682f, 0.07867690f, 0.03647026f, -0.04075376f,
    0.01460852f, 0.06524168f, 0.05490860f, -0.03396540f, 0.01906371f, -0.07827774f, -0.04622608f, -0.07272537f,
    -0.03938616f, -0.01995135f, 0.06346112f, -0.00890968f, 0.08029973f, -0.00817432f, -0.07666682f, -0.02987865f,
    0.03644907f, -0.05325569f, 0.04753201f, 0.04206517f, -0.04705055f, -0.06139100f, 0.04117035f, 0.05353626f,
    -0.01216057f, -0.08170174f, -0.02196535f, -0.00698626f, 0.01423094f, 0.03953792f, 0.04107062f, -0.00504740f,
    0.07950842f, -0.01169011f, 0.05604393f, 0.05217645f, -0.06404079f, -0.06692158f, -0.03748113f, 0.03474424f,
    -0.04769913f, -0.01301931f, -0.06149492f, -0.00675456f, 0.06210428f, 0.07315510f, 0.03316550f, 0.01898004f,
    -0.04597560f, -0.05882736f, -0.07099982f, 0.06960998f, -0.04178932f, -0.07900943f, 0.00377580f, -0.04338858f,
    0.03323582f, 0.00519790f, -0.04779419f, -0.02798831f, -0.04557526f, -0.01024409f, 0.01926998f, 0.00571256f,
    -0.02044309f, 0.05197110f, -0.02599021f, -0.02231757f, 0.01224829f, 0.03359666f, -0.00875416f, 0.00695406f,
    0.02472841f, -0.00741367f, 0.04271495f, 0.06884176f, -0.07983442f, 0.08316047f, 0.01490707f, -0.07626422f,
    -0.05947787f, 0.01533750f, 0.02194033f, 0.07791367f, -0.00064859f, -0.03454425f, 0.00494729f, -0.04006163f,
    -0.03601786f, -0.07209360f, -0.07571884f, 0.06686518f, -0.01162614f, 0.03701724f, 0.03025946f, -0.05028846f,
    0.03415072f, -0.06811316f, -0.06381841f, 0.05178135f, 0.07683318f, 0.05967035f, 0.05636247f, -0.01649986f,
    0.07553028f, 0.03459051f, -0.03608136f, 0.03623468f, 0.01771293f, 0.02678876f, -0.03596739f, -0.02174328f,
    -0.01145797f, 0.02711316f, 0.07309778f, -0.01260494f, 0.07582468f, -0.08026269f, 0.02322639f, -0.02139496f,
    -0.07717373f, -0.03693560f, 0.00007942f, 0.03909998f, -0.05263927f, -0.06675309f, 0.02605207f, -0.01037813f,
    -0.03565445f, -0.02574798f, -0.05204371f, 0.02146439f, 0.03163036f, -0.05842817f, -0.00452474f, 0.08150975f,
    -0.07804044f, 0.04455605f, 0.03740063f, -0.04519085f, -0.00285366f, -0.01694308f, -0.00892911f, 0.00178248f,
    0.05482417f, -0.00483930f, 0.02107731f, -0.04040721f, -0.04447839f, -0.04630309f, -0.02971075f, 0.02303888f,
    0.06212131f, 0.05314837f, -0.00698654f, 0.07268464f, 0.02908552f, -0.03168033f, 0.06210646f, 0.01931409f,
    0.05033640f, -0.05337074f, -0.04208320f, 0.01206269f, -0.01777005f, -0.07513689f, -0.06353457f, 0.04259488f,
    0.01884234f, -0.02492077f, 0.01277664f, -0.05862769f, -0.01752517f, -0.05468233f, 0.04602734f, 0.06536874f,
    -0.07264405f, -0.01117870f, 0.00765397f, -0.03990613f, -0.07584307f, 0.05596386f, 0.04221492f, 0.04510289f,
    -0.00834534f, -0.00072615f, 0.07947569f, 0.08088034f, 0.05609604f, -0.03180256f, -0.05484935f, 0.02467547f,
    -0.07624605f, 0.06744206f, 0.03270182f, -0.06668310f, 0.03130380f, 0.05783049f, -0.01345652f, -0.01687818f,
    0.01051094f, 0.01006905f, -0.05542079f, 0.04752282f, 0.06433941f, -0.06122332f, 0.04424196f, -0.08275828f,
    0.01088194f, -0.01090352f, 0.01826791f, 0.06619635f, 0.00190731f, 0.02434424f, 0.04735989f, 0.03137777f,
    0.01312562f, 0.06724139f, 0.05645114f, -0.03223472f, -0.06825416f, 0.02170295f, -0.06121690f, -0.04616166f,
    0.00347782f, -0.03646716f, -0.07468814f, -0.01271473f, 0.01552841f, 0.02135988f, -0.02013975f, 0.05520548f,
    0.03872650f, -0.04416830f, -0.01967693f, -0.05935941f, 0.06425336f, 0.01302640f, 0.06278553f, 0.06152003f,
    0.03568128f, 0.04552988f, -0.05110889f, 0.05324473f, -0.05411462f, 0.03446457f, -0.01757790f, -0.00241065f,
    -0.07049440f, -0.00548646f, -0.04974135f, -0.03030784f, -0.08144426f, 0.05200341f, 0.05027178f, -0.02887005f,
    0.01588430f, 0.04154981f, 0.07477200f, 0.00056765f, -0.06810286f, -0.06224594f, 0.05813127f, 0.07788834f,
    0.04202463f, -0.01850575f, 0.04976293f, -0.04466826f, 0.07629688f, -0.04826785f, 0.07979878f, -0.03490940f,
    0.05882218f, -0.05431388f, -0.03456343f, 0.00763801f, 0.06784831f, 0.00875642f, 0.04797050f, 0.04441517f,
    0.01649210f, 0.02862166f, 0.05902964f, 0.02021493f, 0.08038770f, -0.03352287f, -0.05219024f, 0.00358596f,
    0.02068751f, 0.06859367f, -0.08074226f, 0.06902697f, -0.04457898f, 0.03004554f, 0.03601249f, 0.03906944f,
    0.00312591f, 0.07850610f, -0.04643848f, -0.03612674f, 0.05830503f, -0.04382710f, -0.00036024f, 0.01814387f,
    0.05997023f, -0.02341836f, 0.06348005f, -0.03322407f, 0.00050910f, 0.04597360f, 0.05185377f, -0.07174650f,
    -0.03418755f, -0.02981905f, -0.04951086f, 0.01380678f, -0.06763448f, 0.07762631f, -0.06648552f, -0.03084537f,
    0.05526897f, 0.08217870f, -0.07072076f, 0.04222216f, -0.06571206f, 0.07306093f, 0.06542523f, 0.04312634f,
    0.05567750f, -0.00355963f, 0.01924991f, -0.03842594f, 0.05907500f, 0.01816061f, 0.01602535f, 0.00734465f,
    0.03197048f, 0.07045838f, 0.04272962f, -0.01716535f, -0.01416725f, 0.08016222f, 0.02033959f, 0.02629872f,
    0.01448612f, -0.07460018f, 0.07016035f, -0.02896570f, 0.01848456f, -0.05782723f, -0.05250477f, 0.05431044f,
    -0.01555173f, -0.07190858f, 0.02783186f, 0.03816869f, -0.05543133f, -0.07965326f, -0.01154338f, 0.02381724f,
    0.06938580f, 0.02468669f, 0.02275250f, -0.04055654f, -0.06415831f, -0.00691873f, 0.05301514f, -0.00181649f,
    0.00966367f, -0.04392692f, -0.00420616f, -0.01266052f, -0.03408885f, -0.02298865f, 0.03798559f, 0.00085466f,
    -0.08252122f, -0.02710269f, -0.02488752f, 0.04906474f, 0.03445164f, -0.07708328f, 0.05058619f, -0.00512666f,
    -0.06802063f, -0.06777564f, -0.00291320f, -0.03141224f, 0.06638090f, -0.05164353f, -0.01601068f, -0.06150996f,
    0.06980777f, -0.00094935f, 0.06496058f, -0.01072504f, -0.03226352f, -0.04331028f, 0.01483688f, 0.07297303f,
    0.07340945f, 0.03148235f, 0.02588817f, -0.02848583f, -0.02790602f, 0.01587639f, -0.07090402f, -0.06170658f,
    -0.01310269f, 0.00024650f, -0.07238551f, -0.00681677f, 0.05183657f, -0.00412515f, 0.06180800f, -0.04906896f,
    0.02905237f, 0.07212540f, -0.03616904f, -0.02085359f, 0.06857067f, 0.05056618f, -0.02491895f, -0.02173072f,
    -0.06976248f, -0.05649699f, 0.02491041f, 0.07108612f, -0.03303802f, 0.04786401f, -0.02191773f, 0.05979159f,
    0.01724822f, 0.00418018f, 0.04507999f, 0.02373366f, 0.05415518f, -0.05438148f, -0.05249605f, -0.03221222f,
    0.06607267f, -0.08065777f, -0.04623999f, 0.02120932f, -0.02496497f, 0.00989754f, -0.01126657f, -0.05263203f,
    0.02304284f, -0.00146001f, 0.05078929f, -0.07788257f, 0.02308558f, 0.01102602f, 0.06668818f, 0.06639888f,
    0.01216667f, 0.05203246f, -0.02603005f, 0.03219812f, 0.02086971f, -0.05264638f, 0.02802178f, 0.00945029f,
    0.04827586f, -0.01205468f, 0.00053799f, 0.06142468f, 0.03115398f, -0.02090234f, 0.01426165f, 0.04779664f,
    -0.00115224f, -0.02779965f, -0.03022651f, -0.02610117f, -0.07610624f, 0.04420158f, 0.05544182f, 0.00234014f,
    -0.07278451f, -0.00390396f, 0.05506311f, 0.01452580f, 0.05020556f, 0.07490506f, 0.03132301f, 0.03665119f,
    0.01922847f, 0.04491330f, 0.07342051f, -0.00071370f, -0.03722354f, -0.07873072f, 0.02179112f, -0.07350259f,
    -0.06413727f, 0.03169358f, -0.06700382f, 0.06886987f, 0.02933913f, 0.05355856f, -0.07844612f, 0.05719566f,
    0.05497777f, -0.03706401f, 0.05844474f, -0.03584410f, 0.01786055f, -0.05360964f, 0.06581083f, -0.05887595f,
    0.01310265f, -0.00519098f, 0.07906156f, -0.03528755f, -0.04097593f, 0.01164704f, -0.00440096f, -0.02169746f,
    0.05698883f, 0.07631634f, 0.00951103f, 0.00943841f, 0.07674512f, 0.07213269f, -0.07952165f, 0.02722877f,
    -0.06928473f, -0.05780777f, 0.02936937f, 0.03751808f, 0.07958448f, 0.07332288f, 0.08207092f, -0.03387094f,
    0.00530093f, 0.02889862f, 0.00975739f, 0.06699520f, -0.01053419f, -0.07957737f, 0.04183056f, 0.02662679f,
    0.07528970f, -0.06881350f, -0.04437118f, 0.03474464f, 0.01514131f, -0.05366439f, -0.03378078f, 0.01733310f,
    -0.02187460f, 0.04353711f, -0.01049355f, 0.01307740f, 0.06836770f, 0.03018747f, 0.00081033f, -0.02854402f,
    0.02297067f, 0.06524660f, -0.06645751f, -0.02586095f, 0.06986054f, 0.07427265f, -0.05343541f, -0.04470824f,
    0.06695212f, 0.00053117f, 0.05871318f, 0.04072158f, 0.05189610f, -0.05301655f, 0.03517509f, 0.05189902f,
    -0.07081626f, -0.03983712f, 0.05335427f, 0.06158367f, 0.00440451f, -0.05669075f, -0.02634898f, 0.03541876f,
    -0.01170321f, 0.06991713f, 0.05970072f, -0.04559427f, 0.05976851f, -0.07493958f, 0.07196370f, 0.06251778f,
    0.07995524f, -0.06968440f, -0.02205085f, -0.07724951f, -0.05001589f, -0.05831696f, 0.06852877f, 0.06991168f,
    -0.00299958f, 0.05306417f, -0.04517584f, -0.04525055f, 0.08012335f, 0.03458031f, -0.05896582f, 0.07937418f,
    -0.05584779f, 0.00658537f, -0.06693813f, 0.07261427f, -0.01464596f, 0.07240033f, 0.01663882f, -0.08290504f,
    0.07695705f, 0.01564363f, -0.00133083f, 0.02256085f, -0.05537122f, -0.05531126f, 0.07626505f, -0.08183941f,
    0.06207417f, 0.03931540f, 0.02142034f, 0.07749976f, -0.05235086f, -0.03611834f, 0.04096820f, -0.03085387f,
    0.07608332f, -0.00810972f, 0.05213477f, 0.01227239f, 0.05051265f, -0.01913708f, -0.05538727f, -0.06513853f,
    -0.07614577f, -0.04502825f, -0.06958040f, -0.05753823f, -0.00457047f, -0.04596531f, 0.06155872f, 0.08294007f,
    -0.05190476f, -0.01446692f, 0.03366969f, -0.04920533f, 0.04414744f, -0.01525466f, 0.04772138f, 0.02171534f,
    0.01140350f, 0.07955512f, 0.02820583f, -0.05735024f, -0.05980933f, -0.01970068f, -0.01969913f, 0.05280632f,
    0.04953384f, 0.08233990f, -0.02927859f, -0.04838283f, -0.01120428f, 0.04907810f, 0.02433463f, -0.03903244f,
    0.00785307f, 0.02665928f, 0.08025882f, 0.07350238f, -0.05404727f, 0.00306152f, 0.00825380f, -0.07997707f,
    0.07956544f, -0.03836643f, -0.07233586f, -0.03206010f, 0.03276609f, 0.02936756f, 0.05213254f, -0.00874237f,
    -0.00004796f, 0.06292441f, 0.07958181f, 0.02614943f, -0.05500680f, -0.05924529f, -0.03352949f, 0.08175664f,
    -0.02813986f, 0.05633880f, 0.00024199f, -0.02499714f, -0.01721000f, -0.00971838f, 0.01610984f, 0.01769717f,
    0.01215106f, -0.07701849f, -0.03134764f, 0.01836291f, 0.05626563f, -0.04394665f, -0.04254993f, 0.07957851f,
    0.02199211f, -0.04194634f, -0.02379104f, 0.07924419f, -0.01612426f, -0.08248369f, -0.03528478f, -0.07295155f,
    -0.05973516f, -0.07990077f, -0.03953330f, 0.07771721f, -0.01628809f, -0.02173775f, -0.05714769f, -0.07917203f,
    -0.01934085f, 0.00750409f, 0.00633441f, -0.02832454f, 0.03132550f, -0.05353931f, -0.06558027f, 0.06743263f,
    0.07137559f, -0.05659097f, 0.04942485f, 0.01791263f, 0.03673960f, -0.07069035f, 0.06498098f, -0.04930751f,
    -0.00959823f, 0.07841912f, -0.02259130f, -0.05191232f, -0.00895366f, 0.06353273f, -0.04361616f, -0.03282606f,
    -0.06212301f, 0.04900005f, 0.03338807f, -0.03387219f, 0.04745869f, -0.00874869f, 0.00454485f, 0.07307956f,
    0.00830144f, -0.03969863f, -0.05117445f, 0.06915808f, 0.00714197f, 0.02497820f, 0.02079858f, 0.02409621f,
    -0.00286558f, 0.02831302f, -0.06715488f, 0.03402933f, 0.07126702f, 0.00266851f, -0.01564447f, -0.06695080f,
    -0.02777482f, 0.03960915f, -0.01701728f, 0.04250233f, 0.00752698f, 0.04128274f, 0.06070402f, -0.07343697f,
    0.00279267f, -0.07946283f, -0.04284164f, 0.05344447f, 0.05601261f, -0.08194675f, -0.01229932f, -0.06000812f,
    0.00275082f, 0.03688074f, -0.01839070f, 0.02804467f, 0.05644861f, 0.03264207f, -0.05688184f, 0.03483927f,
    -0.07869998f, 0.02873254f, 0.00774169f, 0.02397298f, -0.07116750f, 0.02087502f, 0.03263761f, -0.03739244f,
    0.04466750f, -0.02479164f, 0.07057020f, -0.01170292f, 0.07894433f, 0.03200189f, 0.07863434f, 0.07225594f,
    -0.06556217f, -0.03620678f, -0.03244517f, 0.02361268f, 0.03073337f, -0.02028283f, -0.00879784f, -0.00966061f,
    0.06576808f, 0.06482264f, -0.05034902f, -0.02789903f, -0.06138554f, -0.00737033f, -0.08033468f, -0.00396228f,
    0.05670207f, -0.02499006f, 0.07666561f, 0.04479245f, -0.03057887f, -0.01584381f, 0.00565126f, 0.03085249f,
    0.05367675f, 0.01989718f, 0.00065392f, -0.02295829f, 0.08062129f, 0.04572866f, 0.06329787f, -0.06446158f,
    0.04673379f, 0.01806155f, 0.04838994f, 0.02746190f, -0.05109224f, 0.00018134f, -0.02715434f, 0.02449827f,
    0.00786307f, -0.06689999f, -0.05227838f, 0.03681069f, 0.04934444f, -0.02501178f, -0.05245497f, 0.01946684f,
    -0.05633077f, -0.03320201f, 0.03948038f, -0.00771369f, 0.07744729f, -0.02238351f, 0.01084857f, 0.02089883f,
    0.05569173f, 0.01057271f, 0.04661204f, -0.05134999f, -0.00205868f, 0.00172786f, 0.07267483f, -0.01586092f,
    0.03118812f, 0.00087691f, -0.06103225f, 0.06637760f, -0.01410586f, -0.04995495f, -0.07619734f, -0.04552603f,
    -0.03236248f, -0.04109917f, 0.04244876f, -0.04710016f, 0.03603206f, 0.02733352f, 0.06071320f, -0.06302344f,
    -0.07887608f, 0.03611414f, 0.03309389f, 0.04382339f, -0.01208954f, 0.02803139f, -0.06206042f, 0.02995918f,
    -0.05066233f, -0.04688760f, -0.08312263f, -0.06755972f, 0.02034090f, -0.07665183f, 0.03071952f, -0.06389194f,
    -0.07014443f, -0.03481358f, -0.03899194f, -0.04638749f, -0.00828796f, -0.00608400f, 0.06742080f, 0.05463315f,
    0.06139091f, 0.04793552f, 0.07851914f, 0.08080064f, -0.00959397f, 0.03885607f, -0.01225753f, 0.02613316f,
    -0.02878784f, 0.04841504f, -0.02914111f, 0.06980740f, 0.02685700f, -0.00856187f, -0.03664815f, -0.07690980f,
    -0.01059767f, 0.03483400f, -0.00317584f, -0.02878512f, -0.03356325f, 0.00823630f, 0.05451587f, -0.04206526f,
    0.01702697f, -0.03765173f, -0.03408080f, -0.04790922f, -0.04434433f, 0.07612767f, -0.01575635f, -0.02165873f,
    -0.01422683f, 0.00680704f, -0.06983354f, -0.05293181f, -0.06104883f, 0.00256102f, -0.05805178f, 0.06415515f,
    -0.03509365f, 0.07928592f, -0.00425334f, -0.04331459f, -0.01165613f, -0.07000726f, -0.00614058f, -0.03865462f,
    -0.01270410f, 0.07643082f, -0.05445225f, 0.07628126f, 0.05028304f, 0.08204934f, 0.00418786f, -0.03116931f,
    0.04958107f, 0.05466722f, 0.00081862f, -0.02811066f, 0.06283879f, 0.02719654f, -0.06387536f, 0.01082564f,
    0.00088459f, -0.00171831f, 0.06044114f, 0.04065185f, 0.05021466f, 0.07609369f, -0.05833565f, -0.07559662f,
    -0.05360243f, 0.00496215f, -0.00424246f, 0.08214220f, -0.06361195f, 0.02703912f, 0.04060888f, 0.07424925f,
    0.01557959f, -0.01520311f, -0.07974672f, 0.06488289f, 0.00638138f, 0.01598074f, -0.07371928f, 0.03829708f,
    -0.02230682f, 0.03255057f, 0.04815462f, -0.04046091f, 0.00183301f, -0.00076494f, 0.03924431f, 0.05641698f,
    -0.07447726f, -0.00728335f, 0.06456566f, 0.04502255f, 0.07947394f, -0.02197914f, -0.08126324f, -0.03648192f,
    0.02098882f, -0.04843710f, -0.05475085f, 0.00404576f, -0.06784099f, -0.08134162f, -0.05982073f, 0.00148549f,
    0.01600510f, -0.02388166f, 0.04165614f, 0.07404706f, 0.07236736f, -0.06302666f, -0.07970077f, 0.01399563f,
    -0.03900450f, -0.03235536f, 0.06094684f, -0.02042924f, -0.00677254f, -0.04628430f, 0.03654429f, -0.08134597f,
    0.03867522f, -0.04198432f, 0.05509236f, 0.02489953f, -0.02884718f, 0.01950744f, 0.05979459f, 0.04961140f,
    -0.01476670f, -0.05094133f, 0.03196406f, -0.01166510f, 0.07506787f, 0.05519985f, -0.05336141f, -0.03417625f,
    0.05828340f, 0.03903059f, 0.06677412f, -0.06604539f, 0.01426327f, 0.05711367f, -0.07121192f, -0.07157262f,
    -0.05484882f, 0.03465143f, 0.05123428f, 0.05396054f, 0.07468742f, 0.03859078f, 0.00322506f, -0.05959904f,
    -0.07816479f, 0.03248980f, 0.04929733f, -0.03014236f, -0.05322454f, -0.06707909f, -0.01693450f, -0.02482284f,
    -0.04762490f, 0.03198844f, 0.01657851f, -0.01300307f, 0.00043948f, -0.00552942f, -0.06582110f, 0.00314375f,
    0.04143633f, 0.02523203f, 0.02530985f, -0.04175385f, -0.03518459f, -0.06845853f, 0.07708083f, -0.00488635f,
    0.07264206f, 0.07273369f, 0.03337195f, -0.08242814f, -0.05867826f, -0.08118131f, -0.02808395f, 0.00245428f,
    0.02543561f, 0.02773137f, 0.07697042f, -0.06575777f, -0.01693286f, 0.07103135f, 0.04615797f, -0.04895490f,
    0.05952278f, -0.05820864f, 0.06811737f, -0.03584170f, -0.06589662f, -0.04679745f, -0.04005846f, 0.03896176f,
    -0.04892669f, 0.03996664f, 0.07415708f, 0.05758718f, -0.05367813f, 0.00087966f, 0.05390947f, -0.01193910f,
    0.00187071f, -0.04083207f, 0.05054514f, -0.01485477f, 0.02060549f, 0.06709015f, -0.04902339f, -0.05457547f,
    -0.03266215f, -0.06000226f, -0.00344821f, 0.00987969f, 0.07914910f, -0.02104875f, 0.03310990f, 0.07678252f,
    0.07150926f, -0.05691305f, 0.06848525f, 0.03491312f, 0.07487163f, -0.01362210f, -0.06021716f, -0.00990449f,
    0.05108101f, -0.03543746f, 0.00364413f, 0.02135332f, 0.04071287f, 0.08102712f, 0.04870427f, 0.07211736f,
    -0.04342253f, 0.05728112f, 0.01465226f, 0.07493003f, -0.07738535f, 0.04398387f, -0.04054823f, -0.08192179f,
    -0.07194509f, 0.04576657f, -0.01820599f, -0.03606257f, 0.05873397f, 0.05600191f, 0.00876166f, -0.06887469f,
    -0.06435122f, 0.07372262f, -0.02151786f, 0.00766807f, 0.05559647f, 0.03580801f, 0.02769317f, 0.05792729f,
