// Auto-generated weights file
// DO NOT EDIT

#ifndef WEIGHTS_H_
#define WEIGHTS_H_

#include <stddef.h>
#include <stdint.h>

// Shape: (5, 5, 6, 16), dtype: float32
static const float stem_conv_weight[2400] = {
    0.01802039f, -0.02252117f, -0.07677020f, 0.00087280f, -0.07152671f, -0.06606177f, 0.00652940f, 0.07414086f,
    0.06998468f, 0.02046247f, -0.04448818f, -0.06392042f, -0.05898739f, 0.01424232f, 0.04959378f, 0.06653714f,
    0.06860522f, 0.05099726f, -0.04946131f, -0.02365813f, 0.04893576f, 0.06775229f, -0.05584971f, -0.06961041f,
    0.00783736f, -0.02784801f, -0.03510527f, 0.04791095f, 0.02077354f, -0.05353446f, -0.03486257f, -0.02708616f,
    -0.05881287f, 0.07584563f, -0.04485878f, 0.05527734f, -0.03369347f, -0.07299750f, 0.06237327f, 0.06307845f,
    0.01560836f, 0.01589210f, 0.08086792f, 0.02829659f, -0.01531939f, 0.05580095f, 0.03523718f, 0.07923993f,
    0.05829208f, -0.07644243f, -0.04664456f, 0.07001094f, -0.07519770f, 0.06240867f, 0.00009104f, -0.04609336f,
    0.06782998f, 0.07503469f, 0.02614815f, 0.07797566f, 0.07307136f, 0.01111404f, 0.07062180f, 0.02132920f,
    -0.05113097f, 0.00258766f, -0.07045974f, -0.01045669f, -0.04422350f, 0.06060802f, -0.01155245f, -0.00907367f,
    -0.04452804f, -0.04093579f, 0.01806600f, -0.07480221f, 0.00054091f, 0.05569099f, -0.07758993f, 0.00796032f,
    -0.01804119f, -0.00408616f, -0.06929628f, 0.02992053f, 0.03472552f, 0.08050612f, 0.04060933f, 0.06229310f,
    0.01271138f, -0.00104607f, -0.01714849f, 0.05112340f, -0.00635479f, -0.03343053f, 0.05982682f, 0.08067758f,
    -0.06617596f, 0.07385396f, -0.04958174f, -0.05730383f, 0.06206641f, -0.05862289f, -0.02512296f, -0.06038408f,
    -0.04405976f, -0.00342102f, 0.05228102f, 0.04895901f, -0.01278482f, -0.06053964f, -0.01452183f, -0.03579297f,
    0.00244872f, 0.04654494f, 0.00819854f, 0.07938667f, -0.04208022f, -0.04268336f, 0.05619228f, 0.05694685f,
    0.00019563f, -0.03158140f, -0.01612832f, 0.00232613f, 0.07092202f, -0.04114388f, -0.07935667f, 0.03483522f,
    -0.00214812f, 0.03283862f, -0.05899623f, 0.05451394f, -0.01733907f, 0.00636288f, 0.07458173f, 0.05055192f,
    0.05170123f, -0.03707414f, -0.07825463f, -0.01659614f, 0.04349281f, 0.03156467f, -0.04693587f, -0.02436170f,
    0.07804634f, 0.06352590f, -0.01693618f, -0.00038679f, 0.04273900f, -0.06159517f, 0.00430742f, -0.06663427f,
    -0.07215603f, 0.08078311f, 0.04781269f, 0.06996866f, 0.07970199f, 0.04189296f, 0.06989931f, -0.07495601f,
    -0.01042658f, 0.01827049f, 0.05387966f, -0.03126450f, 0.08028468f, 0.07165370f, 0.05195666f, -0.00993753f,
    0.00702501f, -0.06030992f, -0.07731593f, -0.02708362f, -0.02632417f, -0.06225129f, -0.01354591f, 0.05354652f,
    -0.04200512f, -0.01288060f, -0.01695055f, -0.06568611f, -0.07803868f, 0.04155030f, 0.04999499f, -0.07508957f,
    0.00914942f, -0.04562613f, 0.06127052f, 0.00085049f, -0.01305262f, 0.07130535f, -0.03813979f, -0.00584291f,
    -0.02308826f, 0.00893985f, 0.07591881f, 0.02497846f, 0.02456286f, -0.06471084f, 0.01433168f, 0.04014138f,
    -0.05876473f, 0.04848430f, 0.07683671f, -0.06895718f, 0.00479070f, 0.04837842f, -0.02225319f, 0.06865719f,
    -0.04044559f, 0.05315894f, -0.07828509f, -0.01260884f, 0.07180464f, 0.03482961f, 0.03763044f, 0.06963617f,
    0.02413242f, -0.04366836f, 0.02437241f, -0.06868814f, 0.01345315f, 0.05307296f, -0.01694721f, 0.06185735f,
    0.05409943f, 0.03061382f, -0.01271336f, -0.00265066f, 0.02634391f, -0.03465834f, -0.05159485f, 0.03612190f,
    0.03825992f, -0.01395891f, 0.05055161f, 0.02840693f, -0.05654718f, -0.06338959f, 0.05832141f, -0.01499493f,
    0.04263674f, -0.03895548f, 0.06762689f, 0.07218755f, 0.04787696f, -0.06510761f, 0.03818681f, 0.01165173f,
    0.04713248f, 0.06464136f, 0.00581869f, 0.06650443f, -0.01097462f, -0.05687899f, -0.04227846f, -0.07856753f,
    -0.04435911f, -0.01220380f, 0.00649884f, 0.01887122f, -0.06669058f, 0.03129658f, -0.07343858f, -0.01386114f,
    -0.03433448f, -0.01314116f, 0.03154829f, 0.07689012f, -0.00936302f, 0.00584647f, -0.07274590f, 0.06348356f,
    -0.00817217f, -0.02580493f, -0.01015375f, 0.07132929f, 0.06716479f, 0.06180533f, -0.07253920f, -0.06202448f,
    0.01368952f, 0.03953318f, -0.04408905f, -0.01905841f, 0.05255218f, -0.00331251f, -0.04316375f, -0.04404227f,
    -0.05881421f, 0.06451435f, 0.07057873f, 0.06498407f, 0.06475344f, 0.00721727f, -0.01343933f, 0.01116472f,
    0.00235183f, 0.06763913f, 0.02292652f, -0.01121716f, 0.07589512f, 0.02579743f, -0.02707988f, -0.04433443f,
    0.04008131f, 0.07708091f, -0.00469696f, -0.06926227f, 0.02297293f, 0.02660023f, 0.00670437f, -0.07415601f,
    -0.00245981f, 0.01559515f, 0.04483694f, -0.01792333f, -0.01639414f, -0.05053969f, -0.05813610f, 0.07627745f,
    0.04115024f, 0.00926255f, -0.05298212f, 0.04318419f, -0.05024755f, -0.03186065f, -0.04676302f, 0.04298057f,
    -0.05686486f, 0.03765278f, -0.04872446f, -0.01331785f, -0.02765168f, -0.07662865f, -0.06515597f, 0.05378739f,
    -0.01217159f, 0.01719488f, 0.00766616f, -0.02063811f, -0.04000885f, 0.03728782f, -0.07827229f, -0.02167771f,
    0.01190693f, -0.03671421f, 0.04011341f, -0.02269990f, 0.08156990f, 0.04769718f, -0.07880120f, -0.04085589f,
    0.05058864f, -0.02191392f, -0.05149135f, 0.06750669f, 0.06909727f, -0.07746064f, 0.05785352f, 0.04271660f,
    -0.07543419f, -0.02589618f, -0.03786494f, -0.04445257f, -0.01077452f, -0.03296391f, -0.07631760f, 0.05913740f,
    -0.08152001f, 0.01564139f, 0.00837995f, 0.00093236f, 0.06785022f, -0.00616899f, -0.02328015f, 0.06462815f,
    -0.01758524f, 0.06072189f, 0.03283182f, 0.05594864f, 0.06489769f, -0.07030919f, 0.05057413f, -0.04159416f,
    -0.04877645f, 0.03175818f, 0.03750077f, -0.01679497f, -0.07679547f, 0.02321222f, 0.07205751f, -0.03615848f,
    0.04279493f, 0.01452925f, 0.01010313f, -0.02383753f, 0.04522476f, -0.00911180f, -0.07662734f, -0.03875594f,
    -0.00053053f, 0.01401217f, -0.03356233f, 0.06371852f, -0.01116532f, 0.04616583f, 0.01379804f, -0.02701409f,
    -0.01306650f, 0.03898909f, 0.04578339f, -0.07949305f, -0.03048425f, 0.06699981f, 0.01096282f, -0.06530847f,
    -0.05669772f, 0.01024225f, 0.04045726f, -0.06489177f, -0.00767704f, -0.06727759f, 0.01506716f, 0.02229100f,
    -0.01577816f, -0.05085303f, 0.02918732f, -0.07344405f, -0.04745777f, -0.06923161f, 0.03956947f, -0.05744810f,
    0.03224738f, -0.00147714f, 0.01773755f, -0.00910172f, -0.06154411f, 0.00179080f, -0.07910864f, 0.06021657f,
    -0.06281660f, 0.01483595f, 0.01494504f, -0.07100154f, 0.07058462f, -0.04395356f, 0.07123020f, 0.08075417f,
    -0.06431784f, 0.07035764f, -0.00853012f, -0.02165303f, -0.06444015f, 0.06389520f, -0.03951545f, -0.06597131f,
    0.07472408f, -0.05094305f, -0.03722601f, -0.00646725f, -0.05894374f, 0.01229835f, -0.06574223f, 0.04498108f,
    -0.05115690f, 0.06894127f, -0.07855493f, 0.05811107f, -0.03538261f, -0.02597574f, 0.03854369f, -0.04885698f,
    0.05134141f, -0.08150794f, 0.04529997f, 0.05939940f, 0.04052258f, -0.00432705f, -0.03208838f, -0.00733932f,
    -0.04383139f, -0.04270770f, 0.03490191f, 0.08150583f, -0.07514243f, 0.08103886f, -0.01179562f, -0.04815196f,
    0.01220312f, 0.01002242f, 0.07391345f, -0.02020082f, 0.06948593f, -0.07366397f, -0.04445559f, 0.04153002f,
    0.05455866f, -0.06904630f, 0.02973048f, 0.00260297f, 0.04412905f, 0.06777779f, 0.02070585f, -0.05885266f,
    -0.03074549f, 0.00167331f, -0.05897891f, -0.03112560f, -0.01419375f, 0.06938250f, -0.06662766f, 0.03101220f,
    0.03004768f, 0.00118436f, 0.07581490f, 0.01504419f, 0.04576647f, -0.05219662f, -0.03617279f, 0.01093654f,
    0.07148513f, -0.01788138f, -0.00200163f, -0.04478886f, -0.00236937f, -0.06869113f, 0.00285682f, -0.05577636f,
    -0.03060784f, 0.01855159f, -0.08041625f, -0.01699918f, 0.02237408f, 0.06235402f, -0.00226575f, 0.06523541f,
    -0.00549397f, -0.01382763f, 0.03120195f, -0.04542639f, 0.08094402f, 0.05904260f, 0.06944658f, 0.07739222f,
    -0.02860046f, -0.02938968f, -0.00050033f, -0.02645544f, 0.07915511f, -0.05878248f, -0.04228215f, 0.04959332f,
    0.07471327f, 0.03402134f, 0.04789519f, 0.01998407f, 0.07309076f, -0.06901299f, 0.01188438f, 0.01545348f,
    0.07402464f, 0.03201076f, 0.05993246f, 0.08007742f, -0.07133500f, -0.01206471f, -0.01949055f, -0.05879058f,
    0.00693601f, 0.02611187f, -0.07772268f, 0.04145214f, 0.05141805f, -0.06622587f, -0.00405628f, 0.01063803f,
    -0.06778181f, 0.04771716f, -0.01218008f, 0.03304395f, 0.01491600f, 0.08103524f, 0.02998922f, -0.01078561f,
    0.02968595f, -0.01530851f, -0.00398439f, 0.07973211f, 0.01087129f, 0.03499090f, -0.05638209f, 0.05524715f,
    0.06853910f, 0.03715128f, -0.04349247f, -0.05103089f, 0.04664177f, -0.01995490f, 0.07124952f, 0.04441421f,
    -0.02380184f, 0.02347988f, 0.07748418f, 0.06666294f, -0.02525310f, 0.06833618f, -0.07855153f, -0.05269714f,
    0.00135289f, 0.07688937f, -0.03059378f, -0.04605448f, -0.02649731f, 0.06634390f, 0.05308370f, 0.03200120f,
    -0.03082781f, -0.02314912f, 0.05684119f, -0.00899972f, -0.02216245f, -0.03319770f, -0.07478245f, 0.01916385f,
    0.07752020f, -0.00261794f, -0.02635596f, 0.01489590f, -0.01191284f, -0.00613726f, -0.04244743f, -0.04783464f,
    0.02366008f, 0.00704629f, 0.04353119f, -0.02797850f, -0.06579618f, -0.04004230f, -0.07123706f, 0.03552993f,
    0.04853660f, 0.04983436f, 0.05611487f, 0.01047499f, -0.07232545f, 0.06073746f, -0.04205880f, 0.07236177f,
    -0.06099137f, -0.06839427f, -0.05021914f, 0.06459606f, -0.02150451f, 0.00555752f, -0.06302769f, 0.01157756f,
    -0.04241467f, 0.01070416f, -0.07310754f, 0.00092889f, -0.06527849f, 0.03281274f, 0.06180399f, 0.01982194f,
    -0.00476891f, 0.06287020f, -0.06250779f, 0.06591377f, -0.02453141f, -0.03386006f, -0.02990901f, 0.08131964f,
    -0.05170423f, -0.07140299f, 0.00084723f, -0.03575977f, -0.02117490f, -0.07374498f, -0.01865763f, -0.06807655f,
    -0.03608493f, -0.06671642f, 0.06444094f, 0.05872341f, -0.04020263f, -0.05145527f, -0.03149030f, -0.01825413f,
    -0.02717379f, 0.01091961f, -0.06176781f, -0.07870567f, 0.03863494f, -0.04608258f, 0.03946804f, 0.07747503f,
    0.04494495f, -0.07164568f, 0.03854682f, 0.02953893f, -0.04702189f, 0.07441487f, 0.02925467f, -0.00666956f,
    -0.07211786f, -0.01130011f, -0.01908577f, 0.01525125f, -0.00027798f, -0.05629601f, -0.00918710f, 0.04102385f,
    0.03530041f, -0.06726719f, 0.00390426f, -0.05569227f, -0.01999406f, -0.00528789f, -0.03862466f, 0.04309408f,
    0.07849357f, -0.01072018f, -0.00353647f, -0.04145780f, 0.03518740f, 0.03051785f, 0.04431734f, -0.04614266f,
    0.04483672f, 0.03258801f, -0.06038550f, -0.04366595f, -0.03789229f, 0.02620970f, -0.01406076f, 0.07107861f,
    0.06831478f, -0.01657405f, 0.07220871f, -0.02231699f, 0.05218208f, -0.00726147f, 0.05310592f, -0.01127766f,
    0.00144769f, -0.04383393f, 0.06212544f, 0.07034770f, 0.06789026f, -0.00855336f, -0.04706807f, 0.05980022f,
    0.01733153f, -0.07591873f, -0.01081607f, 0.08111313f, -0.06511386f, 0.06162366f, 0.04998906f, 0.02900248f,
    -0.06713025f, -0.06005344f, -0.06550792f, 0.07256634f, 0.01255848f, 0.00661316f, -0.03195273f, -0.00982806f,
    0.06871064f, -0.04862197f, 0.00392498f, 0.04020467f, 0.07283422f, 0.02503223f, -0.03514314f, -0.05733273f,
    -0.08158511f, 0.00898238f, -0.02237884f, -0.04325080f, -0.01981657f, -0.04097144f, 0.06652913f, -0.00617979f,
    -0.06077014f, 0.06291656f, -0.05014614f, 0.02106254f, -0.02618787f, 0.00611088f, 0.00632384f, -0.05411628f,
    -0.03854208f, 0.01244467f, 0.05939940f, -0.02308971f, 0.03127546f, -0.06393825f, -0.00880882f, -0.05311295f,
    0.04170085f, -0.04253805f, 0.01042122f, -0.00046047f, -0.00165405f, 0.02757217f, -0.06954569f, -0.07592455f,
    0.02592816f, -0.07408407f, 0.06977101f, 0.01688247f, 0.01252517f, -0.01583484f, 0.05528242f, -0.01056182f,
    -0.08157803f, -0.05096157f, 0.00590473f, -0.03631462f, 0.05712331f, 0.00635415f, 0.00650662f, -0.01174857f,
    0.02692626f, -0.06013275f, 0.05828490f, 0.06778308f, -0.05596702f, -0.04388073f, 0.05210909f, 0.02678282f,
    -0.04541302f, -0.05288809f, -0.05228894f, -0.01980469f, -0.05051581f, -0.05796788f, -0.00114720f, -0.01211978f,
    -0.00557037f, 0.06120309f, -0.00680953f, -0.00477107f, 0.06222998f, -0.01081039f, -0.07832504f, -0.01848062f,
    -0.02832995f, -0.00104164f, 0.03705009f, -0.04630823f, 0.05175888f, -0.01717346f, 0.03048332f, 0.07888480f,
    -0.01475284f, -0.06275436f, 0.00573338f, -0.01497443f, -0.06828395f, 0.08133979f, 0.04793539f, -0.02502957f,
    -0.01994449f, -0.02643351f, -0.02304544f, -0.04664215f, 0.01603645f, 0.07837903f, -0.04054391f, -0.03094163f,
    0.01630661f, 0.02231172f, 0.00632361f, 0.01956066f, -0.04095892f, 0.03171203f, 0.00927953f, -0.07188910f,
    -0.02812488f, -0.01226400f, -0.07693648f, -0.05117566f, -0.05467954f, 0.00381902f, 0.02690420f, 0.01136973f,
    -0.01249788f, -0.02559353f, 0.08125516f, 0.01369965f, -0.03557836f, 0.05536300f, 0.05137816f, 0.00937083f,
    -0.06807821f, 0.00979983f, -0.05085307f, 0.04138789f, -0.04423505f, -0.05593368f, -0.04175582f, 0.00994593f,
    0.03744030f, -0.02981058f, -0.06305384f, -0.01236690f, 0.07348125f, 0.01292336f, 0.00548164f, -0.01756698f,
    0.08055238f, -0.03784875f, 0.01871379f, 0.06921982f, 0.02589278f, -0.02599017f, 0.03136584f, 0.07103724f,
    0.05904754f, -0.00978557f, 0.03709599f, -0.02547622f, -0.06366485f, -0.00960325f, 0.08051565f, 0.00064122f,
    -0.05304864f, 0.05549869f, -0.06068312f, -0.04689534f, 0.02582747f, 0.05910952f, -0.05288840f, -0.03469159f,
    -0.04545856f, 0.06035387f, -0.04920277f, -0.05784049f, 0.05550329f, -0.00101813f, -0.05536493f, -0.03921739f,
    -0.05083751f, -0.03085658f, -0.07301785f, 0.07259323f, -0.06617534f, 0.02659760f, 0.06617141f, 0.01098255f,
    0.07842604f, -0.03129749f, 0.04167465f, -0.06583428f, 0.01986108f, -0.03069905f, -0.00261373f, 0.01817218f,
    -0.04090391f, -0.07529610f, -0.07257717f, 0.01820198f, -0.04026495f, -0.06310711f, 0.04533767f, 0.05507559f,
    -0.02055663f, 0.03582196f, 0.04700067f, 0.07157901f, -0.00805386f, -0.04189634f, 0.04672267f, -0.06858359f,
    0.01517285f, -0.02578271f, 0.05624441f, -0.06994139f, -0.05221902f, -0.06544700f, -0.07646564f, -0.07203154f,
    -0.05251504f, -0.05707006f, 0.01246258f, -0.06293472f, -0.01410134f, 0.02491483f, 0.07103439f, 0.05476362f,
    -0.03122552f, -0.04991360f, 0.02868703f, -0.01079382f, -0.04121331f, -0.05301963f, 0.02737834f, -0.01241590f,
    0.05102386f, -0.00244458f, 0.03518639f, -0.05301881f, 0.03863703f, -0.00985725f, 0.01639826f, -0.04457060f,
    -0.02379350f, 0.04611695f, 0.02725157f, -0.03899269f, 0.03499623f, 0.00834137f, 0.04473878f, -0.04234204f,
    -0.06467961f, 0.07147345f, -0.06573419f, -0.00291951f, -0.00307544f, 0.02282522f, 0.02003930f, 0.06038528f,
    0.02892363f, -0.04123657f, 0.07545938f, -0.00992463f, 0.00889323f, 0.04068224f, 0.04478633f, 0.06945433f,
    -0.02392083f, -0.08159395f, 0.06314853f, -0.03372380f, -0.06952760f, 0.07508697f, -0.02826613f, 0.02249034f,
    -0.01845973f, 0.01071622f, -0.04771341f, 0.03614221f, -0.04203093f, -0.01717751f, 0.04830324f, -0.00604097f,
    -0.06351054f, 0.02900852f, 0.07904673f, 0.00571192f, -0.06891910f, 0.06898884f, 0.05353821f, -0.02562916f,
    -0.03420852f, 0.05062930f, 0.00662383f, -0.00052388f, -0.07525051f, -0.02154123f, -0.07827510f, 0.01364640f,
    0.05370806f, 0.05011953f, -0.05689770f, -0.00487646f, -0.01398716f, -0.06299579f, -0.04858907f, 0.00604170f,
    -0.03732503f, 0.03263111f, 0.06412245f, -0.06294195f, 0.00413702f, -0.02189345f, 0.02846926f, 0.00126395f,
    -0.01134015f, -0.01976441f, 0.00719342f, 0.03075804f, 0.06999670f, 0.06517346f, 0.00386017f, 0.05354791f,
    0.07370394f, -0.02231882f, -0.06136563f, -0.02098336f, 0.00066534f, -0.07421051f, -0.04899247f, 0.03583207f,
    0.07113373f, -0.02949048f, -0.07191802f, 0.03526135f, -0.00211961f, 0.06990739f, -0.05908225f, -0.00406781f,
    -0.04187862f, 0.08060105f, -0.02063159f, 0.07248867f, 0.00028858f, 0.00673466f, 0.04442722f, 0.01220414f,
    0.00899548f, 0.01572854f, -0.02366227f, 0.00104600f, 0.00776335f, -0.01894579f, -0.01471828f, -0.03658806f,
    -0.02005399f, -0.05419968f, -0.02534791f, 0.04354097f, -0.00364109f, -0.04402946f, -0.06454707f, -0.01840371f,
    -0.07262363f, 0.05645582f, 0.06333431f, 0.02551314f, 0.05726000f, -0.03252871f, -0.03908394f, 0.06254930f,
    -0.05178576f, 0.08113957f, 0.06983046f, 0.07232596f, -0.06918529f, 0.08088105f, 0.02490273f, 0.00734105f,
    -0.07399077f, 0.07026399f, -0.05453530f, -0.04774167f, -0.05461037f, -0.07291949f, -0.07392726f, -0.02957107f,
    -0.05827416f, -0.00268576f, -0.06685582f, -0.02971412f, 0.05107750f, -0.03417563f, -0.02731013f, -0.02153194f,
    -0.01322849f, -0.08111984f, -0.07726940f, -0.07081880f, -0.06563810f, 0.00666407f, -0.05774278f, 0.00704808f,
    0.04047529f, 0.06871475f, 0.00533307f, -0.04154180f, 0.04112471f, 0.01139650f, 0.07378481f, -0.05157223f,
    0.06829171f, -0.04239710f, -0.02641094f, 0.04170360f, 0.04122274f, -0.00393260f, -0.02618009f, -0.04982739f,
    -0.04142443f, -0.05225690f, 0.00253937f, -0.01341636f, 0.00316427f, 0.07024001f, -0.01655837f, 0.04270547f,
    0.02004701f, -0.05795784f, -0.03970401f, 0.07570963f, 0.07384718f, 0.02303011f, -0.00954613f, 0.06637806f,
    -0.02193373f, -0.08130473f, -0.01729467f, -0.07830632f, 0.07536575f, 0.05849303f, 0.02910086f, -0.05922289f,
    0.01006066f, 0.06094473f, 0.06088519f, -0.05868952f, 0.07785937f, 0.07168447f, -0.07065041f, -0.06885242f,
    -0.07924458f, 0.01789501f, -0.00314925f, 0.07468110f, -0.01604663f, 0.07199786f, 0.06733103f, -0.00436655f,
    0.02759971f, -0.05598596f, 0.05772494f, -0.06631152f, 0.03047204f, 0.07295804f, 0.02350910f, 0.04982083f,
    -0.00237459f, 0.01714686f, -0.07693384f, 0.03161455f, -0.03032804f, 0.03442665f, -0.04800295f, 0.05285058f,
    -0.02978612f, -0.00389028f, 0.05430821f, 0.03054772f, -0.03335278f, 0.02852032f, 0.07831753f, -0.07951234f,
    -0.02042344f, 0.06114263f, 0.03465290f, 0.01899951f, 0.07567495f, 0.01551030f, -0.07046940f, -0.02397519f,
    -0.05925374f, -0.00950744f, -0.04179883f, 0.02077008f, -0.04180442f, -0.05956303f, 0.05868471f, -0.05680073f,
    0.04573279f, 0.07553140f, -0.07873022f, 0.05848609f, -0.06976213f, 0.00396733f, 0.00314023f, 0.05633908f,
    -0.06921220f, -0.00512785f, 0.07201638f, 0.00004285f, -0.07434230f, 0.03116047f, 0.07538640f, 0.07343958f,
    -0.01503321f, -0.02387538f, -0.06894881f, -0.03234244f, 0.07589953f, 0.04477412f, -0.05790423f, 0.03860995f,
    -0.01665369f, 0.00143474f, 0.04488786f, -0.03200165f, -0.00001335f, 0.04063033f, 0.02683293f, 0.07433805f,
    -0.06891434f, 0.03940326f, 0.03458634f, 0.03259318f, 0.05264556f, 0.02438063f, -0.06180152f, 0.00039398f,
    -0.03437361f, -0.05978526f, 0.00262866f, -0.07272520f, -0.01561233f, -0.07472631f, -0.07029705f, -0.01869898f,
    0.05724856f, -0.00897354f, 0.06661441f, -0.05302469f, 0.02610240f, -0.07337739f, 0.02479382f, 0.05392394f,
    -0.07946978f, -0.07933203f, -0.03800651f, 0.01446910f, 0.00898005f, -0.05562783f, -0.06823055f, 0.07327194f,
    0.05733373f, -0.03867070f, 0.07349242f, -0.00028460f, -0.05766894f, -0.04926031f, -0.06108879f, 0.04008465f,
    -0.02134187f, 0.00838042f, -0.05262672f, -0.06806783f, 0.06399622f, -0.06791789f, 0.01668475f, -0.03634376f,
    -0.02359238f, 0.02956569f, -0.05051183f, -0.05216975f, 0.04609322f, 0.01731246f, 0.06597482f, -0.05756788f,
    -0.07736972f, -0.01385115f, 0.00419429f, 0.07741908f, 0.02160815f, -0.01467350f, 0.06673609f, 0.03878032f,
    -0.04357200f, 0.02771775f, 0.03033841f, 0.03295214f, -0.03847816f, -0.01691961f, -0.07803702f, -0.05450909f,
    0.03949020f, -0.00332362f, 0.07387837f, -0.07413054f, -0.08064117f, -0.00672756f, 0.03472388f, 0.00698455f,
    0.02464209f, 0.01741485f, 0.02853315f, -0.06832661f, 0.06085397f, 0.05333636f, -0.05208785f, -0.05608345f,
    0.01018191f, 0.00337152f, 0.06713273f, 0.06490900f, 0.03406383f, 0.00773114f, 0.05195160f, -0.03236959f,
    -0.04175748f, 0.07011054f, -0.07525076f, -0.00460133f, -0.01517706f, 0.06792390f, 0.01576244f, 0.06039270f,
    0.05553536f, -0.01533688f, -0.00269469f, 0.05846572f, 0.04828745f, -0.01312857f, 0.08036570f, 0.07325808f,
    -0.01874885f, -0.00193116f, -0.04779690f, 0.03013214f, -0.01361549f, 0.06484334f, 0.03254002f, -0.07726705f,
    0.05545558f, 0.07678339f, -0.04671992f, 0.03071326f, 0.04869419f, 0.01969296f, -0.00088884f, 0.03677227f,
    -0.06109097f, -0.02255574f, -0.01130093f, -0.02718759f, 0.03811583f, 0.00748164f, -0.02610588f, -0.00749787f,
    0.06020705f, 0.04592505f, -0.00035185f, -0.05713518f, 0.05307217f, 0.07580590f, -0.05951507f, -0.01721199f,
    -0.06696723f, -0.04589845f, 0.02996698f, 0.07961626f, 0.07516164f, 0.04884084f, 0.06393756f, 0.00941082f,
    0.05126017f, -0.00589762f, 0.07550339f, 0.06765525f, 0.04828701f, -0.00971355f, -0.02373756f, -0.02775203f,
    -0.03349999f, 0.03829454f, 0.05863291f, -0.02896821f, -0.00271063f, -0.02197284f, 0.02029100f, 0.02937162f,
    0.05891519f, 0.00632017f, 0.05155391f, -0.03960292f, -0.06760218f, 0.07317952f, -0.07253275f, -0.00431265f,
    0.01278275f, -0.02407137f, 0.00445931f, -0.03171330f, -0.06741368f, -0.03980260f, 0.03443236f, -0.01888287f,
    0.03985322f, -0.00817712f, -0.07454959f, 0.03549452f, -0.03616367f, -0.03249128f, 0.04207716f, -0.06567635f,
    0.00245143f, -0.02596535f, -0.06071944f, 0.05618311f, -0.00772583f, 0.03512804f, -0.02528570f, -0.01875707f,
    -0.07404435f, 0.05983415f, -0.02689393f, -0.00224872f, -0.00697191f, -0.07698053f, -0.05143929f, -0.05541925f,
    0.08034312f, -0.05211668f, -0.07613064f, -0.03562484f, -0.06823192f, -0.06178520f, -0.06628475f, -0.05741930f,
    0.00481309f, -0.02865938f, -0.03803265f, -0.05786366f, -0.02307583f, -0.06231315f, -0.07275053f, -0.01514532f,
    0.00899933f, 0.07865337f, -0.07808674f, -0.01100044f, -0.03805936f, 0.05025334f, 0.05003688f, -0.07390066f,
    0.03549360f, 0.06897362f, -0.03291317f, -0.03781341f, -0.03560746f, 0.06143293f, 0.07022457f, 0.01315746f,
    0.06009343f, -0.03681541f, 0.04354111f, 0.00249603f, -0.04239314f, -0.06472965f, 0.05134819f, 0.01854345f,
    -0.00917819f, 0.00432770f, 0.03120854f, 0.03172251f, 0.01654776f, 0.07934693f, -0.04732448f, 0.06272126f,
    -0.06490245f, -0.02696748f, 0.00762214f, -0.05782802f, -0.00934114f, 0.06346986f, -0.06885284f, -0.02626303f,
    0.07740866f, -0.04832940f, -0.05090434f, -0.03871873f, -0.00981363f, 0.02557934f, -0.02629147f, 0.01011238f,
    -0.06284459f, 0.01667534f, -0.02820737f, -0.07851138f, -0.02726150f, 0.06978878f, -0.01792457f, 0.03779784f,
    0.00910597f, 0.07238939f, 0.03426297f, 0.00078705f, 0.00388328f, 0.03293498f, -0.07272123f, 0.01692792f,
    0.00565007f, 0.01903175f, -0.01641246f, 0.00898185f, 0.06109411f, 0.05790986f, 0.01683229f, 0.03859957f,
    0.01930215f, 0.03967157f, 0.04445393f, -0.08086529f, 0.02450890f, 0.00294444f, -0.01356590f, 0.02433547f,
    0.07560737f, 0.07996903f, -0.04589123f, 0.06429861f, 0.05061519f, -0.01680262f, 0.00433919f, 0.06530187f,
    -0.06795008f, -0.08128122f, 0.00326041f, -0.02267214f, -0.00839846f, -0.08149685f, 0.01624303f, -0.00652205f,
    0.02137211f, -0.01544351f, -0.06810199f, -0.05253914f, 0.04661801f, 0.02413971f, 0.04236927f, -0.02631016f,
    0.02588607f, 0.06862509f, -0.07502355f, 0.05133931f, 0.03776034f, -0.07058369f, 0.02697012f, 0.03107764f,
    0.01484654f, 0.07990076f, -0.01038796f, -0.05217808f, -0.06564464f, -0.01889391f, 0.03517172f, -0.06579750f,
    0.04048353f, -0.07845759f, 0.01844608f, 0.00753594f, 0.04451381f, -0.05959550f, 0.03097002f, 0.00329660f,
    0.02537454f, -0.01756956f, -0.02784254f, 0.01839452f, -0.01090797f, 0.05035148f, -0.05224682f, -0.01233417f,
    -0.04617626f, -0.06534769f, 0.05649580f, -0.00867452f, 0.06895990f, -0.02135916f, -0.04925474f, -0.06948315f,
    0.00053223f, 0.03857928f, -0.06016611f, -0.06811426f, -0.04489735f, 0.03064479f, -0.05722233f, 0.07654317f,
    -0.02880156f, -0.00718356f, -0.04078411f, -0.05992072f, -0.00163561f, -0.06337897f, -0.05323906f, 0.03769322f,
    -0.03655815f, -0.01965325f, 0.04692382f, 0.02416143f, 0.06831026f, -0.06304120f, -0.03326289f, -0.06865162f,
    0.01961204f, -0.02099391f, 0.04535537f, 0.05818553f, 0.06695357f, -0.05577238f, 0.07708584f, -0.07878474f,
    -0.03502760f, -0.04263475f, -0.00536375f, -0.01127568f, 0.07006100f, -0.02746869f, -0.05689975f, 0.03355346f,
    -0.00865681f, 0.04439401f, 0.04315603f, 0.02965330f, 0.01706479f, 0.03363059f, 0.01178213f, 0.00701836f,
    -0.03948094f, 0.03542142f, -0.03087708f, 0.05461974f, -0.03100788f, -0.00518856f, -0.06521804f, 0.06081045f,
    -0.02548826f, 0.01960793f, -0.06083064f, 0.00358186f, -0.03395106f, 0.02759589f, 0.05167801f, 0.02980979f,
    0.04273904f, -0.03398217f, 0.02881275f, -0.02524919f, 0.03195304f, -0.05478788f, -0.04722155f, -0.02204149f,
    0.07705322f, -0.00724884f, -0.00911120f, -0.00326187f, 0.00234904f, -0.00346172f, -0.00268384f, -0.02533472f,
    -0.06146833f, 0.05000044f, -0.03289172f, -0.01212713f, -0.04858178f, -0.01689577f, 0.06371889f, -0.07219417f,
    0.04175831f, -0.03897045f, -0.01896577f, -0.07993443f, 0.01938579f, 0.05208807f, 0.00553131f, 0.01947353f,
    0.06331748f, 0.05219186f, -0.07444557f, 0.05785830f, -0.01261641f, -0.07061739f, 0.07227361f, -0.04003606f,
    0.06558044f, -0.03195473f, -0.04779097f, -0.04805330f, 0.06489597f, -0.01593664f, -0.08082062f, 0.02373811f,
    -0.06736089f, -0.04855325f, 0.05022176f, 0.01458500f, -0.05997707f, -0.07449593f, -0.00119721f, 0.03838467f,
    -0.00210202f, -0.03118174f, 0.01625013f, -0.07679727f, 0.05490796f, 0.05423613f, -0.06816440f, 0.00933418f,
    -0.08047614f, -0.04340230f, -0.04334603f, 0.07829326f, 0.06652026f, -0.03508890f, 0.03149119f, 0.03710368f,
    -0.05365349f, 0.00643164f, -0.08094033f, 0.00539412f, -0.02876590f, -0.07241675f, 0.04768652f, -0.01396267f,
    0.02473510f, -0.00517875f, 0.04148810f, 0.07425065f, -0.06007368f, 0.01738321f, 0.06844568f, 0.02374229f,
    -0.04003179f, -0.02835869f, 0.04655660f, -0.02071996f, 0.06738969f, 0.07563360f, 0.07863433f, 0.01650936f,
    0.06421832f, -0.00189537f, -0.06707342f, -0.00136197f, 0.05572283f, 0.03697469f, -0.02765397f, 0.02335461f,
    -0.04916246f, -0.07694732f, -0.06142997f, 0.01750999f, 0.03553487f, 0.08162987f, 0.04467877f, -0.04202721f,
    -0.01293621f, 0.06867720f, -0.02147826f, 0.07132311f, -0.07729065f, 0.01328181f, 0.06741638f, -0.01186372f,
    0.02859365f, 0.07621122f, -0.05960357f, 0.02752246f, -0.00088696f, -0.05895837f, -0.04542648f, 0.07572576f,
    0.04019852f, 0.02170806f, 0.02077300f, -0.03724218f, -0.04892407f, 0.03665945f, -0.00368231f, -0.02402422f,
    0.03599240f, 0.01079248f, -0.05356458f, 0.03283458f, -0.08153325f, -0.02513343f, 0.03890084f, 0.03408348f,
    0.04982558f, -0.07389396f, 0.07384029f, -0.02241785f, 0.05195283f, 0.00909555f, 0.00367926f, 0.00890056f,
    0.07546542f, 0.01337785f, -0.03874921f, 0.07867397f, -0.04470778f, 0.06226985f, -0.04121381f, -0.00482821f,
    -0.07853672f, 0.05502034f, 0.04121153f, 0.02456111f, 0.06533545f, 0.00847157f, -0.07450939f, -0.04525470f,
    0.02999723f, 0.06240420f, 0.05007136f, 0.03389446f, 0.01723484f, 0.02239488f, -0.04239164f, 0.02060922f,
    -0.08052381f, 0.08022679f, 0.05531298f, 0.00608667f, 0.04980173f, 0.02305989f, -0.06100961f, -0.00512447f,
    0.00223413f, -0.04455825f, 0.03548772f, -0.03051215f, -0.07098252f, 0.00028851f, -0.05198411f, 0.05891665f,
    0.04781220f, -0.02079348f, 0.05898760f, 0.02162427f, 0.01511336f, 0.02690772f, 0.02787855f, 0.02177897f,
    0.07155117f, 0.04402897f, -0.07542491f, -0.01269664f, -0.04246168f, -0.00331626f, 0.06907298f, 0.02830060f,
    -0.01812804f, -0.02872345f, 0.04414461f, 0.05375819f, -0.06338901f, -0.03075141f, 0.03864639f, -0.07516705f,
    -0.05144934f, -0.02314451f, 0.01778250f, 0.07207493f, 0.03776129f, -0.06494345f, -0.02429317f, 0.06041110f,
    -0.02342963f, 0.06102592f, -0.04892743f, 0.06729382f, 0.00199559f, 0.04296102f, 0.02596637f, 0.03672058f,
    -0.07720338f, -0.03024989f, -0.03582282f, -0.07410574f, 0.06710426f, -0.03678920f, 0.06763196f, 0.06228837f,
    0.03777767f, -0.01416889f, -0.02099890f, -0.08066257f, 0.02855185f, -0.05413814f, 0.07562529f, 0.03782979f,
    0.04136316f, 0.02554190f, -0.03707955f, -0.01049877f, -0.07026898f, 0.06884080f, -0.07694561f, 0.00286515f,
    -0.07379428f, 0.01006684f, 0.07209967f, -0.02248804f, -0.00017103f, -0.07294063f, 0.02420593f, -0.02300830f,
    -0.01837519f, -0.00877369f, 0.02033575f, -0.00844570f, -0.08058405f, 0.00765894f, -0.06065693f, -0.03789295f,
    -0.01524613f, -0.05718864f, -0.03389615f, -0.02321905f, -0.03367358f, 0.01664911f, -0.01465351f, 0.04328683f,
    -0.02417036f, 0.03486403f, -0.06546096f, -0.00553567f, 0.01198915f, -0.06014306f, -0.03142860f, 0.06127411f,
    -0.04503109f, 0.06552836f, 0.05957190f, -0.05744788f, 0.03039912f, -0.06462782f, -0.01756304f, -0.06354850f,
    -0.04467966f, 0.05314254f, -0.02741890f, 0.06713139f, 0.00737814f, -0.03861051f, 0.07072981f, 0.05447706f,
    -0.07029446f, -0.05578596f, 0.02791589f, -0.05134428f, 0.01309529f, 0.00276500f, -0.01456952f, 0.04526231f,
    -0.00282594f, -0.05154687f, -0.03655795f, 0.06336266f, -0.02472517f, -0.07556650f, 0.08125468f, -0.03061410f,
    -0.06221826f, -0.06267688f, -0.03199690f, -0.06536710f, 0.07598288f, 0.01419824f, -0.05579207f, 0.02517649f,
    0.01569511f, -0.07764927f, -0.00157203f, 0.07371330f, -0.02918117f, 0.03802945f, -0.04283842f, 0.04970727f,
    -0.06669852f, -0.01435462f, -0.01456159f, 0.04280794f, 0.04545716f, 0.03968675f, -0.06853552f, -0.03219913f,
    0.06985794f, -0.04418928f, 0.04215465f, -0.01747585f, -0.07616231f, -0.01234167f, -0.06910519f, 0.00976228f,
    -0.07686334f, 0.03767943f, -0.03214234f, 0.07390185f, 0.01758675f, -0.03758008f, 0.02044361f, -0.00642621f,
    0.00539374f, 0.00589162f, -0.06793078f, 0.05575681f, -0.00405817f, 0.07500366f, 0.02022594f, -0.00990445f,
    0.03108636f, -0.07285707f, 0.03325488f, -0.01374417f, 0.05470362f, -0.05044975f, 0.02920205f, -0.03177151f,
    0.08121105f, -0.00717576f, 0.06362627f, 0.06732810f, 0.00340427f, -0.06853794f, -0.04313139f, 0.06700123f,
    -0.05795778f, 0.07830686f, 0.01141001f, 0.07822411f, -0.05821950f, -0.07259576f, -0.04135426f, -0.00441628f,
    0.04349842f, -0.01722191f, 0.06356990f, -0.01012077f, 0.07695834f, 0.03792705f, 0.00882300f, 0.06084936f,
    -0.06875728f, 0.07363395f, 0.07555100f, 0.05099558f, -0.01455130f, 0.05205826f, 0.00246113f, -0.04501346f,
    0.03222099f, 0.03631076f, -0.00078994f, 0.01661223f, -0.05072590f, 0.02563581f, 0.03309154f, -0.07852206f,
    -0.00155365f, -0.06951468f, -0.07677713f, -0.01397954f, 0.06525610f, -0.03937671f, -0.05850492f, 0.04855417f,
    -0.01111070f, 0.02979843f, 0.01161351f, 0.03336114f, 0.07524015f, 0.03260332f, 0.04363282f, 0.03996661f,
    0.03603118f, -0.03879608f, 0.07740794f, -0.00361729f, 0.04030288f, -0.00194844f, 0.00337819f, -0.04096699f,
    -0.04829789f, -0.08001690f, 0.01755977f, -0.05744341f, 0.04460689f, 0.05566126f, 0.06235576f, -0.01751852f,
    0.08091881f, 0.05809280f, 0.01877069f, 0.07166275f, -0.03604280f, 0.01245280f, 0.02811097f, 0.06547497f,
    -0.07689042f, -0.02860601f, 0.01369508f, 0.03287358f, 0.06664521f, -0.05875104f, 0.00107896f, -0.05748307f,
    0.05836979f, -0.04546355f, 0.01501671f, 0.05853062f, -0.04266058f, -0.07587518f, 0.05038420f, 0.01860949f,
    0.01553835f, -0.04595888f, -0.00482713f, -0.06369431f, 0.04434926f, 0.04043357f, -0.04305478f, 0.02454347f,
    0.06785998f, 0.06043760f, 0.06737512f, -0.06654734f, -0.06178519f, 0.03917732f, -0.07780030f, 0.01001119f,
    -0.06025293f, 0.03672789f, 0.05797237f, 0.07501737f, 0.01771257f, 0.05227339f, 0.03588634f, -0.05035236f,
    -0.06989622f, 0.06012695f, -0.06417837f, 0.05654318f, -0.06783661f, 0.01275756f, -0.06661531f, 0.04247193f,
    -0.06666397f, -0.04057244f, -0.04116559f, 0.04051872f, 0.05770514f, -0.08025059f, -0.00559012f, -0.02245195f,
    -0.06943845f, 0.05578975f, 0.02730771f, 0.08022591f, 0.05154926f, -0.01397990f, -0.05049131f, 0.06127676f,
    0.06323184f, -0.00419458f, -0.02165657f, 0.05837285f, -0.00014250f, -0.06041512f, 0.01144653f, -0.06645039f,
    0.02674728f, 0.07231986f, 0.04507593f, 0.05659781f, -0.05271615f, 0.03470730f, -0.02440158f, -0.02877759f,
    0.07409251f, 0.01178955f, 0.02990602f, 0.07195926f, -0.04355487f, 0.05713773f, 0.07376494f, -0.00198867f,
    -0.00482958f, 0.06856113f, 0.01243066f, 0.02203009f, 0.05393683f, 0.01791555f, -0.01020440f, -0.03484568f,
    -0.06811821f, 0.02737648f, -0.03321141f, -0.03554442f, 0.03775969f, -0.06026806f, 0.03812478f, -0.07210457f,
    -0.00408110f, -0.05641715f, 0.06365621f, 0.03063598f, 0.03816125f, 0.01444233f, -0.02448284f, 0.06065949f,
    0.00925868f, 0.04890672f, -0.04713483f, 0.02142071f, 0.08073542f, 0.03187357f, -0.07765644f, -0.00532886f,
    -0.00448936f, 0.06908435f, 0.04630257f, -0.03736316f, 0.03205542f, 0.03700620f, -0.07021174f, 0.00794388f,
    0.06795786f, -0.06454345f, 0.03112701f, 0.05537804f, 0.01863761f, -0.01142449f, -0.02857577f, -0.04668815f,
    -0.06611311f, -0.04575408f, -0.01534210f, -0.07060518f, -0.05135579f, 0.03401555f, -0.05967167f, -0.01121830f,
    0.03789308f, -0.07440747f, 0.02986193f, -0.01586594f, -0.07484886f, -0.02907267f, -0.01848225f, 0.06099746f,
    -0.02898602f, 0.07734133f, 0.07106420f, -0.05363777f, -0.04015871f, 0.03098422f, -0.05911927f, 0.00514267f,
    0.05651495f, 0.03662010f, 0.04787241f, -0.05125063f, -0.02218716f, 0.05590904f, -0.05956901f, 0.00653985f,
    -0.02122996f, 0.00100334f, -0.07853822f, 0.03913109f, -0.07374889f, -0.07899327f, -0.04387433f, -0.06548402f,
    -0.07758577f, -0.03876575f, 0.04025637f, 0.03782063f, 0.06243645f, -0.03058872f, 0.06714101f, 0.03012251f,
    0.01631499f, -0.08012373f, -0.01021474f, -0.00806263f, -0.01188838f, 0.05049372f, 0.01198117f, -0.06085988f,
    -0.05636773f, 0.06133755f, 0.00202902f, 0.07359870f, -0.01822150f, -0.06168821f, -0.07020788f, 0.06304829f,
    0.01107196f, -0.06332582f, 0.01845606f, -0.05758207f, -0.01901666f, -0.04771308f, 0.08051445f, 0.05582168f,
    0.06608344f, -0.02755645f, 0.02610034f, -0.05300556f, -0.02994588f, -0.01552928f, -0.08091211f, 0.05556849f,
};

// Shape: (16,), dtype: float32
static const float stem_bn_gamma[16] = {
    1.00000000f, 1.00000000f, 1.00000000f, 1.00000000f, 1.00000000f, 1.00000000f, 1.00000000f, 1.00000000f,
    1.00000000f, 1.00000000f, 1.00000000f, 1.00000000f, 1.00000000f, 1.00000000f, 1.00000000f, 1.00000000f,
};

// Shape: (16,), dtype: float32
static const float stem_bn_beta[16] = {
    0.00000000f, 0.00000000f, 0.00000000f, 0.00000000f, 0.00000000f, 0.00000000f, 0.00000000f, 0.00000000f,
    0.00000000f, 0.00000000f, 0.00000000f, 0.00000000f, 0.00000000f, 0.00000000f, 0.00000000f, 0.00000000f,
};

// Shape: (16,), dtype: float32
static const float stem_bn_mean[16] = {
    0.00000000f, 0.00000000f, 0.00000000f, 0.00000000f, 0.00000000f, 0.00000000f, 0.00000000f, 0.00000000f,
    0.00000000f, 0.00000000f, 0.00000000f, 0.00000000f, 0.00000000f, 0.00000000f, 0.00000000f, 0.00000000f,
};

// Shape: (16,), dtype: float32
static const float stem_bn_var[16] = {
    1.00000000f, 1.00000000f, 1.00000000f, 1.00000000f, 1.00000000f, 1.00000000f, 1.00000000f, 1.00000000f,
    1.00000000f, 1.00000000f, 1.00000000f, 1.00000000f, 1.00000000f, 1.00000000f, 1.00000000f, 1.00000000f,
};

// Shape: (3, 3, 16, 16), dtype: float32
static const float stage0_block0_conv1_weight[2304] = {
    0.01038519f, -0.03507709f, 0.01899938f, 0.01926200f, -0.04914771f, 0.05847080f, 0.07231827f, 0.04557970f,
    0.02651862f, -0.06468721f, -0.01740765f, -0.06731117f, -0.02295844f, 0.04327824f, -0.04592136f, -0.07784872f,
    -0.06369650f, 0.04597881f, -0.02777197f, -0.04831467f, -0.07766207f, -0.05850499f, -0.06584101f, -0.06504791f,
    -0.02401464f, -0.00459557f, -0.05187309f, -0.04216750f, -0.04061332f, 0.07760339f, 0.07781136f, -0.06900617f,
    0.01002987f, -0.06771530f, 0.04953350f, 0.03665977f, -0.06074315f, 0.01142617f, -0.07027179f, -0.01510024f,
    -0.00487208f, -0.03778058f, -0.04189634f, 0.01284138f, -0.05690500f, 0.05028015f, 0.07440060f, 0.03079363f,
    -0.01042390f, -0.02503077f, 0.03620902f, -0.07593920f, -0.00312602f, -0.04933107f, 0.06710562f, -0.05580411f,
    -0.07798514f, -0.07641160f, 0.02618478f, 0.03358024f, -0.04199457f, -0.04890028f, -0.05836548f, 0.05128857f,
    0.02980316f, 0.06139868f, 0.03604028f, 0.06569666f, 0.04772237f, -0.06893548f, -0.06579550f, 0.02897846f,
    -0.02851567f, -0.03257918f, 0.00339228f, 0.02244486f, -0.06414031f, -0.00299591f, 0.01437615f, 0.05365622f,
    0.02848087f, 0.04069033f, -0.01892277f, 0.06961958f, 0.06466620f, 0.04862469f, 0.02839543f, 0.08238451f,
    0.03654328f, -0.00788917f, -0.03376675f, 0.03106694f, -0.07929967f, -0.06008895f, -0.05527390f, -0.07809257f,
    0.06991927f, -0.04708466f, -0.05122067f, -0.06488933f, 0.08294686f, -0.06733739f, 0.00671515f, 0.04262578f,
    -0.05099501f, 0.04642025f, 0.05084682f, -0.01156908f, 0.04149401f, 0.06066671f, 0.07227939f, -0.01776556f,
    0.03656406f, 0.00146128f, -0.06305096f, 0.01185079f, 0.05901137f, -0.01665510f, -0.03901126f, -0.08320528f,
    -0.06993516f, 0.07447849f, 0.06789236f, 0.07852238f, -0.06656333f, 0.05120101f, -0.06002061f, 0.03107569f,
    0.03860171f, -0.02745847f, 0.06952584f, 0.03476769f, 0.05257314f, -0.01201393f, -0.02065563f, 0.00324136f,
    0.02673334f, 0.06078741f, -0.01081596f, -0.04166902f, -0.03864454f, -0.00974224f, 0.03911366f, -0.04279820f,
    -0.05989852f, -0.02051209f, 0.07300745f, -0.07464524f, -0.04792306f, -0.04598877f, 0.03304225f, -0.00434049f,
    0.06685589f, 0.06128132f, -0.02550394f, -0.08172582f, -0.07235255f, 0.02416500f, 0.05785155f, 0.07743938f,
    0.02471691f, -0.03297929f, 0.02078963f, -0.04605545f, 0.00895516f, -0.04893878f, -0.00952492f, 0.07823169f,
    0.03799435f, -0.04591047f, -0.00774942f, 0.01881214f, 0.00829798f, 0.05722831f, -0.06307447f, 0.02067044f,
    -0.08309317f, 0.06091388f, 0.00431636f, -0.04094821f, -0.04908025f, -0.06161519f, 0.01242635f, -0.07742746f,
    0.03976183f, -0.03772401f, 0.04645873f, -0.07435109f, -0.07528171f, -0.03396053f, 0.04926289f, 0.00307044f,
    0.06243015f, 0.08046278f, -0.07216839f, 0.01997123f, -0.07905772f, -0.02032009f, 0.01466561f, 0.00364255f,
    -0.07341874f, -0.02735019f, 0.07070064f, 0.01113340f, -0.03978370f, 0.07513614f, -0.07621810f, 0.03878416f,
    -0.00890985f, -0.00854345f, 0.05263399f, 0.02067513f, -0.00568801f, -0.06461217f, 0.03520042f, -0.03748101f,
    0.05742223f, -0.01039746f, 0.00762808f, -0.06032634f, -0.04631517f, 0.04818171f, 0.05328233f, -0.01029428f,
    0.01215843f, 0.02076844f, 0.06318314f, -0.02956407f, -0.06195193f, 0.02060403f, -0.07268600f, -0.02714235f,
    0.02707954f, -0.03305542f, -0.00750509f, -0.07918792f, 0.01655180f, -0.01237078f, -0.00518568f, 0.07657106f,
    -0.03762427f, -0.06947884f, -0.06193750f, 0.04902885f, 0.07318866f, -0.03651374f, 0.05349208f, 0.03250471f,
    0.03819085f, -0.04613264f, 0.07212315f, -0.01907351f, -0.03781336f, -0.08032637f, 0.06904103f, -0.03440442f,
    0.01756250f, -0.06696748f, 0.07202183f, 0.05732220f, 0.05752566f, -0.03503173f, 0.04957029f, 0.03384922f,
    -0.05793360f, -0.05907238f, -0.02560372f, -0.07713818f, 0.05940975f, 0.05312409f, -0.00002137f, 0.06186263f,
    -0.04786159f, -0.06331395f, -0.01489388f, 0.07591789f, -0.00893941f, -0.02952605f, 0.04476336f, 0.02931194f,
    -0.02712059f, 0.06167085f, 0.04434412f, 0.00124045f, -0.06869715f, 0.01665495f, 0.07059522f, 0.04371051f,
    -0.03099746f, -0.00854561f, 0.04522131f, -0.05544878f, 0.04155234f, 0.02278486f, 0.01290889f, -0.02340743f,
    0.00400655f, -0.05875529f, -0.01486353f, -0.03467752f, -0.07213850f, -0.07846160f, 0.00608738f, 0.03177385f,
    -0.05958710f, -0.06163519f, 0.00636675f, -0.07958883f, 0.01457348f, -0.07554150f, -0.05025527f, -0.00514688f,
    -0.01834752f, -0.05911040f, -0.00731337f, 0.05913588f, 0.01645108f, 0.04984761f, -0.05698942f, 0.06748550f,
    0.02152671f, 0.04707766f, 0.01771989f, -0.07844958f, 0.05709867f, 0.01146869f, -0.04880158f, 0.05142410f,
    -0.00520649f, -0.02922372f, 0.06062987f, -0.04053680f, 0.01870804f, -0.07561271f, -0.06376075f, 0.02315168f,
    0.00800058f, -0.02708843f, 0.06037902f, -0.02696304f, -0.06894095f, 0.07412203f, 0.02181752f, -0.07591843f,
    0.03299291f, -0.06038213f, -0.06917772f, 0.03979051f, -0.06768809f, -0.02179185f, 0.01089625f, 0.05835985f,
    0.08116370f, 0.08070316f, 0.03850672f, 0.06707671f, 0.00722941f, 0.05538614f, 0.07674285f, 0.05241382f,
    0.02668457f, 0.01842684f, -0.00236926f, 0.03522182f, 0.06289013f, -0.02938335f, 0.05446292f, -0.02058857f,
    0.04485189f, 0.05227517f, -0.01093384f, 0.02401502f, -0.07438202f, -0.00570915f, 0.07604496f, -0.00045384f,
    0.00946926f, -0.02361564f, 0.06552292f, 0.05396634f, 0.07423999f, 0.07136840f, 0.03625856f, 0.00282558f,
    -0.04392556f, -0.03210264f, 0.00492144f, 0.00451490f, -0.06540959f, -0.06332739f, 0.05035385f, 0.02932918f,
    0.00497106f, -0.02549176f, -0.07016699f, -0.07061151f, -0.00175296f, -0.02343567f, -0.00793127f, 0.03165119f,
    -0.00802525f, 0.01047930f, -0.00613889f, 0.02963814f, 0.06085696f, -0.06331068f, 0.05747487f, 0.05209696f,
    -0.01380756f, -0.03650364f, 0.00293778f, -0.03210788f, 0.01712675f, -0.01046307f, 0.04235783f, 0.04329287f,
    0.02777265f, 0.01245179f, -0.03312701f, 0.07274251f, 0.04071319f, -0.00600492f, 0.04140857f, -0.03360730f,
    0.00648129f, -0.03131147f, 0.03421023f, 0.06503996f, 0.03925461f, 0.04704706f, 0.03139001f, -0.04669486f,
    -0.08286198f, -0.00929121f, -0.06496517f, 0.06228995f, 0.01535585f, 0.02694297f, -0.03758777f, 0.06533632f,
    0.02659125f, 0.02873504f, 0.03235735f, 0.02207021f, 0.05371552f, 0.04792076f, -0.00007884f, -0.08024877f,
    -0.08039004f, 0.03689858f, -0.00574983f, 0.02171420f, -0.01708202f, -0.02101186f, -0.03331647f, -0.04959263f,
    -0.00238454f, -0.02769437f, -0.03967687f, 0.06170953f, 0.07586046f, 0.01422157f, 0.01951977f, -0.02905500f,
    -0.05742497f, 0.08162130f, 0.01054630f, 0.06945667f, -0.05440274f, 0.05517334f, 0.05896856f, 0.00523828f,
    -0.07222214f, 0.02102848f, 0.05713443f, -0.07119285f, 0.07744187f, -0.03120802f, -0.01976268f, -0.08249260f,
    -0.03524849f, 0.06663612f, 0.02228835f, 0.02956320f, 0.03040909f, -0.07556333f, 0.05968752f, -0.00544068f,
    -0.03530397f, 0.06862456f, -0.01474500f, 0.02757842f, -0.02107752f, 0.03665636f, 0.01197368f, -0.03065666f,
    -0.07594317f, -0.04499023f, 0.06979515f, 0.01730026f, -0.00800148f, -0.05318408f, -0.00135996f, 0.07706653f,
    0.00801786f, -0.01317691f, 0.00722540f, 0.07497700f, -0.06139006f, 0.02812788f, 0.07061683f, 0.03509405f,
    -0.04958771f, 0.05084349f, 0.00664371f, 0.05017717f, 0.01507286f, 0.01278811f, -0.02542578f, 0.06432670f,
    0.01104603f, -0.06645428f, 0.02543607f, 0.00158369f, 0.04098300f, -0.03101189f, -0.04638239f, 0.04120384f,
    0.06888770f, -0.05459090f, -0.02511841f, 0.07511761f, 0.06273070f, 0.03656804f, 0.07134981f, -0.01473821f,
    0.03016219f, -0.02652411f, 0.00726022f, -0.07240680f, 0.07738128f, 0.06079960f, 0.06815033f, 0.00758130f,
    -0.01634480f, -0.05618300f, -0.02435492f, -0.04066086f, -0.00276392f, 0.02905149f, 0.00479455f, 0.01001405f,
    -0.03377669f, 0.02632493f, -0.02808704f, -0.02407563f, 0.00578469f, -0.03882922f, 0.02700930f, 0.01568977f,
    -0.04280942f, 0.03478954f, -0.00365802f, 0.03766755f, -0.03696949f, 0.05217895f, -0.08086087f, -0.04498160f,
    -0.06884478f, 0.02972807f, -0.06667983f, 0.02422613f, 0.00762124f, 0.00714822f, -0.03199359f, 0.06075608f,
    0.05955558f, -0.00493285f, -0.00065627f, 0.03863382f, 0.01730801f, -0.00410198f, -0.02861309f, 0.06788680f,
    -0.02878409f, -0.03869161f, -0.04023687f, -0.04279378f, 0.04916933f, 0.00811839f, -0.02192107f, 0.03040493f,
    -0.01266208f, -0.06918235f, -0.05685540f, 0.04996669f, -0.00635161f, 0.07261761f, -0.06890036f, -0.01607558f,
    -0.00872432f, 0.05774046f, 0.06062902f, -0.02139475f, 0.04455423f, 0.04234242f, -0.02332396f, -0.06813695f,
    -0.01696366f, -0.01329652f, -0.01914250f, -0.07889315f, -0.07673112f, 0.00729070f, -0.06399539f, 0.04416017f,
    -0.04136143f, -0.06492838f, 0.05329702f, -0.01044926f, -0.07786926f, -0.04265268f, 0.02023461f, -0.07242100f,
    -0.01706583f, 0.04284137f, -0.03523350f, -0.05214721f, -0.00449382f, 0.01184714f, -0.07954665f, -0.07278647f,
    0.05773991f, -0.04506492f, 0.06594314f, 0.03719371f, 0.01107132f, 0.07720906f, 0.06504454f, -0.06406751f,
    0.00427781f, -0.03417138f, -0.01280737f, -0.07858544f, -0.01135973f, 0.02554980f, 0.07651385f, -0.02142987f,
    -0.06496936f, -0.06248305f, 0.07624672f, -0.05690489f, -0.02461974f, 0.00349030f, -0.07994239f, 0.02711568f,
    -0.08191855f, -0.01895942f, -0.03483804f, 0.07340493f, -0.05440471f, -0.02956505f, -0.04557946f, 0.07633547f,
    -0.06706814f, 0.00956181f, -0.02024813f, -0.06158980f, 0.04619000f, 0.03500229f, -0.00777828f, 0.06459054f,
    -0.03116876f, -0.08109375f, -0.01447059f, 0.06281525f, -0.03626096f, 0.06021445f, -0.07814781f, 0.02334265f,
    0.06370442f, -0.02114521f, 0.06216569f, -0.05729982f, -0.02690373f, 0.03190341f, -0.07986768f, -0.00736505f,
    -0.05826692f, 0.03128871f, 0.03707052f, 0.06354973f, -0.06138613f, 0.08241793f, -0.02429817f, -0.07355823f,
    -0.00669212f, -0.04631483f, 0.07845986f, 0.02697815f, 0.04792706f, 0.02495741f, -0.03356513f, -0.03581138f,
    -0.05334344f, 0.07657187f, -0.00689126f, -0.01157646f, -0.00364880f, 0.00749719f, -0.05522637f, -0.07015267f,
    0.07750854f, -0.01997010f, -0.00153674f, -0.02721163f, 0.01082023f, -0.05510082f, 0.00415030f, -0.00712990f,
    0.07652056f, -0.03191267f, -0.02791408f, 0.05858776f, -0.05280923f, 0.06788804f, -0.04971390f, -0.04943866f,
    0.02218173f, 0.06626790f, -0.00098800f, -0.06884268f, -0.02251002f, -0.05611963f, -0.00023551f, 0.02700018f,
    -0.03360414f, 0.00824707f, 0.07838121f, 0.04544039f, 0.03471949f, -0.05305459f, -0.03409825f, -0.01144219f,
    0.02167894f, 0.01166176f, 0.07077523f, -0.05074826f, 0.02189855f, 0.01741259f, -0.00842700f, 0.04440273f,
    0.04554304f, -0.01967482f, -0.02457123f, -0.02494058f, 0.00934356f, -0.06996258f, 0.02226838f, 0.03116908f,
    0.07552844f, -0.07663682f, -0.07058932f, -0.00496387f, -0.00326221f, -0.03734829f, -0.05278839f, -0.02936361f,
    -0.04925844f, -0.03687065f, 0.02647641f, -0.03713238f, 0.07902271f, 0.01902481f, 0.03946590f, 0.01588597f,
    0.06666012f, -0.01543999f, -0.05341920f, 0.03339925f, 0.03296602f, 0.02124765f, 0.06034508f, -0.07851784f,
    0.05105165f, 0.06059713f, 0.08065148f, -0.06923960f, 0.07568073f, 0.06720933f, 0.01971458f, -0.01690467f,
    -0.00183440f, -0.07221711f, -0.03223630f, 0.06897618f, -0.01636391f, -0.01702165f, 0.07258672f, 0.00921845f,
    0.00093655f, -0.06446937f, -0.03179734f, -0.04896379f, 0.03797270f, 0.00212053f, 0.05887094f, 0.06017094f,
    -0.00871619f, -0.04846425f, 0.05200879f, 0.06612568f, 0.08089616f, -0.03041361f, -0.03452440f, -0.06228958f,
    -0.04886223f, 0.03559977f, -0.03074747f, -0.03963950f, -0.03999063f, -0.00065616f, -0.07051514f, -0.02989260f,
    0.01214703f, -0.07189447f, 0.01302480f, -0.05230120f, -0.03142728f, 0.07898515f, 0.05707723f, -0.07993926f,
    0.03666957f, -0.05199678f, -0.05457440f, 0.08185615f, -0.06747073f, -0.01783855f, 0.01992099f, 0.00314862f,
    0.05145657f, 0.04368559f, 0.00017556f, 0.02567211f, -0.05239502f, 0.00146115f, 0.00205394f, 0.04353139f,
    -0.06971730f, -0.07941157f, -0.01565205f, -0.08074252f, 0.00038585f, 0.04212105f, 0.00945570f, 0.03963104f,
    0.04140512f, 0.02632680f, 0.06465252f, -0.01487678f, 0.06768239f, 0.07640144f, 0.00479039f, 0.06474557f,
    -0.07693531f, -0.01067404f, -0.01340129f, -0.03404081f, -0.02915184f, -0.02428072f, -0.01171506f, 0.02500074f,
    -0.06569093f, -0.00281357f, -0.07475771f, -0.06795166f, 0.04937777f, -0.03509989f, 0.02006793f, 0.02707527f,
    -0.01307685f, -0.04380265f, -0.05593833f, -0.08074661f, -0.00285354f, -0.02024412f, -0.06730919f, -0.06220788f,
    -0.07864203f, -0.00285471f, 0.05536813f, 0.06501849f, 0.02707030f, 0.06454155f, 0.02873385f, 0.00755069f,
    0.01378444f, 0.03404756f, -0.07505977f, 0.07113788f, 0.00013093f, -0.02285634f, 0.00460303f, 0.07655221f,
    0.07498842f, 0.01974401f, -0.02744500f, 0.05038797f, -0.01170792f, -0.01412281f, 0.00894631f, 0.02056150f,
    0.01153558f, 0.05219375f, -0.00912118f, -0.02100049f, -0.06533667f, 0.05488396f, -0.04792868f, 0.00871184f,
    0.05350147f, -0.02460187f, -0.06194700f, -0.08294812f, -0.04770768f, -0.02925557f, -0.05205302f, 0.07377170f,
    0.01240145f, -0.00271037f, 0.02194548f, 0.04463076f, -0.01592749f, -0.02436359f, 0.00201029f, -0.01191695f,
    -0.07220228f, -0.00737273f, -0.01781151f, 0.03224112f, 0.03342370f, 0.03669116f, -0.01383827f, 0.05144627f,
    -0.00246145f, 0.05405135f, -0.00770067f, 0.00129284f, 0.04084606f, 0.05965717f, -0.07904448f, 0.00941866f,
    -0.00362239f, 0.02531871f, -0.00321849f, -0.04771565f, -0.02455488f, -0.03097372f, -0.06861901f, 0.06046301f,
    -0.05064727f, 0.03940766f, 0.00344169f, 0.06333391f, -0.06408305f, -0.05063467f, 0.05938986f, -0.05218241f,
    -0.06785499f, 0.00069182f, 0.07713666f, 0.04294342f, 0.00166877f, -0.01771265f, 0.04109156f, 0.00339412f,
    -0.00683693f, -0.01041358f, 0.00831210f, -0.02321404f, 0.05321994f, -0.03694402f, -0.02715662f, 0.07372025f,
    0.05644345f, -0.08087292f, 0.04198019f, 0.07208030f, 0.05500829f, -0.04291604f, -0.05955071f, -0.04686049f,
    -0.01609778f, 0.03743952f, 0.00282809f, 0.06434582f, 0.07711345f, 0.06946792f, 0.02143357f, 0.02165272f,
    -0.02873402f, 0.03461203f, -0.03120603f, 0.05073505f, -0.04744919f, -0.03053870f, -0.03649561f, -0.06667032f,
    0.06819397f, -0.03156395f, 0.08173680f, 0.03914398f, -0.07075348f, -0.07084408f, -0.01111596f, -0.00059961f,
    0.06532905f, -0.06266519f, -0.03088475f, -0.00660526f, -0.06379068f, 0.00650366f, 0.05079657f, 0.03018238f,
    -0.04607768f, -0.06376719f, -0.05417077f, -0.05190276f, 0.05567917f, 0.01040789f, 0.01671996f, 0.01256807f,
    0.07955134f, 0.07309715f, 0.04564624f, 0.02682827f, 0.07595854f, -0.05357516f, -0.00357122f, -0.02156555f,
    0.00390599f, 0.04647676f, -0.07817480f, 0.07081085f, 0.01802927f, 0.03676184f, -0.04479850f, 0.08171924f,
    0.06738028f, 0.03675468f, 0.02440792f, 0.05672698f, 0.06091788f, -0.03265043f, 0.06214265f, 0.02798820f,
    -0.08167651f, -0.02991736f, -0.00355021f, 0.04852064f, -0.00010797f, 0.02575511f, 0.03885715f, 0.07974898f,
    0.00226125f, -0.05104890f, -0.03594112f, -0.01548007f, 0.03971372f, 0.03451031f, -0.04945459f, 0.04175803f,
    -0.07220271f, 0.06545520f, 0.04176635f, -0.04209968f, 0.07621744f, 0.00641604f, -0.01169279f, 0.00506645f,
    -0.05663512f, -0.06920776f, -0.01165553f, 0.07456802f, 0.07497901f, -0.03187429f, 0.06614425f, -0.04282942f,
    0.02446177f, 0.04031971f, 0.03695318f, 0.07440884f, -0.05070013f, 0.01727051f, -0.06502729f, -0.02949662f,
    0.06353702f, -0.04718804f, -0.00185863f, -0.03748923f, -0.04282094f, 0.03214544f, 0.01037556f, 0.06738605f,
    0.03318855f, -0.01958486f, 0.06243137f, 0.02435979f, -0.05998575f, 0.04890377f, 0.01622018f, 0.06007627f,
    0.04736396f, 0.08207868f, -0.06060227f, 0.04802905f, -0.03594628f, -0.04368811f, 0.00401225f, 0.02356168f,
    0.06869681f, 0.07723787f, 0.06859316f, -0.00915057f, 0.01744251f, 0.04131808f, -0.06442370f, 0.07327123f,
    0.03707685f, 0.04247909f, 0.07472879f, 0.05278842f, -0.03445601f, 0.02882288f, -0.07795250f, 0.01032424f,
    0.06497023f, -0.01944857f, 0.04692239f, 0.07229036f, 0.00661584f, -0.00179719f, -0.05540810f, 0.01721910f,
    -0.03664188f, -0.07266247f, -0.06947216f, 0.07635920f, -0.00266263f, -0.00119005f, -0.00053544f, -0.01519333f,
    -0.04486369f, -0.02166117f, -0.00664223f, 0.06903753f, -0.02567691f, 0.04766911f, 0.08114144f, -0.06514142f,
    0.01031346f, -0.01767180f, 0.02128363f, -0.01077889f, 0.07566743f, -0.02080699f, -0.04271799f, -0.02605063f,
    -0.05486082f, -0.01204977f, -0.03196388f, -0.00379113f, -0.02951224f, 0.01047392f, -0.07960528f, 0.01217673f,
    -0.00817823f, 0.05824696f, -0.05801670f, -0.05083474f, 0.04613512f, -0.02601561f, -0.01628700f, 0.05062842f,
    0.04760816f, -0.07171192f, -0.00888682f, -0.06625025f, -0.05767407f, -0.02140966f, 0.06964140f, -0.02776775f,
    0.00740556f, 0.06457954f, -0.07023846f, 0.04520457f, 0.02835885f, -0.02475386f, -0.00675051f, -0.03456601f,
    0.05234036f, 0.00883144f, 0.06018309f, -0.05032774f, 0.01178192f, 0.00769928f, -0.05135680f, -0.04260645f,
    0.04803207f, 0.01578795f, 0.07346036f, -0.05630165f, 0.00243028f, 0.00469975f, -0.02673410f, 0.02195936f,
    -0.06054878f, 0.05533367f, 0.00516456f, 0.01719390f, -0.08114682f, -0.02502971f, 0.00175750f, -0.05500476f,
    0.07413238f, -0.00205329f, 0.01723351f, 0.06053010f, 0.08048469f, 0.05345967f, 0.06732430f, -0.01134112f,
    0.05381060f, 0.05089794f, 0.04953394f, -0.07354037f, -0.04402905f, -0.02600970f, 0.01009147f, -0.06874530f,
    0.01578341f, -0.00566589f, 0.01222174f, -0.00121496f, 0.02805465f, -0.06127008f, 0.01095492f, 0.06069000f,
    0.04979777f, 0.05382149f, -0.00004487f, -0.03741510f, -0.01960891f, -0.05694631f, 0.00588145f, 0.02862422f,
    0.07121608f, 0.07953185f, 0.04569004f, 0.03280523f, 0.03291338f, 0.03840896f, -0.02581664f, -0.02302340f,
    -0.07493081f, -0.04502837f, -0.03437043f, -0.02128085f, 0.04825526f, -0.07102349f, -0.07849692f, -0.06046744f,
    0.03866208f, -0.03939254f, 0.00492347f, 0.01727020f, -0.06296314f, 0.00161615f, 0.05120066f, 0.07598632f,
    0.06599320f, -0.04654309f, -0.01661144f, -0.02681406f, 0.05417410f, -0.05867469f, 0.07370349f, -0.00122027f,
    0.03705130f, -0.02063608f, -0.03443177f, 0.00442438f, -0.02868220f, -0.03846258f, -0.03206690f, 0.03258434f,
    0.03741787f, -0.02617615f, -0.06828153f, -0.00411197f, 0.02572072f, -0.04437574f, 0.01872151f, -0.05501905f,
    0.05101060f, 0.01789622f, 0.02401271f, -0.00843139f, -0.04160924f, -0.07334031f, -0.07092190f, 0.04981007f,
    -0.07196692f, -0.05543214f, 0.00073765f, -0.01409453f, -0.01799291f, -0.00978180f, -0.04043239f, -0.07704204f,
    0.03622532f, -0.04268222f, -0.01124439f, -0.01348167f, -0.05819011f, 0.06302109f, -0.02155691f, -0.05148646f,
    0.05068651f, 0.06566899f, -0.00941943f, -0.01952230f, 0.03414866f, -0.01894753f, -0.03011683f, -0.07688178f,
    0.01611660f, 0.07889267f, 0.00303406f, 0.07275896f, 0.04667178f, 0.06184522f, 0.06287192f, -0.02662602f,
    0.04608729f, 0.06695020f, -0.07980488f, -0.05687511f, 0.04591655f, -0.03418093f, -0.01831244f, -0.06605822f,
    0.04927495f, 0.03288253f, 0.00842377f, -0.08235750f, 0.02629914f, -0.03252047f, 0.00521462f, 0.00542688f,
    0.06726369f, 0.01865543f, 0.02630177f, 0.03639444f, 0.05094120f, 0.00800289f, 0.07786357f, 0.00670814f,
    -0.06618419f, -0.04201140f, -0.05248970f, -0.03346587f, 0.05670996f, -0.06643882f, -0.04904228f, -0.00719184f,
    0.01000701f, 0.06227108f, 0.05210489f, 0.06914327f, -0.03911289f, -0.04303428f, 0.05612289f, 0.04094354f,
    -0.07600550f, -0.04249080f, 0.03648363f, -0.07111810f, -0.01215440f, -0.02573930f, -0.04789286f, -0.05810256f,
    -0.01707106f, 0.06478253f, 0.02226067f, -0.02029176f, 0.07449034f, 0.00871453f, 0.05639517f, -0.01459449f,
    -0.08290413f, -0.02993619f, 0.00324569f, 0.00340335f, 0.05987385f, 0.04246547f, 0.03680001f, -0.05408948f,
    0.02479620f, 0.00200393f, 0.03659251f, 0.03921160f, 0.00927686f, 0.00054845f, 0.05574900f, 0.04055911f,
    -0.01498373f, 0.01429521f, -0.05771352f, 0.02869832f, 0.01521461f, 0.00896956f, 0.00119026f, 0.06684595f,
    -0.00829081f, 0.06220901f, 0.04168962f, -0.00958429f, 0.07664847f, 0.07280175f, 0.07622400f, 0.00234996f,
    -0.07543962f, 0.04973818f, 0.04275815f, 0.01389896f, -0.04441481f, -0.06799266f, -0.02648725f, -0.03413352f,
    0.00873112f, -0.08235431f, -0.05982872f, 0.06410885f, 0.07215495f, -0.06571557f, 0.04691228f, 0.00005269f,
    -0.07953027f, 0.00545307f, -0.02718825f, 0.01186223f, -0.03298216f, 0.01921263f, 0.02990057f, 0.08298295f,
    0.06788894f, -0.06927752f, 0.05066414f, 0.03035734f, -0.04394177f, -0.01745721f, 0.01288873f, -0.08255856f,
    0.04741738f, -0.00627363f, -0.07766774f, 0.00555624f, -0.03616485f, -0.06158655f, -0.02888320f, -0.04270647f,
    -0.03534901f, -0.02084225f, 0.02802241f, -0.07989987f, 0.02006812f, -0.05958821f, 0.06599335f, 0.02926197f,
    0.03735960f, -0.07247993f, 0.06137579f, -0.01359245f, -0.01558561f, 0.07901084f, 0.06852242f, 0.07077426f,
    -0.06864049f, -0.00663442f, 0.02792914f, -0.06277402f, 0.08222920f, -0.04373585f, -0.05471312f, 0.00338202f,
    0.08054136f, 0.04505482f, -0.08201432f, 0.00976008f, 0.06599357f, 0.03753681f, 0.01845980f, -0.03784052f,
    0.06053212f, -0.07335609f, 0.05370449f, 0.06785178f, 0.03893097f, -0.06626518f, 0.06308801f, 0.03311869f,
    -0.02788802f, 0.08288427f, -0.07496947f, 0.01032689f, -0.02934843f, -0.00974059f, -0.05122780f, -0.05934917f,
    0.06665214f, 0.07757538f, 0.07324289f, 0.03779631f, 0.05547094f, 0.03958291f, 0.02490755f, 0.08255646f,
    -0.00711275f, 0.07642582f, -0.03022124f, -0.03016980f, -0.04798464f, -0.02609032f, 0.02628425f, -0.03442233f,
    -0.07739857f, -0.03265629f, 0.02040213f, -0.08153564f, 0.00825309f, -0.05617380f, 0.07721122f, 0.05956198f,
    -0.07660982f, 0.03598087f, 0.00757442f, -0.02433468f, -0.04934975f, -0.07533842f, -0.06303047f, -0.04766068f,
    0.06502166f, 0.07908939f, -0.00140474f, 0.01593915f, -0.06078105f, -0.03954340f, 0.05379356f, -0.03186036f,
    0.03091087f, 0.04886895f, -0.08102991f, 0.03075134f, -0.02262169f, 0.07626316f, 0.02444673f, -0.06328736f,
    0.00822494f, -0.05962853f, -0.06632071f, 0.04674394f, 0.07098497f, 0.01557624f, 0.00416030f, -0.03256638f,
    0.08326109f, 0.01676713f, 0.08048210f, 0.04980857f, -0.06465813f, 0.07612895f, 0.04231673f, -0.05233100f,
    -0.00286510f, 0.07884039f, 0.01821162f, 0.05674206f, -0.01549755f, 0.02456668f, 0.06590196f, 0.08074826f,
    -0.01574689f, 0.00832977f, 0.04932632f, 0.03059419f, 0.03762471f, -0.03955466f, -0.00374226f, 0.07968582f,
    0.04106469f, 0.00485472f, -0.04184568f, 0.01581942f, 0.03580599f, -0.06337453f, 0.08212848f, 0.00871257f,
    -0.05036093f, 0.03176453f, 0.05266166f, -0.00635306f, -0.02709649f, 0.00766081f, -0.04195990f, 0.08099490f,
    -0.01642483f, 0.05862718f, 0.02165351f, 0.00780072f, 0.07504418f, 0.05713826f, 0.07492390f, -0.00472286f,
    -0.02679751f, 0.03481023f, -0.07771515f, -0.01119748f, -0.05919170f, -0.04168227f, -0.04941187f, 0.01175618f,
    0.00442662f, 0.06431004f, -0.04484998f, -0.05016318f, -0.03484153f, -0.02043129f, -0.02472125f, -0.02779335f,
    -0.02584724f, 0.00189931f, -0.07615598f, -0.01232834f, -0.01898321f, -0.04848754f, 0.04087909f, -0.01592739f,
    0.02282909f, -0.00404103f, 0.04525596f, 0.00644995f, 0.01274776f, -0.01958807f, 0.01311155f, 0.06315617f,
    -0.06506753f, -0.04415933f, -0.00397779f, -0.05607040f, -0.06096878f, 0.00788127f, -0.00700426f, -0.02105793f,
    -0.06018717f, -0.05893580f, 0.05645474f, 0.05365431f, -0.00359211f, -0.05522853f, -0.00138132f, -0.00974643f,
    -0.07103622f, 0.00203449f, 0.07630452f, -0.00882476f, 0.00451473f, -0.01707669f, -0.01775464f, -0.08009528f,
    -0.03965566f, 0.03989487f, -0.02103500f, -0.08319172f, -0.04740115f, 0.00804866f, -0.07832381f, -0.05685899f,
    -0.04027313f, 0.03757687f, -0.02296825f, -0.02148307f, -0.01251697f, 0.04800710f, -0.02884983f, -0.04838285f,
    0.08147251f, 0.08030429f, -0.08167982f, 0.00842833f, -0.05206968f, 0.00631190f, -0.02043927f, 0.06143303f,
    0.07646470f, -0.07926601f, -0.04629969f, 0.08301174f, -0.03003528f, 0.01642918f, -0.00193333f, 0.00886683f,
    -0.06202207f, -0.05988827f, -0.06728317f, -0.03494549f, 0.03725244f, 0.07395080f, 0.03756483f, -0.04690225f,
    -0.02433881f, 0.06554143f, -0.05227052f, -0.00003237f, 0.01927317f, -0.03034653f, 0.03101242f, -0.03230438f,
    0.06649148f, 0.08019465f, -0.07767628f, 0.00148584f, 0.06109097f, -0.06769916f, 0.06480398f, 0.00108796f,
    0.01022274f, -0.01634568f, -0.06372013f, -0.06361936f, 0.04680236f, 0.05547654f, 0.07347409f, -0.06624176f,
    0.04117155f, -0.00225936f, 0.00067357f, 0.01846738f, -0.07383992f, -0.04798205f, 0.06198248f, -0.04351526f,
    0.04501952f, -0.07609011f, -0.04790545f, -0.01432027f, 0.03246874f, -0.02966471f, 0.06425408f, -0.00029304f,
    -0.08328804f, -0.01370686f, 0.07634994f, -0.02531074f, -0.01998496f, -0.04455587f, -0.02753992f, -0.00649716f,
    -0.03375700f, 0.07577627f, -0.06228846f, 0.00517917f, 0.06466919f, 0.03964336f, 0.00360422f, -0.07523538f,
    -0.05296877f, 0.01965595f, -0.05858287f, -0.03396023f, 0.01260246f, 0.07256871f, 0.07835283f, 0.06719591f,
    -0.07076322f, 0.05759610f, -0.00877028f, 0.01271715f, -0.00281647f, 0.03522755f, -0.04170800f, 0.04607974f,
    -0.04326121f, 0.00906694f, -0.04645131f, 0.05202081f, 0.05249880f, 0.04399206f, 0.06791395f, -0.01304873f,
    0.02812640f, 0.02082983f, 0.01395744f, -0.03027304f, 0.07114994f, 0.06133950f, -0.03157784f, 0.04409875f,
    -0.02173563f, 0.00471083f, -0.05682611f, -0.01415784f, 0.04642096f, -0.02343111f, -0.08208697f, -0.05594452f,
    0.05274180f, 0.07023808f, 0.02584398f, -0.00529063f, -0.03150278f, -0.04342800f, 0.03348720f, -0.05081124f,
    -0.06265330f, -0.04922504f, 0.03065398f, -0.08227091f, -0.07054143f, -0.07520922f, -0.03694221f, -0.05493129f,
    0.02500980f, -0.03194479f, 0.06644087f, 0.03300370f, -0.05623439f, -0.00305664f, -0.08057190f, -0.04606528f,
    -0.00653914f, -0.03358710f, -0.04473842f, 0.01658870f, 0.05366978f, -0.08143915f, 0.04285402f, -0.06380273f,
    0.07267348f, -0.04590722f, -0.02099447f, -0.06675022f, -0.04218309f, 0.02656000f, -0.05204424f, -0.05380261f,
    0.08005439f, 0.02518873f, 0.02734669f, 0.08165161f, 0.03334725f, -0.01581311f, 0.07948615f, -0.00830789f,
    -0.06081014f, -0.04120917f, -0.04830902f, -0.05856965f, 0.01831149f, -0.00245399f, 0.07564849f, 0.08185881f,
    0.08081733f, 0.03824468f, -0.02706131f, 0.01556082f, -0.03461375f, 0.01050531f, 0.07065237f, -0.06739818f,
    0.06040731f, 0.01903812f, -0.03156832f, -0.00280604f, -0.06975802f, -0.02825712f, -0.08056047f, -0.07856841f,
    0.00109237f, 0.05314387f, -0.07786482f, 0.04554359f, -0.00806522f, -0.02875870f, -0.02485924f, -0.03267438f,
    0.07371308f, -0.03749431f, -0.00357636f, 0.01004100f, -0.01587687f, 0.03185794f, -0.04047687f, -0.07007754f,
    -0.04737840f, 0.03803976f, 0.02762025f, -0.07829611f, -0.00833974f, 0.06686400f, -0.06388094f, 0.03671514f,
    -0.05201605f, 0.01760088f, -0.07738844f, -0.02177675f, -0.02187828f, 0.00640996f, -0.02116078f, 0.04214188f,
    -0.02076322f, 0.02607756f, 0.06015307f, 0.02760296f, 0.02049282f, -0.01065651f, 0.04510787f, 0.01614957f,
    -0.01797442f, 0.04130128f, 0.06249091f, 0.05706405f, -0.08189379f, 0.07979412f, -0.07050171f, -0.01136277f,
    0.06343941f, -0.00207691f, -0.07745834f, 0.01227503f, -0.01276217f, 0.02259672f, 0.06841730f, 0.01681825f,
    -0.03019022f, -0.06699362f, -0.08310211f, 0.06971589f, 0.05125719f, -0.07785096f, -0.02112803f, 0.01883998f,
    -0.01024457f, 0.03005235f, -0.01551014f, 0.01551167f, -0.05599522f, -0.04194428f, 0.07357547f, -0.03394664f,
    0.03201465f, -0.00862068f, -0.05988672f, 0.07517302f, -0.00617338f, 0.05040265f, -0.07657626f, -0.07149380f,
    -0.04792737f, 0.07697615f, 0.02922447f, 0.01731735f, 0.04014873f, 0.06005609f, 0.04566104f, 0.05706137f,
    -0.04839389f, -0.00167995f, 0.02092905f, 0.04636263f, -0.06102332f, 0.08114164f, 0.02375779f, 0.04112677f,
    -0.07110921f, -0.00320376f, -0.07098877f, -0.07350942f, 0.03059112f, -0.05388740f, 0.02500005f, -0.04109980f,
    0.01722635f, 0.03128701f, -0.06093457f, -0.05283357f, 0.06681534f, 0.05304622f, -0.02524295f, 0.01539034f,
    -0.05139005f, -0.06903907f, -0.07432792f, -0.06093460f, 0.03007874f, -0.03964469f, 0.02877788f, -0.02393498f,
    -0.00314334f, 0.03930667f, 0.00253610f, -0.01580733f, 0.04379779f, -0.05883310f, 0.03301457f, -0.03392915f,
    -0.05513928f, 0.00665720f, -0.05578237f, -0.01589239f, -0.06109940f, 0.08217987f, 0.00830824f, 0.02819964f,
    -0.05430704f, 0.00385602f, -0.06221329f, -0.05795541f, 0.07938659f, 0.05817720f, 0.07616555f, 0.01906259f,
    -0.02990578f, -0.06431847f, 0.03552492f, -0.02962261f, -0.06347908f, 0.06082355f, 0.03959284f, 0.00730594f,
    -0.02846818f, 0.02029332f, -0.06178074f, -0.01463506f, -0.04895612f, 0.08095162f, 0.06828682f, -0.05104403f,
    -0.06475952f, 0.06359307f, -0.07487117f, -0.07494526f, -0.02875869f, 0.07863321f, 0.06228436f, 0.07818114f,
    -0.01078372f, -0.03572194f, -0.05486447f, 0.07387923f, 0.05940522f, 0.00947905f, 0.07655846f, -0.04109749f,
    0.06526737f, 0.03108969f, -0.03273114f, 0.06437613f, 0.01745894f, -0.04397681f, -0.06047012f, 0.02901604f,
    0.06543683f, 0.02812784f, 0.04648428f, 0.04055753f, -0.01129189f, -0.07460993f, 0.04767892f, -0.00154475f,
    0.03869614f, 0.04268029f, -0.05773429f, 0.07658829f, 0.05476402f, 0.03318758f, 0.04983376f, 0.07548074f,
    -0.03815925f, -0.08150813f, 0.05834491f, -0.05138674f, 0.06069642f, -0.05789536f, 0.07956463f, 0.05573114f,
    -0.03804977f, 0.02008552f, -0.06007930f, 0.05609131f, 0.01070581f, -0.03493063f, -0.05479938f, 0.06949135f,
    0.06560169f, -0.00196462f, 0.03815117f, -0.07372046f, -0.02362486f, 0.03464988f, -0.05376063f, -0.01011660f,
    0.04886810f, 0.01406016f, -0.02485200f, -0.05076002f, -0.00709253f, -0.05207140f, 0.03601572f, 0.00803838f,
    0.02063110f, -0.01203607f, 0.04016889f, 0.00713538f, 0.03795271f, -0.07692986f, -0.06348057f, 0.03826314f,
    0.03414076f, 0.05618074f, -0.04772938f, 0.05143435f, 0.05683826f, 0.03022045f, 0.00581237f, -0.03734919f,
    0.03293399f, 0.06169316f, 0.02124307f, 0.07311436f, 0.02307495f, 0.04771408f, 0.01594201f, 0.07270007f,
    0.04969891f, -0.00266920f, 0.03831302f, 0.01604210f, 0.01924865f, -0.01082204f, -0.07754961f, -0.02636194f,
    -0.05603309f, -0.03357136f, -0.07700512f, 0.01415243f, -0.01389026f, 0.08151969f, -0.01503124f, 0.01044691f,
    -0.03979462f, 0.02499112f, -0.05576036f, -0.05419983f, -0.06388934f, -0.01852347f, 0.06955530f, -0.05532985f,
    -0.03386537f, 0.03390971f, 0.00771983f, -0.06837194f, 0.03563270f, 0.04456081f, -0.01060512f, 0.05874456f,
    0.00330275f, 0.05519351f, -0.04453352f, -0.04130094f, -0.07819602f, 0.05812317f, 0.07010552f, 0.07395842f,
    -0.02429337f, 0.07439672f, -0.03476439f, 0.03322269f, -0.05650822f, -0.01864687f, -0.06180548f, -0.05411463f,
    -0.03456400f, -0.05170685f, -0.01025312f, 0.05814892f, 0.06670230f, -0.03644018f, -0.01582397f, 0.02099412f,
    -0.07398443f, -0.07890180f, 0.07093330f, 0.02729007f, -0.05961414f, -0.08020213f, 0.04589890f, 0.02397617f,
    -0.02954286f, 0.02390092f, -0.06546466f, 0.02428967f, -0.04032133f, -0.05613136f, -0.01814507f, -0.07270445f,
    -0.01028270f, -0.04875656f, 0.05528982f, -0.03932744f, -0.00205905f, 0.02567247f, -0.05133088f, 0.08140745f,
    0.03467433f, 0.06932038f, 0.02464382f, -0.00827470f, 0.04953356f, -0.06952142f, -0.03787696f, 0.02709553f,
    0.01480927f, 0.01122138f, -0.06022313f, -0.07496139f, 0.01898840f, 0.00565459f, 0.01119176f, 0.01996176f,
    0.00552545f, 0.05255873f, 0.07096386f, -0.06613167f, -0.00838194f, 0.00239256f, -0.05494978f, 0.06797301f,
    -0.03921716f, 0.05419865f, 0.06045332f, -0.06536987f, 0.08065417f, 0.05687581f, -0.01177580f, 0.02554984f,
    -0.04165515f, -0.00543846f, -0.00854405f, -0.07812268f, -0.05574916f, 0.03903472f, -0.02275809f, -0.03409203f,
    -0.08207979f, 0.01376671f, 0.06735011f, -0.03540660f, 0.05377853f, -0.03189570f, 0.06124120f, 0.08134642f,
    -0.07764246f, -0.07255718f, -0.04981198f, 0.00400859f, 0.06484576f, 0.05208123f, -0.06403252f, -0.00051979f,
    -0.03683279f, 0.04550093f, -0.03696239f, -0.08249134f, -0.07201167f, 0.05945691f, -0.01701480f, 0.00085759f,
    -0.05743754f, -0.06658038f, -0.02736227f, -0.03448030f, 0.04883493f, 0.03019453f, 0.05075236f, 0.00163916f,
    -0.04905719f, 0.05250390f, 0.01662992f, -0.01371143f, 0.00393726f, 0.03567725f, -0.00227066f, -0.01159606f,
};

// Shape: (16,), dtype: float32
static const float stage0_block0_bn1_gamma[16] = {
    1.00000000f, 1.00000000f, 1.00000000f, 1.00000000f, 1.00000000f, 1.00000000f, 1.00000000f, 1.00000000f,
    1.00000000f, 1.00000000f, 1.00000000f, 1.00000000f, 1.00000000f, 1.00000000f, 1.00000000f, 1.00000000f,
};

// Shape: (16,), dtype: float32
static const float stage0_block0_bn1_beta[16] = {
    0.00000000f, 0.00000000f, 0.00000000f, 0.00000000f, 0.00000000f, 0.00000000f, 0.00000000f, 0.00000000f,
    0.00000000f, 0.00000000f, 0.00000000f, 0.00000000f, 0.00000000f, 0.00000000f, 0.00000000f, 0.00000000f,
};

// Shape: (16,), dtype: float32
static const float stage0_block0_bn1_mean[16] = {
    0.00000000f, 0.00000000f, 0.00000000f, 0.00000000f, 0.00000000f, 0.00000000f, 0.00000000f, 0.00000000f,
    0.00000000f, 0.00000000f, 0.00000000f, 0.00000000f, 0.00000000f, 0.00000000f, 0.00000000f, 0.00000000f,
};

// Shape: (16,), dtype: float32
static const float stage0_block0_bn1_var[16] = {
    1.00000000f, 1.00000000f, 1.00000000f, 1.00000000f, 1.00000000f, 1.00000000f, 1.00000000f, 1.00000000f,
    1.00000000f, 1.00000000f, 1.00000000f, 1.00000000f, 1.00000000f, 1.00000000f, 1.00000000f, 1.00000000f,
};

// Shape: (3, 3, 16, 16), dtype: float32
static const float stage0_block0_conv2_weight[2304] = {
    0.01567824f, -0.00835784f, -0.07796456f, -0.06118438f, -0.04571906f, 0.06028299f, 0.03711703f, -0.07375170f,
    -0.05414761f, 0.08225068f, -0.07304364f, 0.00386023f, 0.04457495f, -0.04416496f, 0.02173283f, 0.06328073f,
    0.04798254f, 0.00977787f, -0.06980970f, -0.03117114f, -0.04058297f, -0.00903645f, -0.04320592f, -0.03532201f,
    0.04146609f, -0.02122424f, -0.06147702f, 0.08171995f, 0.07880498f, 0.04732271f, -0.04915158f, 0.03964060f,
    0.01960604f, -0.07600697f, -0.06386661f, 0.02681695f, -0.03906838f, -0.05905399f, -0.00124865f, -0.04771898f,
    0.00081574f, -0.07515445f, 0.00689377f, 0.05114787f, 0.08247551f, 0.04832880f, -0.04196374f, -0.05333502f,
    0.01127377f, 0.02476604f, 0.02183044f, 0.08087240f, -0.06687876f, 0.00619680f, -0.01712486f, -0.04331519f,
    0.06846165f, -0.06581344f, -0.05248061f, 0.06535827f, -0.02947431f, -0.00901275f, 0.05376022f, 0.03502623f,
    -0.04392373f, 0.02506930f, -0.03871085f, 0.06798168f, 0.07497346f, -0.05111557f, -0.04689440f, 0.04576597f,
    -0.03575421f, 0.00250894f, -0.05761365f, -0.04226968f, -0.03324454f, 0.00750345f, 0.00467614f, -0.06791554f,
    -0.07596526f, -0.06597897f, 0.01643068f, 0.05561892f, 0.07299169f, 0.04500474f, 0.04198888f, 0.04081338f,
    -0.06430157f, -0.04503953f, -0.05564501f, 0.00683166f, 0.03469744f, -0.05797290f, 0.05071269f, -0.00818227f,
    0.02883050f, 0.03713533f, -0.06949015f, 0.02776431f, -0.07233496f, 0.00920225f, -0.01909129f, 0.01793149f,
    -0.07763766f, -0.04394886f, -0.01300364f, -0.07416707f, 0.04565367f, 0.06242810f, -0.03380905f, 0.05014608f,
    -0.05896129f, -0.00110059f, -0.05147528f, 0.04012980f, 0.05382701f, 0.03759847f, -0.08310544f, 0.03814359f,
    -0.03092680f, 0.06256284f, 0.00585745f, -0.01888950f, 0.08239176f, 0.00904238f, 0.05591113f, 0.00193932f,
    0.02030247f, -0.03160112f, -0.07464238f, -0.00291826f, -0.00456304f, -0.04446112f, -0.07600239f, 0.07293197f,
    -0.07480530f, 0.00833452f, -0.04197201f, -0.02242307f, -0.07296690f, -0.03381281f, -0.01136108f, -0.07869822f,
    -0.03811102f, 0.03750057f, -0.03790724f, 0.07882922f, 0.07644553f, -0.00251884f, -0.03485312f, -0.08173718f,
    0.05893825f, 0.02011074f, -0.03750278f, -0.04917618f, 0.06885781f, 0.08115274f, -0.04160309f, -0.05187368f,
    -0.06479177f, 0.05735418f, -0.06461885f, 0.06714478f, 0.03229955f, -0.07189857f, -0.07792255f, -0.03451956f,
    -0.04634533f, 0.00864193f, -0.05171488f, 0.00723487f, 0.06670396f, -0.08115564f, -0.02356095f, 0.05398154f,
    0.01091698f, 0.00699927f, 0.08132230f, -0.02316253f, -0.06217171f, 0.08206140f, -0.03685664f, 0.06043937f,
    -0.05265381f, -0.04343694f, 0.02506682f, 0.06025797f, 0.04864403f, -0.01541705f, -0.01754945f, 0.05415377f,
    -0.01166711f, -0.03383951f, -0.02727537f, -0.08145377f, 0.07615009f, -0.07940172f, 0.07482389f, 0.08252464f,
    -0.07527378f, -0.03722845f, -0.05074440f, -0.06393947f, 0.03358483f, 0.05428506f, 0.06252311f, -0.00625419f,
    -0.00515044f, 0.08279203f, 0.02044053f, -0.04842138f, 0.06223082f, 0.01803570f, 0.03703015f, 0.07886490f,
    0.02971585f, -0.02022007f, -0.06554382f, 0.07292062f, 0.01098503f, 0.07741000f, 0.02686160f, 0.03798923f,
    0.04024067f, 0.01542964f, 0.00290961f, 0.07127906f, -0.03940639f, -0.03584338f, -0.02847983f, 0.00435363f,
    -0.00138332f, 0.00433187f, -0.06781658f, -0.03845709f, -0.00273269f, -0.01808195f, 0.08062446f, 0.01279134f,
    -0.00341295f, -0.05724599f, 0.01326961f, -0.07474375f, 0.02371174f, -0.05023866f, -0.06318367f, -0.04453921f,
    -0.04850042f, -0.04002684f, -0.02164130f, -0.00134323f, -0.01530463f, 0.03731875f, -0.00274468f, -0.05447950f,
    -0.07207325f, -0.02253640f, 0.07610589f, 0.01399087f, 0.00257984f, -0.02768703f, -0.00889293f, -0.01191272f,
    0.04907041f, 0.04966358f, 0.07877961f, -0.07198601f, 0.08280318f, -0.02625088f, 0.05008456f, -0.06565791f,
    0.02684753f, 0.03263704f, -0.08041373f, -0.08122646f, -0.05240681f, 0.03770930f, -0.05559751f, -0.04022434f,
    -0.03894052f, -0.00642661f, 0.05721117f, 0.07342088f, -0.03627373f, 0.01752531f, 0.01441397f, 0.01455293f,
    0.06179276f, -0.00795997f, -0.00038458f, -0.00772859f, 0.00783045f, 0.08162600f, -0.01877609f, -0.02153216f,
    0.07572615f, 0.01747569f, 0.00332583f, -0.04916804f, 0.05792905f, -0.08291911f, 0.02784456f, -0.05111888f,
    -0.02641324f, 0.07278048f, -0.03870669f, 0.00429160f, 0.06638372f, 0.05537423f, -0.01358318f, -0.04531864f,
    0.02062955f, -0.01783268f, 0.06805297f, 0.01396111f, 0.01862428f, 0.07084504f, -0.01067288f, 0.06389453f,
    -0.01250715f, 0.07568790f, 0.01479816f, 0.06860577f, 0.00349464f, -0.04704757f, 0.04293143f, 0.05796379f,
    -0.03967029f, -0.07791828f, 0.00499797f, -0.02223350f, 0.07771808f, -0.07587996f, 0.01030998f, -0.03242954f,
    -0.05451175f, 0.01460785f, -0.05211854f, 0.01283493f, -0.06525921f, 0.03988007f, 0.00917579f, -0.07008936f,
    -0.08310752f, -0.01013828f, 0.05857044f, 0.06932069f, -0.01263341f, 0.00730650f, -0.03264605f, -0.01310985f,
    -0.01430352f, -0.04560427f, 0.02038633f, 0.05643168f, 0.00695328f, 0.04331500f, -0.00123384f, -0.07411199f,
    -0.03817664f, -0.08276965f, -0.04917346f, -0.07630819f, 0.05758418f, 0.01537958f, -0.07013670f, 0.03950876f,
    -0.05118403f, -0.03869051f, -0.04925026f, 0.07394706f, -0.01798666f, -0.00928314f, 0.07870968f, 0.05748110f,
    0.01099602f, 0.03411822f, 0.06662293f, 0.03837154f, -0.08301719f, -0.06049032f, 0.05152587f, 0.00033749f,
    0.00706621f, -0.00009207f, 0.01508220f, 0.04827120f, -0.06327692f, 0.06517064f, 0.05114884f, 0.05189593f,
    -0.06212441f, 0.07402536f, -0.00114052f, -0.05958518f, 0.06141553f, -0.00832461f, 0.05642097f, -0.06501868f,
    0.00609136f, 0.08200166f, 0.00470684f, -0.01433711f, 0.02986803f, -0.00301158f, 0.05472254f, 0.03047444f,
    0.04891140f, 0.07316601f, -0.03816953f, -0.02044327f, 0.05892821f, 0.04777599f, -0.04508514f, 0.01253640f,
    -0.01442977f, 0.04431764f, 0.01313648f, -0.07603712f, 0.03884326f, -0.01364630f, 0.08060717f, -0.00419361f,
    0.07832333f, -0.02109387f, 0.08000681f, 0.03646114f, 0.02386786f, -0.04383095f, -0.02206984f, 0.01839129f,
    -0.07424882f, -0.02062805f, 0.03847199f, -0.00469363f, -0.02681204f, 0.02262524f, 0.01504031f, 0.03640264f,
    -0.00213954f, -0.07152477f, -0.06900716f, -0.05586901f, 0.04846474f, -0.03917413f, -0.01768918f, -0.03092835f,
    0.03056466f, -0.03584547f, -0.05439590f, -0.05934518f, 0.03333915f, -0.06440713f, 0.07875328f, -0.01247135f,
    -0.04389015f, -0.05693844f, -0.01929089f, -0.06428280f, -0.03303355f, -0.00221580f, -0.02742067f, -0.05855218f,
    0.01297145f, -0.07689545f, -0.06265631f, -0.06900007f, -0.06495770f, 0.02968889f, -0.04093782f, -0.03863749f,
    -0.05959789f, -0.05419232f, -0.03652692f, 0.08292010f, 0.04190123f, -0.02390489f, 0.07561412f, -0.03863025f,
    -0.03110829f, -0.07953157f, 0.03331722f, 0.04798567f, -0.06556182f, 0.04225964f, -0.06116189f, -0.04694084f,
    -0.02229777f, 0.01920503f, 0.01666950f, 0.03722693f, -0.05940390f, 0.04904182f, -0.05403117f, -0.05368006f,
    -0.03857684f, 0.01419260f, 0.03761034f, 0.03024875f, 0.06739323f, -0.01362240f, -0.05934742f, -0.07251307f,
    -0.04680781f, -0.04265687f, -0.05979659f, 0.03321823f, -0.03271721f, -0.05588462f, 0.03534357f, -0.01771685f,
    -0.05868115f, 0.02938237f, 0.06239346f, -0.01373485f, 0.04903939f, 0.03454536f, -0.06016584f, 0.05129128f,
    0.04489389f, -0.02764766f, -0.08043527f, -0.00880241f, 0.05861033f, -0.00790717f, -0.00024129f, 0.08328027f,
    -0.01888544f, -0.01490251f, 0.00029642f, 0.06511225f, 0.04130865f, 0.07702794f, -0.06348445f, 0.06217558f,
    0.06523155f, 0.08073853f, 0.03139066f, -0.04994737f, -0.01200099f, 0.01497789f, 0.05483246f, 0.03577722f,
    0.04223363f, 0.07583960f, -0.01010324f, 0.00210694f, 0.07244103f, 0.01480665f, -0.08123840f, -0.04224585f,
    0.06798662f, 0.05623936f, 0.07356342f, -0.05368509f, 0.07001022f, -0.00678382f, 0.05123815f, -0.00560411f,
    -0.03013608f, -0.00080516f, -0.01856920f, 0.01115541f, 0.02857104f, -0.05599213f, 0.02592717f, 0.01702471f,
    0.02909660f, -0.08214018f, -0.06898298f, -0.01769448f, 0.00393934f, 0.02851897f, -0.07307246f, -0.06915458f,
    0.01149098f, 0.05821881f, -0.00335614f, -0.07193370f, 0.04354768f, -0.05236111f, -0.05090415f, 0.07603401f,
    -0.05189232f, -0.00272866f, 0.06980503f, -0.03097971f, 0.04951902f, 0.04837683f, 0.02378980f, 0.04078345f,
    0.07711822f, 0.01385003f, 0.03423342f, 0.01653673f, -0.04529290f, -0.05179349f, -0.00897395f, 0.05523182f,
    -0.06721748f, -0.02939975f, -0.00409271f, 0.08164655f, -0.07028557f, -0.06906857f, 0.00503376f, -0.03709271f,
    0.06023166f, -0.04169338f, 0.02760332f, 0.03473476f, 0.01952507f, 0.04040633f, 0.03362438f, 0.05949115f,
    0.01964259f, 0.04478937f, 0.01096599f, -0.04064969f, 0.01545965f, 0.04654666f, -0.05068571f, 0.00900581f,
    0.07060032f, 0.05047531f, -0.04409075f, -0.04610231f, 0.03671220f, 0.02161954f, -0.07909770f, -0.04196609f,
    0.06254470f, 0.08289133f, -0.03796023f, 0.04763684f, -0.06943257f, 0.04609179f, -0.04421457f, -0.02639578f,
    0.02569735f, -0.03668946f, -0.07560635f, -0.06517327f, -0.05141034f, 0.03687401f, -0.00102497f, -0.01569883f,
    0.04580596f, -0.03912409f, -0.02667088f, 0.07936554f, 0.00091454f, -0.03797609f, -0.05753223f, -0.04866157f,
    0.06238924f, 0.02230863f, -0.00507777f, 0.08018382f, 0.05730236f, -0.04787187f, 0.01958638f, -0.05450276f,
    0.05635456f, -0.01212923f, -0.07183813f, -0.00855000f, -0.06781280f, -0.02906849f, 0.03324094f, 0.01071804f,
    0.04908897f, -0.02888867f, -0.05245177f, -0.00983034f, -0.02048190f, 0.02898815f, -0.07501267f, 0.06257458f,
    -0.05518916f, -0.00416936f, -0.00555355f, 0.02728852f, -0.06879932f, 0.01549063f, -0.02121486f, -0.04687809f,
    -0.07883836f, -0.02260141f, 0.03062806f, -0.05671877f, 0.01572686f, -0.01131154f, -0.05338542f, 0.03026912f,
    0.03611460f, -0.05356554f, 0.01273403f, -0.02625773f, -0.08145735f, -0.00161813f, -0.04136461f, 0.01343205f,
    0.01680974f, 0.07895695f, -0.04565243f, -0.04387295f, 0.03464143f, -0.07101332f, 0.00831196f, -0.06457508f,
    0.05594410f, -0.07750876f, -0.04821175f, -0.01652829f, -0.05460110f, 0.03357670f, -0.05114090f, 0.04400163f,
    -0.02977475f, -0.03185409f, 0.06041114f, 0.02517749f, 0.02690910f, -0.01287282f, 0.06045252f, -0.07161134f,
    -0.04824943f, -0.05796952f, 0.06954716f, 0.08232887f, 0.05509081f, -0.01984327f, -0.06128366f, -0.03635535f,
    -0.02035879f, 0.05580827f, 0.06814846f, -0.08215289f, -0.07389413f, 0.03404178f, -0.01388689f, -0.01438886f,
    0.02950142f, 0.05685682f, -0.07274392f, -0.03235500f, -0.00559539f, -0.06143151f, -0.00693875f, 0.06746249f,
    0.03529631f, 0.03286491f, 0.04624413f, 0.05216137f, 0.00178588f, 0.03741216f, -0.04265375f, -0.03401840f,
    -0.04933557f, -0.05480027f, 0.05669989f, 0.04603104f, -0.06115408f, 0.04429796f, 0.03324699f, 0.01636406f,
    0.06251936f, 0.06968585f, -0.06850921f, 0.02346278f, 0.07117309f, -0.07927799f, -0.02859179f, 0.08220907f,
    -0.05023759f, 0.05403740f, 0.00546843f, -0.06489231f, 0.03090082f, 0.01400521f, -0.05109090f, 0.02530816f,
    -0.00052759f, -0.03349870f, 0.01564289f, 0.07854089f, 0.00735436f, -0.05147107f, -0.00764715f, -0.01029533f,
    -0.05195370f, -0.08326765f, 0.02065816f, 0.04791740f, -0.08321618f, 0.07330453f, 0.00198605f, 0.02202019f,
    -0.01836477f, -0.01139713f, -0.03518222f, -0.03869067f, 0.07475114f, -0.04947722f, 0.02662534f, -0.07285158f,
    0.03794343f, -0.02597506f, -0.07720375f, -0.02935721f, 0.02847564f, 0.04332345f, -0.02720849f, -0.03208506f,
    -0.03539484f, 0.02167876f, -0.05622844f, 0.04477990f, -0.05686572f, -0.05209976f, 0.06042114f, -0.07592863f,
    0.08076033f, 0.05247120f, -0.02868253f, 0.01874843f, 0.05156215f, -0.00757727f, -0.01751861f, -0.03745987f,
    0.03041608f, -0.01702457f, 0.02119207f, -0.06630851f, 0.01100751f, 0.05779926f, -0.01374689f, -0.07453712f,
    0.05215540f, 0.06371074f, -0.07678166f, -0.06847145f, 0.08111732f, 0.06489026f, 0.05856140f, -0.06297015f,
    -0.06279056f, 0.08221939f, -0.03791155f, 0.07432549f, 0.01344732f, 0.04848922f, 0.06431794f, -0.07838642f,
    -0.02969804f, 0.06245991f, 0.01007952f, -0.08230633f, -0.03998486f, -0.07523882f, -0.05346145f, -0.06967229f,
    0.00553750f, -0.02345168f, 0.05500131f, 0.04738343f, 0.00819652f, 0.06868591f, -0.06146628f, -0.05797554f,
    -0.01203012f, 0.01178851f, -0.03093841f, -0.07990919f, 0.00598146f, 0.08062362f, -0.07467064f, -0.05264960f,
    0.02290192f, -0.01032215f, 0.04995786f, -0.01441932f, -0.03256636f, 0.03063403f, 0.00566422f, -0.06308838f,
    0.04360911f, -0.03812651f, -0.03755892f, -0.04319784f, 0.06478351f, -0.07898792f, -0.04117280f, -0.07486793f,
    -0.02910434f, 0.02622426f, -0.05124056f, 0.07443451f, 0.03226930f, 0.07936758f, 0.07011707f, -0.03578362f,
    -0.01649394f, 0.06074077f, 0.05621595f, -0.00035626f, -0.03677176f, -0.07338517f, -0.00452764f, 0.01720282f,
    0.07078791f, -0.00445232f, 0.01259871f, 0.01950522f, -0.03106041f, 0.04498562f, 0.04170255f, 0.00342035f,
    0.07060616f, -0.01732426f, 0.05276071f, -0.07098958f, 0.05805430f, 0.02915781f, 0.00127367f, 0.04271789f,
    0.07078861f, -0.00479322f, 0.04397334f, -0.01659766f, 0.07674482f, 0.00539677f, 0.06480130f, 0.00731124f,
    0.00217369f, 0.02628945f, -0.02421333f, -0.06503488f, 0.05100509f, 0.03140446f, 0.08214651f, -0.08295664f,
    0.07224786f, 0.02456391f, 0.00306532f, -0.04929918f, 0.00047229f, -0.00188213f, -0.06924103f, 0.06387107f,
    0.07999703f, 0.06270300f, -0.07130729f, 0.02707159f, -0.01722431f, 0.03894148f, 0.05520862f, -0.06838243f,
    0.07441932f, 0.00261463f, -0.01781951f, -0.07776990f, -0.03114864f, -0.06937542f, 0.03226852f, -0.01497267f,
    -0.04492031f, -0.06868666f, -0.02241630f, 0.05300655f, -0.03656709f, -0.03594792f, -0.00551792f, 0.00176821f,
    0.08143582f, 0.03912885f, 0.04278616f, -0.00655634f, -0.02799390f, -0.02148699f, 0.06971749f, 0.02785795f,
    -0.04520583f, 0.05786292f, -0.04100570f, 0.05897943f, 0.07568058f, 0.03148049f, -0.00743083f, -0.03033539f,
    0.02470567f, 0.07160824f, 0.01679343f, -0.05651346f, 0.03741043f, -0.06301951f, -0.04675925f, 0.03218348f,
    0.04834015f, -0.00113055f, -0.02337514f, 0.02405859f, -0.05427116f, 0.07003352f, 0.02216263f, -0.01161496f,
    -0.06204458f, 0.05759907f, 0.00417037f, 0.02043429f, 0.02807676f, -0.01477185f, -0.07964429f, 0.01479994f,
    0.05562423f, -0.02109788f, -0.03043478f, 0.06271876f, 0.02898866f, -0.01287384f, 0.00191052f, 0.05245339f,
    0.06610788f, 0.02681714f, 0.04816478f, 0.03115390f, -0.00193347f, -0.02044370f, -0.01512164f, 0.00557805f,
    -0.04271249f, -0.04417230f, 0.06369424f, 0.00524722f, 0.04946198f, -0.03196513f, 0.04879257f, -0.05363248f,
    -0.06640913f, -0.01868976f, 0.00594686f, -0.01837194f, 0.00784837f, -0.05514045f, -0.03583477f, 0.08329092f,
    -0.06669115f, 0.01587543f, 0.04855376f, -0.00743955f, -0.04983003f, 0.00956198f, -0.03856838f, 0.02293080f,
    0.06986215f, -0.00438130f, -0.08077392f, -0.04066061f, -0.06390595f, -0.01642157f, -0.04073516f, 0.02141161f,
    -0.02918799f, -0.00548318f, 0.03754878f, -0.06939398f, 0.04494261f, 0.06918915f, -0.05082199f, 0.02814080f,
    -0.06334634f, -0.05302438f, 0.06311851f, -0.04823190f, 0.05957701f, -0.00997021f, 0.03266116f, 0.00055890f,
    -0.07868125f, 0.04418945f, 0.00066123f, 0.02582052f, 0.04933558f, 0.05439215f, -0.07480663f, 0.07656041f,
    -0.07761432f, -0.01586948f, 0.04515752f, 0.06744678f, -0.01256113f, 0.00828218f, 0.00361081f, 0.08332440f,
    0.04033311f, -0.01413105f, -0.03236087f, 0.05528381f, 0.04463857f, 0.02492080f, -0.01618382f, 0.06226292f,
    -0.07723533f, 0.05053540f, -0.03927335f, 0.02446495f, 0.06674345f, 0.07618202f, -0.01453287f, -0.00744304f,
    -0.02817176f, -0.04498197f, 0.07611515f, 0.04123189f, 0.00202843f, 0.00126351f, 0.00015444f, -0.06401794f,
    -0.03591711f, 0.02421608f, -0.02904476f, 0.04005130f, 0.05751256f, -0.03255778f, -0.07428392f, -0.04256754f,
    -0.02705368f, 0.00958086f, 0.02021660f, -0.04134042f, -0.02364138f, 0.02499287f, 0.06571686f, 0.05573590f,
    0.02650802f, 0.00417097f, -0.02298399f, -0.01659116f, 0.02564122f, 0.07978567f, 0.07695239f, -0.02140813f,
    -0.03606904f, -0.02289464f, 0.05004111f, -0.03254404f, 0.03959695f, 0.05259371f, -0.07929321f, -0.06737947f,
    -0.03346279f, 0.01711445f, 0.07816735f, 0.07054590f, -0.05669914f, -0.00960609f, 0.05036075f, 0.04667088f,
    0.05003483f, 0.02565434f, 0.01843736f, 0.07664932f, 0.04773645f, 0.00764222f, 0.06110394f, 0.00352772f,
    0.04763883f, 0.03390688f, -0.02781345f, -0.03269784f, -0.07119974f, -0.02288242f, 0.05508482f, 0.00835727f,
    -0.06293589f, 0.04662021f, -0.04122096f, 0.00437867f, -0.03022726f, -0.04280444f, 0.05778220f, -0.02776955f,
    0.00845012f, 0.00552669f, 0.03860622f, 0.06623092f, 0.07854575f, 0.00384873f, 0.01597891f, 0.05624023f,
    0.02902120f, -0.00320838f, 0.04466694f, 0.07349181f, 0.00631650f, -0.00873711f, 0.04152264f, 0.03769137f,
    -0.00360766f, -0.04384252f, 0.01478126f, 0.04251867f, 0.02000951f, -0.00609614f, 0.02240673f, 0.01377193f,
    -0.02180036f, 0.00242198f, 0.02091510f, 0.03290301f, 0.02367614f, -0.04771966f, -0.06864687f, 0.06041779f,
    -0.02387862f, -0.02034797f, -0.03503784f, 0.06158660f, -0.08196589f, 0.05546832f, -0.02135949f, -0.04229148f,
    -0.01639641f, 0.00486069f, 0.02864205f, 0.00995798f, 0.08251997f, 0.07325991f, -0.00256995f, 0.00075005f,
    0.06466346f, 0.05894124f, 0.04805220f, 0.02970712f, 0.05041417f, 0.00386041f, 0.04679462f, 0.04182553f,
    0.00188105f, -0.01472310f, -0.01239684f, 0.05682057f, 0.04347559f, -0.01463277f, 0.04978692f, 0.01327385f,
    0.01642512f, -0.00457271f, 0.02018412f, 0.06989302f, 0.07814647f, -0.02477687f, -0.05846254f, -0.07410873f,
    0.07461231f, -0.04431424f, -0.07816954f, -0.06676984f, 0.01045887f, -0.03828388f, 0.07158115f, -0.07042583f,
    -0.00139974f, -0.03892921f, 0.01098185f, 0.05113051f, -0.06731676f, 0.06047694f, 0.08206151f, -0.02452375f,
    -0.00307970f, -0.03936341f, 0.06169775f, 0.03188638f, 0.02003003f, -0.07567757f, 0.05829856f, 0.03216880f,
    -0.03629659f, -0.03379490f, -0.03755851f, 0.07289523f, -0.04914350f, 0.00992604f, 0.02878278f, 0.05566540f,
    0.05250343f, -0.06396987f, 0.07488563f, 0.02026391f, 0.00745841f, -0.08273613f, -0.02838334f, 0.07558072f,
    -0.06575190f, -0.02254537f, 0.03052078f, -0.04925924f, -0.06023130f, 0.05296022f, -0.00601132f, -0.05015740f,
    -0.02446157f, 0.00671887f, 0.01643167f, -0.02329765f, -0.02156944f, 0.06046877f, 0.01885685f, -0.01551888f,
    -0.07735365f, -0.05892075f, -0.00444184f, 0.07567050f, 0.04485103f, 0.04768595f, 0.03153047f, 0.03968824f,
    -0.00280790f, 0.04995542f, -0.05350917f, -0.03429659f, 0.08314153f, -0.03823292f, -0.03487796f, 0.04476890f,
    0.05252336f, -0.03933201f, -0.07345521f, 0.05533629f, 0.04277223f, -0.02200057f, 0.05156606f, 0.07926098f,
    0.03180584f, -0.06985342f, 0.04271273f, 0.06374058f, 0.04702880f, 0.07148167f, -0.02592700f, -0.03804333f,
    -0.08104372f, 0.03624663f, 0.04926648f, 0.07813811f, -0.01578998f, 0.03057582f, 0.03874353f, -0.01401469f,
    0.08098078f, -0.05605672f, -0.07936746f, -0.02828961f, -0.06141464f, 0.00740117f, 0.07488938f, -0.01742951f,
    0.07562917f, -0.07874618f, -0.06381381f, 0.00897848f, -0.06762773f, 0.07031327f, 0.07466525f, -0.00443700f,
    -0.00495971f, -0.01036529f, -0.07164996f, -0.00638170f, -0.08244970f, -0.01517839f, 0.01747792f, 0.04489791f,
    -0.01039541f, 0.03166091f, -0.06543555f, 0.00164457f, 0.04389856f, 0.06037475f, -0.01030155f, 0.04324671f,
    -0.05248217f, -0.06002977f, 0.03213246f, 0.00865818f, 0.02478223f, 0.04848209f, -0.05575925f, 0.06314880f,
    0.00958570f, 0.04292025f, 0.08046450f, -0.07854294f, -0.03470115f, -0.05535573f, 0.00263575f, -0.01845205f,
    -0.00897912f, -0.08137728f, -0.06503712f, 0.07225116f, 0.01005202f, -0.00644661f, -0.00516762f, -0.06462136f,
    0.04655528f, -0.02318250f, 0.01081177f, -0.05433671f, -0.06274729f, 0.01116973f, -0.02433928f, 0.00635598f,
    -0.00317743f, -0.06344136f, -0.04741142f, -0.01758847f, -0.02967660f, -0.06478435f, -0.03018416f, 0.04009172f,
    -0.02911909f, 0.04016897f, -0.08069604f, -0.03946035f, -0.01270393f, -0.06529012f, 0.06108859f, 0.07880369f,
    -0.05888069f, -0.06796431f, 0.03662721f, 0.05692435f, 0.01147291f, 0.04990510f, 0.05416956f, 0.04865509f,
    0.05026558f, 0.01794797f, 0.03612515f, 0.01908463f, 0.00278494f, 0.07249960f, -0.03672548f, 0.03917906f,
    0.03543964f, -0.05313784f, -0.00435231f, 0.02909661f, -0.02101028f, -0.06615107f, -0.07420003f, -0.02293191f,
    -0.05616549f, 0.05564553f, 0.07140519f, -0.05601286f, -0.04969584f, 0.02518965f, -0.03617236f, -0.04440458f,
    -0.08049381f, -0.00240484f, -0.04598561f, 0.05547261f, -0.04410020f, 0.03593826f, 0.01246147f, -0.08174202f,
    0.01934167f, -0.06297012f, 0.01187825f, -0.05150720f, 0.05459666f, 0.04829302f, -0.03900468f, 0.02089072f,
    0.00922702f, 0.03774834f, -0.05800334f, 0.00932872f, 0.04359156f, -0.00686144f, -0.07244053f, -0.00163847f,
    0.05961664f, -0.04617118f, 0.07573657f, 0.00319685f, 0.03903158f, -0.05066993f, -0.02612362f, 0.06369931f,
    -0.05675378f, -0.05865581f, -0.06544395f, -0.05333274f, 0.06106242f, -0.04304730f, 0.07313082f, 0.05796525f,
    -0.03244375f, -0.02867366f, 0.04814386f, 0.07240324f, 0.05987356f, -0.07932826f, 0.03399653f, 0.05979234f,
    0.02340555f, 0.03833082f, 0.01250792f, -0.00934449f, 0.01545892f, 0.04161901f, 0.01029986f, -0.01533094f,
    0.04423131f, 0.02012311f, -0.03051088f, -0.05900552f, -0.07312462f, 0.03376671f, -0.06603391f, 0.01779037f,
    -0.08131054f, 0.05570096f, -0.00023591f, -0.02911651f, 0.01506152f, 0.06541435f, -0.00354096f, -0.06198710f,
    0.07911067f, -0.08264217f, -0.02612713f, 0.07021552f, -0.07244086f, -0.05133263f, 0.04369960f, -0.00216438f,
    0.03935822f, -0.04664781f, -0.07309954f, 0.07594903f, -0.04777211f, -0.04950818f, -0.03278657f, -0.02357494f,
    0.04294273f, 0.01421439f, 0.04613693f, 0.01216932f, 0.04958717f, 0.03660416f, -0.04132202f, -0.08075922f,
    0.03508632f, 0.00333655f, -0.04994140f, -0.04561978f, 0.06676877f, 0.02414951f, -0.04424065f, 0.07558092f,
    -0.01886345f, 0.00894071f, 0.05093549f, 0.02837393f, 0.04020926f, -0.05682526f, 0.06600188f, -0.00350556f,
    -0.01448402f, -0.06493252f, -0.07704749f, 0.03324897f, -0.06059393f, 0.06640243f, -0.05753642f, 0.04243692f,
    0.06760248f, 0.02009506f, -0.08223709f, 0.07021248f, -0.03066374f, 0.02271186f, -0.07432850f, -0.08295150f,
    0.04196554f, -0.02284810f, -0.04837969f, -0.03025149f, -0.00412673f, 0.02670488f, 0.03538417f, -0.03358461f,
    -0.07099425f, 0.00851977f, -0.02882953f, -0.01557704f, -0.00416443f, -0.03438207f, 0.05906712f, 0.00335216f,
    0.05959012f, 0.07526739f, 0.07440433f, 0.04624470f, -0.06708841f, 0.01541633f, -0.01901571f, 0.06044954f,
    -0.06710156f, 0.01472090f, 0.03750432f, 0.02609952f, -0.08176580f, -0.08115607f, -0.00043415f, -0.07677881f,
    -0.00043511f, 0.04422554f, 0.07820573f, 0.03202026f, 0.05799662f, -0.05042556f, 0.03394236f, 0.03434782f,
    -0.03342070f, -0.06202385f, 0.08249719f, -0.03782681f, -0.00949535f, 0.05062290f, -0.07759830f, -0.07344570f,
    0.02766683f, 0.00717882f, -0.08263700f, -0.06741454f, 0.06962978f, -0.00803426f, 0.04895353f, 0.03104310f,
    -0.04802561f, 0.05536461f, -0.03101574f, -0.07435986f, -0.00205064f, 0.02235889f, -0.07335832f, -0.02303001f,
    -0.02205602f, 0.05716311f, -0.03414971f, 0.01316873f, 0.01595832f, -0.07510546f, 0.03674261f, 0.00378464f,
    0.05090694f, -0.05839866f, -0.00581367f, 0.04699559f, -0.02331990f, -0.02383069f, 0.06670389f, 0.01765424f,
    0.03441077f, -0.05998706f, 0.03620081f, -0.05665265f, -0.06135243f, -0.01092955f, -0.05981193f, -0.05363451f,
    -0.03287259f, -0.02970764f, -0.01153044f, -0.02957318f, 0.01902569f, -0.05585031f, -0.08223332f, 0.06358125f,
    -0.07989018f, 0.00923221f, -0.02342045f, -0.02187516f, -0.05699877f, 0.04899409f, -0.07918923f, -0.01967072f,
    -0.01630817f, 0.02297448f, 0.08021675f, 0.06500605f, 0.01204279f, 0.00400165f, 0.04801780f, -0.03153151f,
    0.04172137f, -0.02003984f, 0.06038631f, -0.07615589f, 0.03533522f, -0.06915124f, 0.03116007f, -0.06758967f,
    0.02615447f, -0.07805721f, 0.02587733f, -0.04440144f, 0.00889122f, 0.00623833f, 0.03646957f, 0.07621783f,
    -0.06852187f, -0.03400867f, -0.07083125f, -0.06238460f, 0.07675793f, 0.08060484f, 0.00118018f, 0.02065687f,
    0.00588353f, 0.02088733f, 0.04590878f, 0.02443495f, 0.00911633f, -0.06331620f, 0.03843582f, 0.04537828f,
    -0.08036458f, 0.00041152f, 0.01563570f, 0.01538929f, 0.08155051f, 0.06407382f, 0.01773202f, 0.00288367f,
    -0.05309247f, 0.01855279f, 0.04846976f, 0.02091231f, -0.03724777f, 0.07705761f, -0.02673934f, -0.03348994f,
    -0.02693291f, -0.04058325f, 0.03406849f, 0.00079517f, 0.01836433f, 0.06998503f, -0.07034466f, 0.01068742f,
    0.08164456f, -0.07336426f, 0.07747315f, -0.02819421f, -0.00973667f, -0.00634717f, 0.00638214f, -0.05776673f,
    -0.04070202f, 0.00210316f, 0.07617220f, 0.03781512f, 0.00897892f, -0.03812802f, -0.01572445f, -0.07206997f,
    0.08116908f, -0.00845364f, 0.04657995f, 0.01661743f, 0.01198386f, -0.06804140f, 0.04935922f, -0.04167654f,
    -0.03235611f, -0.03054041f, -0.00626079f, 0.02222645f, -0.06191817f, -0.01471834f, 0.08324271f, -0.04295192f,
    0.02092999f, 0.00902896f, -0.02790001f, 0.01000851f, 0.06744733f, -0.01257296f, -0.02466853f, -0.07796162f,
    -0.03057736f, -0.04161561f, -0.07460448f, -0.04523738f, 0.05248418f, -0.02227948f, -0.01167176f, 0.01555272f,
    -0.08080643f, 0.03253622f, -0.01465362f, -0.01151606f, -0.03947587f, 0.03898737f, 0.08180431f, -0.02768929f,
    0.07253023f, 0.03516722f, 0.01756944f, 0.02978708f, 0.07080127f, 0.02179906f, 0.08322092f, 0.00330341f,
    0.00264873f, -0.03946516f, 0.03173366f, 0.00426054f, 0.00877353f, 0.02400897f, -0.06010269f, -0.03254531f,
    0.01861895f, -0.06804418f, -0.01490892f, -0.03118641f, 0.03003457f, 0.00949203f, 0.00338515f, -0.06844376f,
    -0.00417910f, 0.03174452f, 0.06464954f, 0.01427323f, -0.05588081f, -0.04021184f, 0.07191797f, -0.06989240f,
    -0.02407455f, -0.03006703f, 0.00381919f, 0.01469825f, -0.05560412f, 0.07213454f, 0.01805034f, -0.02687374f,
    -0.02867467f, 0.01888492f, -0.03807670f, 0.02909252f, -0.00600461f, 0.07592556f, -0.02342080f, 0.07502420f,
    -0.05210077f, -0.07260801f, -0.03745766f, -0.08187063f, -0.07751088f, -0.02975716f, 0.04061996f, -0.03065341f,
    0.03919239f, 0.01668600f, -0.02920847f, 0.02477657f, 0.01300324f, -0.04575698f, -0.00374351f, 0.03101343f,
    0.07277846f, 0.02935473f, 0.00122107f, 0.02641602f, 0.05725279f, 0.00583193f, 0.06243113f, -0.01195335f,
    0.02434599f, -0.03150497f, -0.02408436f, 0.06653087f, 0.01666333f, 0.05961066f, -0.00202670f, 0.05914130f,
    0.00606598f, -0.03992643f, 0.00746836f, 0.07386752f, -0.04626586f, -0.04219630f, 0.03899322f, 0.02373193f,
    0.00110233f, 0.02349523f, 0.04181620f, -0.08112100f, 0.07404437f, 0.02963763f, 0.07615566f, -0.05371566f,
    -0.03713350f, 0.04483804f, -0.01008521f, -0.07737543f, 0.04211705f, 0.04854055f, -0.06143260f, -0.03360762f,
    -0.07865729f, 0.08033852f, 0.05777661f, -0.04266162f, 0.07333019f, -0.01835652f, 0.06413387f, -0.01838974f,
    -0.04693018f, -0.06621268f, -0.04474649f, 0.03812274f, -0.07326359f, 0.05642577f, 0.05526364f, -0.07878538f,
    -0.00321652f, 0.04682841f, -0.00421199f, 0.05624652f, -0.01040303f, 0.08099613f, 0.07526490f, 0.03158057f,
    -0.03638589f, -0.04784792f, -0.00575350f, -0.02357311f, 0.04030385f, 0.04042220f, 0.07962032f, 0.00041714f,
    0.06278370f, -0.04000727f, 0.00398437f, 0.06195512f, -0.05163129f, -0.01937659f, -0.04843738f, 0.03547602f,
    0.00643121f, 0.07745182f, 0.02760131f, 0.07934891f, -0.01232882f, 0.04914718f, -0.06903529f, 0.01531334f,
    -0.05607915f, 0.06865420f, 0.07980492f, -0.00736942f, -0.03773063f, -0.02997717f, -0.00634896f, 0.07808836f,
    0.00391630f, 0.04999695f, -0.01095510f, -0.01458208f, 0.00139809f, 0.07508875f, -0.01979808f, 0.06044322f,
    0.02194963f, 0.04195745f, 0.02551281f, 0.02633701f, 0.06883561f, -0.03914011f, 0.02761453f, -0.01138523f,
    -0.05580265f, 0.01610851f, 0.02907163f, -0.00195710f, 0.07878290f, -0.04863804f, -0.00672764f, 0.05393959f,
    0.06826665f, -0.06318964f, -0.06479558f, 0.00670219f, 0.03106404f, 0.00155441f, 0.04335403f, -0.02357874f,
    0.05008753f, -0.01209768f, 0.08222255f, -0.00284101f, 0.01989759f, 0.04979250f, 0.05370921f, 0.03537076f,
    0.06626182f, -0.06216633f, -0.02371623f, -0.01272324f, 0.00439531f, -0.06706001f, 0.01907303f, 0.01461510f,
    0.03354125f, -0.03561477f, -0.07399790f, -0.02031817f, -0.01191448f, 0.03273739f, -0.02620966f, -0.03285322f,
    -0.06879091f, -0.05696359f, -0.00638860f, -0.06749479f, 0.04267519f, 0.00586352f, -0.06971262f, -0.05706381f,
    -0.05791268f, -0.07079070f, 0.01489865f, -0.04261613f, 0.02728693f, 0.00330676f, -0.01202675f, -0.04456256f,
    -0.00318601f, 0.07373735f, 0.06661485f, 0.05355158f, -0.01551936f, -0.03146955f, -0.06310451f, -0.03016671f,
    -0.02639743f, -0.04554075f, 0.01235830f, 0.00859688f, -0.00144520f, -0.03255979f, 0.03901234f, 0.00177605f,
    -0.03428973f, -0.02029369f, -0.03379506f, 0.07845702f, 0.04828646f, -0.02512464f, 0.05859810f, 0.03499132f,
    0.04971732f, -0.05341304f, 0.00404198f, -0.05060172f, -0.08070546f, -0.05745782f, -0.02618572f, -0.00182376f,
    -0.01518584f, -0.07954732f, 0.05662214f, 0.04612976f, -0.01034500f, -0.07181050f, 0.02969904f, -0.02840256f,
    0.00869801f, -0.01278208f, -0.03715765f, 0.07963851f, -0.08183299f, 0.07585169f, -0.07832292f, -0.03214679f,
    -0.07722338f, -0.05268134f, -0.05775703f, 0.05288526f, -0.03665676f, 0.03883412f, -0.01196840f, -0.07513999f,
    -0.07406323f, -0.07958465f, -0.02061720f, -0.07094027f, 0.03446217f, -0.07530021f, -0.07110431f, -0.03129816f,
    -0.05877934f, -0.04837589f, 0.04691046f, -0.04284871f, -0.04355475f, -0.04080661f, 0.02084347f, -0.07801050f,
    -0.04647726f, -0.00897219f, -0.08064722f, 0.01379579f, 0.00357820f, 0.04642829f, 0.01242099f, 0.06395667f,
    -0.02147382f, 0.00019063f, 0.08201927f, -0.01267465f, 0.07789772f, 0.05833469f, 0.01280259f, 0.03153315f,
    0.01960074f, 0.07782694f, 0.00819014f, -0.06309630f, 0.02274355f, 0.03656355f, 0.01641951f, 0.06107090f,
    0.04758230f, 0.00737754f, -0.03987485f, -0.08106910f, -0.06241640f, -0.05887679f, 0.08163493f, 0.02041935f,
    0.08139654f, -0.07084917f, 0.07419537f, 0.00822330f, 0.06398372f, 0.06045108f, 0.05320370f, 0.06937014f,
    0.04396722f, 0.03536066f, -0.07933305f, -0.02973091f, -0.05957384f, 0.07947950f, 0.03220710f, 0.06696203f,
    0.03088418f, 0.01185425f, -0.04120650f, -0.08187144f, -0.00975077f, -0.04834728f, 0.03181416f, -0.01484455f,
    0.07265286f, -0.05373441f, 0.01274921f, -0.00255196f, -0.06098829f, -0.03365983f, 0.04559712f, -0.02897365f,
    -0.04823431f, 0.02817173f, -0.05795059f, -0.01931612f, -0.01132492f, 0.02514281f, -0.08076029f, 0.05122074f,
    -0.02290501f, 0.00525113f, 0.00396809f, -0.01167708f, 0.04749744f, 0.03843257f, 0.03730538f, -0.04408425f,
    -0.00970683f, -0.02675552f, 0.05188060f, 0.01930024f, -0.04282233f, 0.04129323f, 0.07043310f, -0.08324318f,
    0.03757209f, 0.00361303f, -0.01309664f, -0.06301668f, -0.03895220f, 0.07373931f, -0.05511464f, -0.03571039f,
    -0.05771161f, -0.01837527f, -0.03495903f, 0.06749677f, -0.01245701f, -0.06946516f, 0.06675466f, 0.06917258f,
    -0.07348871f, 0.04949320f, -0.04839023f, 0.08323616f, 0.02636604f, -0.03767201f, 0.07653829f, -0.00987370f,
    -0.06516756f, -0.03524461f, -0.06654777f, -0.04178482f, -0.00129537f, 0.02749290f, 0.05118549f, -0.06148272f,
