// Auto-generated weights file
// DO NOT EDIT

#ifndef WEIGHTS_H_
#define WEIGHTS_H_

#include <stddef.h>
#include <stdint.h>

// Shape: (5, 5, 6, 16), dtype: float32
static const float stem_conv_weight[2400] = {
    0.00045301f, 0.04317643f, -0.03797767f, 0.00606976f, -0.07390217f, -0.04312387f, 0.02490920f, -0.03173189f,
    -0.00736166f, -0.03495581f, -0.00450637f, 0.03328075f, -0.04588256f, -0.03607904f, 0.04204623f, -0.01744667f,
    -0.06571101f, -0.00454820f, 0.05104734f, -0.03431789f, -0.02258259f, 0.00399061f, -0.05400766f, 0.07588614f,
    0.01732139f, 0.04038080f, -0.00391472f, -0.00486358f, 0.01738178f, 0.04110271f, -0.00143697f, -0.03233850f,
    -0.05036702f, -0.05676028f, 0.07446543f, -0.05832802f, 0.06153127f, -0.06934020f, 0.04548881f, 0.06198429f,
    -0.05018293f, 0.03380914f, 0.05645577f, 0.01015226f, 0.07503589f, 0.00400981f, -0.07092014f, 0.07800969f,
    0.00821231f, 0.00426079f, 0.03575499f, 0.07220616f, -0.06070001f, 0.03261212f, -0.03501476f, 0.04488858f,
    0.04853462f, -0.00955007f, 0.01765991f, 0.00212887f, -0.00264606f, 0.00263753f, -0.04312805f, 0.05059244f,
    -0.02221869f, -0.00520755f, -0.02516168f, -0.03563465f, -0.00583643f, -0.07587552f, 0.06964150f, 0.05025027f,
    0.01068841f, 0.00045629f, 0.06202276f, 0.00826074f, 0.00617415f, -0.03640457f, -0.07601277f, -0.02636303f,
    0.04203174f, -0.07379933f, -0.03038017f, -0.05885450f, -0.08113921f, 0.05148618f, 0.03698294f, 0.03319762f,
    -0.05666100f, 0.01781654f, 0.04355996f, 0.03132318f, -0.02858375f, 0.07118589f, -0.04463001f, -0.02656585f,
    0.06854155f, 0.07858079f, -0.00490211f, -0.07414588f, 0.05133322f, -0.05716375f, -0.05668669f, 0.01234830f,
    -0.05420788f, -0.01830663f, -0.07424604f, -0.06296469f, -0.03125150f, -0.03375240f, 0.06224985f, -0.01585192f,
    0.04522063f, -0.03824836f, 0.03205014f, -0.00274969f, 0.04567583f, 0.05605934f, -0.03836708f, -0.05570729f,
    -0.03848138f, 0.06124842f, -0.01546433f, 0.04966725f, -0.02818782f, 0.08031752f, 0.04349728f, -0.00775087f,
    -0.05103550f, 0.07158631f, -0.01198128f, -0.05512153f, 0.05801258f, -0.00083627f, 0.00540122f, 0.06729209f,
    0.06933627f, -0.01638279f, 0.03520297f, 0.02949297f, -0.00252248f, 0.02544454f, -0.06290195f, 0.07907183f,
    0.08019338f, -0.07954875f, -0.05246121f, -0.07867850f, -0.05659804f, -0.04565488f, 0.04633596f, 0.02235304f,
    -0.02624116f, 0.04683147f, 0.04312696f, -0.05118996f, 0.00445205f, 0.02950628f, 0.02573603f, 0.02132919f,
    0.05290700f, 0.02434896f, 0.05418645f, -0.00337767f, -0.04452122f, 0.02961558f, -0.04753575f, 0.04500916f,
    0.07925317f, -0.00398323f, 0.03167562f, -0.00164986f, 0.00509306f, -0.05640628f, 0.06136812f, -0.01100144f,
    -0.06994440f, -0.07840241f, 0.07022340f, 0.02243829f, 0.04753931f, 0.05969037f, -0.00541816f, 0.05335003f,
    0.00775925f, 0.04608902f, -0.03214602f, -0.03410760f, -0.02250049f, 0.01511313f, 0.07297952f, 0.05045649f,
    0.05855507f, 0.00016256f, -0.06636081f, 0.07880036f, 0.05299575f, -0.04329279f, 0.03257479f, -0.03418029f,
    -0.00740314f, -0.05358268f, 0.07553136f, 0.04845367f, -0.00268582f, -0.02167306f, -0.06861250f, 0.01932381f,
    -0.04811453f, -0.02933291f, 0.07424586f, 0.01912588f, -0.05200246f, -0.04408553f, 0.07083518f, -0.07058863f,
    -0.02081916f, 0.03073621f, -0.02725381f, 0.02899425f, -0.02778104f, -0.03620173f, 0.02774346f, -0.00801751f,
    0.02102743f, 0.06168716f, 0.02772780f, 0.07981484f, 0.05353786f, 0.04684373f, -0.01552609f, 0.03850810f,
    -0.02971639f, 0.06861020f, 0.02848069f, 0.02971020f, 0.01884178f, 0.07224389f, 0.00379117f, -0.06533740f,
    0.02965885f, 0.03629116f, -0.06108940f, -0.05421180f, -0.04170014f, -0.00666532f, 0.00012927f, -0.01937603f,
    0.04654170f, 0.00952597f, -0.05359134f, 0.07141980f, -0.04626535f, -0.03071808f, 0.07034124f, 0.01867447f,
    0.05110516f, -0.07356457f, 0.06796187f, 0.02046714f, -0.03978626f, -0.07456788f, 0.05467860f, 0.00613246f,
    -0.05439336f, -0.05328654f, 0.05260664f, 0.01470228f, 0.05039006f, 0.06797599f, -0.02511367f, 0.05430069f,
    -0.05157046f, -0.01825158f, -0.06751857f, 0.03949042f, -0.00668990f, 0.02241327f, -0.01378696f, 0.04824372f,
    0.01852763f, 0.04739681f, -0.07744608f, 0.07953334f, -0.06412511f, -0.05472934f, -0.07606544f, 0.05805682f,
    0.06650148f, -0.05530709f, 0.07311610f, -0.00583040f, 0.05029954f, -0.03140109f, -0.00919913f, -0.05100602f,
    -0.03706827f, -0.07736561f, -0.03868247f, 0.07857901f, -0.05755788f, -0.04297637f, 0.08084013f, 0.07855036f,
    0.01610649f, -0.05491126f, -0.00068913f, -0.02987848f, 0.03093749f, 0.06981597f, 0.06255209f, 0.05409467f,
    -0.00123869f, 0.04710445f, 0.06959014f, 0.03297625f, 0.00957755f, -0.01356494f, 0.00371197f, 0.07465985f,
    -0.04179583f, -0.04017492f, -0.04872397f, 0.02500864f, -0.04823068f, -0.02763321f, 0.07436133f, 0.02275020f,
    0.06729010f, -0.01333079f, -0.04299969f, 0.07832331f, -0.04108801f, 0.00664995f, 0.00359486f, 0.04611061f,
    -0.02092311f, 0.08025201f, 0.01905689f, 0.06280832f, -0.05326982f, 0.05220280f, -0.01894278f, -0.02304620f,
    -0.07123291f, 0.00023689f, 0.06194178f, -0.00629694f, -0.04073565f, -0.07647926f, -0.04352739f, -0.03321862f,
    0.08111289f, 0.07703797f, 0.01295154f, -0.08100274f, 0.04374497f, -0.04692097f, -0.01407181f, -0.07602993f,
    0.02313960f, -0.02014359f, -0.04961853f, 0.03500488f, -0.01676114f, -0.00038546f, 0.07572141f, -0.03363961f,
    -0.01863642f, -0.06401401f, 0.01860532f, 0.00550838f, 0.05688625f, 0.00681072f, 0.04336770f, 0.04009119f,
    0.01925344f, -0.01482332f, -0.05065062f, -0.01354925f, 0.02737323f, 0.05016381f, 0.07927453f, -0.05966901f,
    0.05268888f, 0.07024299f, -0.02683061f, 0.06064939f, 0.01886941f, -0.06378171f, 0.03932296f, 0.02483066f,
    -0.07066566f, 0.04233924f, -0.06353921f, -0.01013148f, -0.04398705f, 0.02036551f, -0.06603970f, 0.07021211f,
    0.00672099f, 0.06397517f, -0.02302002f, -0.00820219f, -0.03963913f, 0.06889481f, -0.00937403f, -0.05608767f,
    0.00309803f, -0.03517159f, -0.02938881f, 0.01294678f, -0.08161155f, 0.06795634f, -0.03112578f, 0.06351281f,
    0.04656808f, -0.07800752f, -0.01802166f, -0.07202920f, 0.02242013f, -0.05492789f, 0.05402714f, -0.03889134f,
    0.04300588f, -0.03833889f, -0.00349049f, -0.00573069f, 0.01771264f, -0.07830264f, 0.02571624f, 0.06248061f,
    0.05807308f, -0.05807582f, 0.03040926f, 0.05663390f, -0.03832565f, -0.05591785f, 0.06634969f, -0.00381950f,
    0.01280053f, 0.00942666f, 0.06212480f, -0.06806856f, -0.00313380f, 0.00781387f, 0.06995658f, -0.01989425f,
    -0.00830065f, -0.00286598f, -0.01347756f, -0.07579707f, -0.06206007f, 0.00960023f, 0.07489447f, -0.00372965f,
    -0.07300038f, 0.07807379f, 0.03401238f, 0.06647860f, 0.04185021f, 0.00865889f, -0.03006998f, -0.02092763f,
    0.00765029f, 0.04391026f, -0.06125594f, 0.08164623f, -0.01889222f, 0.07085743f, -0.05167287f, -0.01391419f,
    0.03065250f, -0.07111697f, -0.07202493f, 0.00687567f, -0.08062231f, -0.03072336f, 0.05235121f, 0.05797285f,
    0.07565665f, -0.01943117f, -0.07655408f, 0.00896502f, -0.03536404f, 0.02046092f, 0.07410762f, -0.03022191f,
    0.00388746f, 0.05830038f, 0.01012935f, 0.01909613f, 0.04028486f, -0.00333891f, 0.00319394f, -0.07019841f,
    0.01475510f, -0.07744975f, -0.06351270f, -0.00739390f, -0.06487186f, 0.03359309f, 0.05849570f, 0.06299863f,
    0.06952056f, -0.08016659f, -0.02750313f, -0.01144822f, 0.06956217f, -0.01525741f, -0.00703714f, -0.07824560f,
    -0.07707177f, -0.02849600f, -0.06196506f, -0.02360618f, 0.06324948f, 0.02500119f, 0.03376296f, -0.07099076f,
    0.07763093f, -0.06251688f, 0.06766708f, -0.01977324f, -0.05628352f, 0.05172025f, -0.04765081f, -0.04493658f,
    -0.08002643f, -0.05939345f, -0.02530569f, -0.00487479f, -0.06483169f, 0.02106531f, -0.01046013f, 0.03608353f,
    -0.02052456f, 0.05561939f, -0.01233060f, -0.04775590f, 0.02892761f, 0.06845976f, 0.02524688f, -0.01521377f,
    0.07749575f, 0.07530925f, 0.03191744f, -0.04611301f, 0.05279120f, -0.07913384f, 0.01449984f, -0.02177524f,
    -0.02847136f, 0.06459015f, 0.04004743f, 0.04317540f, 0.03269622f, -0.05313166f, -0.00027626f, 0.06680647f,
    -0.07263111f, 0.07412513f, 0.07656030f, -0.04803415f, 0.01593307f, -0.03278447f, 0.06851394f, 0.05830296f,
    0.03161554f, 0.07209132f, -0.07904985f, -0.02796080f, -0.03028906f, 0.00954758f, -0.04382928f, 0.05096013f,
    -0.06086803f, 0.04236080f, 0.06853446f, -0.00364124f, -0.05152405f, -0.02556408f, 0.06641547f, -0.08013774f,
    -0.02374949f, 0.05790899f, -0.01563277f, -0.03577245f, 0.01073311f, 0.05383704f, 0.04518245f, -0.01362975f,
    0.07832275f, 0.06103398f, -0.03107929f, 0.00352291f, 0.05206019f, 0.01971209f, 0.01000347f, 0.06860921f,
    -0.03092006f, -0.07609244f, 0.04039913f, 0.01235080f, 0.05022179f, 0.04446269f, -0.04764222f, -0.05587693f,
    -0.03059623f, -0.03387152f, 0.01960177f, 0.00833368f, 0.01886054f, -0.01386635f, 0.02307568f, -0.05629900f,
    -0.04520541f, -0.06137790f, 0.05219993f, -0.03906423f, -0.03831165f, 0.00986082f, -0.00514275f, 0.03216377f,
    -0.00554476f, -0.04628463f, 0.07265974f, -0.00163484f, 0.03212307f, 0.00943283f, 0.04347526f, 0.07134133f,
    -0.04311886f, -0.06546154f, -0.02105675f, -0.05204326f, -0.00019671f, 0.02044900f, -0.07446185f, 0.05554584f,
    0.06956967f, -0.07350298f, -0.01608301f, 0.01678061f, -0.07241510f, -0.07899640f, -0.01861935f, 0.00848904f,
    -0.06649794f, 0.00765000f, -0.05008024f, 0.03954031f, 0.01974395f, 0.03062890f, -0.04776227f, -0.05616879f,
    -0.08084109f, 0.03859060f, 0.01613415f, -0.05961441f, 0.05362283f, 0.07311033f, -0.00012434f, 0.05532073f,
    -0.08012059f, 0.00899903f, 0.04958119f, -0.05566326f, -0.01815495f, -0.07211461f, 0.01279210f, -0.05273225f,
    -0.00285634f, 0.05687693f, -0.04637948f, 0.05164519f, -0.04834041f, 0.05393434f, 0.04111766f, 0.02046088f,
    -0.03739911f, 0.00529332f, -0.02504946f, -0.02963778f, -0.03002840f, 0.06998686f, 0.02008562f, 0.00370320f,
    0.05815633f, -0.05699896f, -0.01863488f, -0.06044716f, 0.05155679f, 0.00810065f, 0.01416802f, 0.07678066f,
    0.04973447f, 0.06690209f, -0.07124180f, 0.03955417f, -0.04145876f, 0.00324584f, 0.01149651f, 0.05975456f,
    0.06924836f, -0.06191888f, -0.06596704f, 0.03023409f, -0.04017746f, 0.02321959f, 0.02675772f, -0.01042321f,
    -0.07331704f, -0.04608256f, 0.06676710f, -0.06584868f, 0.07561880f, -0.07816881f, 0.02625681f, 0.01499021f,
    0.05679548f, -0.01469273f, 0.00501372f, -0.00283001f, -0.01449047f, 0.02775003f, 0.06754265f, -0.00182063f,
    -0.06090439f, 0.00310716f, -0.07959580f, 0.01262515f, 0.04501265f, 0.04141507f, 0.04337601f, 0.01446639f,
    -0.02895389f, -0.02053132f, -0.01304467f, -0.04834606f, 0.03294707f, 0.07765836f, 0.02835282f, -0.00946928f,
    -0.04780344f, -0.00871773f, -0.00094393f, 0.05861466f, -0.05281950f, 0.03418266f, 0.05407466f, 0.06405763f,
    0.03345646f, -0.07795666f, -0.05728876f, 0.02731462f, 0.00287352f, -0.07423326f, -0.06735013f, 0.03868790f,
    0.06705657f, 0.06749219f, -0.03179631f, 0.06309818f, 0.05654357f, -0.05178358f, 0.01620027f, -0.06812314f,
    0.02921492f, -0.03997533f, -0.07159966f, -0.01814759f, -0.05846708f, 0.00564427f, 0.06826744f, 0.06035468f,
    -0.04459197f, 0.00654642f, 0.05330164f, -0.05340393f, -0.00321647f, -0.03475300f, -0.06731432f, 0.07922621f,
    -0.01653341f, 0.07355028f, 0.08005068f, 0.04527643f, 0.02522237f, -0.07200619f, 0.07840067f, -0.02764575f,
    0.03521769f, 0.04764885f, -0.06189809f, -0.01403607f, -0.02733167f, 0.07219262f, 0.01238882f, 0.06523733f,
    -0.01868616f, -0.04764579f, -0.00827310f, -0.07015052f, -0.06487793f, 0.05278861f, 0.00174145f, 0.02458904f,
    -0.00264813f, 0.00357934f, -0.05783336f, 0.03195752f, 0.03097231f, 0.01206772f, -0.02348566f, 0.06171756f,
    0.05647942f, 0.05149907f, -0.01280076f, 0.07540791f, 0.02522456f, -0.07498763f, -0.06049206f, 0.06444846f,
    -0.04706210f, -0.06002357f, -0.01938319f, 0.02440499f, 0.05034911f, -0.07584580f, -0.04228838f, 0.00147485f,
    -0.00071416f, 0.01610692f, -0.03316713f, 0.03177404f, 0.06167140f, 0.05801509f, -0.04035132f, 0.06127891f,
    0.07464666f, -0.05128061f, -0.07039142f, -0.04681915f, -0.07339335f, -0.00121985f, 0.07595550f, -0.06029461f,
    0.06024262f, 0.03407719f, 0.02073676f, -0.04822104f, 0.03343978f, -0.07918377f, -0.02635159f, -0.07294298f,
    0.00223249f, 0.04585787f, 0.07071410f, 0.00791468f, 0.01381303f, 0.03709620f, -0.04696197f, -0.02919638f,
    -0.01361561f, 0.04784460f, -0.06028149f, 0.03502958f, 0.06912503f, -0.01964355f, -0.00125797f, -0.07703845f,
    0.00226573f, 0.06729332f, -0.04866216f, -0.03839251f, -0.05755097f, 0.02672271f, 0.00382018f, 0.07765938f,
    -0.02886603f, -0.05135841f, -0.03325927f, 0.04063274f, -0.02573542f, -0.05674253f, -0.03731572f, 0.07705486f,
    0.08069656f, 0.06462205f, 0.00519229f, -0.02397139f, 0.07861825f, -0.01927470f, -0.03900561f, 0.06426564f,
    -0.00132432f, 0.07333186f, 0.01097468f, -0.05834365f, -0.03163357f, -0.05193389f, 0.08035631f, -0.04500581f,
    0.04501837f, 0.01878844f, -0.01859102f, -0.00486087f, -0.03589384f, -0.04651131f, -0.06548564f, -0.01186555f,
    0.03874918f, 0.08012910f, -0.03612800f, 0.02109455f, -0.04425768f, -0.03172088f, -0.07165086f, 0.06317075f,
    -0.04652382f, 0.07928267f, 0.00915579f, 0.04583098f, -0.08054840f, -0.05950071f, -0.00096980f, 0.05421770f,
    -0.05105269f, -0.00516366f, -0.03294180f, -0.07722115f, -0.06840517f, -0.05575451f, -0.04160506f, -0.04849443f,
    0.07039845f, -0.01559106f, 0.07736473f, 0.07048356f, 0.03212941f, -0.06083350f, -0.04719816f, -0.03367104f,
    0.00666217f, -0.05833621f, -0.05026806f, -0.06983981f, 0.04739667f, -0.07259298f, 0.01106017f, 0.05461692f,
    0.07986563f, 0.07975578f, -0.04330521f, -0.02492543f, -0.01968956f, 0.03263692f, -0.02424611f, -0.00119341f,
    0.02384371f, 0.00853884f, 0.02194150f, -0.00886894f, -0.00149270f, 0.07354070f, -0.01248976f, 0.00151977f,
    -0.04923306f, -0.04432180f, 0.04675049f, 0.03832420f, -0.01698138f, -0.01686425f, -0.01593398f, 0.01455294f,
    -0.00873206f, 0.03982551f, 0.05738023f, 0.02158826f, -0.05186695f, 0.07227738f, -0.00970816f, 0.03933064f,
    0.04198583f, -0.00581433f, -0.06896813f, 0.06548448f, -0.08071748f, -0.02556629f, -0.01193956f, -0.01515133f,
    0.00631821f, 0.02278119f, 0.06816940f, 0.05173953f, -0.03838113f, 0.02579271f, 0.03767814f, 0.05475251f,
    0.05478376f, 0.04611217f, 0.05564378f, -0.04551165f, 0.06357847f, 0.01798375f, -0.04316521f, -0.04472588f,
    0.06765127f, 0.05655525f, 0.05247167f, -0.03376368f, -0.06726342f, 0.00825067f, 0.06146117f, -0.04181435f,
    -0.04657548f, -0.05725776f, -0.06911700f, 0.04534917f, 0.01045516f, -0.07254939f, 0.07124683f, 0.07319102f,
    0.04905831f, -0.00618568f, 0.00950213f, -0.04431879f, -0.05882745f, -0.00970448f, 0.03616177f, -0.06303964f,
    0.06987585f, 0.08139003f, 0.05000849f, 0.02983765f, 0.07996281f, -0.07837957f, 0.01129733f, -0.01602773f,
    -0.00477571f, -0.05769722f, 0.00656971f, 0.04581223f, -0.04581926f, -0.01357493f, 0.02286093f, -0.05352027f,
    -0.07734229f, 0.02959497f, -0.00251359f, 0.01789343f, -0.01948555f, 0.00816836f, -0.06969914f, -0.00122433f,
    -0.07795934f, -0.00018889f, -0.06142455f, 0.03620685f, 0.02183319f, -0.04460503f, -0.03162783f, 0.02301726f,
    -0.05172718f, 0.08108150f, -0.07925078f, -0.04476829f, -0.00390670f, 0.03229579f, 0.03970813f, -0.04206489f,
    -0.07753345f, -0.06663986f, 0.06657721f, -0.00444803f, 0.05713690f, -0.05374064f, -0.07301553f, -0.05895191f,
    0.05594499f, 0.05721543f, -0.07903618f, -0.06144348f, -0.02292241f, -0.05794629f, -0.02199356f, 0.07667325f,
    -0.03648740f, 0.02018550f, -0.00423912f, -0.07399012f, 0.01466081f, 0.05922804f, -0.01465267f, -0.05924341f,
    -0.03591481f, 0.04041725f, -0.00636080f, 0.06850610f, -0.01261404f, -0.05388533f, 0.02774434f, -0.07053522f,
    -0.03974579f, -0.04240047f, -0.06661517f, -0.05605632f, -0.00711079f, -0.00175090f, -0.02125997f, -0.03149762f,
    0.07605216f, -0.03056017f, -0.06730983f, -0.02227068f, -0.01895486f, -0.03512499f, 0.07062021f, 0.01821280f,
    -0.05135476f, -0.00034416f, -0.06005740f, 0.03707952f, 0.04062230f, 0.03820801f, 0.05405265f, -0.00279514f,
    0.04382186f, -0.03253656f, -0.02525910f, 0.07637486f, 0.03145935f, -0.04282578f, 0.03264080f, 0.03957303f,
    -0.02427021f, -0.04904293f, -0.03724138f, -0.06008358f, -0.02269278f, 0.02187549f, -0.01663662f, -0.02678051f,
    0.04785492f, -0.01331913f, -0.02936484f, 0.06267000f, 0.06593931f, -0.04056923f, -0.03876369f, 0.07591660f,
    0.06581385f, -0.05359920f, 0.03786350f, 0.05145099f, -0.05225891f, 0.03396620f, 0.02606642f, 0.07554109f,
    0.06646552f, 0.01863875f, 0.02524773f, 0.02779695f, -0.04239183f, 0.00813336f, 0.02044160f, -0.04443397f,
    -0.01472612f, 0.00558558f, -0.05952798f, 0.04189001f, -0.07463489f, -0.01305692f, -0.00271689f, 0.03478161f,
    -0.01594296f, -0.03165443f, -0.03119979f, 0.02425679f, 0.04235689f, 0.03294205f, -0.00983173f, -0.01678334f,
    0.02528819f, -0.07047280f, 0.00767871f, 0.07106858f, 0.05166733f, 0.07483739f, -0.02986316f, 0.07391405f,
    -0.04113702f, 0.01816566f, 0.07613447f, -0.04273183f, 0.03178770f, 0.00725216f, -0.07327765f, -0.00982014f,
    -0.05025541f, -0.02443803f, 0.07565532f, -0.02964370f, 0.06075339f, -0.04665219f, -0.02410132f, -0.03842621f,
    -0.00797578f, 0.00563247f, -0.05687993f, 0.06335462f, 0.04727966f, 0.05947328f, 0.04930104f, -0.00125133f,
    0.06360257f, 0.06331433f, -0.07976214f, -0.06069267f, 0.05604855f, -0.05555776f, 0.03029184f, 0.01875522f,
    -0.03465604f, -0.00437330f, -0.00146894f, -0.05079914f, -0.06735808f, -0.04489525f, -0.07944065f, 0.05849904f,
    0.02978545f, -0.01687952f, -0.04126706f, -0.03536803f, -0.06805597f, -0.02351550f, 0.07453096f, 0.03376706f,
    0.05450042f, -0.06726176f, 0.06197518f, 0.02802418f, 0.02457072f, -0.04560446f, -0.08014473f, 0.00112327f,
    -0.02806244f, -0.04678023f, -0.05095130f, 0.00345624f, -0.05437979f, 0.06898139f, -0.02549142f, -0.05484134f,
    0.02225649f, -0.01347281f, 0.03323258f, -0.03823390f, -0.04442845f, -0.02393682f, 0.07619262f, 0.04294152f,
    -0.06198085f, 0.00144207f, 0.06067248f, 0.05532539f, -0.03238822f, 0.04066959f, 0.04517412f, 0.03408156f,
    -0.06533243f, 0.04747260f, 0.04397144f, 0.00530665f, 0.00143636f, 0.05250030f, 0.01930910f, -0.05501360f,
    0.01762148f, 0.00901344f, 0.02800074f, 0.04467095f, -0.03285457f, 0.04927411f, 0.04738797f, -0.00289432f,
    -0.06296229f, 0.01744648f, 0.07673923f, 0.02761120f, -0.02155405f, 0.06280694f, 0.00416107f, 0.03517832f,
    -0.05930435f, -0.05032826f, 0.02560182f, -0.04913551f, 0.07175195f, -0.04194805f, 0.01068643f, -0.03767562f,
    0.07131317f, -0.00027950f, 0.00416169f, 0.06560427f, 0.02856394f, -0.07901927f, 0.06615919f, -0.02860478f,
    0.04743103f, -0.03784678f, 0.05895327f, 0.04795412f, -0.01676723f, 0.00926616f, 0.01445290f, -0.00437818f,
    0.03217245f, -0.06921656f, -0.05095482f, -0.04345988f, -0.07941853f, -0.00017202f, -0.03869739f, -0.06905212f,
    0.06878339f, -0.04576300f, -0.00137427f, -0.02551770f, 0.05345114f, -0.03934013f, 0.04679131f, 0.06174300f,
    -0.00843483f, -0.03907347f, -0.05026487f, 0.07644191f, -0.03274688f, -0.01596767f, 0.06350251f, 0.07181215f,
    0.00915815f, -0.04283613f, 0.01867857f, 0.02392582f, -0.04883768f, -0.04906509f, 0.03942444f, 0.07036256f,
    0.04315792f, 0.05698293f, 0.03313520f, -0.00963651f, 0.03639120f, 0.04945568f, 0.04415670f, -0.08108849f,
    0.00615861f, 0.04836966f, 0.05334533f, -0.00122643f, -0.05530947f, -0.02235179f, -0.03850351f, -0.08131565f,
    0.00809682f, -0.03605098f, -0.01412382f, 0.05054058f, -0.03489659f, 0.07311945f, 0.05974122f, 0.00759220f,
    -0.06471030f, 0.02180407f, 0.00910782f, -0.03523947f, -0.03751607f, 0.04744958f, -0.01270082f, 0.03201091f,
    -0.03014014f, 0.05777410f, -0.01232577f, -0.06249817f, -0.07884853f, 0.06508296f, 0.04696624f, -0.04786479f,
    -0.05786990f, 0.06779387f, 0.00757105f, -0.05498385f, -0.05580181f, 0.05986939f, 0.02875021f, -0.07142302f,
    -0.04032416f, -0.02726133f, -0.06823535f, -0.01238206f, 0.03628538f, 0.01161195f, -0.07883303f, 0.02766934f,
    -0.05657423f, -0.01823973f, 0.05604079f, -0.05112563f, 0.06812087f, -0.06120790f, -0.05270204f, 0.06939568f,
    0.04974004f, 0.04584450f, 0.07655276f, -0.06469063f, 0.02600227f, 0.00264488f, 0.05038470f, -0.04627528f,
    0.04107837f, -0.02527322f, -0.03911639f, 0.04311073f, 0.04528750f, -0.02144137f, -0.02967674f, 0.04678483f,
    0.06446489f, 0.07331190f, 0.07924969f, 0.05792543f, 0.05166506f, -0.05549019f, -0.05745263f, 0.00056343f,
    0.01490301f, 0.05357331f, 0.00900856f, 0.03091984f, -0.05239978f, 0.02571059f, 0.00971160f, -0.00597803f,
    -0.07205883f, 0.07757518f, 0.01216973f, 0.01524993f, 0.01868771f, -0.00384543f, -0.06763738f, -0.00851497f,
    -0.00334491f, -0.05363169f, 0.04850675f, 0.03694493f, 0.03593978f, 0.02949362f, 0.03360906f, -0.05563617f,
    0.05533135f, 0.07429859f, -0.00556884f, 0.01815709f, -0.03275489f, 0.00969946f, -0.02392040f, 0.00974321f,
    0.06738411f, 0.04336201f, 0.06944846f, -0.05894846f, -0.00577586f, 0.04838635f, 0.03433888f, 0.05397816f,
    0.05222699f, 0.06457499f, 0.02322735f, -0.04728300f, 0.07384947f, 0.03135443f, -0.05592519f, 0.06042696f,
    0.07700100f, -0.05148558f, 0.00586388f, 0.08094424f, -0.00183663f, 0.07683071f, 0.03689863f, -0.06911595f,
    0.04617653f, -0.03043575f, -0.04891860f, 0.04922272f, -0.00130221f, -0.02831502f, 0.04746032f, -0.05215552f,
    0.01098637f, -0.06597857f, 0.06755162f, 0.01819239f, 0.05011687f, -0.05652375f, -0.02070109f, -0.04643302f,
    0.00829663f, 0.02423073f, -0.06181903f, 0.05726168f, 0.02369855f, 0.05412532f, -0.05518771f, -0.03580359f,
    -0.05118902f, -0.00487126f, 0.06913515f, -0.05498930f, 0.01472577f, -0.02095670f, 0.04411174f, 0.06567293f,
    -0.03590647f, -0.06450067f, -0.06832662f, -0.07944858f, 0.05988134f, 0.04416957f, -0.05524834f, -0.03562398f,
    -0.05278159f, -0.05878565f, -0.02600900f, -0.04758136f, 0.03117490f, 0.01433045f, 0.04795335f, -0.00267856f,
    -0.03500610f, 0.03859411f, 0.07160150f, -0.03904209f, -0.03037121f, -0.07869016f, 0.00770812f, -0.05264550f,
    -0.06232941f, -0.04098070f, -0.07364246f, 0.06299043f, 0.01035967f, 0.06412465f, 0.06842821f, 0.01681725f,
    -0.04569339f, -0.00941031f, 0.04405686f, 0.04076500f, -0.04601419f, 0.05351885f, 0.02684446f, -0.03605324f,
    -0.02660384f, -0.06248499f, 0.01733390f, -0.03146494f, -0.02758249f, -0.02776486f, 0.05496382f, 0.04924908f,
    -0.05263188f, 0.03720362f, -0.00046438f, 0.03541293f, 0.03893197f, 0.00563385f, 0.03802061f, 0.02282313f,
    0.07414811f, -0.01223022f, -0.07411519f, 0.01481138f, 0.00966096f, -0.01452212f, 0.07499687f, 0.00721216f,
    0.07578834f, -0.02655167f, 0.04014472f, 0.00605907f, -0.04203400f, 0.03714947f, -0.06188940f, -0.02887741f,
    0.04945575f, -0.06459560f, 0.05525395f, -0.05717215f, 0.01017074f, 0.01270739f, -0.00181912f, -0.04472596f,
    0.04872472f, -0.03031144f, -0.07855478f, 0.02255931f, 0.04898271f, -0.00210068f, -0.02376380f, -0.06944182f,
    -0.04681532f, 0.04190338f, 0.01053661f, -0.07516202f, 0.04357050f, -0.02812474f, -0.00081293f, 0.03347867f,
    -0.00708326f, 0.00688034f, 0.03628509f, 0.01709156f, -0.00969066f, 0.04970333f, 0.03664178f, 0.05761802f,
    0.00493678f, 0.07901909f, 0.03494630f, 0.01488180f, 0.07985172f, 0.05124846f, 0.00628126f, 0.06743610f,
    -0.02529001f, -0.07513573f, 0.05198936f, 0.01573480f, 0.04667469f, 0.04333504f, 0.07745901f, -0.00610010f,
    0.00654225f, 0.04325385f, 0.00390142f, -0.08096263f, 0.00965674f, -0.06084198f, 0.00540833f, -0.00573272f,
    -0.03893879f, 0.03170398f, 0.03660481f, 0.01197981f, -0.07094467f, 0.01867112f, 0.05939311f, -0.06001867f,
    -0.00835715f, -0.02235886f, -0.05929475f, 0.03758534f, 0.03793859f, 0.02006032f, 0.07905901f, -0.00604508f,
    0.03088328f, 0.01763846f, 0.01908837f, 0.07887162f, -0.00780247f, 0.04960772f, -0.00278118f, 0.02196337f,
    -0.04781248f, -0.00321684f, -0.02293020f, -0.03387203f, 0.02870114f, -0.05056925f, -0.07896490f, -0.02433210f,
    -0.01413288f, -0.05128609f, 0.06764013f, 0.07151046f, -0.06580285f, -0.03321422f, -0.05829512f, 0.05188415f,
    -0.07040323f, 0.06720640f, -0.02179359f, 0.04532819f, -0.01253834f, 0.06614602f, 0.03322164f, 0.04271818f,
    0.04248357f, -0.02903055f, -0.07306837f, 0.01105485f, 0.06419978f, -0.05041382f, 0.01914866f, -0.05014650f,
    -0.03832876f, 0.08091552f, 0.02324199f, -0.00276781f, -0.02390867f, 0.05338605f, -0.04033557f, 0.04439292f,
    0.06643625f, -0.07606629f, -0.07284871f, 0.05363690f, 0.07374812f, -0.06752139f, -0.01483503f, -0.05626668f,
    -0.06789619f, 0.02136887f, -0.04137490f, 0.05133750f, 0.05654957f, -0.07240754f, -0.05362317f, -0.05982062f,
    -0.07132681f, 0.06848074f, -0.06174468f, 0.03424252f, 0.05400148f, 0.05743948f, 0.00086396f, -0.05616824f,
    -0.04762262f, 0.06461706f, -0.04195540f, 0.07543616f, -0.00277421f, 0.02221373f, -0.04636028f, -0.02672552f,
    -0.02447275f, -0.07990374f, -0.01706185f, 0.06572822f, -0.01457919f, -0.02319385f, 0.04292932f, -0.02904484f,
    -0.04757175f, 0.01455898f, 0.00411950f, -0.00824045f, -0.05885945f, -0.02005686f, -0.03505405f, 0.06694917f,
    0.06617196f, 0.07249074f, -0.07851833f, -0.05497106f, -0.03610102f, 0.05285405f, -0.05015361f, -0.06488168f,
    -0.06970739f, -0.06756516f, 0.01394019f, -0.04014071f, 0.07990752f, -0.02882115f, -0.05824503f, -0.04410269f,
    0.03994026f, -0.00742544f, 0.00088300f, 0.04739716f, -0.06351399f, -0.04454727f, 0.07426295f, -0.05034143f,
    -0.04790139f, 0.03389861f, -0.04412922f, 0.05220435f, 0.03057983f, -0.00973965f, -0.01893708f, -0.04096035f,
    -0.02004022f, -0.03953872f, 0.06576286f, 0.06314793f, -0.06915480f, -0.07587420f, -0.06100032f, -0.07817103f,
    -0.07576783f, 0.00304664f, 0.05935691f, -0.04174234f, 0.01123372f, 0.08116098f, 0.03514418f, -0.06513406f,
    -0.00974689f, 0.01113001f, 0.07094833f, -0.06618484f, 0.07278836f, -0.02631812f, -0.00969915f, 0.01546577f,
    -0.00584690f, 0.00925097f, 0.01935427f, -0.02709152f, -0.00546417f, -0.04713350f, -0.02631093f, 0.00922360f,
    -0.02682057f, 0.02493763f, 0.02370298f, 0.06892981f, 0.01802565f, 0.05751861f, -0.01424515f, 0.02503333f,
    -0.01445588f, -0.02011500f, 0.00060367f, -0.04275712f, -0.03448667f, -0.03266657f, 0.02930716f, -0.00423889f,
    0.03279743f, -0.00073993f, -0.02851664f, 0.07170703f, -0.06581532f, 0.00519510f, -0.08128621f, -0.01837126f,
    -0.06821107f, -0.03286036f, 0.03775582f, -0.05064939f, 0.06346206f, 0.04412386f, -0.00642513f, 0.06899225f,
    -0.00967764f, 0.04870817f, 0.06020658f, 0.00146297f, -0.04098486f, 0.05637985f, -0.07509965f, -0.05324727f,
    0.07150096f, -0.02149343f, -0.07029585f, -0.02126310f, 0.05265707f, -0.05390459f, -0.02137667f, -0.03912695f,
    0.07741407f, 0.06868549f, 0.02521486f, -0.05190684f, 0.05841428f, -0.00593223f, -0.05164671f, 0.06139146f,
    -0.01456474f, 0.04139145f, 0.05109889f, -0.00644606f, 0.02807483f, 0.06870649f, -0.00956861f, 0.00263979f,
    -0.03332053f, -0.06365956f, -0.03347595f, -0.03065240f, 0.02855244f, -0.00939677f, 0.00939640f, -0.01090060f,
    -0.05831188f, -0.04406703f, -0.03494915f, 0.05037374f, 0.02333581f, 0.04966187f, 0.01400563f, -0.01489622f,
    0.04269483f, 0.03743750f, 0.01759872f, 0.04347445f, -0.04417088f, 0.04016217f, 0.05001022f, 0.03312201f,
    -0.07021490f, 0.02692507f, -0.06858611f, 0.04446478f, -0.05176095f, 0.05574451f, 0.05907223f, 0.06113634f,
    0.03658273f, 0.03770667f, -0.04162256f, -0.02472978f, -0.03160295f, -0.01983703f, 0.07868931f, -0.03474341f,
    0.07474703f, 0.05794501f, -0.02157865f, -0.08003188f, 0.07134749f, -0.04549689f, 0.04442825f, -0.03566428f,
    0.08119365f, -0.04519225f, -0.00792385f, 0.02134835f, 0.00749135f, 0.05147043f, 0.07520565f, -0.00336914f,
    -0.08127236f, 0.06901098f, -0.07594310f, -0.03577076f, 0.03874798f, 0.01682279f, 0.07820365f, 0.04577877f,
    0.07169817f, -0.07600942f, 0.05724280f, 0.00340625f, 0.05629402f, 0.03932850f, 0.04071083f, -0.04574040f,
    0.04938814f, -0.08088747f, 0.04340845f, 0.07817724f, 0.06050964f, -0.01518309f, 0.04670479f, -0.04945220f,
    -0.03822094f, -0.05011411f, 0.02134538f, 0.02004753f, -0.00785299f, 0.02417809f, -0.07340696f, -0.03857456f,
    0.08115516f, -0.07839260f, 0.07440351f, -0.02765221f, 0.07788876f, 0.02449171f, -0.00329381f, 0.01581641f,
    -0.05668931f, -0.04865259f, -0.02011003f, -0.05455393f, -0.03551058f, -0.07052268f, -0.01788351f, -0.07566708f,
    -0.03363498f, -0.05253191f, -0.00276600f, -0.03357671f, 0.05904994f, 0.07303008f, -0.06312015f, -0.02303852f,
    -0.06171620f, 0.01500324f, -0.04675448f, -0.07655399f, 0.06503890f, 0.01571332f, -0.06440265f, -0.03851076f,
    0.01400312f, -0.05051155f, 0.06382002f, 0.05034954f, -0.07117660f, 0.06220371f, -0.08132931f, 0.00260771f,
    0.04798067f, 0.05931682f, -0.03542154f, -0.02416981f, -0.06525841f, -0.01137475f, 0.00740385f, -0.04791215f,
    -0.00518103f, -0.03115476f, 0.04010507f, 0.07341238f, 0.03182480f, 0.00105346f, 0.03167671f, -0.01442565f,
    0.02416373f, -0.01211880f, -0.01178057f, 0.03733153f, -0.07651413f, -0.05694083f, -0.00401397f, -0.07224856f,
    -0.01852407f, 0.00989834f, 0.03822769f, 0.01318112f, -0.02794996f, -0.02900949f, 0.07515587f, 0.07128070f,
    0.04196200f, 0.03499603f, 0.02167597f, 0.00018819f, -0.04430007f, -0.03446417f, -0.07669710f, -0.00398125f,
    -0.07715504f, 0.04806110f, -0.02652723f, -0.04095760f, -0.01401388f, -0.03440047f, 0.04148861f, -0.06716630f,
    -0.04756813f, 0.01997697f, -0.07423528f, -0.00044558f, -0.01220138f, 0.05033458f, 0.06259805f, -0.05170223f,
    -0.00341633f, -0.04281028f, -0.05434536f, -0.01014616f, -0.04348822f, 0.02222884f, 0.02120882f, 0.06122275f,
    0.00624973f, -0.04096070f, -0.03340469f, 0.04510625f, -0.05341846f, -0.01579923f, 0.07358646f, -0.05208930f,
    0.03015803f, -0.01411182f, 0.06095584f, 0.06244322f, -0.01354701f, 0.08031400f, 0.00129124f, -0.08160424f,
    0.02074829f, 0.03934611f, -0.03128789f, -0.01987339f, -0.03560741f, -0.02475695f, 0.04541255f, -0.00254378f,
    0.01550314f, 0.00280739f, 0.06184174f, 0.00784789f, 0.06420343f, 0.05282414f, 0.01656558f, -0.05818035f,
    -0.03129856f, 0.05393423f, -0.05013734f, -0.00135356f, -0.03713751f, 0.06120319f, -0.06765798f, 0.08034970f,
    0.02954669f, -0.05278582f, -0.02193023f, 0.03726323f, -0.03027934f, -0.01347590f, -0.04059071f, -0.00788143f,
    0.00316319f, 0.03518311f, -0.01838660f, -0.00712342f, -0.04780463f, -0.01748594f, -0.01491104f, -0.08062684f,
    0.03627232f, 0.01653179f, -0.02101790f, 0.06373860f, -0.00877001f, -0.04084000f, -0.00543561f, -0.02172102f,
    0.02181088f, -0.01805633f, 0.02562413f, 0.00921522f, -0.04169086f, -0.02479148f, -0.04150051f, 0.06236224f,
    0.04882421f, 0.05609097f, 0.05241816f, -0.07616723f, 0.06817655f, -0.02609666f, -0.03201454f, 0.05830581f,
    -0.00442770f, 0.02029295f, 0.00572744f, 0.00380634f, 0.04424241f, -0.04088862f, 0.06527338f, 0.07087707f,
    0.04285290f, -0.05868077f, 0.08013921f, 0.02165302f, 0.00805321f, 0.07015115f, -0.03093589f, 0.00713237f,
    -0.06276943f, -0.06032278f, -0.00220990f, -0.05391318f, 0.06040250f, -0.01337847f, -0.06169927f, -0.04928104f,
    -0.03885556f, -0.01434401f, 0.03449538f, -0.00147960f, -0.01140172f, 0.03641638f, -0.03394493f, -0.02776087f,
    -0.06656397f, 0.06814744f, 0.01954158f, -0.02663722f, 0.07255097f, -0.03945608f, -0.03674831f, 0.00126057f,
    -0.00517352f, 0.07946219f, 0.03263474f, 0.03208836f, 0.06307344f, 0.04969883f, -0.07928864f, 0.06458002f,
    0.05949056f, -0.04393258f, 0.01819268f, 0.07007547f, 0.05493912f, 0.07790641f, -0.05964214f, 0.01161630f,
    -0.00652000f, 0.05590948f, 0.03657490f, 0.02367472f, -0.00791630f, -0.03011484f, -0.06438340f, -0.02391645f,
    0.02977135f, 0.05106520f, -0.02648313f, -0.02467941f, -0.07302052f, 0.06545279f, -0.03134062f, -0.06536534f,
    -0.03644218f, -0.07355726f, 0.05772604f, -0.03384313f, 0.06345714f, -0.07335500f, -0.01886736f, 0.00997675f,
    -0.02141661f, -0.02191116f, -0.00783301f, -0.07281127f, -0.06133197f, 0.06628329f, 0.04475482f, -0.00572651f,
    0.02478382f, -0.04501522f, 0.06425437f, 0.07871211f, 0.04312148f, 0.04869070f, -0.00035185f, 0.05394825f,
    -0.03559947f, 0.05347767f, -0.04215000f, 0.07310692f, 0.04086562f, 0.04240028f, -0.04280574f, 0.02878421f,
    -0.05350300f, 0.02261441f, 0.00227633f, -0.07291938f, 0.00193325f, -0.08030729f, -0.02495213f, 0.03584374f,
    -0.07737407f, 0.01668933f, 0.06808855f, -0.02766762f, 0.04413491f, -0.04127629f, -0.04243630f, -0.03758509f,
    0.01105190f, 0.06135328f, 0.00802512f, 0.06705493f, 0.04131043f, 0.04295535f, 0.02145589f, 0.06402896f,
    0.00610505f, -0.05167028f, 0.02641262f, 0.06758776f, -0.00678798f, -0.02124632f, 0.00445880f, 0.06881545f,
    0.05724235f, -0.00588138f, -0.06977428f, -0.03469017f, -0.02492625f, 0.07495311f, -0.02280492f, -0.03126749f,
    -0.03956662f, 0.03561451f, -0.00966916f, -0.02291481f, 0.03298661f, 0.07023479f, -0.06292555f, 0.06313850f,
    0.05409409f, 0.03264987f, -0.03186117f, -0.03009920f, 0.03296565f, 0.03064610f, 0.07959421f, 0.04507434f,
    0.06755038f, 0.02677800f, -0.03975305f, 0.03310337f, -0.03809694f, 0.04971296f, -0.07565542f, -0.07185682f,
    0.03149360f, -0.05432128f, 0.03665976f, 0.00445624f, -0.06417430f, -0.06789991f, 0.06221829f, 0.02420855f,
    -0.02923469f, 0.06915092f, 0.01980234f, 0.04753259f, -0.03299879f, -0.02598676f, -0.03034544f, -0.00181639f,
    0.03885460f, 0.05231977f, -0.05747779f, -0.00192137f, -0.01099597f, 0.07045757f, -0.04819101f, 0.07304882f,
    0.03070712f, -0.04378292f, -0.01215001f, -0.06720999f, 0.07018864f, 0.07120834f, -0.01319488f, 0.06374387f,
    -0.02196281f, -0.02701180f, -0.01795774f, 0.05017482f, -0.08097629f, -0.06040624f, 0.00909065f, -0.04626746f,
    0.00590773f, -0.06326680f, -0.03840142f, -0.03614704f, 0.01285618f, 0.01520565f, -0.03873627f, -0.02941868f,
    0.07035593f, -0.01329461f, -0.01353050f, 0.04647526f, 0.02019356f, 0.04603601f, -0.05328089f, -0.07580330f,
    -0.07791411f, 0.00427200f, -0.04189270f, 0.00930841f, -0.03830539f, 0.07654072f, -0.05956086f, 0.00990180f,
};

// Shape: (16,), dtype: float32
static const float stem_bn_gamma[16] = {
    1.00000000f, 1.00000000f, 1.00000000f, 1.00000000f, 1.00000000f, 1.00000000f, 1.00000000f, 1.00000000f,
    1.00000000f, 1.00000000f, 1.00000000f, 1.00000000f, 1.00000000f, 1.00000000f, 1.00000000f, 1.00000000f,
};

// Shape: (16,), dtype: float32
static const float stem_bn_beta[16] = {
    0.00000000f, 0.00000000f, 0.00000000f, 0.00000000f, 0.00000000f, 0.00000000f, 0.00000000f, 0.00000000f,
    0.00000000f, 0.00000000f, 0.00000000f, 0.00000000f, 0.00000000f, 0.00000000f, 0.00000000f, 0.00000000f,
};

// Shape: (16,), dtype: float32
static const float stem_bn_mean[16] = {
    0.00000000f, 0.00000000f, 0.00000000f, 0.00000000f, 0.00000000f, 0.00000000f, 0.00000000f, 0.00000000f,
    0.00000000f, 0.00000000f, 0.00000000f, 0.00000000f, 0.00000000f, 0.00000000f, 0.00000000f, 0.00000000f,
};

// Shape: (16,), dtype: float32
static const float stem_bn_var[16] = {
    1.00000000f, 1.00000000f, 1.00000000f, 1.00000000f, 1.00000000f, 1.00000000f, 1.00000000f, 1.00000000f,
    1.00000000f, 1.00000000f, 1.00000000f, 1.00000000f, 1.00000000f, 1.00000000f, 1.00000000f, 1.00000000f,
};

// Shape: (3, 3, 16, 16), dtype: float32
static const float stage0_block0_conv1_weight[2304] = {
    -0.08151181f, -0.07728561f, 0.00517048f, -0.01872861f, -0.03842686f, 0.05903265f, 0.05214667f, 0.03487861f,
    -0.06214280f, -0.03055325f, 0.06727700f, -0.04828629f, 0.06700671f, 0.03902175f, -0.02276376f, -0.03232511f,
    -0.04363131f, -0.01978239f, 0.01952561f, 0.00517691f, 0.01602562f, -0.01175411f, -0.04273292f, 0.00125991f,
    0.02256861f, -0.00445115f, -0.04466372f, 0.00973210f, -0.07924455f, 0.00872180f, 0.06937935f, -0.07413229f,
    -0.07541943f, -0.04042951f, 0.06033343f, -0.05289134f, 0.05672639f, 0.04945242f, -0.08005505f, -0.07603113f,
    -0.08219768f, -0.05469498f, 0.07246947f, 0.04315103f, 0.01969510f, 0.00265233f, -0.00670515f, -0.06467044f,
    0.05398392f, 0.05495809f, -0.03793883f, -0.05038749f, 0.00819360f, -0.03813557f, -0.02387750f, -0.03371793f,
    -0.01707974f, -0.03970699f, -0.02957146f, 0.06201919f, -0.07610522f, 0.00597413f, -0.03571983f, -0.02854337f,
    -0.02736910f, -0.07118314f, 0.01233514f, -0.03677271f, -0.06588490f, -0.02251731f, -0.08162766f, -0.04717852f,
    -0.08279356f, 0.00521253f, 0.02314295f, -0.05795362f, 0.06250204f, 0.03907175f, -0.00185475f, -0.03899981f,
    0.02264393f, 0.05575570f, 0.06928226f, 0.07975657f, -0.04823593f, 0.04599163f, -0.07257389f, -0.04898639f,
    -0.05052612f, 0.00354853f, -0.07980712f, -0.03766134f, -0.04411091f, -0.07702886f, -0.07640474f, 0.04135539f,
    0.07787623f, 0.07896554f, -0.05266271f, -0.04626159f, -0.02060614f, 0.08241485f, 0.03325788f, 0.01408892f,
    -0.03435181f, -0.05426274f, 0.01178113f, -0.04659564f, 0.04861089f, -0.04579709f, 0.03586476f, -0.07047002f,
    0.07722926f, -0.03839230f, -0.05328282f, 0.04321843f, -0.05848471f, 0.01640528f, 0.05535316f, 0.00412347f,
    0.03243421f, -0.00705721f, -0.05519541f, 0.07247511f, 0.04763735f, 0.08216037f, -0.05516478f, 0.03806707f,
    -0.05320674f, -0.04862429f, 0.07314893f, -0.07299441f, 0.06800043f, -0.07361981f, -0.07135706f, 0.02368057f,
    0.00398696f, -0.05239847f, -0.01923658f, 0.07942280f, -0.03297174f, 0.04390824f, 0.00806902f, 0.02985803f,
    -0.00733164f, 0.00085969f, 0.06734257f, 0.00356219f, 0.06782433f, -0.01595053f, -0.06137223f, 0.00560701f,
    0.08093252f, -0.02763236f, 0.05053828f, -0.02404097f, 0.01070976f, -0.08050820f, 0.05034214f, -0.03745924f,
    -0.06687930f, -0.06063750f, -0.06117811f, 0.00867621f, 0.06775114f, 0.02105827f, -0.05713585f, -0.00011084f,
    -0.04606035f, 0.00811471f, 0.03299540f, 0.06810163f, 0.01487209f, 0.01434254f, 0.00254293f, 0.04846566f,
    -0.01271934f, -0.03772604f, -0.07875361f, 0.05419740f, -0.02542366f, -0.05834802f, -0.04861071f, -0.01271700f,
    -0.05241270f, -0.01934214f, -0.03234240f, 0.05312815f, -0.04570977f, 0.00471464f, -0.07212588f, 0.06376600f,
    -0.03344747f, 0.04293751f, -0.06385738f, -0.01766706f, -0.05985986f, 0.03936671f, 0.03264093f, -0.01913311f,
    -0.04426534f, -0.00389053f, 0.02992424f, -0.08220226f, 0.01904282f, 0.08170491f, -0.00867156f, 0.04352906f,
    -0.02866406f, -0.04504135f, -0.08046857f, 0.04347705f, -0.00588628f, -0.02321826f, -0.05187273f, -0.05786879f,
    0.03767794f, 0.04286688f, 0.03240558f, -0.05934139f, 0.06539341f, 0.06836389f, -0.02915324f, -0.03290047f,
    0.01553278f, -0.00731240f, -0.01185991f, -0.07715347f, -0.02979015f, 0.06180620f, 0.06285583f, -0.05034609f,
    -0.01834449f, -0.04035038f, 0.03214162f, 0.00083621f, 0.01590807f, -0.05101261f, -0.07331687f, -0.01486788f,
    -0.08219022f, -0.04592705f, 0.05475816f, 0.06803331f, -0.05601631f, -0.00532201f, -0.04363638f, -0.07477652f,
    0.03340481f, 0.02994022f, -0.03937966f, -0.03061356f, 0.01375540f, 0.00094214f, 0.06742594f, 0.05126866f,
    -0.03084491f, 0.05684393f, -0.05313387f, 0.06391373f, 0.08060703f, 0.07541806f, 0.05108713f, -0.01588410f,
    -0.03791350f, -0.06975483f, -0.00900774f, 0.03710565f, -0.00713851f, -0.07534032f, 0.05955990f, -0.02896361f,
    -0.05362296f, -0.03736240f, 0.00128251f, -0.02806692f, -0.04985771f, -0.03659527f, 0.04701382f, 0.06501877f,
    0.01219107f, -0.00345749f, -0.02238084f, 0.08070582f, -0.07732841f, -0.07838750f, 0.04213915f, -0.01126538f,
    0.05132739f, 0.01762398f, 0.04741735f, -0.02521770f, 0.01061171f, 0.02455033f, 0.04685151f, 0.01582648f,
    0.05887266f, -0.00917565f, 0.03325536f, -0.07561290f, -0.07103448f, -0.01827377f, -0.07196610f, -0.07976608f,
    0.07838432f, 0.07904815f, -0.00068758f, -0.01595435f, -0.00130485f, 0.06710666f, 0.06222060f, 0.04830884f,
    -0.04892450f, -0.02201442f, -0.03302624f, -0.01411656f, 0.06309378f, 0.04614938f, -0.03791859f, 0.03228221f,
    0.03709991f, -0.00321594f, -0.07367011f, 0.00884369f, -0.05800831f, -0.00758477f, 0.06328546f, -0.01167765f,
    -0.05513760f, -0.08067226f, -0.07313187f, 0.03582942f, -0.04837945f, -0.05751415f, -0.06472185f, 0.02363627f,
    -0.03819605f, -0.01315745f, -0.05629971f, -0.06624813f, 0.01285435f, 0.01812975f, -0.05831974f, 0.06167362f,
    0.00477357f, -0.00668070f, 0.07064061f, 0.07022369f, -0.00591159f, 0.07390764f, -0.03254577f, -0.04798983f,
    -0.01057906f, -0.05007873f, 0.06119143f, 0.07127059f, 0.04625914f, -0.03816802f, 0.06498684f, -0.03055911f,
    -0.01276896f, 0.01423241f, 0.02290389f, 0.07819006f, 0.05937496f, -0.05271226f, -0.04092596f, 0.03888724f,
    -0.00854242f, 0.00262541f, -0.02191973f, -0.04776320f, -0.00932380f, -0.01144859f, -0.00736789f, -0.03350106f,
    0.04091977f, 0.04216099f, 0.06757214f, -0.00373605f, -0.05503596f, 0.00602597f, -0.03954801f, 0.03827339f,
    0.02763391f, -0.00558644f, 0.04474617f, -0.02640782f, 0.03354281f, -0.02513531f, 0.05106745f, -0.03467126f,
    0.07573296f, 0.07837703f, 0.00652495f, -0.04613978f, 0.05877206f, -0.06843707f, -0.06712144f, -0.04998951f,
    0.02562324f, 0.05921892f, 0.08219454f, 0.08168747f, 0.03198668f, 0.03476162f, -0.00422523f, 0.04431137f,
    -0.02000108f, -0.05504791f, 0.00527167f, 0.02889755f, 0.06741055f, 0.07779794f, -0.03841358f, -0.02347454f,
    0.01904930f, 0.06134557f, -0.07101180f, -0.05218944f, -0.04475033f, -0.03738793f, -0.02815570f, -0.01009025f,
    0.03602513f, -0.02744985f, -0.05595535f, 0.02361547f, -0.01846798f, 0.00970316f, 0.06398945f, -0.07547632f,
    -0.01532367f, 0.01759947f, -0.00889571f, -0.03340242f, 0.06749363f, -0.07625296f, 0.01468617f, -0.00997458f,
    0.04301028f, 0.07519480f, -0.07694213f, -0.05145081f, 0.06398477f, 0.05868030f, 0.05241851f, 0.01288148f,
    -0.03104709f, -0.01781267f, -0.03154082f, -0.05800280f, -0.04866575f, -0.02135184f, 0.01809615f, -0.01561040f,
    0.04175544f, 0.05495148f, -0.05517772f, -0.02441464f, -0.01037140f, 0.06632271f, -0.00997503f, -0.00028154f,
    -0.05145847f, -0.03587546f, 0.02204748f, -0.06398980f, -0.00925344f, 0.03503848f, -0.04304872f, -0.07523824f,
    0.06008324f, 0.03764018f, -0.08242070f, 0.05131981f, -0.08120083f, -0.07499569f, -0.07660975f, -0.05063108f,
    -0.03574295f, 0.01735831f, -0.05726504f, 0.08044864f, -0.08097555f, -0.05031656f, 0.04758893f, -0.02093947f,
    0.08139193f, 0.07630138f, 0.04636570f, 0.05700586f, 0.03591847f, -0.00394268f, 0.01498344f, 0.06289800f,
    0.06690668f, -0.07197586f, 0.04571011f, 0.00103502f, -0.01436905f, -0.04213560f, 0.02989452f, 0.05073222f,
    0.02606960f, -0.07845163f, -0.03543248f, 0.07862114f, -0.05675213f, 0.07152444f, 0.02984403f, -0.05655581f,
    -0.08254331f, -0.06409618f, 0.05385173f, -0.06166831f, 0.03147453f, 0.03549276f, -0.05342260f, 0.07883241f,
    -0.04920816f, -0.05688665f, -0.06607541f, -0.07418077f, -0.03682103f, -0.07652804f, -0.03350084f, -0.07283325f,
    0.03076060f, 0.05812789f, 0.06411084f, 0.03482078f, 0.00207275f, -0.00321288f, -0.03229594f, 0.00315231f,
    -0.08051355f, 0.01610665f, 0.07009466f, 0.07546249f, -0.06528597f, -0.06996321f, -0.00630051f, 0.05960948f,
    0.06721127f, -0.06094684f, 0.02789631f, -0.01243167f, -0.02230657f, -0.04241189f, -0.01395781f, -0.01243742f,
    -0.04412321f, -0.06790707f, 0.00553252f, -0.02540039f, -0.01554979f, -0.02941155f, -0.02546452f, 0.07357585f,
    -0.07194372f, -0.00553941f, 0.05854658f, -0.04765190f, -0.02253663f, 0.05540898f, -0.08060183f, -0.07454036f,
    0.01715758f, -0.01813719f, -0.06711432f, -0.05760416f, -0.08323702f, 0.01809100f, -0.02899256f, 0.04283389f,
    -0.05603868f, -0.07799625f, -0.06692791f, -0.07371943f, 0.00921671f, -0.04990762f, -0.05775584f, -0.03421016f,
    -0.05563568f, -0.00552745f, 0.01618505f, -0.02391394f, -0.01965609f, 0.06389757f, 0.00455283f, 0.06056195f,
    0.01672747f, 0.03672930f, -0.03374026f, 0.00102055f, -0.04756347f, 0.03933612f, -0.05045351f, 0.03943377f,
    0.04842980f, 0.06387987f, -0.07804731f, -0.04592344f, -0.04637899f, 0.03127726f, 0.04953450f, -0.05351202f,
    -0.05350664f, -0.01192987f, 0.07442602f, 0.03414945f, -0.02258853f, 0.03217141f, -0.01484589f, 0.03029644f,
    -0.08299285f, 0.06485368f, -0.08203533f, 0.05002974f, 0.01552123f, 0.04173672f, 0.07480271f, -0.03661604f,
    -0.02842352f, 0.07768357f, 0.06152352f, 0.00984938f, 0.02885427f, 0.00916698f, 0.01099811f, 0.06215381f,
    -0.05230023f, -0.05972514f, 0.02419916f, 0.00256422f, -0.01209291f, 0.04161450f, -0.00994814f, -0.01593467f,
    -0.03314565f, -0.00512508f, -0.05155041f, 0.06966212f, 0.07982248f, 0.06877019f, -0.07885178f, 0.06959921f,
    0.07070623f, 0.03855892f, -0.01865540f, 0.01285988f, -0.00956609f, -0.01593204f, -0.00905506f, -0.05758988f,
    0.04548415f, -0.05543458f, 0.02542032f, 0.05905375f, -0.00961050f, 0.01567456f, 0.03605180f, -0.07294741f,
    -0.03234546f, 0.04809609f, 0.03019491f, -0.06981900f, 0.04156094f, 0.03525133f, -0.01872112f, 0.00427354f,
    -0.02540625f, -0.03867307f, -0.03683373f, 0.01029174f, 0.05612650f, -0.02044263f, 0.06786917f, -0.03083435f,
    0.01211721f, 0.04776587f, 0.04327413f, -0.06705365f, -0.03468308f, -0.07534131f, -0.04405244f, -0.03988320f,
    -0.04250273f, 0.01976537f, 0.06976201f, -0.00434453f, -0.01123597f, 0.05346565f, -0.02947457f, -0.00978222f,
    0.05179095f, 0.05129504f, 0.04779344f, 0.01330562f, 0.04319894f, -0.07734000f, -0.05398740f, 0.01353547f,
    -0.07090303f, 0.08234650f, -0.05647236f, -0.00031381f, 0.05114953f, -0.06230327f, -0.06013039f, -0.04730915f,
    0.07769148f, 0.00769791f, 0.06497344f, -0.03244992f, 0.04545390f, 0.05962645f, -0.02819135f, -0.05347841f,
    -0.05828084f, -0.04571169f, -0.00754327f, -0.07813992f, 0.05151444f, 0.06412326f, 0.01082765f, 0.01834458f,
    0.07410755f, -0.05589482f, 0.00815215f, 0.08256376f, 0.06311490f, -0.00876833f, 0.08225489f, 0.04638162f,
    0.04603514f, 0.01175966f, 0.00861149f, 0.00279737f, -0.02566525f, 0.03582391f, 0.03616136f, -0.08297747f,
    0.03224205f, 0.07639306f, 0.00338809f, -0.07295727f, 0.02971111f, -0.06728266f, 0.04394559f, 0.05785786f,
    -0.07523482f, -0.03360149f, 0.06037788f, 0.04035496f, -0.01061578f, -0.07165806f, -0.05209221f, -0.04170599f,
    0.02949187f, 0.05564936f, -0.01319774f, -0.08268586f, -0.06823517f, -0.03881831f, 0.00377665f, 0.04395838f,
    0.07413825f, -0.02908187f, -0.07066394f, 0.00019922f, -0.03375160f, -0.00920585f, 0.07534301f, 0.06126421f,
    0.04254889f, 0.07458252f, 0.01760357f, 0.07674905f, 0.04014334f, 0.01067516f, 0.06462248f, -0.02054946f,
    0.00025669f, 0.04479034f, -0.01889958f, -0.00619061f, -0.02595055f, 0.02089679f, -0.02912700f, -0.08043766f,
    -0.07315262f, 0.06724124f, 0.02319679f, 0.03831005f, -0.04872471f, -0.01003888f, -0.08216256f, 0.05475195f,
    0.08165427f, 0.05700491f, -0.07696065f, 0.08125190f, 0.06931713f, 0.04391417f, 0.00580878f, -0.02809675f,
    -0.05746914f, 0.01515182f, 0.01252550f, -0.08179113f, 0.00444615f, -0.08028512f, 0.07541481f, -0.03977070f,
    -0.04249654f, 0.05961733f, -0.06844562f, -0.02475131f, -0.06170419f, -0.03398935f, 0.03331705f, -0.07508641f,
    0.04528793f, -0.05827618f, 0.01658210f, 0.00083503f, -0.01457740f, -0.04653695f, 0.02257674f, -0.02352355f,
    -0.00799034f, 0.07699135f, 0.03987375f, -0.01490530f, -0.05557311f, 0.05547224f, -0.03652565f, -0.04566110f,
    0.05942578f, -0.04739408f, -0.04928071f, 0.07290298f, -0.06587847f, 0.03404739f, -0.02446212f, 0.08280198f,
    0.02732136f, -0.06430644f, 0.02868390f, 0.07126366f, 0.03075913f, 0.04396102f, 0.02635525f, 0.04614192f,
    0.01234462f, 0.07014667f, 0.03677221f, -0.06850308f, 0.05645320f, -0.00218646f, 0.03365989f, 0.07638066f,
    -0.05024921f, 0.05317683f, -0.05851960f, -0.06053314f, 0.04257072f, 0.06595530f, -0.01583738f, 0.05894900f,
    0.04284554f, -0.05092196f, -0.04478906f, -0.00062209f, 0.06424525f, 0.08211315f, 0.01698639f, -0.00518556f,
    0.07402467f, 0.05404010f, -0.00121263f, 0.05811733f, 0.02800910f, 0.04516229f, 0.06538032f, 0.03764381f,
    0.06019835f, 0.01041260f, 0.05378228f, -0.08101314f, -0.02353606f, -0.00170418f, -0.08306965f, -0.07990594f,
    -0.00831932f, -0.01995800f, 0.02296766f, -0.06248842f, 0.06347108f, 0.05372143f, -0.04050915f, -0.02634028f,
    -0.06651276f, -0.05204853f, -0.00709303f, -0.00558008f, -0.06477487f, -0.05707412f, 0.02379429f, -0.06385377f,
    0.02537407f, -0.06160355f, 0.06481024f, 0.01821558f, 0.03879528f, -0.05155161f, -0.05600294f, -0.05129785f,
    0.06879905f, 0.05493016f, 0.02194433f, -0.06862122f, -0.02353002f, 0.05248155f, -0.03015140f, 0.02408563f,
    -0.01301883f, 0.07775286f, -0.02724334f, 0.02864718f, 0.06958603f, -0.00984067f, 0.04699684f, -0.07618879f,
    0.02829115f, 0.03024086f, -0.05645768f, -0.07384469f, 0.05889812f, -0.02820174f, -0.07508703f, -0.01962380f,
    0.00050627f, 0.07242514f, -0.03095452f, 0.03938519f, -0.05498668f, -0.03112362f, 0.06616734f, -0.01716454f,
    -0.02648399f, 0.04512110f, 0.00423458f, -0.00206115f, 0.02888842f, 0.07596344f, -0.07094821f, -0.07866836f,
    0.04492599f, -0.06542173f, 0.02760252f, -0.03750576f, 0.06132286f, 0.05080972f, 0.03858691f, -0.07352600f,
    -0.00041522f, 0.00789273f, 0.04265370f, 0.01856635f, 0.00847097f, -0.04256691f, -0.02272560f, -0.06174748f,
    -0.02756303f, -0.05316510f, 0.01939994f, 0.02231256f, 0.04081994f, 0.05446696f, -0.05357839f, -0.07079372f,
    -0.02413659f, 0.04921950f, -0.00856041f, 0.06892660f, 0.04686653f, -0.02932956f, -0.00145221f, 0.02776904f,
    -0.01329819f, -0.01615733f, -0.02359203f, 0.02990999f, 0.06784328f, 0.00298211f, -0.07491612f, -0.03371754f,
    -0.06514242f, 0.03082934f, -0.00013759f, 0.00742805f, 0.06216229f, -0.04465888f, 0.06799985f, -0.08072084f,
    0.00343037f, -0.01938932f, -0.01342271f, 0.03787690f, 0.07784803f, -0.07699248f, -0.04940283f, 0.05779644f,
    -0.04642697f, -0.02567488f, 0.04907036f, -0.02631193f, 0.03474694f, 0.07194277f, 0.03581089f, 0.04649204f,
    -0.01279306f, 0.07024621f, -0.01698998f, 0.01749096f, -0.04396543f, -0.07393178f, 0.07223251f, 0.00029064f,
    -0.00738008f, -0.03349062f, 0.06707811f, -0.05878373f, -0.01678821f, 0.04391576f, -0.02833220f, 0.01437183f,
    0.08117545f, -0.04125577f, 0.01261980f, -0.06347811f, 0.07078796f, 0.06433173f, 0.04134924f, 0.07353900f,
    0.01720521f, -0.00683006f, -0.01457221f, 0.02335544f, 0.05456647f, 0.04354526f, 0.05376616f, 0.04055375f,
    0.03112632f, 0.01060817f, -0.02386642f, -0.02853715f, 0.05256985f, 0.02857427f, 0.06252959f, -0.00008857f,
    -0.03446100f, 0.01395655f, 0.05122232f, 0.06996053f, -0.04090717f, 0.02604929f, 0.02430858f, -0.01264626f,
    -0.02853589f, -0.07726061f, 0.04679244f, -0.02638468f, -0.03920457f, 0.07866006f, 0.05404518f, -0.00846852f,
    -0.05089334f, 0.04286892f, -0.01073223f, -0.00491206f, 0.02399844f, 0.02227041f, 0.03548267f, -0.01635427f,
    0.07809773f, -0.01246530f, -0.07769351f, 0.04806125f, -0.06504979f, -0.03117855f, 0.00123129f, 0.06091494f,
    0.02075536f, 0.00765032f, 0.07028597f, 0.06862995f, 0.05175978f, -0.04929195f, 0.01293967f, -0.02177130f,
    -0.03516406f, -0.03180599f, -0.00528947f, 0.04637356f, -0.01086107f, -0.02834512f, -0.06256660f, 0.02539305f,
    -0.06074153f, -0.06169237f, -0.04264889f, -0.04012576f, 0.06996914f, -0.02221262f, -0.05365556f, 0.02944944f,
    -0.03705796f, 0.00866020f, -0.04623074f, 0.05196616f, 0.01101101f, -0.07950219f, -0.04312849f, 0.05282770f,
    -0.06679936f, 0.05355427f, 0.02010067f, 0.00661498f, 0.03206265f, 0.04625927f, 0.01447552f, -0.00341681f,
    -0.00948095f, 0.08009313f, -0.06872141f, 0.05420605f, 0.07712778f, -0.01652161f, 0.00972748f, -0.07979937f,
    0.01401656f, 0.04881706f, 0.04596121f, 0.02568519f, -0.02815187f, 0.06336686f, -0.02457180f, 0.04449275f,
    0.06000469f, 0.07208070f, -0.01169220f, -0.03975415f, -0.02985693f, 0.00567902f, 0.07372876f, -0.03545800f,
    0.08111615f, 0.02375554f, 0.06456494f, 0.06354381f, -0.04180647f, 0.06330539f, -0.00342770f, 0.03316104f,
    -0.03566794f, 0.07386798f, 0.02751159f, 0.01502217f, -0.04448109f, 0.05976844f, 0.08013839f, -0.07651255f,
    -0.01289358f, 0.07424940f, 0.07257091f, 0.04694278f, 0.08134703f, 0.05910310f, 0.03853280f, -0.04265201f,
    0.01629885f, -0.00539866f, -0.04182807f, -0.02846507f, 0.06441769f, 0.01009075f, 0.06704560f, -0.05756422f,
    0.03424903f, 0.06896567f, -0.03789145f, 0.04452606f, -0.05363133f, -0.04412377f, 0.06133879f, 0.05095417f,
    0.03716668f, 0.05459558f, 0.08204225f, 0.01436065f, 0.01230671f, -0.07153874f, 0.08281453f, 0.01127432f,
    -0.08200564f, -0.00919881f, 0.05205225f, -0.00060504f, 0.03163340f, -0.08189619f, 0.05651524f, 0.03667169f,
    0.06801711f, -0.07570824f, 0.04952421f, -0.00943433f, 0.07391275f, 0.03582261f, 0.05916824f, -0.03984638f,
    0.06695110f, -0.02153168f, 0.04736910f, 0.04851402f, -0.06412905f, 0.07630357f, 0.02864490f, 0.04349701f,
    -0.04134475f, -0.06350519f, -0.04448901f, 0.04200107f, 0.03152303f, -0.00543326f, 0.08123203f, -0.02820974f,
    0.03838017f, -0.04170072f, 0.07644987f, -0.03176886f, -0.07756137f, 0.07151042f, 0.03579014f, 0.02536383f,
    -0.01958275f, -0.07430413f, 0.03738072f, 0.01847763f, -0.02173577f, -0.00451524f, -0.01133314f, 0.00860137f,
    -0.00268630f, 0.08301376f, -0.07060514f, 0.05217909f, 0.07669663f, 0.07886966f, 0.04701006f, -0.03880179f,
    0.07142787f, -0.03501222f, -0.07055603f, 0.01044658f, -0.08111772f, 0.04462659f, -0.00085805f, 0.05284367f,
    -0.05220260f, 0.01123702f, 0.03859898f, -0.07239895f, 0.06631550f, 0.04929719f, 0.04025467f, 0.06523751f,
    0.02328927f, 0.01214896f, -0.05809321f, -0.00862447f, 0.06228836f, 0.07754700f, 0.02911377f, -0.03004020f,
    -0.04767659f, 0.04236653f, 0.01611105f, 0.02598348f, 0.05085775f, 0.06838210f, -0.01024113f, -0.02444124f,
    -0.07510157f, -0.01567623f, -0.04142888f, -0.02740515f, 0.03514796f, 0.01801450f, -0.05358068f, -0.00025306f,
    0.03418744f, -0.00544431f, 0.07205234f, -0.04799702f, 0.04294832f, 0.06901016f, 0.03892106f, 0.01151357f,
    -0.00358969f, 0.03215928f, -0.08046257f, -0.05174924f, -0.00092112f, 0.04337436f, -0.06997091f, -0.01426062f,
    -0.03684444f, 0.07164377f, 0.06871306f, 0.07965727f, -0.03119214f, 0.02655636f, 0.06555798f, 0.06971212f,
    0.05958357f, 0.00611441f, 0.06305536f, 0.06246416f, -0.06965366f, -0.02329088f, 0.00266066f, 0.00467068f,
    -0.08082290f, 0.01260026f, -0.00619124f, 0.07311252f, 0.00694343f, 0.02253196f, 0.02792498f, -0.01508751f,
    0.01354692f, -0.02245103f, -0.08091670f, 0.00710003f, 0.03224508f, -0.02395452f, -0.03126067f, -0.01938114f,
    0.01526049f, 0.08080628f, 0.06625166f, 0.05764385f, -0.04216042f, 0.00052269f, -0.06693714f, 0.06292787f,
    0.07283677f, 0.07959499f, -0.02954128f, 0.04969190f, -0.00267499f, 0.01079584f, 0.00018209f, 0.07603183f,
    -0.03410106f, 0.02980915f, -0.08116920f, -0.07146462f, 0.01103480f, 0.03680202f, 0.03917243f, -0.01274567f,
    0.02295941f, 0.00161322f, 0.01295475f, 0.02502510f, -0.08110978f, 0.03596646f, -0.02183817f, -0.01944625f,
    0.07941925f, 0.05976059f, 0.07858267f, -0.00929075f, 0.00743685f, -0.06565030f, 0.04003910f, 0.05299036f,
    -0.03001995f, -0.01734525f, -0.02975405f, 0.04585029f, 0.06341567f, -0.08063196f, -0.07472216f, -0.05143070f,
    0.04938930f, 0.01814770f, 0.05619510f, -0.05052267f, 0.03870654f, -0.03673604f, -0.01970397f, 0.07136920f,
    0.04468006f, -0.00908582f, 0.06223391f, -0.02030924f, 0.05970874f, 0.03099265f, 0.03295945f, -0.01995611f,
    0.04145166f, -0.07352023f, 0.07596531f, 0.07464623f, -0.08055343f, -0.03208566f, 0.00841582f, -0.07159123f,
    0.03846902f, 0.00575534f, -0.02701064f, 0.02537526f, -0.02024292f, -0.03913089f, 0.00295704f, 0.07928416f,
    0.00381574f, 0.06725338f, 0.05919843f, -0.07354733f, 0.00579178f, 0.02718346f, -0.04912433f, -0.07160665f,
    -0.02759089f, -0.06537866f, -0.05498001f, 0.04599159f, -0.04590997f, 0.04469561f, 0.02093853f, 0.02499680f,
    0.07826453f, 0.08109128f, -0.04707373f, 0.08063866f, 0.00429742f, -0.01465849f, 0.08113018f, 0.04914276f,
    -0.02664907f, 0.02267053f, 0.07923701f, -0.05635688f, -0.02722976f, 0.06643254f, 0.06220531f, -0.01027153f,
    0.02648410f, -0.05568760f, -0.07158079f, -0.06217325f, 0.05879094f, -0.06495196f, -0.04429810f, -0.01886029f,
    -0.06083884f, 0.04656952f, 0.07691735f, 0.05895820f, 0.04732577f, -0.04885446f, -0.08297552f, -0.00856700f,
    -0.07509010f, 0.03718173f, -0.06443031f, -0.01548855f, -0.07762572f, 0.00191528f, 0.00361918f, 0.05447315f,
    -0.07539020f, -0.06656930f, 0.04061129f, 0.02790057f, 0.01746263f, -0.02244468f, 0.02532222f, -0.07595713f,
    0.05937444f, -0.06945974f, -0.07923988f, -0.07307395f, -0.00041431f, -0.00049423f, -0.06515112f, 0.01369070f,
    -0.07351884f, -0.04954403f, -0.03778969f, 0.04350459f, -0.05953167f, 0.02573900f, -0.05015292f, 0.03059681f,
    0.05141981f, -0.04614396f, 0.05226929f, 0.00303979f, -0.00942769f, 0.07028498f, -0.05810987f, -0.00396238f,
    0.07633813f, 0.05622798f, -0.05293034f, -0.01401120f, 0.01340019f, 0.07815219f, 0.07052796f, 0.02036631f,
    0.00968728f, 0.03766285f, 0.03900531f, 0.03134207f, 0.05544647f, 0.05957954f, -0.04759952f, -0.08197405f,
    0.02758610f, 0.01667130f, -0.05933388f, -0.08284737f, -0.05377367f, 0.08011119f, -0.02518887f, -0.07124016f,
    -0.07063391f, -0.05424606f, -0.01820065f, 0.01098912f, -0.00681679f, 0.08321574f, -0.01650708f, 0.01984899f,
    -0.04266343f, -0.00903809f, 0.04531040f, -0.02950256f, 0.03506820f, 0.02637221f, 0.04382177f, 0.07804053f,
    -0.03130547f, 0.02274356f, 0.05920027f, -0.03289830f, 0.04627661f, -0.04050928f, -0.07064441f, -0.05289277f,
    -0.01546336f, 0.05191009f, -0.02393132f, 0.08187767f, -0.03096966f, 0.01156520f, 0.02658251f, -0.00026524f,
    -0.01718717f, 0.05099521f, -0.04294366f, -0.02715805f, 0.01836682f, -0.07143435f, -0.07234591f, -0.07372853f,
    -0.06463772f, -0.00227000f, -0.04051012f, -0.00854860f, 0.02453056f, 0.05171544f, -0.03181922f, -0.00204331f,
    -0.06612369f, -0.04898223f, 0.06063546f, -0.04625243f, -0.06941694f, -0.05463066f, -0.01425541f, 0.06105003f,
    -0.00399102f, 0.07634436f, -0.04277676f, 0.08243000f, 0.07272314f, -0.04798349f, 0.02313238f, 0.06903991f,
    -0.02731762f, -0.02114974f, -0.06129430f, -0.01416608f, 0.07034087f, -0.02382311f, -0.06735617f, 0.03775592f,
    0.05107419f, -0.05557421f, -0.03350352f, 0.02088713f, 0.01409988f, 0.02699495f, 0.05095685f, 0.07622775f,
    0.05242261f, -0.03309914f, 0.03523576f, 0.02525914f, -0.00906461f, -0.06407520f, 0.05802523f, 0.05501591f,
    0.02768007f, 0.07239049f, 0.05271460f, 0.06313493f, -0.06240916f, 0.03703468f, 0.03383010f, 0.00036877f,
    0.06359510f, -0.06213323f, -0.00045646f, -0.04318530f, 0.06492139f, 0.08246311f, -0.03015726f, -0.07736468f,
    -0.00083333f, 0.07339366f, -0.00185829f, 0.07581653f, -0.00787042f, 0.07412900f, -0.06226414f, 0.07893082f,
    0.06299113f, 0.00677491f, 0.06933486f, -0.05982724f, 0.02061300f, 0.01408668f, -0.00039560f, 0.07723778f,
    0.05070199f, 0.00000440f, -0.07242441f, 0.06064601f, -0.00853490f, 0.04304899f, 0.04892906f, -0.07109966f,
    0.03338226f, 0.07502142f, -0.06406353f, 0.07763451f, -0.05331516f, 0.00320554f, -0.02860064f, -0.04330308f,
    -0.04237830f, 0.08309498f, 0.01320233f, -0.06668909f, -0.05399917f, -0.07946011f, 0.05814891f, 0.05661391f,
    0.03085947f, -0.01418590f, -0.01967093f, 0.04119501f, 0.07941288f, 0.02986815f, -0.01260917f, -0.01716375f,
    -0.00226348f, -0.07186332f, -0.07382171f, 0.03184427f, 0.04148692f, 0.00185233f, 0.04548524f, -0.05101375f,
    -0.07226210f, -0.00023341f, -0.06430625f, -0.05374998f, 0.06228507f, 0.00566445f, -0.03492898f, -0.01426494f,
    0.00296666f, -0.04011327f, 0.02397751f, 0.05100571f, 0.06103653f, -0.00084218f, 0.06479998f, 0.07856285f,
    -0.07173285f, 0.07282217f, -0.03441985f, -0.01754768f, -0.06110932f, 0.02365231f, -0.08054301f, -0.01235857f,
    -0.03119360f, -0.05427813f, -0.06875370f, -0.00981733f, -0.00212507f, -0.05366551f, -0.02718044f, 0.02710424f,
    0.00834809f, -0.06942406f, 0.07360056f, -0.04013587f, -0.07395838f, 0.05304539f, 0.03384041f, -0.00027913f,
    0.06079429f, 0.04925988f, -0.07262112f, -0.05742759f, -0.07000425f, 0.01606833f, 0.03697839f, 0.02394310f,
    0.02134495f, -0.06844443f, 0.01059543f, 0.00348646f, -0.08184381f, -0.02526672f, 0.03854675f, 0.06331363f,
    0.07276043f, 0.04180690f, -0.07487040f, -0.06890195f, 0.00205044f, -0.02521783f, 0.03921301f, 0.08324346f,
    0.01052378f, -0.05356833f, 0.05715283f, -0.06318852f, -0.01536581f, -0.06137213f, 0.01831004f, 0.08029350f,
    -0.03352647f, -0.08108585f, 0.05484905f, -0.08248036f, -0.00773227f, 0.02341567f, 0.07734536f, -0.05354830f,
    0.01950260f, -0.06731239f, -0.01298677f, -0.04552922f, -0.01947610f, 0.07630438f, -0.04191263f, -0.02410112f,
    0.04508434f, -0.08197557f, -0.06841014f, 0.07240544f, 0.02842513f, -0.03289155f, 0.07278416f, 0.06394950f,
    0.03671238f, -0.03051127f, 0.05963828f, 0.07043551f, -0.07647792f, 0.01594747f, -0.07085872f, -0.04298317f,
    -0.01496555f, -0.01669405f, 0.06821143f, 0.05454691f, -0.03696516f, -0.05213997f, -0.06871235f, 0.02485985f,
    0.07709896f, -0.03029437f, -0.06407508f, -0.00437061f, -0.07498901f, -0.03897840f, -0.03646243f, -0.08004375f,
    -0.02901784f, -0.07361691f, -0.04947542f, 0.03177009f, 0.03063456f, -0.04195185f, 0.04868563f, 0.00160872f,
    -0.02583008f, -0.04497936f, 0.06956135f, 0.07657893f, 0.04099953f, -0.01151923f, -0.00049375f, 0.00375076f,
    -0.04289186f, 0.02473549f, 0.04094135f, -0.03386573f, -0.01540982f, -0.00627113f, -0.02008676f, -0.04104272f,
    -0.07081048f, -0.01708412f, -0.06177860f, 0.01100182f, 0.00710985f, 0.00025984f, -0.01304151f, -0.03569650f,
    0.07498665f, -0.02768555f, 0.03279715f, 0.08216580f, 0.05715124f, -0.04963204f, -0.03691306f, 0.07629981f,
    0.05665350f, -0.03733268f, -0.06112714f, 0.03371319f, 0.00409058f, 0.08066116f, -0.04696251f, -0.01375086f,
    -0.00132690f, 0.01684552f, -0.05172133f, 0.00088839f, -0.02781888f, 0.06060346f, 0.01021286f, -0.08015606f,
    -0.01132050f, -0.07961905f, 0.01752360f, -0.02189364f, -0.07185218f, 0.08285909f, -0.01086618f, -0.07563387f,
    -0.01344524f, 0.00554041f, 0.04618326f, 0.02840996f, 0.04739596f, -0.01884937f, -0.06685647f, 0.00792907f,
    -0.00880997f, -0.02648172f, -0.06489855f, 0.04000506f, -0.04036533f, 0.05317541f, 0.03917291f, 0.02484193f,
    0.03925452f, 0.01618683f, -0.03319314f, 0.08010371f, -0.01841190f, 0.07715102f, 0.01793630f, -0.04041468f,
    -0.03378887f, 0.02016802f, -0.07006579f, -0.06437384f, -0.02169003f, 0.07685088f, 0.02656882f, 0.00412338f,
    -0.01947772f, 0.02059365f, 0.08303605f, -0.02168560f, -0.04072753f, -0.03433476f, -0.03180258f, -0.02263421f,
    -0.01838826f, 0.04114926f, -0.08216228f, -0.04640659f, 0.03570393f, -0.03704546f, -0.00976349f, 0.04764004f,
    -0.02010639f, -0.04256615f, 0.05542359f, -0.08109628f, -0.03953584f, 0.00184377f, 0.03210514f, -0.04541921f,
    0.01717082f, 0.00145453f, -0.03934037f, 0.06844589f, -0.06601940f, -0.06162906f, -0.03585466f, -0.00645794f,
    0.01662674f, 0.02752249f, 0.03789774f, 0.07052852f, 0.07729861f, -0.01261434f, 0.02149050f, 0.06838491f,
    -0.00793099f, 0.04401858f, 0.05331646f, 0.05682798f, -0.06901842f, 0.01849685f, -0.04049785f, 0.04153312f,
    -0.07511276f, -0.03734057f, 0.02626878f, 0.01029503f, 0.02904896f, -0.07520195f, 0.00068822f, -0.01758425f,
    0.01480018f, -0.02660627f, -0.01853234f, 0.07149005f, 0.03528614f, 0.01267729f, 0.04490880f, -0.07624035f,
    -0.07188951f, -0.04770952f, -0.00426658f, -0.02172395f, -0.03725279f, -0.00368462f, -0.07059246f, 0.08154958f,
    -0.06189660f, 0.00383687f, -0.02293599f, -0.01568712f, 0.04923534f, -0.03206010f, -0.03596714f, -0.00117683f,
    0.06522156f, 0.03762763f, -0.06402075f, 0.06667694f, -0.06463766f, 0.07497144f, 0.01642575f, -0.00445004f,
    -0.06484734f, 0.04804466f, 0.05665327f, 0.07634233f, -0.01790024f, 0.07699987f, 0.02158439f, 0.06167973f,
    0.08161224f, 0.04017824f, -0.01627406f, 0.03158377f, -0.08007118f, -0.07231101f, 0.01984317f, -0.01663386f,
    -0.02952068f, -0.01358917f, 0.07680648f, 0.03920656f, -0.03695393f, -0.07589984f, 0.03763133f, 0.00099712f,
    -0.06731748f, 0.01632548f, 0.01778214f, -0.06845024f, -0.00654171f, -0.00409093f, 0.00589220f, 0.02171792f,
    0.07850542f, 0.05936703f, 0.03342211f, 0.01235082f, 0.02094132f, 0.05869977f, -0.01709154f, 0.03682811f,
    0.06268474f, -0.02380513f, 0.00927926f, 0.01372247f, -0.06508213f, -0.03889053f, 0.00571733f, 0.06558052f,
    0.06475948f, 0.02546053f, -0.00657370f, 0.01714231f, -0.07507406f, -0.00980678f, 0.07597408f, -0.02050877f,
    0.05051392f, -0.05007830f, -0.04837211f, 0.00298013f, 0.04765698f, -0.08237027f, -0.06954074f, -0.05612209f,
    0.03227326f, 0.01454333f, -0.02784368f, -0.08194047f, 0.07871308f, 0.02409785f, -0.06878176f, 0.03436397f,
    0.03743082f, 0.02794432f, 0.01332007f, 0.05760956f, 0.06016415f, 0.07285185f, -0.04159480f, 0.06130634f,
    -0.04408131f, 0.00990829f, -0.02848987f, 0.01577462f, 0.07347207f, -0.03022201f, 0.03600936f, -0.05813385f,
    0.01734607f, -0.00054822f, 0.00220019f, 0.08240947f, 0.01764020f, 0.00041959f, -0.03817957f, -0.05659265f,
    -0.04368741f, 0.05642309f, -0.04485335f, -0.06538995f, -0.05055928f, -0.05644995f, -0.02140633f, -0.00238600f,
    -0.00965889f, 0.06607994f, 0.03238916f, -0.03888747f, 0.03289882f, -0.00495487f, 0.02160241f, 0.04226431f,
    -0.04096128f, -0.02162574f, 0.02974153f, 0.05681540f, 0.02777471f, 0.07797607f, 0.04995026f, 0.08007294f,
    0.04017328f, 0.05635770f, 0.08247098f, 0.08237778f, 0.01696748f, -0.01674005f, -0.00847220f, 0.07641515f,
    0.01926814f, 0.03953045f, 0.04671224f, 0.04477274f, -0.07734950f, 0.00723888f, 0.06422050f, 0.03519832f,
    -0.06544986f, 0.01620253f, 0.07344028f, -0.07925625f, 0.03176298f, -0.06977807f, -0.08075770f, -0.00287964f,
    -0.04087378f, 0.06045080f, 0.07942291f, 0.06102736f, -0.01023981f, -0.05968982f, 0.04228982f, 0.00217534f,
    0.04526101f, 0.08060163f, -0.01926771f, 0.00037357f, -0.07652505f, 0.00666491f, -0.06112187f, 0.07665484f,
    -0.06511153f, 0.07727273f, 0.04289535f, 0.05748362f, -0.04340392f, 0.04663655f, 0.04596075f, -0.06448659f,
    0.06720671f, -0.03967094f, -0.04273233f, 0.04822479f, -0.01473809f, -0.06867417f, 0.00292542f, -0.03444370f,
    0.08281484f, 0.06993921f, 0.06733415f, -0.06884558f, 0.07536735f, 0.00218792f, 0.06345408f, -0.02512120f,
    -0.07041010f, -0.06551366f, 0.08037137f, 0.03424950f, 0.00823378f, -0.04233132f, -0.00522627f, -0.05823015f,
    0.07301185f, 0.00763748f, -0.05851968f, -0.03572578f, -0.01587918f, 0.04542798f, -0.07902785f, -0.08255597f,
    0.01926782f, 0.02587562f, 0.01217060f, 0.00599638f, -0.00664084f, 0.07140979f, 0.04640819f, 0.05582562f,
    0.00455952f, 0.08002898f, 0.03815996f, -0.05942112f, -0.08197562f, 0.00453217f, -0.03773589f, 0.05816775f,
    0.07474204f, 0.07389864f, -0.06852856f, -0.01856362f, -0.05887127f, 0.06231004f, -0.03074637f, 0.03057769f,
    -0.03363283f, 0.08151200f, 0.00443016f, -0.05961727f, 0.00901668f, -0.04322919f, -0.04494990f, -0.03049831f,
    -0.02816551f, -0.06762256f, 0.04033705f, -0.04945279f, -0.00734892f, -0.05626594f, -0.03953021f, -0.01766473f,
    -0.04817348f, 0.04348573f, 0.07917945f, -0.00404758f, -0.06540850f, -0.07311575f, 0.02455463f, 0.06376927f,
    0.06062614f, -0.05867138f, 0.07899180f, -0.04237434f, -0.01866342f, -0.02703845f, -0.05113813f, 0.04565105f,
    -0.00383938f, -0.07433503f, 0.05709549f, 0.04168562f, -0.08261982f, 0.04541416f, 0.05262827f, -0.00421233f,
    0.02225734f, 0.00128288f, 0.03187655f, 0.03319597f, -0.02930352f, -0.01814830f, -0.08143228f, -0.04568046f,
    -0.01299215f, 0.07072715f, 0.08097982f, -0.06428071f, 0.00344730f, -0.07901178f, -0.03090123f, 0.04318856f,
    0.08126825f, 0.05065167f, 0.01380020f, -0.04589938f, -0.02396145f, 0.04526832f, 0.05731171f, 0.06640678f,
    0.05881447f, -0.01068624f, 0.00569280f, 0.06531875f, -0.00274322f, 0.00700093f, -0.06863531f, 0.07711840f,
};

// Shape: (16,), dtype: float32
static const float stage0_block0_bn1_gamma[16] = {
    1.00000000f, 1.00000000f, 1.00000000f, 1.00000000f, 1.00000000f, 1.00000000f, 1.00000000f, 1.00000000f,
    1.00000000f, 1.00000000f, 1.00000000f, 1.00000000f, 1.00000000f, 1.00000000f, 1.00000000f, 1.00000000f,
};

// Shape: (16,), dtype: float32
static const float stage0_block0_bn1_beta[16] = {
    0.00000000f, 0.00000000f, 0.00000000f, 0.00000000f, 0.00000000f, 0.00000000f, 0.00000000f, 0.00000000f,
    0.00000000f, 0.00000000f, 0.00000000f, 0.00000000f, 0.00000000f, 0.00000000f, 0.00000000f, 0.00000000f,
};

// Shape: (16,), dtype: float32
static const float stage0_block0_bn1_mean[16] = {
    0.00000000f, 0.00000000f, 0.00000000f, 0.00000000f, 0.00000000f, 0.00000000f, 0.00000000f, 0.00000000f,
    0.00000000f, 0.00000000f, 0.00000000f, 0.00000000f, 0.00000000f, 0.00000000f, 0.00000000f, 0.00000000f,
};

// Shape: (16,), dtype: float32
static const float stage0_block0_bn1_var[16] = {
    1.00000000f, 1.00000000f, 1.00000000f, 1.00000000f, 1.00000000f, 1.00000000f, 1.00000000f, 1.00000000f,
    1.00000000f, 1.00000000f, 1.00000000f, 1.00000000f, 1.00000000f, 1.00000000f, 1.00000000f, 1.00000000f,
};

// Shape: (3, 3, 16, 16), dtype: float32
static const float stage0_block0_conv2_weight[2304] = {
    0.05453075f, -0.01284876f, -0.00481627f, 0.07046528f, 0.07971926f, -0.03272179f, 0.00447575f, 0.00338043f,
    -0.02974760f, 0.08017959f, -0.05391118f, -0.01247956f, -0.02056114f, -0.03458379f, 0.00848644f, -0.05171856f,
    -0.07804339f, -0.05580754f, 0.02393088f, -0.01887175f, 0.07705903f, -0.04496117f, -0.05985506f, -0.04067978f,
    0.06484759f, -0.00271460f, -0.00076737f, 0.00196258f, 0.06202460f, 0.01561357f, 0.00020906f, -0.01784260f,
    0.03685220f, 0.04342707f, -0.00296941f, -0.07384478f, -0.00048982f, -0.02442389f, -0.06920957f, 0.02244377f,
    0.04481218f, 0.03632835f, -0.02406047f, 0.00623626f, 0.04044703f, 0.01819410f, -0.06682342f, 0.05050590f,
    -0.03875989f, -0.06415146f, -0.03765487f, 0.00891759f, -0.04843010f, 0.01580800f, -0.06772944f, 0.04375474f,
    0.00831497f, 0.04304063f, -0.06470447f, -0.01492706f, 0.04864366f, -0.00565531f, -0.08018254f, 0.01162423f,
    0.04140602f, -0.07806452f, 0.04539718f, -0.03674912f, -0.04259346f, -0.06672552f, 0.01334888f, -0.03970751f,
    0.07256928f, 0.01831385f, -0.05363403f, 0.06261206f, -0.04183208f, 0.06999421f, -0.00616863f, -0.04817085f,
    -0.02011161f, -0.07652580f, -0.06723913f, 0.04584699f, 0.07543200f, -0.00704009f, 0.01841516f, -0.07660844f,
    0.08214604f, 0.00716024f, -0.04078515f, 0.02452944f, 0.08009158f, -0.06089768f, 0.06624853f, -0.06454112f,
    0.01071532f, 0.07817193f, 0.05173865f, -0.02078639f, 0.08057033f, 0.01870681f, 0.04599476f, 0.03598305f,
    0.05897977f, -0.02232878f, -0.07100967f, -0.04564831f, -0.05015175f, -0.05877289f, -0.05937046f, -0.07026894f,
    0.01032758f, 0.02918093f, 0.03613810f, -0.06042055f, 0.04599941f, -0.04682895f, -0.01481825f, -0.05829222f,
    -0.03480700f, 0.03712955f, 0.04949660f, 0.05499370f, 0.01082639f, -0.03375481f, -0.03040966f, 0.02125993f,
    -0.06703889f, -0.03286853f, 0.07784796f, 0.01190078f, 0.00522029f, -0.07324200f, -0.06088055f, -0.06215026f,
    0.06019487f, -0.06848895f, 0.01713730f, -0.02327716f, 0.07943707f, 0.02627684f, -0.03822285f, 0.07841956f,
    0.06277552f, -0.01957267f, 0.02027075f, -0.06039884f, -0.02066324f, 0.03528444f, 0.07477292f, -0.01064627f,
    -0.04650024f, 0.03726763f, 0.00115629f, -0.00361161f, -0.02636503f, 0.05466713f, 0.03523837f, 0.06798246f,
    0.03594575f, 0.01970718f, 0.04845263f, -0.03355021f, -0.02758681f, -0.02635266f, 0.04037321f, 0.06819369f,
    0.04275688f, 0.04104739f, -0.02352775f, 0.05386411f, -0.03559164f, 0.02235076f, 0.02036322f, -0.03586292f,
    0.07984242f, 0.07099979f, -0.06461917f, -0.07542603f, 0.00193447f, -0.00330715f, -0.02174478f, 0.06344435f,
    -0.07426085f, 0.03801960f, 0.07957244f, -0.07890843f, -0.05271422f, 0.01188670f, 0.01416864f, 0.03269788f,
    0.04040527f, -0.03339824f, -0.00705297f, 0.07638100f, 0.01263501f, 0.00076576f, -0.03864800f, 0.02236649f,
    0.04171660f, 0.06268828f, -0.00243089f, -0.02291309f, -0.02049119f, 0.05992758f, 0.06779550f, -0.07553193f,
    -0.02003637f, 0.05356146f, -0.07485186f, 0.08167724f, 0.01262166f, 0.06682356f, -0.06122896f, 0.00776307f,
    -0.02229541f, 0.00306557f, -0.03374130f, -0.07775916f, -0.04036313f, 0.04918482f, -0.07170507f, 0.02584389f,
    -0.03861331f, 0.02234638f, 0.07142060f, -0.05979999f, -0.01815493f, -0.01744809f, 0.01662491f, 0.06395562f,
    -0.03034788f, -0.05088886f, 0.03301108f, 0.05625144f, 0.05125722f, 0.06407412f, 0.02499589f, 0.01891623f,
    -0.05551169f, 0.00704191f, -0.03132747f, -0.00915449f, -0.00808508f, -0.01442974f, -0.07164123f, 0.03142338f,
    -0.07926980f, -0.04209974f, -0.05766508f, -0.06662350f, -0.04061988f, 0.00488218f, 0.02784611f, 0.08031984f,
    0.02124533f, -0.04662070f, 0.08319473f, -0.05205047f, 0.04676659f, -0.00817194f, 0.05913982f, 0.01200967f,
    -0.07564704f, 0.04456884f, -0.06061876f, -0.04934142f, 0.05085288f, -0.00336832f, -0.01647912f, 0.02506638f,
    0.05805380f, -0.07943434f, -0.00348381f, 0.00418973f, -0.01165749f, 0.07140292f, -0.04636397f, 0.02184900f,
    -0.04601338f, -0.01131391f, 0.06923541f, -0.05276964f, 0.06417599f, 0.03402584f, -0.03855276f, -0.00254430f,
    0.01967405f, 0.00862253f, -0.06174458f, -0.00826427f, -0.07070260f, -0.08119946f, 0.06248796f, 0.02878464f,
    -0.02128876f, 0.04218017f, -0.02928108f, -0.07256567f, 0.04404744f, 0.04581201f, -0.01782177f, -0.00781778f,
    0.07823475f, -0.05866197f, -0.05431711f, 0.05085729f, -0.06979304f, -0.00542283f, 0.03690275f, 0.00797783f,
    0.01424014f, -0.05976527f, 0.03367724f, -0.05582479f, 0.00586058f, -0.00738498f, 0.00840036f, -0.05794498f,
    0.03684520f, -0.08089003f, -0.05836767f, -0.01785069f, -0.03663263f, -0.07222928f, 0.00616588f, 0.04761348f,
    -0.04069895f, 0.06083996f, 0.04498234f, 0.03815435f, 0.06296679f, -0.03747388f, -0.00757827f, 0.07924187f,
    -0.03352728f, 0.06228400f, 0.07389601f, 0.01388665f, 0.05795310f, -0.07370563f, 0.02639483f, -0.07854634f,
    -0.06690963f, -0.02160312f, 0.04804766f, 0.05736278f, -0.04289062f, -0.06345394f, 0.02113149f, -0.00925156f,
    -0.07456411f, -0.02129595f, 0.03479477f, 0.02028232f, 0.03630406f, 0.00615916f, 0.06926014f, -0.04036177f,
    0.04358013f, 0.04326149f, -0.01699743f, 0.07525682f, -0.05966641f, -0.02799587f, -0.06977186f, 0.06312567f,
    -0.08118127f, -0.07218298f, -0.01134478f, -0.00764504f, -0.03055032f, -0.00342590f, 0.04428859f, 0.07238129f,
    -0.07636988f, -0.02548599f, 0.00646906f, -0.02451725f, -0.05235764f, 0.04729657f, 0.06840807f, 0.04239478f,
    -0.07614590f, -0.00254918f, 0.06413659f, 0.03210081f, -0.02990036f, 0.00484553f, -0.01001785f, -0.07968706f,
    0.07779804f, 0.05536436f, 0.00931599f, 0.02130372f, -0.02358402f, -0.03254906f, -0.06532922f, 0.04015022f,
    0.02382737f, 0.08239947f, -0.02460326f, 0.05129289f, -0.01983874f, -0.01301657f, 0.03345498f, 0.06998856f,
    -0.05216832f, -0.00317638f, -0.05737241f, -0.03885534f, 0.05299338f, -0.01502480f, 0.04952590f, -0.01285095f,
    -0.07949482f, 0.03088776f, 0.05597340f, 0.06751736f, -0.00058968f, -0.06257295f, 0.04391746f, 0.06309742f,
    -0.07963721f, 0.02612507f, -0.06629559f, 0.04716505f, -0.02267519f, 0.03067094f, -0.00949035f, -0.03777410f,
    -0.03539919f, 0.04416870f, -0.07405876f, 0.04873767f, 0.05485335f, 0.02688193f, 0.05806224f, -0.01249771f,
    -0.06927018f, 0.07355531f, -0.06289962f, -0.02749225f, -0.00593223f, 0.04205256f, 0.07494184f, 0.01866954f,
    0.06379332f, 0.03065535f, 0.02092153f, -0.02252887f, 0.02238832f, 0.00872479f, -0.07201555f, -0.03931689f,
    0.00897396f, 0.00244509f, 0.06893308f, 0.06365915f, 0.04600863f, 0.02609726f, 0.06772879f, 0.04720526f,
    -0.02834356f, 0.00435171f, -0.07618144f, 0.01437949f, 0.03908381f, -0.05594442f, 0.00820815f, -0.05970527f,
    -0.01176795f, -0.00089941f, 0.02031465f, 0.02646883f, -0.06722496f, 0.00010513f, 0.00561308f, 0.06519979f,
    0.00583886f, 0.01138995f, -0.06312781f, 0.07968839f, -0.01595022f, -0.00662726f, 0.06854005f, -0.02928606f,
    -0.07311519f, -0.01770478f, 0.01648093f, -0.04730121f, 0.07732841f, 0.02395870f, -0.00197583f, -0.04143357f,
    0.02780189f, -0.02886873f, 0.01126453f, 0.03211106f, 0.07813217f, 0.08235435f, 0.00915788f, 0.06230940f,
    0.05352871f, -0.07930499f, -0.02477331f, -0.06370190f, 0.00319976f, 0.07972573f, 0.04970782f, -0.06464572f,
    0.00938545f, -0.02370752f, -0.08254334f, -0.04091064f, -0.07954206f, 0.01368068f, 0.05614993f, -0.05233153f,
    -0.00798044f, -0.05397044f, 0.04910304f, -0.04338511f, 0.00519624f, -0.01646277f, -0.02291667f, 0.06494486f,
    0.04387861f, 0.01318436f, 0.01438679f, -0.01781099f, 0.06167232f, 0.03772672f, -0.06975000f, 0.03276768f,
    0.03251151f, -0.08175635f, -0.06017154f, -0.08194583f, 0.04964040f, -0.02223225f, -0.06481254f, 0.03057813f,
    -0.02871644f, 0.01748612f, -0.06527402f, 0.01134423f, 0.01023614f, 0.00503670f, 0.01923357f, 0.03538965f,
    0.06757352f, -0.00050032f, 0.00977149f, -0.01298103f, -0.06791504f, -0.01108458f, -0.02301856f, -0.00758770f,
    -0.03977159f, 0.00265151f, 0.05592393f, 0.01799424f, 0.05186158f, 0.07430285f, 0.00262799f, 0.05802652f,
    -0.05047676f, -0.01392670f, 0.00564088f, -0.00749141f, 0.07521020f, 0.01766394f, 0.07087544f, 0.04335551f,
    -0.02356177f, 0.00413617f, -0.03163728f, 0.01027201f, 0.04025860f, 0.03739574f, 0.06083133f, -0.02685454f,
    0.03145767f, 0.07563718f, -0.06091044f, 0.06199419f, -0.06242182f, 0.00118191f, 0.04097006f, 0.04449661f,
    -0.04341447f, 0.04149038f, 0.06159883f, 0.01407011f, 0.00969540f, 0.06811664f, 0.00528357f, 0.06286360f,
    -0.05642318f, 0.05827244f, -0.04626691f, 0.03276629f, 0.05284914f, 0.08143854f, 0.08215120f, -0.02671951f,
    0.02522926f, -0.03159209f, 0.03517596f, 0.02658001f, -0.03087873f, -0.04517020f, -0.01252071f, 0.01209170f,
    0.04583272f, -0.03733411f, -0.02054929f, -0.06144510f, 0.02009332f, -0.05313122f, -0.02590089f, -0.07048717f,
    0.07841360f, -0.06595506f, 0.02453082f, -0.02211970f, 0.06934577f, -0.04106295f, -0.05801139f, -0.05123186f,
    -0.03128927f, 0.06235507f, 0.05277833f, 0.07126707f, 0.02365978f, -0.03734728f, -0.00415386f, -0.08142368f,
    0.04201046f, 0.07309952f, 0.06701639f, -0.03675650f, -0.08116080f, -0.03328478f, -0.02172675f, 0.01907402f,
    -0.00539032f, -0.06908636f, 0.00279244f, -0.01121249f, 0.03416685f, 0.06392413f, 0.07510804f, 0.06504802f,
    -0.06029668f, 0.02815227f, -0.01137366f, 0.03095281f, 0.02548756f, -0.04786979f, -0.00653385f, -0.08111496f,
    -0.07645106f, 0.02135054f, -0.03160980f, 0.06119752f, 0.03521425f, 0.06889366f, -0.02525580f, -0.01394744f,
    -0.05506962f, 0.05233101f, 0.01835074f, -0.01332409f, -0.07146122f, -0.07056965f, -0.04020444f, -0.02587052f,
    0.05660895f, -0.03144602f, 0.03208266f, -0.00819808f, -0.04088841f, 0.07088160f, -0.05826382f, 0.00673331f,
    0.01233606f, 0.03324962f, -0.05827114f, -0.00142660f, -0.04253733f, -0.02812732f, 0.00094952f, -0.02823426f,
    -0.00869515f, 0.06113723f, 0.07638822f, 0.00948818f, -0.02730860f, 0.05092662f, 0.01245961f, -0.04727684f,
    -0.04023333f, -0.02434781f, -0.06545772f, -0.03163975f, 0.03236231f, 0.03012988f, 0.05201368f, 0.01216616f,
    -0.04261013f, -0.00818273f, 0.07610219f, -0.07043771f, 0.01728637f, -0.07180747f, -0.04914488f, -0.05892187f,
    0.01671162f, -0.02283036f, 0.04760017f, -0.00434391f, 0.01368173f, -0.03628908f, 0.05932255f, -0.01662331f,
    0.04317113f, 0.05806902f, 0.06294373f, -0.01115695f, 0.01273208f, -0.05507345f, -0.04019519f, -0.04762912f,
    0.07220646f, -0.06475310f, -0.07425778f, 0.06977950f, 0.04874953f, 0.02753658f, -0.01961411f, -0.00855121f,
    0.07043507f, -0.04287099f, -0.01860559f, -0.00898629f, 0.04676294f, -0.04214358f, 0.06361224f, 0.04453620f,
    -0.04188140f, 0.03161278f, -0.05248628f, -0.03103585f, 0.07085922f, -0.06024408f, -0.08097328f, 0.02238110f,
    -0.07704498f, 0.00436025f, -0.02553054f, -0.06846765f, -0.00833439f, -0.05634110f, 0.00180885f, -0.06567170f,
    -0.01140016f, 0.06209901f, -0.05660614f, -0.03474367f, -0.04890225f, 0.03454547f, -0.00628707f, 0.07432585f,
    0.02370752f, -0.03475609f, -0.06524237f, 0.06036809f, -0.06117811f, 0.07219708f, 0.00383941f, -0.07086787f,
    -0.05487121f, 0.02955051f, -0.06995901f, -0.00954177f, 0.07951359f, 0.06177088f, 0.08239265f, -0.05081066f,
    -0.00206035f, -0.08294668f, 0.02237859f, -0.02347044f, 0.02456200f, 0.03053814f, -0.03744717f, 0.02733420f,
    0.06695359f, -0.01936463f, -0.08181175f, -0.04140500f, -0.03852823f, -0.03424101f, -0.05898719f, -0.04398340f,
    0.02711242f, 0.05111171f, 0.02556922f, 0.02821909f, -0.00424754f, 0.06410225f, 0.07048117f, -0.03162640f,
    0.04943167f, -0.03594404f, 0.04728823f, -0.08214772f, -0.00306032f, -0.05788621f, 0.04431676f, 0.02301133f,
    -0.08047616f, -0.05577251f, 0.05927020f, 0.05777494f, 0.03341020f, 0.01976371f, 0.00564742f, 0.02384336f,
    -0.07496565f, 0.08308854f, 0.02633789f, 0.00267919f, -0.08113122f, -0.05528584f, -0.06693131f, 0.05855072f,
    -0.07139422f, 0.00407908f, 0.02509031f, -0.06328021f, -0.05950946f, -0.06107655f, 0.03513760f, -0.04806720f,
    -0.06872308f, -0.02614469f, -0.01468658f, -0.05689240f, 0.04315919f, 0.08165354f, 0.07970251f, -0.04492396f,
    0.03004046f, -0.04632580f, -0.07710566f, -0.00349254f, -0.08228631f, -0.02898878f, -0.03823528f, -0.02013114f,
    -0.02717413f, 0.03768805f, -0.03144441f, 0.00843784f, 0.04693001f, 0.05218526f, 0.06451058f, -0.04115617f,
    -0.07635956f, 0.02636331f, 0.06994233f, -0.06128236f, -0.06521626f, 0.05861529f, 0.01549800f, 0.01734046f,
    0.01592148f, -0.07436218f, 0.02306369f, -0.04993362f, 0.05734335f, 0.07432182f, -0.05896872f, 0.02274626f,
    0.07600435f, 0.01879242f, 0.04066377f, 0.07799125f, -0.07928498f, -0.06451569f, 0.00036748f, 0.01117919f,
    -0.02301637f, -0.02425002f, 0.04359303f, 0.06926332f, 0.00386367f, 0.00988357f, -0.07852783f, -0.08057825f,
    0.05388414f, -0.03051643f, 0.06079527f, -0.00003906f, -0.00277465f, 0.07504544f, -0.04869526f, -0.06897872f,
    0.06335688f, -0.06400998f, 0.05193744f, 0.02091600f, 0.05196065f, -0.04372193f, -0.07208978f, 0.02416970f,
    0.06306754f, -0.01400662f, -0.04294321f, 0.06741886f, -0.02205640f, -0.08282410f, -0.02666992f, 0.00422560f,
    0.06837969f, -0.02823219f, -0.00797292f, 0.02774301f, 0.01306009f, 0.06943803f, -0.08047155f, -0.00245528f,
    0.05375804f, -0.02433018f, 0.02987316f, -0.04325576f, 0.06728294f, 0.06650132f, 0.00270958f, -0.06727085f,
    -0.02383067f, -0.06784987f, -0.03877109f, 0.08287948f, -0.00251856f, -0.00156562f, -0.01020974f, -0.03536303f,
    -0.06667450f, 0.07697782f, 0.07676636f, 0.04143048f, -0.05285136f, 0.01956527f, -0.07827391f, -0.02404511f,
    0.00897563f, 0.02012667f, -0.03066514f, -0.06787231f, 0.03387304f, 0.06232076f, 0.03786907f, 0.00272119f,
    0.01150670f, -0.04299697f, 0.02850620f, -0.03755328f, 0.08101061f, -0.01561441f, 0.05692445f, 0.07822801f,
    -0.06991012f, 0.04604303f, 0.02054874f, 0.04643083f, -0.03368470f, -0.01686837f, 0.08079951f, -0.02875964f,
    -0.04594472f, -0.01023301f, -0.04940794f, -0.07878315f, -0.07637205f, 0.04970565f, 0.02122931f, 0.05134855f,
    0.04926480f, -0.05653414f, 0.03529039f, 0.06242726f, 0.03398147f, -0.07088886f, 0.01905265f, 0.07342695f,
    0.06335740f, -0.03137534f, -0.05438073f, -0.07999614f, -0.06955748f, -0.07038337f, -0.06422900f, 0.04886520f,
    -0.07305636f, 0.02893688f, 0.01466315f, 0.05502617f, 0.04745021f, -0.07685267f, 0.01349939f, -0.01338554f,
    -0.05271572f, 0.01562198f, 0.01774690f, -0.01831056f, -0.00951990f, 0.01490689f, 0.03528981f, -0.05726960f,
    -0.04376535f, -0.06672008f, 0.00524800f, -0.06644406f, -0.00763154f, -0.06686573f, -0.05236447f, -0.06616002f,
    0.03460042f, 0.04798144f, -0.07126011f, -0.01024573f, -0.06856521f, -0.05070285f, 0.06784653f, 0.04635718f,
    -0.05233533f, -0.04746064f, 0.00625203f, 0.02746742f, 0.04249970f, -0.03268713f, -0.03155184f, 0.05110291f,
    -0.00514463f, 0.05003615f, 0.07395239f, -0.07079425f, 0.02039030f, 0.03749564f, -0.00331628f, -0.07504307f,
    0.07302418f, 0.06806070f, -0.02341458f, 0.03306965f, 0.04583549f, 0.05291123f, -0.03579378f, 0.06116872f,
    0.00755632f, 0.07641120f, 0.02349302f, 0.07189307f, -0.05830564f, -0.05057311f, 0.04684731f, -0.01980729f,
    0.04404920f, -0.06497200f, 0.01300472f, 0.04000251f, 0.07232690f, -0.00157508f, 0.08059558f, 0.02892810f,
    0.03760067f, -0.02937235f, 0.00382236f, 0.00954990f, -0.03415314f, -0.08296821f, -0.04377891f, 0.05088772f,
    0.03737897f, 0.06846376f, -0.06387340f, 0.00929891f, 0.00629291f, 0.01891705f, 0.01339892f, -0.01582046f,
    0.02691273f, 0.03692608f, -0.03085865f, -0.04457551f, -0.03124966f, -0.05111188f, -0.07402621f, -0.04174510f,
    -0.05813573f, -0.00678728f, 0.04896960f, 0.04727091f, 0.07933357f, 0.06894419f, 0.02968245f, -0.05782626f,
    0.00035988f, 0.00939941f, 0.04573774f, -0.05127904f, -0.07850250f, -0.04324635f, -0.01756942f, -0.03888863f,
    -0.00336628f, 0.05194531f, -0.02219140f, 0.03598959f, 0.01531326f, -0.07496604f, -0.06906903f, -0.06424554f,
    -0.07362222f, 0.07919823f, -0.03595061f, 0.06906115f, -0.06390034f, 0.04570618f, 0.05379012f, 0.06306948f,
    0.07276364f, 0.05939313f, -0.03910759f, 0.03466671f, 0.04054482f, 0.03958714f, -0.01354941f, -0.03869498f,
    0.06071241f, 0.08243017f, -0.06905105f, -0.05664945f, -0.07522889f, -0.06651779f, 0.03441632f, -0.05622345f,
    -0.03162736f, 0.05335215f, 0.01779659f, 0.06399241f, 0.03576818f, 0.05786579f, -0.02110463f, 0.06951903f,
    -0.03058743f, 0.00386441f, 0.00084109f, -0.05239607f, -0.04891495f, 0.04368172f, 0.01724061f, 0.06533046f,
    -0.08017747f, 0.03558632f, -0.03510141f, 0.01274313f, 0.07168913f, 0.07746651f, 0.01815866f, 0.01637849f,
    -0.03892950f, -0.05075013f, 0.06602664f, -0.03662630f, 0.04788969f, -0.04175838f, -0.08315085f, -0.05886447f,
    -0.01340548f, -0.05964702f, 0.07544459f, -0.02308380f, -0.06138152f, 0.03844374f, -0.05171797f, -0.03206236f,
    -0.03293585f, 0.00170099f, 0.07068174f, 0.06492908f, -0.02806593f, 0.06262536f, 0.03122704f, 0.03651760f,
    -0.02241561f, -0.07066192f, -0.05467090f, 0.00198656f, 0.05926478f, -0.02915188f, -0.02078338f, 0.06945083f,
    0.03360648f, -0.03120722f, -0.05894332f, 0.01836374f, -0.06676525f, -0.03586873f, -0.01769440f, 0.00190386f,
    0.00094753f, 0.05117176f, -0.00049827f, 0.04346515f, -0.00839919f, -0.00414255f, -0.08284714f, -0.06714046f,
    -0.06575682f, 0.00187719f, 0.02379613f, -0.07471283f, -0.00963652f, 0.02826172f, -0.01659617f, -0.06219172f,
    -0.04196485f, -0.04117900f, 0.02082790f, -0.03928298f, 0.01236747f, 0.02207431f, -0.07915215f, 0.02951406f,
    -0.04459465f, -0.01488427f, -0.00017955f, -0.01898493f, -0.02982355f, 0.01395998f, 0.07528805f, -0.04419621f,
    0.02051381f, 0.02559977f, 0.04252015f, -0.06546312f, 0.03405511f, -0.05723467f, -0.01593087f, -0.07607310f,
    -0.01293817f, -0.07700813f, -0.01149099f, 0.01943138f, -0.03571995f, -0.05129151f, -0.04704594f, 0.07407918f,
    0.05718445f, 0.01201727f, 0.04022851f, 0.07361567f, 0.03265336f, 0.02508426f, 0.07216956f, -0.07630391f,
    -0.04052743f, 0.01264705f, 0.05068386f, 0.01040314f, 0.01694511f, 0.06506710f, -0.04553863f, -0.06680619f,
    0.02607323f, -0.04193762f, 0.01514575f, -0.06708320f, 0.01130146f, -0.06940916f, 0.04261958f, 0.04097174f,
    0.04163029f, -0.01983839f, 0.02264884f, 0.04484888f, -0.00047162f, 0.00585991f, 0.07945430f, 0.00297028f,
    0.07498717f, -0.06929429f, 0.05781808f, -0.02066244f, 0.01348862f, -0.02726766f, 0.03006492f, 0.06011075f,
    -0.01884577f, 0.05330789f, 0.04590176f, 0.07608540f, -0.07165842f, 0.05131813f, 0.07995202f, 0.05154306f,
    0.01865291f, 0.01469567f, -0.07525554f, 0.07308938f, -0.07607538f, 0.02654254f, -0.02390676f, 0.01158470f,
    0.04726195f, 0.01900923f, -0.06308752f, 0.05530344f, -0.07856713f, 0.01467061f, 0.08151063f, -0.03517747f,
    0.00627746f, -0.00784985f, 0.05711906f, -0.02672535f, -0.04746192f, -0.04811896f, 0.00146411f, -0.02465589f,
    -0.03647402f, -0.02331652f, -0.04651202f, 0.02893659f, 0.01661200f, 0.07651218f, 0.04273097f, 0.02089348f,
    0.06004720f, 0.06401690f, -0.03349574f, -0.06813532f, -0.03355742f, 0.06158679f, 0.02871467f, 0.01540164f,
    -0.05840803f, 0.03065824f, -0.01307210f, 0.00643503f, 0.06688889f, 0.04121318f, -0.03506340f, -0.08309790f,
    -0.03292445f, 0.06996717f, -0.00796674f, -0.04640210f, 0.04514782f, 0.05282026f, 0.00642491f, -0.07176431f,
    0.08161739f, 0.05152960f, -0.03394748f, 0.04766245f, -0.03157765f, 0.05511945f, -0.06417039f, 0.02935530f,
    0.03412621f, -0.04468253f, 0.04613919f, 0.03511732f, 0.03669124f, -0.03421409f, -0.07972045f, -0.07753754f,
    0.05891980f, 0.06943976f, 0.04863241f, 0.07968566f, 0.00907835f, -0.01116837f, 0.03027717f, 0.02974695f,
    0.01419704f, 0.05057764f, -0.00404603f, 0.07759956f, -0.03832179f, 0.05855379f, -0.07888570f, 0.03761998f,
    0.02340994f, 0.06986611f, -0.05471080f, 0.05451381f, -0.03069641f, 0.03269880f, -0.06416797f, 0.05593862f,
    -0.04763588f, 0.03430476f, -0.00427288f, 0.01659560f, 0.07604321f, 0.04873466f, 0.06750809f, -0.06142310f,
    -0.07193062f, 0.08025680f, -0.07680766f, -0.00988354f, 0.02864081f, -0.00484354f, -0.05113059f, 0.02584952f,
    0.03015602f, -0.01484573f, -0.03722737f, 0.01724463f, 0.06250820f, -0.01649468f, 0.07228195f, 0.01830825f,
    -0.01841596f, 0.07278766f, 0.05376803f, 0.01106471f, -0.05875496f, 0.02996002f, -0.05748147f, -0.08120561f,
    -0.08021998f, 0.05168116f, 0.03230922f, 0.05551335f, -0.00292475f, 0.04959540f, 0.02212643f, -0.06811415f,
    0.03959714f, 0.03212014f, -0.05438120f, -0.06192964f, 0.04820289f, -0.04023710f, 0.01796176f, -0.07097459f,
    0.04198887f, -0.02340703f, -0.05576947f, 0.07557862f, 0.01534632f, -0.04991060f, -0.00105372f, -0.06228597f,
    0.00264614f, -0.00393917f, -0.03521365f, -0.05857233f, -0.00431097f, 0.02014562f, 0.06634216f, -0.03793658f,
    -0.02727607f, -0.06325768f, -0.05968381f, 0.05670516f, -0.05452841f, -0.00774761f, -0.06550556f, -0.02103034f,
    -0.00107375f, 0.02682760f, -0.00248619f, 0.03750391f, 0.02449442f, 0.04182656f, -0.08014391f, 0.07032008f,
    -0.06199818f, -0.06604248f, -0.08120861f, -0.03955431f, 0.07594667f, -0.01242398f, -0.05198358f, 0.05858858f,
    -0.02162158f, 0.03100118f, -0.01815563f, -0.06961028f, -0.04621410f, -0.06536047f, -0.05019522f, -0.01676558f,
    0.04867223f, -0.05314984f, 0.05169057f, -0.00711189f, -0.02612986f, -0.05884274f, 0.04080584f, -0.05340730f,
    -0.01245680f, 0.01163401f, -0.08301756f, -0.06995427f, -0.03198583f, 0.01705066f, -0.03072758f, 0.02372007f,
    -0.06678264f, -0.02303757f, -0.00710811f, 0.05854829f, -0.04485882f, 0.04048830f, -0.04014682f, 0.03842047f,
    -0.05076693f, 0.03175566f, -0.05004666f, 0.05888040f, 0.06318995f, -0.04079685f, 0.02021305f, -0.02919559f,
    -0.02762257f, 0.05375950f, 0.06498145f, 0.04993847f, -0.01056628f, 0.02419740f, 0.08269319f, 0.01673320f,
    0.05333015f, -0.03342126f, -0.04107356f, 0.05440149f, 0.03784703f, 0.02718633f, -0.00683863f, -0.00200188f,
    -0.00306445f, -0.05459150f, -0.06435751f, 0.01797791f, -0.04154312f, -0.06783342f, -0.00949072f, 0.07394286f,
    -0.05121931f, -0.08300396f, 0.03107916f, 0.05646784f, 0.06282917f, -0.05422963f, 0.06969325f, 0.03140974f,
    0.03565947f, 0.05759116f, -0.02197268f, -0.02819552f, -0.00916361f, 0.07777806f, -0.04318678f, -0.03291002f,
    0.06729276f, -0.08086492f, 0.00559861f, 0.02838830f, 0.02955792f, -0.07791434f, 0.02583539f, 0.03393346f,
    -0.03283436f, -0.05071200f, 0.04764579f, 0.02387023f, 0.04247898f, 0.04878843f, -0.02261485f, -0.07696427f,
    -0.08306272f, -0.07585719f, 0.00738709f, -0.02825652f, -0.05402458f, -0.06140779f, -0.05111495f, -0.00880968f,
    0.03764441f, -0.02660780f, 0.00515409f, -0.06975198f, -0.06331626f, -0.04882539f, -0.03946216f, -0.07551430f,
    0.02648996f, -0.02695723f, -0.02419614f, 0.02142721f, 0.06817462f, -0.03805083f, 0.03311456f, -0.01511903f,
    -0.04968383f, 0.03294441f, -0.02092290f, 0.02714279f, -0.06849857f, 0.03712749f, 0.05134889f, -0.03363409f,
    -0.07426716f, -0.04381301f, 0.04695023f, 0.02141863f, -0.02922322f, -0.03390893f, -0.04613363f, -0.00219950f,
    0.05206482f, -0.04143485f, -0.06992044f, -0.06995185f, -0.03670833f, 0.06825279f, -0.00056284f, -0.05292417f,
    -0.01988288f, -0.04465946f, 0.05606959f, -0.07693306f, 0.00652594f, 0.05086306f, 0.07136813f, -0.02848156f,
    0.03792495f, -0.06601509f, -0.05623135f, 0.03695610f, -0.01736913f, -0.04140895f, -0.08287897f, -0.02283373f,
    0.05720473f, 0.00083141f, -0.07640337f, -0.04238239f, 0.04866049f, -0.04403655f, -0.05468115f, -0.07963621f,
    -0.05857347f, 0.01590299f, -0.02889684f, -0.04322384f, -0.04273817f, -0.07804238f, -0.08138919f, 0.03349632f,
    0.06700866f, -0.05718421f, 0.06081695f, 0.07311492f, 0.03043498f, 0.06749907f, 0.01745994f, 0.05706730f,
    0.04980962f, -0.00691360f, -0.05436916f, 0.08023636f, -0.02316947f, 0.03351855f, -0.03357039f, -0.00222290f,
    0.00986309f, 0.01054443f, -0.00581373f, -0.08216429f, -0.02991930f, -0.08163655f, 0.04213359f, 0.05261015f,
    0.02769125f, 0.06429046f, -0.04354297f, -0.02219025f, -0.03701700f, -0.07886412f, 0.06369000f, 0.05661290f,
    0.03887149f, 0.04819376f, 0.07750973f, 0.03673252f, 0.03950470f, -0.04308102f, -0.04191403f, 0.00744064f,
    -0.04398841f, -0.02470862f, -0.02652968f, 0.03867419f, -0.05817788f, -0.05333098f, -0.06767904f, 0.05676746f,
    0.06440262f, -0.02222439f, 0.05328538f, -0.00247326f, -0.06941043f, 0.06104670f, 0.06691487f, 0.01507478f,
    -0.00426794f, -0.04542170f, 0.01577868f, 0.03102394f, 0.07098652f, 0.05545026f, 0.06155153f, -0.07148754f,
    0.04205469f, -0.05583268f, 0.02683819f, 0.03984497f, -0.01061617f, -0.01882488f, -0.02068383f, -0.02565457f,
    -0.02172756f, -0.03368519f, 0.03777415f, -0.07539027f, -0.04854590f, 0.02842831f, 0.07636720f, 0.03718024f,
    -0.01080459f, -0.05714863f, 0.01307205f, 0.00199854f, -0.04940606f, -0.06356162f, -0.06761026f, -0.07619777f,
    0.00607699f, -0.08245113f, -0.06659576f, 0.00231102f, -0.00966595f, -0.07724135f, 0.01353911f, -0.00411998f,
    -0.05067227f, 0.03473934f, -0.03769451f, 0.04447191f, 0.01791650f, -0.04531249f, 0.03072577f, 0.04540116f,
    -0.00988265f, -0.08288097f, -0.04084054f, 0.02725194f, 0.06029630f, 0.07332958f, 0.05800248f, 0.05848160f,
    -0.01760899f, 0.06512043f, 0.01213020f, -0.05739309f, 0.01492731f, 0.00351253f, 0.08198361f, 0.06136083f,
    0.04773216f, 0.00679093f, -0.07497683f, 0.04182680f, -0.02507457f, -0.00557294f, -0.00676902f, 0.03487509f,
    -0.02092117f, -0.06183618f, -0.00876971f, -0.05405050f, 0.03229333f, 0.01146114f, 0.06250805f, -0.05614462f,
    0.07720116f, 0.02056230f, -0.05171349f, 0.00952297f, -0.02438801f, 0.00679596f, 0.07495350f, 0.00368316f,
    -0.06026053f, 0.01128915f, 0.02217374f, 0.05352361f, -0.03451094f, 0.02780595f, -0.02139462f, -0.05690932f,
    -0.07656485f, 0.03657746f, -0.03955304f, -0.04150159f, -0.03360755f, 0.07914099f, -0.00105389f, -0.08266827f,
    -0.02629086f, 0.00181913f, -0.06909620f, -0.05043465f, -0.06361707f, -0.01667584f, -0.05704691f, -0.00367119f,
    -0.01787221f, 0.01338784f, -0.08221823f, 0.05381572f, -0.05287276f, 0.01567982f, -0.00833466f, -0.04376072f,
    0.07091963f, 0.05587894f, -0.07266624f, 0.07233944f, 0.06513148f, -0.08271180f, -0.03591567f, -0.06914830f,
    -0.00901111f, 0.04132089f, 0.06427719f, 0.02575850f, 0.05486311f, -0.07059127f, 0.00823155f, -0.03299555f,
    0.06635129f, 0.01869619f, -0.06554314f, -0.04084125f, 0.01754412f, -0.01842909f, 0.01001101f, -0.03507667f,
    -0.06141117f, -0.08318765f, 0.02065383f, 0.05922826f, 0.00372727f, -0.06860053f, 0.04530495f, 0.00354245f,
    -0.07626971f, -0.00824712f, 0.04898052f, 0.06916669f, -0.06029777f, 0.08253553f, 0.02377157f, 0.02640615f,
    -0.06231460f, 0.07090592f, -0.01321429f, -0.07469825f, 0.07653567f, 0.05892349f, -0.08152696f, -0.05001615f,
    0.06585635f, -0.06616449f, 0.02197621f, -0.03867236f, 0.02495887f, 0.07919537f, 0.01912172f, 0.03921311f,
    -0.07420274f, 0.03508847f, -0.00347747f, 0.07664740f, 0.02946547f, 0.08126114f, 0.04849009f, 0.06420743f,
    -0.07245199f, -0.05529370f, 0.07275825f, 0.01035872f, 0.04459724f, 0.01162012f, -0.03371184f, 0.02827413f,
    0.01383250f, -0.03676919f, -0.04524531f, 0.06814431f, -0.05559398f, 0.05948295f, 0.06930888f, 0.06238217f,
    -0.05056913f, -0.02639934f, 0.03533117f, 0.07454517f, 0.01683126f, 0.04872537f, -0.04025238f, -0.01012560f,
    -0.05250884f, -0.01946212f, 0.01526359f, -0.07553768f, 0.02044393f, 0.06109571f, 0.04997503f, 0.01581227f,
    -0.00585409f, 0.01052697f, -0.03520985f, -0.01495086f, -0.07374834f, -0.04411342f, 0.01942179f, 0.04127042f,
    -0.08229634f, 0.07622191f, -0.03562398f, 0.05935989f, 0.01021301f, -0.07833423f, 0.03339219f, 0.07922557f,
    -0.07507863f, 0.00153989f, 0.04521910f, -0.03460004f, -0.08295389f, -0.02611506f, -0.03240440f, -0.04680965f,
    0.00821151f, 0.06610087f, 0.03776182f, 0.06654151f, 0.03596197f, 0.02046957f, 0.00491224f, 0.00964832f,
    0.00229346f, 0.00192969f, 0.04089139f, -0.00078127f, 0.04798464f, 0.04842982f, 0.04189738f, 0.04432280f,
    0.05628115f, 0.02789316f, -0.02242990f, -0.07124832f, 0.00178977f, -0.07398048f, 0.06767786f, -0.06041121f,
    -0.06046050f, 0.04583591f, -0.07325023f, 0.06368240f, 0.02744830f, 0.00274941f, -0.02948382f, 0.01553245f,
    0.00206823f, 0.00479076f, 0.04913963f, -0.07669517f, 0.02287762f, -0.03936614f, -0.01694828f, -0.05446181f,
    0.06707624f, -0.00000479f, -0.05790654f, 0.07923321f, 0.05837688f, 0.00279568f, -0.04157558f, -0.04216130f,
    -0.01866509f, 0.05232766f, -0.06702316f, -0.08131598f, 0.03977588f, 0.01138527f, 0.01715837f, -0.06296206f,
    -0.01797655f, -0.04908348f, 0.02831391f, 0.04742638f, -0.02572469f, -0.08309096f, -0.00082951f, 0.01175838f,
    -0.05979493f, 0.07838766f, -0.02510947f, -0.00430742f, -0.05454062f, 0.00220399f, -0.08282792f, 0.06300499f,
    0.04950784f, -0.00516424f, -0.01090243f, 0.06973225f, -0.06865226f, 0.03683313f, -0.08137350f, 0.06270446f,
    -0.01562009f, 0.03167657f, 0.01730724f, -0.01366937f, -0.06330758f, 0.01483075f, 0.01824456f, -0.07628916f,
    -0.01220607f, -0.05289950f, -0.06198282f, -0.01731503f, -0.06045940f, 0.07858958f, 0.03103364f, 0.00265384f,
    0.02970804f, 0.03131447f, 0.06417107f, -0.06911802f, -0.02841699f, -0.04733757f, -0.05242806f, 0.07013170f,
    -0.04689115f, 0.02366447f, -0.00521692f, -0.08242935f, 0.07821308f, 0.01871765f, 0.03151217f, -0.03405736f,
    -0.03070611f, -0.03374886f, 0.02395904f, 0.00376451f, -0.06513967f, -0.06546535f, 0.04197075f, 0.05495983f,
    -0.00183821f, 0.01258862f, -0.01026111f, -0.08250895f, -0.04553174f, -0.04731263f, -0.03049633f, 0.05923432f,
    0.04584343f, 0.04671310f, -0.01888049f, 0.04907382f, -0.06152323f, -0.06067055f, 0.05813614f, -0.03540841f,
    -0.03911621f, -0.05905515f, 0.01558109f, 0.07092118f, -0.05844028f, -0.03914662f, 0.07601869f, 0.05042763f,
    0.00203834f, -0.01795232f, -0.06798785f, 0.03204438f, 0.08215075f, 0.01487379f, 0.01266181f, -0.04375895f,
    -0.00137907f, -0.02739699f, -0.07975861f, 0.04942309f, -0.06836770f, -0.02020211f, 0.04672405f, -0.02471681f,
    -0.00853949f, -0.05159988f, -0.07623596f, -0.06226354f, 0.00327591f, 0.06636612f, -0.00376505f, 0.03571458f,
    -0.02133127f, 0.02183797f, -0.01716567f, 0.06096741f, -0.01039138f, -0.07216596f, -0.02063319f, -0.07267562f,
    0.04271141f, 0.03026916f, 0.06967148f, 0.04800769f, -0.08002108f, 0.05574685f, 0.07727596f, -0.08200117f,
    0.06499895f, 0.00530228f, -0.01243730f, -0.01856653f, 0.01401903f, 0.00379680f, 0.06802270f, -0.07386814f,
    0.00967442f, 0.01294150f, -0.00087020f, 0.02336697f, -0.01444461f, 0.03251916f, 0.05445869f, 0.06258947f,
    0.00874169f, -0.02513812f, -0.02157112f, -0.00016297f, 0.04781395f, -0.06084276f, -0.03688087f, 0.02030098f,
    -0.02558160f, -0.02047944f, 0.04459492f, -0.06952967f, -0.05844975f, 0.04693266f, 0.01859875f, -0.07243215f,
    0.06405523f, 0.04410596f, 0.06971590f, -0.01000130f, -0.05536032f, 0.07329714f, 0.03077772f, -0.04000578f,
    -0.07407828f, 0.07293018f, -0.02859356f, -0.07431152f, -0.04896218f, -0.06859073f, 0.08324939f, 0.04420051f,
    -0.03279447f, 0.00917400f, 0.05676198f, 0.06417330f, 0.03449987f, 0.02517753f, 0.04849331f, 0.08048769f,
    -0.00928596f, -0.02561883f, 0.04427100f, 0.01063300f, -0.01934418f, 0.04084769f, 0.07257845f, -0.07036741f,
    -0.02131552f, -0.04619682f, 0.03868294f, 0.02241696f, -0.01226621f, -0.03330008f, -0.07174660f, -0.01172846f,
    0.06178620f, -0.05917015f, 0.01637936f, 0.00324842f, 0.04595592f, -0.06997304f, 0.01827524f, -0.07858458f,
    -0.07492416f, -0.07783928f, -0.08315747f, -0.07755410f, -0.05223268f, 0.07311987f, 0.00609993f, -0.03816953f,
