// Auto-generated weights file
// DO NOT EDIT

#ifndef WEIGHTS_H_
#define WEIGHTS_H_

#include <stddef.h>
#include <stdint.h>

// Shape: (784, 128), dtype: float32
static const float fc1_weight[100352] = {
    0.01284608f, -0.02213692f, -0.01957751f, -0.00531938f, 0.01421919f, -0.00337792f, 0.00962417f, 0.00550790f,
    0.01162558f, 0.00922029f, -0.01195161f, 0.00489773f, -0.03553702f, -0.02304023f, -0.01013748f, 0.01646368f,
    -0.01790644f, 0.01000478f, -0.00470905f, -0.00257664f, 0.00323716f, -0.03415818f, -0.00869576f, 0.02729889f,
    0.03326692f, 0.02364240f, -0.02716597f, 0.03034376f, -0.01368251f, -0.00832929f, -0.02461793f, -0.02541649f,
    -0.03047352f, 0.00087818f, 0.03014481f, -0.01720738f, 0.01204813f, 0.01306428f, 0.02795803f, 0.00457507f,
    -0.02806894f, 0.01177321f, 0.01299065f, -0.00326029f, -0.01316376f, -0.02309367f, -0.00370717f, 0.00994490f,
    0.03053798f, 0.00172927f, -0.00729703f, -0.02654848f, 0.01846684f, -0.03236821f, 0.02497059f, 0.01487174f,
    -0.01325918f, 0.00875581f, 0.00924221f, -0.03319603f, 0.03432388f, 0.00330921f, 0.00793415f, -0.02408044f,
    -0.03233047f, -0.00247650f, -0.00761867f, 0.00406373f, 0.00437412f, -0.01336244f, -0.01390963f, -0.03352418f,
    0.02992590f, -0.03268601f, -0.02535528f, -0.00223132f, -0.01436073f, -0.03038791f, 0.00641987f, 0.00542082f,
    0.01533980f, -0.03258682f, -0.01306575f, -0.01744245f, 0.03517777f, 0.01528847f, -0.00573728f, 0.03305461f,
    0.03317070f, 0.02906700f, -0.03318306f, 0.00742126f, 0.02039457f, 0.01379297f, 0.01683742f, 0.00452901f,
    -0.00334716f, 0.01878696f, 0.01328587f, 0.00655324f, 0.02356039f, -0.02148220f, -0.00553879f, -0.03481169f,
    -0.00304641f, 0.02207945f, 0.01816745f, 0.03495289f, -0.02543054f, 0.00849917f, 0.00685653f, 0.01288847f,
    0.01164723f, 0.00040750f, -0.03531554f, 0.02662714f, 0.02781417f, 0.02754340f, 0.03021883f, 0.00399290f,
    -0.02151889f, -0.02682308f, 0.00281278f, -0.00274345f, -0.03118718f, -0.01487057f, -0.01442990f, -0.02732498f,
    0.02554797f, 0.02650905f, 0.03065769f, -0.02102600f, 0.00073464f, 0.00249389f, 0.02785462f, -0.00181578f,
    0.02522776f, -0.02773239f, -0.02520806f, 0.00909235f, -0.01109272f, -0.03326758f, -0.00654871f, 0.02925161f,
    -0.00830254f, 0.02362659f, 0.02301113f, 0.00914335f, 0.00054531f, 0.00196021f, 0.02164299f, 0.01708301f,
    -0.01408186f, 0.01039175f, -0.03086026f, -0.03391605f, -0.03555736f, 0.01156093f, -0.01324666f, -0.00503609f,
    0.00494564f, -0.03034536f, -0.02499157f, -0.01183708f, -0.02516930f, -0.02144131f, -0.02646500f, -0.01677977f,
    -0.02168224f, -0.00139128f, -0.01360574f, -0.01226699f, -0.01440538f, 0.02141431f, 0.03296563f, 0.02664114f,
    0.00240172f, -0.00481714f, 0.00070530f, -0.02873618f, -0.02421347f, 0.00775321f, 0.02730515f, -0.03419577f,
    -0.00564568f, 0.01944414f, -0.00176380f, 0.03518788f, -0.00323662f, 0.00426315f, -0.00318356f, -0.03118598f,
    -0.03016398f, 0.01116669f, -0.01328552f, -0.00620868f, 0.02057019f, 0.03445664f, 0.02589876f, 0.00569635f,
    -0.00980088f, -0.00131793f, 0.00266553f, 0.01651611f, 0.01212929f, -0.03403176f, 0.01125868f, -0.00506961f,
    0.00503097f, -0.00490562f, 0.01782566f, 0.03333559f, 0.00301697f, -0.01555944f, 0.01842300f, 0.03196578f,
    0.03426051f, -0.01825244f, -0.03150324f, -0.00038255f, 0.00728927f, 0.01541775f, 0.01445489f, 0.03132483f,
    -0.00269509f, -0.03503160f, 0.01643464f, -0.03505582f, -0.02487318f, 0.03036658f, -0.00554277f, 0.02340490f,
    -0.02586057f, -0.02448954f, 0.03146476f, 0.01952482f, -0.01748244f, 0.02787254f, -0.00302141f, 0.01508904f,
    -0.02880096f, -0.02024129f, 0.01507088f, -0.00201680f, -0.01552344f, -0.01961953f, 0.01281717f, -0.00700351f,
    -0.02400448f, -0.01485136f, 0.01000719f, -0.00646081f, -0.01382082f, -0.01419772f, -0.01305733f, 0.02025716f,
    0.01362928f, -0.01823373f, 0.01930691f, 0.02325631f, -0.03184516f, -0.00965924f, -0.00681040f, 0.03175646f,
    -0.00861566f, -0.01058043f, -0.00587245f, 0.01662278f, -0.02388164f, -0.02073585f, 0.02321867f, -0.00168766f,
    0.03441019f, -0.00615324f, 0.01620387f, -0.01848646f, 0.01872339f, 0.01116138f, 0.01972392f, -0.00226650f,
    0.00570496f, 0.01659632f, -0.01044629f, -0.02308849f, 0.03015365f, 0.01294897f, -0.00874384f, 0.01128382f,
    -0.01282678f, 0.02478062f, 0.01557117f, 0.00931458f, 0.02945746f, 0.01943640f, -0.01000760f, 0.02141386f,
    0.03159153f, 0.02208701f, -0.01577130f, 0.02444113f, 0.02494240f, 0.03002946f, -0.01004110f, -0.00931960f,
    0.03236515f, -0.01812555f, -0.00394518f, 0.02843680f, 0.00169746f, 0.00401061f, -0.02167422f, 0.03560741f,
    0.00869599f, -0.00421728f, 0.00400034f, 0.02258730f, -0.00906433f, 0.01760752f, -0.02203652f, 0.02875423f,
    -0.03038307f, -0.02306237f, -0.03121539f, 0.02427690f, -0.02033331f, 0.00036441f, -0.00060579f, 0.01851620f,
    -0.02282474f, 0.02313300f, -0.01754223f, -0.02408131f, -0.03034758f, -0.02229322f, 0.03474300f, -0.00761348f,
    0.02772168f, -0.03556640f, -0.01797703f, -0.01841177f, 0.00606087f, -0.02292503f, -0.00858358f, -0.01503962f,
    0.02585652f, -0.01042957f, -0.03319345f, -0.03236363f, -0.01242541f, 0.01514527f, 0.02194645f, 0.02126504f,
    0.02576660f, 0.01350520f, 0.03307594f, -0.01013764f, -0.00291666f, -0.01534885f, 0.01191346f, -0.02018602f,
    -0.01435369f, -0.02504871f, 0.02160439f, -0.01061557f, -0.03506236f, -0.01823872f, 0.02292170f, -0.00697264f,
    0.00195652f, 0.02876434f, -0.02291259f, -0.03460096f, -0.01219796f, 0.00248780f, 0.00610687f, 0.01645377f,
    0.02755975f, 0.01073143f, 0.01040540f, 0.03192765f, -0.01724800f, 0.00373930f, 0.03166642f, -0.00794330f,
    -0.00832969f, -0.02193801f, 0.02486242f, 0.03299344f, -0.02596436f, 0.00743477f, 0.03190471f, 0.00053591f,
    0.00331862f, -0.01636147f, 0.00615081f, -0.00391953f, -0.00493507f, -0.00448420f, 0.02804854f, 0.02686674f,
    0.01244496f, 0.02462105f, 0.02041721f, -0.02080748f, 0.02807880f, 0.03514791f, -0.00700447f, -0.03013930f,
    -0.03402729f, -0.02578965f, 0.01928416f, -0.03312133f, -0.02670928f, 0.01591917f, -0.00274297f, 0.01170465f,
    -0.00304395f, -0.00059073f, 0.00923899f, -0.00632177f, 0.01717666f, -0.02717068f, 0.00923351f, -0.00061084f,
    -0.00613740f, 0.03090426f, 0.00555956f, 0.01555970f, -0.00554000f, -0.02596955f, -0.02917614f, -0.00275994f,
    -0.02602416f, 0.02239634f, 0.00283651f, -0.00835104f, -0.02968675f, 0.02454646f, 0.01339965f, -0.00659971f,
    0.03050019f, -0.00101734f, -0.01607930f, 0.02466786f, 0.02761427f, 0.01240309f, -0.00537690f, -0.01148476f,
    0.02496438f, 0.01767239f, -0.02207842f, -0.02411065f, 0.01476726f, -0.02389419f, 0.00710203f, -0.01196872f,
    -0.03429141f, 0.00183572f, 0.02009339f, -0.01873543f, -0.02028775f, -0.01783840f, 0.02195206f, 0.02909421f,
    -0.00865385f, 0.02036250f, -0.01716280f, -0.01641133f, -0.00317742f, -0.00431931f, 0.02375032f, -0.03343963f,
    0.00903418f, -0.01284777f, -0.01938320f, -0.01415907f, 0.00271025f, -0.02774692f, 0.02148638f, -0.00263474f,
    -0.00955832f, 0.00199322f, 0.01411998f, -0.02902422f, 0.00793512f, 0.03427580f, -0.01576087f, -0.00026333f,
    -0.00221097f, -0.02845693f, -0.00299108f, 0.01471900f, 0.00703791f, 0.03160433f, 0.01069947f, -0.02767649f,
    -0.02820442f, -0.00979858f, 0.02410452f, 0.01590854f, 0.03084559f, -0.02495728f, 0.00202678f, -0.03393705f,
    0.00179886f, 0.02858522f, -0.02091272f, 0.01212718f, -0.02149438f, -0.01383954f, -0.01147378f, -0.00424192f,
    -0.01506479f, 0.00746271f, 0.02944879f, -0.01273539f, 0.00816926f, 0.01846650f, 0.00061799f, 0.01563630f,
    0.03203591f, -0.02941099f, 0.02587007f, 0.03207868f, -0.02525482f, -0.01844573f, -0.01157197f, -0.02325088f,
    -0.00384027f, 0.01858811f, 0.01514123f, 0.03155238f, 0.00836891f, 0.03488149f, -0.01569729f, 0.01609308f,
    -0.03002739f, -0.01807767f, -0.01610854f, -0.02113003f, -0.02399581f, 0.03430464f, -0.03243052f, -0.01411302f,
    -0.00713827f, -0.00685068f, 0.02305153f, 0.01438025f, -0.03542009f, 0.03134480f, 0.02222156f, -0.03007742f,
    0.00514635f, 0.02501768f, -0.00318424f, -0.00000460f, 0.00141565f, 0.01664643f, 0.01320788f, 0.00714379f,
    0.01754595f, -0.00602547f, 0.02202256f, 0.01920728f, -0.02355227f, 0.02449689f, 0.00615352f, 0.01744701f,
    -0.01594647f, 0.02003202f, -0.01603703f, 0.02124038f, 0.00604386f, 0.00431056f, 0.00289561f, -0.00722686f,
    0.01425988f, -0.03165655f, 0.00815842f, -0.02034265f, 0.01209701f, 0.00196961f, 0.02270978f, -0.02909187f,
    0.01597285f, 0.02807697f, -0.02574650f, 0.01526134f, 0.00882259f, -0.00146211f, -0.01018361f, -0.01892133f,
    -0.01092756f, 0.01901601f, 0.03299605f, -0.00965999f, -0.01520512f, -0.01864163f, -0.02999953f, -0.00209743f,
    0.01491986f, 0.02282672f, -0.03189091f, -0.01449882f, -0.01365846f, 0.00467314f, -0.01000553f, 0.02779067f,
    0.01189331f, 0.03337776f, -0.01917047f, -0.00657374f, 0.03515481f, -0.03287481f, 0.01952882f, -0.02051455f,
    -0.00923107f, 0.01614107f, 0.00870279f, -0.00565436f, 0.01775005f, -0.01620755f, -0.00828390f, 0.01285629f,
    0.03121902f, 0.02046882f, -0.00117835f, 0.00149617f, 0.01173261f, 0.01491664f, 0.01269452f, 0.00154704f,
    0.00126289f, 0.02747140f, 0.01761785f, 0.01572954f, 0.00011448f, 0.01705932f, -0.03056980f, 0.02497474f,
    0.00314557f, -0.01076363f, -0.00958980f, -0.02306138f, -0.00992888f, 0.01721528f, -0.01427399f, 0.03266176f,
    0.02594913f, 0.00448860f, 0.01096772f, 0.01542854f, 0.00934640f, -0.01778368f, -0.01043249f, -0.00478992f,
    -0.01973920f, 0.00704439f, -0.02963920f, 0.02434649f, 0.02867394f, -0.02937033f, -0.01775238f, -0.01979505f,
    0.00146927f, -0.03309204f, 0.02984446f, 0.02283851f, 0.00183312f, 0.01246028f, -0.01752212f, 0.00662638f,
    -0.00615867f, -0.01972561f, -0.00074608f, -0.02955819f, 0.02654428f, 0.00441598f, -0.02942080f, -0.02889449f,
    0.01935730f, -0.00454508f, -0.01374591f, -0.01223693f, -0.02714793f, -0.00176902f, -0.01751071f, -0.02600110f,
    0.02319133f, 0.01258437f, 0.01787193f, -0.00734246f, 0.01110095f, -0.01721753f, 0.01361642f, -0.01473487f,
    -0.02203150f, 0.01649267f, 0.01098242f, 0.02097125f, 0.02208366f, 0.02497712f, -0.02533642f, -0.01288769f,
    -0.01232278f, 0.02763145f, -0.02807981f, -0.00031289f, 0.03056887f, -0.02700435f, -0.02119791f, -0.02474448f,
    -0.03190644f, 0.03405722f, 0.03203947f, 0.03383556f, -0.02092262f, 0.01460292f, 0.02732146f, -0.00902095f,
    -0.00236739f, -0.00396784f, -0.03527863f, 0.03405575f, -0.00873332f, 0.02241487f, 0.01728049f, -0.01815096f,
    -0.01625523f, 0.01641288f, -0.02586966f, 0.00899179f, 0.01913564f, -0.00461591f, 0.00486697f, 0.00006213f,
    -0.02780933f, 0.01629270f, 0.02251798f, 0.01701464f, 0.01428318f, 0.02726265f, 0.00883575f, 0.02643844f,
    -0.02705006f, 0.01734738f, 0.02356176f, 0.01692261f, 0.00462297f, 0.03348598f, 0.02756160f, 0.02631992f,
    -0.00568375f, -0.00497506f, 0.02912517f, 0.01915698f, -0.02231186f, -0.01161318f, 0.01248517f, -0.00921414f,
    -0.01977168f, 0.01810580f, -0.02993937f, -0.00101319f, 0.01265769f, 0.03360545f, 0.01147707f, -0.01125870f,
    0.02502849f, -0.00818557f, 0.01772245f, 0.03443303f, 0.01651194f, -0.03165414f, -0.02111888f, -0.01587519f,
    0.00934084f, -0.01278635f, -0.03055127f, 0.01567142f, -0.02721043f, -0.00362050f, -0.00474232f, -0.00098447f,
    -0.03275558f, 0.02861823f, 0.01487516f, 0.02898145f, 0.00209806f, 0.00495349f, 0.00395508f, -0.00543078f,
    0.01787093f, 0.02011098f, -0.01324872f, 0.01267028f, -0.02582175f, 0.02350348f, -0.02651775f, 0.02701452f,
    0.02253019f, 0.00198709f, 0.00193313f, -0.01811370f, -0.03413603f, 0.03478710f, 0.00696123f, 0.02211240f,
    0.02352953f, 0.02638727f, -0.02252201f, 0.01215123f, 0.01358693f, -0.02336477f, 0.00080306f, -0.02421833f,
    0.03430577f, 0.02472555f, -0.01827332f, 0.01405098f, -0.01597949f, 0.03039587f, 0.00375093f, 0.00368139f,
    -0.01530340f, 0.00778315f, -0.01423998f, 0.00416674f, 0.02674530f, -0.02186521f, 0.00922027f, 0.01029432f,
    -0.01065706f, 0.01982209f, 0.01443408f, 0.03432520f, 0.03343561f, -0.00344103f, 0.03024397f, 0.02754919f,
    0.02889549f, -0.00466124f, -0.01219219f, 0.01142452f, 0.02205547f, -0.00199024f, 0.02168098f, -0.03503654f,
    -0.00332698f, -0.01099831f, 0.00866260f, -0.03474154f, -0.00651379f, -0.00890519f, -0.01328637f, 0.03471525f,
    0.01097179f, -0.02677999f, -0.02317292f, 0.02761385f, 0.02594432f, 0.01142335f, -0.02603626f, 0.01254974f,
    0.01224766f, -0.02485431f, -0.01482424f, 0.01837733f, 0.00073839f, -0.00036403f, 0.03466168f, 0.00227195f,
    0.03275987f, 0.01894819f, 0.01580947f, -0.01229554f, 0.00586133f, 0.00028615f, 0.03373152f, -0.02686317f,
    0.01404492f, 0.01320640f, -0.01814053f, 0.02079130f, -0.03273737f, -0.03240201f, -0.01366248f, 0.01124841f,
    -0.00022675f, 0.01992725f, -0.02649789f, 0.03222838f, 0.02019553f, -0.03098946f, 0.01881140f, -0.02133312f,
    0.03136555f, -0.02609707f, -0.00559758f, -0.00674691f, -0.02237172f, 0.03416450f, 0.02888712f, -0.00776961f,
    0.02689077f, 0.02267741f, -0.01855820f, -0.01553681f, 0.03236830f, 0.01755303f, 0.01261742f, -0.00747721f,
    0.00607855f, 0.02365129f, -0.00316462f, 0.00701009f, 0.03363222f, -0.03093218f, -0.00385929f, 0.02084323f,
    -0.01838977f, -0.00908179f, -0.00457715f, 0.01535079f, 0.01748782f, -0.02568812f, -0.01231809f, 0.01938693f,
    -0.01152876f, 0.01262707f, 0.03511880f, -0.03263488f, -0.01836382f, -0.01507074f, -0.03388774f, 0.03111061f,
    -0.01908664f, -0.03494685f, -0.02114937f, -0.01499582f, 0.02870945f, 0.00492667f, 0.00540956f, -0.02049362f,
    0.01941733f, -0.02305666f, 0.02519224f, 0.02328906f, -0.01058720f, -0.03302313f, -0.00163695f, -0.01835113f,
    -0.03380823f, 0.01616168f, 0.00832097f, 0.01592265f, 0.01408681f, -0.01255641f, 0.00068962f, -0.01748723f,
    -0.02090204f, -0.01352346f, 0.01564706f, -0.02807727f, 0.00819889f, 0.02794064f, -0.00387046f, -0.02477099f,
    -0.01244372f, -0.01061604f, 0.01946531f, -0.01755476f, -0.00925271f, -0.00950437f, -0.02249227f, -0.00509491f,
    -0.01357758f, 0.01160429f, -0.02193182f, 0.02866330f, -0.02923887f, -0.02861177f, -0.02245660f, -0.03297236f,
    0.02163645f, -0.00070942f, -0.00577540f, 0.01978722f, -0.02709396f, -0.02902194f, -0.00358824f, 0.00885393f,
    -0.03148165f, 0.01980422f, -0.02105096f, -0.03491810f, 0.02834736f, -0.01411913f, -0.00749105f, 0.00271320f,
    -0.02582447f, -0.01387748f, 0.03166618f, 0.00516012f, 0.01013727f, -0.02662573f, -0.00820574f, 0.02718527f,
    0.01954850f, -0.00922273f, 0.00316020f, -0.02967821f, 0.00407705f, -0.01732844f, 0.03202951f, -0.03256150f,
    0.00474075f, 0.01257117f, -0.00361584f, -0.03390507f, -0.02949174f, 0.01940697f, -0.02894562f, -0.03397235f,
    -0.03220721f, 0.02493944f, -0.02307435f, 0.00520975f, -0.00443533f, 0.00760883f, 0.02901549f, 0.01263934f,
    -0.01723431f, 0.03061146f, 0.03106768f, -0.01435498f, -0.02569981f, -0.01446497f, -0.00617559f, -0.02222843f,
    -0.03293623f, -0.02047305f, -0.02719405f, -0.00587073f, 0.03209062f, 0.02803414f, 0.01364767f, -0.02628564f,
    0.02201099f, -0.00319192f, -0.00534399f, -0.03121606f, 0.02644143f, 0.02071549f, 0.02166157f, 0.01712146f,
    0.02032076f, 0.02660654f, -0.01213196f, -0.01506922f, 0.01473045f, 0.01510703f, -0.01076834f, 0.02843022f,
    0.02256414f, -0.01531061f, 0.02473884f, -0.00155107f, -0.02528503f, -0.00812212f, 0.01703939f, -0.02869207f,
    0.01630932f, 0.03128110f, -0.02374296f, -0.01980464f, -0.01485135f, -0.03070227f, 0.03243914f, 0.00535130f,
    0.00621084f, 0.00419295f, -0.02657029f, 0.01198416f, 0.02529292f, -0.02305792f, -0.02644549f, -0.00629347f,
    0.01154002f, 0.02391604f, -0.01180238f, 0.02612182f, -0.01409381f, -0.01495986f, -0.02929044f, -0.02976375f,
    0.00761932f, 0.01236239f, 0.02748672f, -0.00698246f, 0.01407059f, 0.00658713f, -0.00521641f, -0.03427785f,
    -0.00418083f, 0.00352745f, 0.00807713f, 0.00241949f, -0.03279092f, 0.01462300f, -0.00149278f, -0.00629671f,
    -0.01643541f, -0.02538448f, -0.00148934f, 0.01398588f, -0.00902540f, -0.03291543f, 0.00590603f, -0.03421862f,
    -0.03314858f, 0.00969676f, -0.00924534f, 0.03024591f, -0.03438782f, -0.02053378f, -0.00095986f, -0.02375304f,
    0.03069116f, 0.02866020f, 0.01832462f, -0.02119428f, 0.02121170f, 0.00032797f, -0.03540621f, 0.01918902f,
    -0.02331768f, 0.02300067f, -0.01206573f, -0.02754063f, -0.03312048f, -0.00102496f, 0.02122004f, -0.01475574f,
    0.00295346f, 0.02070462f, -0.03168356f, 0.00231558f, 0.00858285f, 0.03340202f, -0.01438265f, 0.02450172f,
    -0.00037442f, -0.03532845f, 0.00762380f, 0.00954955f, -0.01643080f, 0.01778719f, 0.03140599f, -0.00390114f,
    0.00318466f, -0.02091978f, 0.00043706f, 0.02016064f, 0.02533675f, 0.01404084f, 0.00216565f, 0.01644152f,
    -0.00155632f, -0.00151009f, -0.03119340f, -0.01656954f, 0.02199478f, -0.01669808f, 0.00327323f, -0.02168401f,
    0.01555415f, -0.01313718f, -0.02204901f, 0.00817141f, 0.00345857f, -0.03019730f, 0.02820601f, 0.03408272f,
    -0.01393524f, 0.00744440f, -0.02739200f, -0.02075462f, -0.01905311f, -0.03064252f, -0.02561439f, 0.02825226f,
    -0.03453987f, -0.00536096f, -0.02724207f, 0.03451094f, 0.00749382f, -0.00419757f, 0.00662314f, 0.03290613f,
    -0.03144018f, -0.01927971f, -0.01620155f, 0.01783387f, -0.02758736f, 0.02502229f, -0.03548777f, 0.02876674f,
    0.03226819f, -0.00293615f, -0.01534009f, 0.03253146f, 0.01966437f, -0.00969657f, -0.03229338f, -0.00203047f,
    -0.01221705f, 0.02508543f, -0.00898538f, 0.01622366f, -0.01020235f, 0.03527101f, 0.00724755f, 0.01621798f,
    -0.01386388f, -0.00555863f, -0.00012392f, 0.00660641f, -0.00118814f, -0.02713529f, 0.01729868f, -0.00050609f,
    -0.03101074f, 0.03479441f, -0.00507868f, 0.03242641f, -0.02138496f, 0.02557384f, 0.00968623f, 0.01793834f,
    -0.01412256f, -0.00515187f, -0.02735908f, 0.00394128f, -0.02804417f, -0.02309391f, -0.03141828f, 0.01060861f,
    0.01824930f, 0.02058817f, -0.01955824f, 0.01253286f, -0.00950761f, -0.03540383f, 0.02674372f, 0.02704085f,
    -0.02861381f, 0.01228015f, -0.02128003f, 0.01897328f, -0.01051670f, 0.00740964f, -0.00314009f, 0.01812140f,
    0.01179421f, 0.02701138f, -0.01873515f, -0.01172764f, -0.00534728f, -0.02782073f, -0.00791616f, 0.02570613f,
    0.03445835f, -0.03377355f, -0.01573093f, 0.00124357f, 0.02068266f, 0.01013540f, -0.02081654f, 0.00105105f,
    0.00533185f, 0.00945537f, -0.00262002f, 0.00685480f, -0.03192785f, 0.01064892f, 0.00402219f, 0.02599659f,
    -0.03528925f, -0.02821307f, -0.02514874f, -0.01084260f, 0.02353933f, -0.02389645f, 0.00816858f, 0.00806550f,
    0.02294630f, 0.01765918f, 0.03547404f, 0.00976759f, -0.01434875f, 0.00910057f, 0.03244861f, -0.01004747f,
    -0.03015370f, -0.02772146f, -0.01320231f, 0.01893834f, 0.01318760f, -0.01203971f, -0.02615978f, -0.02383204f,
    -0.00898097f, -0.03271051f, 0.01581895f, -0.03512461f, 0.03177609f, 0.00583568f, -0.01224490f, -0.03194224f,
    -0.01756145f, -0.03222372f, 0.00649085f, 0.01462620f, 0.00035790f, 0.00757198f, 0.03263091f, -0.00697363f,
    0.02810895f, -0.02955805f, -0.00202443f, 0.01218765f, -0.00399320f, -0.01852627f, 0.01591722f, -0.03262775f,
    -0.00920208f, 0.00309881f, 0.01409761f, 0.02865827f, 0.01135191f, 0.00924158f, 0.00887572f, -0.02030532f,
    0.00720706f, 0.03491415f, 0.01473961f, 0.02166084f, 0.02531616f, 0.00113102f, 0.02044413f, 0.00652775f,
    -0.01109744f, -0.02196322f, -0.03018571f, 0.00636304f, 0.02102778f, -0.00936948f, -0.03351529f, -0.02870996f,
    -0.02204058f, -0.01181150f, 0.00967072f, 0.03501604f, 0.00885728f, -0.00022319f, 0.02283096f, 0.02105107f,
    0.01705079f, -0.00266716f, -0.01252737f, 0.01254238f, -0.03179819f, 0.01743420f, 0.02295948f, -0.02629637f,
    0.03529624f, 0.00486296f, 0.01760036f, 0.02781158f, -0.02301633f, -0.01891490f, -0.00862318f, 0.02960098f,
    -0.01353411f, -0.00114989f, 0.03160002f, -0.02447422f, -0.03433807f, 0.02978450f, 0.02278163f, 0.03548713f,
    -0.02619744f, 0.00153360f, 0.02533399f, -0.00191397f, 0.01702410f, 0.00099592f, 0.00382321f, 0.01999516f,
    0.02504805f, 0.00574846f, 0.00227023f, 0.02597292f, 0.02161769f, 0.03193539f, 0.03117535f, -0.03032475f,
    -0.02522698f, 0.03373310f, -0.00119264f, 0.01215801f, 0.00345000f, -0.02717778f, 0.03370044f, 0.00422608f,
    0.02739291f, 0.03360143f, -0.02116947f, -0.02810121f, -0.01965936f, -0.03442936f, 0.01987935f, 0.02980419f,
    -0.02726011f, -0.01811723f, -0.01820213f, -0.01333989f, -0.02901503f, 0.02169114f, -0.00247170f, -0.03445048f,
    -0.03185313f, 0.01561021f, -0.02665216f, -0.00593299f, -0.01547469f, -0.00641570f, -0.00934241f, 0.00573359f,
    0.01137922f, 0.03419047f, -0.02746978f, -0.01722708f, -0.03532828f, -0.03137015f, 0.03022686f, 0.02036863f,
    -0.03559490f, -0.03490733f, 0.02797347f, -0.00523943f, -0.03090388f, 0.00470833f, -0.01482560f, -0.01336142f,
    -0.00148224f, -0.02946609f, 0.01030577f, -0.03159877f, -0.02119679f, 0.00809104f, 0.00374991f, 0.00877845f,
    0.00922952f, 0.00222071f, 0.01868061f, 0.03057996f, -0.02315639f, 0.02663140f, 0.02941561f, -0.00210352f,
    0.03247010f, 0.02377192f, 0.00566181f, 0.03319992f, -0.03325271f, -0.02206221f, 0.03105005f, 0.00943471f,
    0.01499651f, 0.00317107f, 0.02856285f, 0.01332726f, -0.03146398f, 0.02627182f, -0.01769591f, -0.02091728f,
    -0.00256417f, 0.00288074f, -0.00860525f, -0.02171258f, -0.01876604f, 0.02646477f, -0.00319913f, 0.02509733f,
    -0.02623389f, 0.01679223f, -0.01049547f, -0.01839088f, -0.01756756f, -0.02419236f, 0.02845874f, -0.01529875f,
    0.01776804f, -0.03086478f, -0.03444800f, 0.02044895f, 0.02206135f, -0.01112955f, 0.02086090f, -0.01321438f,
    0.01828284f, 0.01928752f, -0.00528469f, 0.01069857f, 0.00403592f, 0.01020791f, -0.02718915f, -0.00035766f,
    0.02517825f, 0.00560840f, 0.00572694f, 0.01864144f, 0.00738450f, 0.00848184f, -0.01296134f, 0.01629831f,
    0.02075370f, -0.02526702f, 0.02333121f, 0.02119069f, -0.03419111f, 0.01179337f, 0.01927414f, -0.03512448f,
    0.01342650f, -0.03027906f, -0.02186769f, 0.01484603f, 0.00390075f, -0.02146375f, -0.01971061f, -0.01601411f,
    0.00548613f, 0.02918200f, -0.00129327f, -0.00051833f, 0.00735148f, 0.03309946f, -0.02561120f, -0.01662092f,
    0.00618506f, -0.03292342f, 0.01145972f, -0.03057866f, -0.01018683f, -0.02210710f, -0.01540230f, 0.01279518f,
    -0.03060176f, 0.01450579f, -0.02172442f, -0.02902498f, 0.01557364f, 0.01523031f, 0.01265935f, 0.02309372f,
    -0.00785168f, -0.03304584f, -0.01859914f, 0.01032054f, -0.00543495f, 0.03091279f, -0.02992802f, 0.00749512f,
    -0.01076984f, 0.01626880f, 0.02098677f, -0.00893878f, -0.01673771f, 0.01766158f, -0.02768492f, -0.00882133f,
    -0.01278893f, -0.01003417f, -0.02281998f, -0.02700971f, 0.01976944f, -0.01775730f, 0.01502446f, -0.00315225f,
    -0.01804642f, -0.00660878f, 0.01402978f, 0.02901133f, -0.02699583f, -0.00891287f, -0.00403995f, 0.01701880f,
    -0.03088038f, -0.00275811f, 0.00751668f, 0.01701160f, 0.01233678f, -0.00432983f, -0.00423190f, -0.01688961f,
    -0.01584875f, -0.02251086f, 0.02612548f, -0.00239727f, -0.02809970f, -0.01664875f, -0.01444337f, -0.03126587f,
    -0.00875054f, -0.03077302f, -0.03295325f, 0.00033114f, 0.00639577f, 0.00577369f, -0.00208590f, -0.00555092f,
    0.01428722f, 0.02372151f, -0.00945768f, 0.01514464f, 0.01477765f, 0.02162233f, -0.01442793f, 0.01615239f,
    -0.01682651f, -0.03064217f, -0.02937555f, -0.01324537f, 0.01518585f, 0.03329827f, 0.00760385f, 0.03369905f,
    0.00865975f, 0.00855486f, 0.01000146f, -0.01586294f, 0.02511317f, 0.02972192f, 0.02985709f, 0.02899822f,
    -0.01692355f, -0.00338659f, 0.03376590f, -0.02598070f, 0.03198727f, 0.03367566f, -0.01356824f, 0.03220257f,
    -0.00904033f, -0.01239024f, 0.02803373f, 0.03192179f, -0.00759969f, 0.00136025f, 0.02358635f, -0.00998127f,
    0.00265999f, -0.00273596f, -0.02631608f, -0.01315744f, 0.01976543f, 0.02254970f, 0.02375427f, -0.03485888f,
    0.03292465f, 0.00032671f, -0.03566554f, 0.00320112f, -0.03316208f, -0.00579185f, -0.02522082f, 0.01429080f,
    0.00757107f, -0.00954006f, 0.01587098f, -0.02870009f, -0.02215045f, -0.01068439f, -0.02281047f, -0.02403740f,
    -0.03096109f, 0.00266949f, -0.01872055f, -0.02004610f, 0.01130705f, -0.01516157f, 0.02325661f, 0.03229013f,
    0.02444224f, -0.00331460f, -0.01080935f, 0.00579514f, 0.03261741f, -0.02553520f, -0.01619750f, 0.03501398f,
    0.02226835f, -0.02638292f, 0.00720117f, 0.01833898f, 0.01459123f, -0.01168483f, 0.03349089f, -0.01913512f,
    0.00362933f, -0.03089410f, -0.00477521f, 0.01096277f, 0.00978440f, 0.02764987f, 0.00456871f, -0.00415504f,
    -0.01166216f, 0.01851546f, 0.00145613f, 0.00416106f, 0.03545262f, -0.01839921f, -0.00110737f, -0.01174932f,
    -0.00795989f, 0.01246006f, 0.01418150f, -0.02646118f, 0.02443153f, 0.03294967f, -0.01302932f, -0.01575653f,
    0.02270981f, 0.00135372f, -0.02552931f, -0.01506287f, -0.01639802f, 0.00637516f, -0.02730053f, -0.00432261f,
    0.01532037f, 0.01019783f, -0.02090058f, -0.01071182f, -0.03199594f, 0.00273954f, 0.02180223f, -0.01602709f,
    0.02644253f, -0.01763010f, 0.01774646f, 0.02087556f, -0.01836446f, 0.02900830f, -0.01386044f, 0.02854969f,
    -0.03241690f, -0.01752415f, 0.02198109f, -0.01189123f, -0.00328804f, -0.01467632f, 0.00396599f, -0.02504590f,
    -0.01620077f, -0.02273482f, -0.01053774f, 0.02974751f, -0.01168095f, -0.03454113f, 0.00386708f, -0.03013445f,
    0.03159802f, 0.01080971f, 0.02378206f, -0.00926609f, 0.00977801f, -0.03249535f, 0.02067973f, 0.01756033f,
    0.02812329f, -0.00856899f, -0.00569742f, -0.03010819f, -0.00165401f, 0.02736776f, 0.02851637f, -0.02683788f,
    0.01684256f, 0.00246314f, -0.02336505f, -0.01068812f, -0.03296161f, 0.00451525f, 0.00296169f, 0.02520337f,
    -0.01245908f, 0.02463162f, 0.01522063f, -0.01438075f, -0.01322352f, 0.00663216f, 0.00092634f, 0.01041592f,
    -0.02159715f, -0.01639599f, -0.01782767f, 0.01879505f, -0.03435771f, 0.03016314f, -0.03192688f, 0.00855583f,
    0.02624565f, 0.00753030f, 0.00555844f, -0.02116094f, -0.03480863f, 0.00953384f, 0.00507426f, -0.03173890f,
    0.02345946f, 0.03429925f, -0.01064760f, -0.00452594f, -0.03365981f, 0.00659415f, 0.01910847f, 0.00487118f,
    0.00398772f, 0.00309664f, -0.00768072f, -0.01464050f, -0.02089048f, 0.02762929f, -0.01643417f, 0.02086588f,
    -0.02522175f, -0.02211016f, 0.00723737f, 0.02617077f, -0.02666978f, 0.01839605f, -0.00706278f, 0.00372237f,
    0.03437128f, -0.03253451f, -0.01455013f, -0.02047727f, -0.00090114f, -0.00602169f, -0.00388859f, 0.01390615f,
    0.02368032f, -0.01221235f, 0.01205353f, -0.02316473f, 0.01918524f, 0.01115908f, 0.02580468f, -0.03107587f,
    -0.03393748f, 0.02013096f, 0.02529493f, -0.00809083f, 0.02078950f, -0.01695769f, -0.00320618f, -0.01908219f,
    0.03418866f, -0.01220525f, 0.02990802f, 0.00332415f, -0.00295115f, 0.01132498f, -0.00088327f, -0.03136876f,
    -0.00804746f, 0.00306949f, -0.00426979f, 0.01649855f, -0.01521419f, -0.02955521f, -0.01447371f, -0.03452189f,
    -0.02029807f, -0.01593388f, 0.03187754f, -0.00477367f, 0.03239435f, 0.01448232f, 0.00442158f, 0.01329887f,
    -0.00852968f, -0.01591410f, 0.01107353f, 0.02384858f, 0.02603970f, 0.01288448f, 0.03450342f, 0.01398164f,
    -0.01201985f, 0.00786644f, 0.01102768f, 0.00007825f, -0.02004386f, -0.02161349f, -0.01882709f, -0.03089112f,
    0.02060301f, 0.01584834f, -0.02590610f, -0.02767264f, 0.03189566f, -0.00394643f, 0.00372747f, 0.00834431f,
    -0.03440426f, -0.00104646f, -0.01208289f, -0.00974811f, -0.00001975f, 0.03108283f, 0.01155434f, -0.00539845f,
    -0.00892686f, 0.00266867f, 0.00181987f, -0.00671019f, -0.03077581f, -0.03273904f, 0.02398168f, -0.02985931f,
    -0.03099040f, 0.02596951f, -0.00005389f, 0.02569273f, -0.01566179f, 0.03257670f, -0.03009497f, 0.01790865f,
    0.01150624f, -0.02809575f, -0.01731110f, 0.02563780f, 0.02762549f, -0.03427233f, -0.03318778f, 0.00789712f,
    0.00429432f, 0.00406853f, -0.01135873f, -0.03244383f, 0.02608348f, -0.00562641f, -0.03563110f, 0.03514069f,
    -0.03124500f, 0.00545605f, 0.02030677f, 0.02004164f, -0.02299821f, 0.01047984f, 0.02142169f, 0.01148694f,
    -0.00286870f, -0.00111124f, 0.03331475f, -0.02096992f, -0.02237966f, -0.03400098f, 0.00850565f, 0.00039407f,
    0.02125514f, -0.01420147f, -0.01003050f, 0.02167144f, -0.02484879f, -0.03449290f, -0.02785567f, 0.00360507f,
    -0.00036211f, 0.02411081f, -0.01890818f, -0.01922748f, -0.02719979f, -0.01324277f, -0.00054446f, 0.02533558f,
    -0.02957730f, 0.03345461f, 0.02736381f, 0.01417596f, -0.01793084f, 0.01574973f, -0.02607363f, 0.03513113f,
    -0.00498524f, 0.01121923f, -0.02839898f, 0.01971492f, 0.01064060f, -0.00124697f, -0.00359058f, -0.00569040f,
    -0.01089705f, 0.02969517f, 0.00128262f, -0.00521784f, -0.03122815f, -0.02482354f, -0.00136339f, 0.00054305f,
    0.00469896f, -0.02071257f, -0.00562475f, -0.01212024f, -0.01846077f, 0.03218033f, 0.01741592f, -0.01209491f,
    -0.00430506f, 0.02749592f, -0.00537899f, 0.00839818f, -0.01214614f, -0.01425105f, 0.03212621f, 0.00008056f,
    -0.01831240f, -0.02635299f, 0.02762448f, -0.01379501f, 0.03343141f, -0.03218501f, -0.01908941f, 0.03014214f,
    -0.01172631f, -0.00060772f, -0.00594828f, -0.01259312f, 0.02777489f, 0.02381554f, -0.02516421f, -0.02894076f,
    0.00493382f, 0.02362016f, -0.01281429f, 0.02885902f, -0.01323387f, 0.00787288f, 0.02930968f, 0.02120201f,
    0.01248378f, -0.02627088f, -0.01277006f, 0.01856693f, 0.03262601f, 0.03024395f, -0.01288586f, 0.01888958f,
    0.01717822f, 0.03288340f, -0.02626447f, -0.01322419f, -0.00835160f, -0.02595102f, 0.02615441f, -0.02101309f,
    -0.02513901f, -0.01851527f, 0.02911504f, 0.02721358f, 0.00021869f, -0.01573601f, -0.02791369f, 0.02710833f,
    0.00306475f, -0.01731474f, -0.02335821f, 0.02844838f, 0.02217803f, 0.00242773f, -0.03048100f, -0.00063686f,
    0.03548787f, -0.02920503f, 0.02002930f, -0.00216846f, 0.00544986f, -0.00164400f, -0.00991752f, 0.02533647f,
    -0.02720042f, -0.00087161f, -0.03396238f, 0.01627891f, 0.03003503f, -0.03438937f, 0.02826982f, 0.00253581f,
    0.00618000f, 0.01058347f, 0.00185774f, 0.03407897f, 0.02561566f, 0.02934611f, 0.01328947f, 0.03081006f,
    0.00855042f, 0.00331162f, 0.00095391f, -0.02769641f, -0.01814863f, 0.01764447f, 0.01650537f, 0.02081718f,
    0.02647556f, 0.03358316f, 0.00939038f, -0.01283411f, 0.02295054f, 0.01241120f, 0.00217040f, -0.00789187f,
    0.03249120f, -0.03258618f, 0.02332839f, 0.02078906f, 0.01213934f, 0.02113706f, -0.01165174f, 0.02586571f,
    0.01970499f, 0.02025258f, 0.02167252f, -0.00397777f, -0.03081849f, -0.02364295f, -0.00142510f, -0.02328985f,
    -0.02697568f, -0.02504726f, -0.03053113f, 0.01350703f, 0.01121838f, 0.02997589f, -0.00928769f, 0.02982030f,
    -0.01521988f, 0.03134384f, 0.02385723f, -0.03317680f, 0.00981491f, 0.00911962f, -0.02560849f, -0.02033353f,
    -0.01048823f, 0.02128741f, -0.00416196f, 0.02206327f, 0.03397184f, 0.03017264f, 0.01568247f, 0.00859295f,
    -0.01775732f, -0.00090436f, 0.01835988f, -0.00738603f, 0.03535701f, 0.01923828f, -0.01291340f, -0.03527101f,
    -0.02482253f, -0.00357719f, -0.01599022f, -0.00631175f, 0.01380275f, 0.03523038f, 0.02294057f, -0.02798857f,
    0.03492246f, -0.02036981f, 0.00384107f, -0.02489216f, -0.02450933f, -0.01550289f, -0.02851601f, -0.00763564f,
    0.02989350f, -0.02279299f, -0.03537735f, -0.00484367f, -0.02126862f, 0.00310292f, 0.01665989f, -0.02600595f,
    0.00733024f, -0.03299928f, 0.03160187f, -0.01338748f, 0.02979675f, 0.02997941f, 0.01807418f, -0.00222317f,
    0.00295559f, 0.01546244f, -0.02477239f, -0.00933894f, 0.00647208f, -0.02910200f, 0.03202436f, -0.01444484f,
    -0.00569189f, -0.00252144f, -0.03025973f, -0.02332136f, 0.01082828f, -0.00461874f, 0.02992084f, -0.00497562f,
    0.01846274f, -0.01116822f, -0.02898600f, -0.03295200f, 0.03015988f, 0.00988813f, 0.03353892f, -0.02200853f,
    0.02041720f, -0.00345536f, 0.00943241f, 0.03362553f, -0.01176421f, 0.03127239f, 0.02408106f, -0.02064178f,
    -0.00372801f, -0.03085794f, 0.00544291f, -0.02271149f, 0.01599372f, 0.01942586f, 0.02381509f, -0.00833992f,
    -0.00763778f, 0.01871339f, 0.00533907f, 0.03513950f, -0.02895068f, 0.00719281f, 0.02229543f, 0.00634233f,
    -0.03325326f, -0.02527475f, -0.01229437f, -0.02852869f, -0.01738149f, -0.00048898f, -0.00599585f, -0.00450864f,
    0.00070073f, -0.02544707f, 0.03386312f, 0.00548756f, -0.01145482f, -0.03451888f, -0.03103990f, -0.00870100f,
    -0.01128958f, 0.02671861f, -0.01734032f, -0.00785677f, 0.01691092f, 0.00703533f, 0.03380875f, -0.01416618f,
    0.02158345f, -0.00388953f, -0.00342100f, -0.01856401f, 0.01499849f, -0.02698769f, -0.01515480f, -0.02364445f,
    -0.02990833f, 0.02847994f, 0.01958638f, 0.02510150f, 0.03292914f, 0.01826764f, 0.02575624f, -0.02129481f,
    0.01590865f, 0.02278906f, 0.01894496f, -0.02245783f, 0.01342062f, 0.02503201f, -0.01230946f, -0.01180671f,
    -0.02811607f, -0.03004573f, 0.03150116f, 0.01728556f, 0.00817783f, -0.02813977f, -0.01770210f, 0.02532105f,
    -0.01559679f, 0.01485875f, 0.03246569f, 0.03365436f, -0.01319080f, 0.00680505f, 0.00445813f, -0.01532649f,
    -0.00281170f, -0.00006063f, 0.00453143f, 0.00632283f, 0.01304667f, -0.01804970f, 0.02294453f, -0.03541056f,
    0.03071185f, 0.00762979f, -0.00307869f, -0.03520285f, 0.00286099f, -0.03177988f, 0.00517777f, 0.03124275f,
    0.01752761f, -0.01356300f, 0.03122076f, 0.01747605f, -0.00133598f, -0.03100930f, -0.03076154f, 0.00903161f,
    0.02134471f, 0.02275920f, 0.00738243f, 0.03556748f, 0.03024675f, -0.01151811f, -0.02890423f, -0.00482189f,
    -0.03268063f, 0.01869116f, -0.02139363f, 0.03074897f, -0.00711041f, 0.03288264f, 0.03028856f, 0.02408750f,
    0.00615068f, 0.00946254f, -0.01901748f, -0.01186187f, 0.01035042f, 0.01668748f, -0.01078360f, -0.00875269f,
    0.03020701f, 0.00879844f, -0.03220693f, 0.03058807f, -0.00529209f, -0.00709006f, 0.00467187f, 0.01282011f,
    0.00703336f, 0.02256422f, -0.00808609f, -0.01381936f, -0.01467206f, 0.02817931f, -0.03030014f, -0.02367397f,
    -0.00372426f, 0.00655694f, 0.00259341f, 0.02116306f, -0.01820725f, 0.02819116f, 0.00581418f, -0.02399036f,
    0.03144769f, 0.01692108f, -0.00416224f, -0.01145236f, 0.01117754f, 0.01589718f, -0.02082788f, 0.01565709f,
    0.00425602f, 0.02745577f, 0.02847203f, -0.01128105f, 0.00223348f, -0.01878717f, 0.02535281f, -0.00683948f,
    -0.02669524f, 0.01281854f, -0.02084846f, -0.00275462f, -0.00799868f, -0.01740305f, -0.01225028f, 0.02873090f,
    -0.00159287f, 0.01184534f, 0.01402084f, -0.01772905f, 0.03340082f, -0.00665169f, -0.02052317f, -0.00454669f,
    -0.00098347f, -0.00415325f, -0.01114123f, -0.03532977f, -0.00062116f, -0.03283178f, -0.03090759f, 0.02645187f,
    -0.00572653f, 0.02804680f, 0.01689370f, -0.01934576f, 0.00829210f, 0.00677296f, -0.02571235f, -0.02851038f,
    -0.00925814f, -0.00271565f, -0.00552055f, -0.00839514f, 0.00214930f, -0.02314882f, 0.00966355f, -0.01538097f,
    -0.01865072f, -0.01239452f, -0.00706468f, -0.02923510f, -0.00307890f, 0.02258704f, -0.03364438f, -0.01071927f,
    0.01592238f, -0.01069054f, 0.01567293f, -0.00519145f, -0.00793156f, 0.01528876f, -0.00575926f, -0.00741307f,
    0.02545943f, 0.02569944f, 0.01363603f, -0.00321369f, -0.03375235f, -0.01521238f, -0.02697992f, 0.03207403f,
    0.03318691f, 0.02611305f, -0.01918127f, -0.02787434f, 0.01921635f, 0.01252614f, 0.01196881f, -0.00345791f,
    0.00203909f, -0.03206052f, -0.02382712f, 0.00778266f, 0.00697064f, 0.02656415f, -0.02357636f, 0.02086557f,
    -0.01504644f, -0.03105095f, -0.00163448f, -0.01857542f, -0.00606014f, 0.00546601f, 0.01495414f, 0.03378282f,
    -0.01248744f, -0.01836067f, -0.00253923f, -0.02732285f, -0.01431733f, -0.02803655f, -0.01834918f, 0.03120770f,
    0.02785026f, 0.03134455f, 0.00932035f, -0.02255228f, -0.02726181f, 0.00194133f, 0.00873990f, -0.01041173f,
    0.01434124f, 0.02949835f, -0.01802806f, 0.02397892f, 0.01542471f, 0.02071466f, 0.03004540f, 0.03191733f,
    -0.02878092f, 0.00490843f, 0.02041033f, 0.00610578f, 0.01308405f, -0.01023889f, 0.00382696f, -0.00725886f,
    0.01822921f, 0.03384567f, -0.02298537f, -0.02769189f, 0.01827745f, -0.01959697f, -0.02605170f, 0.03255510f,
    0.01804671f, 0.03195642f, 0.03375142f, 0.00937323f, 0.01987950f, -0.03555392f, -0.03067604f, -0.00053109f,
    -0.03058988f, 0.00253183f, -0.01974813f, 0.00488155f, 0.00149069f, -0.01296558f, 0.00029287f, 0.01583080f,
    -0.01868187f, -0.03264575f, -0.00621848f, -0.00803613f, -0.00007291f, -0.02518946f, -0.00862546f, -0.02897307f,
    0.00585328f, 0.03215348f, 0.02837841f, -0.03218984f, -0.02824906f, -0.03043737f, -0.01158939f, -0.00977462f,
    -0.00137551f, 0.01511892f, -0.01454329f, -0.02914652f, 0.01612696f, -0.01574442f, -0.00630252f, -0.02031603f,
    0.02346681f, -0.02855425f, -0.02907634f, -0.01600671f, -0.01527208f, 0.01027032f, -0.03184962f, 0.00895871f,
    -0.03419933f, -0.00038176f, -0.00735307f, -0.00046273f, 0.00886496f, -0.02012406f, 0.03559884f, -0.02788663f,
    0.00770125f, -0.00012908f, -0.01059785f, 0.00937312f, -0.01777725f, 0.02283806f, 0.02687178f, -0.03461417f,
    -0.00709578f, -0.01412555f, -0.02271038f, 0.00401743f, -0.00769363f, -0.01173567f, -0.00727318f, -0.00855421f,
    0.00813903f, 0.01145872f, 0.01935528f, -0.01416403f, 0.02836456f, 0.03002769f, -0.00526976f, 0.01099073f,
    0.02909394f, -0.02494387f, -0.02680872f, -0.02178753f, -0.03109834f, -0.03260266f, 0.01764020f, -0.00888797f,
    -0.01188484f, -0.00610234f, 0.02570189f, -0.02611913f, -0.00843415f, 0.02793378f, 0.03229471f, 0.00114770f,
    0.01183829f, 0.01608235f, 0.02794285f, -0.00355882f, -0.00401442f, -0.03451981f, -0.00421978f, 0.00486100f,
    -0.01446654f, 0.03551692f, 0.00331249f, -0.01789835f, -0.00433117f, -0.01628890f, -0.01359020f, -0.01817780f,
    0.03222194f, 0.00233982f, -0.00291394f, -0.01360858f, 0.02166762f, 0.01574422f, 0.00099366f, 0.02666177f,
    -0.03555845f, 0.01174617f, -0.01145552f, -0.01467036f, -0.01038464f, 0.03567971f, 0.02815937f, -0.03466368f,
    0.02324640f, 0.01203414f, 0.00597711f, 0.00755529f, 0.00808921f, 0.01903455f, 0.02246285f, 0.00070676f,
    -0.02023284f, -0.01658848f, -0.01990717f, 0.02845104f, 0.01844058f, -0.01435792f, -0.03054948f, 0.01241410f,
    0.01261246f, 0.01484581f, -0.01982966f, 0.03154857f, 0.00574587f, 0.02428276f, -0.00679952f, -0.03417031f,
    -0.01066938f, 0.01637198f, -0.00174030f, -0.03409789f, -0.03096839f, 0.00642939f, -0.01116776f, 0.00316087f,
    0.03003031f, 0.01176940f, -0.03097657f, 0.02338801f, 0.00640743f, 0.03004572f, -0.00295717f, 0.01741062f,
    0.03382454f, 0.02979349f, -0.02264868f, 0.00369100f, 0.00359840f, -0.00893889f, 0.03232302f, -0.01144760f,
    -0.01264922f, -0.03530522f, 0.02291733f, -0.01965297f, -0.01496142f, 0.00128049f, -0.01085104f, -0.00389155f,
    -0.00748537f, 0.01764021f, -0.02821761f, 0.02148560f, 0.01240534f, 0.00125680f, 0.00453226f, 0.01358914f,
    -0.00496913f, -0.03108221f, -0.00638928f, -0.02932932f, 0.00333923f, -0.03385220f, 0.02815793f, -0.01076013f,
    0.00029834f, -0.01114115f, 0.03296962f, 0.00028309f, -0.01876679f, 0.02541907f, -0.02069068f, -0.03375383f,
    0.00020815f, 0.00807247f, 0.00022453f, 0.03112566f, 0.01048565f, 0.02224583f, 0.01631626f, 0.00561943f,
    0.03210097f, 0.01075388f, -0.00792808f, -0.02489985f, -0.01021990f, 0.00113291f, -0.02719717f, 0.00653613f,
    -0.03103699f, 0.01568339f, -0.02891381f, 0.01454188f, 0.00928863f, 0.00183886f, -0.01652635f, -0.01277659f,
    0.01042264f, -0.00491403f, 0.01317960f, 0.02629786f, 0.01045317f, -0.01785772f, -0.02232739f, 0.01790073f,
    0.01896598f, 0.01667965f, 0.00897305f, -0.02543218f, -0.00806169f, 0.00057288f, 0.03100923f, -0.01284273f,
    0.02706524f, 0.02486982f, 0.01725498f, 0.02661403f, -0.00025482f, 0.00734113f, 0.01901657f, 0.00349975f,
    -0.00408761f, 0.00244165f, -0.01415523f, 0.02790872f, -0.03128274f, 0.00766641f, -0.03407900f, 0.01816937f,
    -0.01316792f, -0.02979216f, 0.00871086f, 0.01271146f, -0.02570980f, -0.00968178f, 0.02196379f, 0.01245298f,
    0.03463864f, 0.00724255f, 0.02695272f, 0.00995460f, -0.01741331f, -0.02164423f, -0.00814774f, 0.03101281f,
    0.02947166f, 0.02776568f, -0.03139979f, -0.01989194f, 0.02694001f, 0.01043026f, -0.02969476f, -0.00455569f,
    0.00475646f, -0.00010273f, 0.02855433f, -0.03477792f, 0.00425838f, -0.00522834f, -0.02405325f, -0.01406593f,
    -0.03055828f, -0.01271057f, -0.00445297f, 0.00462886f, -0.00472326f, -0.01177925f, 0.00950730f, -0.02706174f,
    -0.00983446f, -0.01550346f, 0.00978661f, 0.01256258f, -0.01981678f, 0.00708005f, 0.03467779f, 0.02125064f,
    -0.02687048f, -0.01851208f, -0.03186183f, -0.01076767f, 0.00106575f, 0.02190756f, -0.02952315f, 0.01955206f,
    0.02616977f, -0.00161952f, -0.01923261f, 0.02269128f, 0.02753305f, 0.00192804f, -0.03330628f, -0.01965625f,
    0.00697563f, 0.01203691f, 0.00765076f, 0.02842804f, -0.01770267f, -0.01494603f, -0.02175884f, -0.02123791f,
    -0.03502958f, -0.01854261f, -0.01989079f, -0.02510107f, -0.01494207f, 0.02450659f, -0.00511551f, -0.01728978f,
    -0.01394926f, 0.00451993f, -0.02578232f, -0.00789696f, -0.03054122f, 0.01707029f, 0.02533611f, 0.02798997f,
    -0.02206966f, 0.01663965f, -0.02562269f, -0.01760232f, 0.02229301f, -0.00681914f, 0.02312453f, 0.00086650f,
    0.01285664f, -0.02446756f, -0.02389694f, 0.00209123f, -0.00813386f, 0.02165780f, -0.02642390f, 0.03502547f,
    0.03485639f, -0.00231009f, -0.00015251f, -0.02401467f, -0.03512852f, 0.01016089f, -0.03156964f, -0.03110627f,
    0.01557583f, 0.01330781f, 0.02504020f, -0.01411156f, -0.01108293f, -0.01796503f, -0.00647306f, -0.01750625f,
    -0.01195980f, -0.01803686f, 0.02379307f, 0.01645617f, 0.02164700f, -0.03075497f, -0.00833907f, 0.01493003f,
    0.01733171f, 0.01776668f, -0.02760992f, -0.02042854f, -0.00706416f, -0.01331756f, -0.01665776f, 0.01108878f,
    -0.00823071f, 0.03229233f, 0.03179261f, -0.01040510f, -0.03122845f, 0.02630911f, -0.01620407f, 0.00520603f,
    -0.00561144f, 0.01525512f, -0.01115479f, 0.01835096f, 0.03094058f, 0.02147930f, -0.00842543f, 0.01767172f,
    -0.03380400f, 0.02188582f, -0.02504010f, 0.00406837f, 0.01088155f, -0.03456846f, 0.00232829f, 0.02044732f,
    -0.01073458f, -0.03171163f, -0.00755325f, -0.01409345f, -0.02109114f, -0.01177846f, 0.02172836f, 0.01502130f,
    0.00863831f, 0.03563577f, 0.00988868f, -0.00982481f, 0.02428552f, -0.00862733f, 0.00450454f, -0.01312967f,
    0.02051795f, 0.01390417f, -0.00014211f, -0.00181518f, 0.00047617f, -0.00075766f, 0.03020976f, -0.03272086f,
    0.00439086f, 0.03520239f, 0.01998343f, -0.00697586f, -0.02448700f, 0.00729170f, 0.00405398f, -0.01755910f,
    0.02851957f, -0.02958765f, 0.00556319f, 0.01779918f, -0.01107247f, -0.00909250f, 0.03545212f, -0.01865820f,
    -0.02347760f, -0.02907871f, 0.01333961f, -0.03352872f, 0.01467595f, -0.01180355f, 0.01840934f, -0.00134147f,
    0.00738787f, -0.00749577f, -0.03457152f, -0.00856823f, 0.00715513f, 0.00024281f, -0.03142372f, 0.01478020f,
    -0.01513978f, 0.02546378f, -0.00386936f, -0.01431996f, -0.03558050f, 0.00574332f, 0.02245831f, -0.02947699f,
    -0.00359525f, -0.01694000f, 0.02669165f, 0.01193403f, -0.02106378f, -0.01452723f, 0.03170240f, 0.00649038f,
    -0.00877275f, -0.02814069f, -0.02792741f, -0.01372796f, 0.01181977f, -0.01826205f, 0.03177101f, 0.01741154f,
    -0.01675179f, -0.00622904f, 0.01789263f, 0.02818820f, -0.00567424f, 0.01258471f, 0.02217719f, -0.00119422f,
    -0.01276984f, -0.02602915f, 0.03436435f, 0.02218074f, 0.01323786f, 0.02968246f, -0.01671200f, 0.00890956f,
    0.02935796f, -0.00096934f, 0.01414079f, -0.01099490f, 0.00125071f, 0.02064623f, 0.00800372f, -0.00854316f,
    0.02289741f, 0.00456071f, -0.02168238f, 0.00504587f, -0.02190303f, 0.01847283f, 0.01319248f, 0.00260624f,
    -0.02295456f, 0.00174545f, 0.02217955f, -0.01511152f, -0.01251939f, 0.00321908f, -0.01689533f, -0.01309549f,
    -0.00394590f, -0.00624079f, -0.00346575f, 0.01962136f, 0.01877144f, -0.02029116f, 0.00428275f, 0.02956216f,
    0.00608764f, -0.02532960f, -0.03180106f, -0.02339674f, -0.01937421f, 0.00880936f, -0.00614018f, 0.01595234f,
    0.02492386f, -0.03040075f, 0.03484229f, -0.01330945f, 0.00940787f, -0.00483731f, 0.01491563f, 0.02621403f,
    0.00345369f, -0.02632787f, 0.00458052f, 0.01060163f, -0.00893082f, -0.01056668f, -0.01199513f, -0.00975898f,
    -0.02384205f, -0.03490291f, -0.03108869f, 0.02171732f, 0.01747609f, -0.02914735f, -0.01720895f, 0.01827525f,
    -0.02256281f, -0.00048888f, -0.02850150f, -0.01020715f, 0.00198169f, -0.02232480f, 0.01525466f, 0.01441732f,
    0.02797810f, 0.01397700f, -0.00351308f, 0.01920443f, -0.03563228f, 0.02970669f, 0.02215488f, -0.03394471f,
    -0.01792391f, 0.01813775f, -0.03383262f, 0.01919100f, -0.02582941f, 0.02473721f, 0.01099759f, -0.02547341f,
    0.00716073f, 0.03120405f, 0.02631539f, -0.01159027f, 0.00031140f, -0.01991172f, -0.02891113f, 0.00716315f,
    0.02801874f, 0.00582970f, 0.01003687f, 0.02686010f, -0.03106957f, 0.00724257f, -0.01409527f, 0.01703187f,
    0.03478922f, 0.02334506f, -0.00145386f, -0.02922627f, 0.01494589f, 0.01368915f, -0.01606539f, -0.01214280f,
    -0.02908625f, -0.01687209f, 0.02909761f, -0.01482927f, 0.02151628f, 0.00395427f, 0.01156106f, 0.03548237f,
    0.01739597f, 0.00014504f, 0.00463591f, 0.00566945f, 0.02318080f, 0.01616239f, 0.00648180f, 0.01171277f,
    0.03307071f, -0.00695266f, -0.00142284f, 0.01090878f, -0.02712445f, -0.00534091f, 0.02696277f, -0.01639919f,
    0.00174713f, 0.03447450f, -0.02792501f, 0.02310940f, 0.01294597f, -0.00614843f, 0.00320383f, 0.00222881f,
    0.01902714f, 0.02048173f, 0.00824874f, 0.03039079f, 0.00262978f, -0.02744865f, 0.03147009f, -0.01592379f,
    0.00646982f, -0.00650264f, 0.01427452f, -0.02666551f, 0.00720877f, -0.00204582f, -0.03330870f, -0.00847801f,
    0.00897343f, -0.03311351f, -0.00657082f, 0.02569287f, -0.02171882f, 0.01951591f, 0.01950546f, 0.01081331f,
    0.02612593f, -0.01650051f, -0.00271988f, 0.02024823f, 0.01748220f, -0.02800916f, -0.00506947f, 0.01363941f,
    -0.03549498f, -0.00168275f, 0.00404165f, -0.00502973f, -0.02527982f, 0.03481541f, 0.02848054f, -0.00646546f,
    0.02609906f, -0.00694675f, 0.00016760f, 0.02034742f, -0.01426617f, 0.00636395f, 0.03358982f, 0.01457386f,
    0.03006869f, -0.03503601f, -0.01118979f, -0.01349304f, -0.01656460f, -0.02017782f, 0.02493427f, 0.00038469f,
    0.01863045f, -0.02080788f, -0.03288950f, 0.00441703f, 0.01814320f, -0.03508781f, 0.00830039f, -0.00421162f,
    0.01116717f, 0.02344718f, 0.02689882f, 0.00424476f, -0.02471429f, -0.02057426f, 0.00446226f, 0.01226808f,
    0.00982608f, -0.00940912f, 0.02093187f, -0.02494850f, 0.01798077f, 0.00574343f, 0.00282409f, -0.00376449f,
    -0.02842333f, 0.01460734f, -0.03354795f, -0.01656597f, 0.00112482f, 0.02836810f, -0.02834591f, -0.02824362f,
    -0.01685071f, 0.00709551f, 0.01737046f, 0.01653846f, -0.02417495f, -0.01434840f, -0.02825744f, 0.00586609f,
    0.01552842f, -0.02410022f, 0.02784557f, 0.01320930f, 0.02486689f, 0.00676126f, 0.01310498f, 0.03426373f,
    -0.02166287f, 0.02893741f, 0.02435539f, -0.02110344f, -0.00184038f, 0.00765229f, -0.01406259f, -0.02772770f,
    -0.01407023f, -0.02355366f, 0.03270879f, 0.01477426f, 0.02299097f, -0.02841158f, 0.01567354f, -0.03547235f,
    0.02979609f, -0.01258141f, -0.00367848f, -0.00537425f, -0.01949987f, 0.01760933f, -0.01690768f, -0.01435106f,
    0.02296259f, -0.01014256f, -0.00499839f, 0.00272199f, -0.00972224f, -0.02791023f, -0.02345074f, -0.00515378f,
    -0.03203236f, 0.01865481f, -0.01934820f, -0.03539410f, 0.02333985f, 0.02402494f, -0.01430804f, -0.00358223f,
    -0.02603828f, 0.02222000f, -0.01218933f, -0.01183266f, 0.02544359f, 0.01957428f, 0.00474138f, -0.02144952f,
    0.01431808f, 0.00495604f, -0.00894450f, 0.00407561f, -0.00116741f, -0.02475224f, -0.02735780f, -0.00755927f,
    -0.02663719f, 0.03473200f, -0.02468651f, 0.00764680f, 0.02063402f, 0.02427735f, 0.02150620f, -0.02290272f,
    -0.01062399f, 0.03281268f, -0.03539034f, -0.00405553f, -0.02513345f, -0.00689769f, -0.03475504f, 0.00317108f,
    0.02700489f, 0.03310738f, 0.02346789f, 0.01961178f, -0.00393364f, -0.00120117f, -0.01023725f, 0.02494102f,
    0.02809780f, -0.00279212f, 0.03363716f, -0.00534957f, 0.01483797f, 0.01172167f, -0.01214872f, -0.01622294f,
    -0.00953263f, 0.02061962f, 0.03287459f, -0.00404337f, -0.02567075f, -0.00399501f, 0.03464419f, 0.00363684f,
    0.03431661f, -0.01802524f, -0.02181464f, -0.02470800f, -0.03325057f, -0.01379025f, -0.01345798f, 0.01968395f,
    0.01265655f, -0.02806026f, 0.01411027f, -0.01985717f, 0.02175755f, 0.03233771f, 0.00000987f, 0.00602687f,
    -0.01053878f, -0.02559876f, -0.02454086f, -0.01546920f, -0.02052862f, -0.00699594f, 0.02363351f, 0.00969759f,
    -0.00332173f, -0.01513838f, 0.02194802f, 0.03217244f, -0.00248641f, 0.03072435f, 0.03172840f, 0.03369743f,
    0.02647245f, -0.02983969f, 0.02936900f, -0.03457870f, -0.00818075f, 0.01282043f, -0.02440102f, -0.00478322f,
    0.02659567f, 0.01038635f, -0.03001445f, 0.00651957f, 0.03471414f, 0.03329042f, -0.01936219f, 0.01816859f,
    -0.00811944f, 0.01073465f, 0.03352180f, -0.03266050f, -0.03295814f, -0.00876296f, -0.00691882f, -0.01971540f,
    0.01830938f, -0.02531590f, -0.00927487f, -0.02478865f, -0.00966619f, -0.01361836f, 0.02345630f, 0.00015719f,
    -0.03192274f, 0.00692266f, -0.02725321f, -0.02271006f, -0.00894077f, -0.02978824f, -0.03284155f, 0.02217327f,
    0.02566898f, -0.02455255f, 0.00426712f, 0.02992213f, -0.02167367f, -0.01683452f, 0.02899966f, 0.03374008f,
    -0.01645675f, -0.01904479f, -0.01015959f, 0.00934129f, -0.02554235f, 0.01861426f, 0.00140898f, -0.01250584f,
    0.02804365f, 0.00914345f, -0.01032074f, -0.03399944f, 0.00438008f, 0.00047008f, -0.00824998f, -0.03058116f,
    -0.01439210f, -0.01855391f, 0.00786710f, 0.00610339f, 0.00918451f, 0.01230520f, -0.02531361f, -0.03118554f,
    -0.02183986f, -0.01663109f, 0.01452149f, -0.02350605f, 0.00248647f, -0.03015378f, 0.01677847f, -0.02929525f,
    0.01884365f, -0.00936948f, -0.03466774f, 0.02763020f, -0.03389391f, -0.00095039f, -0.02856915f, 0.01875131f,
    0.02508910f, 0.02268754f, 0.00127754f, -0.00895373f, -0.01017029f, 0.02038488f, 0.01797909f, -0.02614919f,
    -0.02032437f, 0.03107332f, -0.02271389f, -0.02183822f, -0.00156283f, 0.00851833f, -0.00287945f, 0.00704484f,
    0.02367044f, 0.02288035f, -0.02191469f, 0.01278121f, 0.02942008f, -0.01421378f, 0.01514118f, -0.01443483f,
    -0.00392250f, 0.02598798f, -0.03521284f, -0.03392681f, -0.02208483f, -0.00584742f, 0.01145007f, 0.01728683f,
    -0.02269513f, 0.02724766f, 0.01857814f, 0.00651128f, 0.02834539f, 0.00038445f, -0.03466478f, -0.02860060f,
    -0.03468712f, -0.02185194f, -0.02660064f, -0.01291164f, 0.03489619f, -0.01971604f, -0.01110079f, 0.03098316f,
    -0.02008422f, -0.01212178f, 0.02721721f, -0.00493394f, -0.03269862f, 0.02004073f, -0.02273757f, -0.01388574f,
    0.01830149f, 0.00788760f, -0.01635363f, -0.03295758f, -0.01791317f, -0.00500551f, -0.00170222f, -0.03367819f,
    -0.01481118f, 0.03045161f, 0.02164416f, -0.00127656f, -0.03229443f, -0.03375150f, 0.01582546f, 0.00627127f,
    0.00556619f, 0.01933151f, 0.03460700f, -0.01253279f, 0.02028247f, 0.00226100f, -0.00504013f, 0.01322311f,
    -0.02183110f, 0.01113770f, -0.03050622f, 0.02423553f, -0.03424367f, -0.01605951f, -0.03441706f, -0.03351962f,
    0.00275979f, -0.01293073f, 0.02004813f, -0.02983099f, -0.03497653f, 0.02640692f, -0.03377755f, 0.02493861f,
    0.03099614f, -0.02047504f, 0.02289439f, -0.02945810f, 0.01009299f, -0.02756486f, 0.02359630f, -0.01244085f,
    0.01873424f, -0.02484966f, -0.02957560f, -0.02010851f, -0.02836816f, 0.01585774f, -0.03273093f, -0.00922113f,
    0.01799690f, -0.00936189f, -0.02056595f, -0.01092439f, 0.00190995f, -0.02470103f, -0.00669926f, -0.02540888f,
    0.00394634f, 0.00350010f, 0.02765561f, -0.02190613f, -0.00500427f, -0.01923754f, 0.01214901f, 0.00604733f,
    -0.01820257f, -0.01148447f, 0.02983001f, 0.02473470f, -0.03313424f, 0.02815850f, 0.00267957f, -0.00424443f,
    -0.00708901f, -0.01739105f, 0.03464789f, 0.01764023f, -0.02944207f, 0.00020583f, -0.02032023f, -0.02561755f,
    -0.01750191f, 0.00511833f, -0.02186930f, 0.02853691f, 0.00453059f, 0.00145528f, 0.00841058f, -0.02081044f,
    -0.02115384f, -0.02928358f, -0.00713311f, 0.03558316f, 0.01024842f, 0.02543060f, -0.00467525f, 0.03461242f,
    0.00016065f, -0.02785853f, 0.00010204f, -0.03143339f, -0.01163853f, -0.00070179f, -0.02484966f, 0.01644138f,
    0.02040314f, 0.03023878f, 0.01070524f, 0.03278645f, 0.02748049f, -0.02067132f, 0.01784752f, -0.02212729f,
    0.00652578f, 0.01625705f, -0.01158865f, -0.00892595f, -0.01430782f, -0.03502607f, -0.03210983f, -0.02558083f,
    -0.02187260f, 0.03137246f, -0.02817366f, -0.01886788f, -0.00769706f, -0.03064706f, 0.00934202f, 0.02152191f,
    0.00748246f, -0.02489357f, 0.00079521f, 0.01154442f, -0.00079479f, 0.03008663f, -0.00815279f, -0.03111070f,
    -0.01909955f, 0.02166669f, -0.02700313f, 0.00500870f, 0.01331104f, 0.03034646f, -0.00785343f, 0.01311178f,
    -0.00293448f, -0.03292549f, -0.02417215f, -0.01771698f, 0.00889765f, -0.01839584f, -0.02750522f, -0.00112672f,
    0.01689521f, 0.03273427f, -0.02880388f, 0.00961192f, 0.02321493f, -0.03542240f, 0.03475752f, -0.00624752f,
    -0.00805512f, 0.02183923f, 0.01727523f, 0.03163873f, 0.00201164f, -0.01444559f, 0.00140424f, -0.00465206f,
    -0.01012650f, -0.00916671f, 0.03195858f, 0.02995095f, 0.02397894f, -0.01193858f, -0.00941353f, -0.00990636f,
    -0.02719908f, 0.01458193f, -0.03370943f, -0.01205811f, -0.00846933f, -0.03310644f, -0.03487687f, -0.01132579f,
    -0.02132630f, -0.00462385f, 0.01586530f, -0.00097337f, -0.00604766f, 0.00941188f, 0.00198302f, -0.02866024f,
    -0.00360386f, 0.01205798f, -0.00938770f, -0.01285875f, -0.03096727f, -0.01756684f, 0.02533240f, -0.02994451f,
    0.02310123f, -0.02642139f, -0.02640174f, 0.03315520f, 0.00437536f, -0.01367747f, 0.02298936f, -0.03134087f,
    -0.03560355f, -0.01504732f, -0.01154009f, -0.01535527f, -0.01645679f, -0.00753582f, 0.00608108f, 0.02270376f,
    0.00102560f, 0.01111129f, 0.00030309f, 0.01157430f, -0.00614483f, -0.02345305f, -0.00180225f, 0.01026650f,
    0.03339048f, 0.03085091f, 0.00965249f, -0.00729876f, -0.00578490f, 0.02320475f, 0.03396486f, 0.00924775f,
    0.01164866f, -0.01963000f, -0.01352801f, 0.02779304f, -0.03060794f, 0.02034378f, 0.03229070f, 0.02136711f,
    0.02271499f, -0.03285395f, -0.01321626f, 0.02975043f, -0.02335531f, -0.00537896f, 0.01883514f, -0.02252784f,
    0.01170252f, 0.01982862f, -0.00094973f, 0.03403960f, 0.03129151f, 0.00666923f, -0.03508478f, -0.00677515f,
    0.00255147f, 0.02505209f, 0.01296614f, -0.03290729f, 0.02226017f, 0.03378832f, 0.02439975f, -0.03235527f,
    0.03549495f, 0.03113204f, 0.02433478f, 0.02463402f, 0.02878714f, -0.03174331f, 0.01671483f, -0.00296406f,
    0.01338589f, -0.02407294f, -0.02829765f, 0.02446282f, 0.02828852f, 0.02017602f, -0.01234049f, 0.03165063f,
    -0.02648076f, 0.01025825f, -0.02101631f, -0.00775042f, 0.00997766f, -0.01913577f, 0.01494697f, 0.00611991f,
    -0.00373527f, 0.01685795f, -0.01728422f, -0.00763639f, 0.01599375f, -0.00753445f, 0.00312946f, -0.02548690f,
    -0.02055161f, -0.01233868f, 0.02440743f, -0.02482258f, 0.03022979f, 0.02246680f, -0.02318356f, -0.02385704f,
    0.03086518f, 0.01895543f, -0.01981710f, 0.02576547f, -0.02203460f, 0.01214835f, -0.00314894f, 0.03259414f,
    0.03429537f, 0.00233448f, 0.02192697f, 0.00267980f, -0.01658078f, -0.00578608f, -0.03342383f, -0.00751551f,
    0.00603168f, -0.01352652f, -0.01036544f, -0.00150861f, -0.02747002f, -0.00319793f, -0.02522195f, -0.00261412f,
    -0.01846546f, -0.02812015f, 0.00497674f, -0.01126067f, -0.02305263f, 0.03056363f, -0.01111090f, 0.00520450f,
    -0.02996495f, -0.02976581f, 0.01986104f, -0.02828912f, -0.03542691f, 0.01749249f, 0.02646379f, -0.02556084f,
    -0.03217090f, -0.03154232f, 0.00075773f, -0.02864802f, 0.01420383f, 0.01235284f, 0.01026235f, -0.01594494f,
    0.00384966f, -0.00688174f, -0.03485616f, 0.02094713f, 0.01837019f, 0.03252731f, 0.02334019f, 0.02122645f,
    -0.01293652f, 0.01874179f, -0.02099137f, -0.01264920f, 0.03151750f, 0.00952527f, 0.00602221f, -0.01415724f,
    0.01557247f, -0.01977966f, 0.03351336f, -0.01275915f, 0.03242517f, 0.00024727f, 0.00098178f, -0.01874497f,
    0.00310485f, 0.00731340f, 0.03337536f, -0.03394889f, 0.00784713f, 0.02403500f, 0.01784186f, -0.00788775f,
    -0.03302296f, 0.00497483f, -0.01636229f, -0.00099667f, 0.03117256f, 0.00355393f, -0.03516744f, 0.03557220f,
    -0.01204980f, -0.02841749f, -0.03275669f, -0.01652471f, -0.00266912f, -0.00186872f, -0.01882184f, -0.03333233f,
    -0.03304865f, 0.01845915f, 0.01615114f, 0.01931692f, 0.00045753f, 0.01008222f, -0.03463452f, -0.02263680f,
    -0.01723186f, 0.03306206f, -0.00161436f, -0.00106771f, 0.01945993f, -0.00254450f, -0.03558672f, 0.02167146f,
    0.00955841f, 0.01245557f, 0.00403033f, -0.02902358f, -0.02189028f, -0.01148160f, -0.00739107f, -0.00506120f,
    0.00418566f, -0.03098752f, -0.01403227f, 0.00699464f, -0.02693147f, 0.02008086f, -0.02714577f, 0.03186654f,
    -0.00985422f, 0.02862184f, 0.01968211f, -0.00907941f, 0.03060642f, -0.00440632f, 0.00420038f, -0.03385966f,
    -0.03334325f, -0.02966388f, 0.03207501f, 0.01158858f, -0.03317456f, 0.00666989f, -0.01654289f, -0.02031475f,
    -0.00055120f, 0.03011105f, -0.02403970f, 0.00354106f, -0.02524741f, 0.02416238f, -0.02421634f, -0.01232301f,
    0.03338501f, -0.02929914f, 0.00377789f, 0.01669202f, -0.01760791f, 0.02584080f, 0.02448455f, 0.01957227f,
    0.02244139f, -0.02120710f, 0.03383840f, -0.01320022f, 0.01658765f, 0.01674134f, -0.01058902f, -0.02171283f,
    0.03565559f, -0.01902986f, 0.02472833f, 0.02868464f, -0.00162406f, 0.03232175f, 0.03193795f, 0.02754346f,
    -0.01094134f, -0.00871003f, 0.01628954f, 0.03327014f, 0.00932229f, -0.01395776f, -0.03350627f, -0.00044868f,
    -0.00831630f, 0.02345308f, 0.03312127f, 0.00543835f, -0.00550360f, -0.01508337f, 0.02620816f, 0.00879236f,
    0.01133704f, 0.02505781f, -0.00415907f, 0.01833783f, 0.02949332f, -0.00953925f, -0.00918700f, 0.01174823f,
    0.02945099f, 0.00251909f, -0.02953195f, -0.00679073f, -0.03564088f, 0.00486429f, 0.01417739f, 0.00236765f,
    0.03538134f, -0.02953223f, 0.00293814f, -0.02317272f, -0.02985527f, 0.02031784f, -0.02371966f, -0.03400567f,
    -0.01074751f, 0.03193664f, -0.01336163f, -0.02664661f, 0.02649724f, -0.03428921f, 0.00420198f, -0.01883169f,
    -0.00152608f, -0.02691667f, 0.01451683f, -0.01403538f, -0.00043002f, 0.01633770f, -0.02403926f, 0.00441246f,
    0.02647790f, -0.01451813f, -0.02671812f, -0.00046997f, -0.00689872f, 0.00648193f, -0.03331320f, -0.01553895f,
    0.02140140f, -0.02663179f, 0.02822041f, 0.01090517f, -0.01226828f, -0.03029636f, -0.01810834f, -0.00450802f,
    -0.00656632f, -0.00113717f, 0.02656177f, -0.02195748f, 0.02186240f, 0.02763023f, -0.00428176f, 0.02110166f,
    -0.02823173f, -0.03449977f, 0.01378372f, 0.00942717f, 0.01595162f, 0.03371103f, 0.00752647f, -0.02942321f,
    -0.02263776f, -0.02140270f, -0.01636701f, 0.02021245f, -0.02954636f, 0.01602238f, 0.01952802f, 0.00453653f,
    0.03477798f, 0.00856857f, -0.00017703f, 0.00016129f, 0.02885190f, -0.02374814f, 0.01204983f, 0.00482767f,
    -0.01736926f, 0.02059484f, -0.00278183f, 0.02003496f, -0.00876792f, -0.03213695f, -0.00595249f, 0.01436570f,
    -0.03289982f, -0.00968758f, -0.01395884f, 0.02824591f, -0.03545604f, 0.00509793f, 0.01268848f, 0.00754418f,
    -0.00390232f, 0.03137775f, 0.00380680f, -0.00240758f, -0.01640160f, 0.00083528f, 0.02083466f, 0.00212819f,
    0.02806185f, -0.01374060f, -0.01668423f, -0.01707700f, 0.00956916f, -0.02550776f, -0.02431236f, -0.01622324f,
    0.02875384f, 0.02269804f, 0.02828627f, 0.00992208f, 0.02883551f, 0.01365497f, -0.02078496f, -0.02950605f,
    0.01770821f, -0.03532929f, 0.02685663f, 0.01557953f, 0.01966536f, 0.02489168f, -0.00764113f, -0.02858289f,
    0.01740395f, -0.01874330f, 0.01650183f, 0.01104753f, -0.03110962f, 0.02939294f, 0.00887413f, 0.03484453f,
    0.01509596f, -0.02500176f, -0.00066196f, 0.00385873f, 0.02939516f, 0.03467890f, 0.02010175f, -0.01721217f,
    -0.00862462f, -0.01770514f, 0.03406699f, 0.01954491f, 0.03501958f, 0.00956004f, -0.02034009f, -0.00241954f,
    -0.01851310f, -0.01620021f, 0.02549611f, -0.00972489f, -0.00719338f, -0.01445335f, 0.01719285f, 0.03392761f,
    -0.03018771f, 0.00818371f, 0.03364749f, -0.02508940f, 0.02821242f, -0.02195540f, 0.00902907f, -0.03171339f,
    -0.00843958f, 0.03214598f, 0.03374927f, 0.01459579f, 0.00539212f, 0.03324137f, -0.01798953f, 0.02590523f,
    -0.02173544f, -0.01001766f, -0.02463857f, -0.03467932f, 0.01879776f, -0.01463352f, 0.00796644f, -0.03503440f,
    0.03494354f, -0.02813325f, 0.01844490f, 0.01834886f, 0.03545378f, -0.03528322f, 0.01556098f, 0.02839577f,
    -0.00242102f, 0.00776192f, 0.00423995f, -0.02378253f, -0.02480704f, 0.01680753f, 0.00189172f, 0.03555315f,
    0.01112946f, -0.02948735f, 0.01867126f, 0.01077681f, -0.01900699f, -0.02154937f, 0.01065491f, 0.02131112f,
    0.03364642f, 0.03186568f, -0.01619635f, 0.00512231f, -0.02795841f, 0.01972181f, 0.02502639f, 0.00649194f,
    -0.01750001f, 0.02044540f, -0.01073731f, -0.02149662f, 0.01156332f, 0.03404487f, 0.02042284f, 0.00799434f,
    0.00640358f, -0.00728412f, -0.01314096f, 0.01526114f, 0.00050978f, 0.02457996f, -0.01716493f, 0.02081180f,
    0.00905318f, -0.01818686f, 0.01957766f, 0.02231180f, -0.01074601f, 0.00145234f, -0.00468289f, 0.00103275f,
    0.00164925f, 0.00596395f, -0.00351736f, -0.00790404f, -0.00740609f, 0.00915755f, -0.02673834f, -0.02661488f,
    -0.00125980f, -0.03321636f, 0.01465032f, 0.01999386f, -0.03191581f, 0.01160600f, 0.03445559f, -0.02517650f,
    -0.01039839f, -0.03299199f, -0.00344519f, 0.03534659f, -0.00021158f, -0.02314783f, 0.00855409f, -0.02878499f,
    -0.00256056f, -0.00819599f, -0.01387210f, -0.02441921f, -0.02654113f, 0.00808981f, -0.01121630f, 0.00076574f,
    0.03564441f, -0.02571672f, -0.02094240f, -0.01933096f, 0.02395437f, 0.03300960f, -0.02963910f, 0.03460230f,
    0.02151601f, 0.00067237f, -0.03250011f, -0.01525746f, 0.00077080f, 0.03129862f, -0.01822935f, -0.00786033f,
    0.00476804f, 0.02596029f, 0.01409340f, 0.02498833f, -0.00559230f, 0.03222258f, 0.02586450f, 0.01402061f,
    0.01155411f, -0.01668105f, 0.00684375f, -0.00870579f, -0.00379636f, 0.01842347f, -0.01166530f, 0.02316787f,
    0.01178828f, 0.01040446f, -0.02508508f, -0.00011994f, -0.03177403f, 0.01431146f, -0.00699740f, -0.01771598f,
    -0.00799718f, 0.02228230f, -0.03443768f, 0.01003402f, 0.01173972f, -0.02202941f, -0.03203187f, -0.02744360f,
    0.03112250f, -0.02927380f, 0.01549444f, 0.03188528f, -0.00041176f, 0.03319642f, -0.03117717f, 0.02449312f,
    -0.02402073f, -0.00149341f, -0.01630741f, -0.02602569f, -0.03203285f, -0.02918095f, -0.02713809f, -0.01789804f,
    0.02416914f, -0.02300633f, 0.01176005f, 0.01077245f, 0.01081118f, 0.01399019f, 0.00744220f, 0.01868941f,
    0.00686840f, -0.00791827f, -0.02631194f, 0.01275967f, 0.02759239f, 0.00391742f, -0.01034926f, -0.02524852f,
    -0.02334597f, -0.03104626f, -0.00026814f, 0.00358055f, 0.02099525f, -0.00965432f, 0.02698757f, 0.01648171f,
    0.01811382f, 0.02307210f, -0.00994002f, -0.00065303f, 0.02850439f, -0.03366821f, 0.01795873f, 0.00788856f,
    -0.01366095f, 0.00920672f, -0.03388687f, -0.01185372f, 0.00503678f, 0.01532480f, 0.01992520f, 0.03178801f,
    -0.00004400f, -0.00433662f, 0.01921101f, 0.02092985f, -0.03397749f, 0.00793309f, 0.00026013f, -0.01169524f,
    -0.00015081f, 0.02271780f, -0.02258052f, 0.00057924f, 0.02078881f, 0.02907795f, 0.00008373f, 0.03278320f,
    0.02002592f, -0.02477862f, 0.00401620f, 0.01064074f, 0.00234457f, -0.02755537f, 0.01421946f, -0.03025082f,
    0.02857497f, 0.00794142f, 0.00607071f, -0.00539264f, -0.00581710f, -0.01337699f, 0.02919076f, 0.03184422f,
    -0.01602881f, 0.02313621f, -0.00553149f, -0.00527164f, -0.01847271f, 0.01866359f, -0.00896565f, 0.01670090f,
    -0.00296026f, 0.03116112f, -0.01684698f, 0.03518946f, 0.00131726f, 0.02816373f, -0.03157236f, -0.03309793f,
    -0.01232525f, -0.02473615f, -0.02248589f, -0.01255216f, 0.02717674f, -0.01167904f, 0.02926167f, -0.02847611f,
    0.00480548f, -0.00776668f, 0.00290376f, 0.00186229f, 0.01165671f, -0.01338703f, -0.00047608f, -0.01507072f,
    -0.00398806f, 0.00041504f, -0.00011812f, -0.00770378f, -0.01318550f, 0.00672561f, 0.03486045f, -0.00474112f,
    0.00247845f, 0.00538569f, -0.00557540f, -0.03153193f, 0.00768515f, -0.01519644f, 0.00666588f, 0.00673355f,
    0.01333957f, 0.00662551f, -0.03425634f, -0.02787987f, 0.03251376f, 0.02465913f, 0.01712448f, 0.01194438f,
    -0.00816216f, 0.01311389f, 0.02078734f, -0.00958544f, -0.01860772f, 0.02865430f, 0.00110624f, 0.01231554f,
    0.03176539f, 0.03083545f, 0.01443513f, 0.02088078f, 0.01584876f, -0.01711807f, 0.00154531f, 0.01181425f,
    0.00040553f, 0.03336160f, 0.02084082f, 0.03561224f, -0.00368196f, -0.00780040f, 0.01985375f, -0.00023875f,
    -0.02575709f, 0.01385230f, 0.02441331f, 0.03400969f, 0.01254237f, -0.00992402f, -0.01474660f, 0.01872147f,
    -0.03276087f, 0.01785010f, -0.01817373f, 0.01773428f, -0.02128599f, -0.00274796f, -0.03205189f, 0.00897186f,
    -0.01416998f, 0.02719283f, 0.00479993f, -0.02085558f, -0.01072238f, -0.00674566f, -0.01175054f, -0.01685350f,
    0.00511698f, 0.02991001f, -0.01132222f, 0.02044480f, 0.02490544f, -0.01647697f, -0.00174316f, -0.00250951f,
    0.01064021f, -0.01268723f, 0.00095043f, -0.01758829f, 0.01432959f, -0.03550326f, -0.03333100f, 0.02193656f,
    0.02715109f, -0.01215034f, -0.02001530f, -0.03177078f, 0.02110801f, -0.01981956f, 0.00645123f, 0.03096267f,
    -0.00938086f, -0.01671665f, -0.03194372f, 0.01837527f, -0.03404916f, 0.00932240f, 0.02238712f, -0.00539656f,
    0.02700351f, 0.01759858f, -0.02117006f, -0.00621692f, 0.01066671f, -0.00387411f, 0.01219275f, -0.03404876f,
    0.01585415f, 0.03448638f, -0.01173032f, 0.02464525f, -0.02941462f, -0.02636493f, -0.01628901f, 0.03485049f,
    0.00239440f, -0.00770427f, 0.00014740f, 0.02888980f, 0.03365868f, -0.03192651f, 0.01020043f, -0.01105234f,
    -0.02162451f, 0.01046105f, -0.01241064f, 0.00489179f, -0.03091739f, 0.00444767f, 0.01017866f, 0.02555267f,
    -0.01570622f, 0.01181348f, -0.02401019f, -0.01877018f, 0.02220375f, -0.01830207f, -0.01684107f, -0.02027676f,
    0.03546565f, -0.02164517f, -0.00455644f, 0.01270571f, 0.02883068f, 0.02551047f, 0.00183920f, -0.01570213f,
    0.02836927f, -0.02221394f, 0.02875960f, -0.03068989f, 0.00259700f, 0.02987908f, 0.02784165f, 0.00586593f,
    -0.03044129f, -0.03426358f, 0.01825073f, -0.00012659f, 0.02627156f, 0.01482710f, 0.00561249f, -0.00892563f,
    0.02220366f, 0.00547106f, 0.00770089f, -0.01302419f, 0.00036509f, -0.01335043f, 0.01703385f, -0.00622123f,
    0.02226450f, 0.01554227f, 0.01296190f, -0.02265422f, 0.02509113f, -0.01873909f, -0.02723005f, 0.02664907f,
    -0.01657952f, 0.02481923f, 0.01872273f, -0.01369055f, 0.01351299f, -0.01138820f, 0.02690721f, -0.01862534f,
    0.00194642f, 0.00728189f, 0.01482177f, -0.03090933f, -0.03425693f, 0.01307151f, -0.00819552f, 0.00065532f,
    -0.02308138f, 0.00028513f, 0.02708232f, 0.00280112f, 0.00669818f, 0.03310452f, -0.02190371f, 0.00697888f,
    0.00025463f, -0.01104554f, -0.03408710f, -0.01595261f, 0.02327130f, -0.01093763f, 0.01704373f, 0.00293398f,
    0.00436911f, -0.02304866f, -0.01196954f, -0.03507450f, 0.01147898f, -0.00322000f, 0.00514460f, 0.01297126f,
    0.02051160f, 0.01188372f, -0.01887751f, 0.02461817f, 0.00747919f, 0.02359389f, 0.02408732f, -0.03335067f,
    -0.03147522f, 0.02536595f, 0.03265908f, -0.01738247f, 0.00893727f, 0.00048383f, -0.03531187f, -0.02275307f,
    -0.02027578f, -0.02096523f, 0.01286650f, -0.02256476f, -0.00767683f, -0.01776090f, 0.02561215f, -0.02360976f,
    0.00244765f, 0.00243790f, 0.02911843f, -0.01613117f, 0.02363415f, -0.03564266f, 0.02724800f, -0.01381142f,
    0.00132614f, -0.00478415f, -0.01781535f, -0.01462452f, -0.02301426f, -0.00182894f, 0.02190124f, -0.02595520f,
    -0.01935149f, 0.02177388f, 0.02326472f, -0.00337702f, 0.01536163f, 0.01229571f, 0.02084723f, -0.00652227f,
    0.00282262f, -0.01445162f, 0.02776468f, 0.01685994f, 0.00173316f, 0.01128074f, -0.02508797f, 0.02167899f,
    -0.03231583f, -0.00477158f, 0.03459679f, -0.00300472f, 0.01810055f, 0.03066570f, -0.00490349f, -0.03321178f,
    -0.02872455f, -0.02286934f, 0.01398386f, 0.02844541f, -0.02282998f, 0.00958524f, -0.00799244f, 0.02751400f,
    -0.00976485f, -0.00101552f, -0.00810594f, -0.02023738f, 0.00189650f, -0.00702589f, 0.01887242f, 0.02307582f,
    0.01886564f, 0.00239374f, 0.01535168f, -0.03073035f, -0.03076251f, -0.02645308f, 0.03219467f, -0.01228487f,
    0.01864415f, 0.02805718f, 0.01142351f, 0.01897031f, 0.02874885f, 0.02881905f, 0.02226368f, -0.01342146f,
    0.00670828f, -0.01413230f, 0.03271642f, 0.01108714f, 0.00538547f, 0.00455833f, -0.02555931f, -0.02110827f,
    0.03499895f, 0.02690943f, 0.00639177f, -0.02466596f, -0.01696520f, -0.01328391f, -0.01800514f, -0.00137693f,
    -0.03038841f, 0.02084761f, 0.03079203f, 0.02396477f, -0.03301101f, 0.01473055f, 0.01745536f, 0.00302974f,
    -0.01665430f, 0.00905126f, 0.00146465f, 0.00291244f, -0.00074014f, -0.01525337f, -0.01104487f, 0.00426451f,
    0.03452938f, -0.02450643f, -0.02966268f, 0.00625966f, 0.02323360f, -0.01851054f, 0.01540211f, -0.03132774f,
    0.02595285f, -0.03522174f, 0.01763495f, 0.01915926f, -0.00053401f, 0.01879572f, -0.02260234f, 0.02650964f,
    -0.01036859f, -0.02811518f, -0.00960635f, -0.01176509f, -0.00489893f, 0.01249086f, -0.00919707f, 0.01800276f,
    0.01787507f, 0.01063063f, 0.00706822f, 0.01858560f, -0.03501933f, 0.03349417f, -0.03384739f, 0.00833357f,
    -0.00144814f, -0.02470925f, -0.00820314f, 0.02951744f, -0.00905537f, -0.00025688f, -0.00049873f, 0.00343893f,
    -0.02177860f, -0.02385581f, 0.01832433f, -0.02211723f, 0.02847699f, 0.03416254f, -0.00058864f, -0.02480905f,
    0.01561608f, 0.02610022f, -0.02561503f, 0.00345262f, 0.02755407f, -0.00219707f, 0.03386545f, -0.00281570f,
    -0.02330762f, 0.01854128f, 0.02048242f, 0.01764965f, -0.02630562f, 0.00244996f, -0.00776411f, 0.03240015f,
    -0.02072047f, -0.02085332f, 0.01563520f, 0.01466483f, 0.03158457f, 0.01685306f, 0.00737958f, 0.03251866f,
    0.02336117f, 0.00585945f, -0.00797485f, -0.01988213f, -0.02887449f, 0.01784429f, -0.00013150f, 0.02383387f,
    0.01587308f, -0.01079292f, -0.02952781f, 0.00240281f, 0.02020871f, 0.03222618f, -0.01008875f, -0.02074498f,
    -0.01464911f, 0.01688020f, -0.01750021f, 0.01897165f, -0.00160277f, -0.02466119f, -0.00455416f, -0.00873034f,
    0.02100403f, -0.02967130f, 0.02904008f, 0.01282158f, -0.03119935f, -0.01231452f, -0.01207030f, 0.00266431f,
    -0.01618758f, -0.00416685f, -0.02859298f, 0.01171908f, 0.01597743f, 0.01093014f, 0.01357027f, -0.02609993f,
    0.01055792f, -0.00443680f, -0.00113061f, 0.00405428f, -0.03373991f, -0.01599097f, 0.01503999f, -0.00512788f,
    -0.00304920f, -0.02475168f, 0.00626739f, 0.02733283f, 0.00837100f, 0.00278872f, 0.00405335f, -0.01683991f,
    0.01073917f, 0.00432233f, -0.01068369f, -0.02300685f, 0.01340115f, 0.00820492f, -0.01018018f, -0.00238866f,
    0.03369093f, 0.02528506f, -0.01979110f, -0.03030554f, -0.01272658f, 0.02012599f, 0.02840878f, 0.01245362f,
    -0.00161802f, 0.01176142f, 0.02930022f, -0.03463025f, 0.01658334f, 0.00597727f, -0.03248902f, 0.02014260f,
    0.01827800f, 0.02363600f, 0.00196320f, 0.01387390f, -0.02036560f, -0.02595335f, 0.01723664f, -0.02561519f,
    0.02932012f, 0.01607597f, 0.01702289f, -0.03184615f, 0.02101219f, 0.02267540f, 0.00552346f, -0.03552163f,
    0.01145714f, 0.03483928f, 0.00806502f, -0.01829943f, 0.00098982f, 0.00392254f, 0.01678610f, -0.00640020f,
    0.03437516f, 0.01180139f, 0.00024003f, 0.02901592f, 0.00096411f, 0.02525925f, -0.01600093f, -0.01650580f,
    0.02817037f, 0.02908663f, -0.02103335f, -0.03120241f, 0.03238926f, 0.00115140f, 0.01581400f, -0.00587956f,
    -0.02093397f, 0.01654932f, 0.02058067f, 0.01180539f, 0.02495558f, -0.03518517f, 0.01693471f, -0.00921865f,
    -0.02159254f, 0.03078771f, 0.01940262f, 0.01091936f, -0.01048404f, 0.01176303f, 0.00975943f, 0.03081582f,
    -0.02629782f, -0.03559593f, -0.01849964f, 0.02487841f, 0.00334640f, 0.03121006f, -0.02499804f, -0.03142034f,
    -0.01821917f, -0.00583991f, 0.02541767f, 0.03491688f, 0.01911506f, 0.01414429f, -0.03133427f, 0.02791302f,
    -0.02153010f, -0.00240546f, 0.01965000f, 0.02017231f, 0.01407969f, -0.01668616f, 0.01056315f, 0.01165750f,
    -0.02871336f, -0.02802924f, -0.03548057f, -0.00989364f, 0.02688291f, 0.03306287f, 0.01752699f, 0.00983527f,
    0.00390723f, -0.00296748f, 0.02332131f, 0.03466538f, 0.03472939f, 0.00207039f, -0.00845120f, 0.02784124f,
    -0.01948342f, 0.00781550f, -0.00945487f, -0.01042230f, 0.01577860f, 0.01291146f, -0.01129446f, 0.01271164f,
    0.03269283f, 0.02658320f, 0.00471013f, 0.01203331f, 0.03098829f, 0.01167064f, -0.00374791f, -0.00836358f,
    -0.02394188f, -0.02647556f, -0.00561267f, 0.02475044f, -0.00947862f, 0.02593644f, -0.00162038f, -0.00066526f,
    -0.01095852f, -0.02343737f, 0.01489584f, 0.02963403f, -0.02062666f, -0.02589012f, 0.00393552f, -0.02945879f,
    0.00354824f, -0.02411914f, -0.01647255f, -0.01073508f, 0.00052362f, -0.01044692f, 0.01039633f, 0.02019130f,
    -0.01717945f, -0.00280905f, 0.02110249f, 0.03552454f, -0.01410167f, -0.01684393f, -0.02251580f, 0.02741632f,
    -0.03355810f, 0.01999678f, -0.01056130f, -0.00111794f, -0.00205972f, 0.01947228f, 0.03432813f, -0.03480599f,
    0.01930416f, 0.03235671f, -0.01699924f, -0.00637215f, -0.00682883f, 0.02779527f, -0.00362108f, 0.02199835f,
    -0.00237569f, 0.03293043f, -0.01840578f, -0.00940798f, 0.00018549f, 0.02828624f, 0.00923675f, -0.00127464f,
    -0.02529554f, 0.02070538f, -0.00113199f, -0.00518359f, 0.02511103f, 0.02578860f, 0.00227011f, 0.00511637f,
    0.00885651f, -0.01686786f, 0.02692299f, -0.02573779f, -0.02695371f, -0.00706312f, 0.00975141f, -0.02255189f,
    0.01125131f, 0.01761938f, 0.01150375f, -0.00937648f, -0.02372940f, -0.01322619f, -0.02987965f, 0.03491078f,
    0.01564556f, 0.01132242f, 0.01111900f, 0.01883969f, -0.02371188f, 0.00625111f, 0.00132714f, -0.01232457f,
    0.01093585f, 0.00428056f, 0.00713872f, -0.03371383f, 0.00486945f, -0.01490438f, -0.03292565f, 0.03287224f,
    -0.01193454f, -0.02666033f, 0.01552272f, 0.03030189f, 0.00074339f, -0.00288448f, -0.03319565f, -0.00532732f,
    -0.01574711f, 0.02245925f, 0.01865237f, -0.03391575f, -0.03179158f, -0.02820979f, 0.01899729f, -0.01094815f,
    -0.01828048f, -0.00884249f, 0.00496539f, -0.01520066f, -0.02840245f, -0.01697135f, 0.00266687f, 0.00422807f,
    -0.00362704f, -0.00176673f, 0.02575312f, 0.02343648f, 0.01968562f, 0.03091226f, -0.01867033f, -0.02791389f,
    -0.02003329f, 0.02211362f, -0.03468054f, -0.02943422f, 0.02389417f, -0.00800168f, -0.03516292f, -0.01554601f,
    0.02062883f, -0.01729704f, 0.00129536f, -0.00260838f, 0.01367976f, -0.03560784f, -0.01071162f, 0.01328736f,
    -0.02282970f, -0.01212372f, 0.01331706f, 0.03279328f, 0.02282300f, -0.01980760f, 0.01890073f, -0.03412276f,
    0.01354475f, -0.00424006f, 0.02429782f, -0.01053905f, 0.00965884f, -0.02427855f, -0.00619631f, 0.01350305f,
    0.00402593f, -0.00681811f, 0.00756939f, -0.02590547f, 0.02327502f, 0.01023522f, 0.03446233f, -0.02302992f,
    0.02002493f, -0.00204553f, -0.03159127f, -0.01635430f, 0.00024785f, 0.02429166f, -0.00136483f, -0.00137542f,
    0.01560203f, -0.03561727f, 0.02290102f, -0.00625151f, 0.00660470f, 0.01493507f, 0.02738381f, 0.01252969f,
    -0.01073047f, -0.02597108f, 0.02813531f, 0.02546166f, 0.03104921f, -0.01099055f, 0.01604485f, 0.00973261f,
    -0.02515537f, 0.01444574f, -0.03492216f, -0.00532030f, -0.00714344f, -0.01185352f, -0.00833786f, 0.02319840f,
    -0.01277741f, 0.03030979f, -0.02101371f, -0.01133308f, -0.00646033f, -0.01253576f, -0.00107144f, -0.00262041f,
    0.02587111f, -0.03334097f, -0.01864533f, 0.01688685f, 0.01551939f, -0.00047306f, -0.03470257f, -0.01470528f,
    0.02407316f, -0.01365681f, 0.03039720f, -0.03016892f, 0.02141698f, -0.02977576f, -0.01900067f, -0.00850856f,
    -0.00178520f, -0.00129679f, 0.00684934f, 0.03145285f, -0.00998471f, 0.02219843f, 0.03043799f, -0.01135016f,
    -0.03419606f, 0.00738531f, -0.00345342f, 0.03546084f, -0.02209025f, 0.00027278f, -0.00377041f, 0.01459531f,
    -0.00541793f, 0.02846785f, -0.02087961f, -0.02355638f, -0.00869768f, 0.01890295f, 0.02999564f, 0.03059101f,
    -0.02884116f, 0.01203562f, 0.02816281f, -0.00217567f, 0.03549406f, 0.02081972f, -0.00222925f, 0.02319719f,
    0.00501532f, 0.01309598f, 0.03347265f, -0.01685972f, -0.02016481f, -0.00996059f, -0.02220154f, -0.01990236f,
    -0.02037021f, -0.02932788f, 0.03197785f, 0.01257369f, 0.00661809f, 0.02955859f, 0.01121644f, -0.02861936f,
    0.02008737f, -0.00989693f, 0.03033912f, -0.00286106f, 0.02753689f, -0.00740228f, -0.00550463f, 0.02151182f,
    0.02921691f, 0.01022592f, -0.01980431f, -0.01692550f, 0.01439767f, -0.03400259f, 0.02188394f, 0.02210945f,
    0.00127118f, -0.00122275f, 0.00123982f, -0.00955493f, 0.00727393f, -0.02479986f, 0.02380621f, -0.00438269f,
    0.01382456f, -0.02988284f, -0.01819928f, -0.01572423f, -0.00248686f, -0.03191457f, 0.03396236f, -0.00704365f,
    0.00594236f, 0.01563924f, -0.01284254f, 0.03106787f, -0.03302309f, -0.01491413f, 0.03344277f, -0.01685184f,
    0.01509524f, 0.01675861f, -0.00813139f, -0.02014737f, 0.00197558f, 0.03208806f, -0.00876672f, -0.03143955f,
    0.02888808f, 0.03283329f, -0.03420804f, 0.00415286f, -0.00151796f, 0.00447947f, 0.02034833f, 0.00267690f,
    0.01968736f, 0.01053459f, -0.01144953f, -0.03265563f, -0.03011499f, -0.01875417f, 0.02258723f, -0.02800036f,
    -0.00806865f, 0.03398180f, 0.01088167f, 0.03276438f, 0.02263965f, -0.03081720f, -0.02403943f, 0.00565431f,
    0.02822014f, 0.01915460f, -0.00042771f, 0.02345672f, 0.03145283f, -0.02637717f, 0.02685291f, -0.00367799f,
    -0.00196150f, 0.02592872f, 0.02247188f, -0.00207936f, -0.00436766f, -0.01804690f, 0.00892053f, 0.02082294f,
    -0.02363187f, 0.01346952f, 0.02267539f, -0.01800868f, 0.03188933f, -0.03518727f, -0.01327762f, 0.02170711f,
    -0.02972535f, 0.02343532f, -0.01328255f, 0.00873134f, -0.01628934f, 0.01867449f, 0.02257731f, 0.03046762f,
    0.02692447f, -0.02688754f, 0.01899979f, 0.03428475f, -0.03183216f, 0.02611429f, -0.01119180f, 0.00113200f,
    0.02608085f, 0.00801858f, 0.01707411f, 0.00394991f, 0.02618640f, 0.01299056f, -0.01811121f, 0.01732383f,
    0.01208325f, 0.03344111f, 0.00480117f, -0.01360389f, -0.01577905f, 0.03552413f, 0.02680012f, -0.00241022f,
    -0.01643082f, -0.00235025f, -0.02769159f, -0.01533140f, -0.01910870f, 0.02170232f, 0.01996607f, -0.01297178f,
    -0.02907814f, 0.00616555f, -0.02209822f, -0.00886636f, -0.03062498f, 0.01664814f, 0.01389443f, 0.02616807f,
    0.03056172f, -0.01908551f, -0.01069155f, 0.02629417f, -0.03085707f, 0.02784001f, 0.00744362f, -0.03253027f,
    -0.03336609f, 0.03408489f, 0.00278467f, 0.03410114f, -0.00823019f, 0.02210479f, 0.03022054f, -0.02616858f,
    -0.03247168f, -0.03529062f, -0.00580126f, -0.01921266f, 0.01857657f, 0.01256491f, 0.01731719f, -0.02741307f,
    0.00449603f, -0.00828063f, -0.03215677f, 0.03218337f, 0.01679803f, -0.02620862f, -0.01645383f, 0.00035561f,
    0.03485577f, -0.02397528f, 0.02386809f, 0.02789240f, -0.00896247f, -0.00427813f, -0.02237332f, -0.02106974f,
    -0.02676379f, 0.02026769f, -0.01748311f, -0.00977380f, -0.03202973f, -0.01116683f, 0.01663917f, -0.03562464f,
    -0.02752348f, -0.02098968f, -0.00076569f, 0.03281684f, 0.00476260f, -0.01046684f, -0.03079798f, -0.03552153f,
    -0.03154631f, 0.01094790f, 0.02366391f, -0.00407835f, 0.03550383f, -0.01790345f, -0.01128503f, 0.00058037f,
    -0.03002754f, -0.02677597f, -0.00414508f, 0.00622032f, -0.02234922f, 0.01853243f, -0.01570526f, -0.02521286f,
    0.02697205f, -0.00660486f, -0.00365313f, 0.01244710f, 0.01378641f, -0.02825691f, 0.00466966f, -0.03006038f,
    -0.00748530f, -0.02239804f, 0.01203641f, -0.01160018f, 0.01513976f, -0.01901482f, -0.00996730f, -0.00658437f,
    -0.00624417f, 0.00115045f, 0.00561925f, -0.03252151f, 0.01637556f, -0.03116794f, -0.01521035f, 0.01516298f,
    -0.03231244f, -0.00525836f, 0.02599021f, 0.01454514f, 0.02346388f, -0.01585930f, -0.02998610f, 0.01149843f,
    -0.02120028f, 0.01269109f, 0.02168741f, -0.02614344f, 0.02106457f, 0.00365039f, -0.03549476f, -0.03539587f,
    -0.00486866f, -0.01883401f, -0.02779437f, 0.02236203f, 0.00111017f, 0.01574402f, -0.03521731f, 0.00262991f,
    0.00691445f, 0.00111398f, -0.03462389f, -0.02197214f, 0.00246783f, -0.01344478f, 0.00905111f, 0.00369936f,
    -0.00208122f, 0.00199840f, 0.02803563f, 0.00218510f, -0.02590456f, 0.03045240f, 0.03548935f, -0.03363546f,
    -0.00178102f, 0.00469106f, -0.03040265f, -0.03188597f, 0.03060468f, 0.00439522f, -0.00785020f, 0.01824082f,
    0.02841661f, 0.03325175f, 0.01909137f, -0.01661291f, -0.02651939f, -0.02974961f, 0.02534197f, 0.02987568f,
    0.02407706f, -0.00003905f, -0.00576402f, 0.03271701f, -0.02452316f, -0.00139130f, -0.00327199f, -0.03499772f,
    0.02568867f, -0.01393451f, -0.03378945f, -0.01252752f, 0.00824443f, -0.00005804f, 0.01340370f, 0.00774863f,
    0.00969591f, -0.02008200f, 0.02117555f, -0.00837521f, -0.00457244f, -0.00547405f, -0.03177366f, -0.01434299f,
    0.02899581f, -0.01731377f, -0.00098862f, -0.03028270f, -0.01565431f, 0.02685753f, -0.02306574f, -0.01935679f,
    0.00862673f, -0.00589387f, 0.00574074f, -0.02470792f, 0.02366141f, -0.02562236f, -0.00048011f, 0.00870442f,
    -0.00556247f, -0.00987045f, 0.01894552f, -0.01744667f, -0.03095913f, 0.00029187f, -0.00631929f, -0.02087901f,
    -0.02394929f, -0.02937827f, -0.03449441f, 0.01562868f, 0.00113078f, 0.00938078f, -0.03106051f, -0.01341850f,
    -0.03160292f, 0.02165425f, -0.01739096f, -0.02213190f, 0.00772864f, 0.02021670f, 0.03230906f, -0.00815271f,
    0.00980050f, -0.01120193f, -0.01517470f, -0.02127160f, -0.01285929f, -0.01372440f, 0.02863801f, 0.03127632f,
    0.03362491f, -0.02481142f, -0.02335928f, -0.00250432f, 0.02150784f, 0.01046674f, 0.03331660f, -0.02432716f,
    -0.03133630f, 0.00949138f, -0.02520489f, -0.02277614f, 0.00617043f, -0.02344763f, -0.00526151f, -0.02060217f,
    0.01769918f, 0.00404358f, 0.00655893f, 0.01035420f, -0.03114245f, -0.00859704f, 0.02019965f, -0.01062228f,
    -0.00035898f, -0.01918257f, -0.03323047f, 0.02096382f, 0.02682959f, 0.01336543f, -0.02744589f, 0.00942597f,
    -0.03508382f, -0.01595248f, -0.01856890f, 0.03364395f, 0.02227104f, -0.01406792f, -0.02594421f, 0.02209569f,
    -0.01860771f, -0.01365635f, 0.00613891f, -0.02865118f, 0.01588529f, 0.02492077f, -0.00873387f, -0.01256404f,
    0.03569715f, 0.00076002f, -0.03215908f, -0.02640179f, 0.00034936f, -0.02201193f, 0.00084924f, -0.03410020f,
    0.02376285f, 0.03271216f, 0.02592477f, 0.00132370f, 0.02445646f, -0.02487477f, -0.00206896f, -0.00307891f,
    0.02550620f, 0.02165979f, 0.00526410f, -0.00532016f, -0.01587014f, -0.00919506f, -0.02131755f, 0.01658868f,
    0.00630306f, -0.01858797f, -0.02019098f, 0.03328292f, -0.00075346f, 0.00906103f, -0.02641533f, 0.03386210f,
    0.00527444f, -0.03223035f, -0.00224443f, -0.02263612f, 0.02528158f, -0.01331521f, -0.00662893f, -0.01252503f,
    0.01922996f, -0.03315942f, -0.00296022f, 0.01629452f, 0.00581093f, 0.02354260f, -0.03439588f, 0.00293857f,
    0.02089100f, -0.00982663f, -0.01819661f, -0.03145162f, 0.02641475f, 0.02670824f, -0.00771580f, 0.00306259f,
    0.01838001f, -0.01441972f, -0.00636289f, -0.00504412f, -0.02984131f, -0.03524218f, -0.00627076f, -0.00793550f,
    0.01007028f, 0.00599125f, -0.03454307f, -0.02580525f, -0.02229449f, -0.02745437f, 0.02549251f, 0.01818102f,
    0.02735865f, -0.03426265f, 0.00184831f, -0.00842812f, -0.01012306f, 0.02698534f, -0.02976092f, -0.00665574f,
    -0.02896688f, 0.01725998f, 0.01755991f, 0.00673330f, 0.02773375f, 0.03375597f, 0.03046296f, 0.00794994f,
    0.03254068f, 0.02538033f, 0.01649809f, 0.00458141f, -0.02011600f, -0.00904166f, 0.00468327f, -0.01269337f,
    -0.01338164f, 0.02864275f, 0.02639941f, 0.00904933f, -0.01485610f, 0.03258443f, -0.01896612f, 0.02856347f,
    0.02097047f, 0.02766020f, -0.00967185f, 0.00748662f, 0.00000557f, -0.02776503f, -0.01215443f, -0.00570061f,
    0.00703355f, 0.00303185f, 0.00285053f, 0.00389698f, 0.01342462f, -0.02636019f, -0.01750975f, 0.02179290f,
    -0.03283535f, -0.02083976f, 0.02141531f, 0.00724408f, -0.01427023f, -0.00964154f, -0.00472363f, -0.01976101f,
    0.00076113f, -0.00676171f, 0.01461235f, -0.03399983f, 0.00518539f, 0.03474861f, 0.02707728f, -0.02997291f,
    -0.01732518f, 0.00875482f, 0.02666735f, 0.01466016f, 0.02161850f, -0.00835870f, 0.00828673f, 0.03550367f,
    0.03101296f, 0.03257437f, 0.01253811f, 0.02866787f, 0.01384526f, 0.02577497f, -0.03271906f, -0.03023783f,
    0.03491909f, 0.00409126f, 0.01475405f, 0.03461009f, -0.00372309f, 0.00420002f, -0.02473583f, 0.03132153f,
    -0.01489821f, 0.01157397f, 0.00275147f, -0.02677659f, -0.03378706f, 0.02049187f, 0.03060566f, 0.01848773f,
    -0.01119925f, 0.01523716f, 0.02739226f, -0.02047078f, 0.01056804f, -0.02978985f, -0.02290777f, 0.03469702f,
    0.01142570f, -0.01587472f, 0.00624864f, -0.00440795f, 0.00950006f, -0.00495395f, -0.01923342f, 0.00593499f,
    0.00209827f, 0.02088084f, -0.01755931f, -0.00054241f, -0.01292721f, 0.02124806f, 0.02350142f, -0.00861489f,
    -0.01125984f, -0.01993265f, -0.00001614f, -0.03501970f, 0.00176221f, 0.00533980f, 0.01012207f, 0.00722168f,
    0.00968446f, -0.00463923f, -0.02802508f, 0.01906727f, -0.02175838f, 0.01894454f, 0.01909097f, 0.00866180f,
    0.01287386f, 0.02784932f, 0.02449549f, 0.01946038f, -0.01371904f, 0.00353819f, 0.03330231f, 0.02942192f,
    0.01703592f, -0.01518522f, -0.02717239f, 0.02157473f, -0.01312790f, -0.00118002f, 0.03363268f, -0.03257653f,
    0.02898993f, 0.02357589f, -0.00620110f, 0.02683025f, 0.02709736f, -0.03329156f, 0.01569235f, 0.03518200f,
    0.03456949f, -0.03392336f, 0.00685880f, 0.03179577f, -0.01126174f, -0.02910893f, -0.03042806f, -0.00087890f,
    0.01634891f, 0.03290613f, -0.01128376f, -0.00180534f, -0.03003978f, -0.00917908f, -0.03305311f, 0.00150061f,
    -0.02294701f, 0.03073809f, -0.01570166f, -0.02990841f, 0.02665392f, 0.01571709f, -0.00354202f, 0.02867158f,
    -0.00797173f, -0.01214947f, -0.01206748f, -0.03171434f, 0.01758985f, -0.02031931f, -0.01494997f, -0.02337458f,
    -0.00556157f, -0.03435302f, -0.00697736f, 0.02631973f, -0.02138252f, -0.00561105f, -0.01754459f, -0.03049309f,
    0.01852245f, 0.01371957f, -0.00768353f, 0.01646806f, 0.01461324f, -0.00621176f, -0.03571124f, 0.00994228f,
    0.00997915f, -0.01358110f, -0.00455605f, -0.02566252f, 0.00140148f, 0.02419739f, -0.00146948f, -0.01709162f,
    -0.02865840f, 0.01683118f, -0.00343573f, 0.03035794f, 0.02501301f, -0.03349189f, 0.03180235f, -0.00176155f,
    0.00547018f, 0.02054511f, -0.01333861f, 0.02559552f, -0.02765832f, -0.01729195f, -0.00741595f, 0.02404383f,
    -0.01369481f, -0.02597907f, 0.03301358f, -0.01775479f, 0.03306120f, 0.00429990f, -0.03313006f, -0.00725202f,
    0.02692197f, 0.01535543f, 0.00553547f, -0.00091921f, -0.00722731f, -0.02591314f, -0.02859615f, 0.00469458f,
    0.01276169f, 0.02282170f, -0.03253326f, 0.03204581f, 0.00628378f, 0.01869434f, -0.02638713f, 0.01487777f,
    -0.02039327f, -0.00514642f, 0.01417376f, -0.03117294f, 0.02444997f, -0.03103129f, 0.00012887f, 0.00285123f,
    -0.03333455f, 0.03481232f, 0.00781789f, -0.03533598f, -0.02326251f, -0.03391685f, 0.02688684f, 0.02199277f,
    0.01406902f, 0.01925206f, -0.00168511f, -0.01573045f, -0.02808758f, 0.03115172f, 0.02357115f, 0.03540324f,
    -0.02992340f, -0.01473709f, 0.01138983f, 0.03540754f, -0.00774330f, 0.00195212f, 0.00011654f, 0.01342963f,
    -0.01818464f, -0.01318317f, -0.00409963f, -0.01883704f, 0.01098434f, 0.03557834f, -0.02175627f, 0.01307641f,
    -0.03165878f, 0.01105888f, -0.02053900f, -0.01605171f, 0.02729467f, 0.01069941f, -0.00688151f, 0.01503566f,
    -0.00110100f, 0.00420096f, 0.00186892f, 0.03057289f, -0.02077209f, -0.00283972f, 0.03427397f, -0.02809148f,
    0.03530645f, 0.03280525f, 0.02913556f, 0.00755643f, 0.01720891f, 0.00997395f, 0.00578790f, -0.01883582f,
    0.02379272f, -0.02008286f, -0.02957489f, 0.00274416f, -0.02516977f, 0.00423582f, -0.03266340f, -0.00375728f,
    -0.02577208f, -0.01200815f, 0.00139064f, 0.00802267f, -0.01080169f, -0.03513107f, 0.02432988f, -0.02101590f,
    0.01800905f, 0.02100278f, -0.02986756f, -0.01331343f, 0.02214099f, -0.03525841f, 0.03137969f, 0.00536076f,
    -0.01465694f, 0.01683635f, -0.03339739f, -0.00595082f, -0.01040487f, 0.01769253f, -0.00752652f, 0.00229072f,
    -0.03067876f, -0.03385006f, 0.00001348f, -0.01573983f, -0.03219865f, 0.02882753f, 0.03037622f, 0.01637245f,
    0.00916115f, -0.02595558f, -0.03478962f, -0.02971952f, 0.02999291f, -0.01779659f, -0.01283847f, -0.02310993f,
    0.01757041f, -0.02549523f, 0.03192371f, -0.02552618f, -0.00318939f, -0.01624292f, 0.00428692f, 0.03457271f,
    0.00386612f, -0.01060849f, -0.03349974f, 0.01739190f, -0.00341530f, -0.02496757f, 0.01728516f, -0.02870698f,
    -0.01100670f, 0.00572917f, -0.01535303f, 0.03237352f, 0.02171048f, 0.00141047f, -0.02699562f, 0.02525855f,
    -0.00088633f, -0.02634927f, -0.00492659f, 0.01104838f, 0.00137688f, -0.01658309f, -0.01860418f, 0.00098148f,
    0.00189153f, 0.01280349f, 0.01163625f, -0.03470641f, 0.00602376f, 0.02298430f, -0.02442271f, -0.02741533f,
    -0.02959578f, 0.03070267f, 0.01269551f, -0.00938990f, -0.03158866f, 0.03293695f, -0.02561023f, -0.00613317f,
    -0.02332464f, 0.01442888f, 0.02383909f, -0.03012267f, 0.01471058f, -0.01057148f, 0.00040356f, 0.02103187f,
    -0.01778934f, -0.01463203f, -0.02504612f, -0.01213844f, 0.00014759f, -0.01220029f, -0.00863248f, 0.01596484f,
    0.00453425f, -0.03463533f, -0.02322536f, -0.02176972f, 0.02404180f, 0.03181313f, -0.02245666f, -0.00904821f,
    0.02042109f, 0.01790055f, -0.01955391f, -0.00901945f, 0.02640058f, 0.02463337f, 0.03180583f, -0.03492242f,
    0.02340887f, 0.00535463f, -0.01704305f, -0.01488778f, 0.03049968f, -0.02081081f, 0.01736469f, -0.02508817f,
    0.03516837f, -0.02460987f, -0.01191981f, 0.03098511f, -0.03405648f, -0.02563904f, 0.01898637f, -0.00949221f,
    -0.02895229f, -0.03431544f, 0.02601804f, -0.00054825f, 0.00741054f, 0.03313507f, -0.00443238f, -0.02899503f,
    -0.02388868f, 0.02861113f, -0.02693612f, 0.02892331f, -0.01218629f, -0.03516915f, 0.01999191f, -0.01834001f,
    0.01629647f, 0.00379719f, -0.00854364f, -0.00956698f, -0.02958194f, 0.02759316f, 0.00665133f, -0.01329138f,
    0.01415206f, -0.01454211f, -0.01270441f, 0.01246968f, -0.03414980f, 0.00454666f, 0.02123093f, 0.01709116f,
    -0.02808879f, -0.03498458f, -0.01188126f, -0.02773291f, 0.03540216f, 0.01702766f, 0.03013415f, -0.01400305f,
    0.02768718f, 0.00124648f, -0.01257699f, -0.01551440f, 0.01406327f, -0.01363335f, -0.01540684f, 0.01966293f,
    0.00833061f, -0.00574352f, 0.00810478f, -0.02706529f, -0.01651089f, 0.01996088f, -0.03136871f, -0.00040980f,
    0.02692475f, 0.02214094f, -0.01031360f, 0.03203365f, 0.01916364f, 0.03513791f, 0.00268680f, 0.03461441f,
    -0.00077274f, 0.01501217f, -0.00268896f, 0.02645609f, -0.00250922f, -0.02205202f, 0.00132405f, 0.00866669f,
    -0.01336162f, 0.02264374f, -0.01615426f, -0.01627809f, -0.02856520f, -0.00636155f, 0.02924782f, 0.00974614f,
    0.03343870f, 0.01056572f, -0.02060124f, -0.00287692f, 0.00762131f, -0.00391173f, -0.03014756f, -0.01169545f,
    -0.01976765f, 0.01626874f, 0.00793527f, 0.01113545f, 0.00335243f, -0.00941697f, -0.01589974f, -0.01858996f,
    0.01862454f, 0.00673285f, 0.03071486f, 0.00148252f, 0.02030893f, 0.00942370f, -0.03464656f, -0.00685958f,
    0.00288139f, 0.00142756f, 0.01275006f, -0.02154778f, -0.00612862f, -0.01740820f, 0.01982281f, -0.00396763f,
    0.03446429f, -0.01331451f, -0.00334727f, 0.02068896f, 0.01231659f, -0.00130886f, 0.00203846f, 0.01902374f,
    0.00533991f, 0.00076067f, -0.00208043f, 0.02256723f, -0.00769270f, -0.01386459f, 0.03464521f, -0.01236295f,
    -0.01947412f, 0.02430833f, -0.02363065f, -0.03381527f, -0.03183028f, 0.02767790f, 0.01609988f, 0.03456278f,
    0.00043697f, 0.00048458f, 0.01468187f, 0.03275512f, 0.02759499f, 0.03200274f, -0.01655744f, 0.01374557f,
    -0.02178863f, -0.02837520f, 0.01038612f, -0.02041334f, 0.02758165f, -0.01609884f, 0.00262849f, 0.03368706f,
    -0.00102475f, 0.03532777f, -0.02552174f, -0.02104480f, 0.01522400f, -0.01134860f, 0.02371076f, -0.03162589f,
    0.02601865f, -0.01084149f, 0.03419967f, -0.01108685f, 0.03533389f, 0.01118491f, -0.02832313f, -0.02764647f,
    -0.02129131f, 0.01315911f, -0.00245971f, -0.01566372f, 0.03402054f, 0.02041643f, -0.00993297f, -0.00800997f,
    -0.01602262f, -0.02859240f, -0.00961228f, -0.00197151f, 0.00347299f, -0.02337139f, -0.00524266f, -0.00619131f,
    -0.01083162f, 0.03323600f, -0.01520570f, 0.02364894f, -0.01529955f, 0.01215240f, -0.00542103f, -0.03522691f,
    0.03019619f, 0.01721138f, 0.01787638f, -0.02764685f, 0.00574889f, 0.03564376f, -0.03051971f, -0.00032975f,
    -0.00320738f, -0.02107931f, -0.03367664f, -0.01629752f, 0.01981924f, 0.00579681f, 0.03078276f, 0.00708963f,
    -0.03451433f, -0.00968861f, -0.02895826f, 0.03533412f, -0.00646707f, 0.02160893f, -0.02744348f, -0.02233622f,
    -0.02401077f, -0.02445386f, -0.00515621f, -0.02622966f, -0.02408387f, -0.03191748f, 0.03515078f, -0.01973934f,
    0.02141460f, 0.00564848f, -0.00119343f, -0.01259796f, 0.02708683f, -0.02478936f, 0.03160849f, -0.02369008f,
    -0.03110824f, -0.03244987f, -0.00201037f, 0.00541251f, 0.02454825f, 0.02056580f, 0.02881441f, -0.00594317f,
    0.00963159f, 0.02030229f, 0.02800979f, 0.02969219f, 0.03078930f, -0.02138981f, 0.00003836f, 0.00710221f,
    0.01844513f, 0.03162349f, 0.01893201f, 0.00539936f, -0.02764963f, 0.02692911f, 0.02766719f, -0.02468298f,
    0.00834385f, 0.02759938f, 0.03519462f, 0.03038511f, -0.02720511f, 0.02572755f, 0.02480325f, -0.00309199f,
    -0.03286061f, -0.01517063f, 0.01394382f, 0.03358750f, -0.01567528f, -0.00560933f, -0.03417923f, 0.03223532f,
    0.01713099f, 0.01130097f, 0.01730538f, -0.00487260f, -0.02997174f, 0.02072253f, 0.02613669f, -0.03087373f,
    0.00399363f, -0.02651011f, 0.02640180f, -0.02574847f, 0.02260398f, -0.00929480f, 0.02374719f, 0.03222370f,
    -0.01587470f, 0.00335544f, 0.03550246f, 0.02321699f, -0.00080839f, -0.01345781f, 0.02234360f, 0.01563235f,
    -0.02531227f, 0.01718407f, 0.00914906f, -0.00360609f, 0.01327377f, 0.02503197f, 0.03040162f, -0.00849549f,
    -0.03118432f, -0.00198202f, 0.02433015f, 0.02744854f, 0.01856350f, 0.03532947f, -0.01550504f, -0.00521332f,
    -0.02329464f, 0.03012002f, 0.02235850f, 0.02683651f, 0.02931008f, -0.02081277f, -0.00872249f, -0.01676217f,
    0.03517658f, -0.01667200f, 0.01566599f, 0.01959860f, 0.02082473f, 0.02662508f, -0.00410526f, 0.00353651f,
    0.02118457f, -0.02287446f, -0.03076769f, 0.02775593f, -0.00674388f, 0.01576733f, 0.03471039f, 0.02296192f,
    0.02630685f, 0.03528878f, 0.01625716f, -0.02017466f, -0.00834781f, -0.01699120f, -0.00277601f, 0.00903003f,
    0.00388694f, 0.00053182f, 0.01737685f, -0.02303199f, 0.03151026f, -0.02161640f, -0.02316763f, -0.02676619f,
    0.00728685f, 0.01024256f, -0.01618463f, 0.00950494f, -0.02332850f, 0.00715780f, -0.00124710f, 0.03161625f,
    0.02734284f, 0.00241955f, 0.00830945f, -0.01697164f, -0.02145497f, -0.01175060f, 0.01104179f, 0.00396349f,
    -0.01554077f, 0.02272020f, -0.01922891f, 0.02678154f, 0.00069777f, -0.01560845f, 0.00099370f, 0.00669228f,
    0.02733129f, -0.02550722f, 0.03514785f, 0.03143911f, 0.00399286f, -0.00295856f, -0.03049639f, 0.03498097f,
    0.02436469f, 0.01419220f, -0.00167085f, -0.00558402f, -0.02109567f, 0.02821567f, 0.02952844f, 0.03354269f,
    -0.01644451f, 0.00577439f, -0.02900115f, 0.00486650f, 0.02160646f, -0.00715237f, 0.00515353f, 0.00762434f,
    -0.02754691f, 0.02107295f, -0.03064690f, 0.01139245f, -0.03254098f, -0.01658967f, -0.01104861f, -0.02301533f,
    0.01284194f, -0.03241660f, -0.00164380f, -0.01659179f, -0.02623698f, 0.01332982f, -0.02897226f, 0.00950551f,
    0.00564846f, 0.00594968f, 0.03019291f, -0.02544020f, 0.03269147f, -0.00628912f, -0.01063404f, 0.01851385f,
    -0.00008727f, -0.00946247f, -0.00745941f, 0.03567616f, -0.00254236f, 0.01452560f, 0.02206354f, -0.00370162f,
    -0.01076563f, -0.01993368f, -0.01717329f, -0.01339858f, -0.01341870f, 0.01710306f, -0.03205437f, -0.03215446f,
    -0.02247554f, -0.01113248f, -0.03112212f, -0.01610240f, -0.01408475f, -0.02181320f, 0.01280697f, -0.01412343f,
    0.02535547f, -0.02168083f, 0.03424562f, 0.00159653f, 0.01367715f, -0.03104081f, -0.03555458f, 0.00968479f,
    0.03451556f, 0.02807785f, -0.01369381f, 0.02937784f, 0.03351803f, 0.02678297f, 0.01542808f, 0.02260588f,
    0.02011560f, -0.01981971f, 0.01040765f, -0.01490162f, 0.02389967f, 0.02824244f, -0.02368497f, -0.01757981f,
    -0.00162306f, 0.02796987f, 0.03148922f, 0.02373357f, -0.03462961f, 0.02198049f, 0.01610745f, -0.03057305f,
    -0.02560833f, 0.02282135f, 0.00399496f, -0.02342371f, -0.02691316f, 0.00687128f, 0.00077087f, -0.01318422f,
    0.00182438f, -0.00647432f, -0.00862950f, -0.03043985f, 0.02121644f, -0.01190880f, 0.02745804f, -0.01994994f,
    -0.03203715f, 0.00230929f, 0.03231187f, 0.03063809f, 0.03132355f, 0.01359313f, 0.01822396f, -0.02015635f,
    0.01082109f, -0.00462188f, 0.03553603f, 0.01052227f, 0.01571845f, -0.00464509f, -0.00072918f, 0.00880246f,
    0.02719775f, -0.03524372f, 0.01425693f, -0.00970856f, -0.02221416f, 0.02267939f, 0.02695716f, 0.00434219f,
    0.00518986f, 0.03304709f, -0.03352844f, 0.01874838f, 0.02219486f, -0.02107538f, -0.00990640f, 0.01062641f,
    0.01269984f, 0.02436309f, 0.01588462f, -0.02859760f, 0.00395177f, 0.02635967f, 0.01828415f, 0.00042417f,
    0.00573267f, 0.02431328f, 0.00339425f, 0.01227713f, -0.00093536f, -0.01762115f, -0.01415031f, -0.00813883f,
    0.00276537f, 0.03294303f, 0.03449214f, 0.01659815f, 0.02413682f, -0.01955758f, 0.00615565f, 0.00551009f,
    -0.02165862f, 0.00665127f, 0.01376284f, 0.03464562f, -0.02636222f, -0.02251866f, -0.00886843f, 0.00619710f,
    0.02544517f, 0.01296141f, -0.01932258f, 0.01219730f, 0.01603757f, -0.02371066f, 0.00495296f, -0.01618270f,
    -0.01455514f, -0.00639655f, -0.02136329f, -0.00134085f, 0.00926891f, 0.01270475f, 0.01155787f, -0.00269775f,
    -0.03283471f, -0.00970053f, 0.02064696f, 0.02799176f, -0.03091020f, -0.02501326f, 0.01784192f, -0.02699609f,
    -0.00511146f, 0.02463075f, 0.02546605f, 0.00540100f, 0.00388590f, -0.02987037f, -0.02670068f, 0.01486018f,
    0.01613692f, -0.02447247f, 0.02983325f, 0.01847935f, 0.01635337f, -0.00238726f, -0.00741243f, 0.00672459f,
    -0.00337744f, -0.01971844f, 0.00333404f, -0.01089280f, 0.00400440f, -0.02972135f, -0.00444982f, -0.01469839f,
    -0.01836684f, 0.02108212f, -0.01003466f, 0.01974753f, 0.00808451f, 0.02270272f, -0.03402866f, 0.01012974f,
    -0.02050539f, 0.02841672f, 0.00487147f, -0.03261643f, 0.03242662f, -0.01948078f, -0.03286764f, -0.00246757f,
    0.03078600f, -0.01831412f, -0.02808544f, -0.03421807f, -0.01494874f, 0.01506844f, 0.00494921f, 0.03396830f,
    0.03193683f, -0.02502070f, 0.01102004f, -0.03223331f, 0.02366159f, 0.02031193f, 0.00053526f, -0.01554344f,
    0.01058010f, -0.01065210f, -0.02367198f, 0.01036484f, 0.00449279f, 0.01454818f, 0.02629108f, 0.01758450f,
    0.02741549f, -0.00226043f, 0.03185883f, 0.01105646f, -0.02097525f, -0.02246074f, 0.01426200f, 0.02890644f,
    -0.02829415f, -0.01670308f, 0.00296601f, -0.00417161f, -0.01304986f, -0.00133075f, -0.00801996f, 0.03244002f,
    0.02803072f, 0.02097667f, -0.00441803f, -0.01344005f, 0.03482745f, 0.03476419f, -0.01832111f, 0.01407951f,
    -0.02473437f, 0.02807985f, 0.02945357f, -0.02174088f, -0.02509114f, -0.00005201f, 0.01735932f, 0.02341362f,
    -0.01719713f, 0.01141160f, 0.00258383f, 0.02972104f, -0.03554508f, -0.02153202f, -0.01809193f, -0.03065481f,
    -0.01184448f, -0.01652715f, 0.02226237f, 0.03155876f, 0.00787304f, -0.00605063f, -0.01961962f, -0.01604504f,
    -0.00648037f, -0.00630125f, -0.01231910f, 0.03085022f, 0.01933554f, 0.01845000f, -0.03535398f, 0.02873588f,
    0.00204502f, -0.01089304f, -0.01996304f, 0.00158057f, 0.02440806f, 0.01345436f, 0.00477115f, -0.01649743f,
    0.02149166f, 0.01842304f, 0.02533525f, 0.02525968f, 0.02516428f, 0.02876804f, -0.01269813f, -0.00556289f,
    0.02574771f, 0.00179646f, 0.00210852f, -0.01250709f, 0.02243483f, -0.00583366f, 0.02161346f, 0.03432833f,
    -0.01452406f, 0.02344889f, -0.02166504f, -0.02407305f, -0.00344509f, 0.00606314f, -0.02648344f, -0.00602302f,
    0.01550008f, -0.01281105f, -0.01148549f, 0.00072111f, -0.03283961f, -0.02929239f, 0.01982814f, 0.01721256f,
    0.02956914f, -0.01660050f, 0.02190384f, 0.01822807f, 0.02370047f, 0.01409200f, 0.00120065f, -0.02322241f,
    -0.01778468f, 0.00302773f, 0.00691633f, 0.01606399f, -0.01672301f, -0.00564876f, 0.00051994f, 0.02356595f,
