// Auto-generated weights file
// DO NOT EDIT

#ifndef WEIGHTS_H_
#define WEIGHTS_H_

#include <stddef.h>

// Shape: (3, 3, 3, 32)
static const float conv_weight[864] = {
    0.16305912f, 0.02638773f, 0.00752061f, -0.00592705f, -0.06735357f, -0.05132000f, 0.12824687f, -0.08759517f,
    0.00544940f, 0.03135457f, 0.11437229f, 0.09599280f, -0.04476125f, -0.00606334f, 0.06821164f, -0.01158528f,
    0.15998586f, -0.11046750f, 0.08740609f, 0.15299980f, 0.16516307f, -0.01283543f, 0.07138569f, -0.00813417f,
    0.16464637f, 0.01573817f, 0.12820652f, -0.06554357f, -0.00288436f, -0.09581404f, 0.17046967f, -0.12292005f,
    -0.17346811f, -0.09796977f, -0.19127358f, 0.14686950f, -0.02730490f, -0.08573657f, -0.12891148f, -0.18992496f,
    -0.17842756f, 0.12088000f, -0.12080633f, 0.13089347f, 0.12867221f, 0.02779278f, 0.19206248f, 0.13490838f,
    -0.08877019f, -0.16350280f, -0.05695525f, 0.06428562f, -0.10649776f, -0.17452022f, 0.10329279f, -0.09586963f,
    0.14150390f, -0.17945845f, 0.03099426f, 0.01528750f, -0.04632363f, -0.00290056f, -0.13151909f, 0.11071135f,
    -0.06780586f, -0.19060016f, 0.13817842f, -0.13134360f, -0.00104782f, -0.05062631f, -0.11975353f, 0.09649505f,
    0.11882787f, -0.09796722f, -0.07982101f, 0.16326630f, -0.10130128f, -0.13215804f, -0.05109739f, -0.18356642f,
    -0.17395046f, -0.02844900f, 0.15597363f, -0.10398242f, 0.07577223f, -0.05396602f, -0.01282820f, 0.16250682f,
    0.14367929f, -0.17503788f, 0.11660896f, -0.07971217f, 0.06154396f, -0.08865699f, -0.04643949f, -0.00749498f,
    -0.07372732f, 0.17941798f, -0.15227632f, -0.01409101f, 0.17532596f, 0.12457237f, -0.10323915f, -0.03814707f,
    -0.13663529f, -0.13179895f, -0.13012253f, -0.03205207f, -0.15871228f, 0.09463304f, 0.00414320f, 0.13666850f,
    -0.05518650f, -0.06396908f, 0.15092449f, 0.03258886f, 0.16170773f, 0.18141089f, 0.04136537f, 0.05777918f,
    0.03679265f, -0.09904145f, 0.01965962f, 0.10750018f, -0.11488002f, -0.10750452f, -0.13850641f, 0.08019324f,
    0.15238935f, 0.18788163f, 0.03677921f, -0.10153773f, 0.13268460f, 0.14781407f, -0.18188815f, -0.18007471f,
    -0.01232640f, 0.15466370f, -0.05217417f, -0.17875083f, 0.11764793f, -0.10280192f, 0.12581863f, -0.15211153f,
    0.03100610f, -0.14351870f, 0.08845352f, 0.12224653f, -0.03210362f, 0.09918301f, 0.03188404f, 0.04902343f,
    0.18221965f, 0.03407682f, -0.00939287f, 0.11484856f, 0.02679857f, -0.18942203f, -0.08645460f, 0.00729743f,
    0.05195030f, 0.10947162f, -0.04031312f, -0.01795240f, -0.07436636f, -0.07514037f, 0.16996524f, 0.09059773f,
    -0.07181908f, 0.02836150f, -0.01968749f, -0.00533081f, 0.10848790f, -0.17469703f, -0.00128800f, -0.09975871f,
    -0.00179701f, -0.00421391f, -0.12312633f, 0.02399313f, 0.02726654f, -0.16107722f, 0.08967676f, -0.15477464f,
    -0.15435883f, -0.04134904f, -0.02384143f, 0.03852946f, -0.01289623f, -0.12870090f, -0.16546145f, 0.18924521f,
    -0.18910989f, 0.02254852f, -0.08506609f, -0.08913092f, -0.07243693f, 0.09392678f, -0.15572292f, -0.16556762f,
    0.01679783f, -0.15602045f, -0.00553146f, 0.13394864f, -0.15499282f, 0.14186387f, -0.14205936f, -0.04360713f,
    -0.00244028f, -0.05124062f, -0.17191143f, -0.07952926f, 0.06580428f, 0.09999143f, -0.00062193f, 0.18153594f,
    0.18349458f, 0.17197365f, -0.18361925f, 0.17315622f, 0.00262195f, 0.07904007f, -0.12854066f, -0.00817188f,
    -0.08004873f, -0.11970283f, -0.12903044f, -0.09026177f, 0.06438668f, -0.00317412f, 0.10204498f, -0.16430411f,
    -0.13884465f, -0.10681169f, 0.11797304f, 0.11108684f, -0.05794340f, 0.18200178f, -0.16921978f, -0.07736986f,
    0.09486012f, -0.07922691f, -0.08031514f, -0.17827867f, 0.18659396f, 0.08410783f, -0.14007977f, 0.02022536f,
    -0.09196801f, 0.18124427f, 0.05874037f, -0.09992965f, 0.14586912f, -0.16556396f, -0.03017306f, 0.07418539f,
    -0.07289668f, -0.18829973f, -0.09490642f, -0.10618293f, -0.18745537f, 0.18215765f, -0.10420917f, 0.05961955f,
    -0.15070909f, -0.18417680f, 0.02707502f, -0.17306024f, -0.13247655f, -0.02995351f, 0.12831992f, -0.05192364f,
    0.02767653f, -0.11421110f, -0.03698257f, 0.13573596f, 0.01527445f, 0.09030440f, 0.11445528f, 0.11649563f,
    0.15436621f, 0.01319876f, 0.15274797f, 0.02817776f, -0.07825764f, 0.00067621f, 0.07963975f, 0.02804507f,
    0.10762085f, 0.13705397f, 0.11746237f, 0.02284968f, 0.14341979f, 0.13073106f, 0.01119860f, 0.05541138f,
    0.15663616f, 0.09659705f, 0.17354888f, -0.06767280f, -0.12878232f, -0.12499865f, -0.05542751f, -0.12063647f,
    0.05156004f, 0.07909619f, -0.02471758f, -0.14688735f, -0.17812915f, 0.18596932f, -0.11595916f, -0.08669877f,
    0.01504033f, 0.15766081f, -0.10349825f, 0.11651793f, -0.09054884f, 0.04055904f, 0.17389601f, 0.13111086f,
    -0.03048863f, -0.00334079f, -0.02300002f, 0.12635176f, 0.06704693f, 0.09258321f, 0.14139099f, -0.03399292f,
    0.00434947f, 0.07450739f, -0.03029247f, -0.08152001f, 0.05643247f, 0.12155940f, -0.12160914f, 0.04659951f,
    0.02607702f, 0.03133623f, 0.04463408f, -0.18995756f, 0.06031520f, 0.16039512f, -0.09513691f, -0.16139361f,
    0.16644178f, -0.17852335f, 0.06881671f, -0.10612504f, 0.18100609f, 0.02519041f, 0.09987225f, 0.16815919f,
    0.16111597f, -0.17256966f, -0.06051878f, -0.18887433f, -0.14059561f, 0.02400391f, 0.07525485f, -0.04226096f,
    -0.11150876f, -0.06601860f, 0.16179378f, -0.17402674f, -0.19088002f, -0.18721749f, 0.12995666f, 0.08950768f,
    0.10840918f, -0.01638582f, 0.12211470f, -0.16204076f, -0.11728536f, 0.18338557f, -0.03929437f, -0.15264516f,
    -0.04197067f, 0.08601668f, -0.08412724f, 0.12689948f, -0.14661585f, -0.06117448f, 0.14993241f, 0.12858173f,
    0.03251437f, 0.00404928f, -0.08187339f, -0.13825262f, 0.15801404f, -0.09464063f, -0.10785422f, -0.16121501f,
    0.15910627f, 0.10963565f, 0.10775016f, -0.18574356f, -0.03355407f, 0.16323535f, 0.14024699f, -0.00434957f,
    -0.15622567f, 0.18049315f, 0.00119997f, 0.18628381f, 0.11303717f, 0.10581391f, -0.09287620f, -0.16828457f,
    -0.02749407f, -0.01577017f, 0.19031115f, -0.16952065f, 0.06117854f, -0.16324307f, 0.09734640f, -0.02696189f,
    -0.18482542f, 0.05976142f, -0.11084285f, 0.10654924f, 0.09303872f, 0.12103432f, -0.15321909f, 0.16724415f,
    0.05742547f, 0.04410814f, -0.01881400f, 0.00235436f, 0.12040357f, -0.15222599f, 0.05727559f, -0.05648893f,
    -0.11406907f, -0.01960775f, -0.14487271f, 0.15536954f, 0.15264729f, 0.03720850f, -0.18918544f, -0.14010893f,
    -0.13169762f, 0.17484255f, 0.14200595f, 0.00717520f, 0.14914504f, -0.03086320f, 0.11053396f, 0.17159562f,
    0.17712969f, 0.08508579f, -0.10121246f, -0.17182501f, 0.07403276f, 0.17179157f, -0.18948522f, 0.08224424f,
    -0.09894120f, -0.01991175f, -0.15246353f, 0.03698011f, -0.01424755f, -0.03811284f, 0.19024108f, 0.13580543f,
    0.18321373f, -0.16806765f, -0.08734477f, -0.07045546f, 0.15538844f, 0.00227065f, 0.14568372f, -0.14229907f,
    -0.11203002f, -0.03373625f, 0.16003348f, 0.03136498f, -0.01524520f, -0.05705268f, -0.17733614f, 0.01861414f,
    -0.01807794f, 0.03636724f, 0.17992048f, -0.04444490f, 0.12830640f, 0.04599924f, 0.08814486f, -0.07363351f,
    -0.13995902f, 0.06106225f, 0.05999190f, -0.13176149f, -0.03845155f, -0.09579840f, -0.11601470f, -0.10659930f,
    0.08209971f, -0.18599430f, 0.14587188f, -0.16650195f, -0.04009391f, 0.05140507f, 0.18100452f, 0.11560601f,
    0.15881288f, 0.03932630f, -0.13492711f, 0.08435104f, 0.14071147f, 0.06894229f, -0.09371796f, 0.14903167f,
    0.05639886f, -0.13197231f, -0.02921331f, 0.03524270f, 0.16745429f, 0.09909133f, 0.01790303f, 0.00374477f,
    0.10319313f, -0.04985780f, 0.08442893f, -0.17081630f, 0.09599448f, -0.04890886f, -0.00260105f, -0.03521063f,
    -0.16856723f, -0.08184875f, 0.06522794f, 0.11499741f, -0.10268319f, 0.08932164f, -0.10290848f, 0.04428043f,
    0.13099930f, 0.05980967f, 0.16675343f, -0.03651726f, -0.02167800f, -0.15083142f, 0.15549047f, 0.13730879f,
    0.06301066f, 0.05173729f, -0.16431822f, 0.10052451f, 0.09778812f, -0.14348231f, -0.07202163f, 0.11942890f,
    -0.14134540f, 0.14086962f, 0.05384243f, -0.00432688f, 0.04131676f, -0.05481464f, -0.01467330f, 0.19230834f,
    -0.13708520f, 0.00833450f, -0.02403564f, -0.18738469f, -0.18251306f, 0.05655136f, -0.00592384f, -0.19061218f,
    -0.13325189f, 0.10743521f, 0.09916380f, -0.06426837f, -0.08313182f, 0.07258814f, 0.10493726f, 0.18306950f,
    0.14622979f, 0.17872544f, -0.10936595f, 0.04785617f, 0.16600776f, 0.18999368f, 0.02213105f, -0.08135660f,
    0.10171971f, 0.14677685f, -0.16790602f, 0.00118779f, -0.11921148f, 0.07712165f, 0.11930403f, 0.18176603f,
    -0.00422405f, -0.02357939f, -0.18415217f, 0.05445039f, 0.06832334f, 0.04616643f, -0.08465855f, 0.02992687f,
    0.17810063f, -0.00910208f, -0.03898658f, -0.04022184f, 0.08217094f, -0.04310326f, -0.06169923f, -0.08102135f,
    0.15727141f, -0.06745142f, 0.17434467f, -0.09501027f, 0.13375886f, 0.17523643f, 0.04322781f, -0.09026441f,
    0.14025326f, 0.07765108f, -0.18981433f, -0.15970159f, -0.07395185f, -0.15569681f, -0.04275049f, -0.08537482f,
    -0.12335579f, -0.15413634f, -0.18713313f, 0.10199081f, 0.13804772f, 0.13057618f, -0.07811662f, 0.13622822f,
    -0.12468469f, 0.15105177f, 0.10762788f, -0.08741043f, 0.12499319f, -0.12550475f, 0.03761392f, -0.06833772f,
    0.16520177f, 0.07212031f, 0.05241905f, -0.14055066f, 0.15873750f, 0.19215108f, 0.02101683f, 0.18409911f,
    -0.19036394f, -0.14936401f, -0.08563083f, -0.12977134f, -0.12982482f, -0.18098590f, -0.06722454f, 0.16344340f,
    -0.02275255f, -0.05921835f, -0.13174051f, -0.07265568f, -0.02685785f, -0.15881628f, 0.00467114f, -0.01018368f,
    0.01648075f, 0.10116114f, 0.16132320f, 0.03832175f, -0.03991100f, -0.09046096f, -0.12727541f, -0.16507843f,
    -0.15959059f, -0.12355279f, -0.08353417f, 0.06212161f, -0.01867720f, 0.18215781f, 0.02045428f, -0.15181342f,
    -0.15211776f, 0.04472122f, -0.13683394f, -0.17800942f, 0.02809699f, -0.10108282f, 0.00449286f, 0.13542400f,
    -0.06841812f, -0.07234986f, -0.14828835f, -0.11540713f, -0.10430142f, -0.11580566f, 0.17622246f, -0.18857469f,
    -0.07365470f, -0.00415968f, 0.15444998f, 0.13197699f, -0.17452410f, -0.13533664f, 0.05998541f, -0.16225423f,
    -0.02943690f, -0.10549935f, 0.11742400f, 0.00669067f, -0.15436386f, -0.14781128f, -0.06192858f, 0.14668220f,
    -0.07721103f, -0.10203550f, -0.01948237f, -0.14009018f, -0.18563077f, 0.04513554f, -0.03607274f, 0.05867297f,
    -0.18478462f, -0.11295559f, 0.06655129f, -0.17820401f, -0.16772884f, 0.02010712f, -0.09613142f, -0.02810283f,
    -0.10548623f, -0.07319734f, 0.07252505f, -0.00973312f, 0.09056585f, 0.11320109f, 0.03848645f, 0.01658518f,
    0.15033814f, -0.09521386f, 0.07228159f, 0.10466058f, 0.07698492f, 0.00460507f, 0.03281307f, -0.06814912f,
    0.09999971f, 0.03646929f, 0.11768962f, 0.01620357f, 0.16786553f, 0.03627293f, -0.06628269f, -0.18246631f,
    -0.00217034f, -0.01152171f, -0.14270315f, 0.05721564f, -0.12180251f, 0.04467143f, -0.12028824f, -0.17445949f,
    0.03946999f, -0.15707715f, -0.17903046f, 0.01860528f, 0.16646445f, 0.14000043f, 0.01081311f, 0.05415068f,
    -0.19129181f, -0.01610198f, 0.07756590f, 0.06918297f, -0.07678267f, -0.09278788f, -0.16341490f, 0.12146139f,
    -0.10086359f, 0.10942736f, -0.17246737f, -0.07857642f, 0.05099773f, 0.02912705f, 0.05799006f, 0.14211054f,
    -0.10583070f, 0.01249181f, -0.05833811f, -0.02484064f, -0.03541206f, 0.02302532f, -0.11646115f, -0.09461293f,
    -0.03520664f, 0.10780822f, -0.14464930f, -0.01317981f, -0.02444063f, -0.12833676f, 0.14725442f, 0.17255025f,
    -0.17098100f, 0.14879017f, 0.08768579f, -0.18842022f, -0.01787367f, 0.12827459f, -0.17773809f, -0.16589066f,
    -0.02574896f, -0.00938938f, -0.06889498f, 0.01116471f, 0.01246614f, -0.00822231f, 0.18697836f, 0.14652157f,
    -0.12185957f, 0.07707476f, -0.14141780f, -0.14654352f, -0.18461037f, 0.03543216f, 0.08121461f, 0.09284096f,
    -0.15427467f, 0.06974567f, -0.02246151f, 0.13333526f, 0.09036616f, -0.01761566f, -0.12507051f, -0.06570800f,
    0.04164334f, 0.02902808f, 0.08117820f, -0.12758370f, -0.16974394f, -0.11727379f, 0.11409637f, 0.11599433f,
    0.17315258f, -0.00018220f, 0.03578987f, 0.02038915f, -0.15460877f, -0.09433579f, 0.01377772f, 0.06419824f,
    0.19088238f, -0.00227803f, -0.12936723f, 0.07489288f, -0.16452155f, -0.01230639f, -0.08250318f, 0.08534244f,
    0.15778309f, 0.02056578f, -0.09502475f, 0.00922000f, -0.17447686f, 0.14855687f, 0.14417809f, -0.05617601f,
};

// Shape: (32,)
static const float conv_bias[32] = {
    0.05911690f, 0.03760761f, -0.07094858f, 0.03989423f, 0.09284649f, -0.09838530f, 0.04495339f, 0.15494755f,
    0.00399016f, -0.03650948f, -0.18688722f, 0.04587083f, -0.02351805f, 0.02908837f, -0.07181456f, 0.07006093f,
    0.18494278f, 0.09367589f, -0.07553839f, 0.14225835f, -0.11259437f, 0.13738912f, 0.11034258f, -0.07999792f,
    0.08042094f, 0.13179380f, -0.08086573f, -0.15440755f, -0.18076929f, -0.18417293f, -0.07602368f, -0.10335550f,
};

// Shape: (8192, 10)
static const float fc_weight[81920] = {
    -0.00846107f, 0.01016190f, -0.00347784f, -0.00271686f, 0.00844664f, 0.00148194f, 0.00959451f, -0.00424407f,
    0.01014599f, 0.00181806f, -0.01092164f, -0.00098858f, -0.00229680f, 0.01012616f, -0.00091501f, -0.00830198f,
    -0.00013426f, -0.00079804f, 0.00147292f, 0.00305609f, 0.00758566f, -0.00444743f, 0.00554115f, -0.00281356f,
    -0.00018845f, -0.00469657f, 0.00252683f, -0.00325720f, -0.00874537f, -0.00578757f, -0.00043808f, -0.00385838f,
    -0.00634735f, -0.00642851f, 0.00522577f, -0.00368995f, 0.00644277f, -0.00864801f, 0.00345074f, -0.00002374f,
    -0.00895068f, 0.00803212f, 0.00169120f, 0.00948365f, -0.01098140f, 0.00679031f, 0.00304648f, -0.00809992f,
    -0.00863738f, 0.00871583f, 0.00535719f, 0.00960149f, 0.01008335f, -0.00809054f, -0.00485452f, 0.00405393f,
    -0.00891748f, -0.00134649f, -0.00042307f, -0.00178660f, 0.00499865f, -0.00358363f, 0.00117906f, 0.00039316f,
    -0.00471192f, -0.00623538f, -0.00934691f, -0.00579854f, -0.00777336f, 0.00375593f, 0.00126593f, 0.00589038f,
    0.00456434f, 0.00394915f, -0.01027879f, -0.00611658f, -0.00219225f, 0.01016432f, -0.00431783f, -0.00334219f,
    -0.01098812f, -0.01059540f, 0.00210905f, 0.01016363f, 0.00207161f, -0.00183935f, -0.00667798f, -0.00691857f,
    0.00699684f, 0.00834438f, 0.00487299f, 0.01079306f, -0.00574933f, -0.00730583f, 0.00145356f, -0.00012765f,
    0.00593655f, 0.00538684f, 0.00242472f, 0.00413490f, -0.01071270f, -0.00338462f, -0.00939576f, -0.00588486f,
    -0.00051803f, 0.00809979f, 0.01077219f, -0.00343665f, 0.00190733f, -0.00946898f, 0.00005286f, -0.00294256f,
    -0.00198406f, 0.00225983f, 0.00398454f, -0.01038362f, -0.00983178f, -0.00228775f, 0.00046377f, 0.00355765f,
    0.01008674f, 0.00479754f, -0.00734087f, -0.00366285f, -0.00704454f, 0.00643544f, 0.00577864f, -0.00703437f,
    0.00331750f, 0.00885798f, 0.00862137f, 0.00395872f, 0.00298218f, 0.00658482f, -0.00991520f, -0.00542062f,
    0.00109059f, -0.00237410f, -0.00794601f, -0.00365620f, 0.00714487f, -0.00930778f, 0.00790199f, -0.00139867f,
    -0.00290864f, -0.00488775f, -0.01068015f, -0.01041795f, -0.01070250f, 0.00476128f, -0.00555710f, -0.00656743f,
    0.01034717f, 0.00955657f, -0.00933270f, -0.00267539f, 0.00632302f, 0.00753857f, 0.00759860f, -0.00900998f,
    -0.00692257f, 0.00970564f, 0.00719644f, 0.00784007f, 0.01078207f, -0.01099971f, -0.00264573f, 0.00217539f,
    0.00136252f, 0.00404712f, 0.00895639f, -0.00084700f, 0.00658901f, 0.00260433f, -0.00894457f, -0.00856890f,
    -0.00795290f, 0.00046544f, 0.00328519f, -0.00539847f, 0.00749344f, -0.00474054f, 0.00273285f, 0.00605079f,
    -0.00965044f, -0.00338490f, 0.00535184f, -0.01069953f, -0.00143874f, -0.00200172f, -0.00069534f, -0.00427427f,
    -0.01004333f, -0.00667283f, 0.00487318f, -0.00703194f, -0.00804580f, -0.00529824f, 0.00559100f, -0.00314084f,
    0.00385179f, 0.00504303f, -0.00586176f, -0.00136908f, 0.00509788f, 0.00236650f, 0.00931391f, 0.00537275f,
    0.00760304f, 0.00649716f, -0.00687169f, 0.00105401f, -0.00404304f, -0.00121212f, 0.00463181f, 0.00955710f,
    0.00342854f, 0.00384202f, -0.00219826f, 0.00512298f, -0.00324573f, -0.00054264f, 0.00973723f, 0.01067037f,
    -0.01098158f, -0.00059387f, -0.00943140f, 0.00163569f, -0.00646696f, -0.00031722f, 0.00421956f, -0.00845130f,
    -0.00038772f, 0.01073294f, 0.00254937f, -0.00272633f, -0.00605102f, 0.00771361f, 0.00645303f, -0.00273485f,
    0.00157190f, -0.01093445f, -0.00627107f, 0.00319966f, -0.01094687f, 0.01078512f, 0.00751248f, 0.00263540f,
    -0.00723089f, 0.00339333f, -0.00424010f, 0.00000354f, -0.00111115f, 0.00816273f, -0.00778361f, -0.00853832f,
    -0.00575051f, 0.00215027f, -0.00584978f, -0.01039759f, -0.00546586f, -0.00215002f, 0.00844062f, 0.00328301f,
    0.00994928f, 0.00423398f, -0.00226041f, 0.00212194f, 0.00915543f, -0.00094646f, 0.00291011f, 0.00264313f,
    0.00110707f, 0.00570025f, -0.00654127f, -0.01085666f, -0.00638758f, 0.00774624f, 0.00175208f, 0.00552167f,
    -0.00260463f, 0.00514250f, -0.00276470f, 0.00866763f, -0.00546761f, -0.00955576f, 0.00591404f, 0.00236108f,
    0.00447838f, -0.00967116f, 0.00323735f, -0.00115079f, 0.00960387f, -0.00584549f, 0.00851848f, 0.00496747f,
    -0.00451861f, 0.01050080f, -0.00344218f, 0.00392664f, -0.00173996f, 0.00158515f, -0.00224726f, -0.00761168f,
    0.00843511f, -0.00828111f, 0.01029429f, -0.00296326f, -0.00689574f, 0.00147590f, 0.00279255f, 0.00662747f,
    0.00839708f, 0.00551147f, 0.00917112f, -0.00058457f, 0.00464695f, 0.00111320f, -0.01022289f, -0.00278291f,
    -0.00009928f, -0.01046248f, -0.00291281f, -0.00779892f, -0.00635395f, -0.00563415f, -0.01029071f, 0.00912187f,
    0.00309254f, -0.00370048f, -0.01066834f, -0.00202753f, 0.00918931f, -0.00371064f, 0.00150717f, 0.00354773f,
    0.00440511f, 0.00048741f, -0.01103316f, -0.01052347f, -0.00773546f, -0.00223421f, 0.00141462f, -0.00359978f,
    -0.00337686f, -0.00218411f, -0.00442515f, -0.01002050f, -0.00561920f, -0.00216150f, -0.00110833f, -0.00993111f,
    -0.00005911f, -0.00191721f, 0.00919450f, -0.00939523f, -0.00718399f, -0.00804406f, 0.00316316f, -0.00646774f,
    -0.00866279f, 0.00063840f, -0.00409715f, 0.00534922f, 0.01067363f, -0.00261340f, -0.00625185f, 0.00836490f,
    0.01001631f, 0.00699083f, -0.00218148f, 0.00581367f, 0.00626522f, -0.00348841f, 0.00319944f, 0.00467177f,
    0.00281054f, -0.00968158f, -0.00133709f, 0.00846137f, 0.00702418f, 0.00610658f, -0.00811942f, -0.00052227f,
    -0.00450746f, 0.01075819f, 0.01038343f, 0.00907618f, 0.00459901f, 0.00850430f, 0.00134112f, -0.00232045f,
    0.00534050f, 0.00970535f, -0.00699235f, 0.00668443f, -0.00934953f, -0.00936184f, -0.00143712f, 0.00954009f,
    0.01019237f, -0.00045606f, 0.00052091f, 0.00127275f, 0.00188995f, 0.00898726f, -0.00570255f, -0.00170632f,
    -0.00499428f, -0.00919025f, 0.00956880f, 0.00130169f, -0.00264130f, -0.00164402f, 0.00281753f, 0.01078699f,
    0.00421782f, 0.00887253f, 0.00720670f, -0.00470936f, -0.00478758f, -0.00620579f, -0.00158207f, -0.00926521f,
    0.01066442f, 0.00357966f, 0.00178467f, 0.00253440f, -0.00888000f, -0.00943539f, 0.00618323f, -0.01101875f,
    -0.00870908f, -0.00418257f, -0.00843725f, -0.00374563f, 0.00371463f, -0.00472966f, 0.00790414f, 0.00983701f,
    0.00169491f, 0.00342415f, 0.00098574f, -0.00992352f, 0.00996472f, 0.00331130f, 0.00053108f, 0.00162110f,
    -0.00846733f, 0.00851464f, -0.00644278f, -0.00234282f, 0.00090497f, -0.00074301f, 0.01003173f, -0.00583224f,
    -0.00065042f, 0.00434781f, 0.00467218f, -0.00059300f, 0.00287957f, -0.00942344f, 0.00434110f, -0.00584321f,
    -0.00624600f, -0.00427305f, -0.00196880f, 0.00157537f, 0.00394628f, 0.00682973f, -0.00399755f, -0.00609295f,
    -0.00231340f, -0.00899069f, 0.00440052f, -0.00907719f, -0.00439671f, -0.00659584f, 0.00921622f, 0.00274510f,
    -0.00701874f, -0.00442323f, -0.01028313f, -0.00751710f, -0.00214309f, 0.00452946f, 0.00230709f, -0.00550371f,
    0.00691611f, 0.00664273f, 0.00127782f, 0.00969450f, 0.00355500f, 0.00846490f, 0.00204159f, 0.00475830f,
    0.01084557f, -0.00753770f, 0.00926615f, 0.00993732f, 0.00736591f, -0.00437583f, -0.00975184f, 0.00747636f,
    -0.01014479f, 0.00974890f, -0.00072629f, 0.00956557f, 0.00896398f, 0.00881665f, -0.00280433f, 0.00436648f,
    0.00274268f, -0.00965519f, -0.00228446f, 0.00264135f, -0.00961616f, -0.00194594f, -0.00992661f, 0.00398281f,
    0.01079121f, -0.00693226f, 0.00636627f, -0.00525767f, -0.00315036f, 0.00765790f, 0.01060493f, 0.00741180f,
    -0.00404403f, -0.00013643f, 0.00665204f, 0.00915501f, 0.00732113f, -0.00260530f, -0.00810605f, -0.00191091f,
    0.00739999f, 0.00183183f, 0.00920481f, 0.00522026f, -0.00241725f, -0.00213892f, 0.00174645f, 0.00104466f,
    -0.00883062f, -0.00836609f, 0.00730431f, -0.00762308f, 0.00717891f, 0.00733958f, -0.00763331f, -0.00121149f,
    0.00640361f, -0.00730000f, -0.00195828f, 0.00938492f, -0.00247505f, -0.00106706f, 0.00573984f, 0.01083438f,
    0.00231340f, -0.00856121f, -0.00457740f, -0.01005295f, 0.00585290f, 0.00449944f, -0.00340417f, -0.00592245f,
    0.00155936f, 0.00884442f, 0.00689140f, 0.00163122f, -0.00578433f, -0.00520184f, 0.00471226f, 0.00873508f,
    -0.00115220f, -0.00495596f, 0.00774207f, 0.01068607f, 0.00992263f, 0.00009437f, -0.00275021f, 0.00283024f,
    0.00671951f, -0.01005614f, 0.00479100f, -0.00039767f, 0.00387295f, 0.00669733f, 0.00831848f, -0.00067817f,
    0.00844439f, 0.00927642f, 0.00302088f, -0.00812973f, -0.00294579f, 0.00850341f, -0.00186728f, 0.00530010f,
    0.01056071f, 0.00553691f, -0.01035538f, 0.00403580f, -0.00739588f, 0.01037801f, 0.00847148f, -0.00491694f,
    -0.00738495f, 0.00225989f, 0.00219405f, -0.00931343f, -0.00204879f, -0.00435887f, -0.00832837f, -0.00868241f,
    0.00958436f, 0.00401049f, -0.00115817f, -0.00528831f, -0.00346028f, -0.00466185f, -0.00572076f, -0.00123439f,
    -0.00251521f, -0.00378497f, -0.00029179f, 0.00675704f, 0.00458279f, -0.01049097f, 0.00613448f, 0.00077481f,
    0.00853083f, -0.00690628f, -0.00879989f, -0.00431471f, -0.00863467f, -0.00934425f, 0.00276488f, 0.00490077f,
    -0.00245475f, -0.00493243f, -0.00795047f, 0.00465339f, 0.00993752f, 0.00540424f, -0.00491627f, -0.00301197f,
    0.00652107f, -0.00021518f, -0.00105948f, -0.00665430f, 0.00439434f, 0.00303043f, -0.00268777f, 0.00326371f,
    0.00816169f, -0.01033900f, -0.00205845f, 0.01081616f, 0.00685673f, -0.00127942f, -0.01015566f, -0.00514989f,
    0.00404695f, 0.00319976f, 0.00528738f, 0.00103051f, -0.00951634f, -0.00163268f, -0.00436118f, 0.00077043f,
    -0.01024046f, 0.00128797f, 0.00755890f, 0.00191954f, -0.00312809f, -0.00459022f, 0.00416154f, -0.00179557f,
    0.00727504f, 0.00056491f, -0.00788047f, 0.00620394f, 0.00963545f, -0.00934845f, -0.00153370f, -0.00559864f,
    -0.00686866f, -0.00653680f, -0.01051930f, 0.00183228f, 0.00428650f, 0.00933342f, 0.00106482f, -0.00416089f,
    0.00839660f, -0.00407144f, 0.00123863f, -0.00195565f, -0.00679516f, -0.00420684f, 0.00479844f, -0.00280207f,
    0.00946748f, 0.00387516f, -0.00044516f, 0.00222040f, -0.00072464f, 0.01001459f, 0.00112383f, 0.00091451f,
    0.00754661f, -0.00920305f, 0.00187604f, -0.00055594f, -0.00041889f, 0.00240590f, -0.00287357f, -0.00110008f,
    0.00334881f, -0.00807611f, 0.00838492f, -0.00637419f, 0.00384496f, -0.00253124f, 0.00396742f, -0.00741579f,
    0.00218173f, -0.00077920f, -0.00109586f, -0.00858549f, -0.01016053f, -0.00756754f, -0.01005643f, -0.00758585f,
    -0.00862743f, -0.00794042f, -0.00938343f, -0.00954921f, 0.00347345f, -0.00370720f, 0.00609775f, 0.00233712f,
    -0.00153017f, -0.00774585f, 0.00788966f, -0.00935384f, -0.00298140f, -0.00315011f, -0.00808486f, 0.00533408f,
    0.00982754f, -0.00148901f, 0.00324624f, -0.00663871f, 0.00742026f, -0.00446447f, 0.00698571f, 0.00685151f,
    -0.00471212f, 0.00531794f, -0.00772392f, -0.00554550f, -0.00621718f, -0.00511408f, -0.00057793f, -0.01028712f,
    0.00857817f, -0.00528175f, 0.00997189f, -0.00660468f, 0.00699111f, -0.00707626f, 0.00654390f, 0.00124165f,
    -0.00279497f, 0.00031495f, -0.00229539f, -0.00328969f, -0.00990192f, -0.01007162f, 0.00988284f, -0.00127029f,
    -0.00244432f, 0.00968324f, 0.00445690f, 0.01028734f, -0.00164670f, 0.01032193f, 0.00858747f, -0.01102633f,
    -0.00697433f, -0.00340712f, -0.00749218f, -0.00708509f, 0.00283370f, -0.00320669f, 0.01018733f, -0.01036793f,
    0.00657394f, -0.00181879f, 0.00209667f, 0.00540476f, 0.01045254f, -0.00289513f, -0.00149186f, -0.00140372f,
    -0.00695081f, 0.00423458f, -0.00325214f, -0.00203799f, -0.00887697f, -0.00726866f, -0.00664286f, 0.01013415f,
    -0.00987717f, 0.00483067f, -0.00545693f, 0.00867661f, -0.00530864f, -0.00789667f, 0.00898473f, 0.00410873f,
    -0.00245336f, -0.01066697f, 0.00250515f, -0.00761404f, -0.00540075f, 0.00169763f, 0.00570919f, 0.00921959f,
    0.00564007f, 0.00677713f, -0.00905016f, 0.01023619f, -0.00194185f, 0.00267739f, -0.00718307f, 0.00346753f,
    0.00623657f, 0.00188464f, 0.01097073f, 0.00770430f, -0.00206778f, 0.00978825f, -0.00537790f, -0.00891642f,
    -0.00093064f, -0.01072401f, 0.01025926f, -0.00252913f, -0.00612170f, -0.00397885f, 0.00305614f, -0.00468756f,
    -0.00321531f, -0.00386150f, 0.00933859f, -0.01007950f, 0.00571154f, 0.00447488f, -0.00748435f, -0.00657233f,
    -0.00938150f, -0.00042689f, 0.01073249f, 0.00411037f, 0.00829331f, 0.00084380f, 0.00426791f, 0.00724338f,
    -0.00746703f, -0.00112110f, -0.00255667f, -0.01063298f, -0.00167153f, 0.00687969f, -0.00039299f, -0.00440715f,
    0.00794052f, -0.01054444f, -0.00913693f, -0.00162781f, -0.00469404f, 0.01080779f, 0.00466486f, 0.01077931f,
    0.01089822f, -0.00267220f, -0.00254146f, 0.00170627f, -0.00057444f, 0.00165591f, 0.00392254f, 0.00134633f,
    -0.00766386f, 0.00114738f, -0.00549071f, 0.00837471f, 0.00773687f, -0.00443485f, 0.00500549f, -0.00225630f,
    -0.00143157f, -0.00570548f, -0.01001977f, 0.00110583f, 0.00811698f, 0.00601046f, -0.00244455f, -0.00166168f,
    -0.00206554f, 0.00772383f, -0.00219302f, 0.00261019f, -0.00503713f, -0.00899867f, 0.00787589f, -0.00613942f,
    0.00093709f, -0.00417995f, 0.00410784f, 0.00492203f, 0.00915456f, 0.00661581f, 0.01078594f, 0.00682771f,
    0.00195142f, 0.00682884f, -0.00073630f, 0.00374195f, 0.00099981f, 0.00175023f, -0.00044797f, 0.00275584f,
    0.00902440f, 0.00753972f, 0.00114664f, -0.00968544f, -0.00319789f, -0.01068476f, 0.00101313f, 0.00313082f,
    -0.00993027f, -0.01041806f, 0.00601027f, -0.00654415f, 0.00317654f, 0.00096036f, 0.00711027f, -0.00851131f,
    0.00652582f, 0.00009034f, 0.00649220f, 0.01083131f, 0.00871895f, 0.00775188f, -0.00530140f, -0.00110728f,
    0.00568133f, 0.00029227f, 0.00494307f, -0.00659368f, -0.00851806f, -0.00528578f, 0.00224130f, -0.00008765f,
    -0.00281235f, -0.00385267f, -0.00437097f, 0.00030208f, -0.00035174f, -0.00244588f, -0.00001601f, 0.00919863f,
    0.00800732f, -0.00840517f, 0.00029620f, -0.00011012f, 0.00021457f, -0.00423733f, -0.00576868f, 0.00546617f,
    0.00066877f, 0.00848540f, -0.00709600f, 0.01048168f, 0.00707418f, -0.00751243f, 0.00670316f, 0.01016129f,
    0.00549758f, -0.00925979f, 0.00849776f, 0.00085637f, 0.00535522f, 0.00793595f, 0.00624613f, -0.01061476f,
    -0.00699508f, 0.00695899f, -0.00575732f, -0.00186405f, -0.00372841f, 0.00474232f, -0.00821185f, -0.00154108f,
    0.00022440f, 0.00426458f, 0.00488669f, -0.00094659f, -0.00235402f, -0.00901878f, -0.00600563f, -0.00733701f,
    0.00166737f, -0.00327352f, -0.00565262f, -0.01007047f, 0.00453451f, 0.00671895f, -0.00628340f, 0.00244678f,
    0.00858273f, 0.00529643f, 0.00813014f, 0.00333831f, -0.00387068f, 0.00737045f, -0.00421724f, -0.00695684f,
    0.00058532f, 0.00440941f, -0.00452925f, 0.00017125f, -0.00382970f, 0.00652212f, 0.00815597f, -0.00603444f,
    -0.00237597f, 0.00392531f, -0.00216086f, -0.00284088f, -0.00541173f, -0.00440734f, 0.00555204f, -0.00275681f,
    -0.00125475f, 0.00554552f, -0.00065693f, 0.00783108f, -0.00384404f, 0.00969363f, -0.00063891f, -0.00469150f,
    0.00357939f, -0.00460801f, 0.00454111f, -0.00333319f, 0.00494211f, -0.00925363f, -0.00758838f, -0.01084506f,
    0.00417596f, -0.00467902f, 0.00046151f, 0.00751328f, -0.00091486f, -0.00454544f, 0.00731732f, 0.01006261f,
    0.00121089f, 0.00949745f, -0.00807951f, 0.00665213f, -0.00355763f, -0.00209790f, -0.00431394f, -0.00686899f,
    -0.00951482f, 0.00658524f, -0.00311027f, -0.00272663f, 0.00473258f, -0.00130984f, 0.00679066f, -0.00899567f,
    -0.00096782f, -0.00081789f, 0.00032380f, -0.00358566f, -0.00607669f, 0.00907846f, 0.00257160f, 0.00310671f,
    -0.00301281f, 0.00863134f, 0.00937164f, -0.00630435f, -0.00555172f, 0.00110522f, -0.00451696f, -0.00799805f,
    -0.00071577f, 0.00526770f, 0.01043776f, 0.00626642f, 0.01023002f, 0.00596567f, 0.00025435f, 0.00990871f,
    0.00227915f, -0.01065827f, -0.00827458f, -0.00644141f, 0.00884213f, 0.00784407f, -0.00896613f, -0.00816487f,
    0.00340345f, -0.00863628f, 0.00512593f, 0.00206770f, -0.01010374f, 0.00162316f, -0.00060232f, -0.00707275f,
    0.00332653f, -0.01046730f, -0.00648604f, 0.00757176f, 0.00189586f, -0.00816811f, 0.00064839f, 0.00628341f,
    -0.00707507f, 0.00399562f, 0.00758656f, 0.00579049f, 0.00599739f, -0.00219746f, 0.00409796f, 0.00348232f,
    -0.01044224f, 0.00105987f, 0.01100956f, 0.00977366f, -0.00993907f, 0.01079855f, 0.00229823f, 0.00621748f,
    0.00094900f, 0.00679045f, -0.00664995f, -0.00834994f, -0.00381973f, -0.00659509f, 0.00325393f, 0.00823548f,
    -0.00982975f, -0.00734537f, -0.00957339f, 0.00434863f, 0.00067099f, 0.00245379f, -0.00596371f, 0.00252806f,
    -0.00726470f, -0.00187056f, -0.00835386f, -0.00129115f, 0.00656745f, 0.00221040f, 0.01029311f, 0.00452794f,
    0.00657093f, 0.00113257f, -0.00200799f, -0.00516007f, 0.01006553f, 0.00601513f, 0.00222158f, 0.00007992f,
    0.00892785f, 0.00640401f, 0.00702609f, -0.00980054f, 0.00073017f, -0.00750008f, -0.00465658f, 0.00068792f,
    0.00580969f, 0.00708910f, -0.00191682f, 0.00788319f, -0.00636873f, 0.01001468f, 0.00319493f, -0.01059927f,
    0.00212189f, -0.00366801f, 0.00355749f, -0.00391259f, -0.00503672f, 0.00059869f, -0.00923953f, -0.00427168f,
    -0.00585807f, -0.00351558f, -0.00488682f, -0.00124864f, 0.01002534f, 0.01014433f, 0.00717892f, -0.01063171f,
    0.00375840f, -0.00125641f, 0.00774740f, 0.01001526f, -0.00317748f, -0.00108432f, -0.00556944f, 0.00813980f,
    -0.01082552f, -0.00481852f, -0.00669358f, 0.00272964f, 0.00490804f, 0.00370053f, -0.00337351f, 0.00244159f,
    -0.00250413f, 0.00368294f, -0.00494839f, 0.00424874f, -0.00153455f, 0.00920320f, -0.00793086f, -0.00955233f,
    0.00315466f, -0.01023241f, -0.00591503f, 0.00951749f, 0.00679657f, -0.00791987f, -0.00872472f, 0.00027021f,
    -0.00872061f, 0.00694342f, 0.00286147f, -0.01072455f, 0.00431932f, 0.00188890f, -0.00508595f, -0.00721819f,
    0.00079970f, -0.01003816f, 0.00784313f, -0.00449563f, 0.00548992f, 0.00561167f, -0.00822928f, 0.00943263f,
    -0.00327712f, 0.00512083f, 0.00970363f, -0.00339989f, -0.00663043f, -0.00225666f, 0.00954716f, -0.00003250f,
    0.00232587f, -0.00720663f, 0.00104541f, -0.00438752f, 0.00681249f, 0.00648777f, 0.00003410f, 0.00069911f,
    -0.00628863f, 0.00391201f, 0.00447501f, -0.00353999f, 0.00688950f, 0.00963572f, 0.00752295f, 0.00911929f,
    -0.00781128f, 0.01076390f, 0.00428556f, -0.01089761f, -0.00353584f, 0.01003717f, 0.00093818f, 0.00562115f,
    -0.00176799f, -0.00129681f, -0.00429167f, -0.00944920f, 0.00212188f, 0.00911354f, 0.00917848f, 0.00113235f,
    -0.00048295f, 0.00761655f, 0.01004696f, 0.00057735f, 0.00053172f, 0.00353605f, 0.00031361f, 0.00219183f,
    0.00155392f, -0.00998063f, -0.00272975f, -0.00266224f, -0.00702190f, 0.00962381f, -0.00674366f, 0.00007759f,
    -0.00201141f, 0.01068903f, 0.00920675f, 0.00917604f, -0.00034319f, -0.00855047f, -0.00716689f, 0.00205731f,
    -0.00843126f, 0.00273704f, 0.00074024f, 0.00674020f, 0.00729294f, 0.00776929f, -0.00886235f, 0.00949816f,
    -0.00783209f, 0.00508464f, 0.00610533f, 0.00887436f, -0.00410331f, 0.01007643f, -0.00080839f, 0.00944149f,
    0.00005094f, 0.00848325f, -0.00052622f, -0.00461808f, -0.00022243f, 0.00200917f, -0.00360964f, 0.00999578f,
    -0.00342414f, 0.00850780f, -0.00915503f, 0.00663908f, -0.00442628f, 0.00715425f, -0.00028529f, -0.00262390f,
    0.00036939f, 0.00941312f, -0.00954779f, -0.01058597f, 0.00149313f, 0.00790901f, 0.00874817f, 0.00558972f,
    0.00014398f, 0.00140110f, 0.00052980f, 0.00673294f, -0.00099158f, -0.00474991f, -0.01028306f, 0.00622366f,
    0.00927912f, 0.00874980f, 0.00840874f, -0.00122640f, -0.00632148f, -0.00059412f, 0.00473591f, -0.00813740f,
    0.00090744f, 0.00059282f, 0.00889857f, -0.00563254f, -0.00168488f, 0.00415884f, 0.00033545f, 0.00571518f,
    -0.01026445f, -0.00560068f, 0.00688467f, 0.01103828f, -0.00960476f, -0.00632958f, 0.00737094f, -0.00665895f,
    0.00107661f, -0.00690002f, -0.00649055f, -0.00559311f, 0.01070056f, -0.01063501f, -0.00500157f, -0.00657892f,
    -0.00510447f, 0.00802565f, 0.00794739f, -0.00335131f, -0.00988888f, 0.01059323f, -0.00381517f, 0.00371552f,
    0.00382217f, -0.00816289f, -0.00132777f, 0.01058975f, 0.00797945f, 0.01090113f, -0.00874692f, 0.00327556f,
    0.00850699f, 0.00664780f, 0.00576589f, 0.00870151f, -0.00988328f, -0.01078346f, 0.00589440f, 0.00516022f,
    -0.00851123f, -0.00191986f, 0.00519816f, -0.00704220f, 0.00917141f, 0.00102117f, -0.00290059f, 0.01004345f,
    -0.00898705f, -0.00365235f, -0.00498781f, 0.00898657f, 0.00588583f, 0.00665529f, -0.00650279f, 0.00195627f,
    -0.00443889f, 0.00680941f, 0.00055638f, -0.00716940f, -0.00375002f, -0.00033495f, -0.00152319f, 0.01042427f,
    -0.00930308f, 0.00744992f, 0.00167890f, -0.00433062f, -0.00319826f, -0.01070452f, -0.00551014f, 0.00425705f,
    -0.01051254f, 0.00204213f, -0.00744155f, 0.01005252f, -0.00008943f, -0.00228703f, 0.00666256f, -0.00807910f,
    -0.00958309f, 0.00475868f, -0.00335686f, -0.00637879f, -0.00684535f, -0.01026084f, 0.00055327f, -0.00145474f,
    0.00295193f, 0.00619673f, 0.00043224f, -0.00762436f, 0.00719391f, 0.00998636f, 0.00172526f, -0.00719327f,
    0.00763698f, 0.00846794f, -0.00623692f, -0.00847364f, 0.00375367f, -0.00450999f, -0.00370080f, -0.00333161f,
    0.00417697f, -0.00553530f, -0.00210284f, -0.00267771f, -0.00016824f, -0.00414243f, -0.00138815f, -0.00630764f,
    0.01051829f, 0.00032282f, -0.01100602f, 0.00192103f, 0.00071806f, 0.00127925f, -0.00938702f, 0.00029534f,
    -0.00136290f, -0.00035906f, -0.00493336f, 0.01015358f, 0.00446246f, 0.00771145f, -0.00365750f, -0.00346659f,
    -0.00282432f, -0.00854714f, -0.01083893f, 0.00298711f, -0.00388393f, 0.00868592f, -0.00928512f, -0.00008752f,
    -0.00833707f, 0.00173611f, 0.01026490f, 0.00388557f, -0.00824812f, -0.00583303f, -0.00287484f, 0.00259394f,
    0.00443129f, 0.00149597f, -0.00779019f, -0.00022140f, 0.00607384f, 0.00326133f, -0.00881867f, 0.00296090f,
    -0.00712560f, -0.00470535f, 0.01048099f, -0.00697724f, -0.00666667f, 0.00193093f, -0.00435941f, 0.00188095f,
    0.01059588f, 0.01005717f, 0.00480426f, 0.00170903f, 0.00682301f, -0.00684311f, -0.00861248f, 0.00870010f,
    0.00943251f, -0.00769891f, -0.00916822f, -0.00063653f, 0.00461517f, -0.01049393f, -0.00462078f, -0.00900748f,
    0.00286576f, 0.00269275f, -0.00420597f, 0.00895297f, -0.00122292f, 0.00957675f, -0.00827984f, 0.01089511f,
    0.00864889f, -0.00850645f, 0.01075906f, -0.00219811f, 0.00221036f, 0.00409838f, -0.00338333f, 0.01034104f,
    -0.00281667f, 0.00487387f, -0.00185769f, 0.00757862f, -0.00388888f, 0.00071976f, 0.00661333f, 0.00010369f,
    0.00663370f, -0.00480919f, 0.00383767f, 0.00256341f, -0.01063716f, -0.00185503f, -0.00120152f, -0.00103518f,
    0.00857831f, 0.00528892f, 0.00587289f, 0.00056884f, -0.00983407f, -0.00810421f, 0.00053144f, -0.01005652f,
    0.00218834f, -0.00913112f, -0.00495541f, -0.00933844f, -0.00225495f, 0.00338582f, 0.00796357f, 0.00853715f,
    -0.00007336f, -0.00771100f, 0.00629989f, 0.00174284f, 0.00045809f, -0.00813493f, -0.00202551f, -0.00738448f,
    0.01099796f, 0.00769326f, 0.00998901f, 0.00764566f, 0.00979650f, -0.00332550f, 0.00936763f, -0.00730930f,
    0.00812754f, -0.01014883f, 0.00859841f, 0.00854827f, -0.00822543f, 0.00239727f, 0.00201454f, 0.00777406f,
    0.00968022f, 0.00832616f, -0.00948023f, 0.00831528f, 0.00164016f, -0.00861805f, -0.00975593f, -0.00894190f,
    -0.00615132f, -0.00989918f, 0.00736406f, 0.00337936f, 0.00460619f, 0.00132594f, 0.00879271f, -0.01044215f,
    0.00415411f, 0.00222572f, 0.00052926f, -0.00351401f, 0.00722971f, 0.01054686f, 0.00393916f, 0.00778325f,
    0.00243777f, -0.00862939f, 0.01022775f, 0.00483380f, -0.00971346f, -0.00108139f, -0.00656098f, -0.00526739f,
    0.00217807f, 0.00048275f, -0.00747261f, -0.01082024f, 0.00317931f, -0.00469992f, -0.00614002f, 0.01021097f,
    0.01052682f, -0.00740268f, -0.01089073f, -0.00897267f, 0.00799689f, 0.01069245f, 0.00058619f, 0.00800076f,
    0.00949357f, -0.00586588f, -0.00095157f, -0.00302673f, 0.01075772f, 0.00927491f, 0.00113288f, -0.00210685f,
    -0.00194979f, -0.00181336f, 0.00178617f, -0.01065357f, 0.00780456f, -0.00653610f, 0.00455406f, -0.00571516f,
    0.00096498f, 0.01072101f, 0.00430455f, 0.00819954f, 0.00414338f, -0.00245392f, -0.00353195f, -0.01080793f,
    0.00433638f, 0.00759791f, 0.00807442f, 0.00772507f, -0.00973909f, 0.00476031f, -0.00180613f, 0.00385388f,
    -0.00965921f, -0.00905203f, 0.00935393f, -0.00618198f, 0.00570409f, -0.00019925f, 0.00185783f, -0.01018033f,
    -0.00380657f, -0.00777110f, 0.00943625f, 0.01055389f, -0.00025903f, -0.00150587f, 0.00925261f, -0.00214503f,
    -0.00210127f, 0.00232281f, -0.00267797f, 0.00290462f, 0.00550081f, 0.00383257f, -0.01087441f, 0.00912012f,
    -0.01088114f, 0.01078469f, 0.00280764f, 0.00490475f, 0.00065510f, -0.00542549f, 0.00694152f, 0.00530013f,
    0.00595792f, 0.00883865f, -0.00650077f, -0.00801963f, -0.00980527f, -0.00900007f, 0.00539078f, -0.00666523f,
    -0.00426316f, 0.00963870f, -0.01066935f, 0.01086813f, 0.01103816f, 0.00910942f, 0.00183501f, -0.00033795f,
    -0.00225501f, -0.01029560f, 0.00570587f, -0.00906392f, -0.00053939f, 0.00113689f, 0.01046618f, -0.00858623f,
    -0.01036666f, 0.01064130f, -0.00195614f, -0.01005724f, -0.00623769f, 0.00416233f, -0.00402031f, 0.00356891f,
    0.00062678f, -0.00178566f, -0.00376731f, -0.00535884f, 0.00370908f, -0.00733838f, -0.00750446f, 0.00272763f,
    -0.00621930f, -0.00066522f, -0.00327028f, 0.00751127f, 0.00515406f, 0.01007957f, 0.00518104f, -0.00309056f,
    -0.00221845f, -0.00523165f, -0.00703787f, 0.00887836f, 0.00274786f, 0.00700827f, 0.00099383f, -0.00138094f,
    0.00632281f, -0.00184509f, 0.00964012f, 0.00258986f, -0.00315060f, 0.00361850f, -0.00943036f, -0.00923149f,
    -0.00861601f, -0.00233292f, 0.00618180f, 0.00612917f, -0.00113183f, 0.00840945f, 0.00057732f, 0.00224423f,
    0.01094205f, 0.00408044f, -0.00063872f, 0.00756425f, 0.00863149f, -0.00994030f, 0.00430493f, -0.00795922f,
    -0.00170323f, -0.00136319f, 0.00724994f, -0.00183625f, -0.00599875f, 0.00255235f, 0.00807078f, -0.00023391f,
    -0.00566624f, -0.01004859f, -0.00394729f, 0.00181153f, 0.00940989f, 0.00890315f, -0.00483429f, 0.00479744f,
    -0.00275606f, 0.00411505f, 0.00396554f, -0.00450402f, -0.00439399f, 0.00066814f, -0.00400106f, -0.01104523f,
    0.00974162f, 0.00758830f, 0.00963569f, -0.00479417f, -0.00006929f, -0.00354859f, -0.00393125f, 0.00094393f,
    -0.00514791f, -0.00338236f, -0.00693332f, 0.00869808f, -0.00877804f, 0.01068530f, -0.00371418f, 0.00687452f,
    0.00233127f, -0.00901099f, -0.01040188f, 0.00173863f, -0.00312373f, -0.00947997f, 0.01081085f, 0.00210160f,
    -0.00837315f, -0.00161018f, 0.00753938f, -0.01005785f, 0.00142508f, 0.00591427f, -0.01011013f, -0.00681994f,
    -0.00624430f, -0.00380370f, -0.00372617f, -0.00378729f, 0.00834624f, -0.00948310f, -0.00841161f, 0.01081461f,
    0.00139602f, -0.00667517f, -0.00382222f, 0.01042292f, 0.00901206f, -0.01090971f, -0.00994574f, 0.00800625f,
    0.00829744f, 0.00758266f, -0.00224371f, -0.00812870f, -0.00777640f, 0.00751316f, -0.00581390f, -0.00281037f,
    -0.00640867f, -0.00757008f, 0.00425060f, 0.00504562f, 0.00262710f, -0.00427457f, 0.00614738f, 0.01064330f,
    0.00579427f, -0.00639173f, 0.00322405f, 0.00097175f, -0.00094302f, 0.00273854f, -0.00322247f, -0.00807986f,
    -0.00132852f, -0.00822972f, -0.01038863f, 0.00969359f, -0.00425620f, -0.01050692f, -0.00976216f, 0.00579318f,
    0.00998744f, 0.00056459f, 0.00912383f, -0.00433361f, -0.00990035f, -0.00230214f, 0.00465931f, 0.00051896f,
    -0.00394351f, 0.00445148f, 0.00706308f, -0.00780583f, 0.00957254f, -0.00802887f, -0.00687058f, 0.00910519f,
    0.00135908f, -0.01010816f, -0.00376426f, -0.00340544f, 0.00784059f, 0.00779248f, 0.00541070f, -0.00088559f,
    0.00502521f, 0.00287134f, 0.00702181f, -0.00092671f, 0.00339320f, 0.01061467f, -0.00758328f, 0.00345220f,
    -0.00205744f, -0.01022832f, 0.01012670f, 0.00581076f, -0.00634330f, -0.00700363f, -0.00132667f, 0.00062025f,
    0.00659282f, 0.00376201f, -0.01021509f, -0.00962459f, -0.01053029f, 0.00586621f, -0.00059419f, -0.00106132f,
    0.00629668f, -0.00828358f, 0.01075416f, 0.00152703f, -0.00691747f, -0.00225645f, 0.00296529f, -0.01098751f,
    0.00904478f, -0.00769358f, 0.00810268f, -0.00354287f, -0.00017481f, 0.00475251f, 0.00212179f, 0.00778286f,
    0.01100815f, -0.00970351f, 0.00425878f, 0.01026725f, -0.00248830f, 0.00142759f, -0.01025570f, 0.00063530f,
    0.01008982f, -0.00084687f, 0.00476060f, -0.01050028f, -0.00987926f, -0.00784924f, -0.00523701f, 0.00611081f,
    0.00212868f, -0.00986800f, 0.00218711f, 0.00010638f, -0.00042151f, 0.00822949f, 0.00019829f, -0.00593386f,
    -0.00833727f, 0.00974135f, -0.00391554f, 0.00290610f, 0.00432969f, 0.00078127f, -0.00488527f, 0.00515735f,
    -0.00909916f, -0.00994054f, -0.00839912f, -0.00166919f, -0.00025696f, 0.00296696f, 0.00380174f, 0.00030344f,
    0.00864595f, -0.00820835f, -0.00581072f, -0.00353847f, 0.00625931f, -0.00275489f, 0.00897274f, 0.00768246f,
    -0.00290433f, -0.00333307f, 0.00465134f, -0.00388675f, -0.00641628f, 0.00120910f, -0.00911612f, -0.00710363f,
    0.00749731f, -0.00085414f, 0.00192034f, 0.00925781f, -0.00512800f, 0.00552939f, -0.00602139f, 0.00626697f,
    -0.00174797f, 0.01028831f, -0.00945939f, -0.01089463f, -0.00919038f, -0.00162861f, -0.01064395f, 0.01066470f,
    -0.01101224f, 0.00227832f, 0.00446264f, 0.00930304f, -0.00918075f, -0.00316439f, -0.01097180f, 0.00990874f,
    -0.00485719f, -0.00146093f, -0.00874589f, 0.00829962f, 0.00886267f, 0.00433628f, -0.00966334f, 0.00591309f,
    -0.00440591f, 0.01032049f, -0.01076137f, -0.00350135f, -0.01065677f, -0.00681428f, -0.00294158f, -0.00271543f,
    0.00308193f, 0.00437641f, 0.00550215f, -0.00212444f, 0.00326034f, -0.00620019f, -0.00295814f, 0.00357213f,
    -0.01102030f, -0.00934628f, -0.00660971f, 0.00912788f, 0.00684144f, -0.00316310f, -0.00223637f, -0.00765189f,
    0.00672870f, 0.00579525f, -0.00080899f, 0.01080450f, 0.00297274f, 0.00752598f, 0.00586974f, -0.00958676f,
    0.00775746f, -0.00212077f, -0.00448942f, 0.00546963f, -0.00833518f, -0.00945874f, 0.00243010f, -0.00846268f,
    0.00315066f, 0.00580308f, 0.00099630f, 0.00149905f, -0.00807364f, 0.00712834f, -0.00862433f, 0.00934848f,
    -0.00345541f, 0.00075942f, -0.00536776f, 0.00737547f, -0.00420329f, -0.00284164f, -0.00756689f, -0.00817556f,
    0.00120713f, -0.00516207f, 0.00930341f, 0.00697625f, -0.00391701f, -0.00314447f, 0.00569882f, 0.00324716f,
    -0.01039557f, 0.00386410f, -0.00999477f, -0.00768490f, 0.00016682f, 0.00230750f, -0.00977268f, 0.00742851f,
    0.00859761f, -0.00866236f, -0.01054143f, 0.01073911f, -0.00283365f, -0.00896309f, -0.00734208f, 0.00470482f,
    0.00748245f, 0.00849250f, 0.00505402f, -0.00657808f, 0.00489612f, 0.00102712f, -0.00786501f, 0.00729398f,
    -0.00229702f, -0.01094934f, -0.00853693f, 0.00274863f, 0.00815705f, -0.00113178f, -0.00009555f, 0.00880726f,
    0.00936228f, 0.01064222f, 0.01053023f, -0.00770887f, 0.00571553f, 0.00481285f, -0.00370292f, 0.00640139f,
    0.00177007f, -0.00933537f, 0.00178440f, 0.00211041f, 0.00149848f, -0.00857205f, -0.00037826f, -0.00840880f,
    0.00631228f, -0.00064930f, 0.01000898f, -0.00928191f, 0.00195315f, -0.00081795f, 0.00752900f, 0.00309306f,
    0.00525103f, 0.00813379f, -0.00260593f, 0.00436254f, -0.00481031f, 0.00347188f, 0.00502179f, 0.00911744f,
    0.00272564f, 0.00698287f, -0.00011351f, 0.01014919f, 0.00496803f, 0.00591748f, -0.00140982f, 0.00466190f,
    0.00339002f, -0.00563098f, -0.00866607f, -0.00106814f, -0.00813246f, 0.00339178f, -0.00124507f, -0.00973216f,
    -0.00561103f, -0.00570561f, 0.00968910f, -0.00295299f, -0.00734685f, 0.00964017f, -0.00293860f, -0.00409189f,
    0.00923087f, 0.00888489f, 0.00018989f, 0.00684218f, -0.00845048f, 0.00535597f, -0.00569689f, 0.00986066f,
    0.00783673f, 0.00396644f, -0.00203205f, 0.00693750f, -0.00198381f, -0.00092702f, 0.00594424f, 0.00902807f,
    -0.00672840f, 0.01078555f, 0.01006300f, 0.00269960f, -0.00758034f, 0.00379611f, 0.00286460f, 0.00819522f,
    0.00381444f, -0.00771183f, -0.00072115f, -0.00211387f, -0.00151715f, 0.00566086f, -0.00192952f, 0.00944704f,
    -0.00021020f, -0.00612150f, -0.00813907f, 0.00357327f, -0.00017049f, -0.00636369f, -0.00850509f, 0.00611464f,
    0.00791208f, 0.00244445f, -0.00069337f, 0.00809494f, -0.00424974f, -0.00843707f, 0.00208249f, -0.00850176f,
    0.00871741f, -0.00993012f, 0.00025236f, 0.00518674f, 0.00766292f, 0.00430299f, -0.00195910f, -0.01052414f,
    -0.01097111f, -0.00099264f, -0.00832674f, -0.00705212f, 0.00839689f, 0.00684545f, -0.00956292f, 0.00993512f,
    -0.00760280f, 0.00120016f, 0.00687358f, 0.00916793f, -0.00557373f, 0.00822672f, 0.00457500f, -0.00144661f,
    -0.00760138f, -0.00040944f, 0.00667947f, -0.00302268f, -0.00806957f, -0.00653679f, -0.00434420f, -0.00311233f,
    0.00537123f, -0.00522095f, -0.00450455f, 0.00835331f, 0.00391155f, 0.00231440f, -0.00007440f, -0.00385879f,
    0.00666050f, -0.00741406f, -0.00462505f, 0.00485504f, -0.00868859f, 0.00312476f, 0.00859080f, -0.00971313f,
    -0.00417387f, -0.00628925f, -0.00471495f, -0.00192532f, -0.00857102f, 0.00774514f, -0.00451741f, 0.00312649f,
    0.00759530f, -0.00067151f, 0.00012372f, -0.00795357f, -0.00143883f, -0.00446201f, -0.00092019f, -0.00595361f,
    0.00588471f, 0.00558837f, 0.00102461f, 0.00140882f, 0.00898750f, 0.01085681f, -0.00340334f, -0.00271250f,
    0.00990244f, -0.00034932f, -0.00059265f, -0.00063265f, 0.00090806f, -0.00923152f, 0.00608369f, 0.00695359f,
    -0.00859360f, -0.01030443f, 0.00044196f, -0.00816987f, 0.01069793f, 0.00591613f, -0.00270236f, 0.00487081f,
    -0.00501419f, -0.01094989f, 0.00331390f, 0.00440415f, 0.01033174f, 0.00273159f, -0.00139633f, 0.00852526f,
    -0.00868199f, -0.00158700f, -0.00590165f, 0.00660899f, -0.00809016f, -0.00357917f, -0.00299840f, -0.00778658f,
    0.00149191f, 0.00106479f, 0.01066974f, -0.00578268f, -0.00601017f, -0.00602407f, 0.01080681f, 0.00079650f,
    0.00911939f, 0.00443010f, 0.00437245f, -0.00089130f, -0.00848393f, -0.00192328f, -0.00611877f, -0.00967416f,
    0.01086244f, -0.00651415f, -0.00391841f, -0.00365923f, 0.00081673f, 0.00903260f, -0.00142915f, -0.00121563f,
    0.00028984f, -0.01043411f, -0.00495300f, 0.00365316f, 0.00880683f, 0.00625564f, 0.01085569f, 0.00621387f,
    0.00734024f, -0.00235698f, -0.00156886f, -0.00401493f, 0.00153356f, -0.00237225f, 0.00463452f, 0.00055434f,
    0.00163828f, 0.00545653f, -0.00453506f, -0.00553116f, 0.00328446f, 0.00325393f, 0.01063451f, -0.00128350f,
    -0.00142099f, 0.00494925f, -0.00636127f, 0.00987612f, -0.00431213f, 0.00608860f, 0.00446170f, -0.00937715f,
    0.01006298f, 0.00917961f, 0.00715233f, 0.00713154f, 0.00474675f, 0.00565411f, -0.00224446f, -0.00775360f,
    0.00506674f, 0.00752151f, 0.00949785f, 0.00754949f, -0.00186826f, 0.00592626f, -0.00847287f, 0.00119376f,
    0.00572901f, -0.01057602f, 0.00448352f, 0.00508716f, -0.00400961f, 0.00078460f, -0.00100312f, -0.00222764f,
    0.00385806f, 0.01046630f, -0.00240931f, 0.00551169f, -0.00032042f, -0.00624128f, 0.00102577f, -0.00708558f,
    0.00276533f, 0.01063056f, 0.00528119f, 0.00863782f, 0.00740325f, -0.00520737f, 0.00940918f, -0.01033999f,
    -0.00182411f, -0.00002020f, -0.00163171f, 0.00889953f, 0.01034709f, 0.00533083f, 0.00014538f, -0.00973475f,
    -0.00659491f, -0.00809123f, -0.00724426f, -0.00812601f, -0.00342663f, 0.00434595f, 0.00014481f, -0.01080169f,
    0.00838938f, -0.00578117f, 0.00962456f, -0.00433824f, 0.01043531f, 0.00993253f, -0.00847345f, -0.00633887f,
    0.00734661f, 0.00498791f, -0.00485908f, 0.00116284f, -0.00881460f, -0.00709896f, 0.00395149f, 0.00744689f,
    0.00338210f, -0.00802355f, 0.00259855f, 0.00248889f, -0.00780400f, 0.00854583f, -0.01084892f, -0.01060122f,
    -0.00461306f, -0.00165901f, -0.00132633f, 0.01050765f, 0.00182781f, 0.00728046f, -0.00161928f, -0.00820455f,
    -0.00817110f, -0.00003516f, -0.00448407f, -0.00120650f, -0.00363257f, -0.00709734f, 0.01082529f, 0.00891820f,
    -0.01072772f, 0.00280460f, -0.00431269f, 0.00626227f, -0.00755156f, 0.00389182f, 0.00278955f, -0.00939171f,
    0.00021346f, 0.00180185f, -0.00892977f, -0.00041655f, 0.00546930f, -0.00746122f, 0.00524802f, -0.00749523f,
    0.00917390f, -0.00951914f, -0.00725125f, 0.00649452f, 0.01006077f, -0.00316910f, -0.00189899f, -0.00956743f,
    -0.00902456f, 0.00996068f, 0.00869609f, -0.00399585f, -0.00581088f, -0.00447176f, -0.00547219f, 0.00011767f,
    0.00080108f, -0.00749250f, 0.00195740f, -0.00883059f, -0.00406541f, 0.00310561f, 0.00678614f, -0.00853321f,
    0.00340527f, -0.00249659f, 0.00250234f, -0.00004119f, -0.01015948f, 0.00764568f, -0.00263684f, -0.00093448f,
    0.00363090f, 0.00476670f, 0.00244036f, 0.00166472f, -0.00132900f, 0.00900926f, 0.00835922f, -0.00810616f,
    -0.00905287f, -0.00788577f, -0.00356500f, -0.00986736f, 0.00065437f, -0.00942050f, -0.00454458f, -0.00890834f,
    0.00464553f, 0.00726466f, 0.00455386f, 0.00469431f, -0.00186277f, -0.00696859f, 0.00785175f, 0.01002145f,
    0.00400052f, -0.00599435f, -0.00567726f, -0.00952296f, -0.00160416f, -0.00898055f, 0.01088009f, 0.00939036f,
    0.00414104f, -0.00053793f, 0.00342486f, 0.00584487f, -0.00471574f, -0.00527596f, 0.00176879f, 0.00203813f,
    -0.00281863f, 0.00731054f, -0.00692755f, -0.00915354f, -0.00726691f, 0.00736697f, -0.00074811f, -0.00664354f,
    -0.01061779f, 0.00375993f, -0.00108483f, 0.00614730f, 0.00334167f, -0.00287568f, 0.00595874f, 0.00820940f,
    0.00059815f, 0.00969001f, 0.00685754f, 0.00876013f, 0.00504686f, -0.00933160f, -0.00309272f, -0.00014140f,
    -0.00295969f, -0.00081366f, -0.00465639f, -0.00118822f, 0.00415372f, 0.01089203f, 0.00002795f, -0.00585702f,
    0.00766255f, -0.00497457f, -0.00391418f, -0.00695460f, -0.01037943f, -0.00141256f, -0.00287985f, 0.00872863f,
    0.00754102f, -0.00468629f, 0.00730397f, -0.01067650f, -0.00504037f, -0.00860558f, 0.00427312f, 0.00425899f,
    0.00109171f, 0.00324570f, 0.00240176f, 0.00238331f, 0.00257133f, -0.00279927f, -0.00401941f, 0.01102506f,
    0.00520416f, 0.00482029f, -0.00362924f, -0.00465247f, -0.00837226f, -0.00590227f, 0.00220767f, -0.00921177f,
    0.00446821f, -0.00272505f, -0.00559767f, 0.00304918f, -0.00895916f, -0.00052401f, 0.00099309f, 0.00793388f,
    -0.00943190f, -0.01085024f, -0.00402405f, -0.00160648f, 0.00821909f, 0.00483549f, 0.00661193f, -0.00829520f,
    -0.00147561f, -0.01017363f, -0.01095955f, -0.00628152f, 0.00478482f, 0.00614597f, -0.00833587f, 0.01088566f,
    0.00764406f, -0.00313922f, 0.00641559f, 0.00753600f, 0.00107482f, -0.00767945f, -0.00737093f, -0.01087987f,
    -0.00875119f, 0.00553082f, 0.00695216f, -0.00241667f, 0.00758757f, -0.00136160f, -0.00393885f, -0.00186929f,
    0.00345374f, -0.00709687f, -0.00297066f, -0.00478844f, -0.00379647f, 0.00197986f, -0.00547147f, 0.00163481f,
    -0.01008839f, 0.00070946f, -0.01101763f, -0.00971696f, 0.00267571f, 0.00116525f, 0.00408932f, 0.00943277f,
    -0.00456130f, 0.00256354f, 0.00514206f, -0.00965470f, 0.00647152f, -0.00636545f, 0.00089567f, 0.00705396f,
    0.00901678f, 0.00072657f, -0.00067744f, 0.00038938f, -0.00599211f, -0.00583214f, -0.00909043f, 0.00964979f,
    0.00901898f, 0.01028654f, 0.00350764f, -0.00552285f, 0.00936573f, -0.01000619f, -0.00198951f, -0.00673936f,
    -0.00879191f, -0.00091534f, -0.00502638f, 0.00604678f, -0.00272257f, 0.01034321f, -0.00176352f, 0.00688711f,
    0.00954944f, -0.00984113f, -0.00168626f, 0.00577419f, 0.00236988f, -0.00691012f, 0.00821975f, -0.00266702f,
    0.00204739f, -0.00453662f, 0.00168846f, 0.00428267f, -0.00759970f, 0.00411503f, 0.00723424f, -0.00556708f,
    -0.00912721f, -0.00113008f, 0.00236689f, -0.00688081f, -0.00158334f, 0.00817123f, 0.00517876f, -0.00196468f,
    0.00458255f, 0.00449663f, 0.00697267f, 0.00316742f, -0.00002288f, -0.00954070f, -0.00255983f, -0.00422533f,
    -0.00505663f, 0.00015089f, -0.00709382f, -0.00632278f, 0.00892514f, -0.01038167f, 0.00848260f, 0.00156284f,
    -0.00221698f, 0.01020862f, -0.00210458f, 0.00935926f, -0.00646314f, -0.00040395f, -0.00090071f, 0.00425751f,
    -0.00512717f, -0.00137133f, -0.01037542f, 0.00283755f, -0.00897134f, -0.00484949f, 0.00283367f, -0.00827342f,
    -0.01047097f, -0.00342587f, 0.01037654f, -0.00987240f, -0.00469767f, -0.00541964f, 0.00998669f, 0.00178019f,
    0.00650293f, -0.00951427f, -0.01049380f, -0.00281101f, 0.00548235f, -0.00715396f, 0.00672310f, -0.00787962f,
    0.00594450f, -0.00342992f, -0.00378611f, 0.00345365f, 0.00860831f, -0.00887112f, 0.00251104f, 0.00398576f,
    0.00369789f, -0.00508697f, 0.00392803f, 0.00240407f, -0.00453386f, -0.00003765f, -0.00670807f, -0.00920610f,
    0.00364032f, 0.00191906f, -0.00999450f, -0.00524797f, -0.00529132f, 0.00264112f, -0.00787494f, -0.00196254f,
    -0.00691101f, 0.00875742f, 0.01074773f, 0.00460793f, -0.01084078f, 0.00328541f, 0.00095578f, -0.00289633f,
    0.01028030f, -0.00045665f, 0.00776647f, 0.00867681f, 0.00742447f, -0.00582820f, 0.00930347f, 0.00575186f,
    -0.00089655f, 0.00408551f, -0.00979718f, 0.00225393f, -0.00372570f, -0.00749827f, -0.00735167f, 0.00926789f,
    -0.01008937f, 0.00925010f, -0.00383919f, 0.00985598f, 0.00663268f, 0.00348072f, -0.00453927f, 0.00755361f,
    0.00010177f, -0.00620578f, 0.00499882f, 0.00818265f, -0.00863611f, -0.01004885f, -0.00053112f, -0.00168344f,
    -0.00953015f, 0.00500448f, -0.00508515f, 0.00305236f, -0.00775110f, 0.00870295f, -0.00548392f, -0.00914884f,
    0.00737486f, -0.00159491f, 0.00096231f, -0.00906326f, -0.00650211f, 0.00720943f, -0.00608943f, 0.00661996f,
    -0.00194472f, 0.00887517f, 0.00067309f, 0.00981641f, 0.00361652f, -0.00285597f, 0.00556514f, 0.00254088f,
    -0.00215048f, 0.00891263f, 0.00235640f, -0.00250575f, 0.00000190f, -0.00750757f, -0.00943654f, 0.00382325f,
    -0.00716502f, 0.00616646f, 0.00746580f, -0.00136544f, 0.00316810f, 0.00126071f, -0.01086252f, -0.00984112f,
    0.00288552f, -0.00699332f, 0.00544147f, -0.00980311f, -0.00950774f, -0.01000630f, -0.00300136f, 0.01102108f,
    0.00161685f, -0.00186135f, 0.00381642f, -0.00695087f, -0.01065242f, -0.00531916f, 0.00545725f, 0.00942381f,
    -0.00589336f, -0.00007490f, -0.00566445f, 0.01052404f, -0.00512312f, 0.01067457f, -0.01071533f, -0.00311160f,
    -0.00993948f, 0.00158563f, -0.00448533f, 0.01076026f, 0.00029857f, 0.00699601f, -0.00092380f, -0.01022481f,
    0.00683941f, 0.00352543f, -0.00148428f, 0.00871578f, 0.00610052f, -0.00095128f, 0.00407980f, -0.00811298f,
    -0.00466181f, 0.00716430f, 0.00163766f, 0.00347422f, 0.00322966f, 0.00599501f, 0.00180210f, -0.00843430f,
    -0.00418653f, -0.00651563f, -0.00263690f, -0.00275237f, 0.00612458f, -0.00878792f, 0.01020558f, -0.00684389f,
    -0.00498582f, -0.00068493f, 0.00889159f, 0.01104551f, -0.00281238f, -0.00249501f, 0.00958688f, -0.00179719f,
    -0.00860607f, -0.00313642f, -0.00836591f, -0.00587396f, 0.01080480f, 0.00913582f, 0.00525790f, 0.00981825f,
    -0.01082061f, -0.00020459f, 0.00609539f, -0.00735870f, 0.00718392f, -0.00006012f, -0.01096003f, 0.00870110f,
    -0.00567153f, -0.01002317f, -0.00296798f, -0.00676877f, 0.00387438f, -0.00811538f, -0.00301120f, 0.00348355f,
    -0.00564116f, -0.00487643f, -0.00338654f, -0.00250203f, -0.01090670f, 0.00180877f, 0.01065177f, -0.00659435f,
    0.00198723f, 0.00705750f, -0.00406178f, -0.01015716f, 0.00904707f, -0.00890472f, 0.00578619f, -0.00488681f,
    0.00882714f, -0.00116507f, -0.00534795f, -0.00923585f, 0.00967566f, -0.00830282f, 0.00137651f, 0.01073829f,
    0.00969720f, -0.00918129f, -0.00158190f, 0.00250777f, -0.00099932f, 0.00528763f, 0.00475126f, -0.00661415f,
    -0.01031280f, 0.00571940f, -0.00043509f, 0.00420676f, -0.00197876f, 0.00951746f, 0.00634090f, 0.00737920f,
    0.00240375f, -0.00500575f, -0.00516660f, -0.00110905f, 0.00919800f, 0.01015985f, 0.00522771f, 0.00943486f,
    -0.00747650f, 0.00479717f, 0.00459395f, -0.01061799f, -0.00634508f, 0.00722314f, -0.00840471f, 0.00150421f,
    0.00322054f, 0.00799146f, -0.00640125f, 0.00796609f, -0.00944034f, -0.00480472f, 0.00611866f, 0.00255374f,
    -0.00216836f, 0.00972525f, 0.00464101f, -0.00269898f, 0.00832526f, -0.00162775f, -0.00066772f, -0.00981704f,
    -0.00488106f, -0.00994473f, 0.00951867f, -0.00312984f, -0.00182501f, -0.00948033f, 0.00317844f, 0.00181468f,
    -0.00215064f, -0.00784303f, -0.00403353f, 0.00214891f, -0.00557448f, -0.00976002f, 0.00312851f, -0.00541112f,
    0.00527417f, -0.00702089f, 0.00099692f, 0.00872720f, 0.00292106f, -0.00630843f, 0.00819442f, -0.00425397f,
    -0.01071434f, 0.00081908f, 0.00382713f, 0.00398251f, 0.00591184f, 0.00322113f, -0.00812210f, -0.00328440f,
    -0.00627790f, 0.00216597f, -0.01053879f, -0.01064998f, -0.00573806f, -0.01025998f, -0.00628030f, 0.00763253f,
    -0.00419077f, 0.00686978f, -0.00774104f, 0.00223089f, 0.00263070f, 0.00077482f, 0.00729524f, 0.00585923f,
    -0.00742693f, -0.00960264f, 0.00291442f, -0.00181952f, -0.00722485f, 0.00126493f, -0.00123710f, 0.00928769f,
    0.00128947f, -0.00382572f, -0.00647855f, -0.00578512f, -0.00748187f, 0.01003260f, 0.00343123f, 0.00513125f,
    -0.01053408f, -0.01001150f, -0.00588838f, 0.00164199f, -0.00915235f, -0.01032722f, 0.00078558f, -0.00250190f,
    0.00131498f, 0.01029940f, 0.00736520f, -0.00428293f, 0.00213950f, -0.00016592f, -0.00588621f, -0.00141794f,
    -0.01062775f, 0.00093469f, 0.00633680f, -0.00792969f, 0.00758514f, -0.00150180f, -0.00561126f, -0.01087181f,
    0.00125504f, 0.00335047f, 0.00232331f, 0.00187485f, 0.00427376f, -0.00621552f, -0.01100034f, -0.00522847f,
    -0.00577408f, 0.00805449f, 0.00894060f, 0.00025199f, -0.00739438f, 0.00731259f, -0.00520391f, 0.01031861f,
    -0.00181116f, -0.00683951f, -0.00776916f, -0.00003905f, 0.00238275f, 0.00865567f, -0.00144455f, -0.00649376f,
    -0.00081587f, 0.00525853f, 0.01014098f, 0.00170169f, -0.00650370f, 0.00203286f, -0.00535755f, -0.00416885f,
    0.00815236f, -0.00686366f, 0.01099581f, 0.00885534f, -0.00163762f, -0.00393016f, 0.00363153f, -0.00571656f,
    0.00469702f, 0.00724439f, 0.00729441f, -0.00971263f, 0.00187357f, -0.00880072f, -0.00808589f, -0.00449171f,
    -0.01084810f, -0.00551089f, 0.00610685f, -0.00272007f, 0.00943627f, 0.00720948f, 0.00343670f, 0.00479524f,
    0.00659513f, 0.00400827f, -0.00290548f, -0.01038734f, -0.00940950f, 0.00528601f, -0.00531536f, -0.00254204f,
    -0.00606627f, 0.00893962f, 0.00566439f, -0.00111354f, 0.00629402f, -0.00333057f, 0.00559980f, 0.00118924f,
    -0.00755881f, 0.00881699f, -0.00172660f, -0.00520330f, 0.00329306f, 0.00758330f, -0.00310489f, 0.00936478f,
    0.00206182f, 0.00179793f, 0.00833480f, 0.01006850f, 0.00436348f, 0.00627633f, -0.00614698f, -0.00770335f,
    0.00534178f, -0.00326765f, -0.01074371f, -0.00098417f, -0.00885300f, -0.00424514f, -0.00596859f, 0.00387074f,
    0.00636750f, -0.00083304f, 0.00009863f, 0.00142105f, -0.00004862f, 0.00381288f, 0.00378054f, 0.00069407f,
    -0.00641383f, -0.00028750f, 0.00383623f, -0.00123592f, 0.00810777f, -0.00782809f, 0.00218849f, -0.00525529f,
    -0.00584328f, 0.00219134f, 0.00508545f, 0.00522304f, -0.00877667f, 0.00915183f, 0.00904068f, -0.00602393f,
    0.00724314f, 0.00656798f, 0.00704946f, -0.00901072f, -0.01031954f, 0.00402313f, -0.00103255f, 0.00074539f,
    -0.00072362f, -0.00698583f, 0.00273579f, 0.00393105f, 0.00941770f, 0.00750938f, -0.00643124f, -0.01100254f,
    0.00623335f, 0.00011482f, -0.00945226f, -0.00246615f, -0.00690345f, -0.00257602f, -0.00637119f, -0.00739933f,
    0.00679049f, 0.01042995f, -0.00720937f, 0.00341004f, -0.00751569f, -0.00836726f, -0.00831427f, 0.00249836f,
    0.00144403f, 0.01053385f, 0.01084378f, 0.00819696f, 0.00200805f, 0.00070709f, -0.00380854f, 0.00075842f,
    0.00889915f, 0.00088807f, -0.00948151f, -0.00458923f, -0.00742183f, -0.00151657f, -0.00630812f, 0.00803836f,
    0.00560899f, -0.00692258f, 0.00343042f, 0.01061654f, -0.00878008f, 0.00540610f, -0.00915182f, 0.00795927f,
    -0.01067898f, 0.00389725f, 0.01017171f, -0.01022785f, -0.00981733f, 0.00242894f, -0.00438050f, 0.00029493f,
    0.00401695f, 0.00635252f, 0.00972613f, -0.00815967f, 0.00988658f, 0.00653495f, -0.00931756f, -0.00555751f,
    0.00984700f, -0.00662278f, -0.00763910f, -0.00610867f, -0.00798297f, -0.01002278f, 0.00606804f, -0.00553270f,
    -0.00371139f, -0.00328237f, -0.00397922f, -0.00139350f, 0.01049118f, -0.00845721f, 0.00461793f, -0.00380307f,
    -0.00460302f, -0.00251992f, -0.00081214f, 0.00464839f, -0.00118600f, 0.00520169f, 0.00030733f, 0.01048708f,
    0.00404510f, 0.01007603f, 0.00626009f, -0.00503716f, -0.00780650f, -0.00391570f, -0.00162841f, -0.00520253f,
    0.00468225f, 0.00457359f, -0.00852984f, 0.01030727f, -0.00571028f, -0.00711529f, 0.00469982f, 0.00509390f,
    -0.00333128f, -0.00639307f, -0.00331408f, 0.00413434f, 0.00688083f, 0.00385528f, 0.00237061f, 0.00128560f,
    -0.00474615f, 0.00533664f, -0.00719246f, -0.00867476f, 0.00450904f, -0.00556645f, -0.00176381f, 0.00656529f,
    -0.00662948f, 0.00765342f, 0.00949183f, -0.00529203f, -0.00376850f, 0.00850845f, -0.00634675f, -0.00784038f,
    0.00655877f, 0.00130125f, -0.00170261f, 0.00398067f, -0.01104624f, -0.00015248f, -0.00945636f, -0.00543058f,
    -0.00312705f, 0.00385526f, -0.00726725f, -0.00407021f, -0.00659286f, 0.00749487f, -0.00906096f, 0.00423956f,
    0.00082844f, 0.00803054f, 0.00879279f, -0.00724179f, -0.00536415f, -0.00096362f, 0.00447491f, -0.00231574f,
    -0.00054899f, -0.00555940f, -0.00258802f, -0.00449280f, -0.00657470f, -0.00106125f, -0.00950092f, -0.00972140f,
    0.00119330f, -0.00199157f, 0.01057440f, 0.00601052f, 0.00699124f, 0.00868899f, 0.00045891f, 0.00462993f,
    0.00754124f, 0.00550264f, 0.00796938f, -0.00253474f, 0.00882125f, 0.00040340f, 0.00269290f, 0.00748935f,
    0.00465139f, -0.01076778f, -0.00701831f, -0.00683981f, -0.00329473f, 0.00049575f, -0.00819974f, -0.00917013f,
    -0.00084378f, -0.00495080f, -0.00932371f, -0.00379563f, 0.00151035f, 0.00969009f, -0.00196215f, -0.00454229f,
    0.00531635f, -0.00869567f, -0.00083829f, -0.00772576f, 0.00686028f, -0.00059793f, 0.00967704f, -0.00033427f,
    -0.00431852f, -0.00763472f, 0.00178077f, -0.01032073f, 0.00965372f, -0.00749996f, -0.00367043f, -0.01083157f,
    0.00191633f, -0.00159691f, -0.00040766f, -0.00266164f, -0.00454891f, -0.00589664f, 0.00623912f, 0.01095601f,
    0.00075896f, 0.01037039f, 0.00576189f, -0.01053053f, 0.00225741f, -0.00279050f, 0.00595840f, -0.01086094f,
    0.00707834f, -0.00095935f, -0.01101771f, 0.01063944f, -0.00190380f, -0.01052290f, 0.00953516f, -0.00607651f,
    0.00899023f, -0.00621509f, 0.00295388f, 0.00241032f, -0.00051836f, 0.00995486f, -0.00253536f, -0.00641424f,
    0.00943909f, -0.00909581f, -0.00010279f, 0.00508344f, 0.00571814f, -0.00372067f, 0.01034570f, 0.00729026f,
    0.00482986f, 0.00960884f, -0.00903809f, -0.00523616f, -0.00825740f, -0.00103706f, 0.01053412f, -0.00272595f,
    0.00610107f, 0.00019825f, 0.00630445f, 0.01081457f, 0.00773277f, 0.00202621f, 0.00135466f, 0.00030197f,
    -0.01070076f, -0.00086497f, 0.00778440f, -0.00901204f, -0.00292870f, -0.00998958f, -0.01050604f, -0.00407118f,
    -0.00892924f, -0.00465841f, 0.00940316f, -0.00748612f, -0.00953528f, 0.01104371f, -0.00034821f, -0.00008665f,
    -0.00676308f, -0.00085957f, 0.00944366f, -0.00217051f, -0.00477663f, -0.01053022f, 0.01070431f, -0.00330590f,
    -0.00500967f, 0.00403009f, -0.00815586f, -0.00461594f, -0.00144676f, 0.00032510f, 0.01047264f, 0.00329384f,
    -0.00286329f, -0.00152500f, -0.00864006f, -0.00539711f, -0.00807625f, -0.00257680f, 0.00302270f, -0.00628489f,
    -0.00027223f, -0.00962824f, 0.00721933f, 0.00662342f, 0.00023182f, -0.00842036f, -0.00600088f, -0.00258127f,
    -0.00930897f, -0.00760682f, 0.00434582f, -0.00725999f, -0.00357236f, 0.00108509f, -0.00215066f, 0.00565478f,
    0.01033934f, 0.00972634f, -0.00767942f, 0.00188102f, 0.00724512f, 0.00947351f, 0.00193047f, 0.00719930f,
    -0.00542453f, 0.00524236f, -0.00594160f, 0.01029302f, 0.00967646f, 0.00629280f, 0.00882429f, 0.00152842f,
    -0.00025290f, -0.01006660f, -0.00662668f, 0.00567141f, 0.00447808f, -0.00643614f, -0.00354921f, -0.00642417f,
    -0.00187949f, 0.00710668f, -0.00835675f, -0.00329289f, 0.00199454f, 0.00302660f, 0.00609804f, -0.00947696f,
    0.00359654f, -0.00070161f, -0.00783236f, -0.01034724f, -0.00209135f, 0.01062356f, -0.00964190f, -0.00690541f,
    0.00903100f, 0.00111393f, 0.01096319f, 0.01035171f, -0.00934130f, -0.01096190f, 0.00505630f, -0.00626334f,
    0.01091679f, 0.00046330f, -0.01020680f, -0.00942991f, 0.00329818f, 0.00252616f, -0.00867889f, -0.00364537f,
    0.00198886f, -0.00098737f, 0.00421725f, 0.00976897f, -0.00901327f, -0.00254778f, -0.00699540f, -0.00997812f,
    -0.00306340f, -0.01079004f, -0.00261712f, -0.00501767f, -0.00192296f, -0.00814237f, 0.00239538f, 0.00635047f,
    -0.00757404f, -0.00612950f, -0.00532519f, -0.00321926f, -0.00524820f, 0.00822712f, -0.00011718f, 0.00277927f,
    0.00275015f, -0.00974946f, -0.00303254f, -0.00680786f, 0.00718035f, -0.00278652f, -0.00316245f, 0.00703168f,
    -0.01073434f, 0.00937060f, 0.00864008f, -0.01052481f, 0.00237317f, 0.00858293f, 0.00791850f, 0.00498120f,
    -0.00455846f, -0.00201462f, -0.00530209f, -0.00572419f, 0.00303734f, -0.00535671f, 0.01008659f, 0.00086179f,
    0.00009645f, -0.00832326f, -0.00089080f, 0.00194506f, 0.00210775f, -0.00488536f, 0.00486698f, 0.00219595f,
    0.00777271f, -0.00835017f, 0.00430694f, 0.00160589f, -0.00507986f, 0.00884465f, 0.00604315f, -0.00501317f,
    0.00982827f, -0.00851911f, 0.01046898f, 0.00272281f, -0.00882650f, -0.00758181f, 0.00458765f, -0.00317079f,
    -0.00093132f, 0.00133455f, 0.00986526f, 0.01045519f, -0.00394797f, 0.00826076f, 0.00785659f, 0.01086180f,
    -0.00116928f, -0.00155676f, 0.00156776f, 0.00706411f, -0.00936861f, 0.00430142f, -0.00616732f, -0.00455998f,
    0.00764315f, -0.00502621f, 0.00449682f, 0.00742486f, 0.00950006f, -0.00700062f, 0.00809908f, 0.00619770f,
    0.00882376f, -0.00013565f, -0.00966052f, 0.00015475f, -0.00856494f, -0.01029101f, -0.00346978f, 0.00619919f,
    0.00044134f, 0.00301258f, 0.00806256f, -0.00209574f, -0.00101592f, -0.01040079f, 0.00663285f, -0.00226020f,
    0.00993094f, -0.00444063f, -0.00506438f, -0.00888024f, -0.00433603f, 0.00180008f, -0.01033161f, 0.01083394f,
    -0.00995079f, -0.00288397f, 0.00389141f, -0.00288648f, 0.00709059f, -0.00633845f, -0.00205230f, 0.00394161f,
    -0.00379257f, -0.00907087f, -0.00777209f, 0.00343904f, 0.00369680f, 0.00880310f, -0.00139605f, -0.00882609f,
    -0.00005391f, 0.01005019f, -0.00391884f, 0.00396824f, -0.00269519f, 0.00815534f, -0.00739526f, -0.00928131f,
    0.00612764f, -0.00989783f, -0.00348196f, -0.00506987f, -0.01005884f, 0.00832449f, -0.00534941f, -0.00238498f,
    0.00877208f, -0.00618405f, -0.00656900f, -0.00059802f, -0.00032513f, -0.00733169f, 0.00985985f, -0.00541540f,
    -0.00182634f, -0.00726649f, -0.00466241f, 0.00747526f, 0.00897984f, -0.00733910f, 0.00232383f, -0.00008220f,
    0.00430047f, 0.00536102f, 0.00029465f, -0.00500911f, 0.00819256f, -0.00960952f, 0.00444592f, 0.00338651f,
    0.00728307f, 0.00932032f, -0.00321134f, 0.01049610f, 0.00884890f, -0.01005923f, 0.00767235f, 0.00130241f,
    0.00992689f, 0.00472693f, 0.00139375f, -0.00771915f, -0.00006915f, 0.00440883f, 0.00965324f, -0.00936307f,
    -0.00897914f, 0.00570402f, 0.00562608f, 0.00758250f, 0.00041989f, 0.00353161f, -0.00231937f, 0.00747330f,
    0.00824188f, -0.00296897f, 0.00400818f, 0.00910022f, 0.00931415f, -0.00297174f, 0.00149291f, -0.00067712f,
    0.00528717f, 0.00170593f, -0.00465825f, -0.01103544f, 0.00933902f, 0.00829635f, -0.00965342f, -0.01041237f,
    0.00942801f, 0.00845377f, 0.00287318f, -0.00231598f, 0.00955932f, -0.00293472f, -0.00398216f, -0.00751996f,
    0.01082634f, -0.00084102f, 0.00921150f, 0.00130840f, -0.00078336f, -0.00143600f, -0.00306340f, 0.00124235f,
    0.00572075f, -0.00808747f, 0.00837473f, -0.00417456f, -0.00707751f, 0.00855171f, -0.00687705f, -0.00263652f,
    0.00658357f, 0.00489455f, -0.00617825f, -0.00742271f, 0.00868941f, -0.01083565f, -0.00031660f, -0.00432188f,
    0.00527007f, -0.01085949f, -0.00632352f, 0.00225143f, 0.00558753f, 0.00900925f, 0.00940265f, -0.00890785f,
    -0.00484074f, -0.00470158f, 0.00853426f, -0.00177953f, 0.00339117f, 0.00603409f, -0.00056938f, -0.00986619f,
    0.00902416f, 0.00478958f, -0.00888031f, -0.00446683f, 0.00837647f, 0.00650830f, 0.00407958f, 0.00209975f,
    0.00266098f, -0.00020448f, -0.00988102f, 0.01074221f, 0.00273120f, -0.00600675f, 0.00666593f, 0.00490592f,
    -0.00992404f, -0.01064117f, -0.00285548f, 0.00650424f, 0.00378799f, 0.00988288f, -0.00403554f, -0.00813612f,
    0.00727132f, -0.00663676f, 0.00605575f, 0.00228170f, 0.00206507f, -0.01074145f, -0.00471121f, -0.00151208f,
    0.00798334f, 0.00748590f, -0.00159909f, -0.00275095f, 0.00527625f, 0.00310547f, -0.00506468f, 0.01091865f,
    -0.00002799f, -0.00488994f, -0.00132378f, 0.00334275f, 0.00127961f, 0.00850034f, 0.00801919f, 0.00194895f,
    0.00943033f, 0.00870260f, -0.00827480f, 0.00101581f, -0.00708818f, -0.00902658f, 0.00187223f, -0.00330907f,
    -0.00037794f, -0.00499509f, 0.00516755f, 0.01080794f, -0.00335623f, 0.00702330f, 0.00319769f, -0.00203958f,
    -0.00336803f, -0.00187692f, -0.00762827f, -0.00495468f, 0.00892896f, -0.00545809f, -0.00014790f, -0.00099916f,
    0.00724244f, -0.00462518f, -0.00747286f, -0.00221505f, -0.00075908f, -0.00272159f, -0.00786242f, 0.00020870f,
    -0.01068210f, -0.00235800f, 0.00269409f, -0.00226355f, -0.00074625f, 0.01064240f, 0.00301519f, 0.00310526f,
    -0.00773469f, -0.00480327f, 0.00211054f, 0.00821680f, 0.00676987f, -0.01000394f, 0.00252127f, -0.00425044f,
    -0.00419492f, 0.00852417f, -0.01032206f, -0.01081165f, -0.00949702f, 0.00331755f, -0.00111988f, -0.00521916f,
    -0.00265718f, 0.00644405f, -0.00111743f, 0.00021533f, -0.00721685f, 0.00612715f, 0.00148986f, -0.01064857f,
    -0.00502166f, -0.00071596f, 0.00796067f, 0.00356050f, 0.00036975f, 0.00267299f, 0.00920267f, -0.00228423f,
    -0.01088335f, -0.00287174f, -0.01031710f, 0.00070355f, -0.00287334f, 0.00813339f, -0.00987328f, -0.01008025f,
    0.00212209f, -0.00473137f, 0.00156221f, -0.00811446f, 0.00125210f, -0.01054966f, -0.01045408f, -0.00340634f,
    0.01043490f, 0.00469596f, -0.00851989f, -0.01024546f, 0.00503727f, -0.00466465f, 0.00372736f, 0.00024887f,
    -0.00425441f, -0.00808490f, -0.00700744f, -0.00119988f, -0.00332898f, 0.00019796f, 0.00555364f, 0.00452241f,
    -0.00075928f, -0.00126258f, -0.00953684f, 0.00573162f, 0.00018897f, -0.00078417f, -0.00817495f, 0.00722142f,
    0.00805902f, -0.00848027f, 0.00589786f, -0.00261462f, -0.00302669f, -0.00267837f, -0.00794897f, -0.00221202f,
    -0.01067557f, -0.00176723f, 0.00743271f, 0.01087818f, 0.00755774f, 0.00535961f, 0.00121114f, 0.00758867f,
    0.01044145f, -0.00144709f, -0.00134311f, 0.00004425f, 0.00411274f, 0.00693302f, -0.00287553f, -0.00090196f,
    0.00151248f, -0.00622191f, -0.00156265f, -0.00554260f, -0.00210152f, 0.00165021f, 0.00290267f, 0.00209010f,
    0.00680551f, 0.00093407f, 0.01008439f, -0.00786229f, -0.00518615f, -0.00466707f, 0.00376124f, 0.00494733f,
    0.00581794f, 0.00295745f, 0.00616359f, 0.00381746f, 0.00189497f, -0.00729327f, 0.00796916f, -0.00438289f,
    0.00555139f, -0.00273161f, -0.00335044f, 0.00299789f, 0.00751110f, 0.00593451f, 0.00941452f, -0.00568635f,
    0.00873403f, 0.00875343f, 0.00865872f, 0.00869261f, 0.00384097f, -0.00928453f, 0.00431947f, 0.00634351f,
    -0.00045564f, -0.00064550f, 0.00456696f, -0.00991510f, 0.00131304f, 0.00449597f, -0.00155415f, 0.00463849f,
    0.00270462f, 0.00976813f, 0.00852147f, -0.00502808f, -0.00601659f, 0.00386451f, -0.01027650f, -0.00164614f,
    -0.00419222f, -0.00008832f, -0.00389026f, 0.00082145f, -0.00365883f, -0.00763014f, 0.00670396f, 0.00941970f,
    0.00942389f, 0.00798786f, 0.00614965f, 0.00266810f, -0.00969434f, 0.00987507f, 0.00430255f, -0.00786207f,
    0.01073385f, 0.00649949f, -0.01020670f, -0.00155713f, -0.00572178f, 0.00731618f, -0.00743249f, 0.00392290f,
    -0.01066621f, -0.00708169f, 0.00002824f, 0.00119779f, 0.00762911f, -0.00190756f, -0.00173407f, -0.00290883f,
    -0.00389301f, 0.00335093f, 0.00020661f, -0.00361135f, 0.00981161f, 0.00608453f, -0.00405449f, -0.00241390f,
    0.00680853f, -0.00989111f, 0.00994679f, -0.00897354f, -0.00527110f, 0.00646380f, 0.00635932f, 0.00491507f,
    0.00598131f, 0.00591823f, -0.00961672f, 0.00777510f, -0.00878827f, -0.00597349f, 0.00694291f, -0.00280155f,
    -0.00447240f, 0.00353374f, 0.00694364f, -0.00387254f, -0.00353198f, 0.00270279f, -0.00687028f, -0.00506528f,
    0.01027680f, 0.00933639f, 0.00338717f, -0.00082676f, -0.00213699f, -0.00337794f, 0.00432241f, -0.01085803f,
    -0.00927410f, -0.00708021f, -0.00926014f, 0.00835318f, 0.00437804f, 0.00865990f, 0.01079038f, -0.00193926f,
    0.00881043f, -0.00328079f, -0.00810810f, 0.00193771f, 0.00557545f, -0.00603339f, 0.00748304f, 0.00459320f,
    -0.00466173f, 0.00971688f, -0.00539671f, -0.00900019f, 0.00550292f, -0.00919019f, 0.00161743f, -0.00517602f,
    -0.00213951f, 0.00860832f, 0.00105617f, -0.00160214f, -0.00340109f, 0.00367401f, -0.00639729f, -0.01072733f,
    -0.00123715f, -0.01082191f, -0.00127147f, -0.00922074f, -0.00127352f, 0.00339951f, 0.00990274f, -0.00223439f,
    0.00395974f, -0.00062028f, 0.00410857f, 0.01071841f, 0.00027586f, -0.00509105f, -0.00209719f, 0.01066217f,
    0.00556159f, 0.00393511f, -0.00593955f, -0.00041102f, 0.00246296f, 0.00280411f, 0.00672857f, -0.00492609f,
    -0.00881934f, -0.00824734f, 0.00872803f, 0.00376380f, -0.00371924f, -0.00202681f, -0.00909516f, -0.00795848f,
    -0.00434820f, 0.00097226f, 0.00531572f, -0.00061677f, -0.00709293f, 0.00334124f, -0.00904705f, -0.00367551f,
    0.00777447f, 0.00090218f, -0.00527017f, -0.00184862f, -0.00844026f, -0.00928791f, 0.00483771f, -0.01090193f,
    -0.00979270f, 0.00387809f, 0.00963838f, 0.00245277f, 0.00915038f, 0.00946743f, 0.00138328f, -0.00173721f,
    0.00675897f, -0.00414599f, 0.00831364f, -0.00742225f, -0.01025561f, 0.00934010f, -0.00218562f, 0.00228624f,
    -0.00437807f, -0.00252684f, 0.00554134f, -0.00452151f, -0.00931025f, -0.00945782f, 0.00704721f, -0.00022681f,
    -0.00603066f, 0.00633745f, 0.00726188f, -0.00714314f, -0.00992087f, 0.00980347f, -0.00146891f, 0.00808666f,
    -0.00201939f, -0.00564993f, -0.00191416f, 0.00061848f, -0.00647865f, 0.01047304f, 0.00194170f, -0.00951858f,
    0.01059788f, 0.00127215f, -0.00309962f, 0.00444525f, -0.00635507f, -0.00573658f, 0.00016824f, -0.00236901f,
    0.00222905f, -0.00669466f, -0.00709647f, -0.00078532f, -0.00325413f, -0.00455059f, -0.00495679f, -0.00979666f,
    0.00539491f, -0.00819267f, 0.00399526f, 0.00588886f, -0.00423681f, 0.00273309f, -0.00305781f, 0.00537726f,
    0.00609460f, -0.00907151f, -0.00022180f, 0.00117995f, -0.00558965f, 0.00381098f, 0.00811921f, 0.00120598f,
    -0.00061036f, -0.00403350f, 0.00228705f, 0.00323053f, -0.01053529f, -0.00876566f, 0.01098541f, 0.00551340f,
    -0.00168316f, 0.01083424f, -0.01032846f, -0.00458601f, -0.00769557f, -0.00002880f, -0.01077756f, 0.00578589f,
    0.00601006f, -0.00714537f, 0.00782079f, -0.00434608f, -0.00281603f, -0.00279160f, 0.00589453f, 0.01083995f,
    0.01097395f, 0.00250243f, -0.01090281f, 0.00571921f, 0.01079760f, -0.00916653f, -0.00277829f, 0.00602873f,
    0.00406698f, -0.00806739f, -0.00303659f, 0.00785204f, 0.00692131f, 0.00153806f, -0.00877992f, -0.00321214f,
    -0.00101711f, -0.00195698f, 0.00880902f, -0.00026998f, 0.00207565f, -0.01067262f, -0.00775878f, 0.00204112f,
    -0.00457746f, 0.00665921f, -0.00124024f, -0.00377293f, 0.00323169f, -0.00110437f, 0.00881467f, 0.00640537f,
    -0.01066524f, 0.00869317f, 0.00856363f, -0.00531748f, 0.00471653f, 0.00687948f, -0.00456342f, 0.00551725f,
    -0.00683287f, 0.00347739f, -0.00421257f, -0.00541790f, -0.00229167f, -0.01045800f, -0.00497189f, -0.00770864f,
    0.00063013f, 0.01102536f, -0.00325903f, 0.00613823f, 0.00515737f, -0.00760763f, 0.00522274f, -0.00404078f,
    -0.00564491f, 0.00895828f, -0.00194972f, -0.00957926f, -0.00519845f, 0.00291637f, 0.00372755f, 0.00334559f,
    0.00840516f, -0.00395118f, 0.00686319f, 0.00829809f, -0.00580902f, 0.00156838f, -0.00370686f, -0.00492342f,
    0.00445454f, -0.01104848f, -0.00612365f, 0.00200590f, -0.00975993f, -0.00144812f, -0.01086698f, 0.00470514f,
    -0.00073340f, -0.00449665f, 0.00526787f, -0.00893562f, -0.00235978f, 0.01100222f, -0.00943298f, 0.00478908f,
    -0.00298299f, 0.00390893f, 0.00503431f, 0.00549539f, -0.00756009f, 0.00140117f, 0.00551498f, -0.00834561f,
    0.00858769f, -0.00759598f, -0.00513631f, 0.00582227f, -0.00351189f, 0.00348022f, 0.00682903f, -0.00822273f,
    0.00305745f, 0.00994860f, 0.00678656f, -0.00755940f, 0.00162771f, 0.00113264f, -0.00416778f, -0.00855097f,
    0.00560841f, -0.00172704f, -0.00289533f, 0.00963242f, 0.00931419f, -0.00648149f, 0.00421832f, 0.00735171f,
    0.00203436f, -0.00275992f, -0.00871112f, 0.00828238f, -0.00487017f, 0.00177981f, 0.00145114f, -0.00788418f,
    0.00004884f, -0.00826772f, 0.00249820f, -0.00836022f, 0.00064282f, 0.00681385f, 0.00050654f, -0.01038124f,
    0.00356121f, -0.00098173f, 0.00775727f, 0.00377568f, 0.00590604f, -0.00108662f, -0.00267234f, -0.01049047f,
    0.00209065f, 0.00098835f, -0.00403452f, -0.00414168f, 0.00832171f, -0.01045604f, -0.00831136f, 0.00933076f,
    0.00467876f, -0.00560260f, 0.00300608f, -0.00560584f, -0.00767964f, -0.00531327f, 0.00276020f, -0.00148893f,
    0.00356953f, -0.00030995f, -0.00872601f, -0.00636521f, -0.01099396f, 0.00282811f, -0.01027401f, -0.00234295f,
    -0.00339426f, 0.00373906f, 0.00139951f, -0.00506670f, -0.00153145f, -0.00742733f, -0.00795124f, -0.00801399f,
    -0.00997819f, 0.00667759f, 0.00463918f, -0.00857686f, 0.00349033f, 0.01006369f, 0.00255333f, 0.00991853f,
    0.01025014f, -0.00452564f, -0.00831119f, 0.00974363f, -0.00838188f, -0.00386155f, 0.00071014f, 0.01034115f,
    -0.00035647f, -0.00055645f, -0.00185173f, 0.01002099f, -0.00869769f, -0.00332235f, -0.01061923f, 0.00276161f,
    0.00201473f, 0.00716332f, -0.00297445f, 0.00614480f, 0.00079402f, -0.00559070f, -0.00548123f, 0.00531261f,
    -0.00831837f, -0.00109641f, 0.01097172f, 0.00943182f, 0.00202381f, 0.00771695f, -0.01023047f, 0.00774529f,
    -0.00318963f, -0.00965824f, 0.00371618f, -0.00873083f, -0.00168573f, 0.00929821f, -0.00092807f, 0.00178164f,
    -0.00638998f, 0.00788828f, -0.01008931f, -0.00513182f, 0.00665735f, -0.01064083f, 0.00247306f, -0.00335866f,
    0.00668252f, 0.00434816f, 0.00769618f, -0.00044586f, 0.00247798f, -0.00348220f, 0.01048392f, -0.00181561f,
    -0.00505169f, 0.00318340f, 0.00385151f, -0.00766149f, -0.00955382f, 0.00822139f, 0.00753720f, -0.00652096f,
    -0.00768663f, -0.00976759f, 0.00189795f, 0.00012972f, 0.01091130f, 0.00644928f, -0.00723657f, -0.00377652f,
    0.00434407f, -0.00943627f, 0.00851127f, 0.00294773f, 0.00553463f, -0.00140877f, 0.00439552f, -0.01069045f,
    -0.00881171f, 0.00524886f, -0.00649621f, 0.00814588f, -0.00240561f, 0.00704500f, 0.00297783f, -0.00724894f,
    -0.00972089f, 0.00097413f, 0.00757647f, -0.00372649f, 0.00869025f, -0.00443339f, 0.00645395f, 0.00482596f,
    -0.00210472f, -0.00061798f, -0.00075749f, 0.00373370f, -0.01015470f, 0.00345138f, 0.00121819f, 0.00718340f,
    -0.00479775f, 0.01081172f, 0.00475644f, -0.01036964f, -0.00853026f, 0.00870949f, -0.00609581f, -0.01084199f,
    0.00666493f, 0.00025216f, 0.00892572f, -0.00959513f, -0.00523336f, -0.01019156f, -0.00030833f, -0.00762407f,
    -0.01056254f, -0.00296710f, 0.00256049f, 0.00229984f, -0.00019403f, 0.00551573f, 0.00625783f, -0.00970230f,
    -0.00795780f, -0.00760137f, 0.00388804f, 0.00851540f, 0.00973026f, -0.01078485f, 0.01062793f, -0.00290713f,
    -0.00393414f, -0.00297769f, 0.00911109f, -0.00992079f, 0.00097534f, -0.00345998f, 0.01001496f, -0.00342379f,
    -0.00578046f, -0.00578175f, -0.00146823f, 0.00879101f, 0.00940028f, 0.00680767f, 0.00518475f, 0.00843799f,
    0.00177330f, -0.00174142f, 0.00910447f, -0.00299000f, 0.00847446f, 0.00309818f, -0.00830079f, 0.00986314f,
    -0.00104909f, 0.00331983f, 0.00928870f, -0.00104048f, 0.00642073f, -0.00854504f, -0.00521890f, -0.00445433f,
    -0.00752911f, 0.00973690f, -0.01072931f, -0.00123047f, 0.00290987f, -0.00697494f, 0.00506610f, -0.01077960f,
    0.01030845f, 0.00539378f, 0.00514442f, -0.01037024f, 0.00316183f, 0.00514827f, -0.00415042f, -0.01033495f,
    0.00122111f, -0.00143764f, 0.00253408f, -0.00542752f, -0.00526702f, 0.00206701f, 0.00500239f, 0.00380130f,
    0.00176406f, -0.00045679f, 0.00644383f, 0.00454168f, 0.00801529f, -0.00355443f, -0.00789348f, 0.00812777f,
    0.00911125f, 0.00232679f, -0.00332705f, -0.00588434f, -0.00405698f, 0.00055390f, -0.00156385f, -0.00781730f,
    0.00396943f, 0.00780248f, -0.00909284f, -0.00177279f, -0.00092213f, 0.00781663f, -0.00331967f, 0.01041159f,
    0.00030010f, -0.00426534f, 0.00200129f, -0.00776268f, 0.00393127f, -0.00647626f, -0.01030964f, 0.00366518f,
    -0.00623478f, 0.00527509f, 0.00325001f, -0.00578781f, -0.00898996f, -0.00875068f, -0.00289788f, 0.00324274f,
    -0.00729937f, 0.01080532f, 0.00669934f, 0.00927155f, -0.00765285f, -0.00452610f, -0.00642933f, 0.01083999f,
    -0.00955734f, -0.00469787f, -0.00283728f, 0.00518538f, -0.00619216f, 0.00110437f, 0.00712739f, -0.00944764f,
    -0.00987672f, 0.00652780f, 0.00903617f, 0.00419159f, 0.00109670f, -0.00066446f, 0.00149222f, 0.00195447f,
    -0.00304958f, -0.00387863f, -0.00897749f, -0.00545709f, -0.00113151f, -0.00945034f, 0.00055950f, -0.00023020f,
    0.00989021f, 0.00463092f, -0.00904422f, -0.00727305f, -0.01013432f, -0.00516690f, -0.00512823f, 0.00877226f,
    0.00077787f, -0.00109016f, -0.00313047f, -0.00679681f, 0.00962036f, -0.00315464f, 0.00820552f, 0.00667822f,
    0.00521607f, -0.00841905f, 0.00613191f, 0.00540553f, 0.00784189f, -0.00075668f, -0.00402187f, -0.00494932f,
    0.00826458f, -0.00043982f, 0.00365338f, -0.00360331f, -0.00264781f, -0.00891908f, -0.00680550f, 0.00633373f,
    -0.00530047f, 0.00896091f, -0.00240631f, -0.00523038f, -0.00308788f, -0.00718650f, -0.00712203f, -0.00864909f,
    -0.00462270f, 0.00364357f, -0.00871182f, 0.00060123f, 0.00985825f, 0.00121891f, -0.00978960f, -0.00849864f,
    0.01093417f, 0.00681492f, -0.00871688f, 0.00392843f, -0.00491563f, 0.00784541f, 0.00998299f, -0.00545172f,
    0.00259090f, 0.00313469f, 0.00378328f, -0.00593114f, 0.00277523f, -0.01083336f, -0.00709662f, -0.00543276f,
    0.00570704f, 0.00468389f, -0.00116399f, 0.00901775f, -0.00894474f, -0.00170982f, -0.00566183f, -0.01014398f,
    -0.00301723f, -0.00259048f, 0.00035910f, -0.00092413f, 0.00328468f, -0.00454076f, 0.00993922f, 0.00588502f,
    0.01022176f, 0.00529855f, -0.00275587f, -0.00092299f, 0.00130338f, 0.00248819f, -0.00808915f, 0.00914016f,
    -0.00374745f, -0.00477455f, 0.00222343f, -0.00992476f, -0.00764466f, 0.00635973f, -0.00848895f, -0.00142747f,
    -0.00579087f, 0.00349776f, -0.00259395f, 0.00547270f, -0.00214885f, 0.00528217f, -0.00424436f, 0.00423827f,
    -0.00663240f, 0.00824813f, 0.00924662f, 0.00458766f, -0.00825077f, 0.00877282f, 0.00211668f, 0.00977989f,
    -0.00649482f, -0.01015299f, 0.00250200f, -0.00834318f, 0.00958349f, -0.00318081f, 0.00338653f, 0.00072959f,
    0.00303533f, -0.00480897f, 0.00201091f, 0.00002770f, 0.00361210f, 0.01068974f, 0.00098112f, 0.00449870f,
    -0.00037883f, -0.00762528f, -0.00876794f, 0.00982081f, -0.00440788f, 0.00404672f, -0.01008850f, -0.00095481f,
    0.00336664f, 0.00823515f, -0.00023403f, 0.00222459f, 0.00384842f, 0.01089150f, 0.00531643f, -0.01096550f,
    0.00896096f, -0.00976984f, 0.00471377f, -0.00458246f, 0.00770324f, -0.00356349f, 0.00052923f, -0.00164183f,
    0.00999829f, -0.00628586f, 0.01044362f, 0.00328655f, 0.00913698f, -0.00857971f, -0.00898002f, -0.00514480f,
    -0.00549764f, -0.00035194f, 0.00205155f, -0.00172090f, 0.00419563f, -0.00333533f, -0.00091494f, 0.00449384f,
    0.00592118f, 0.00711325f, -0.00629891f, 0.00906165f, -0.00425956f, 0.00399002f, 0.00081081f, -0.00731889f,
    -0.00378046f, 0.00766065f, 0.00684649f, 0.00862967f, -0.00828066f, -0.01024744f, -0.00070848f, -0.00458932f,
    -0.00445659f, -0.00886686f, 0.01081520f, -0.00121273f, 0.00187766f, 0.00775057f, -0.00647432f, -0.01083082f,
    -0.00628438f, 0.00339676f, 0.01088643f, 0.00334334f, -0.00430827f, -0.00912947f, -0.00140750f, 0.00365177f,
    -0.00569154f, 0.00554354f, -0.00144665f, -0.00476846f, 0.00285558f, 0.00824049f, -0.00680491f, -0.00696722f,
    0.00569959f, 0.00401069f, -0.00406736f, -0.00228362f, -0.00286602f, 0.00419381f, -0.00887051f, 0.00468887f,
    -0.00838033f, 0.00480631f, -0.00739979f, -0.00132140f, 0.00223935f, 0.00144132f, -0.00281854f, -0.00968653f,
    0.00236088f, 0.00376750f, 0.00470378f, -0.00301750f, -0.00437003f, -0.00538029f, -0.00522500f, 0.00080763f,
    -0.00324132f, 0.00936356f, 0.00345315f, -0.00286624f, -0.00941887f, -0.00451170f, -0.00427037f, 0.00701150f,
    -0.00606017f, 0.00762005f, -0.00904633f, 0.00840280f, 0.00180473f, 0.00095108f, 0.00974083f, -0.00357968f,
    0.00154564f, -0.00858013f, 0.00839348f, -0.00044463f, 0.00005117f, -0.00280096f, 0.00835664f, 0.00999611f,
    0.00430059f, -0.01075173f, 0.01054446f, -0.00955701f, 0.00975833f, 0.00453609f, -0.00666434f, -0.00739060f,
    -0.00326795f, 0.00005986f, 0.00053775f, 0.01057611f, -0.00124506f, 0.00812435f, 0.01085623f, 0.00774404f,
    -0.00734873f, -0.00585119f, 0.00691498f, 0.00767856f, -0.00857547f, -0.00632717f, -0.00192893f, -0.00044416f,
    -0.00175344f, 0.00056589f, 0.00629176f, -0.00265632f, 0.00197836f, -0.00532153f, -0.00425827f, -0.00414774f,
    -0.00696007f, 0.00761023f, 0.00960294f, -0.00040040f, 0.00715249f, -0.00283987f, 0.00447914f, 0.00150981f,
    -0.00799974f, -0.00814997f, 0.00557423f, 0.01090051f, 0.00257827f, 0.00102827f, -0.00223328f, 0.00197275f,
    0.00329779f, 0.00386549f, 0.00451375f, 0.00368538f, 0.00801697f, 0.00266149f, -0.00349409f, -0.00910699f,
    0.00326705f, 0.00709524f, 0.00334673f, 0.01079397f, 0.00135529f, -0.00740497f, 0.00821018f, 0.00819301f,
    -0.00903133f, -0.01011416f, 0.00103909f, 0.00400157f, 0.00437276f, -0.00082766f, 0.00742450f, -0.00787456f,
    0.00054005f, -0.00141994f, 0.00126575f, 0.00407047f, 0.00152898f, -0.00923930f, 0.00660211f, 0.00818818f,
    0.00243011f, 0.00454188f, -0.00065212f, 0.00751366f, -0.00482371f, 0.00659995f, 0.00757995f, 0.00411038f,
    0.00790439f, 0.01056024f, -0.00005057f, 0.00308880f, 0.00941067f, 0.00837163f, 0.00641588f, -0.00367286f,
    0.00704731f, -0.00487332f, 0.00710680f, 0.00868048f, 0.00754519f, -0.00016975f, 0.00662253f, -0.01069298f,
    -0.00607956f, -0.00819926f, 0.00484172f, 0.01095429f, -0.01057409f, 0.00938893f, -0.00921409f, 0.00977703f,
    0.01005270f, 0.00415919f, 0.00445529f, -0.00724459f, -0.01011811f, -0.00343441f, -0.00280224f, -0.00623920f,
    0.00897772f, -0.00175572f, 0.00966277f, 0.00510963f, 0.01000940f, -0.00908846f, 0.00903027f, 0.01063369f,
    0.00405580f, 0.00910908f, 0.00306402f, 0.00936933f, -0.00996598f, -0.00540522f, 0.00926064f, 0.00540854f,
    0.00135567f, -0.00174750f, -0.00417126f, -0.00296322f, -0.01051942f, -0.00724004f, -0.00816225f, -0.00083262f,
    0.00719009f, 0.00693537f, -0.00868159f, -0.00908247f, 0.00130783f, -0.00352589f, -0.00664949f, 0.00077489f,
    -0.00921192f, -0.00209568f, -0.00596270f, -0.00361524f, 0.00208824f, -0.00431658f, 0.00235347f, 0.00229452f,
    0.00792202f, -0.00261802f, -0.00113557f, 0.00227822f, 0.00014720f, 0.00207267f, -0.00740853f, 0.00502520f,
    -0.00341612f, 0.00586426f, 0.00037391f, -0.00031348f, -0.00656621f, -0.00954874f, -0.00310192f, 0.00174558f,
    0.00598737f, 0.00894082f, -0.01075007f, -0.00051035f, 0.00206573f, 0.00176488f, -0.00089453f, 0.00400327f,
    -0.00635914f, -0.00784232f, -0.00764122f, 0.00842322f, 0.00741887f, -0.00355293f, -0.00984059f, -0.00382025f,
    -0.00798940f, 0.00155543f, -0.00227008f, -0.00699309f, 0.00771249f, 0.00521213f, -0.00063258f, -0.00079059f,
    -0.00140004f, -0.00966473f, 0.00532483f, 0.00578196f, 0.00725824f, -0.00242094f, 0.00245105f, 0.00982429f,
    0.00170025f, 0.00859138f, -0.00897107f, -0.00074410f, 0.00030135f, -0.00592288f, 0.00268649f, -0.00614278f,
    -0.00941871f, 0.01017791f, 0.00696241f, 0.00003238f, 0.00157436f, 0.00499685f, -0.00055626f, 0.01029907f,
    0.00389256f, -0.00400685f, -0.00194928f, -0.00679807f, -0.00013238f, 0.00094243f, 0.00228767f, 0.00135522f,
    -0.00844861f, -0.01053610f, -0.00601317f, 0.00745070f, 0.01007161f, -0.00708624f, -0.00214785f, -0.00353508f,
    -0.00638762f, -0.00078266f, -0.00770319f, -0.00755008f, 0.00775451f, -0.00886164f, 0.00079546f, -0.00384529f,
    -0.00217622f, 0.00232118f, -0.00570093f, -0.00603795f, -0.00767867f, 0.00671992f, 0.00927679f, 0.00554076f,
    0.01033687f, -0.00674473f, -0.00074260f, 0.00486673f, 0.00277397f, -0.01026246f, -0.00216569f, -0.01018070f,
    0.00645367f, 0.00127333f, 0.00958149f, -0.00866565f, -0.00992375f, -0.00544535f, 0.01088935f, -0.00920437f,
    -0.00430682f, -0.00839313f, -0.00923662f, -0.00505492f, -0.00506373f, 0.00589247f, -0.00740008f, 0.01077838f,
    -0.00279482f, -0.00331556f, -0.00027245f, -0.00509634f, -0.00501242f, -0.00836911f, 0.00401672f, 0.00859703f,
    0.00399849f, 0.00832277f, -0.00129775f, -0.00939124f, 0.00388367f, -0.00927577f, 0.00081746f, -0.00666755f,
    -0.00241968f, 0.00314427f, -0.00480868f, -0.00430055f, -0.00391069f, -0.00407722f, -0.00026367f, -0.00977312f,
    -0.00221509f, 0.00519639f, 0.00129514f, -0.00619279f, -0.00589187f, 0.00326808f, 0.00328212f, 0.00409293f,
    0.00148978f, 0.00189811f, 0.00959388f, 0.00795309f, 0.00474345f, 0.00365116f, 0.00100641f, 0.00485293f,
    -0.00850792f, -0.00044730f, -0.00114823f, 0.00620987f, 0.00871981f, -0.01003144f, -0.00900893f, -0.00523113f,
    -0.00137253f, -0.00720399f, 0.00668399f, -0.00608083f, -0.00193773f, 0.00630209f, -0.00933223f, 0.00438011f,
    -0.00667259f, -0.00156985f, -0.00558937f, 0.01012631f, 0.00486496f, -0.00745123f, -0.00135155f, 0.00028092f,
    0.00400575f, -0.00802151f, -0.00103371f, 0.00431237f, 0.00533309f, -0.00279540f, 0.00683843f, -0.00801296f,
    -0.00894622f, 0.00593113f, 0.00883887f, 0.01034175f, -0.00796039f, -0.00119457f, 0.00554074f, -0.00469081f,
    -0.00220206f, 0.00663291f, 0.00138406f, 0.01033864f, 0.00315126f, 0.00716571f, -0.00278571f, 0.00378167f,
    0.00473689f, -0.00795318f, 0.00339081f, -0.00946345f, -0.00408303f, 0.00579462f, -0.00036624f, 0.01003957f,
    -0.01073784f, 0.00364392f, 0.00324043f, 0.00452410f, -0.00378046f, 0.00735404f, 0.00085989f, -0.00752982f,
    0.00757854f, -0.00067622f, -0.00212979f, 0.00413673f, -0.01003905f, -0.00226737f, -0.00120134f, -0.01032255f,
    -0.00887056f, 0.00215327f, -0.00710312f, -0.00788920f, -0.00993104f, -0.01023205f, 0.00587755f, -0.00973034f,
    -0.00946816f, -0.00577528f, 0.00583682f, 0.00727056f, -0.01049141f, -0.00442393f, -0.00415650f, 0.00225067f,
    0.00166941f, 0.00165146f, -0.00130599f, -0.00125610f, -0.00993158f, 0.00542530f, -0.00541513f, 0.01069759f,
    0.00028708f, 0.00145341f, 0.00367729f, -0.00383688f, 0.00793581f, 0.00507036f, -0.00716914f, -0.00112344f,
    0.00645237f, -0.01096285f, 0.00379239f, 0.00265166f, -0.00568913f, 0.00569667f, -0.00970382f, 0.00922076f,
    -0.00905717f, 0.00223812f, 0.00501482f, -0.01055289f, 0.00333501f, 0.00922044f, 0.00630095f, 0.01050320f,
    0.00206072f, 0.00115355f, -0.00269630f, 0.00901842f, 0.00059242f, 0.00147414f, 0.00784950f, -0.00377426f,
    0.00548132f, 0.00014178f, 0.00977815f, 0.01034152f, -0.01081611f, -0.00027089f, 0.00080395f, 0.00082525f,
    0.00503924f, -0.00671626f, 0.00351897f, -0.00644392f, -0.01063331f, -0.00630054f, -0.00882825f, 0.00874818f,
    -0.00246138f, -0.00299523f, -0.00026744f, -0.00736918f, -0.00122207f, -0.01026072f, -0.01011196f, 0.00458014f,
    -0.00363666f, 0.00962095f, -0.00034549f, 0.00963434f, -0.00769489f, -0.00814855f, -0.00787467f, 0.00822997f,
    -0.00521163f, 0.00330510f, 0.00321439f, -0.00128118f, 0.00855169f, -0.00445459f, -0.00932689f, 0.00723151f,
    0.00565866f, 0.00029102f, -0.00820298f, -0.00868238f, 0.00354280f, -0.00259053f, -0.00272568f, -0.00825639f,
    0.00556686f, 0.00997976f, 0.00389858f, -0.00870932f, 0.00106325f, -0.00669540f, 0.00210087f, 0.00378716f,
    -0.00913014f, 0.00426409f, -0.00280614f, -0.00441886f, -0.00043127f, -0.00932969f, -0.00513477f, 0.00206335f,
    -0.01089370f, -0.00841946f, 0.00740761f, 0.01002425f, -0.00245641f, 0.00268618f, -0.00628262f, 0.00207201f,
    0.00382325f, 0.01092205f, -0.01016189f, 0.00009919f, 0.00647877f, 0.00380180f, -0.00178081f, 0.00188070f,
    -0.00032487f, 0.00342631f, 0.00703921f, 0.00069553f, 0.00640407f, -0.00538692f, 0.00417319f, 0.00155208f,
    -0.00294607f, 0.00405055f, -0.00616252f, 0.00998922f, 0.00378192f, -0.00984946f, -0.00119605f, 0.00315439f,
    -0.00339508f, -0.00421477f, -0.00561004f, 0.00289099f, -0.00583029f, 0.00705763f, 0.00367867f, -0.00770498f,
    -0.00207716f, 0.00708033f, 0.00911534f, 0.00703708f, 0.00350764f, -0.00554292f, -0.00025561f, 0.00271606f,
    -0.01083921f, -0.00409790f, 0.00642697f, 0.00754098f, -0.00570067f, -0.00907915f, -0.00924078f, 0.00242969f,
    0.00630095f, -0.00031443f, 0.00932529f, 0.00669040f, -0.00542553f, -0.00638754f, -0.01083246f, -0.01053631f,
    0.00929802f, 0.00379820f, 0.00516224f, -0.00450388f, -0.01080745f, 0.00552942f, 0.00643870f, 0.01036415f,
    -0.00172953f, -0.00627524f, 0.00475029f, 0.00439762f, 0.00620690f, 0.00515432f, -0.00571621f, -0.00176826f,
    -0.00353014f, -0.00641557f, -0.00896048f, -0.00629988f, -0.00779685f, 0.00144190f, -0.00328522f, -0.00201822f,
    -0.00832353f, 0.00963404f, 0.00166558f, -0.00897419f, -0.00192181f, -0.00480750f, 0.00594973f, -0.00366380f,
    0.00613585f, -0.00716066f, -0.01100727f, 0.00244561f, -0.00259941f, 0.00904160f, -0.00106372f, -0.00974543f,
    0.00983546f, -0.00189990f, -0.00894060f, -0.00672782f, 0.00514615f, 0.00027214f, 0.00264952f, 0.00451040f,
    0.00693564f, 0.00109227f, 0.01020588f, -0.00752317f, -0.00908219f, 0.00496675f, -0.00388147f, 0.00070209f,
    -0.01049349f, 0.00588090f, 0.00143825f, -0.00415972f, -0.00355488f, 0.00669383f, -0.00896354f, -0.00859985f,
    -0.00772573f, -0.00312478f, -0.00078547f, -0.00166969f, -0.00403734f, 0.00611466f, -0.00728103f, -0.00406349f,
    0.00455877f, 0.00173501f, -0.00830631f, 0.00139476f, 0.00195420f, 0.00979570f, 0.00162743f, 0.00724468f,
    -0.00056063f, 0.00098050f, 0.00734651f, 0.00347908f, -0.00381802f, -0.00648049f, -0.00069588f, 0.00414365f,
    0.01025742f, -0.00241539f, -0.00315251f, -0.01074002f, -0.00157341f, 0.00651751f, 0.00796456f, 0.00958781f,
    0.00203972f, 0.00328740f, -0.00223326f, 0.01080257f, -0.00584063f, 0.00215496f, -0.00442374f, 0.00521911f,
    0.00846936f, 0.00154340f, 0.00708747f, -0.00341395f, -0.00688069f, 0.00568823f, 0.00050740f, 0.00380048f,
    0.00372082f, -0.00370310f, -0.00784074f, 0.01021574f, 0.00377790f, -0.00557651f, -0.00232760f, -0.00960750f,
    0.00543033f, 0.00691379f, 0.00119020f, 0.00739012f, 0.01079066f, -0.00745245f, 0.00900838f, 0.00097946f,
    0.00106818f, 0.00836515f, 0.00115246f, 0.00885867f, -0.00051512f, 0.00506073f, 0.00166390f, 0.00112528f,
    0.01024537f, 0.00236090f, 0.00956947f, 0.01013386f, -0.00252567f, -0.00693142f, -0.00129871f, 0.00846703f,
    0.00279060f, -0.00385756f, 0.01023998f, 0.00615634f, 0.00825297f, 0.00504064f, -0.01101397f, 0.00673104f,
    0.00618628f, 0.00125614f, -0.00266259f, -0.00671152f, 0.00532513f, 0.00094368f, -0.00304454f, 0.00899241f,
    -0.00282869f, -0.00925370f, 0.00853075f, -0.00535130f, -0.01023430f, 0.00399798f, 0.00129172f, 0.00811791f,
    0.00722161f, 0.00457694f, 0.00591782f, -0.00094205f, -0.00652777f, -0.00915396f, 0.00850643f, 0.00337935f,
    -0.00032970f, 0.00919849f, -0.00553006f, -0.00184219f, -0.00545942f, 0.00611637f, -0.00270798f, -0.00084504f,
    0.00296096f, -0.00228632f, -0.00789417f, -0.00464769f, 0.01045676f, -0.01006046f, 0.00197519f, 0.00930370f,
    0.00326576f, -0.00129930f, 0.00411576f, 0.00479650f, 0.00635070f, -0.00871413f, -0.00079673f, 0.00844605f,
    0.00339065f, -0.00220194f, 0.00424096f, 0.00780239f, 0.00939343f, 0.00800873f, -0.00941027f, -0.00660860f,
    0.00481170f, 0.00954709f, -0.00934514f, 0.00276951f, -0.00458371f, 0.00849320f, 0.00469021f, -0.00626020f,
    -0.01101758f, -0.00227978f, -0.00697561f, 0.00815813f, 0.01031474f, 0.01010249f, -0.00862324f, -0.00478678f,
    0.01053726f, -0.00779538f, 0.00625347f, -0.00991784f, -0.00788158f, -0.00741513f, 0.00885635f, -0.00564513f,
    -0.00000493f, -0.00946525f, -0.00505734f, 0.00835581f, -0.00543155f, 0.00849384f, 0.00520308f, 0.00229933f,
    -0.00506041f, -0.00515775f, 0.00169460f, -0.00721324f, 0.00365489f, -0.00301238f, -0.00592241f, 0.00191691f,
    -0.00994761f, -0.00751236f, -0.00868400f, -0.00148704f, 0.00589840f, 0.00350569f, -0.00306498f, 0.00145704f,
    0.00133072f, -0.00002379f, -0.00927051f, -0.00791743f, 0.00579615f, -0.00012217f, -0.00088913f, 0.00314299f,
    0.00872051f, 0.00061949f, -0.00261467f, -0.00062525f, 0.00959388f, -0.00910689f, 0.00721329f, -0.00170427f,
    -0.00938229f, -0.01043860f, 0.00174073f, -0.00514800f, 0.00590963f, -0.00360854f, -0.00045582f, -0.00008019f,
    -0.00112402f, -0.00666420f, 0.00952690f, 0.00036867f, -0.00351978f, -0.00469911f, -0.00598387f, -0.01002580f,
    0.00925437f, -0.00606567f, 0.00488129f, -0.00847733f, -0.00701280f, -0.00401841f, 0.00066361f, 0.00306208f,
    0.00463368f, -0.00500552f, 0.01031816f, -0.00038296f, 0.00773783f, -0.00886191f, 0.00136536f, 0.00622667f,
    -0.00729566f, -0.00581667f, -0.00597279f, 0.01030963f, -0.00989229f, 0.00468975f, 0.00831957f, -0.00816003f,
    0.00797851f, -0.00073100f, -0.00271736f, -0.00522952f, -0.00918962f, 0.00920239f, -0.00099354f, 0.00246634f,
    -0.00076024f, -0.00954161f, -0.00003066f, 0.00945700f, -0.00652013f, -0.00161901f, -0.00344705f, -0.00475646f,
    0.00396791f, -0.00146058f, -0.00791407f, -0.00229976f, 0.00555508f, -0.00640401f, 0.00338056f, -0.00350392f,
    0.00885458f, -0.00241462f, 0.01069854f, -0.00598791f, 0.01063091f, 0.00839641f, -0.00213616f, -0.00527069f,
    0.00485068f, -0.00905546f, -0.00738095f, -0.00325026f, 0.00816062f, -0.00802206f, -0.01027935f, -0.00406499f,
    -0.00695214f, -0.00492390f, -0.00569160f, -0.00845197f, 0.00933909f, -0.00903019f, 0.00229320f, 0.00808603f,
    0.00427063f, 0.00708777f, -0.00264438f, 0.00963577f, -0.00552418f, 0.00326028f, -0.00733832f, -0.00620620f,
    0.00893065f, 0.00779238f, 0.00548094f, 0.00278585f, 0.00262770f, -0.00321521f, -0.00391541f, -0.00127671f,
    0.00901155f, -0.00241724f, -0.00024114f, 0.00346328f, 0.00001057f, 0.00263296f, 0.00773744f, -0.00949382f,
    0.00666247f, -0.00612295f, 0.00652910f, -0.00085469f, -0.00288616f, -0.00411698f, -0.00914252f, 0.00535150f,
    0.00021428f, -0.00064168f, -0.00359159f, 0.00211315f, 0.00030597f, -0.00703773f, 0.00597585f, -0.00330258f,
    -0.00866492f, -0.00255017f, -0.00149807f, 0.00044316f, -0.01025342f, 0.00268647f, -0.00726498f, 0.00066924f,
    0.00259673f, -0.00660448f, 0.01085179f, -0.00808912f, -0.00284625f, -0.00861025f, 0.00934445f, 0.00534844f,
    -0.00664159f, 0.01067718f, -0.00220955f, 0.00208574f, -0.00740366f, -0.00705408f, -0.00051175f, -0.00847403f,
    -0.00546863f, -0.00685475f, -0.01016750f, -0.00503551f, -0.00044202f, 0.00871629f, 0.00107354f, -0.01028828f,
    0.01025720f, -0.00850609f, 0.00436401f, -0.00498934f, 0.00045508f, 0.01054951f, 0.00518220f, 0.00455616f,
    0.00784565f, -0.00119633f, -0.01028879f, -0.00601956f, 0.00384734f, -0.00203025f, 0.00152708f, 0.00003694f,
    -0.01084205f, 0.00063596f, 0.00661152f, 0.00211143f, -0.00436534f, 0.00075448f, 0.00010109f, 0.00857787f,
    -0.00817722f, -0.00978003f, -0.00078953f, -0.00909566f, 0.00920598f, 0.00027106f, -0.00138779f, 0.00471441f,
    0.00109064f, 0.00581382f, -0.00427558f, 0.00407976f, -0.01054236f, -0.00260369f, -0.00801876f, 0.00695486f,
