// Auto-generated weights file
// DO NOT EDIT

#ifndef WEIGHTS_H_
#define WEIGHTS_H_

#include <stddef.h>
#include <stdint.h>

// Shape: (5, 5, 4, 16), dtype: float32
static const float stem_conv_weight[1600] = {
    -0.07406349f, -0.08444043f, -0.06662681f, 0.04481880f, -0.08715280f, -0.02264968f, 0.06886221f, 0.02007198f,
    0.01123834f, 0.08460200f, -0.09370395f, 0.09565084f, 0.03589770f, -0.08912654f, 0.08265479f, -0.08993995f,
    -0.00794685f, -0.03791906f, 0.04544760f, 0.08125235f, 0.09063728f, 0.02877904f, 0.03987044f, 0.04896642f,
    -0.05710388f, -0.04658904f, -0.07670704f, -0.00657179f, 0.07735696f, 0.06333240f, -0.08055537f, -0.07233751f,
    0.01061301f, 0.01110529f, 0.07906161f, 0.08125343f, -0.05680052f, -0.04648630f, 0.05887690f, -0.07655077f,
    -0.04663252f, -0.03163353f, -0.08967707f, 0.09838615f, 0.07603941f, 0.00464848f, -0.00358052f, -0.01547917f,
    0.08013023f, 0.00888009f, 0.08263413f, 0.08841114f, 0.02608967f, -0.05473925f, 0.02489567f, -0.06130642f,
    -0.06037506f, -0.07756042f, 0.06043409f, 0.07349522f, 0.01651118f, 0.01798441f, -0.09126440f, -0.04309567f,
    0.08753457f, -0.08769530f, 0.08042035f, 0.05511519f, -0.09778180f, 0.02188277f, 0.02330366f, -0.01273649f,
    -0.08779547f, -0.06453270f, 0.06638180f, -0.07192635f, 0.09653183f, -0.04158108f, 0.01003619f, 0.07291342f,
    0.07921729f, 0.07144263f, -0.02150376f, 0.05388010f, 0.08131893f, 0.05939908f, -0.02923337f, -0.09629007f,
    0.03009709f, -0.00040487f, 0.01969142f, -0.02223980f, -0.09652268f, 0.06841476f, 0.07565319f, 0.09693646f,
    0.05975820f, 0.05367851f, -0.06857833f, -0.01568890f, 0.07336241f, -0.06774957f, 0.04254638f, -0.08784466f,
    0.00169805f, 0.07050692f, -0.00005149f, 0.03438960f, 0.09775446f, 0.03086538f, 0.05494672f, -0.09573181f,
    0.07953101f, -0.01780897f, -0.05502696f, -0.04898607f, 0.07392985f, -0.08206026f, -0.04310062f, 0.01843555f,
    -0.00109645f, -0.07080590f, -0.02493748f, 0.04310372f, 0.04751891f, -0.07338188f, 0.03600190f, -0.03053853f,
    -0.05038103f, 0.05407795f, 0.07801145f, -0.00599847f, 0.07701460f, -0.03077122f, -0.05439946f, 0.04650992f,
    -0.07097381f, -0.04609159f, -0.07188553f, 0.00982863f, 0.02255777f, -0.02296432f, -0.04013453f, 0.08601326f,
    -0.09077114f, 0.07302137f, -0.08767014f, 0.08722271f, 0.07820231f, -0.09401285f, 0.08026244f, 0.01603631f,
    -0.04977277f, 0.07194009f, 0.03062593f, -0.03745043f, 0.03304899f, 0.04093169f, -0.02020422f, -0.04712310f,
    -0.02980706f, 0.06654596f, -0.05911502f, -0.05258327f, 0.03251021f, -0.04490423f, -0.02104262f, -0.06304097f,
    0.03551781f, 0.03952044f, -0.05495941f, 0.06233890f, 0.07518023f, 0.08846831f, 0.03076426f, 0.07718433f,
    -0.06470244f, -0.01461880f, -0.04348740f, -0.05203971f, -0.01000595f, 0.00437344f, 0.00404617f, 0.08663975f,
    -0.05891155f, -0.08440735f, 0.02131952f, 0.04520378f, -0.02585466f, 0.04913389f, 0.01101227f, -0.01561159f,
    0.03070186f, 0.03751447f, 0.05000318f, 0.05417390f, 0.00768920f, -0.09737822f, 0.06116099f, 0.09127285f,
    -0.02977171f, -0.09045764f, -0.09685924f, 0.06875525f, -0.01983277f, 0.07289612f, -0.01525524f, -0.05120749f,
    0.01666707f, 0.01405419f, -0.00222318f, -0.06941147f, -0.03484931f, -0.02118553f, 0.09443232f, -0.01619190f,
    -0.07977822f, 0.03356251f, 0.06923254f, 0.02700424f, 0.08188803f, 0.06119435f, -0.01818972f, -0.01147066f,
    0.00076395f, 0.07886990f, 0.04605004f, 0.00903511f, 0.03457165f, -0.06616523f, 0.00919878f, -0.07330868f,
    -0.04980950f, -0.00372825f, -0.05077889f, 0.09271810f, -0.09556030f, 0.03834736f, -0.09614687f, 0.02313391f,
    0.04728940f, 0.07025360f, -0.03080617f, -0.07920583f, 0.00451860f, 0.05278334f, -0.09617081f, 0.06726364f,
    0.06242029f, -0.08668802f, -0.07405335f, 0.01251941f, -0.02436972f, 0.01899911f, 0.08635620f, 0.09125832f,
    -0.09880377f, -0.02215534f, -0.04706601f, 0.02204473f, -0.07573649f, 0.07414646f, -0.08463186f, 0.00803841f,
    -0.00568709f, 0.00746372f, -0.01182926f, -0.00563443f, -0.02822850f, -0.02542912f, -0.05364583f, -0.07305350f,
    -0.03193054f, -0.02641035f, 0.05759702f, -0.09395703f, 0.05998874f, -0.02244462f, 0.08322847f, 0.00800239f,
    -0.02555346f, 0.01904731f, -0.00902657f, 0.03521966f, 0.02552998f, 0.07622763f, -0.08226833f, 0.00467286f,
    0.01030402f, -0.00518172f, -0.07009871f, -0.08684029f, -0.05728915f, -0.09718549f, -0.01852502f, 0.06068413f,
    -0.05577687f, -0.00586132f, 0.02795245f, 0.07505661f, 0.04300386f, 0.02666497f, -0.06709552f, -0.08398642f,
    0.06017495f, -0.07635472f, 0.05350348f, -0.07144890f, 0.07059851f, -0.09277298f, 0.07763483f, 0.09103473f,
    -0.09331097f, -0.04435711f, -0.06362313f, 0.02888160f, 0.00211312f, -0.04834527f, -0.04115799f, -0.07468529f,
    0.02956492f, 0.01781384f, -0.01339837f, -0.07981123f, 0.06966456f, -0.04879670f, 0.06176416f, 0.09042897f,
    0.04220217f, 0.04183134f, -0.06693484f, 0.09113822f, 0.05079740f, 0.08071052f, 0.03937919f, 0.01202663f,
    -0.00617118f, -0.05874292f, -0.07292690f, 0.03728689f, -0.09492803f, 0.00902692f, 0.08128514f, 0.05763590f,
    -0.07762905f, 0.09330994f, -0.00922786f, 0.08972427f, 0.08012326f, 0.08990996f, -0.09279052f, -0.02455459f,
    0.08108918f, 0.00050312f, 0.00445228f, 0.07269360f, 0.05402758f, 0.01089332f, 0.04318966f, 0.03130151f,
    -0.07763856f, -0.05253954f, -0.02558428f, 0.00303941f, -0.03772347f, 0.06947797f, 0.08802855f, 0.00691847f,
    0.00023510f, -0.06471461f, 0.04148316f, -0.04065740f, -0.09068967f, -0.03682206f, 0.05336274f, 0.02571149f,
    -0.06853925f, 0.02625027f, 0.00097687f, -0.09783588f, 0.04489530f, -0.08687534f, 0.06194940f, -0.03181010f,
    -0.00355875f, 0.09623531f, 0.05061355f, 0.03542590f, -0.06079362f, 0.07241333f, 0.01568426f, 0.07793231f,
    0.06012840f, 0.06130126f, -0.04938621f, -0.07424636f, -0.06099390f, 0.08427598f, -0.09656737f, -0.01592767f,
    -0.09603105f, 0.04147359f, -0.03227956f, -0.03015569f, 0.08292120f, -0.09255526f, 0.02806457f, -0.00843923f,
    0.04798975f, -0.02094711f, -0.03619403f, 0.04582315f, -0.01655753f, 0.08349936f, 0.09062791f, -0.02288189f,
    0.00271422f, 0.06664708f, -0.05508727f, -0.08603599f, -0.05735750f, 0.01023480f, -0.08549561f, -0.04706029f,
    0.00943027f, 0.08364361f, 0.05035892f, -0.04088997f, 0.06611802f, 0.08266205f, -0.02849329f, 0.02598472f,
    -0.05119327f, 0.01762576f, -0.05813802f, -0.07736009f, 0.02865859f, -0.04546348f, -0.01232283f, -0.09742530f,
    -0.04873541f, -0.09898583f, -0.02834204f, 0.00182620f, 0.08406842f, 0.07544768f, -0.03383955f, 0.06358476f,
    -0.00957692f, 0.05698154f, -0.04063258f, -0.03262929f, -0.07545034f, -0.03940829f, 0.08562712f, 0.01707448f,
    -0.05782295f, 0.06139341f, -0.06246935f, 0.02078897f, -0.01195653f, -0.03797363f, 0.09445710f, -0.05436308f,
    -0.02351353f, -0.00681341f, -0.04584781f, -0.06823969f, 0.07941284f, 0.08628388f, -0.09857207f, 0.03810736f,
    -0.04500699f, 0.05715736f, -0.08597106f, -0.06654803f, 0.05810740f, 0.08850168f, 0.05672567f, -0.04780596f,
    0.03411753f, 0.08474065f, 0.07764571f, 0.09294932f, 0.08805525f, 0.07296880f, -0.07494334f, -0.01361173f,
    0.03160685f, 0.05673288f, -0.06610063f, 0.05867384f, -0.03700390f, -0.09413318f, 0.00037011f, -0.05407086f,
    -0.08124270f, -0.07247473f, -0.05648785f, 0.09510691f, -0.04375605f, -0.00556177f, -0.02319204f, -0.09822422f,
    -0.01818341f, -0.06230922f, 0.00968405f, 0.05067483f, 0.09953194f, 0.06552436f, -0.04551761f, 0.08525771f,
    0.09936162f, 0.06900658f, -0.03753511f, -0.02630782f, 0.09761696f, -0.04056914f, 0.07891750f, -0.05931763f,
    0.08091177f, -0.04761151f, -0.01360580f, 0.00453190f, 0.03644418f, -0.07543441f, -0.00639458f, -0.01794733f,
    -0.00480728f, -0.02683823f, 0.08789360f, 0.02738596f, 0.00335807f, -0.09750849f, 0.08488383f, -0.06774826f,
    0.06275015f, -0.08002180f, 0.00800458f, -0.03913068f, 0.05877895f, -0.02447759f, 0.04406316f, 0.01064012f,
    -0.04250393f, -0.02529284f, 0.02768034f, -0.07113897f, 0.00219270f, -0.05171956f, 0.05873254f, -0.07551505f,
    0.08727612f, 0.03594992f, -0.07805397f, -0.05453315f, 0.05456673f, -0.03499193f, 0.04020150f, 0.07668234f,
    0.00824552f, -0.05474662f, -0.08448296f, -0.09535661f, 0.06473448f, -0.03244603f, -0.01701946f, 0.03180900f,
    0.07897531f, -0.06453922f, -0.09017216f, 0.03466073f, 0.04842861f, 0.00215839f, -0.00488997f, -0.05756884f,
    -0.09603536f, -0.00764323f, 0.01915237f, -0.00103532f, 0.00765740f, 0.03486066f, -0.08710053f, 0.07043619f,
    -0.04833169f, -0.03998029f, 0.09386804f, -0.09555345f, 0.08608373f, -0.03095796f, 0.05101091f, 0.04340982f,
    0.01238395f, -0.02289312f, -0.00427197f, -0.01736151f, -0.02316632f, -0.08382268f, -0.02208400f, 0.03558371f,
    -0.08828668f, -0.07447287f, -0.04099677f, 0.05808086f, 0.03265842f, -0.07447255f, 0.04571361f, -0.07371974f,
    0.00721807f, 0.03403978f, 0.05048170f, -0.08331890f, -0.05893382f, 0.09565949f, -0.04876399f, 0.01736650f,
    -0.01693183f, 0.09133184f, -0.05755458f, -0.09490656f, -0.06877919f, -0.07875287f, 0.02884029f, -0.04689000f,
    -0.09557595f, -0.07408138f, 0.08893964f, -0.05305927f, -0.05949086f, -0.02220174f, -0.00388483f, 0.07053959f,
    0.09237202f, -0.08694052f, -0.00532618f, -0.00161119f, -0.05972842f, 0.07866297f, -0.07616221f, 0.05933753f,
    -0.04590746f, -0.07050174f, 0.08664397f, 0.00101352f, 0.04830072f, -0.05392559f, 0.02720220f, -0.05445910f,
    0.03675184f, 0.01720982f, 0.06081470f, 0.08146226f, -0.03937724f, 0.05283514f, -0.04286499f, -0.04079025f,
    0.07006603f, -0.00434095f, 0.02279647f, 0.03825798f, -0.03138418f, 0.07880139f, 0.02546266f, 0.06649963f,
    -0.05741392f, 0.08882321f, 0.04346067f, 0.05706405f, -0.01050762f, -0.00109804f, -0.00729226f, 0.03192332f,
    -0.05631119f, 0.01274346f, -0.01257561f, 0.04210087f, 0.03723780f, -0.01254497f, 0.04448802f, -0.02665027f,
    -0.07072295f, -0.08384650f, 0.07776033f, -0.06025027f, -0.01641666f, -0.06227563f, 0.00666329f, 0.00631443f,
    -0.08313860f, -0.02177181f, 0.09378939f, -0.09134559f, -0.02876620f, -0.00708712f, -0.03775486f, -0.00249972f,
    -0.04302561f, -0.06854156f, 0.09843636f, 0.06082871f, -0.06536361f, -0.04184967f, -0.05375839f, 0.05869184f,
    -0.05392318f, 0.03222522f, 0.06882747f, 0.04574256f, 0.00835007f, -0.07947161f, -0.06446202f, -0.00068362f,
    0.03801809f, -0.01531091f, 0.02392632f, -0.07191330f, -0.01043880f, 0.08462032f, -0.00783035f, -0.04272542f,
    0.03774175f, -0.08567759f, 0.00383025f, -0.02051278f, 0.08817659f, -0.00328422f, 0.06525687f, 0.05028662f,
    0.04361068f, 0.01372803f, -0.03604903f, 0.07230123f, -0.00297017f, -0.04386231f, -0.06986275f, -0.06497949f,
    -0.02057662f, -0.00432931f, 0.00725583f, 0.05084720f, 0.04015112f, -0.02136865f, -0.05674162f, -0.02110385f,
    0.02513877f, -0.03515812f, -0.00292614f, 0.09866774f, 0.04977737f, -0.02083820f, -0.02713286f, 0.06598862f,
    0.03019160f, 0.04047436f, 0.01876593f, -0.06014798f, -0.00984055f, 0.05071793f, -0.00505666f, -0.05948471f,
    -0.08047599f, 0.09743837f, -0.06730647f, -0.00488491f, -0.09721167f, 0.00289478f, -0.09807068f, 0.06947980f,
    -0.08476468f, 0.05546211f, 0.01829115f, -0.02031690f, -0.06437448f, -0.08686776f, 0.07529376f, 0.08725118f,
    0.08163426f, -0.09716395f, 0.04539219f, 0.04440777f, 0.03148342f, 0.03961370f, 0.07717773f, 0.07160416f,
    -0.09102384f, 0.04878615f, -0.08045091f, -0.08085149f, -0.04994917f, -0.03082567f, 0.09945682f, -0.00618385f,
    -0.01606063f, -0.07650980f, 0.07216208f, -0.03231338f, -0.00249341f, 0.00434799f, 0.07863113f, -0.04234133f,
    -0.04974578f, 0.08522208f, -0.03509640f, -0.09658828f, 0.06439203f, -0.02150600f, 0.08706800f, 0.02325900f,
    0.04909591f, -0.01389716f, -0.03038477f, 0.07062439f, 0.04240727f, 0.07689001f, 0.08202355f, -0.01367133f,
    0.06387277f, -0.07347725f, -0.01979706f, -0.02843199f, -0.07282694f, -0.03829012f, -0.08888348f, 0.02681762f,
    0.02172726f, -0.00101469f, 0.09227146f, 0.07674921f, 0.08923512f, 0.09057575f, -0.03290258f, -0.09323042f,
    0.08752276f, -0.05467924f, 0.08736960f, -0.07574238f, -0.01293675f, -0.08754183f, -0.06425325f, -0.05126933f,
    0.05836967f, 0.05285382f, -0.09947719f, -0.01520760f, 0.00662113f, 0.04994117f, -0.02620648f, -0.03405341f,
    -0.06340016f, -0.02137077f, 0.03146404f, 0.05356423f, -0.04104829f, 0.04049626f, 0.09176198f, 0.09613533f,
    0.06147206f, -0.09840151f, 0.04557192f, -0.04314546f, 0.03997204f, -0.07998303f, 0.06129297f, -0.02919496f,
    0.05238404f, 0.07169551f, 0.02769580f, -0.05202222f, 0.03973417f, -0.08359132f, -0.07928207f, 0.09815909f,
    0.06789305f, 0.02724862f, 0.02086842f, -0.06624243f, 0.05549542f, -0.01175107f, 0.07557265f, -0.09826686f,
    -0.00398630f, -0.03090848f, 0.06334914f, -0.05240039f, 0.05694813f, -0.00733925f, -0.01222496f, -0.00062602f,
    0.02556263f, -0.07229137f, -0.03358036f, -0.04596721f, -0.04092842f, 0.02161943f, -0.04993692f, -0.00327482f,
    -0.08973245f, -0.03465431f, 0.01940593f, 0.08388368f, -0.08494041f, 0.09899052f, 0.07042090f, -0.00390333f,
    -0.03040963f, -0.04234774f, 0.06022877f, 0.08633721f, -0.04132948f, -0.07053520f, -0.09473985f, 0.07684302f,
    0.05585669f, -0.00203480f, -0.09233830f, -0.04283540f, 0.04401996f, 0.09913770f, 0.05598940f, 0.04124416f,
    0.05317673f, 0.06172047f, -0.03479177f, 0.00003316f, 0.02277985f, -0.06201270f, -0.00061859f, 0.04407721f,
    0.06293199f, -0.08528277f, 0.07406737f, -0.03155392f, 0.09095174f, 0.06745181f, -0.04938840f, 0.02032812f,
    -0.03853575f, -0.06257822f, -0.01789454f, -0.09847802f, -0.08020838f, -0.00664167f, -0.02792974f, 0.01566024f,
    -0.04424766f, -0.09913873f, 0.09196035f, -0.08553689f, 0.03132090f, 0.03124498f, 0.00423328f, 0.05438675f,
    -0.02313998f, 0.05847887f, 0.01665279f, -0.04904309f, -0.01819950f, -0.06508243f, -0.04377859f, -0.00006648f,
    -0.01928699f, -0.01895745f, 0.00555315f, -0.08138197f, 0.00168222f, -0.07392901f, -0.05697760f, -0.01207517f,
    0.01250395f, -0.09926981f, -0.02975402f, -0.05025996f, -0.09579992f, 0.02421545f, 0.03402461f, -0.03907838f,
    0.00026178f, -0.04325960f, -0.05740026f, 0.03775387f, 0.01642312f, 0.00291575f, -0.04568777f, 0.02826456f,
    -0.03501005f, 0.00283033f, -0.03607166f, 0.01634052f, -0.08758219f, 0.03316423f, -0.02049986f, 0.02622281f,
    -0.00172925f, -0.03185657f, -0.02813809f, -0.09329929f, -0.04325376f, 0.09952046f, -0.01587616f, -0.02014962f,
    0.03947068f, -0.02574936f, 0.01373481f, 0.08008602f, -0.06653061f, -0.09805033f, -0.07222041f, -0.00478488f,
    -0.00092853f, -0.03487047f, -0.02398820f, -0.07367563f, -0.07107641f, 0.07554126f, -0.07182015f, 0.01007406f,
    0.07619033f, -0.09474339f, 0.06066874f, 0.04233218f, 0.00576715f, -0.05407224f, -0.08104608f, 0.02559349f,
    0.00077869f, -0.01341603f, 0.05614569f, -0.07769611f, 0.01007906f, 0.03576875f, -0.03881233f, -0.02343574f,
    0.04498355f, -0.06167978f, -0.03120432f, -0.04812242f, 0.02333233f, -0.03421983f, 0.00238529f, -0.08585788f,
    -0.03251949f, -0.07073361f, 0.03772992f, -0.05085049f, 0.08108838f, -0.08232460f, 0.04448561f, -0.01514261f,
    0.08777441f, -0.05015909f, 0.02565535f, -0.08634719f, 0.07821510f, 0.03722745f, -0.09393263f, -0.02301695f,
    -0.08124685f, 0.08120988f, 0.00110753f, 0.01449580f, -0.08777853f, -0.00167495f, 0.00824552f, -0.02919830f,
    0.07297138f, 0.02086622f, 0.02254917f, 0.00919451f, 0.01672947f, 0.09508526f, 0.05594423f, -0.07856196f,
    -0.04513428f, -0.02731301f, -0.06356483f, 0.09791239f, 0.09570044f, 0.09814892f, -0.04952428f, 0.00807670f,
    -0.04030950f, -0.09266994f, 0.02735477f, -0.03390843f, 0.02222310f, -0.08075609f, 0.00710917f, -0.00300654f,
    -0.08218588f, 0.08333088f, -0.03205692f, -0.00715389f, -0.03762591f, 0.07119192f, 0.08694207f, 0.04958576f,
    0.00366297f, 0.08000916f, 0.06335848f, 0.08509844f, -0.04775134f, -0.01999894f, -0.02429581f, 0.05815969f,
    -0.07458129f, -0.05779827f, 0.07195862f, -0.05742044f, -0.06291546f, 0.08576872f, -0.04388622f, -0.06170913f,
    -0.09355948f, -0.01150204f, 0.09832736f, -0.03836523f, 0.04769650f, -0.00720900f, -0.02147590f, -0.00921352f,
    -0.07714597f, 0.03204837f, 0.03314660f, -0.09445231f, 0.06896821f, -0.01102318f, 0.07493664f, -0.07413669f,
    -0.08316758f, 0.07913633f, 0.02174317f, 0.05379207f, -0.04462047f, -0.06923708f, -0.05276514f, -0.00445184f,
    0.02125937f, 0.09913997f, 0.09537467f, -0.04351494f, 0.00002507f, -0.06567466f, 0.05743263f, 0.04395287f,
    -0.06998304f, -0.07561897f, -0.01996634f, -0.04073302f, -0.00471774f, 0.06696605f, 0.00109819f, -0.06425277f,
    -0.06352559f, 0.07507166f, -0.01183676f, 0.05053278f, -0.02656106f, 0.09918364f, 0.03194642f, -0.09323362f,
    -0.01264805f, -0.04564226f, -0.02923563f, 0.01341747f, -0.03237838f, 0.03103018f, 0.05745801f, -0.01960642f,
    -0.02565639f, 0.02210633f, 0.03509603f, -0.09393424f, 0.08267864f, 0.05309531f, -0.02521157f, 0.00766513f,
    -0.07909808f, -0.00865587f, 0.05950786f, -0.07230242f, 0.07690801f, -0.00483096f, -0.07236451f, -0.04264439f,
    0.05020636f, 0.06634833f, -0.04852447f, -0.09500694f, 0.09372640f, -0.08692547f, 0.06680560f, 0.06623071f,
    0.08490602f, 0.09704677f, 0.00245113f, 0.08718038f, 0.07336479f, 0.08920348f, -0.03117347f, 0.05080241f,
    0.07172658f, -0.05736208f, 0.03140079f, -0.04421911f, 0.03450538f, 0.07389372f, -0.02396152f, -0.03119301f,
    -0.09047084f, 0.03952555f, 0.04763636f, -0.06311103f, 0.07604434f, 0.02216276f, -0.01173229f, -0.05451868f,
    -0.07713652f, -0.02317815f, 0.08571626f, -0.08325072f, 0.01603551f, -0.09668471f, -0.01158096f, 0.08795387f,
    -0.03640372f, 0.01924518f, -0.00345857f, 0.08640789f, -0.08874635f, 0.04682897f, -0.05835021f, 0.08651879f,
    -0.07954935f, 0.07811125f, 0.01140164f, -0.08119173f, -0.04400102f, 0.00983675f, -0.01939968f, 0.08539587f,
    -0.04849399f, 0.08490413f, -0.03847585f, -0.01826842f, -0.09158845f, 0.04531336f, 0.09733746f, -0.08879991f,
    0.05902277f, 0.03130731f, 0.07261447f, 0.01140358f, 0.08093583f, -0.09505071f, 0.03982019f, -0.04912214f,
    0.05619453f, -0.00176855f, -0.06628954f, 0.09771756f, 0.00223852f, 0.06813202f, -0.03540474f, -0.05939620f,
    0.09779121f, 0.09300753f, -0.01451315f, -0.02167556f, 0.02368131f, -0.00745342f, -0.01482947f, -0.02305924f,
    -0.02161820f, -0.09265240f, -0.03008174f, -0.08731031f, 0.04932305f, 0.05747246f, 0.04530165f, -0.04306723f,
    -0.05156149f, -0.02108959f, -0.08483942f, -0.09253414f, 0.05720204f, 0.09338472f, 0.09527723f, 0.09466743f,
    0.04243629f, 0.06006657f, 0.00698892f, 0.09686182f, 0.02063748f, 0.05648631f, 0.03983412f, 0.02040265f,
    -0.00127285f, 0.07313674f, 0.00462891f, 0.03413035f, -0.02444126f, 0.04529232f, -0.08272745f, -0.08053645f,
    -0.00674528f, -0.00231910f, -0.06189835f, 0.03191471f, -0.08679926f, 0.04810839f, -0.00560269f, 0.05507339f,
    -0.09992669f, -0.00446612f, -0.09212090f, -0.00358022f, -0.04651791f, -0.07023796f, 0.02144898f, 0.09996285f,
    -0.01741071f, 0.02176960f, -0.09330106f, 0.02139943f, -0.05850320f, 0.04319315f, 0.01543096f, 0.00256418f,
    0.09330616f, 0.00673733f, -0.05491639f, -0.07044788f, 0.08185910f, -0.09636333f, -0.06660515f, -0.01623099f,
    0.06445777f, -0.07344060f, -0.06665263f, -0.05790720f, -0.09713470f, 0.01404092f, 0.06565358f, 0.04464345f,
    -0.00098307f, -0.01373866f, -0.01198129f, -0.09640892f, 0.07973849f, -0.01911607f, 0.03066179f, -0.03787551f,
    0.04843551f, 0.02177246f, 0.06586891f, 0.07025684f, 0.03556938f, -0.02511531f, -0.09443568f, 0.08085521f,
    0.02377491f, -0.06338280f, -0.09166757f, 0.00025764f, -0.09144608f, 0.04900743f, -0.08120003f, -0.05602067f,
    0.04356266f, 0.01636687f, -0.05981064f, 0.03674655f, -0.05469527f, -0.00675788f, 0.06820824f, -0.07206696f,
    0.03396603f, 0.04909372f, -0.05917067f, 0.08102000f, 0.01050694f, 0.05724567f, 0.05407986f, -0.05255887f,
    -0.00756209f, 0.04737233f, -0.06703271f, 0.02318862f, -0.03640742f, 0.04514549f, 0.04207058f, 0.09994369f,
    -0.04673645f, 0.01195028f, 0.02930557f, 0.00889229f, 0.01677451f, 0.05402987f, -0.05406274f, -0.08683544f,
    -0.03236232f, -0.09196422f, -0.03429694f, 0.05184388f, -0.02790971f, -0.02276082f, 0.07721032f, 0.05566953f,
    -0.06886613f, -0.00100039f, -0.00447501f, -0.08375189f, -0.08610900f, 0.06377587f, -0.07901468f, -0.05483992f,
    0.01996871f, -0.04601375f, 0.01091548f, -0.00067221f, -0.05181854f, 0.06512635f, 0.05204963f, -0.00978796f,
    -0.06669416f, -0.00772437f, 0.00012772f, -0.04640475f, 0.04611136f, 0.05916399f, 0.04928678f, 0.01532840f,
    0.09535736f, 0.03467653f, 0.03817726f, 0.04964299f, 0.09837124f, 0.08708506f, -0.08844315f, 0.09481100f,
    0.07414693f, 0.08941889f, 0.06656598f, 0.03806486f, 0.09692868f, -0.07107299f, 0.09319708f, -0.01534138f,
    -0.03747058f, -0.03610060f, -0.02558086f, 0.07370966f, -0.01219480f, -0.03707907f, -0.05077104f, -0.08561802f,
    0.06782814f, 0.04313556f, -0.09391794f, 0.08279280f, -0.05475806f, -0.05188725f, -0.02095019f, 0.05060982f,
    -0.04421303f, 0.07801037f, -0.00493091f, 0.03701388f, 0.09349435f, 0.03221438f, 0.02018880f, -0.00994393f,
    -0.06528447f, 0.06061712f, -0.08483559f, -0.08704694f, 0.02646099f, 0.03668248f, 0.00486389f, 0.01558694f,
    -0.04498680f, -0.07396789f, -0.05846325f, -0.06281266f, 0.03918950f, -0.03564006f, -0.02052633f, 0.00762820f,
    -0.08019944f, -0.00630479f, -0.00975608f, 0.02689042f, 0.04828972f, 0.02285441f, 0.04182684f, -0.01463795f,
    -0.08782512f, 0.07255954f, 0.01549090f, -0.00173565f, -0.03438257f, -0.00144200f, -0.04725566f, 0.07146470f,
    0.04678644f, 0.01570562f, -0.09026136f, -0.07051247f, -0.06993984f, -0.09101330f, -0.08697249f, 0.07533173f,
    -0.03043078f, -0.06443091f, 0.05888950f, -0.01238158f, -0.09305550f, -0.01653315f, 0.01661344f, 0.04986731f,
    -0.05892078f, -0.00987970f, -0.04261255f, 0.09904434f, 0.01414608f, 0.00878721f, -0.07788207f, 0.06380194f,
    0.09616735f, -0.00825492f, -0.08352772f, 0.02865174f, -0.07559045f, 0.00094372f, -0.03306756f, -0.00095115f,
    0.05860255f, -0.00651324f, 0.02972792f, 0.00275046f, -0.09447912f, -0.09798952f, 0.04718708f, 0.07166959f,
    0.07800883f, -0.08860987f, -0.01775363f, -0.00251632f, -0.04312113f, -0.01071297f, 0.04725015f, -0.08140268f,
    -0.03783929f, 0.00779780f, 0.03911048f, -0.04151982f, 0.00011915f, -0.07110313f, 0.05147811f, -0.06948134f,
    -0.01233268f, 0.01991119f, 0.08992076f, -0.04673581f, 0.00115565f, 0.04589870f, 0.01756313f, 0.00997629f,
    -0.06976385f, -0.09066605f, 0.07075228f, -0.06761439f, 0.03795747f, 0.08757003f, -0.08549129f, -0.09987097f,
    -0.00538865f, -0.04871875f, 0.06032255f, -0.06153779f, 0.05374615f, -0.01741008f, 0.05718816f, 0.06218424f,
    -0.05084585f, -0.07608282f, 0.00506072f, 0.07766729f, 0.04941260f, 0.03167240f, 0.04003121f, -0.05962244f,
    -0.06126664f, 0.04354764f, 0.05672944f, 0.00100076f, -0.03980177f, 0.05324335f, 0.07432248f, 0.02818182f,
};

// Shape: (16,), dtype: float32
static const float stem_bn_gamma[16] = {
    1.00000000f, 1.00000000f, 1.00000000f, 1.00000000f, 1.00000000f, 1.00000000f, 1.00000000f, 1.00000000f,
    1.00000000f, 1.00000000f, 1.00000000f, 1.00000000f, 1.00000000f, 1.00000000f, 1.00000000f, 1.00000000f,
};

// Shape: (16,), dtype: float32
static const float stem_bn_beta[16] = {
    0.00000000f, 0.00000000f, 0.00000000f, 0.00000000f, 0.00000000f, 0.00000000f, 0.00000000f, 0.00000000f,
    0.00000000f, 0.00000000f, 0.00000000f, 0.00000000f, 0.00000000f, 0.00000000f, 0.00000000f, 0.00000000f,
};

// Shape: (16,), dtype: float32
static const float stem_bn_mean[16] = {
    0.00000000f, 0.00000000f, 0.00000000f, 0.00000000f, 0.00000000f, 0.00000000f, 0.00000000f, 0.00000000f,
    0.00000000f, 0.00000000f, 0.00000000f, 0.00000000f, 0.00000000f, 0.00000000f, 0.00000000f, 0.00000000f,
};

// Shape: (16,), dtype: float32
static const float stem_bn_var[16] = {
    1.00000000f, 1.00000000f, 1.00000000f, 1.00000000f, 1.00000000f, 1.00000000f, 1.00000000f, 1.00000000f,
    1.00000000f, 1.00000000f, 1.00000000f, 1.00000000f, 1.00000000f, 1.00000000f, 1.00000000f, 1.00000000f,
};

// Shape: (3, 3, 16, 16), dtype: float32
static const float stage0_block0_conv1_weight[2304] = {
    -0.04913835f, 0.03240490f, -0.05607980f, 0.07548236f, -0.07206183f, -0.01091752f, -0.06161798f, 0.05785033f,
    -0.01196360f, 0.08310660f, -0.02444981f, -0.00945654f, -0.00218785f, -0.07972517f, 0.03476388f, -0.01739513f,
    0.02698679f, 0.03745919f, 0.04878194f, -0.05586303f, -0.06990747f, -0.02081203f, -0.08270981f, -0.02757072f,
    0.07892419f, 0.01850851f, -0.02614735f, 0.02409865f, 0.01857302f, 0.07154839f, -0.01686101f, -0.07771249f,
    0.01210730f, -0.05178783f, 0.03210246f, -0.07793158f, -0.05251211f, 0.03414447f, -0.07318631f, -0.05292101f,
    -0.03908616f, -0.04181401f, 0.04348139f, -0.00676748f, 0.00236535f, 0.03491447f, -0.05856156f, 0.00055802f,
    0.01338997f, -0.04296957f, -0.00064458f, 0.04541468f, -0.04049072f, -0.02115031f, -0.05120795f, -0.01222412f,
    0.04523586f, 0.00778616f, 0.01680331f, -0.01422692f, -0.05779989f, 0.05132704f, 0.05010444f, -0.04350617f,
    -0.01006496f, 0.05532034f, -0.04144181f, 0.00185226f, -0.05095129f, 0.05642667f, -0.08227962f, -0.06852367f,
    -0.07178622f, 0.04657317f, 0.04290700f, -0.04808480f, -0.07541607f, -0.06718318f, 0.02174914f, -0.06500851f,
    0.06952670f, -0.05546878f, 0.01437678f, -0.04017725f, 0.02528320f, 0.07063886f, -0.02546408f, 0.04808751f,
    0.06403172f, -0.01525481f, -0.02310377f, -0.02789529f, -0.05271199f, -0.03625793f, -0.06733306f, 0.04549596f,
    0.06384501f, -0.06102502f, -0.01596303f, 0.08243413f, -0.04477365f, 0.06585019f, -0.06463861f, -0.00056953f,
    -0.00569763f, -0.02625201f, -0.06819483f, -0.07960912f, -0.05974513f, 0.00791024f, -0.05533568f, -0.07608047f,
    0.04895326f, 0.03626416f, -0.00891508f, -0.04921073f, 0.02443848f, -0.00528088f, 0.04950652f, 0.07085865f,
    -0.00432323f, -0.06853028f, -0.00928727f, -0.00245699f, 0.03827573f, 0.03450165f, 0.00810609f, -0.00060323f,
    -0.04591708f, 0.07605197f, -0.01030606f, -0.00971364f, -0.04537794f, -0.04805071f, 0.04239365f, 0.02199770f,
    -0.06641366f, -0.03280653f, -0.01421636f, -0.02357858f, 0.01981514f, -0.01249872f, 0.06299349f, -0.03810135f,
    -0.08078982f, -0.04707138f, 0.00569530f, 0.03529314f, 0.04414317f, 0.02265738f, 0.02624240f, -0.05357536f,
    0.01875073f, 0.07904223f, 0.07465474f, -0.01149189f, -0.01926765f, -0.00376399f, -0.06541032f, -0.01365886f,
    0.05897036f, -0.00977617f, 0.03486310f, -0.07632291f, -0.07258671f, 0.07927613f, -0.06701833f, -0.05293243f,
    0.03630512f, -0.05395019f, -0.04430250f, 0.06109071f, 0.01910805f, 0.05846779f, -0.03260555f, -0.03086973f,
    0.03748261f, -0.07695670f, -0.08067932f, -0.06095892f, 0.05104728f, 0.03872359f, -0.00901436f, -0.05223952f,
    0.03241725f, 0.03908068f, -0.02635959f, -0.02904083f, 0.02567280f, -0.01504193f, -0.05064239f, 0.07193995f,
    0.06820452f, 0.01960166f, -0.03495615f, 0.02523139f, -0.07400773f, -0.02002453f, 0.05039149f, 0.06723714f,
    0.04350228f, 0.01912422f, 0.01515137f, -0.05902995f, -0.05182778f, 0.00070995f, -0.00502775f, -0.02278203f,
    -0.00142439f, -0.03690039f, -0.01685412f, -0.02582472f, -0.05721223f, -0.04918582f, 0.00516422f, 0.00059321f,
    -0.00583078f, 0.02804148f, -0.03359311f, 0.06795486f, -0.05477741f, 0.06290902f, 0.05138271f, 0.02649148f,
    -0.01017585f, 0.08238658f, 0.06784280f, -0.05399538f, 0.05858933f, 0.02902557f, -0.08204641f, -0.07011904f,
    -0.06288771f, -0.02541132f, -0.01270324f, -0.04271346f, 0.00280223f, -0.07142722f, -0.01538271f, 0.05404230f,
    0.00805869f, 0.03681583f, 0.00200684f, -0.02760287f, 0.06847949f, 0.01439380f, 0.06431191f, 0.00946898f,
    -0.00970556f, -0.01904326f, -0.04856479f, -0.01747449f, 0.02457573f, 0.03152109f, 0.01764565f, -0.01021290f,
    0.03236299f, 0.05890309f, -0.04862347f, 0.06992681f, 0.03493884f, -0.03156049f, -0.00434452f, 0.02553737f,
    -0.06872527f, -0.01461248f, -0.01846810f, 0.02205732f, -0.04198949f, -0.04762059f, 0.00843815f, -0.02256725f,
    -0.04507285f, -0.03591876f, -0.00727115f, 0.00078672f, -0.06490321f, 0.06161052f, -0.03881822f, -0.07395482f,
    0.07390066f, 0.01575714f, -0.03947566f, 0.07815655f, -0.00903260f, 0.05454447f, 0.03091526f, 0.02080351f,
    -0.03587822f, -0.05242661f, -0.02925765f, -0.08126865f, 0.07448278f, 0.06077477f, -0.03255440f, -0.05818943f,
    0.05287665f, 0.02196512f, 0.01957547f, -0.00688377f, 0.02611768f, -0.06589605f, -0.05643655f, -0.02544459f,
    -0.04402658f, -0.02961325f, 0.06883799f, -0.07211086f, -0.00051234f, 0.08082731f, 0.07396099f, 0.02124575f,
    -0.04270323f, -0.05868521f, 0.05839054f, -0.03582352f, 0.00018193f, 0.05288747f, -0.05578604f, -0.04510614f,
    0.01796257f, -0.00047649f, -0.04081699f, 0.02444284f, -0.08293919f, 0.02432659f, -0.02741032f, -0.07983117f,
    0.05206458f, 0.02991625f, 0.07900386f, 0.00892854f, 0.04224376f, 0.01351778f, 0.05985265f, 0.07825892f,
    -0.01130614f, -0.05009472f, -0.00577788f, -0.05443013f, 0.00619903f, -0.06119046f, -0.04320621f, 0.07405400f,
    0.05568829f, -0.06439093f, -0.05397183f, 0.03118333f, -0.01385735f, -0.06932529f, 0.04674199f, -0.06132970f,
    -0.00454237f, 0.03739349f, -0.00535796f, -0.07069816f, -0.00199280f, 0.05612340f, -0.07386222f, -0.04761387f,
    -0.05878736f, -0.04034929f, -0.00524082f, -0.02830440f, 0.06830385f, 0.05687600f, 0.02445769f, -0.05688281f,
    -0.00762432f, -0.07650059f, 0.04134062f, 0.03067721f, 0.01597528f, -0.06929398f, -0.00711684f, -0.04166111f,
    -0.05801253f, -0.02418819f, 0.06065928f, 0.03406594f, 0.03645527f, 0.06867655f, -0.02979350f, 0.02130871f,
    0.05935190f, -0.06528503f, 0.02573627f, -0.05483579f, 0.04897526f, -0.06755166f, -0.02586533f, -0.00296410f,
    -0.00298798f, -0.02612599f, -0.06729425f, 0.05555780f, -0.02460993f, -0.05700795f, -0.03108584f, -0.06436519f,
    -0.01459805f, 0.05160826f, 0.06401215f, 0.01051005f, -0.07161098f, -0.04920468f, -0.03423592f, -0.05229165f,
    0.07252222f, 0.07857307f, 0.01547936f, 0.07490730f, 0.03898750f, 0.00730333f, 0.08041771f, -0.03920397f,
    -0.04795799f, 0.01991754f, 0.02612116f, -0.02339114f, -0.08236870f, -0.02528594f, -0.04997633f, 0.02798968f,
    0.01058362f, -0.08139557f, -0.07228775f, 0.03829302f, 0.03120701f, -0.00381075f, 0.03666925f, -0.05970728f,
    0.04308913f, -0.06313439f, 0.00232893f, 0.03192002f, -0.07452007f, 0.01732972f, 0.04522418f, 0.01017353f,
    -0.07116339f, 0.03943491f, 0.01501685f, -0.07230596f, -0.03633239f, 0.05912025f, 0.01267233f, -0.00645828f,
    0.00498569f, 0.03950488f, 0.00489683f, -0.07636904f, 0.05177578f, -0.04544921f, -0.05212772f, 0.03597826f,
    -0.07806566f, 0.06465729f, 0.03060042f, 0.02753845f, 0.02041986f, 0.06917035f, -0.03516531f, 0.04579616f,
    -0.02036671f, 0.07589757f, -0.08036076f, -0.07003850f, 0.06727333f, 0.00852512f, 0.01360716f, -0.04402927f,
    0.05402465f, -0.08318158f, -0.02221664f, -0.08020520f, -0.04209406f, 0.08203891f, -0.04482798f, 0.06424919f,
    -0.05173396f, 0.02814506f, -0.02034966f, -0.07911962f, 0.03258318f, 0.05963372f, -0.05184193f, -0.01695606f,
    0.00411904f, -0.05437903f, 0.02499609f, 0.08319171f, 0.07933310f, 0.03100594f, 0.05452664f, -0.00543671f,
    0.03439496f, -0.06125246f, 0.02080052f, 0.04717542f, 0.03184974f, 0.00720004f, -0.07952262f, 0.04321446f,
    0.04171550f, -0.06263885f, -0.05098435f, -0.07796498f, -0.00289323f, 0.02036952f, -0.04299944f, 0.04710853f,
    0.02002398f, -0.08188564f, 0.05258387f, 0.08014910f, -0.05848454f, 0.05092382f, 0.04828821f, 0.01672982f,
    0.01342558f, -0.05469732f, -0.02132797f, -0.07766898f, -0.02309206f, 0.06121720f, -0.03871670f, -0.04338825f,
    0.06317875f, -0.00766140f, -0.00214263f, 0.01083526f, -0.06631486f, -0.03883506f, 0.02751927f, -0.05103518f,
    0.05213956f, 0.03997846f, 0.02651083f, 0.06624945f, 0.02835423f, 0.07089001f, 0.05062516f, 0.06488791f,
    -0.01172619f, 0.04327385f, 0.00306431f, 0.00780373f, -0.04524442f, 0.04315912f, -0.00046098f, -0.07054260f,
    -0.06383922f, 0.07500701f, 0.01797864f, 0.07411268f, -0.02640183f, 0.00140817f, 0.07251253f, 0.07383069f,
    -0.00715122f, 0.03733338f, -0.03086888f, 0.04141565f, -0.00372590f, 0.03015370f, -0.06051198f, 0.02522088f,
    -0.07066490f, 0.06057923f, -0.04692654f, -0.01593277f, -0.00965122f, 0.03631542f, 0.08245090f, -0.00102135f,
    0.00319802f, -0.07991915f, -0.04294184f, 0.01892743f, -0.00431536f, -0.00863853f, -0.06309302f, -0.07654916f,
    0.05144067f, 0.05660471f, 0.04081763f, -0.03465126f, 0.00447389f, -0.04939494f, -0.01946583f, -0.02094489f,
    0.00062703f, 0.00728731f, -0.00898478f, 0.02790259f, 0.08330678f, -0.02435665f, -0.06897081f, -0.01738183f,
    0.01768766f, -0.01947663f, 0.03892025f, 0.03060136f, -0.01283545f, -0.08055042f, -0.05628713f, 0.07201825f,
    0.01052651f, -0.07302278f, -0.03153550f, -0.03165744f, -0.06294948f, -0.06838151f, 0.07048351f, -0.06472208f,
    -0.06111551f, -0.07219550f, 0.01283733f, 0.00444918f, -0.01183176f, -0.05737446f, -0.02901098f, -0.04785689f,
    0.05183681f, 0.00064662f, 0.07336193f, -0.07942697f, -0.06234333f, -0.03156526f, 0.05965460f, 0.04068687f,
    -0.07747596f, -0.08095112f, 0.07584837f, 0.02248359f, 0.00369017f, -0.03730183f, 0.05621533f, -0.01537417f,
    -0.00232617f, 0.07532287f, -0.02870463f, -0.00066837f, -0.07738340f, 0.05405503f, -0.02187740f, 0.01440061f,
    0.00038261f, 0.06468143f, 0.01948826f, 0.00031362f, 0.04101289f, -0.02187344f, 0.01005206f, -0.04964000f,
    0.00228009f, 0.02287007f, 0.06548791f, -0.06439091f, -0.01022309f, 0.07680866f, -0.04592794f, 0.03456765f,
    -0.05819499f, -0.02510126f, -0.06411551f, 0.03567776f, -0.04721148f, 0.03994676f, -0.02668609f, -0.01526823f,
    0.00093113f, -0.06089467f, -0.05975071f, -0.04164970f, -0.01659833f, 0.03242760f, -0.03947690f, 0.07812451f,
    -0.02685971f, 0.07020214f, 0.01548123f, -0.05079595f, 0.07380667f, 0.08300528f, 0.06062391f, 0.07000512f,
    0.02630940f, -0.05003982f, 0.05850206f, 0.03861837f, -0.03480981f, -0.06693156f, -0.05282840f, -0.00519428f,
    0.08191462f, 0.01861441f, -0.00201787f, 0.03035624f, 0.00163201f, 0.05536972f, 0.03131444f, -0.05194614f,
    -0.03779833f, 0.03214165f, 0.00714661f, 0.00139957f, 0.04998985f, 0.06269974f, 0.03096349f, 0.07611226f,
    -0.02835602f, 0.06902447f, -0.05474135f, -0.08048433f, -0.07924964f, -0.05974407f, 0.08166650f, 0.06193625f,
    -0.06971242f, 0.02910832f, 0.03986886f, -0.04846926f, -0.01965977f, 0.02786849f, 0.03742120f, -0.04308630f,
    -0.07752337f, -0.04828846f, -0.04282195f, -0.08000039f, 0.02162343f, -0.05268317f, 0.00858357f, -0.05035099f,
    -0.04909708f, -0.00213202f, 0.05188407f, 0.06732081f, 0.02648929f, 0.01802037f, 0.07781344f, -0.05230173f,
    0.00326675f, -0.02373187f, -0.08197912f, 0.01794925f, 0.00468997f, -0.00439522f, 0.02628981f, 0.07518979f,
    0.02801874f, -0.06760669f, 0.06872132f, -0.06308100f, -0.08048904f, -0.00006658f, -0.04116222f, -0.03045586f,
    0.03351787f, -0.00144111f, 0.07399877f, -0.06304141f, 0.07472116f, -0.02370279f, 0.05091595f, -0.08122265f,
    0.05658129f, -0.03359626f, 0.07088268f, -0.01491969f, -0.03842077f, 0.01094484f, -0.00472093f, 0.03988227f,
    -0.03246179f, -0.06637873f, 0.07202725f, 0.06996896f, 0.04816362f, -0.01440955f, -0.05134062f, -0.03203040f,
    -0.04852303f, -0.03604489f, -0.00342134f, 0.00641385f, 0.01345327f, 0.06602900f, -0.05887343f, -0.07703804f,
    -0.07495763f, -0.01884105f, -0.04422840f, 0.03551430f, 0.04064927f, 0.00924438f, -0.05697483f, 0.05480093f,
    0.03162488f, 0.07659525f, 0.03049627f, 0.06941297f, 0.04403415f, 0.02002939f, 0.01231143f, -0.04386034f,
    0.03461558f, -0.04929140f, 0.03712482f, 0.04497722f, -0.02746056f, -0.00317087f, -0.07773376f, -0.03862420f,
    0.01368069f, 0.07479653f, 0.05298301f, -0.01098903f, 0.03402153f, 0.08292457f, 0.05831694f, -0.00952542f,
    0.06690770f, 0.00844732f, 0.04293948f, 0.01082613f, -0.00532663f, 0.07467931f, 0.05558662f, 0.02723481f,
    0.02217252f, -0.05158298f, -0.02266532f, -0.07190128f, -0.05097019f, 0.01353728f, 0.06125660f, 0.01719201f,
    0.04855597f, -0.03893247f, -0.06873181f, 0.05387613f, 0.02437628f, 0.00981024f, -0.03119730f, -0.04606175f,
    0.02428025f, 0.02769786f, -0.06809208f, -0.06750076f, 0.07356186f, 0.06423005f, 0.02110085f, 0.05928169f,
    -0.05827688f, 0.08238146f, 0.04063649f, 0.03798700f, 0.03837026f, 0.06511094f, 0.03024138f, -0.02564655f,
    0.01461783f, -0.06881258f, -0.00157574f, -0.00543192f, 0.03301976f, 0.03363357f, -0.04857248f, 0.03381480f,
    -0.03457427f, 0.06461730f, 0.02613484f, 0.05016957f, -0.06316502f, 0.06448762f, 0.04725521f, -0.06876957f,
    -0.00996977f, -0.06904584f, -0.02596118f, 0.02031881f, -0.05585595f, 0.07982539f, 0.02636028f, 0.00183708f,
    0.00506240f, -0.03443777f, -0.06141179f, 0.02575236f, -0.06095483f, -0.07749833f, 0.02762973f, -0.05629168f,
    -0.02655485f, -0.01014905f, -0.06669307f, 0.03496930f, 0.07410434f, -0.03278622f, -0.00754610f, -0.00845349f,
    -0.06940523f, -0.07175328f, -0.06682142f, -0.06225141f, 0.04300695f, 0.01089457f, 0.04571420f, -0.06909194f,
    0.00588257f, -0.06730212f, 0.03032409f, 0.04048346f, -0.02898259f, -0.06956302f, 0.00038296f, -0.04303544f,
    0.02078165f, 0.01089787f, -0.04682077f, 0.06018016f, -0.06753433f, -0.05877197f, 0.02974932f, -0.04418702f,
    0.02513656f, -0.00606946f, -0.02584162f, -0.07706876f, 0.00037194f, 0.03414530f, 0.04914684f, 0.00572120f,
    -0.02198884f, -0.05309295f, -0.01069454f, -0.07466649f, 0.04607631f, -0.05376949f, -0.01221469f, 0.03832805f,
    -0.04019499f, 0.01177306f, 0.02457318f, -0.07607582f, 0.00495337f, 0.08069256f, -0.07579118f, -0.07608977f,
    0.00432658f, 0.06913830f, 0.07103103f, -0.02170556f, 0.03181278f, 0.01806048f, -0.00364443f, 0.04961981f,
    0.07501741f, 0.07619848f, 0.01706341f, 0.02448422f, -0.00443347f, -0.03690853f, 0.03828704f, 0.07243972f,
    -0.05243735f, -0.07840376f, -0.00007823f, -0.06335491f, -0.02644140f, 0.08206517f, -0.07898995f, 0.01421063f,
    -0.07935815f, 0.00949468f, -0.02455622f, -0.06323491f, -0.01697513f, 0.03250642f, 0.04093643f, -0.05316687f,
    -0.01741416f, 0.02611507f, 0.03370201f, 0.01556616f, -0.03780486f, 0.04833071f, 0.03264397f, -0.01872498f,
    0.07083642f, 0.00264920f, 0.06089082f, 0.02492969f, 0.07465051f, 0.02734008f, -0.06477492f, 0.07120405f,
    -0.08046314f, 0.00153234f, 0.04701378f, 0.01593113f, 0.02640198f, 0.06801792f, 0.04099016f, -0.03546914f,
    0.00118670f, 0.04983854f, -0.05926055f, 0.01814542f, 0.04534867f, 0.04577955f, 0.00669985f, 0.02331777f,
    0.06807373f, -0.06520614f, -0.04852844f, -0.03261567f, -0.03344467f, 0.02521549f, -0.02432121f, -0.04855915f,
    -0.00492087f, -0.07120620f, 0.00677516f, -0.03976015f, -0.04226555f, 0.08243316f, -0.00582182f, -0.07431140f,
    -0.03651538f, 0.02377479f, 0.06855603f, 0.02976758f, 0.04783791f, 0.05819567f, 0.01709439f, -0.02977573f,
    -0.05190870f, 0.06629615f, 0.06103572f, 0.04963614f, -0.06695120f, -0.00229530f, 0.04530675f, -0.03771356f,
    -0.05231323f, 0.05909484f, 0.00606538f, -0.07170798f, 0.02891068f, 0.07798918f, 0.04890608f, -0.07506086f,
    -0.00334753f, 0.03803266f, 0.07389446f, 0.08038604f, -0.06857168f, 0.06462814f, 0.02965887f, -0.04953827f,
    0.02095605f, 0.05637839f, 0.07606703f, -0.03399765f, -0.05008653f, -0.05809119f, 0.00801859f, 0.07454734f,
    -0.04771867f, 0.03801312f, -0.01856941f, -0.00557769f, -0.04923160f, -0.05094083f, 0.00671621f, 0.01487356f,
    -0.03407355f, 0.04065165f, 0.02519639f, -0.04548630f, -0.08158241f, 0.01765608f, -0.08218034f, 0.08225474f,
    0.04347312f, -0.01367145f, -0.01692680f, -0.05487477f, 0.04280275f, -0.02402706f, 0.02865335f, -0.02055818f,
    -0.07144501f, 0.07388356f, 0.06985378f, 0.04764403f, -0.03641274f, 0.00935825f, -0.01970633f, -0.05377854f,
    -0.02605345f, 0.05355847f, 0.01668136f, 0.03494571f, -0.05794477f, -0.01764135f, -0.07952517f, 0.05387383f,
    -0.01910503f, 0.03842046f, 0.03330564f, 0.02537330f, 0.00628182f, 0.06822628f, 0.05423054f, -0.00941730f,
    -0.08153082f, -0.08093491f, 0.05360379f, 0.02863542f, -0.01369818f, -0.02426596f, 0.02592046f, 0.05578827f,
    0.07907444f, -0.00853114f, -0.06032937f, -0.02116909f, 0.06007692f, -0.04000153f, -0.00428311f, -0.05285688f,
    -0.08065640f, 0.03617537f, -0.07482669f, 0.01023877f, -0.03961339f, 0.03003192f, -0.01655841f, -0.04859072f,
    -0.07643808f, 0.03418362f, 0.07229304f, 0.01939735f, 0.03037893f, -0.03634645f, 0.02162617f, 0.05004514f,
    0.03930586f, 0.01498380f, 0.04106627f, -0.06576882f, 0.01905952f, 0.00388543f, -0.04960907f, -0.00655516f,
    -0.03976440f, -0.06876799f, -0.05649292f, -0.04383706f, 0.00016285f, -0.05769034f, 0.05164521f, 0.02985646f,
    0.05611677f, 0.03222885f, -0.07819041f, 0.01494415f, 0.07490852f, 0.07384315f, 0.03291722f, -0.00278245f,
    0.01409557f, 0.01358685f, 0.05132770f, 0.06561936f, 0.05410857f, 0.03083907f, 0.06321016f, -0.03233607f,
    0.05777711f, 0.06890427f, 0.06431307f, 0.03140842f, -0.07699387f, 0.01891986f, -0.06387080f, 0.05223068f,
    -0.02616581f, -0.03018801f, 0.06050222f, -0.07839953f, -0.06807914f, -0.01377401f, 0.07410184f, -0.04806887f,
    0.03317579f, -0.00268215f, 0.04819772f, 0.03412349f, -0.02830617f, -0.04296701f, 0.01758149f, 0.05503776f,
    0.01498482f, 0.01778676f, -0.08040386f, 0.02858970f, 0.02996734f, -0.06426604f, -0.03557378f, 0.01121782f,
    -0.02943453f, -0.02036314f, 0.01262077f, -0.01084647f, 0.02092737f, 0.05236515f, 0.02708012f, -0.02991804f,
    -0.02037278f, 0.04623475f, 0.05804309f, 0.06108169f, 0.05287748f, -0.04988551f, -0.06065575f, -0.07140493f,
    0.07966217f, -0.04225856f, -0.00176672f, -0.07645537f, 0.05747898f, 0.00543655f, -0.03894578f, -0.01127542f,
    -0.01297926f, 0.03837278f, -0.04274429f, -0.02442772f, 0.05927871f, 0.07260474f, 0.01952245f, -0.01308653f,
    0.01424364f, -0.02593151f, -0.04455483f, 0.07225974f, 0.07481313f, 0.00928075f, -0.07788849f, -0.05289550f,
    0.01748346f, -0.02105603f, 0.04754366f, -0.00195637f, 0.03451210f, -0.05870605f, -0.05109177f, 0.05368432f,
    0.00103920f, 0.02339985f, -0.07420465f, -0.01154129f, 0.05236790f, 0.05417484f, -0.06960192f, 0.04883044f,
    0.03289981f, 0.05272018f, -0.07821282f, 0.04065651f, -0.04327342f, -0.05195309f, -0.03434524f, -0.02526448f,
    -0.08301001f, 0.03929396f, 0.07298575f, -0.02092629f, -0.06120158f, 0.03750799f, 0.03915109f, 0.00790881f,
    0.05798721f, 0.03760043f, 0.08110519f, -0.02545109f, -0.03377667f, -0.03434600f, 0.02014010f, -0.02582194f,
    -0.02271491f, -0.05901584f, -0.05383320f, 0.03143049f, 0.07310351f, 0.00305338f, 0.05428424f, -0.07658282f,
    0.05330427f, 0.00841582f, -0.01887417f, 0.03691610f, 0.02110958f, -0.02012767f, 0.06085389f, -0.00861570f,
    -0.00911663f, 0.00584874f, 0.03335786f, -0.01702354f, 0.02627080f, 0.01050277f, 0.01628507f, -0.05529249f,
    0.03647694f, 0.01315831f, -0.06887186f, 0.03392793f, -0.01483891f, 0.07600394f, -0.07884033f, -0.05398801f,
    -0.02238341f, -0.07150151f, 0.02363263f, -0.03458288f, -0.02777060f, 0.03452663f, -0.02987045f, -0.00036870f,
    0.00012101f, 0.02980867f, -0.06148038f, -0.02131110f, -0.06677321f, 0.07616369f, -0.03489321f, -0.03430825f,
    -0.06943789f, 0.01275017f, 0.07649087f, -0.00663134f, 0.02185253f, -0.02864882f, -0.02907565f, 0.03160709f,
    -0.02299257f, 0.04037058f, 0.08096035f, 0.05207036f, 0.00900475f, 0.01576031f, 0.03165422f, -0.01088179f,
    -0.08043350f, -0.05444162f, -0.07256957f, -0.02129530f, -0.06539252f, 0.02110165f, -0.00278252f, 0.04499870f,
    0.06477898f, -0.05719521f, 0.05450091f, -0.05475238f, 0.03208079f, 0.01644949f, 0.07458223f, -0.08331577f,
    -0.03646084f, -0.03706744f, 0.05320365f, 0.07633083f, 0.06772301f, -0.05903021f, 0.01989614f, -0.02716573f,
    -0.05230062f, -0.00569337f, -0.06332938f, 0.07379110f, -0.06581407f, -0.01996391f, -0.04258848f, 0.06405371f,
    0.04691067f, 0.05960941f, -0.07416362f, -0.06042404f, -0.07515137f, -0.06778672f, -0.06711604f, -0.02263098f,
    -0.04539619f, 0.07206210f, -0.02276682f, -0.06934424f, 0.06729719f, -0.06360232f, -0.03328959f, 0.06967334f,
    0.00364412f, -0.00952525f, -0.06115010f, -0.05098938f, 0.01580914f, -0.02209842f, 0.00616385f, 0.01295726f,
    -0.04532496f, -0.06258115f, -0.08200268f, -0.05407342f, 0.07877713f, 0.00845576f, 0.07330136f, -0.07816513f,
    -0.00846910f, -0.04784658f, 0.01289548f, 0.05658928f, 0.07475987f, -0.07757349f, -0.06694119f, 0.04528854f,
    0.01822738f, 0.05644660f, -0.02489575f, -0.00292806f, 0.04342220f, -0.06742524f, 0.04230564f, 0.06242623f,
    0.05538496f, -0.03812763f, 0.01367227f, -0.03027407f, -0.04783436f, -0.03947484f, 0.03022444f, 0.06208073f,
    -0.07475530f, 0.06669074f, 0.02662040f, 0.07894248f, 0.02375236f, -0.06042525f, 0.04185131f, 0.01431349f,
    0.07361075f, -0.01197687f, 0.02399569f, 0.02706118f, 0.07682105f, 0.02833670f, 0.05975506f, -0.04614605f,
    -0.07272771f, 0.00886090f, -0.03948367f, -0.03988845f, 0.03512433f, 0.06031102f, 0.00990155f, -0.01318219f,
    -0.01807550f, -0.00121101f, 0.08190522f, 0.01118855f, 0.03913870f, 0.04441374f, 0.05546529f, 0.03541843f,
    -0.05392075f, 0.03246570f, -0.06203360f, 0.04699781f, -0.06121103f, -0.05665421f, -0.06700973f, -0.04808721f,
    -0.07836796f, -0.01111971f, 0.05928537f, 0.05973480f, 0.00155814f, -0.00853294f, -0.00703092f, 0.00469212f,
    0.01183597f, 0.04385821f, 0.06848788f, 0.03675329f, -0.03562465f, 0.07916843f, 0.05149795f, 0.04529747f,
    -0.07462781f, 0.03789137f, -0.04859255f, 0.04938062f, -0.02190584f, 0.05617028f, -0.05745673f, 0.05413378f,
    -0.02767110f, -0.06590194f, 0.04562578f, -0.04723895f, -0.05591312f, -0.03496116f, -0.00856678f, 0.00254434f,
    0.00468682f, 0.01307788f, -0.05392440f, 0.05307002f, 0.00040801f, 0.00489925f, 0.07645517f, 0.08121999f,
    0.07189889f, -0.00508541f, 0.03428152f, -0.03247772f, -0.02665387f, 0.07019290f, -0.08174878f, 0.04702052f,
    0.07881417f, 0.07708040f, 0.01384536f, 0.08245950f, -0.02604415f, -0.03627489f, 0.07729128f, -0.04325785f,
    -0.01771262f, 0.01852626f, 0.03283950f, 0.06000086f, 0.05456330f, 0.07061216f, -0.01586988f, 0.00523402f,
    0.08055374f, 0.00230391f, -0.01311725f, 0.06546285f, 0.00163279f, -0.00243232f, -0.00065217f, -0.03330611f,
    0.02952950f, 0.05970965f, -0.08075743f, -0.01051915f, 0.02118163f, 0.03946258f, -0.06945672f, -0.05028568f,
    0.05642398f, -0.01745197f, 0.07410907f, 0.04919147f, 0.07739174f, 0.02277324f, 0.04543161f, -0.05976842f,
    -0.04768571f, -0.04419052f, -0.05424919f, -0.03895038f, -0.02869006f, -0.07991913f, -0.06082984f, 0.00960935f,
    0.06023058f, -0.07066779f, -0.02562480f, 0.02158188f, 0.06188776f, -0.01649310f, 0.06853639f, -0.00441382f,
    -0.02224476f, -0.06616275f, 0.02234396f, -0.06112573f, 0.03300251f, -0.00187323f, 0.00214578f, 0.05128630f,
    0.02116507f, -0.02135496f, 0.05699284f, -0.05375948f, -0.02158057f, 0.04609485f, 0.04380600f, -0.05423890f,
    -0.01548634f, 0.03174475f, 0.02355177f, -0.04744754f, -0.07142183f, 0.04137996f, 0.03580001f, -0.06300255f,
    -0.00896731f, -0.05583293f, 0.06658774f, -0.02115366f, -0.03278982f, 0.02989816f, 0.06163899f, -0.01460066f,
    0.00345607f, 0.01065677f, 0.04649508f, 0.05579998f, 0.02658658f, -0.05240611f, -0.03842744f, 0.06077850f,
    -0.01727459f, -0.06415561f, -0.02974470f, -0.01619475f, -0.08215101f, -0.00612776f, 0.06931056f, 0.02368596f,
    -0.05567921f, 0.00848793f, -0.02113559f, -0.07606967f, -0.06279402f, 0.05339587f, 0.04173255f, -0.06068036f,
    -0.01792907f, -0.04622970f, -0.03690714f, 0.03612628f, 0.03779232f, -0.03389272f, 0.06038977f, 0.06728064f,
    0.02816431f, -0.03483009f, -0.08301425f, 0.02037867f, 0.00730015f, 0.07766303f, -0.07517263f, -0.00200840f,
    0.08256993f, 0.01757601f, 0.00486644f, 0.02680401f, 0.05499484f, -0.05766104f, -0.06942072f, 0.01054283f,
    0.00502314f, 0.07772868f, -0.08259113f, -0.02708386f, -0.00823130f, -0.07650948f, 0.06676230f, 0.02247041f,
    -0.02197110f, 0.03932045f, -0.06725305f, 0.02350821f, 0.04943847f, 0.02392639f, -0.02002647f, -0.06904897f,
    0.02650506f, -0.04277244f, -0.04172063f, -0.06853749f, -0.01465072f, -0.02141752f, 0.08004536f, 0.04040020f,
    0.04247819f, 0.07148765f, -0.01844519f, -0.08191635f, 0.01717695f, -0.02343030f, 0.04413947f, 0.08123522f,
    -0.02391666f, 0.03690657f, 0.01241791f, 0.04430817f, 0.02777395f, 0.04876215f, 0.05098542f, -0.04792511f,
    0.06516372f, 0.00223348f, -0.03080395f, -0.05861882f, 0.03568691f, 0.01237019f, -0.03106936f, -0.08317294f,
    -0.02123125f, -0.01523003f, -0.02102512f, 0.05463877f, 0.02025084f, 0.04738872f, -0.03766662f, 0.04108994f,
    0.01348812f, -0.07280698f, -0.05414575f, -0.01516363f, 0.07150684f, -0.01314253f, -0.06992062f, -0.08039451f,
    -0.01779324f, 0.04620820f, 0.02656711f, 0.04773601f, -0.06453793f, -0.00577583f, -0.07626158f, -0.07782590f,
    -0.07956618f, -0.05521227f, -0.02739152f, 0.04732624f, 0.01732475f, -0.02344823f, 0.00130733f, -0.07210022f,
    -0.06795632f, 0.05004566f, -0.02561719f, 0.05115846f, 0.05333489f, -0.01379324f, -0.00504070f, -0.06207730f,
    0.00317549f, 0.06363325f, 0.03421912f, -0.02982250f, -0.04788744f, -0.05462053f, 0.05035442f, -0.04781928f,
    0.07953870f, -0.00420746f, 0.06375195f, 0.05561163f, 0.01869146f, 0.07731780f, 0.03420682f, 0.03488850f,
    0.04920297f, -0.00233073f, -0.02644156f, 0.01045711f, -0.02935128f, -0.05065916f, 0.02176857f, 0.03714699f,
    -0.05137655f, -0.05839555f, -0.00825925f, -0.00381737f, -0.05914323f, -0.08013628f, -0.04024053f, 0.05440645f,
    -0.05804422f, 0.05530099f, 0.03302573f, -0.07983580f, -0.05249857f, -0.03663131f, 0.04284540f, 0.05688792f,
    0.00172851f, -0.05456374f, 0.04937917f, 0.08002978f, 0.08161622f, 0.03705528f, 0.04088224f, 0.02135301f,
    0.03176727f, 0.03831974f, 0.06133845f, 0.04759986f, -0.03907912f, -0.06698688f, 0.04966539f, 0.06873868f,
    0.06008741f, -0.00284523f, 0.08179848f, 0.00848422f, -0.02201000f, -0.02061684f, -0.04744842f, -0.07787976f,
    -0.07701718f, 0.05131498f, -0.04471312f, 0.01784161f, 0.00652193f, -0.05370042f, -0.05769968f, -0.07875793f,
    -0.02669146f, 0.04103264f, -0.02566106f, -0.00252951f, -0.05290447f, 0.04140674f, -0.07336803f, 0.06146359f,
    0.05720292f, -0.03916040f, -0.04136082f, 0.05898400f, 0.03714628f, -0.03719943f, -0.04154786f, -0.06594058f,
    0.00494431f, -0.01458344f, 0.07141569f, -0.02199664f, -0.00344543f, 0.07366299f, 0.00318823f, 0.07554780f,
    -0.07638432f, -0.05809011f, 0.06682929f, 0.02309748f, 0.01110312f, -0.08010037f, -0.01410851f, -0.02530508f,
    0.04847278f, -0.04133419f, -0.07212084f, 0.05944958f, 0.02138127f, -0.04296662f, -0.07571197f, -0.01562851f,
    -0.08265200f, -0.03789590f, -0.08059051f, 0.04399261f, -0.05597214f, -0.02210362f, 0.00734505f, 0.04511525f,
    -0.04464811f, -0.02911917f, -0.03463225f, -0.02791589f, -0.02862458f, 0.03816869f, -0.02379770f, -0.04009679f,
    -0.00083646f, -0.05923222f, -0.07268688f, 0.04959808f, 0.06828788f, -0.05593120f, 0.08313843f, 0.03155491f,
    -0.05456448f, -0.08165506f, 0.01542111f, 0.01684104f, 0.07582720f, 0.01108295f, 0.05825075f, -0.03340641f,
    0.07715739f, 0.06384733f, -0.05140656f, 0.04146253f, 0.06448247f, 0.04574286f, 0.02036577f, -0.07223654f,
    0.02100286f, 0.07700272f, -0.01807984f, 0.07826039f, 0.04513476f, -0.07125711f, -0.06072960f, -0.06053295f,
    -0.04052684f, -0.02172881f, -0.04903769f, 0.00617081f, -0.04045806f, 0.01772270f, -0.05279110f, -0.07550417f,
    -0.01525247f, -0.06122811f, 0.01600184f, 0.02325421f, -0.00103527f, 0.03664843f, 0.03873196f, 0.08016212f,
    -0.02504660f, 0.04394081f, 0.02058546f, 0.03457763f, 0.04459384f, 0.02267994f, 0.03064301f, 0.08181176f,
    -0.02457026f, -0.06009641f, -0.05591831f, 0.05216179f, -0.04374678f, 0.04510659f, -0.04757308f, 0.08063717f,
    -0.02707326f, -0.00617144f, -0.07939377f, 0.00032904f, 0.04552948f, -0.01916561f, -0.04357155f, 0.00545841f,
    0.06141083f, -0.03376599f, -0.05645127f, -0.07643136f, -0.03686155f, -0.06205500f, 0.02636571f, -0.05222005f,
    0.05673453f, 0.01976722f, 0.07401548f, -0.00978749f, -0.00078433f, 0.08156890f, -0.05531529f, 0.04463899f,
    -0.06271674f, 0.03292695f, -0.00629527f, -0.05370346f, -0.05155721f, -0.06026797f, 0.03087770f, -0.04285238f,
    0.02341976f, -0.04434280f, -0.08297539f, 0.02559166f, 0.02501708f, 0.06637111f, -0.07898586f, -0.01920390f,
    0.03711940f, 0.07562912f, -0.06008136f, 0.02571897f, 0.07062012f, 0.01956802f, -0.04762993f, 0.06676731f,
    -0.04256339f, 0.04258904f, -0.05570709f, 0.01917404f, 0.00249514f, 0.02564821f, 0.01964865f, 0.04359479f,
    -0.05355444f, -0.05075984f, -0.06159720f, 0.03574633f, -0.08095469f, 0.03521274f, 0.03367909f, 0.00939665f,
    -0.08292435f, 0.05639681f, -0.00812032f, 0.05053282f, 0.07230969f, 0.05811748f, -0.03139892f, -0.02828336f,
    -0.02576845f, -0.06425929f, 0.06618606f, 0.07029479f, 0.01441994f, 0.07815135f, 0.04622368f, -0.05647908f,
    0.03867805f, 0.03065038f, 0.06691323f, -0.07766862f, 0.02429270f, -0.05564483f, -0.03733128f, -0.07087817f,
    0.05766724f, 0.00989979f, 0.05554489f, 0.05478184f, -0.00444605f, -0.01609994f, 0.05407538f, 0.06978723f,
    0.04153830f, 0.05956128f, -0.00762799f, 0.03565297f, 0.07196724f, 0.03210583f, -0.02003135f, -0.03507863f,
    0.07858546f, 0.07104289f, -0.02480425f, 0.04659156f, -0.00636502f, -0.01531185f, -0.05365369f, 0.05147646f,
    0.03881487f, 0.07829601f, 0.04969647f, 0.07614939f, -0.04512356f, 0.00466921f, 0.03070473f, -0.04315397f,
    -0.07764058f, -0.02641384f, 0.03610575f, -0.02098080f, 0.02118989f, 0.01052501f, -0.03164417f, 0.00222612f,
    -0.06480207f, 0.04905340f, 0.05015502f, -0.06884458f, 0.04104410f, -0.00019265f, 0.05789666f, -0.00238488f,
    -0.06792676f, 0.05112168f, -0.00380981f, -0.03554451f, -0.01147816f, -0.08106059f, 0.06162905f, 0.03407525f,
    -0.03207057f, 0.00000544f, -0.06841394f, -0.05819482f, 0.01244172f, 0.00196947f, -0.01152128f, -0.05268193f,
    -0.04061419f, -0.02090358f, -0.03677601f, -0.00158957f, 0.08286929f, 0.08278510f, 0.00879861f, -0.07572860f,
    -0.05285455f, -0.02717829f, -0.00742702f, 0.00048343f, -0.04832790f, -0.07122283f, -0.03447707f, -0.02063793f,
    0.04834095f, 0.02683063f, 0.02649970f, -0.07812873f, -0.06280425f, 0.04152638f, -0.08179428f, -0.00969685f,
    0.01099205f, 0.03920743f, -0.01264699f, 0.07034203f, -0.03670481f, -0.00284054f, -0.04819978f, -0.03586162f,
    -0.03198101f, 0.02806189f, -0.03476069f, -0.00332699f, 0.03927154f, -0.06392013f, -0.02219452f, -0.03833474f,
    0.03424864f, -0.06483927f, -0.06901032f, -0.03444711f, -0.03518768f, -0.02745813f, -0.05837449f, -0.00888775f,
    0.01139101f, -0.07042339f, 0.01645214f, 0.00612815f, 0.05883916f, 0.03518632f, 0.02577789f, -0.04928741f,
    0.07870506f, 0.04440629f, 0.08001932f, -0.02410436f, -0.04087028f, 0.00342794f, -0.04990136f, 0.00547472f,
    -0.01632275f, -0.01348084f, -0.06314926f, 0.04017726f, 0.02152901f, 0.00476514f, 0.00443751f, 0.03128659f,
    0.06796825f, -0.02275268f, -0.00273892f, 0.00639376f, 0.05846059f, -0.08223177f, 0.04942676f, 0.04034168f,
    -0.00759723f, 0.05777363f, -0.01197517f, -0.05208389f, 0.02774628f, 0.01834211f, 0.08211917f, 0.05207798f,
    -0.01041045f, -0.02811413f, 0.02244969f, 0.00759191f, 0.07351378f, 0.05013174f, -0.02835646f, -0.00544435f,
    -0.02692806f, -0.02988660f, -0.01584522f, 0.00683996f, -0.01623396f, -0.00715675f, 0.04522129f, -0.04700341f,
    -0.03315749f, 0.02136356f, 0.00717733f, -0.03556579f, -0.01609555f, -0.04044482f, 0.00128991f, 0.04954445f,
    -0.04752330f, 0.04852933f, -0.02596696f, 0.06169752f, -0.02165163f, -0.06887700f, 0.07938161f, 0.01776007f,
    -0.05382357f, -0.06055044f, 0.02298473f, -0.08249153f, 0.00826066f, 0.00761445f, 0.00973026f, -0.07350869f,
    -0.06164227f, 0.05570533f, -0.07523309f, -0.04726863f, 0.04609837f, 0.01592402f, 0.01493765f, 0.07066663f,
    0.03204723f, 0.07871975f, -0.06462826f, -0.06944620f, 0.04108775f, 0.05022778f, -0.06912875f, 0.07351777f,
    0.03586462f, -0.00593472f, 0.03974357f, 0.01142271f, 0.03270005f, -0.01305451f, -0.01482881f, 0.02887611f,
    -0.01605278f, 0.07262029f, 0.01146046f, 0.04809339f, -0.07368823f, -0.05170997f, 0.01473425f, -0.00947974f,
    -0.06249433f, 0.03757563f, 0.07084753f, -0.01548163f, 0.00509887f, 0.07734799f, -0.07373419f, 0.06679857f,
    0.05061990f, 0.06303572f, -0.02840239f, 0.03959566f, 0.04105663f, -0.06671159f, 0.03379862f, -0.02087336f,
    0.00704318f, -0.01941387f, 0.04699383f, -0.08085152f, -0.07206532f, 0.07747972f, 0.05939112f, -0.04286678f,
    0.05334774f, -0.05799262f, 0.01463040f, 0.08147176f, 0.07782020f, 0.05602561f, 0.01013163f, 0.02244918f,
    -0.05864325f, -0.01433544f, -0.03967991f, 0.08092409f, -0.04383950f, 0.00702366f, -0.06135365f, 0.07777765f,
};

// Shape: (16,), dtype: float32
static const float stage0_block0_bn1_gamma[16] = {
    1.00000000f, 1.00000000f, 1.00000000f, 1.00000000f, 1.00000000f, 1.00000000f, 1.00000000f, 1.00000000f,
    1.00000000f, 1.00000000f, 1.00000000f, 1.00000000f, 1.00000000f, 1.00000000f, 1.00000000f, 1.00000000f,
};

// Shape: (16,), dtype: float32
static const float stage0_block0_bn1_beta[16] = {
    0.00000000f, 0.00000000f, 0.00000000f, 0.00000000f, 0.00000000f, 0.00000000f, 0.00000000f, 0.00000000f,
    0.00000000f, 0.00000000f, 0.00000000f, 0.00000000f, 0.00000000f, 0.00000000f, 0.00000000f, 0.00000000f,
};

// Shape: (16,), dtype: float32
static const float stage0_block0_bn1_mean[16] = {
    0.00000000f, 0.00000000f, 0.00000000f, 0.00000000f, 0.00000000f, 0.00000000f, 0.00000000f, 0.00000000f,
    0.00000000f, 0.00000000f, 0.00000000f, 0.00000000f, 0.00000000f, 0.00000000f, 0.00000000f, 0.00000000f,
};

// Shape: (16,), dtype: float32
static const float stage0_block0_bn1_var[16] = {
    1.00000000f, 1.00000000f, 1.00000000f, 1.00000000f, 1.00000000f, 1.00000000f, 1.00000000f, 1.00000000f,
    1.00000000f, 1.00000000f, 1.00000000f, 1.00000000f, 1.00000000f, 1.00000000f, 1.00000000f, 1.00000000f,
};

// Shape: (3, 3, 16, 16), dtype: float32
static const float stage0_block0_conv2_weight[2304] = {
    -0.06274854f, 0.03460978f, 0.06317686f, -0.03736741f, 0.04690507f, -0.07001536f, -0.01913572f, -0.05073265f,
    0.02068197f, 0.04780238f, -0.00223617f, 0.03131065f, 0.06227264f, 0.06023980f, -0.00139352f, 0.07898604f,
    -0.01924122f, -0.01033249f, -0.01884533f, 0.04528013f, -0.06118991f, -0.06883152f, -0.04379002f, -0.03232477f,
    -0.02012455f, 0.01699269f, 0.06548895f, 0.07233521f, -0.01515928f, -0.08322702f, -0.04131938f, -0.04730586f,
    0.06640285f, -0.04280488f, 0.07401496f, 0.07179514f, 0.03772618f, 0.05200560f, -0.02520328f, -0.03444207f,
    -0.05480531f, 0.04009429f, 0.07134627f, -0.05001457f, -0.04743847f, 0.03119770f, 0.07425267f, 0.01695051f,
    0.03794573f, 0.03754587f, 0.06275260f, -0.04053516f, -0.01919560f, -0.00274697f, -0.03785611f, 0.07767825f,
    -0.00435433f, 0.06306263f, 0.00918419f, 0.02869129f, 0.06145838f, -0.02618926f, 0.07030870f, 0.00234141f,
    0.02894269f, 0.00204783f, -0.03004525f, 0.03402821f, 0.03094023f, 0.05570974f, -0.02260312f, 0.07436883f,
    0.08109482f, 0.04507154f, 0.03844713f, 0.01723040f, -0.06878101f, 0.06300507f, 0.04583311f, 0.03689864f,
    0.06652609f, 0.00573316f, -0.02740115f, -0.05499678f, -0.04157637f, 0.01802719f, -0.00131196f, -0.06588036f,
    -0.07188219f, -0.01657397f, -0.03666139f, -0.04649322f, 0.02878002f, -0.01886724f, -0.02450022f, 0.05260370f,
    -0.00636659f, -0.07789357f, 0.02288285f, -0.02701406f, -0.08254736f, -0.05354147f, -0.02961399f, 0.02141743f,
    -0.07654657f, -0.03969308f, -0.04121860f, 0.02296840f, 0.01046521f, 0.07910188f, -0.07696488f, 0.04270774f,
    -0.01181797f, 0.01934206f, -0.02335968f, -0.01511168f, 0.06648415f, 0.00894423f, 0.02725668f, 0.07274478f,
    -0.04045306f, -0.00500112f, -0.05412210f, -0.02261741f, 0.07448415f, 0.06876867f, 0.06148696f, -0.04595058f,
    -0.00297507f, -0.02092861f, 0.08274367f, 0.01749836f, -0.00119459f, -0.05533315f, -0.00766847f, -0.07697795f,
    -0.06216685f, -0.04907169f, 0.03511401f, -0.02496614f, -0.05383427f, -0.03052651f, 0.05719106f, -0.03580381f,
    0.01166727f, 0.07416303f, -0.02305189f, 0.04246018f, 0.03504436f, 0.03270007f, -0.07940768f, -0.03320140f,
    0.04368263f, -0.00573632f, 0.08064120f, -0.03682507f, -0.04075885f, 0.04324225f, -0.01179050f, 0.07648312f,
    0.06237198f, -0.00740761f, 0.00689188f, -0.01649682f, 0.04144239f, 0.07224228f, 0.04266083f, -0.06724846f,
    -0.02269711f, 0.06464883f, 0.02795942f, 0.01696812f, 0.01477395f, -0.04908061f, -0.06416239f, -0.05849391f,
    0.00536548f, -0.02284558f, 0.05130965f, 0.03947763f, -0.05141039f, 0.07550412f, -0.02801002f, 0.01405926f,
    0.07851215f, 0.04907191f, -0.07106384f, -0.07847851f, -0.02093954f, 0.07599681f, -0.03165668f, -0.01905931f,
    -0.06294627f, -0.05917519f, 0.03061010f, -0.04496762f, -0.00742142f, -0.03388312f, 0.06613054f, -0.00952493f,
    0.00427952f, -0.00241562f, -0.05594740f, -0.05682723f, 0.06517860f, 0.06768089f, -0.05492835f, 0.02737951f,
    -0.00515188f, 0.04694317f, 0.01869093f, 0.01384569f, 0.02865006f, 0.04134145f, 0.01872556f, 0.00281043f,
    0.02371131f, 0.05361906f, -0.05053917f, 0.01117105f, 0.03590393f, -0.00937663f, 0.06465133f, -0.08173767f,
    0.06102573f, -0.07935604f, 0.05606292f, 0.06866746f, 0.02936345f, -0.00451816f, -0.03103154f, 0.08099835f,
    0.06135017f, 0.00792688f, -0.03560247f, 0.01618305f, 0.04091629f, 0.02392772f, 0.06273744f, 0.04725379f,
    -0.07885303f, 0.05083009f, -0.04396441f, 0.00480110f, -0.02484328f, 0.01779778f, 0.02956425f, 0.00197164f,
    0.08036616f, 0.00889376f, 0.00013243f, -0.02620852f, 0.02476480f, -0.03994761f, 0.04918408f, -0.07332475f,
    -0.06606920f, 0.04984257f, -0.02623051f, 0.05908441f, 0.06789425f, -0.03317960f, 0.01630774f, -0.05467011f,
    -0.01558976f, -0.06145823f, -0.06016733f, -0.05653084f, 0.08045321f, 0.04226115f, -0.00251663f, -0.06088216f,
    0.01032439f, -0.06400627f, -0.04211533f, -0.02225010f, 0.00495373f, 0.02916764f, 0.07987791f, -0.06509985f,
    -0.05389756f, -0.07373857f, -0.03433821f, 0.03774248f, 0.04705067f, 0.03950546f, 0.00142139f, -0.03355730f,
    -0.07041146f, 0.05810777f, 0.00068733f, -0.02289517f, 0.08016159f, 0.01082657f, 0.02133658f, 0.02701127f,
    0.00878819f, 0.04558947f, -0.02805846f, -0.00297277f, 0.04693910f, -0.00457700f, 0.02712398f, -0.05087767f,
    0.00854320f, 0.06696436f, -0.07970122f, 0.06655535f, 0.08329546f, 0.00917920f, -0.03577697f, -0.07960559f,
    0.01455604f, 0.02352849f, -0.06454223f, -0.00169260f, 0.04378327f, -0.05021028f, -0.05372096f, 0.00066354f,
    0.06685546f, -0.04573279f, 0.05060326f, 0.05364540f, 0.07678911f, 0.07991891f, -0.02986687f, 0.08277644f,
    -0.06960034f, -0.02763695f, -0.03582199f, 0.05117614f, 0.06849232f, -0.03365694f, -0.00477498f, -0.01759293f,
    0.07080121f, -0.07501175f, -0.05410029f, 0.07039893f, -0.01241200f, -0.03106725f, 0.07327609f, -0.06170214f,
    -0.03217654f, 0.07033696f, 0.07618233f, 0.02402719f, -0.06289017f, -0.06679644f, -0.07215040f, -0.05151235f,
    -0.02879322f, -0.04432046f, -0.00881371f, 0.01597796f, -0.04141485f, -0.07362300f, -0.07750131f, 0.07808596f,
    0.04076868f, 0.02606256f, 0.08182453f, -0.08301364f, -0.01164556f, 0.06467842f, 0.05623844f, 0.05817161f,
    0.04803615f, -0.00117632f, 0.05612017f, -0.07319757f, 0.04706100f, -0.04445305f, 0.01474061f, 0.00906721f,
    0.05420781f, -0.00005286f, -0.01257319f, -0.05947616f, 0.02069281f, -0.00143276f, 0.02533849f, -0.07315332f,
    -0.03014373f, 0.06689509f, 0.03070729f, 0.00059921f, -0.00306300f, -0.02268150f, 0.00251858f, 0.06179214f,
    -0.02984740f, 0.02513124f, 0.07916838f, 0.03429054f, 0.04143571f, -0.03175573f, 0.00383445f, -0.06650020f,
    -0.07905548f, -0.01988714f, 0.02294305f, 0.07400583f, -0.05928747f, 0.04533502f, -0.00644747f, 0.06074116f,
    -0.01028800f, 0.04408603f, -0.06438099f, 0.04680036f, 0.02157075f, 0.08006423f, -0.00711112f, -0.05268994f,
    0.03207117f, 0.08107691f, -0.06947994f, -0.04015365f, -0.00422408f, -0.04391588f, -0.05904969f, 0.04983842f,
    0.07837482f, -0.03834536f, -0.07821836f, 0.00351331f, 0.03507627f, 0.07024827f, 0.05112353f, -0.06714298f,
    0.07429262f, 0.04354176f, -0.07994770f, 0.02681921f, 0.02173434f, -0.05026890f, -0.04678442f, -0.00566257f,
    0.07065029f, 0.03211946f, -0.06383937f, 0.07445981f, -0.05563699f, -0.05192441f, 0.04886585f, -0.06277435f,
    0.02715105f, 0.00940869f, -0.07888927f, 0.01654977f, -0.02430815f, 0.02913917f, 0.04442094f, 0.00304693f,
    0.07894412f, -0.08254173f, -0.04569133f, -0.06813540f, -0.06331192f, 0.00635970f, -0.07460679f, 0.00592175f,
    -0.02749600f, 0.04975715f, 0.02284087f, -0.02864135f, -0.02460110f, -0.00069840f, -0.05674469f, 0.01714553f,
    -0.03807221f, 0.02060187f, 0.00805074f, 0.08109790f, 0.03887629f, 0.07218357f, -0.05738273f, -0.02478069f,
    -0.01842889f, 0.04867420f, 0.04705627f, 0.02837007f, -0.02486327f, 0.02821115f, 0.00393290f, -0.00785625f,
    -0.07377630f, -0.02138294f, -0.01713281f, 0.03843689f, -0.03476414f, -0.01902845f, 0.07325395f, 0.06240542f,
    0.08217087f, 0.03153690f, 0.06859171f, -0.06054999f, 0.00024211f, 0.04546162f, -0.07959630f, 0.03028554f,
    -0.04722133f, -0.01538282f, -0.05426336f, -0.02756817f, 0.07482787f, 0.03941209f, 0.02450300f, -0.05410238f,
    0.08049538f, -0.05100998f, 0.08029300f, 0.04275234f, 0.06989306f, -0.06679130f, -0.06719019f, 0.07655971f,
    0.00633369f, -0.03197416f, 0.01330291f, -0.05382311f, 0.00199035f, -0.04187574f, 0.05000309f, 0.07259460f,
    -0.07013663f, -0.02387669f, 0.07541513f, -0.00200002f, 0.05482631f, 0.06435510f, 0.03933357f, -0.07904735f,
    0.07297647f, -0.00375539f, -0.04288514f, 0.01094767f, -0.08240075f, 0.07531726f, 0.07847246f, 0.06682642f,
    0.02609346f, -0.02057963f, -0.00042146f, -0.03687149f, -0.02048863f, 0.06125982f, -0.02155712f, 0.05821785f,
    0.07707702f, -0.01488139f, 0.02951176f, -0.02206514f, -0.04028174f, -0.03300150f, 0.04666969f, -0.02323546f,
    0.05849180f, 0.04523733f, -0.01118643f, -0.01173562f, -0.03480504f, 0.02548947f, 0.02776159f, 0.07436861f,
    0.06638403f, -0.00848670f, 0.05418132f, 0.01726018f, -0.04530707f, 0.07114961f, 0.07586271f, -0.05630213f,
    0.03037501f, 0.07861813f, 0.07854562f, 0.07388114f, 0.04570694f, 0.05306461f, 0.03473154f, -0.03879181f,
    0.04823267f, -0.05351351f, -0.07721652f, 0.03621808f, 0.08131336f, 0.06221063f, 0.01478769f, -0.03313360f,
    0.01143110f, -0.06276184f, 0.00795846f, -0.08027807f, 0.04746812f, -0.07176915f, -0.00611972f, 0.04618503f,
    0.00810517f, -0.05247598f, 0.05688370f, 0.04604319f, -0.03839070f, -0.06927797f, -0.04706848f, -0.07334840f,
    0.06549901f, 0.04052866f, -0.06970517f, -0.07718654f, 0.04573446f, -0.06135369f, 0.06996193f, 0.00804746f,
    0.08248933f, -0.06219518f, 0.08269360f, 0.06165740f, 0.01292275f, -0.04443275f, -0.03104302f, -0.00466142f,
    -0.06762426f, -0.02846395f, 0.07199533f, -0.00564947f, 0.07985771f, -0.08134111f, -0.06099267f, -0.06415375f,
    0.07441097f, 0.03206043f, 0.05221790f, 0.06935342f, -0.07261016f, -0.03097676f, -0.02180701f, -0.05589968f,
    0.03819455f, -0.01791873f, -0.04064404f, 0.04359856f, -0.03175741f, -0.02030373f, -0.04522812f, 0.02693117f,
    -0.07227748f, -0.01190042f, -0.04727142f, -0.03902518f, 0.00185262f, 0.01340793f, -0.03391641f, 0.05121247f,
    0.04635466f, 0.08287612f, -0.01729400f, 0.02803540f, -0.04616937f, 0.00216808f, -0.03156767f, 0.04155284f,
    -0.08224045f, 0.02276099f, -0.06445763f, -0.01901424f, 0.02528904f, -0.01747733f, 0.00946307f, 0.07993980f,
    -0.02189983f, 0.01988302f, 0.01130623f, 0.03813719f, -0.01542586f, -0.00815316f, -0.01385122f, -0.06167981f,
    0.04030957f, -0.00853467f, -0.08010154f, -0.00556781f, -0.04299568f, 0.03531486f, 0.03647444f, 0.05256084f,
    0.06311943f, -0.05556585f, 0.08215901f, 0.01564118f, -0.05821120f, 0.05734373f, 0.08298402f, 0.05961730f,
    0.01603706f, 0.01610529f, -0.01597590f, 0.02904745f, -0.05835907f, 0.00288005f, -0.05861731f, 0.06370579f,
    0.02388611f, 0.04000350f, 0.07043575f, 0.01157635f, -0.06349555f, -0.04984421f, -0.03841575f, -0.04792393f,
    -0.00027829f, 0.08247849f, -0.07580762f, -0.06777239f, -0.03784075f, -0.01341736f, -0.02982661f, -0.06354290f,
    0.03646206f, -0.06081460f, -0.01302318f, 0.07604196f, 0.06176012f, 0.06943423f, 0.01081308f, -0.04904103f,
    0.02913713f, 0.05322139f, 0.00154642f, -0.05715261f, -0.07956459f, 0.08027384f, 0.04160754f, 0.07808910f,
    -0.08086886f, -0.06111883f, 0.00440495f, 0.07728621f, -0.07295942f, 0.06964585f, -0.03696202f, 0.06776428f,
    -0.00960090f, 0.07143521f, -0.04022589f, 0.06885676f, -0.01580744f, 0.05250172f, 0.06664778f, -0.07799929f,
    -0.01312080f, 0.05082908f, -0.07890775f, 0.06957075f, 0.06872286f, 0.04890259f, -0.02104011f, -0.02505819f,
    -0.06923082f, 0.08003946f, -0.07515096f, -0.04355893f, -0.04208502f, 0.08007124f, -0.06355049f, -0.02086742f,
    -0.01933889f, -0.05467593f, 0.03307266f, -0.01852868f, 0.04847765f, -0.04286748f, -0.08268006f, 0.01474027f,
    0.08145951f, 0.00848498f, -0.06354921f, 0.07442050f, 0.02574826f, -0.02147098f, -0.04807326f, -0.02432038f,
    -0.04920413f, 0.06480993f, -0.05157641f, -0.05339191f, 0.06752902f, -0.04032320f, 0.02253859f, 0.02980660f,
    0.04947186f, 0.07277517f, -0.01251591f, 0.00793005f, -0.03792107f, 0.06088050f, 0.02365123f, 0.03320929f,
    -0.00243907f, 0.00617109f, 0.08241907f, 0.01762431f, 0.00058342f, -0.04810893f, 0.08186992f, -0.04344324f,
    0.00946709f, -0.06384837f, 0.01531783f, -0.06302162f, -0.02758117f, 0.00383031f, -0.05551664f, -0.06753352f,
    0.07399723f, -0.00672806f, -0.06448843f, -0.02409180f, 0.06916524f, 0.03690903f, 0.06325702f, 0.07281682f,
    0.01262316f, -0.06933119f, 0.04053751f, 0.06224406f, -0.06916827f, 0.00411321f, 0.03311601f, -0.08263806f,
    -0.03368928f, -0.02880274f, 0.00931042f, -0.00417386f, 0.03790145f, -0.00498861f, -0.01806413f, 0.03072805f,
    -0.04017378f, -0.07432400f, -0.07348175f, -0.01348266f, 0.07112812f, 0.00602326f, 0.03210602f, 0.02649426f,
    0.01248432f, 0.02089721f, 0.02304715f, 0.01291771f, 0.04334907f, 0.02228426f, -0.04989679f, -0.02107003f,
    0.03134866f, 0.06488930f, -0.08047286f, 0.04005000f, 0.03272942f, -0.07722495f, 0.05733701f, 0.02125755f,
    -0.07147068f, -0.02870893f, 0.04693000f, -0.07045674f, -0.00120877f, -0.00945414f, 0.00748711f, 0.02653728f,
    -0.05410262f, 0.05922919f, -0.05421162f, -0.04991400f, 0.00364596f, -0.05859724f, -0.07824424f, 0.02129340f,
    -0.02013146f, 0.05511625f, -0.01196091f, 0.00785365f, 0.03800546f, 0.00911043f, 0.00662227f, 0.05569663f,
    -0.07999352f, -0.03233291f, -0.08267160f, -0.06500580f, -0.01989779f, -0.04797814f, -0.07852583f, -0.00225019f,
    0.01561149f, -0.03935158f, 0.06051802f, -0.00053054f, 0.04067890f, 0.05785464f, -0.05057579f, -0.08146477f,
    -0.06226844f, 0.01826002f, 0.08040324f, 0.01984255f, 0.04072225f, 0.08115892f, 0.06065271f, -0.03873389f,
    -0.06790695f, -0.01667634f, 0.05258864f, 0.06463131f, 0.06782570f, 0.06231626f, 0.01043167f, 0.03736965f,
    0.07883564f, 0.06978947f, 0.06595509f, -0.07841521f, -0.05561275f, 0.00945751f, -0.07497465f, -0.05624189f,
    -0.06941023f, -0.05755665f, 0.02312264f, 0.06561869f, 0.00013699f, 0.04118429f, -0.05463235f, -0.00906930f,
    0.03069434f, 0.02956957f, -0.02824160f, -0.06756514f, 0.07027397f, 0.01368099f, -0.03417323f, -0.00371408f,
    -0.05666260f, 0.05995043f, -0.06888881f, 0.06001843f, 0.04901990f, 0.03477146f, -0.01707337f, 0.05056460f,
    0.04064254f, -0.06623414f, -0.00470104f, -0.01243276f, 0.00767897f, -0.05410375f, 0.04060957f, 0.05420487f,
    -0.07436567f, -0.02124683f, -0.02530379f, 0.07495343f, -0.00100298f, 0.00858176f, -0.04058262f, -0.05713978f,
    0.04833727f, 0.02507318f, 0.00821123f, -0.01084180f, -0.04289689f, -0.01476829f, -0.03005454f, 0.07707562f,
    -0.03026490f, -0.05821167f, -0.07800347f, -0.05266362f, -0.01541243f, -0.06471810f, -0.03217005f, 0.04735738f,
    -0.04203899f, 0.02593403f, -0.08319411f, 0.07861036f, -0.04412116f, -0.06620044f, -0.04610501f, 0.06851919f,
    -0.00576070f, -0.01124296f, 0.06953337f, -0.03390487f, -0.05864549f, -0.07219773f, 0.06628462f, -0.03750575f,
    0.00570869f, 0.02559745f, 0.04837697f, 0.07788838f, 0.02972317f, -0.01538545f, 0.01842776f, -0.05881777f,
    -0.06031929f, -0.04516920f, 0.07153329f, -0.00962487f, -0.02610314f, 0.04276638f, -0.05689923f, 0.00913563f,
    0.05673442f, -0.06119722f, 0.00944239f, -0.00300180f, 0.06812611f, -0.05745398f, -0.04207758f, 0.01304322f,
    -0.07133064f, -0.06009050f, -0.05735720f, -0.00658773f, -0.07694800f, -0.06421149f, 0.05018769f, 0.02371160f,
    0.01561399f, 0.01906373f, 0.08166870f, 0.03185337f, 0.00199843f, -0.05826661f, 0.02983504f, 0.04610660f,
    0.06893717f, -0.01662194f, -0.06136289f, -0.05310696f, -0.04651078f, -0.03356066f, -0.01454125f, -0.05760711f,
    0.06979197f, 0.07754950f, 0.07240634f, 0.06098298f, 0.04648431f, -0.02640369f, 0.00157550f, 0.01375208f,
    0.04962727f, 0.07064980f, 0.06957906f, -0.04547685f, -0.03320595f, 0.05936503f, 0.05833752f, -0.00535715f,
    -0.01369425f, -0.06672983f, -0.00754508f, -0.02731536f, -0.05061727f, 0.05913114f, -0.02394029f, 0.02397824f,
    -0.04201637f, -0.05815190f, 0.04291143f, 0.07724655f, -0.03588923f, -0.00867219f, -0.03596871f, 0.02833890f,
    0.00365837f, 0.07241313f, 0.01285940f, 0.04616288f, 0.02300634f, -0.08054863f, -0.03154761f, 0.07727887f,
    0.08075651f, 0.02779742f, -0.01250514f, 0.06340955f, -0.02785487f, -0.02578846f, -0.04069198f, 0.02193758f,
    0.05297462f, -0.00133339f, 0.03333680f, -0.03532265f, 0.01747144f, -0.01404870f, -0.00127343f, 0.06007215f,
    0.01989749f, 0.06745916f, -0.01361107f, 0.06899723f, 0.03069679f, -0.05093020f, -0.00393852f, -0.04463842f,
    0.04091600f, -0.00372889f, 0.07277881f, -0.05116193f, 0.04725665f, 0.04752834f, -0.03425944f, -0.04605136f,
    -0.02467076f, 0.07818823f, 0.05728589f, -0.07277122f, 0.06438065f, -0.02955558f, -0.00975399f, 0.06963585f,
    -0.01750306f, -0.00086501f, 0.07214352f, 0.06474286f, 0.08089915f, -0.05439273f, -0.02359344f, -0.07220115f,
    -0.04996262f, 0.04880866f, 0.05378747f, 0.04549386f, -0.01019582f, 0.03158841f, -0.05620102f, 0.00341903f,
    -0.08133339f, 0.02273539f, 0.04019901f, 0.07432416f, 0.05445778f, -0.00681746f, -0.05989145f, 0.06439959f,
    0.08117624f, 0.00048611f, -0.08234639f, -0.04876060f, -0.07102087f, -0.00103047f, 0.00736834f, -0.01642449f,
    0.06938513f, -0.00333085f, 0.03382059f, -0.06783208f, 0.03103492f, -0.04312363f, 0.01359801f, 0.02643856f,
    -0.02691947f, 0.01544062f, -0.06068575f, 0.05600014f, 0.07236489f, 0.06271421f, 0.01475301f, 0.02100738f,
    0.07510258f, 0.00667052f, -0.01070015f, 0.00766680f, 0.05071513f, 0.00899430f, -0.06203405f, 0.04492493f,
    0.02961526f, -0.07397070f, 0.03124895f, -0.07085548f, -0.07010789f, -0.01102555f, -0.00517344f, 0.01435197f,
    0.02025091f, -0.01192064f, -0.02316375f, -0.02786037f, -0.05971414f, 0.02938460f, -0.06778921f, 0.05201181f,
    -0.04527197f, -0.00369074f, 0.02814014f, -0.00874712f, -0.03551495f, -0.02451808f, 0.07493073f, 0.04100314f,
    0.03994324f, -0.08211219f, -0.07570314f, 0.01705250f, -0.07611205f, 0.06304193f, -0.06659608f, 0.07587087f,
    -0.05286372f, 0.02770412f, -0.07283013f, 0.00725488f, 0.06667250f, 0.04997272f, 0.07198782f, -0.02850285f,
    0.04866313f, -0.01297552f, -0.03942047f, 0.00993243f, 0.04448303f, -0.01373707f, 0.07828268f, 0.07452022f,
    0.06591420f, 0.06907050f, 0.07228546f, 0.01587418f, 0.06774096f, -0.07414083f, 0.04696745f, -0.05434931f,
    0.07174562f, 0.06501918f, -0.03565789f, 0.04072000f, 0.08203718f, -0.06410533f, -0.06744688f, -0.07015049f,
    -0.02977487f, -0.05824966f, 0.07327682f, -0.05450371f, -0.03145456f, 0.02440840f, -0.08137468f, -0.00864093f,
    -0.01853008f, -0.06451955f, -0.08099761f, -0.07734932f, -0.03446907f, -0.07070871f, -0.07717583f, -0.04583068f,
    0.03863501f, -0.02486011f, -0.01187597f, -0.03172070f, 0.01997394f, -0.05493946f, -0.06278883f, 0.01686596f,
    0.03289199f, -0.00611850f, 0.02961619f, 0.01531010f, -0.06508886f, -0.05234073f, -0.00810780f, -0.05070385f,
    -0.07492515f, -0.05668318f, -0.08201113f, 0.03886502f, -0.00073755f, 0.05677624f, 0.04128135f, -0.01316186f,
    0.02497467f, -0.00796410f, -0.06074585f, -0.07743671f, -0.01599126f, 0.01858860f, 0.01845222f, -0.05933280f,
    -0.00568507f, -0.01398715f, -0.00486121f, 0.06015946f, -0.07514664f, -0.01923736f, 0.04244726f, 0.01709197f,
    0.00718978f, -0.04160476f, -0.04589551f, 0.01809129f, 0.08263182f, 0.01071783f, 0.05301146f, -0.02439499f,
    0.05879251f, -0.03522139f, 0.03433707f, 0.04431079f, 0.03839342f, -0.02864845f, 0.01678571f, -0.02870076f,
    0.02340673f, -0.07560417f, -0.02116646f, -0.07711965f, 0.03022072f, 0.07751231f, 0.06762303f, -0.02475148f,
    -0.01719295f, -0.02977684f, 0.03115953f, -0.07589113f, -0.01210063f, -0.00612779f, -0.05329527f, -0.00750434f,
    0.07530282f, -0.01729788f, 0.05673008f, 0.07988903f, -0.04102314f, -0.06872435f, -0.04229401f, 0.03667935f,
    0.05595025f, 0.00340990f, -0.07708501f, 0.04977884f, -0.04365417f, 0.00848153f, -0.00133463f, -0.07149050f,
    0.06509765f, 0.05436612f, -0.03901779f, -0.03272315f, -0.06054283f, 0.06279045f, -0.03254317f, 0.07756415f,
    0.02003169f, 0.01139397f, -0.06939764f, 0.05097791f, 0.06437933f, 0.00247340f, 0.07951978f, -0.00440859f,
    -0.01864747f, 0.04019888f, 0.06933917f, -0.01972771f, 0.08063497f, -0.04501241f, 0.01264982f, 0.00898738f,
    -0.05366195f, 0.04057989f, -0.03833137f, -0.08303443f, 0.05232438f, 0.05829832f, 0.04919906f, 0.03225407f,
    -0.03900472f, 0.00073908f, -0.01667087f, 0.04668933f, -0.07036000f, 0.07525732f, -0.04942814f, -0.07262833f,
    -0.03685601f, -0.02300026f, 0.02037805f, -0.01120898f, -0.03928167f, -0.07389085f, -0.02143130f, -0.05701523f,
    -0.05710044f, -0.00850614f, 0.01505359f, 0.06654386f, -0.01585575f, -0.05805098f, -0.08192760f, 0.02084502f,
    -0.02801966f, -0.00187647f, -0.00003253f, 0.04396574f, 0.03445778f, -0.05930210f, 0.07321922f, -0.08191647f,
    0.03025807f, -0.06071872f, 0.02128590f, 0.02534648f, -0.03365815f, -0.04849598f, -0.08046408f, -0.08179044f,
    -0.05549029f, 0.00670404f, 0.03319475f, 0.08000671f, 0.06983744f, 0.08190268f, -0.04904040f, 0.02186780f,
    -0.06908336f, 0.04864937f, -0.04840733f, 0.06662826f, 0.02366745f, 0.00416794f, -0.08045136f, -0.06552141f,
    0.04461835f, 0.03483842f, 0.04823090f, -0.04238015f, -0.03819182f, 0.06720682f, 0.07917210f, 0.01678376f,
    0.04960093f, -0.00261344f, 0.06299770f, -0.05912650f, 0.01236824f, 0.06094621f, -0.00131961f, -0.04359797f,
    -0.05763806f, 0.03515066f, 0.00303301f, -0.03240170f, -0.00396807f, 0.03280345f, -0.07026343f, -0.03975566f,
    0.07213758f, 0.05029487f, -0.05519685f, -0.00792811f, 0.06641325f, 0.05256256f, -0.02353185f, -0.06704760f,
    -0.01200211f, -0.02604651f, 0.04674634f, -0.06819786f, -0.00298689f, -0.00016630f, 0.02684039f, -0.04408712f,
    0.04028752f, 0.05552903f, -0.00739533f, -0.05693111f, 0.05471098f, 0.02061925f, -0.08071309f, 0.03856468f,
    0.04504694f, 0.05255158f, -0.02625478f, -0.03367167f, -0.05031436f, -0.04740877f, -0.07836954f, -0.01465908f,
    0.03600691f, -0.04927462f, 0.07315488f, 0.01670298f, 0.02216329f, -0.04676214f, 0.05930797f, -0.04349361f,
    0.00294936f, 0.03318329f, -0.04596885f, 0.06552067f, -0.00515501f, 0.08231428f, 0.01488717f, -0.03996816f,
    0.00840560f, 0.03606216f, -0.00640029f, -0.05568171f, 0.08000657f, 0.06983902f, 0.06375917f, -0.08230954f,
    0.08163372f, -0.05920337f, 0.02481428f, -0.01478254f, -0.05745495f, -0.07593530f, -0.05932043f, 0.04408625f,
    0.00661910f, 0.08078121f, -0.07123294f, -0.00246855f, 0.03734424f, 0.07977828f, 0.07379133f, -0.05492225f,
    0.02062111f, 0.00404567f, 0.04633356f, 0.06377756f, -0.00895754f, 0.08237561f, -0.00478097f, -0.00101117f,
    0.07485099f, -0.00849846f, 0.04202834f, 0.01634884f, 0.05640605f, 0.00801908f, -0.02590251f, 0.03003084f,
    0.05078065f, 0.07742450f, -0.01184372f, 0.02058949f, -0.07300556f, -0.01648515f, 0.00871837f, -0.05109797f,
    0.00760768f, 0.00513233f, 0.02287407f, -0.06667703f, -0.04870874f, -0.00408756f, 0.05966526f, 0.08168282f,
    0.00617502f, -0.04395147f, -0.03051435f, 0.06746390f, 0.03325423f, 0.01981039f, 0.04276346f, 0.05683585f,
    0.06746401f, 0.02938275f, 0.03818513f, -0.02721129f, -0.00903227f, 0.05080528f, 0.02135726f, -0.07666235f,
    -0.04362799f, -0.05251965f, 0.01692350f, 0.08260253f, 0.07045127f, -0.01388448f, -0.05330347f, -0.01511084f,
    -0.06084156f, -0.01669191f, -0.07382449f, 0.08284870f, -0.01015123f, -0.00125120f, -0.06996182f, -0.00868558f,
    -0.06443448f, -0.05537392f, 0.08089855f, -0.01741972f, 0.00298287f, 0.02412143f, 0.06984412f, -0.01670356f,
    0.07759096f, 0.07496412f, 0.04572859f, -0.06528132f, 0.08114000f, 0.04555207f, -0.04556931f, 0.03081792f,
    0.02079041f, 0.03652562f, 0.04220813f, 0.00241103f, -0.03207962f, 0.00361157f, 0.00637137f, 0.07749207f,
    0.00802789f, -0.05557085f, -0.07392286f, 0.03399777f, 0.00355055f, -0.01206621f, -0.01460365f, -0.07544936f,
    0.03839688f, 0.06390917f, 0.00521751f, 0.04779758f, 0.02705218f, 0.03666847f, -0.00460621f, -0.07167228f,
    0.01998581f, -0.05654543f, -0.02994412f, 0.00576266f, -0.08033252f, -0.01092608f, 0.06606147f, -0.06859577f,
    -0.07781323f, -0.02353851f, 0.02355896f, 0.07959198f, 0.06746829f, -0.07038198f, 0.00553816f, 0.03626997f,
    -0.00881948f, 0.05735227f, -0.04206532f, 0.00459023f, -0.03272162f, -0.00514389f, -0.05017253f, -0.01228630f,
    0.00060466f, -0.04900963f, 0.04039827f, 0.07915652f, -0.00245426f, 0.00295681f, 0.03608380f, 0.06311364f,
    0.06394567f, -0.05560192f, 0.01852735f, 0.01591258f, 0.06760034f, -0.07031322f, -0.07677182f, -0.00516653f,
    -0.02671652f, 0.03442222f, -0.04336251f, -0.07064050f, 0.06555909f, 0.03507131f, -0.04452823f, -0.00562809f,
    -0.05783040f, -0.03607694f, -0.02198225f, 0.00486128f, 0.07881090f, 0.04604426f, 0.07272886f, 0.01639001f,
    0.02269397f, 0.01673736f, -0.07366636f, -0.06401964f, 0.06759125f, -0.00934858f, -0.04670518f, 0.07482143f,
    -0.06487672f, 0.02348225f, -0.05917186f, -0.01657348f, 0.02245096f, -0.03134733f, -0.07502644f, -0.07839604f,
    0.07604843f, -0.06855001f, -0.08111353f, -0.06587528f, -0.04043433f, -0.00683862f, 0.08214457f, -0.03737098f,
    -0.07638201f, -0.06773470f, 0.06621986f, -0.08064285f, 0.06128008f, 0.04752427f, -0.03347006f, 0.03789886f,
    0.03612005f, -0.06250341f, -0.02717378f, 0.05787133f, 0.03605796f, 0.07307619f, 0.00696084f, 0.05101692f,
    0.05452017f, 0.06954905f, 0.02924787f, -0.06982538f, 0.04220708f, 0.01586208f, 0.03076482f, 0.07438877f,
    -0.02247013f, -0.03701181f, -0.05381521f, -0.07954752f, 0.01541686f, 0.00121175f, -0.01068348f, 0.08094316f,
    -0.06165628f, -0.05361677f, -0.02503065f, 0.02319973f, -0.01249812f, -0.07988568f, -0.06376600f, -0.03697224f,
    -0.01657102f, 0.04376813f, -0.02367306f, 0.03234934f, 0.04651628f, 0.07131475f, 0.03526640f, 0.06336997f,
    -0.06066250f, -0.07368948f, -0.04118439f, 0.03542098f, 0.06381884f, 0.06832649f, -0.05174430f, 0.05958695f,
    0.03660626f, 0.08098506f, -0.02157711f, -0.03851034f, 0.05535512f, -0.00896127f, -0.04687747f, 0.02166735f,
    0.05418508f, 0.01980229f, 0.03875127f, 0.02472284f, 0.00399863f, -0.07925444f, -0.00782063f, -0.07799821f,
    0.04177886f, -0.00591846f, -0.06481921f, 0.03691568f, 0.05341191f, 0.03187128f, -0.05654915f, 0.06550195f,
    0.07933369f, 0.06259885f, 0.04122839f, -0.01894411f, 0.00285343f, -0.04419800f, 0.01181633f, -0.05093385f,
    -0.05684235f, -0.05511894f, 0.03613243f, 0.02633096f, 0.02142126f, -0.07182008f, -0.05497088f, -0.01342225f,
    -0.05767339f, 0.02123329f, 0.06891510f, -0.03643060f, -0.03077968f, 0.05244285f, 0.07106110f, -0.02773061f,
    0.01811025f, 0.01876996f, 0.07741945f, -0.08332673f, 0.07278263f, 0.00706498f, -0.02284557f, -0.07352291f,
    -0.04252972f, 0.07598175f, -0.08186027f, 0.05030754f, -0.01116962f, 0.06007737f, 0.08100776f, 0.02534816f,
    0.05832490f, -0.00449034f, -0.04121569f, -0.06489755f, 0.05063412f, 0.07403293f, -0.02289361f, -0.04988449f,
    0.07069913f, -0.03572739f, -0.08064102f, -0.05626793f, -0.02450614f, 0.07919487f, 0.05984931f, -0.05783407f,
    0.02920949f, 0.01853332f, -0.06428356f, -0.03691339f, -0.05901586f, -0.05808783f, -0.05430369f, -0.06358775f,
    -0.03510510f, -0.05138162f, 0.04708049f, -0.05687163f, 0.00822309f, -0.02325878f, -0.05211546f, 0.02686418f,
    0.05149098f, -0.08084681f, 0.05092798f, -0.01948098f, 0.00079233f, 0.06781001f, -0.05220498f, 0.07977279f,
    -0.01325105f, -0.06450361f, -0.07186993f, -0.06800497f, -0.07692631f, -0.02364813f, 0.01096154f, 0.02616577f,
    -0.07341825f, -0.07246085f, -0.03992737f, -0.06029367f, -0.07385851f, -0.03904360f, -0.04757208f, 0.03389440f,
    0.07464367f, 0.06234377f, -0.01544921f, -0.01008211f, -0.05730408f, -0.04954705f, 0.00843216f, 0.02016067f,
    -0.00120184f, -0.06150414f, 0.03008623f, 0.07326326f, -0.04619790f, 0.04938345f, 0.07735178f, 0.05250847f,
    0.00063552f, 0.06620367f, 0.01635636f, 0.05550401f, -0.00426957f, -0.07711184f, 0.07793456f, 0.04943198f,
    -0.04131100f, 0.02044763f, -0.02020169f, -0.05016869f, 0.04157050f, -0.02482184f, 0.03858263f, -0.03099400f,
    -0.08238366f, 0.06079627f, 0.00827289f, 0.07151289f, -0.06715357f, -0.07368059f, -0.02822323f, -0.04056999f,
    -0.02660700f, 0.03200614f, 0.01413446f, 0.03260151f, -0.02314983f, 0.00293526f, 0.03667220f, 0.07812107f,
    0.00932126f, 0.07888690f, 0.03159347f, -0.04000445f, -0.01746162f, 0.00647491f, 0.01716991f, -0.01810371f,
    0.04192136f, -0.00903405f, 0.03272168f, -0.02641383f, 0.04825778f, -0.04230786f, 0.05123908f, 0.04734684f,
    0.08306794f, -0.02607332f, -0.05464740f, -0.01687111f, 0.01220397f, -0.00463243f, -0.04170083f, 0.06793594f,
    0.01220486f, -0.07187056f, -0.03030674f, 0.08329888f, -0.02774303f, 0.00968558f, 0.04024057f, -0.04412829f,
    0.02297890f, 0.02267327f, -0.01815744f, -0.05896494f, 0.01839997f, 0.02323239f, -0.06309894f, -0.00176124f,
    -0.08071678f, 0.03307729f, -0.07425450f, -0.05767437f, -0.04239893f, 0.04496544f, -0.04265936f, -0.07222264f,
    0.01584211f, -0.07645734f, 0.04220390f, -0.02546157f, -0.00328580f, -0.02899505f, 0.06195351f, -0.01602501f,
    0.02581184f, -0.00895691f, 0.08118470f, -0.08040732f, 0.07467371f, 0.07927411f, 0.04731360f, -0.05739921f,
    -0.08277928f, 0.00845039f, 0.02419844f, 0.02047779f, -0.02972320f, 0.08116525f, -0.06187978f, 0.00290097f,
    0.01816773f, -0.03624504f, -0.04137407f, -0.00711115f, -0.06540069f, 0.02072147f, 0.05427746f, 0.00886676f,
    0.03563958f, -0.04091388f, 0.00084047f, 0.01355558f, 0.07401474f, 0.01192002f, 0.08222972f, 0.07850063f,
    -0.00728244f, -0.02598299f, 0.02367967f, -0.01342922f, -0.05914550f, 0.04330341f, 0.05391115f, -0.04067986f,
    -0.03144836f, -0.04218971f, -0.06770277f, 0.07988796f, -0.02244106f, -0.05672718f, -0.08150744f, -0.07322287f,
    0.00329207f, -0.03981739f, 0.02581313f, -0.07598897f, 0.00814536f, 0.03120692f, -0.07268509f, 0.03082004f,
    -0.01111048f, -0.02554548f, 0.03021180f, 0.00434831f, -0.01535016f, -0.05683240f, -0.05175317f, -0.06140448f,
    -0.00003943f, -0.05284396f, 0.05757481f, -0.04693257f, 0.04225864f, -0.03081143f, 0.03691693f, -0.01583875f,
    -0.02559881f, -0.05846878f, -0.01874489f, -0.07467096f, -0.02638183f, -0.01461751f, 0.05761198f, -0.00408767f,
    -0.04167148f, -0.07395126f, 0.07588169f, -0.04702469f, -0.03671325f, 0.00357008f, -0.03878105f, 0.06852987f,
    0.04008913f, -0.05714629f, -0.07712223f, 0.08078213f, 0.08234023f, 0.02697830f, 0.05130448f, -0.04269850f,
    0.05462047f, -0.08106886f, -0.01008284f, 0.01091932f, 0.01538109f, -0.00874644f, -0.06069219f, -0.04483616f,
    -0.07128342f, 0.04995882f, 0.05166464f, -0.00156220f, -0.07883914f, 0.07424425f, 0.02970712f, 0.07251295f,
    0.07800692f, 0.03904537f, -0.05817684f, -0.06884339f, 0.06082764f, -0.00382175f, -0.05342650f, -0.08143702f,
    0.00463762f, 0.01576151f, -0.07742187f, -0.05019156f, 0.04757137f, -0.03219000f, -0.02145014f, -0.04233169f,
    0.08075914f, 0.02021263f, 0.07678314f, -0.00510274f, 0.04411799f, 0.05736763f, -0.01255366f, 0.06823553f,
    -0.05009091f, -0.00648771f, -0.08208870f, -0.05495008f, 0.03428537f, 0.03895263f, 0.05319920f, -0.08326256f,
    -0.08162322f, 0.00402490f, -0.04997490f, 0.03625394f, -0.06469163f, -0.01612174f, 0.07956712f, 0.07310449f,
    -0.05134863f, 0.03495678f, 0.03477640f, 0.06477397f, -0.06859847f, 0.04217925f, 0.05804072f, -0.04921269f,
    -0.06961307f, 0.04047194f, 0.06291763f, 0.05395967f, 0.00150212f, 0.08098777f, -0.04042726f, -0.03512734f,
    -0.03834885f, 0.00326249f, -0.06735590f, 0.06328040f, -0.06507626f, -0.05321565f, -0.03025495f, -0.04939320f,
    0.02032764f, -0.01035740f, 0.06640694f, 0.04754741f, 0.06204991f, 0.06635202f, 0.01049460f, 0.02602986f,
    0.00236146f, -0.05303249f, -0.05054776f, -0.02436583f, 0.02418396f, 0.01116274f, -0.00845994f, -0.00378580f,
    -0.03500862f, -0.03725461f, 0.03224263f, 0.00473389f, -0.08037248f, -0.00387846f, 0.01825979f, -0.05958190f,
    -0.02868618f, -0.01465418f, -0.06595451f, 0.05657431f, 0.00884908f, 0.04503173f, 0.01144908f, -0.01324912f,
    0.01594935f, -0.04652565f, -0.06387198f, 0.06160840f, 0.06124483f, 0.02749126f, 0.00328662f, 0.00130758f,
    0.06426477f, 0.05934113f, 0.07856388f, -0.06582566f, 0.05309960f, 0.01787646f, -0.01757790f, 0.05216300f,
    0.01174823f, 0.04542367f, -0.02457459f, 0.03620354f, -0.00990690f, 0.07204839f, 0.00689809f, 0.02599157f,
    0.05202289f, 0.06216444f, -0.04118003f, -0.07114403f, 0.07626203f, -0.00676619f, 0.01510414f, -0.07482137f,
    -0.02535971f, -0.00806253f, -0.00665435f, -0.01807773f, 0.01339583f, 0.00836887f, 0.05265265f, -0.01480043f,
    -0.07427169f, -0.00220383f, -0.04047760f, -0.04333364f, -0.06046213f, -0.03021638f, 0.04172925f, 0.04196034f,
    -0.03131049f, -0.01569713f, 0.05215228f, -0.01659620f, 0.06293316f, 0.04144337f, 0.05322888f, 0.05207581f,
    -0.02308031f, 0.08161804f, 0.06747112f, 0.05179950f, 0.08059129f, 0.05151045f, -0.02264006f, 0.01535432f,
    0.06004776f, 0.00174013f, -0.07617982f, 0.05658050f, 0.06633548f, 0.07250484f, 0.03677937f, -0.03107989f,
    -0.03423185f, 0.07712968f, -0.06892036f, 0.06330235f, 0.03800374f, 0.07897067f, 0.04593584f, -0.04836824f,
    -0.04182079f, -0.02777092f, 0.07516357f, -0.08300119f, 0.06263202f, 0.05016931f, 0.04298214f, -0.06237305f,
    0.00738606f, -0.05455589f, 0.00338745f, -0.04243839f, 0.04269553f, -0.02944194f, 0.03040363f, 0.00140537f,
};

// Shape: (16,), dtype: float32
static const float stage0_block0_bn2_gamma[16] = {
    1.00000000f, 1.00000000f, 1.00000000f, 1.00000000f, 1.00000000f, 1.00000000f, 1.00000000f, 1.00000000f,
    1.00000000f, 1.00000000f, 1.00000000f, 1.00000000f, 1.00000000f, 1.00000000f, 1.00000000f, 1.00000000f,
};

// Shape: (16,), dtype: float32
static const float stage0_block0_bn2_beta[16] = {
    0.00000000f, 0.00000000f, 0.00000000f, 0.00000000f, 0.00000000f, 0.00000000f, 0.00000000f, 0.00000000f,
    0.00000000f, 0.00000000f, 0.00000000f, 0.00000000f, 0.00000000f, 0.00000000f, 0.00000000f, 0.00000000f,
};

// Shape: (16,), dtype: float32
static const float stage0_block0_bn2_mean[16] = {
    0.00000000f, 0.00000000f, 0.00000000f, 0.00000000f, 0.00000000f, 0.00000000f, 0.00000000f, 0.00000000f,
    0.00000000f, 0.00000000f, 0.00000000f, 0.00000000f, 0.00000000f, 0.00000000f, 0.00000000f, 0.00000000f,
};

// Shape: (16,), dtype: float32
static const float stage0_block0_bn2_var[16] = {
    1.00000000f, 1.00000000f, 1.00000000f, 1.00000000f, 1.00000000f, 1.00000000f, 1.00000000f, 1.00000000f,
    1.00000000f, 1.00000000f, 1.00000000f, 1.00000000f, 1.00000000f, 1.00000000f, 1.00000000f, 1.00000000f,
};

// Shape: (3, 3, 16, 16), dtype: float32
static const float stage0_block1_conv1_weight[2304] = {
    0.06143754f, -0.00023791f, 0.08072631f, -0.06220505f, -0.06263109f, -0.03444358f, -0.06915382f, 0.01714244f,
    -0.05398259f, 0.01554310f, 0.08186810f, -0.05294919f, 0.05472041f, 0.01188283f, -0.07464105f, 0.06053268f,
    -0.07124794f, 0.00446295f, -0.06394680f, 0.01792840f, -0.02117736f, 0.07302468f, -0.02893808f, -0.04097029f,
    -0.04515021f, -0.00308062f, -0.03815305f, -0.06425384f, 0.04035445f, -0.03781780f, -0.00146716f, 0.03619211f,
    -0.02498714f, -0.06402907f, -0.06369608f, -0.06847131f, 0.05144337f, 0.00017810f, -0.03185579f, 0.07554801f,
    0.05240945f, 0.05393648f, -0.06009699f, -0.06255485f, -0.08189364f, -0.04327540f, -0.04418259f, 0.04125610f,
    -0.02034307f, 0.04495963f, 0.00180062f, 0.06344125f, 0.00549889f, -0.07325904f, 0.06790137f, 0.01458536f,
    0.00445063f, 0.04583291f, 0.03144036f, 0.03125259f, -0.02466050f, -0.00383094f, 0.06964713f, -0.06623840f,
    -0.03119831f, 0.04887743f, 0.01972060f, -0.03561629f, 0.01115955f, 0.06705469f, -0.02444491f, 0.01743050f,
    -0.05336021f, -0.01128296f, -0.07542041f, 0.06586041f, 0.02790739f, 0.04650296f, -0.03250259f, -0.02668449f,
    0.02161742f, 0.00694730f, -0.06349065f, 0.04821957f, -0.03222758f, -0.07418151f, -0.05456543f, -0.02831373f,
    0.03029634f, -0.01052833f, 0.06063531f, -0.06926131f, -0.05198389f, -0.04810750f, -0.02547008f, -0.07335019f,
    0.01464427f, -0.05530183f, 0.02708434f, -0.03222620f, -0.08143168f, -0.07716271f, 0.01136545f, -0.01763519f,
    0.04311190f, 0.08065584f, 0.06374370f, -0.02057094f, 0.07483041f, -0.01276921f, -0.02126418f, -0.05959207f,
    -0.04795079f, 0.00394567f, 0.00365856f, -0.06750622f, 0.02081500f, -0.06406371f, 0.00999247f, -0.07201032f,
    0.03667469f, -0.01313497f, 0.02189920f, -0.05633743f, 0.05723950f, -0.03670725f, -0.07362117f, -0.00802958f,
    0.02853120f, -0.07040147f, -0.06639943f, -0.00679455f, 0.02050449f, 0.00813091f, -0.00961814f, 0.08254891f,
    -0.08265299f, -0.00038488f, 0.02150605f, -0.05379186f, 0.01161626f, -0.00773577f, 0.03574295f, 0.01277636f,
    -0.07241963f, -0.05587364f, 0.05643734f, 0.06612670f, 0.07504107f, 0.03352208f, 0.07593131f, 0.04200900f,
    -0.07692067f, -0.05491143f, -0.00108843f, 0.06246680f, -0.05466411f, -0.02183184f, 0.04552476f, 0.04230526f,
    0.05970523f, 0.06851055f, 0.07815918f, -0.01817115f, 0.03653545f, 0.06915348f, 0.06015441f, -0.02494580f,
    -0.05337065f, -0.06268178f, -0.03158318f, 0.01523308f, -0.07373729f, -0.08151212f, 0.02522411f, 0.07800081f,
    0.03643565f, 0.04202389f, -0.06572913f, -0.06639042f, 0.08138020f, -0.06716388f, 0.06977411f, -0.07628795f,
    0.01568167f, -0.03858189f, -0.04894745f, -0.04896031f, -0.02740207f, 0.04460020f, 0.01241799f, -0.07404535f,
    0.04659294f, 0.07423149f, 0.03731073f, 0.03574079f, 0.03792631f, -0.02724781f, 0.07152271f, -0.02917214f,
    0.05697523f, 0.00430134f, 0.05077069f, 0.01406174f, -0.04216406f, -0.07253563f, 0.04656848f, 0.01906201f,
    -0.06856368f, -0.03862662f, -0.00915616f, -0.06443381f, -0.02780631f, 0.07286768f, -0.04975051f, -0.04296615f,
    -0.08072844f, 0.00496884f, -0.01160499f, -0.06083345f, -0.00436849f, -0.05973309f, 0.01517828f, 0.04508386f,
    -0.02251338f, 0.05206149f, 0.06692228f, 0.07465339f, -0.07914841f, 0.04631517f, 0.01505066f, 0.06859281f,
    0.05452716f, -0.05593422f, 0.03796735f, 0.07624911f, -0.04795452f, -0.01708633f, -0.08167094f, -0.01039070f,
    -0.05147506f, 0.03556874f, 0.04685532f, 0.06353237f, 0.04448047f, -0.08063859f, -0.00730397f, 0.02924944f,
    -0.03073395f, -0.01196306f, 0.05709702f, 0.05374606f, -0.05702155f, 0.08031470f, -0.01333163f, -0.07097279f,
    0.00235033f, -0.00070685f, -0.06497420f, -0.03642468f, -0.03245496f, 0.05860775f, -0.07506941f, -0.01206290f,
    0.03290524f, -0.05577390f, 0.06109881f, 0.05193260f, 0.03966520f, 0.00401292f, 0.05720715f, 0.08124901f,
    -0.01279572f, 0.02225817f, -0.02126771f, -0.03258120f, -0.00265650f, 0.07867425f, -0.04075198f, 0.07075685f,
    0.05377723f, 0.07751347f, -0.03765479f, -0.07997149f, 0.00410738f, -0.05589183f, -0.00200615f, 0.04876360f,
    0.01174513f, 0.02618707f, 0.07855202f, 0.07197209f, -0.01095919f, -0.03155874f, 0.02960256f, 0.03190476f,
    0.03013380f, 0.02730220f, -0.00371602f, -0.04521481f, -0.02542500f, 0.06695215f, 0.07153820f, 0.03260870f,
    0.00196450f, -0.02284683f, 0.06018785f, -0.04923984f, -0.06155458f, 0.00096913f, -0.05300630f, 0.04980100f,
    -0.04381285f, 0.04947069f, -0.01756762f, 0.01270532f, -0.03092867f, 0.02730392f, 0.01329829f, 0.06518120f,
    0.06988047f, 0.05144808f, -0.02731406f, -0.02401818f, -0.00937962f, -0.02201800f, 0.04992145f, -0.03024085f,
    -0.04647064f, 0.03417400f, 0.07484445f, -0.05505791f, 0.06284269f, -0.02311989f, -0.02665446f, -0.04470986f,
    0.07781887f, 0.04184883f, 0.00864679f, -0.05347034f, -0.00408366f, -0.04758438f, 0.01053427f, 0.02759960f,
    -0.07289340f, 0.05624112f, -0.07863115f, -0.00252964f, 0.04973888f, 0.04145875f, -0.02339174f, -0.01572702f,
    0.05991840f, 0.02444842f, -0.05195129f, -0.03221347f, -0.04955475f, 0.04968162f, 0.01175289f, 0.04996341f,
    -0.06870660f, 0.07844882f, -0.08153161f, 0.01658649f, 0.03569129f, -0.05810519f, 0.07759613f, 0.06571558f,
    0.03563815f, -0.01738337f, -0.01124303f, 0.04723968f, -0.04668326f, -0.07702328f, 0.07770061f, 0.07570612f,
    0.04466374f, -0.00249222f, -0.03444319f, 0.02962492f, 0.06115010f, -0.03410603f, -0.05074270f, -0.01894060f,
    0.04041165f, 0.00652355f, 0.06699978f, 0.07253999f, -0.04470696f, 0.05580599f, -0.01667975f, 0.01958270f,
    0.06121896f, 0.06527777f, 0.08078992f, -0.01680618f, -0.07934874f, 0.03470531f, -0.04703669f, 0.04913747f,
    -0.07533031f, -0.06965791f, -0.02218068f, -0.01318373f, 0.01458160f, 0.03883080f, -0.05940127f, -0.07314935f,
    -0.03331240f, -0.01963791f, -0.02902901f, 0.03836970f, 0.02867797f, -0.03896945f, -0.07424200f, 0.03440898f,
    -0.00861094f, 0.08178058f, -0.07017154f, -0.08182722f, -0.07002507f, 0.05002810f, 0.07898213f, 0.07677179f,
    -0.00447515f, -0.02454158f, -0.01682559f, -0.07351959f, 0.00672329f, -0.05156935f, 0.03196087f, -0.03049979f,
    -0.00113723f, 0.05797501f, 0.01398249f, -0.01338945f, -0.02333842f, 0.04762326f, 0.07859799f, 0.04346455f,
    0.05067977f, -0.01672097f, -0.01808087f, 0.03359019f, 0.02839726f, -0.08048268f, -0.06084576f, -0.08244297f,
    0.03202656f, -0.04385964f, -0.00693778f, 0.05810829f, -0.05294704f, 0.07699163f, -0.00797869f, 0.00378417f,
    -0.00631218f, -0.01319555f, 0.05110380f, -0.08316439f, 0.02218499f, -0.07846706f, -0.07986535f, 0.07140975f,
    0.03744256f, -0.07268658f, -0.08266272f, 0.01740460f, 0.06163445f, -0.07293238f, 0.06123028f, 0.02010243f,
    0.03599098f, -0.04455225f, -0.02203897f, 0.04589623f, -0.03765210f, 0.04444323f, -0.02082014f, 0.06210340f,
    -0.00459561f, 0.07338868f, 0.04956887f, -0.00615612f, -0.02391163f, -0.00703598f, 0.04814669f, 0.00501479f,
    0.00423169f, 0.06668436f, 0.07591243f, 0.06997854f, -0.05367373f, -0.02789949f, -0.01589694f, -0.05486033f,
    0.06185269f, -0.04809812f, -0.05511283f, -0.06940791f, -0.07675852f, -0.06060926f, -0.04515076f, -0.01150165f,
    0.00913950f, 0.07143331f, -0.04662004f, 0.05410792f, 0.05724876f, -0.08172342f, -0.05264940f, 0.03244462f,
    0.01890260f, -0.02679490f, 0.05292685f, -0.04502442f, 0.05820402f, -0.02612156f, -0.04889581f, 0.04900541f,
    -0.01616901f, 0.07233901f, -0.07316527f, 0.02974891f, 0.08212963f, 0.00769344f, 0.06462779f, -0.00758944f,
    0.02313860f, -0.05306570f, -0.02509221f, -0.07061024f, 0.02402421f, -0.03690282f, -0.07895692f, 0.00469238f,
    -0.07638595f, 0.00744330f, 0.06030988f, -0.06937242f, -0.07361951f, -0.06768488f, 0.01646492f, -0.00164109f,
    0.04977101f, -0.05722576f, 0.05705578f, -0.05122770f, 0.05839676f, -0.06398907f, 0.06495236f, -0.01580903f,
    -0.06073099f, 0.06616839f, -0.07619260f, 0.07668190f, -0.01123291f, 0.06115935f, -0.03074211f, -0.04678165f,
    0.06690216f, 0.01459123f, -0.02208312f, 0.01579948f, 0.01146477f, -0.05052925f, 0.01806345f, 0.00585294f,
    0.00663298f, 0.07438059f, -0.07717904f, 0.04227096f, -0.05868436f, -0.08178764f, -0.00851686f, 0.04396225f,
    0.06417787f, -0.03889607f, -0.00152058f, -0.02032261f, -0.01874460f, 0.05339299f, 0.04494722f, -0.05565537f,
    0.02328043f, -0.06802635f, 0.05774623f, -0.08115911f, -0.04601791f, -0.03395424f, -0.01834346f, 0.04339260f,
    0.03293311f, -0.08019312f, -0.05044323f, -0.06245127f, 0.01611943f, 0.02759687f, -0.08140761f, -0.05222142f,
    0.00800862f, -0.04841962f, 0.04619776f, -0.04055550f, 0.06259346f, 0.05977220f, -0.05401813f, -0.02976850f,
    -0.04781773f, -0.01258814f, -0.02707581f, 0.07742926f, 0.07772759f, -0.08295961f, -0.05289575f, -0.03772073f,
    0.08147727f, -0.01733603f, 0.03118613f, 0.00763857f, 0.06951817f, 0.03940648f, 0.06288399f, -0.02521225f,
    0.07092476f, 0.00643103f, -0.00797313f, 0.02689792f, 0.00179869f, 0.08318041f, -0.06981583f, 0.04308640f,
    0.04227233f, -0.05125546f, -0.00389619f, -0.05448837f, 0.06244829f, 0.02563580f, -0.02291353f, 0.05861657f,
