// Auto-generated weights file
// DO NOT EDIT

#ifndef WEIGHTS_H_
#define WEIGHTS_H_

#include <stddef.h>
#include <stdint.h>

// Shape: (5, 5, 6, 16), dtype: float32
static const float stem_conv_weight[2400] = {
    -0.01963864f, 0.07197937f, -0.07845169f, -0.05921070f, -0.05865582f, 0.06982096f, 0.04848401f, -0.04574125f,
    -0.03665088f, -0.03719890f, -0.02754973f, -0.07589813f, 0.05591684f, -0.06864057f, 0.07362154f, 0.03267787f,
    -0.06840653f, -0.03301026f, -0.02246636f, -0.02860428f, -0.06647419f, 0.04304365f, -0.01322386f, 0.06929925f,
    -0.02564180f, -0.01492959f, -0.06533198f, -0.01397315f, -0.07203792f, -0.03767229f, -0.00188559f, -0.04593619f,
    0.00171556f, 0.00657908f, 0.00152757f, -0.07941342f, -0.04691445f, -0.04465835f, 0.08083092f, 0.05773510f,
    -0.07861811f, 0.05840570f, 0.04339936f, -0.02264444f, -0.04540603f, 0.04534498f, -0.05438332f, 0.08029389f,
    -0.00345463f, -0.01298531f, 0.07323798f, 0.01596712f, -0.02010945f, -0.08040327f, 0.02271526f, -0.07427979f,
    0.00904331f, -0.02168900f, 0.02438793f, -0.00545058f, -0.07923297f, -0.03625906f, -0.03778811f, 0.02997255f,
    0.02316502f, 0.06488270f, -0.00246747f, 0.03399589f, -0.06290247f, 0.00226057f, -0.04655168f, -0.03811968f,
    -0.05798658f, 0.07784461f, 0.05728092f, 0.05747292f, 0.01526190f, -0.05713620f, -0.04536520f, -0.01950391f,
    0.02494307f, -0.01789878f, -0.02818926f, 0.07625668f, 0.00832111f, 0.00818428f, 0.06547488f, -0.07259697f,
    -0.06578239f, 0.02510455f, 0.05662781f, 0.03099219f, 0.05175428f, -0.03838493f, 0.07079155f, -0.01758615f,
    -0.05215967f, 0.01636749f, -0.05845720f, -0.06588481f, 0.07836379f, 0.00560825f, 0.03091984f, 0.02074708f,
    -0.04821148f, 0.02252376f, 0.06371741f, 0.06213466f, 0.02422749f, 0.01421053f, -0.07487215f, 0.03236816f,
    -0.03262632f, -0.06808271f, -0.04563101f, 0.00554777f, -0.05251965f, -0.07916735f, -0.01729301f, 0.03345023f,
    -0.02164969f, -0.05069106f, 0.05871177f, 0.04463916f, 0.05164676f, -0.05784609f, 0.02269160f, -0.08095777f,
    -0.02744850f, 0.08011349f, 0.06227725f, 0.07414350f, -0.05875541f, -0.01797459f, 0.01190189f, 0.02064321f,
    -0.06259714f, 0.01227739f, -0.03040142f, -0.06196070f, 0.01027528f, 0.03085036f, -0.01120939f, -0.02678867f,
    -0.07394798f, -0.02096582f, 0.01063094f, -0.01031224f, -0.01775116f, 0.05641309f, 0.03741767f, -0.03672952f,
    0.04179034f, -0.04686169f, 0.00216664f, -0.06065870f, -0.03686346f, -0.02839203f, 0.03319178f, 0.00410260f,
    0.03715018f, 0.04533834f, -0.05268305f, -0.03281882f, -0.05385704f, 0.02230756f, 0.00025509f, 0.00865037f,
    0.04594059f, -0.02853280f, -0.03623293f, -0.04442176f, 0.03290040f, -0.00604605f, 0.01924782f, 0.06004271f,
    0.02496218f, -0.06766572f, -0.07888836f, -0.04311355f, 0.01957443f, 0.07484440f, -0.00839633f, -0.00814071f,
    0.06989025f, 0.06101251f, -0.06520936f, 0.05680518f, 0.01869690f, 0.06182321f, 0.01478744f, 0.03411204f,
    -0.02118602f, 0.05799250f, -0.04354713f, -0.04827287f, 0.02199679f, -0.07922171f, -0.01799998f, -0.05965616f,
    -0.01926199f, -0.05489830f, -0.01526473f, 0.07223332f, 0.02960596f, -0.05447211f, 0.06629892f, 0.05798836f,
    -0.03779116f, -0.01585160f, 0.02071885f, 0.08129490f, -0.02826583f, 0.03676841f, 0.03366821f, 0.02437582f,
    -0.01489970f, 0.03156861f, -0.02995968f, 0.06744586f, 0.00955628f, -0.03099751f, 0.05132852f, -0.04960923f,
    -0.04832470f, -0.02303085f, 0.08004785f, -0.00925170f, -0.01202312f, 0.01757622f, 0.01537453f, 0.07821604f,
    -0.00302018f, 0.01566011f, -0.05401866f, -0.06629359f, -0.03745998f, 0.02411391f, -0.07537193f, -0.02717577f,
    0.03157005f, 0.06213341f, 0.06342627f, 0.03645013f, -0.02472539f, 0.01072764f, -0.00985102f, 0.06497756f,
    0.01520257f, 0.00705889f, -0.00715765f, -0.01242207f, 0.00048985f, 0.07910774f, 0.04629437f, 0.07310572f,
    -0.02986523f, -0.06699348f, -0.00644663f, -0.07295018f, -0.01200140f, -0.06483488f, -0.04903739f, -0.02627923f,
    0.02768310f, 0.04258207f, 0.03213109f, 0.05165130f, 0.03139821f, -0.00053173f, 0.03908985f, 0.02239029f,
    -0.00034210f, -0.01443335f, -0.05172870f, -0.04429215f, -0.02402382f, -0.04751645f, 0.01925049f, 0.04602123f,
    -0.02861787f, -0.08159444f, -0.06378314f, -0.00199779f, 0.01520142f, -0.03310545f, 0.03933785f, 0.06441533f,
    -0.05917737f, -0.07931101f, -0.05895035f, 0.01150175f, -0.05993648f, -0.04438144f, 0.00676636f, -0.02623756f,
    -0.04436261f, -0.05374972f, 0.03166516f, 0.02357460f, 0.03368087f, 0.03832361f, -0.01765493f, 0.00252828f,
    -0.00435016f, -0.07383462f, -0.02063534f, 0.01896830f, 0.07674269f, 0.07265879f, 0.07205986f, -0.07480579f,
    -0.05325754f, -0.00669211f, -0.08116905f, -0.08011565f, 0.01958735f, 0.00837987f, 0.03043636f, -0.07542041f,
    -0.00503889f, 0.03103667f, -0.02791484f, 0.00245692f, -0.03919499f, -0.05732539f, 0.07693601f, 0.06007926f,
    0.01629936f, 0.04778340f, -0.03518137f, 0.00622454f, 0.07681746f, 0.06430679f, 0.00335420f, -0.06548323f,
    0.01680585f, 0.01714530f, 0.04742240f, 0.02053247f, -0.07855391f, -0.05124133f, 0.06292582f, -0.06726504f,
    0.05829478f, -0.07583636f, 0.05078805f, -0.06685400f, 0.08033171f, -0.07490808f, 0.06327859f, -0.02518568f,
    0.00817614f, 0.01089402f, -0.05953900f, -0.07675378f, -0.03609896f, -0.00615380f, 0.07185358f, 0.04675778f,
    -0.02498286f, -0.06915171f, 0.01213868f, -0.04579517f, 0.02754343f, 0.04643305f, 0.04160485f, -0.06117380f,
    -0.03176127f, 0.07757349f, -0.05677786f, -0.00265850f, 0.02490388f, 0.01457568f, -0.07597341f, -0.06170993f,
    0.00236196f, -0.00398619f, -0.01467499f, -0.04281157f, -0.03676019f, -0.07485957f, -0.04718996f, 0.07779633f,
    -0.00984400f, 0.06504062f, -0.06245529f, 0.04117798f, -0.03594877f, -0.02698513f, 0.04124664f, 0.03703987f,
    -0.07483153f, 0.06355044f, -0.03985424f, 0.04814847f, 0.02259751f, -0.05625174f, -0.02476438f, 0.02307952f,
    0.05220199f, -0.04536133f, 0.01050049f, -0.00503649f, -0.06510691f, 0.00345507f, -0.05178317f, 0.02240097f,
    -0.05775389f, 0.07529116f, 0.03837297f, 0.01725016f, 0.00956244f, 0.01912420f, -0.04098318f, 0.01608048f,
    -0.06317563f, 0.01751826f, 0.06116955f, -0.03170472f, -0.01948669f, 0.07111012f, 0.02263902f, 0.00570720f,
    -0.01161709f, -0.06186518f, -0.03203369f, -0.00544116f, -0.06047694f, -0.02835782f, 0.01191560f, -0.06126321f,
    -0.04723352f, 0.03825495f, -0.04240803f, -0.08035164f, 0.01061591f, -0.00761292f, -0.01305362f, -0.07049170f,
    0.05279423f, -0.04259762f, 0.05637046f, -0.07569192f, 0.03238768f, 0.03804517f, 0.07170913f, -0.07596860f,
    -0.02183893f, 0.03640191f, -0.04630493f, 0.05080270f, -0.05633433f, 0.03196212f, -0.06190387f, -0.04096225f,
    0.06709740f, -0.00048721f, -0.05392376f, 0.06929854f, 0.06228129f, -0.05560939f, 0.07977958f, -0.07294719f,
    0.00686485f, -0.07377282f, 0.03963198f, -0.07068983f, 0.05545135f, 0.01584573f, -0.02944590f, -0.08072378f,
    0.01383070f, 0.06714556f, 0.07601845f, 0.02222664f, -0.05078351f, -0.05549182f, 0.05380976f, -0.06997500f,
    -0.06562253f, -0.06575633f, 0.07065016f, 0.00112874f, -0.06761935f, -0.02465625f, -0.02840819f, -0.05759654f,
    0.01783158f, 0.03018837f, 0.01796400f, 0.01476432f, -0.06431917f, 0.05767627f, 0.04502383f, -0.03798660f,
    -0.05420922f, -0.07703321f, -0.05176481f, 0.05821841f, -0.04622396f, 0.00306230f, -0.06657730f, -0.06597986f,
    0.05382037f, -0.04196517f, -0.06251322f, -0.03475364f, -0.04411089f, -0.05173129f, 0.01098319f, 0.03525587f,
    -0.06218377f, -0.06576475f, -0.03135177f, -0.07052622f, 0.00936819f, 0.07805520f, 0.05050301f, -0.05657644f,
    0.04824173f, -0.00960195f, 0.04524177f, -0.04592920f, 0.03704250f, -0.07755388f, 0.07558835f, 0.00072357f,
    0.07179623f, 0.03234681f, 0.07462504f, -0.05479647f, -0.07941403f, 0.06304654f, -0.02761438f, -0.04522510f,
    0.02419420f, -0.01142329f, 0.00673814f, 0.00093736f, -0.03966344f, 0.01613626f, 0.03929441f, 0.07843168f,
    -0.00610394f, -0.01647443f, 0.04389767f, 0.04445444f, 0.05522250f, 0.05394767f, 0.06778274f, 0.01117951f,
    -0.04066468f, -0.02845149f, 0.06837269f, 0.04731277f, 0.03943664f, -0.06567898f, 0.07864051f, 0.07718191f,
    -0.04444885f, -0.06791701f, -0.01558391f, 0.05533817f, -0.04967199f, -0.03953006f, -0.02962963f, -0.04986131f,
    -0.05073351f, -0.04970916f, 0.03629400f, 0.07774635f, -0.00094265f, 0.05342937f, 0.04605549f, -0.05076190f,
    -0.06233758f, 0.01632397f, 0.02730411f, -0.01333500f, 0.00170488f, -0.00724103f, -0.05227182f, -0.03930223f,
    -0.06153896f, 0.06292292f, 0.06124900f, -0.07975532f, -0.02830735f, 0.07966413f, -0.02392852f, -0.00867605f,
    -0.00231136f, 0.00999265f, 0.06474105f, -0.01480569f, 0.03897340f, 0.01298592f, -0.04974961f, 0.02787021f,
    -0.00549220f, -0.03110874f, -0.05388792f, -0.04151030f, 0.02648074f, -0.00865367f, -0.01226252f, -0.06052252f,
    0.05388903f, -0.01797780f, -0.03179188f, 0.04254321f, -0.04895974f, -0.06732383f, -0.00858305f, -0.07759991f,
    -0.06180298f, 0.05602364f, 0.05745663f, 0.04810399f, 0.04003650f, -0.07427669f, -0.06676562f, -0.06156934f,
    0.04861994f, 0.03667291f, -0.01981092f, -0.00089160f, 0.02205900f, -0.07773717f, 0.05532138f, 0.05260017f,
    -0.07432826f, 0.05425055f, 0.05334376f, -0.07651494f, 0.07812858f, -0.07658643f, -0.01134554f, 0.03071118f,
    0.04702420f, 0.07256380f, 0.01437366f, 0.01582099f, 0.05864866f, 0.02817345f, -0.06103072f, -0.05809000f,
    -0.02050533f, -0.05777824f, 0.04479868f, 0.05779816f, 0.00574695f, 0.04380808f, -0.06996865f, 0.02006527f,
    0.02283957f, 0.05199935f, 0.07046599f, -0.00151630f, -0.05166941f, -0.03703186f, 0.01299202f, 0.02494850f,
    -0.03751443f, -0.01880416f, 0.02636565f, 0.04551090f, -0.00820839f, 0.00486074f, -0.07255465f, -0.03733980f,
    0.05316976f, 0.00608773f, -0.00564738f, -0.02042471f, -0.00644394f, -0.02001865f, 0.04320536f, 0.01939386f,
    0.01908268f, 0.03980653f, -0.00852723f, 0.07002065f, -0.07358472f, -0.06960920f, -0.00519544f, 0.04308764f,
    0.04040035f, -0.03028219f, 0.02068683f, 0.06134481f, -0.05954338f, 0.01692921f, 0.04579981f, -0.05497676f,
    0.07060679f, 0.01010495f, 0.06196592f, -0.02251898f, 0.07580578f, -0.02906002f, 0.06631313f, 0.03780348f,
    -0.03520598f, -0.07791317f, 0.05880843f, -0.04345372f, -0.07368919f, 0.00350134f, 0.01545431f, 0.06341191f,
    0.08013668f, 0.03414213f, 0.05086418f, -0.05913774f, -0.03268562f, 0.06407749f, 0.02287538f, 0.01872625f,
    0.07533678f, 0.00396503f, -0.00840779f, -0.01636812f, -0.05545739f, -0.01337836f, 0.01097241f, -0.00979474f,
    -0.01649768f, 0.05208795f, -0.03737666f, -0.01408555f, -0.06796419f, -0.06635677f, 0.00253740f, -0.06049578f,
    -0.04029284f, 0.03276622f, 0.06184361f, -0.07374743f, -0.04278485f, -0.00382560f, -0.04007008f, -0.07041946f,
    0.01743464f, 0.01331489f, -0.01701950f, -0.03249395f, 0.02427606f, -0.00244877f, -0.06841263f, 0.03215334f,
    0.04674074f, 0.01523631f, -0.00833280f, -0.05159405f, 0.02849316f, 0.07644182f, -0.01637752f, 0.07181209f,
    -0.06651910f, 0.05479622f, 0.00453620f, 0.07414580f, 0.00631711f, 0.03822530f, 0.08009862f, -0.00090504f,
    0.08157292f, 0.02638170f, -0.02792485f, 0.05205167f, -0.00439069f, -0.07220966f, -0.07006303f, -0.06649414f,
    -0.02074317f, 0.03825864f, 0.07695576f, -0.01057559f, -0.04741823f, 0.00023261f, -0.00813737f, 0.03928550f,
    -0.01635390f, -0.03913254f, 0.01505646f, 0.06832998f, -0.05346707f, -0.02271969f, 0.07693034f, -0.03601263f,
    0.07137496f, -0.01008457f, -0.03803154f, 0.01941696f, 0.04966604f, -0.02295147f, -0.06231617f, -0.01157458f,
    0.01172618f, 0.02993595f, 0.05216897f, -0.01742695f, 0.02834168f, 0.07413942f, -0.02508836f, 0.03283289f,
    -0.07270838f, 0.03579571f, -0.04429302f, -0.06542139f, 0.02061828f, -0.01237892f, -0.02411553f, -0.02815659f,
    -0.01610631f, -0.07730300f, -0.06197194f, 0.02285513f, 0.00516850f, -0.02213560f, -0.02462695f, 0.03361971f,
    0.04889343f, 0.00181037f, 0.01001839f, 0.07291988f, 0.02969026f, 0.02110270f, 0.02090902f, -0.05578694f,
    0.04731135f, 0.06350736f, 0.00434718f, -0.07539133f, 0.00199262f, -0.00557442f, 0.03117201f, 0.01623458f,
    0.06039831f, -0.05509848f, -0.02962189f, -0.02062869f, 0.06741004f, -0.02577568f, 0.07224123f, 0.06726856f,
    -0.03442508f, -0.07037242f, 0.07790074f, -0.05177938f, -0.05286282f, 0.07370771f, -0.07873524f, 0.02109055f,
    -0.06898201f, -0.06604444f, -0.06914818f, 0.00441049f, 0.06866238f, -0.02644176f, -0.03283893f, -0.08147821f,
    -0.07284727f, -0.08131368f, 0.06327875f, 0.03010399f, 0.03895824f, -0.00340667f, -0.07029207f, -0.07706211f,
    0.06753792f, 0.04209164f, -0.07885825f, -0.04651541f, -0.08088018f, -0.06669004f, -0.06743045f, -0.07071589f,
    0.07745957f, 0.05538109f, -0.04071223f, -0.02132309f, -0.01818151f, -0.02366396f, 0.00367250f, 0.04253373f,
    -0.05574660f, -0.00906459f, -0.01135755f, 0.00119004f, -0.00324734f, -0.01703456f, 0.01674585f, -0.05585972f,
    0.04675996f, -0.00551944f, -0.04870259f, 0.02061076f, 0.03728533f, 0.00372264f, -0.02069970f, 0.06125805f,
    -0.03561175f, 0.01171915f, -0.03853099f, 0.00833839f, 0.03777213f, -0.02464731f, -0.03657773f, 0.05260242f,
    0.07094995f, -0.01378393f, -0.00814610f, 0.02085363f, 0.02733080f, -0.06370657f, 0.07556158f, -0.07518941f,
    -0.02000919f, -0.04918389f, 0.01661304f, -0.01976542f, 0.05566085f, -0.06818478f, 0.07973449f, 0.02640717f,
    0.05717834f, -0.00363970f, 0.01404376f, -0.07086906f, 0.07590070f, 0.02343882f, 0.05650704f, -0.03438411f,
    -0.02452556f, -0.03595049f, -0.02435622f, 0.03705306f, -0.04827281f, -0.03695749f, 0.07959485f, -0.04262818f,
    -0.06870172f, -0.04172504f, -0.06782553f, 0.06368388f, 0.00693431f, -0.03897679f, 0.03527834f, 0.02681346f,
    0.08049529f, 0.03054123f, -0.00433116f, -0.01965753f, 0.02561771f, -0.02712838f, -0.07504405f, -0.04463182f,
    0.03512817f, 0.02991777f, 0.02725898f, -0.00064450f, 0.05991368f, -0.03194617f, 0.00055342f, 0.07307367f,
    -0.07571806f, -0.07218294f, 0.03716115f, -0.00190129f, 0.03078126f, -0.06871332f, -0.01651474f, -0.02284988f,
    -0.04589627f, -0.04272586f, 0.00455188f, -0.01545813f, -0.01049842f, 0.05876723f, -0.06408861f, -0.03571121f,
    0.00221849f, -0.01706759f, -0.03003625f, -0.02734024f, -0.05684535f, 0.05111338f, 0.04716843f, 0.05650355f,
    -0.02699275f, 0.04731466f, 0.03581358f, 0.06280303f, -0.07996454f, 0.02982789f, -0.01554106f, 0.01467235f,
    0.00038764f, 0.05748644f, -0.03131455f, 0.05736739f, -0.06552631f, 0.02703866f, -0.00947717f, -0.01573787f,
    -0.06872559f, -0.08141945f, -0.03023528f, 0.01010783f, -0.01477985f, 0.01164252f, 0.00260488f, 0.07334777f,
    -0.06184904f, -0.07321139f, -0.05292310f, 0.02950290f, 0.04507763f, -0.07754689f, -0.06013385f, 0.01798457f,
    -0.06497277f, -0.07779413f, 0.00980555f, 0.00766527f, -0.01289735f, -0.04233306f, -0.06323028f, 0.08101358f,
    0.01402464f, 0.02019515f, -0.07270077f, -0.07110652f, 0.05984750f, 0.03836271f, 0.02224191f, -0.01725879f,
    -0.07783552f, -0.01014258f, -0.06549726f, -0.06724438f, -0.02848359f, 0.01174105f, -0.01392914f, -0.07282890f,
    -0.04542368f, 0.05691838f, -0.04639401f, 0.03308775f, -0.02410421f, 0.06161051f, -0.05497620f, 0.05394588f,
    -0.05109744f, -0.07115968f, 0.00464181f, -0.03273507f, 0.00468458f, -0.02025400f, 0.01221465f, -0.06844571f,
    -0.00971638f, -0.05750285f, 0.06144292f, 0.06736079f, 0.06794593f, -0.05901929f, 0.06111442f, 0.00284368f,
    0.06812253f, 0.04788898f, 0.02888976f, -0.06125081f, -0.03115114f, -0.00572524f, -0.03571900f, 0.01534180f,
    -0.04462246f, 0.03969027f, -0.00285017f, -0.00672131f, -0.04773487f, -0.01897870f, 0.04771293f, -0.03137153f,
    -0.03992824f, 0.03653111f, -0.02267700f, 0.02202198f, -0.04099021f, -0.01975849f, -0.07653710f, 0.00708180f,
    0.02764242f, -0.00614528f, 0.02368973f, 0.01923342f, -0.00462131f, -0.02998714f, 0.04139654f, 0.07203425f,
    -0.00163117f, 0.03099517f, 0.01829939f, -0.01307216f, -0.03441226f, 0.03242621f, -0.04847046f, -0.05938555f,
    -0.00484722f, -0.03844338f, -0.00342445f, 0.03177888f, 0.02498548f, -0.01400180f, -0.06989907f, 0.06221221f,
    -0.04645065f, -0.00185117f, -0.02443757f, -0.00467780f, 0.06056312f, 0.06988173f, -0.06955082f, 0.06937161f,
    0.02404245f, 0.01743217f, 0.03545212f, -0.00025565f, 0.03418190f, -0.06475432f, -0.06574662f, 0.07316004f,
    0.04894650f, -0.06865938f, 0.04744065f, 0.03673920f, 0.04720465f, 0.03665335f, 0.00004839f, -0.04404821f,
    -0.03532572f, -0.06724381f, -0.03393972f, -0.06668691f, -0.00990158f, 0.06487790f, 0.07475424f, 0.00808528f,
    -0.07006607f, -0.03500547f, 0.03059959f, 0.03257436f, 0.06863121f, 0.01716016f, 0.01091047f, 0.04307469f,
    -0.05706525f, -0.01598586f, -0.07140066f, 0.03898301f, -0.04627677f, -0.05571006f, 0.03394851f, -0.02021341f,
    -0.07341182f, -0.00570607f, 0.05453153f, 0.01925218f, 0.02896313f, 0.03806556f, 0.07029369f, 0.04921781f,
    0.04289266f, 0.07101850f, -0.01701997f, 0.04071391f, 0.06195137f, 0.04900080f, 0.02420099f, -0.04871677f,
    -0.07544145f, -0.03082235f, 0.05176236f, -0.00517768f, 0.01926446f, -0.07242873f, -0.00815113f, -0.00088663f,
    0.05860693f, 0.01878398f, -0.06649542f, 0.02292609f, -0.06836118f, 0.02868311f, 0.06174553f, 0.01984178f,
    -0.05668665f, 0.03913776f, -0.03165651f, -0.07142931f, 0.01656642f, -0.04069975f, 0.02659374f, 0.01462756f,
    0.03459570f, 0.07662753f, -0.04346600f, 0.02805608f, 0.02687431f, -0.02897329f, 0.06046093f, 0.05296827f,
    0.04256998f, 0.05681781f, -0.00466652f, 0.00537640f, -0.03541848f, -0.03107363f, 0.01767826f, 0.00512113f,
    -0.00409959f, -0.02842135f, -0.05970838f, 0.00630420f, -0.06819640f, 0.07116716f, -0.04165551f, 0.05383460f,
    0.00562329f, 0.07351334f, -0.05243009f, -0.05674094f, 0.05916299f, -0.01112153f, 0.06841023f, 0.04495855f,
    -0.03268560f, 0.02122753f, -0.07472291f, -0.07879160f, -0.00054524f, 0.00773969f, 0.05116411f, -0.03722545f,
    0.00262798f, 0.02147442f, -0.02930247f, -0.05581653f, -0.01634306f, 0.06824590f, -0.00172279f, 0.07705162f,
    -0.04609907f, -0.01513637f, 0.05738834f, -0.07190577f, -0.01145642f, 0.05121542f, 0.03040715f, -0.02765978f,
    0.03612061f, 0.02106902f, -0.02798359f, -0.00825737f, -0.06851879f, 0.01682930f, 0.03802763f, 0.03748441f,
    0.00422008f, -0.04015147f, 0.05943547f, 0.02364047f, 0.04184435f, -0.06454190f, -0.05412965f, 0.04323808f,
    -0.03032145f, 0.00451243f, -0.04846980f, 0.04082429f, 0.07083988f, 0.07835347f, -0.03042777f, 0.07317516f,
    0.01212943f, 0.04300461f, 0.01882327f, 0.01091784f, 0.06512979f, 0.01417316f, -0.04627771f, -0.06934016f,
    0.02220662f, -0.06027590f, 0.01976202f, 0.06434005f, 0.05548322f, 0.07201546f, 0.07109900f, 0.02106539f,
    0.01042578f, 0.08023698f, 0.02923483f, -0.04043816f, -0.01113188f, -0.03770834f, -0.02721770f, 0.03548887f,
    -0.00959605f, 0.03469309f, -0.00246701f, 0.02106993f, 0.00559534f, 0.02121625f, 0.01233229f, 0.05483451f,
    0.05534803f, 0.05048090f, 0.07066560f, 0.05197924f, 0.07498492f, 0.01210258f, -0.07418633f, 0.03758439f,
    -0.02732525f, 0.01104253f, -0.02778332f, 0.03761791f, 0.03650663f, 0.02680508f, 0.05089677f, 0.06990676f,
    -0.05987544f, -0.02151387f, -0.05690743f, -0.01444277f, -0.04431943f, 0.03503877f, 0.00288702f, -0.04570499f,
    -0.06648529f, -0.05818360f, -0.06675877f, -0.00607420f, 0.04093004f, -0.06528569f, 0.04852301f, -0.07492141f,
    0.01289714f, -0.07928340f, 0.08038544f, 0.00965710f, -0.06741349f, 0.06456038f, 0.02361997f, -0.02890353f,
    0.02834121f, -0.00569217f, 0.05956490f, 0.00300984f, -0.03234651f, -0.02918334f, -0.07472911f, 0.06933971f,
    -0.00901242f, 0.00865587f, 0.02324762f, 0.00183623f, -0.07372910f, 0.06045197f, -0.04279739f, -0.01633808f,
    -0.04384958f, -0.04491439f, -0.02403923f, 0.00093821f, -0.07449666f, -0.00133694f, -0.04786293f, 0.01668421f,
    -0.06626465f, 0.03721715f, 0.00542304f, 0.02825564f, -0.08040451f, 0.06933256f, -0.06113220f, 0.05687068f,
    0.03169836f, 0.02525332f, -0.03549653f, 0.05343151f, -0.00052001f, -0.02579172f, 0.04304277f, 0.00267221f,
    -0.04544340f, 0.04785310f, -0.07341882f, -0.03154081f, 0.02892079f, -0.01700458f, 0.05883383f, -0.06404804f,
    -0.07262748f, -0.01954467f, -0.05723411f, 0.02322431f, -0.05844467f, 0.00936590f, -0.00977939f, 0.03441578f,
    0.04185053f, -0.05368422f, -0.03846418f, -0.08005081f, -0.03914044f, -0.02903603f, -0.02899935f, 0.05218595f,
    0.04303180f, 0.06441025f, 0.03123491f, -0.06311106f, 0.03070177f, 0.02825525f, 0.07401236f, -0.05560011f,
    -0.06836668f, -0.02023104f, -0.05675208f, 0.05314466f, 0.01506954f, 0.01388563f, -0.04930859f, 0.02950682f,
    0.04968186f, 0.00161677f, 0.00792547f, -0.01520811f, -0.06435507f, 0.00617522f, 0.03840327f, -0.00508545f,
    -0.04639656f, 0.06216185f, 0.01525591f, -0.07490631f, 0.04295832f, 0.04272511f, -0.04030100f, 0.02779682f,
    0.04183354f, -0.07602115f, 0.01943963f, 0.03942254f, 0.04827855f, -0.04015962f, -0.05180036f, -0.05312611f,
    -0.07789187f, -0.02824086f, -0.03207723f, -0.00251067f, -0.00423645f, -0.00843789f, -0.04190096f, -0.03092775f,
    -0.03101548f, 0.07324523f, -0.07423369f, 0.07043784f, 0.00203325f, -0.07062767f, 0.05569192f, 0.02917201f,
    -0.02307600f, 0.05456865f, -0.07133197f, -0.06023776f, -0.01371592f, -0.01023214f, 0.01930387f, -0.06623136f,
    0.07939012f, -0.06634277f, 0.00085192f, 0.01659459f, -0.07030412f, 0.03685047f, -0.01447894f, -0.06329166f,
    -0.07045753f, -0.01094829f, -0.01806805f, -0.01514726f, 0.00421352f, -0.05163193f, 0.03036219f, -0.05540084f,
    0.07245598f, 0.05362555f, -0.00111064f, -0.02010598f, -0.04951258f, -0.05059886f, -0.02445173f, 0.05982507f,
    0.00532702f, -0.01181451f, 0.00494987f, -0.07855368f, -0.07330250f, -0.05459591f, -0.05572168f, -0.08060820f,
    0.00946173f, 0.07126791f, 0.01729569f, 0.07114289f, 0.04932920f, 0.00692313f, 0.02483661f, -0.00926982f,
    0.07302611f, -0.05332082f, -0.02510116f, -0.00030581f, 0.00701669f, 0.03856365f, -0.00857981f, 0.07345244f,
    -0.02045168f, -0.05104630f, -0.08000244f, -0.04485715f, -0.03157759f, 0.05321426f, -0.02552752f, -0.04248473f,
    -0.05955636f, -0.03313127f, 0.02561372f, 0.05830582f, 0.00857067f, -0.01076138f, 0.07158969f, -0.04032034f,
    -0.02323538f, -0.02136998f, 0.07267968f, -0.02636523f, -0.07338051f, -0.01657941f, -0.01678732f, -0.03785080f,
    -0.00628928f, 0.06197536f, -0.06508462f, 0.06697075f, -0.03264813f, -0.06388360f, 0.01777449f, 0.07158317f,
    -0.03701558f, 0.06148933f, 0.01034064f, -0.02777554f, -0.05073201f, -0.06444109f, 0.07000913f, 0.07289386f,
    -0.05285307f, -0.07751422f, -0.01879977f, -0.00233716f, 0.05992545f, -0.06469062f, 0.06319043f, -0.07476355f,
    0.07737187f, 0.07188153f, -0.06166738f, 0.06349781f, -0.07693873f, -0.02757337f, 0.01394662f, 0.04279674f,
    -0.02569685f, 0.00448980f, 0.01145989f, 0.01019019f, 0.06977569f, 0.00596200f, -0.01878733f, -0.07081001f,
    -0.03845290f, -0.01822590f, 0.03624335f, 0.04356429f, -0.07312246f, 0.03366042f, -0.08132222f, 0.02499283f,
    -0.05485269f, -0.02288888f, 0.06260280f, 0.00842432f, -0.04360599f, -0.00303647f, -0.01338637f, -0.06766165f,
    -0.06132166f, 0.07872619f, -0.01548881f, 0.01059218f, 0.02559693f, 0.00793858f, -0.02488120f, 0.00740486f,
    -0.03930771f, -0.01304394f, -0.03232674f, -0.04886065f, 0.04830519f, 0.03983456f, -0.00587486f, 0.01801486f,
    0.01088235f, -0.07301750f, -0.03267530f, 0.06144463f, -0.06959789f, -0.07693705f, -0.01754973f, 0.02303512f,
    0.01165028f, -0.04217323f, -0.04636237f, -0.07000176f, -0.05756825f, -0.03264727f, 0.06613082f, -0.06564029f,
    0.07398434f, -0.08047818f, -0.01783437f, -0.00975711f, 0.02598281f, -0.01151260f, -0.05659527f, -0.06262039f,
    -0.06369583f, 0.02421500f, -0.05767856f, 0.02512764f, -0.00253385f, 0.03518516f, 0.08102842f, -0.00821422f,
    -0.04683851f, 0.04528183f, 0.06767177f, -0.00788049f, -0.06662166f, -0.07351701f, 0.02099698f, -0.03715398f,
    0.04845925f, -0.01222689f, -0.02378024f, 0.06346907f, -0.06554369f, -0.04810406f, 0.00241437f, 0.05821743f,
    -0.05357920f, 0.00863387f, 0.04743138f, 0.04593247f, -0.03171638f, -0.02254328f, 0.04272969f, 0.04749460f,
    0.07743441f, 0.03431857f, -0.00905688f, 0.07784160f, -0.04044721f, 0.06198533f, 0.01562370f, 0.05623750f,
    -0.00959975f, 0.01683632f, 0.05740255f, 0.05714170f, 0.02290992f, -0.03366932f, 0.04566492f, 0.03109187f,
    0.03465015f, -0.01929442f, 0.07847567f, 0.01541589f, 0.02346953f, 0.06693955f, 0.04359069f, 0.05356935f,
    0.00998808f, 0.03160852f, 0.08164788f, 0.08031435f, 0.04941013f, 0.07418305f, -0.01048866f, -0.01361865f,
    -0.03218875f, -0.06336046f, 0.02155653f, -0.06523490f, 0.03459231f, -0.04192612f, 0.04256387f, 0.03779459f,
    0.04967927f, -0.02333060f, -0.04551768f, 0.04715721f, 0.01228085f, 0.06444701f, 0.03271601f, -0.02184778f,
    -0.01241423f, 0.02798746f, -0.00123556f, 0.00812016f, 0.02943068f, 0.04928451f, -0.04211118f, 0.07225066f,
    0.00501168f, 0.06992897f, 0.07982588f, 0.07986653f, -0.07082976f, -0.07681134f, -0.05217471f, -0.05250780f,
    -0.03628488f, -0.03319602f, -0.03100768f, 0.03863279f, -0.03401878f, 0.00173059f, 0.00814612f, 0.07724877f,
    0.01246428f, -0.04875996f, 0.01107406f, 0.05708550f, 0.05313174f, -0.05353308f, 0.02073045f, 0.03591895f,
    -0.05999644f, -0.04333213f, 0.04583389f, 0.02383444f, -0.00435260f, 0.07375067f, -0.05440483f, 0.03034774f,
    -0.02742404f, 0.04663169f, -0.06525531f, 0.03882353f, -0.06510378f, -0.04101500f, -0.05076748f, 0.03635665f,
    -0.04263588f, -0.03613756f, 0.03449924f, 0.03682592f, 0.05329604f, -0.02408594f, -0.03045433f, -0.06845327f,
    -0.04766191f, 0.04083245f, -0.05728766f, 0.05365931f, 0.03542697f, 0.00696576f, -0.02136211f, -0.06909493f,
    -0.07920476f, 0.06423283f, -0.02289008f, -0.05880335f, -0.06892660f, 0.06310711f, 0.03215323f, 0.04062539f,
    0.03496641f, -0.00005970f, -0.03741275f, 0.01487642f, 0.05171035f, 0.01703490f, -0.05688692f, 0.04203075f,
    0.00982085f, 0.01116932f, -0.04856424f, -0.01706612f, 0.04364669f, -0.02510938f, 0.04822672f, -0.04983591f,
    0.02254501f, -0.08060160f, -0.02146901f, 0.04960015f, -0.05095747f, -0.00361863f, 0.07799646f, 0.07886947f,
    0.06619194f, 0.00534543f, -0.04543522f, -0.07237388f, -0.01786189f, 0.06663833f, -0.02546543f, -0.00711284f,
    -0.06164299f, -0.04451990f, 0.04678688f, -0.05087504f, -0.06353743f, 0.01695567f, -0.00314635f, -0.07151210f,
    -0.05799970f, 0.06782297f, 0.01852838f, 0.01018556f, 0.05737436f, 0.02014600f, -0.05706353f, 0.07976186f,
    -0.05477732f, 0.03430602f, 0.04634263f, -0.00540555f, 0.07149626f, -0.01523994f, 0.04511075f, -0.01028548f,
    0.01689861f, -0.06575207f, 0.00530313f, 0.02279678f, 0.07824069f, -0.02160579f, -0.03558247f, -0.07001910f,
    -0.01387470f, -0.04884912f, -0.06548678f, -0.04733819f, -0.00970848f, 0.00357609f, 0.07809733f, -0.03470645f,
    -0.04361317f, 0.07315975f, -0.07554788f, 0.06547007f, -0.04915360f, -0.03988120f, 0.00638150f, -0.07413303f,
    -0.00458440f, 0.01660329f, -0.00757630f, 0.04382725f, -0.00697033f, 0.01435774f, -0.02623242f, -0.02511444f,
    -0.04230304f, 0.02452688f, -0.04947061f, 0.01614674f, 0.06788212f, -0.07773633f, -0.00446938f, -0.04071118f,
    -0.03773338f, -0.06730112f, -0.06201347f, -0.07762694f, -0.02666183f, 0.06122962f, -0.00200835f, 0.06282578f,
    -0.07902362f, 0.01698126f, 0.06043546f, -0.07911830f, 0.04036326f, -0.05301820f, -0.03776612f, 0.00346723f,
    0.04186839f, 0.00216884f, 0.06502637f, 0.06826261f, 0.02623228f, 0.08163333f, -0.04542452f, -0.02789604f,
    -0.04888555f, 0.04971909f, 0.01241984f, -0.01835952f, -0.06737480f, 0.07976944f, -0.02265102f, -0.05102054f,
    -0.04022288f, -0.05141314f, -0.06184261f, -0.00721070f, 0.00701071f, -0.00952596f, 0.02350042f, 0.05809938f,
    0.07673901f, 0.07856902f, 0.04190936f, -0.04404126f, -0.02741358f, 0.02010472f, -0.02483422f, 0.01554761f,
    -0.02692671f, -0.03658592f, -0.00941338f, 0.07017066f, 0.06557062f, 0.01900335f, -0.05919812f, 0.01990772f,
    -0.01059922f, -0.04412722f, 0.03810533f, 0.04715249f, -0.07526532f, -0.04672885f, 0.04254237f, -0.00682779f,
    -0.02007916f, 0.00187588f, 0.02218049f, 0.04182275f, -0.07117470f, 0.03064848f, -0.01460435f, -0.03897294f,
    -0.06890698f, -0.04139211f, -0.03208333f, -0.05618702f, 0.08094800f, 0.06579013f, -0.03406660f, 0.00229691f,
    -0.04251270f, -0.04447020f, 0.01642017f, 0.06007657f, -0.02246266f, 0.03250525f, -0.03494992f, -0.05143895f,
    0.08075886f, -0.05433102f, -0.04281184f, 0.03783655f, -0.00301168f, -0.05049622f, -0.07850643f, -0.06519877f,
    -0.01389109f, 0.03104462f, 0.01105681f, 0.01593748f, 0.03378953f, -0.02847201f, -0.04573413f, 0.00468256f,
    0.01158186f, 0.04746988f, 0.04594291f, 0.02508248f, -0.04852101f, -0.04851602f, -0.03821854f, -0.08108783f,
    0.07299044f, 0.02156251f, -0.08149651f, -0.04622979f, 0.03408686f, 0.06976724f, -0.07313806f, -0.06297820f,
    0.00142452f, 0.00646754f, 0.02353187f, 0.02537804f, 0.04083534f, 0.06205156f, 0.00755634f, -0.06309498f,
    -0.03883485f, -0.05046217f, 0.06475893f, -0.04797899f, 0.06558158f, -0.05546686f, -0.03766947f, 0.04098973f,
    0.04649362f, -0.04169243f, 0.02782968f, 0.03086148f, 0.01603114f, -0.06593083f, 0.07756753f, -0.02501781f,
    0.02602264f, -0.01173924f, -0.03769389f, 0.03691629f, 0.02560671f, 0.01901974f, -0.01846837f, -0.03476228f,
    -0.02184947f, 0.03390178f, 0.01845758f, 0.03558822f, 0.01496705f, -0.03413026f, 0.01679535f, 0.00358807f,
    -0.06801924f, 0.01102290f, 0.00459936f, -0.06888094f, -0.05000420f, 0.01372505f, 0.04490872f, -0.07943803f,
    0.02927295f, -0.04801463f, -0.00568735f, 0.05291370f, 0.05655439f, 0.04926786f, 0.01508807f, -0.06327867f,
    0.02997820f, 0.01775939f, -0.04585041f, 0.07964616f, -0.06681061f, -0.03568431f, 0.00970848f, -0.00004928f,
    -0.00593867f, 0.07930871f, -0.02197171f, -0.03006709f, -0.05808666f, -0.03702179f, 0.02713449f, -0.02042305f,
    -0.02485402f, -0.05710852f, -0.00454033f, 0.02650342f, -0.07579143f, 0.03784242f, 0.03532384f, 0.05472819f,
    -0.05214961f, -0.03666578f, 0.06556595f, 0.01039253f, -0.07638920f, 0.00847391f, 0.06059863f, -0.00115315f,
    -0.03759801f, -0.06390947f, -0.02494396f, -0.05868420f, 0.05484691f, -0.05017287f, 0.06499150f, -0.06731623f,
    -0.03012314f, -0.05262235f, 0.04743166f, -0.01693461f, 0.03399987f, -0.03192738f, 0.01178895f, -0.07555094f,
    -0.06063096f, -0.04713000f, -0.08074362f, 0.02583720f, -0.06910955f, 0.07464134f, 0.01144272f, 0.03270418f,
    -0.07765643f, 0.06618103f, 0.01701822f, 0.08076984f, 0.05314768f, 0.06517527f, -0.03468252f, 0.00751592f,
    -0.02182990f, -0.05178079f, -0.05319751f, -0.06934930f, 0.05924040f, 0.00745121f, -0.04736650f, 0.06726430f,
    0.04319426f, 0.07741639f, -0.05930224f, 0.00921297f, -0.06475073f, 0.07133386f, -0.05114354f, -0.02229879f,
    -0.03432083f, -0.01840469f, -0.03195872f, 0.02850863f, -0.02004085f, -0.06481890f, -0.02676749f, 0.01389649f,
    -0.01898317f, -0.02721020f, -0.00084788f, -0.00919342f, 0.05469061f, 0.05622015f, 0.07316566f, 0.02281060f,
    -0.01102720f, -0.04129384f, -0.05903049f, 0.00620026f, 0.02003931f, -0.06313355f, -0.05061937f, -0.04181588f,
    0.05030758f, 0.01482226f, -0.04451743f, -0.01776758f, 0.01137201f, -0.01387781f, 0.06679934f, -0.06212234f,
    -0.00517815f, -0.02637303f, 0.02434335f, 0.07708135f, -0.05447674f, 0.02672266f, 0.03911067f, 0.03136267f,
    0.02483162f, -0.01912359f, 0.01094213f, -0.04658351f, 0.06997433f, 0.03517352f, -0.03603193f, 0.05004920f,
    0.03577757f, 0.00560576f, 0.01566824f, -0.03323220f, 0.03456177f, 0.02211573f, 0.00482973f, -0.01876097f,
    -0.01845885f, -0.02417969f, -0.06369373f, -0.01699807f, 0.02790351f, 0.08129609f, 0.02488599f, -0.02561458f,
    0.02287729f, 0.01950230f, -0.05769826f, 0.07456264f, -0.01224066f, -0.05979994f, 0.05687921f, -0.04017463f,
    0.01678110f, -0.05874609f, 0.03137283f, 0.03431169f, -0.05274685f, 0.01413662f, 0.02072323f, 0.02964062f,
    0.07016244f, -0.05667562f, -0.04651991f, 0.00563624f, -0.02867078f, -0.06185457f, 0.05529759f, -0.04107948f,
    -0.00027218f, 0.03134464f, -0.02937544f, -0.00433942f, 0.03794149f, 0.05277648f, -0.01522962f, 0.06728664f,
    0.05736831f, 0.01828889f, 0.06126981f, -0.06603712f, 0.00105635f, -0.04455385f, 0.03733094f, 0.04216286f,
    -0.02946887f, -0.06646138f, 0.04953388f, 0.01126322f, -0.06893044f, 0.01068386f, -0.07387450f, 0.01278676f,
    0.03472912f, 0.02051899f, 0.00552551f, -0.01444137f, 0.05265886f, 0.05765767f, -0.06975472f, -0.06960633f,
    0.01703019f, 0.01590506f, 0.01484127f, 0.03257229f, 0.05020601f, 0.02609814f, 0.04648828f, 0.05875548f,
    0.03239171f, -0.06181116f, 0.00794374f, -0.00718249f, -0.07131210f, 0.01886967f, 0.06226245f, -0.02577568f,
    -0.07518864f, 0.05140435f, 0.01005564f, 0.04730633f, 0.05488679f, 0.04412302f, 0.02669995f, 0.04972285f,
    0.06385564f, 0.06688111f, 0.01349107f, 0.00897034f, 0.02168702f, -0.06265859f, -0.06833969f, 0.02481616f,
    -0.02000078f, 0.04723099f, -0.00955660f, -0.01278650f, 0.00421702f, 0.03022302f, -0.01255793f, -0.01002517f,
    -0.06530844f, -0.08032085f, -0.02079628f, -0.07206661f, 0.03274295f, -0.03389974f, -0.06478839f, 0.00625241f,
    0.07232967f, 0.04256377f, -0.00915507f, 0.07304905f, 0.07619226f, -0.03357005f, -0.00663705f, 0.04006444f,
    -0.07409948f, -0.02028039f, -0.03752952f, 0.00547223f, -0.01798178f, -0.04469023f, 0.07900523f, 0.07693514f,
    -0.00360044f, 0.02444396f, -0.03549425f, 0.04057697f, -0.07415570f, 0.02629366f, -0.05154433f, 0.07863178f,
    0.01135927f, 0.00108888f, 0.07480592f, -0.00446507f, -0.06819118f, 0.02502437f, -0.00176264f, -0.04077327f,
    -0.00094026f, 0.02575671f, -0.04713996f, -0.00391843f, 0.05759050f, -0.03114716f, -0.02364894f, -0.01968920f,
    -0.02819973f, 0.08026563f, 0.04803040f, 0.05160848f, 0.07496517f, 0.03170268f, -0.01413220f, 0.01422694f,
    -0.07101803f, -0.02106940f, 0.00877199f, 0.07161929f, -0.00114292f, -0.08117682f, -0.01047117f, 0.07471315f,
    0.05612534f, 0.04158580f, 0.00267476f, -0.03075028f, 0.02961828f, -0.00071092f, -0.01196728f, 0.02743540f,
    -0.07071716f, -0.00248481f, -0.01444140f, 0.07948401f, 0.04896472f, 0.07417591f, 0.00070375f, -0.00063117f,
};

// Shape: (16,), dtype: float32
static const float stem_bn_gamma[16] = {
    1.00000000f, 1.00000000f, 1.00000000f, 1.00000000f, 1.00000000f, 1.00000000f, 1.00000000f, 1.00000000f,
    1.00000000f, 1.00000000f, 1.00000000f, 1.00000000f, 1.00000000f, 1.00000000f, 1.00000000f, 1.00000000f,
};

// Shape: (16,), dtype: float32
static const float stem_bn_beta[16] = {
    0.00000000f, 0.00000000f, 0.00000000f, 0.00000000f, 0.00000000f, 0.00000000f, 0.00000000f, 0.00000000f,
    0.00000000f, 0.00000000f, 0.00000000f, 0.00000000f, 0.00000000f, 0.00000000f, 0.00000000f, 0.00000000f,
};

// Shape: (16,), dtype: float32
static const float stem_bn_mean[16] = {
    0.00000000f, 0.00000000f, 0.00000000f, 0.00000000f, 0.00000000f, 0.00000000f, 0.00000000f, 0.00000000f,
    0.00000000f, 0.00000000f, 0.00000000f, 0.00000000f, 0.00000000f, 0.00000000f, 0.00000000f, 0.00000000f,
};

// Shape: (16,), dtype: float32
static const float stem_bn_var[16] = {
    1.00000000f, 1.00000000f, 1.00000000f, 1.00000000f, 1.00000000f, 1.00000000f, 1.00000000f, 1.00000000f,
    1.00000000f, 1.00000000f, 1.00000000f, 1.00000000f, 1.00000000f, 1.00000000f, 1.00000000f, 1.00000000f,
};

// Shape: (3, 3, 16, 16), dtype: float32
static const float stage0_block0_conv1_weight[2304] = {
    0.02344760f, 0.06449744f, 0.01628256f, -0.06715503f, -0.06543766f, -0.01991278f, 0.04517764f, -0.02614718f,
    0.01747730f, -0.01544658f, -0.06680253f, 0.00743212f, -0.01989402f, -0.02313607f, -0.04239953f, 0.01399971f,
    -0.03418327f, -0.03156546f, 0.01549674f, 0.05450748f, 0.03116187f, -0.02057682f, 0.03334443f, -0.07566246f,
    -0.01952568f, 0.04298286f, -0.07154274f, 0.07560183f, 0.07543870f, 0.00782828f, 0.08278419f, -0.03143420f,
    -0.00641606f, -0.08178242f, -0.06649499f, 0.01936452f, 0.05002208f, 0.06704745f, 0.01742290f, -0.03048415f,
    0.01949804f, -0.05104851f, -0.06628956f, 0.00101234f, -0.00665226f, 0.01722160f, 0.05606942f, 0.08118420f,
    0.02215976f, 0.07673591f, -0.00936512f, 0.01793334f, 0.06061741f, 0.06179668f, -0.01018780f, -0.03104675f,
    -0.04222072f, 0.03347553f, -0.04413459f, -0.02362740f, 0.03153668f, -0.07528238f, 0.07802476f, 0.06831245f,
    0.07146537f, 0.02072750f, -0.04471111f, 0.07741460f, -0.00624056f, 0.06599065f, -0.01165261f, 0.07648291f,
    0.06213963f, -0.01729140f, 0.02316127f, -0.07270866f, 0.03522348f, 0.03152768f, -0.04636247f, -0.06376358f,
    -0.05071288f, -0.04040764f, -0.02732186f, -0.00355071f, -0.02884597f, 0.05220486f, 0.03410026f, -0.01797197f,
    -0.02358301f, 0.00389906f, -0.05851529f, -0.07120954f, -0.00636154f, -0.03059689f, -0.04709467f, 0.02609055f,
    -0.03880031f, 0.05880486f, 0.07056957f, -0.04928388f, -0.03239813f, 0.04121731f, 0.00948654f, 0.06621373f,
    -0.03678417f, 0.00711008f, -0.06393093f, -0.04405446f, 0.00251796f, 0.00762625f, -0.04344288f, -0.01606819f,
    -0.01414628f, 0.07403199f, -0.04661744f, -0.07531338f, 0.02967723f, -0.08294840f, -0.04025670f, 0.03092910f,
    0.07060598f, -0.08053704f, 0.02308569f, -0.01068491f, -0.04842662f, -0.03581627f, 0.02644967f, 0.03580949f,
    -0.07207344f, -0.06479469f, 0.07665409f, 0.02972113f, 0.04867661f, 0.05315860f, -0.07601988f, -0.07994103f,
    -0.02843983f, 0.06010232f, 0.05004266f, 0.02084691f, 0.06589096f, -0.00919372f, -0.04031339f, 0.01393918f,
    -0.04387264f, 0.00992451f, -0.06106626f, -0.07443019f, 0.02235244f, 0.02326125f, -0.03038889f, 0.04119354f,
    0.06848573f, 0.05353360f, 0.01944486f, 0.06663713f, -0.04434682f, 0.03934362f, -0.00151605f, 0.02743528f,
    -0.08288234f, -0.01420768f, 0.08237143f, -0.02366447f, -0.05265496f, 0.03549051f, -0.00962292f, -0.01522650f,
    -0.05325828f, 0.06880891f, -0.05276673f, 0.00660290f, -0.04469616f, -0.04742020f, -0.01115449f, -0.07529324f,
    -0.01264186f, -0.01504417f, -0.05810018f, -0.06102919f, 0.05796776f, 0.01370842f, 0.02803352f, 0.01776882f,
    0.02263771f, -0.08104503f, 0.03868487f, -0.00295744f, -0.01976250f, 0.07377271f, 0.04446052f, 0.04551524f,
    -0.00401893f, 0.01991126f, 0.07745357f, 0.01268036f, -0.06337233f, 0.08307045f, -0.08060631f, 0.02138477f,
    0.04233448f, -0.05089852f, -0.06964774f, 0.00809415f, 0.03233553f, 0.03105980f, -0.07959437f, 0.07691538f,
    0.00341756f, -0.06604867f, -0.03978336f, 0.05311286f, -0.02646150f, -0.07592004f, -0.06389394f, 0.00468875f,
    0.01942628f, -0.01636659f, 0.01772120f, -0.01016447f, -0.07525476f, -0.03977254f, 0.00455307f, -0.03903313f,
    -0.00853042f, -0.01736278f, -0.06696762f, 0.00618699f, -0.06620240f, 0.01391700f, 0.05093358f, -0.00280652f,
    0.05499006f, 0.01619931f, 0.06989896f, -0.01779537f, -0.03219651f, 0.05597426f, 0.06799838f, 0.05525625f,
    0.03812390f, -0.06476618f, -0.04766751f, 0.04364736f, 0.04356500f, 0.06146124f, 0.07721184f, -0.04565676f,
    0.01616167f, -0.05601001f, -0.03350999f, -0.02493994f, -0.03652643f, 0.03456978f, 0.04872429f, 0.04830700f,
    0.05134361f, -0.02296508f, -0.00323640f, 0.02273830f, -0.02538187f, 0.05161699f, 0.03354979f, 0.04945435f,
    0.05895118f, -0.01892688f, 0.04193612f, -0.01598385f, 0.01943277f, -0.00437690f, -0.05555911f, -0.06065985f,
    -0.04111652f, 0.00875673f, 0.04348069f, 0.07715841f, -0.00246327f, 0.01208867f, 0.02999475f, 0.04279687f,
    -0.01249140f, 0.03626740f, 0.00133826f, -0.01359657f, -0.05972720f, 0.02896203f, 0.08322100f, 0.07744651f,
    -0.05707915f, -0.03289692f, 0.01751298f, -0.04964142f, 0.05139076f, 0.03061165f, -0.01630973f, -0.01681424f,
    -0.07939659f, -0.07821384f, 0.05816064f, -0.01683770f, 0.03297012f, 0.06050075f, 0.03268957f, 0.06746456f,
    -0.04934489f, -0.06678925f, 0.04137456f, 0.07947874f, -0.07943802f, 0.04801630f, 0.00175080f, -0.01751884f,
    -0.06811907f, -0.00574936f, 0.02692453f, -0.07762584f, 0.06985627f, -0.05305600f, 0.02565110f, 0.01689426f,
    0.08121717f, 0.01152291f, -0.07532640f, 0.03822730f, -0.01551114f, 0.06416082f, -0.00451159f, -0.06222723f,
    0.06997579f, -0.00120426f, 0.02877815f, 0.06193925f, -0.07232715f, 0.00796640f, 0.03302751f, 0.02969123f,
    0.04188729f, 0.00591351f, -0.04741583f, 0.07517707f, 0.05076275f, 0.01148591f, -0.01746956f, -0.01780621f,
    -0.02278860f, -0.01523656f, 0.04655749f, 0.01998755f, 0.07774733f, 0.00696884f, 0.02678395f, 0.07218456f,
    -0.01375549f, 0.01997786f, -0.03655795f, -0.05895466f, -0.00847062f, -0.06188162f, 0.04491860f, 0.00400535f,
    -0.05719783f, 0.02555974f, 0.02530937f, -0.05126129f, 0.01216069f, 0.07676977f, 0.06649851f, -0.01449791f,
    0.06780225f, -0.06026550f, 0.02230109f, -0.04543570f, -0.03418359f, -0.01234798f, -0.04614606f, -0.03480875f,
    -0.05605469f, -0.01743994f, -0.00947827f, -0.05302588f, 0.05032503f, -0.04435103f, -0.07443027f, 0.06407607f,
    0.03565679f, -0.03077269f, -0.04569785f, -0.02518412f, -0.01678724f, -0.04445571f, 0.08151144f, -0.01969765f,
    0.04998863f, -0.07699811f, -0.07542434f, 0.05996066f, -0.03166249f, 0.04233300f, -0.03636780f, 0.05743766f,
    0.05013817f, 0.04612216f, 0.00601946f, -0.03218105f, 0.05783886f, -0.03461553f, -0.06688371f, 0.07011180f,
    -0.05658468f, -0.03683211f, 0.02644871f, 0.00375227f, -0.03188232f, 0.05377107f, 0.03628933f, 0.02680713f,
    -0.03479586f, -0.03484176f, 0.07628509f, -0.03410226f, 0.01794341f, -0.01659753f, -0.03974465f, -0.00865428f,
    -0.01808198f, 0.01567650f, 0.02189996f, -0.01696788f, 0.04585221f, 0.02240238f, -0.03888964f, -0.04123253f,
    0.07863982f, -0.05073306f, -0.03232940f, -0.05353039f, -0.07344546f, 0.07369553f, -0.07142051f, 0.07046352f,
    -0.06739588f, -0.00584972f, -0.02597556f, 0.08184581f, 0.02654276f, -0.05250923f, -0.03340288f, 0.01395927f,
    -0.02247662f, -0.05806063f, -0.07870882f, 0.06820388f, 0.00236083f, -0.02277436f, 0.06067774f, -0.03293003f,
    -0.07330242f, 0.08006274f, -0.06517314f, -0.01512722f, -0.04199177f, -0.03544050f, -0.03329344f, 0.05594931f,
    -0.03106101f, -0.04268455f, -0.03059673f, -0.02581270f, 0.07303541f, -0.04117956f, 0.04248030f, -0.04227506f,
    -0.03083324f, 0.02366660f, 0.04095346f, -0.08141965f, -0.00761215f, 0.03309049f, -0.00173261f, 0.05152050f,
    0.01628402f, -0.03870928f, -0.07163656f, -0.05271556f, 0.00938148f, -0.04552902f, 0.06528147f, 0.05074462f,
    0.00455168f, -0.03252360f, -0.01582410f, -0.00548569f, 0.06154168f, 0.00948539f, 0.03057674f, 0.02666955f,
    -0.03220153f, 0.00913204f, 0.05229219f, -0.02424417f, -0.05243013f, 0.04588824f, -0.06212137f, -0.06299623f,
    0.04969695f, -0.02863947f, -0.01360934f, -0.01006154f, -0.04404964f, -0.00628941f, -0.00184170f, -0.08236168f,
    0.03930085f, -0.04823929f, -0.00633475f, -0.02112521f, 0.06604117f, -0.02778298f, 0.06685445f, -0.04995006f,
    0.06069155f, 0.07954647f, -0.03310972f, -0.02461725f, 0.03290338f, 0.05141508f, -0.06952557f, 0.02368821f,
    0.00165872f, -0.06558731f, 0.05790680f, 0.02396246f, 0.06815615f, -0.01695062f, 0.06228554f, 0.08233882f,
    0.01136294f, -0.02833334f, 0.05303198f, 0.03162868f, -0.07015783f, -0.01739761f, -0.05941639f, -0.03552918f,
    -0.05305851f, 0.06129169f, 0.06524548f, -0.05076160f, -0.01869695f, -0.08172636f, -0.02673643f, -0.07818329f,
    -0.03593653f, -0.03902724f, 0.07286720f, 0.03137404f, 0.07679450f, 0.07962140f, 0.04134687f, 0.07875579f,
    0.06387372f, 0.02050653f, -0.02304391f, 0.08197846f, -0.04985378f, 0.05264590f, 0.03175139f, 0.00964016f,
    0.02350514f, -0.05657836f, 0.00489258f, 0.03406128f, -0.07332525f, 0.06703641f, 0.02916547f, 0.01422906f,
    0.06173987f, -0.02594434f, -0.01139464f, -0.05546137f, 0.04205378f, 0.03589341f, -0.00048603f, 0.04186188f,
    -0.07923117f, 0.05522796f, -0.03683587f, 0.00316370f, -0.00957113f, 0.01379423f, -0.05797685f, -0.04056459f,
    0.05507376f, -0.07628616f, 0.02568020f, -0.02744013f, 0.02122821f, 0.08325909f, 0.00175993f, -0.06990703f,
    0.03121830f, 0.06228974f, -0.00647755f, 0.07121816f, -0.00569500f, 0.04282223f, 0.06437096f, 0.07222058f,
    -0.01609088f, -0.00807992f, -0.03840612f, -0.03177586f, -0.00292324f, -0.08299831f, 0.02722119f, 0.01384425f,
    -0.07530725f, 0.06125836f, -0.01109582f, 0.03183635f, 0.01404599f, 0.03228041f, -0.07534375f, -0.04428577f,
    -0.06348341f, 0.02205025f, -0.02555549f, 0.04306855f, 0.08027768f, 0.00966611f, -0.04582105f, -0.05939988f,
    -0.06623691f, 0.00298910f, 0.02428735f, 0.00775370f, -0.00056168f, 0.07622435f, -0.03813259f, 0.01641514f,
    0.02434537f, 0.00401704f, 0.05784762f, -0.08036187f, -0.06651520f, -0.01119893f, 0.08323004f, -0.02887490f,
    -0.01072307f, 0.02973316f, 0.08001246f, -0.06794219f, 0.05867232f, 0.03402038f, 0.06026317f, 0.06723555f,
    -0.02497857f, 0.02164987f, 0.01800617f, -0.02399906f, -0.01678791f, -0.03802797f, 0.03669693f, 0.00092929f,
    -0.02513050f, 0.06347485f, -0.03431880f, 0.08182283f, -0.07337989f, -0.05772288f, 0.07820100f, 0.05356345f,
    0.02256461f, 0.03028442f, -0.01180497f, -0.02045599f, 0.01956331f, 0.05907675f, 0.05936547f, 0.02629246f,
    -0.01310941f, 0.00687150f, 0.00491269f, -0.00414739f, -0.04902897f, 0.01181072f, -0.01109874f, -0.06885519f,
    0.04031989f, 0.06460389f, 0.07115294f, -0.02336082f, -0.08182310f, -0.07613634f, 0.04926806f, -0.03931996f,
    -0.06779369f, 0.06770792f, -0.00611774f, -0.04147238f, -0.07699679f, -0.00793858f, 0.03069308f, -0.07712977f,
    0.04777632f, -0.08083604f, 0.00840957f, 0.04430749f, -0.00880678f, -0.07890069f, 0.06732291f, -0.02588085f,
    -0.01220426f, -0.06412017f, 0.03076367f, 0.03488934f, 0.00481991f, 0.02926081f, -0.06741960f, 0.05148813f,
    0.07831734f, -0.07169171f, -0.05353861f, 0.00584317f, 0.01640631f, -0.05910474f, 0.00512977f, -0.06459966f,
    0.05562856f, -0.06980662f, -0.06506082f, 0.03841289f, 0.00162931f, -0.03339932f, 0.06135109f, 0.00368938f,
    -0.06900644f, 0.02702582f, -0.08173221f, 0.02574603f, 0.01754152f, -0.05363794f, -0.01549529f, 0.08310057f,
    -0.03667422f, 0.04787963f, -0.03025032f, 0.03151380f, -0.02307075f, -0.04249532f, -0.00728021f, 0.07620429f,
    -0.01910023f, -0.07949980f, -0.05894668f, -0.00043727f, -0.02538687f, -0.05414139f, 0.05538315f, -0.01848035f,
    0.07051013f, -0.02879893f, -0.04182013f, -0.05089497f, -0.07033431f, 0.02220453f, 0.02445553f, 0.06300975f,
    -0.06788196f, 0.06850901f, -0.05837704f, -0.01598229f, 0.06794860f, -0.02574725f, 0.04121070f, -0.07681930f,
    0.01755031f, -0.03715032f, -0.07563027f, 0.06971072f, -0.04884615f, -0.00436416f, 0.05766700f, -0.05703118f,
    -0.06914692f, -0.01138863f, -0.06958573f, 0.04642160f, -0.01143569f, 0.00142711f, -0.05920704f, 0.06166499f,
    0.00967883f, 0.00759817f, -0.01912407f, -0.06306592f, 0.00946691f, -0.04835529f, 0.00962497f, -0.07780414f,
    -0.00388655f, 0.05378338f, 0.00095571f, 0.07245789f, -0.01812739f, -0.03655810f, 0.03722028f, 0.07356519f,
    -0.01018186f, -0.05155814f, 0.04751647f, -0.01095634f, -0.01397465f, 0.02416276f, 0.05347003f, 0.03798586f,
    0.01732414f, 0.04450151f, -0.04520720f, -0.04328703f, 0.00276183f, -0.06499127f, -0.08113363f, -0.01552398f,
    -0.00757060f, 0.00418977f, -0.03101115f, 0.00195695f, 0.02130467f, -0.00974325f, 0.05823171f, -0.01507858f,
    -0.01369537f, -0.03018759f, 0.05028168f, 0.06646841f, 0.06892868f, -0.02786369f, -0.05556062f, -0.07392225f,
    -0.04990684f, -0.03910227f, -0.02965537f, 0.01206661f, -0.04261982f, -0.05580869f, 0.00380146f, 0.01442664f,
    0.04411912f, 0.04784611f, 0.06948977f, 0.00272589f, -0.05973675f, 0.06871717f, 0.06921981f, -0.06258704f,
    0.01233122f, 0.06685766f, -0.01144856f, 0.02891731f, 0.04127626f, -0.06452404f, -0.00092610f, 0.07128060f,
    -0.02583064f, 0.08148965f, -0.04587037f, -0.00046633f, 0.07310306f, 0.06844418f, 0.05483475f, -0.07817504f,
    -0.00448071f, -0.01051283f, -0.06912692f, -0.07482442f, 0.02244371f, 0.04477189f, -0.02158032f, -0.03901283f,
    0.00325577f, 0.06716049f, -0.02683842f, 0.06240070f, -0.02702227f, 0.05753119f, -0.04155698f, -0.02511965f,
    -0.07864822f, 0.00872043f, 0.00255273f, 0.02856827f, -0.04442599f, 0.04715624f, -0.05660833f, 0.05375011f,
    -0.01462661f, 0.02107187f, 0.01216245f, 0.00680677f, 0.04305144f, 0.07580365f, 0.07713949f, 0.07818323f,
    -0.04736776f, 0.07899898f, 0.01871195f, -0.03350160f, -0.05275699f, 0.01667619f, -0.08147760f, 0.04468123f,
    -0.00455322f, -0.03085748f, 0.08201693f, -0.01767265f, 0.01228572f, 0.07681616f, -0.04457300f, 0.05673691f,
    0.07107401f, -0.00448078f, -0.06445175f, 0.03261007f, 0.08167326f, 0.04001286f, 0.03016643f, 0.00659742f,
    0.01281192f, -0.04071923f, -0.07214157f, 0.01352534f, -0.05665204f, 0.07767289f, -0.01003892f, 0.03738230f,
    -0.05684633f, -0.02822333f, 0.00984182f, 0.03807847f, -0.07152783f, -0.06993048f, 0.03295001f, 0.07777208f,
    0.00050275f, 0.05657930f, 0.06601845f, -0.05996197f, -0.04549668f, -0.01172672f, -0.08201760f, -0.04468830f,
    -0.00419105f, 0.01310772f, 0.00845162f, -0.05992372f, -0.04097532f, -0.00082732f, 0.01120588f, 0.06987944f,
    0.07906114f, 0.01266602f, 0.04464809f, -0.01749722f, -0.08254270f, 0.02770456f, 0.03923501f, 0.04795200f,
    -0.02859713f, -0.04003100f, -0.01391774f, 0.07905713f, 0.02036528f, 0.00053508f, 0.06483018f, 0.04828868f,
    0.02630075f, -0.04571259f, 0.06579922f, 0.03367022f, 0.00975740f, 0.05007605f, -0.07344911f, 0.01705829f,
    0.02213876f, -0.03449575f, -0.05499538f, 0.05296377f, 0.06919987f, 0.05810755f, -0.06505530f, 0.08249097f,
    0.05024273f, -0.06434283f, -0.08154531f, 0.08253785f, 0.05966139f, -0.05636265f, -0.00438754f, 0.01511564f,
    0.03625562f, -0.01901498f, 0.01917076f, 0.04489827f, 0.06633981f, 0.00753603f, 0.05076982f, -0.03871393f,
    -0.03879385f, 0.01773649f, -0.06117234f, 0.04839414f, -0.06048166f, 0.07542424f, 0.04585692f, -0.02693992f,
    0.07330456f, 0.05063169f, 0.04086468f, -0.04629735f, -0.06809606f, -0.05877375f, 0.04512715f, 0.04701506f,
    0.04731511f, 0.06225839f, -0.06121434f, 0.07280736f, -0.01735806f, -0.03429361f, 0.03204182f, 0.01060669f,
    -0.07178883f, -0.00422639f, -0.02860340f, -0.04174554f, 0.06602889f, 0.03838633f, 0.07830457f, 0.08018298f,
    -0.03396965f, -0.04382252f, 0.06743210f, 0.01656230f, 0.01892616f, 0.07027038f, -0.02190807f, -0.04809147f,
    -0.02862124f, -0.00364776f, -0.00413991f, -0.04560941f, -0.04481822f, -0.06929108f, 0.03331664f, -0.06585242f,
    -0.04613182f, -0.04266310f, -0.02572649f, -0.03834553f, 0.03674981f, 0.02992831f, 0.06570671f, -0.02531711f,
    -0.06899747f, 0.01215523f, 0.03260858f, 0.04135063f, 0.08054379f, -0.02467003f, 0.02567455f, -0.05709597f,
    0.04780809f, 0.05177876f, 0.01810414f, -0.03655118f, -0.06006947f, -0.00316393f, -0.05761085f, 0.02161010f,
    -0.05017032f, 0.07836521f, -0.07674175f, 0.07752934f, 0.02695727f, -0.02521769f, 0.02884576f, 0.07861377f,
    -0.04571117f, 0.07890697f, 0.07846340f, 0.06211543f, 0.02304606f, 0.05107738f, -0.07979324f, -0.07438882f,
    0.04538026f, -0.03404969f, -0.01992068f, 0.06411370f, 0.04128785f, 0.00349602f, 0.01149433f, -0.07124601f,
    0.07560235f, 0.02273232f, 0.02637867f, -0.01188149f, -0.04833220f, 0.01720324f, -0.07138453f, -0.05370481f,
    0.06093495f, -0.06750701f, 0.02123657f, 0.06902500f, 0.07615399f, -0.01810274f, -0.05083628f, 0.00186538f,
    0.05405354f, 0.03373408f, -0.02231167f, -0.04670052f, 0.05473226f, 0.06826641f, 0.04157116f, -0.03540482f,
    -0.03306658f, -0.03603859f, 0.04591023f, 0.02409695f, 0.01725661f, -0.04395379f, -0.04403057f, 0.05528825f,
    -0.07991492f, -0.08219707f, 0.04466743f, -0.06218489f, -0.02317077f, -0.05210931f, 0.07777593f, 0.06515364f,
    0.00087699f, -0.02735296f, -0.07098003f, 0.05765929f, 0.06940785f, -0.05504899f, 0.04557366f, 0.02512767f,
    0.01825375f, 0.07130050f, -0.07387584f, -0.07091587f, -0.05068440f, 0.03198935f, -0.06315952f, 0.03509922f,
    -0.04814970f, 0.05628616f, 0.07038930f, 0.00827533f, -0.00258373f, 0.04680512f, -0.04333372f, 0.05763742f,
    0.04453390f, -0.00294977f, -0.04960508f, 0.08186402f, -0.05097940f, -0.04503150f, 0.08318644f, -0.05645379f,
    0.06163184f, 0.02960346f, 0.08148070f, -0.00210152f, 0.02150314f, 0.06849484f, -0.03147638f, -0.02876595f,
    -0.00577385f, -0.02796102f, -0.00736519f, -0.06919124f, 0.03018614f, 0.04050639f, 0.07079585f, -0.04977774f,
    0.04644402f, -0.02123271f, 0.01733382f, -0.01300443f, -0.07642888f, 0.06207144f, 0.08328450f, 0.06692486f,
    -0.04939703f, 0.02097382f, -0.05585073f, -0.01062808f, -0.00972231f, -0.03366360f, 0.07106927f, -0.07746270f,
    -0.02047144f, -0.03259293f, -0.06489738f, 0.00112923f, 0.07908800f, 0.05936217f, 0.07349991f, 0.07622565f,
    -0.08235729f, 0.04573850f, 0.06357979f, -0.02751349f, 0.05262616f, -0.08219740f, 0.02133551f, -0.07339948f,
    0.01018651f, 0.04975602f, -0.06913310f, -0.08033863f, 0.00857884f, 0.08195206f, 0.01518206f, 0.00206786f,
    -0.04024282f, -0.06644024f, 0.06054665f, 0.06214912f, 0.07120529f, 0.01430787f, -0.06181195f, -0.07398789f,
    0.03797057f, 0.02189815f, -0.07401439f, 0.06306737f, -0.03247268f, 0.00092534f, -0.00933324f, -0.02996318f,
    -0.06533011f, -0.04763129f, 0.01133737f, 0.07194095f, -0.03067277f, 0.01688635f, 0.07852234f, -0.00412420f,
    -0.01936033f, 0.05299754f, -0.08122935f, -0.06560903f, -0.04759369f, 0.05885748f, -0.06992324f, -0.02459870f,
    0.03265020f, 0.05799839f, 0.01898545f, 0.00577068f, 0.01614208f, 0.05535561f, 0.05850986f, 0.02445332f,
    0.04338211f, 0.02144451f, 0.07923901f, 0.01426814f, 0.07282596f, 0.04020716f, 0.05566673f, 0.00211032f,
    -0.05144409f, -0.06012031f, 0.07689971f, -0.06834652f, -0.04442380f, -0.07540829f, -0.03509358f, 0.05517182f,
    -0.08014385f, 0.07226359f, -0.04223055f, 0.06047298f, 0.08256271f, -0.05596020f, -0.07977900f, 0.06270953f,
    0.07401707f, 0.08012690f, -0.01671807f, 0.02618892f, 0.04702707f, -0.01405991f, -0.01884800f, 0.00101015f,
    0.04782352f, -0.00929875f, -0.04659276f, -0.00319712f, -0.02929208f, 0.02661549f, 0.02644511f, 0.00951728f,
    -0.05650101f, -0.02763174f, -0.01644271f, 0.08110651f, -0.02000570f, -0.00194074f, 0.04713672f, 0.04664176f,
    -0.07215812f, 0.06051290f, -0.03260595f, -0.03854266f, -0.08294906f, -0.00355107f, -0.06606080f, 0.05800405f,
    -0.03262585f, 0.03100342f, -0.04574029f, 0.03528368f, -0.01526130f, 0.07903223f, -0.06742634f, -0.02812527f,
    -0.02235501f, -0.07423641f, -0.06312575f, 0.00851721f, 0.01209474f, 0.00992051f, 0.00484391f, -0.05509945f,
    0.07844460f, 0.06990718f, 0.02727542f, -0.04492425f, -0.04355094f, 0.07322910f, 0.01555665f, -0.06901897f,
    0.05389459f, -0.05984433f, -0.04289963f, 0.05204260f, 0.07980095f, -0.04552210f, 0.07426768f, 0.04976001f,
    -0.06094497f, -0.02886484f, -0.04753697f, 0.04162101f, -0.05583386f, -0.07334879f, -0.02960867f, 0.07980776f,
    0.05879001f, 0.03923260f, 0.07817118f, -0.06558669f, -0.03170195f, -0.05383356f, -0.02302368f, -0.00940323f,
    -0.00097325f, 0.07036894f, 0.02881866f, -0.02378106f, 0.02654002f, 0.01168483f, -0.03895705f, -0.03250481f,
    0.03982835f, 0.03439489f, 0.01856795f, -0.02683329f, -0.03382462f, -0.03294381f, 0.04321503f, -0.07398366f,
    0.01264180f, -0.07854995f, 0.01881251f, -0.01986207f, 0.02571785f, 0.01196990f, 0.02217666f, -0.00440277f,
    -0.02502522f, -0.06872728f, 0.00050472f, 0.07837599f, 0.04134095f, 0.05632520f, -0.03583127f, -0.07803534f,
    0.02358140f, -0.07674184f, -0.06398617f, -0.06211122f, -0.04973919f, 0.03845473f, -0.05437686f, -0.05066936f,
    0.08032240f, -0.07258818f, 0.01464722f, 0.02199867f, -0.03868936f, 0.06843844f, 0.06112177f, 0.06482809f,
    -0.01754306f, 0.07089193f, -0.01487788f, -0.02925070f, 0.04954151f, 0.01416284f, -0.01631392f, -0.01448173f,
    -0.06104982f, 0.02851797f, 0.02663437f, -0.04278002f, 0.05128251f, -0.04939290f, -0.02781848f, -0.06077546f,
    -0.05711561f, -0.03712672f, -0.00251946f, -0.01489552f, -0.06975120f, 0.02953914f, 0.01278373f, 0.07793708f,
    0.03675932f, 0.03656983f, 0.07306822f, -0.00877650f, 0.04821638f, -0.01679161f, 0.03770475f, -0.05679181f,
    0.02754551f, 0.00943579f, -0.03824449f, -0.00365109f, -0.04005203f, 0.04696842f, 0.00495337f, -0.04566095f,
    -0.02610922f, -0.00828095f, 0.03030692f, 0.01616931f, 0.01961326f, -0.07333916f, 0.00465604f, 0.00170068f,
    -0.07330736f, -0.07222298f, 0.00206295f, 0.08203489f, -0.00836366f, 0.04232582f, 0.02047750f, 0.02293863f,
    0.07165693f, -0.07005300f, -0.02977006f, 0.02037140f, 0.07234242f, -0.01314993f, -0.02340892f, 0.06330544f,
    0.01289573f, 0.07736065f, -0.06781307f, 0.00991635f, -0.04277920f, -0.07115825f, 0.02397273f, 0.02750573f,
    -0.02450824f, -0.00726723f, -0.02498349f, -0.02734490f, -0.05536566f, 0.06086261f, -0.02464035f, -0.07266428f,
    0.05666349f, 0.05023568f, 0.06332287f, 0.04922163f, 0.01852719f, 0.03838354f, 0.01609155f, 0.07732485f,
    0.05626923f, 0.01724531f, 0.06677335f, -0.06911671f, -0.07637489f, -0.07002931f, -0.05797642f, -0.07813051f,
    -0.04033875f, 0.07915362f, -0.04436356f, -0.02114509f, -0.02345733f, 0.05354473f, 0.07628077f, -0.06947370f,
    0.01976196f, -0.04292863f, 0.04493293f, 0.02724242f, 0.04815335f, 0.06724088f, -0.04972085f, -0.00963756f,
    -0.03343825f, 0.07152477f, 0.02838721f, -0.03126560f, 0.04184554f, 0.04027086f, 0.05504674f, -0.08016353f,
    -0.03417413f, -0.02370023f, -0.05201615f, 0.02169903f, -0.03834432f, 0.04018208f, 0.02372651f, 0.08309440f,
    0.00292193f, 0.03004709f, -0.06285039f, -0.03527603f, -0.04119524f, -0.04636809f, 0.05224096f, 0.01510888f,
    -0.01138189f, -0.04469210f, -0.03850098f, -0.03214234f, -0.03169982f, -0.05114937f, 0.04784444f, -0.06520244f,
    -0.06427591f, -0.00704985f, -0.05138583f, -0.04627147f, 0.04277616f, -0.01086987f, 0.00764564f, -0.08044263f,
    -0.07047345f, 0.07988666f, 0.04032208f, -0.06477102f, 0.00154652f, -0.07485210f, 0.06051366f, -0.07368411f,
    0.04689791f, -0.04283550f, 0.02138327f, -0.00387496f, -0.06688327f, 0.04898141f, 0.03867913f, -0.03676277f,
    -0.02657383f, 0.05918300f, -0.03273925f, -0.02900260f, -0.00887589f, 0.07171636f, 0.02299209f, -0.05666050f,
    -0.01173569f, -0.06951483f, 0.02151861f, -0.07427602f, -0.01279014f, -0.04357434f, 0.06662446f, -0.04277555f,
    -0.03866783f, -0.01413648f, 0.05888622f, -0.06001576f, 0.05669283f, 0.03949032f, -0.01500389f, 0.07192378f,
    0.01297179f, 0.07580581f, -0.03625274f, -0.07762964f, 0.00704784f, 0.00677698f, -0.05581112f, 0.02172752f,
    0.01152064f, -0.00394368f, -0.05072415f, -0.05532827f, -0.04600473f, -0.04316404f, 0.02852412f, -0.07569646f,
    -0.04282892f, -0.04371516f, -0.07855745f, -0.01009101f, 0.05073776f, -0.04317517f, 0.03185865f, -0.04804224f,
    0.05681518f, 0.01313625f, 0.04364812f, 0.08094081f, -0.06263434f, 0.03226646f, 0.07109857f, -0.07437377f,
    -0.00969589f, -0.02569330f, -0.06996447f, -0.05335837f, 0.00477790f, 0.03557964f, -0.03479068f, -0.07397708f,
    0.05038071f, -0.06725680f, -0.00163944f, 0.03081181f, -0.04648309f, 0.01347592f, -0.04558555f, -0.05246566f,
    -0.02459239f, 0.06783751f, 0.03043862f, -0.04852341f, 0.00015609f, -0.05960453f, -0.00724354f, 0.03657296f,
    0.08221167f, 0.07050577f, 0.02475937f, 0.05957103f, 0.01425215f, 0.03360329f, -0.03459668f, 0.00541187f,
    0.03916076f, 0.05689408f, 0.00831085f, -0.07271900f, -0.03099413f, 0.01892436f, 0.06661201f, -0.07917182f,
    -0.04094955f, 0.03711412f, 0.03663712f, 0.02123638f, 0.02853924f, -0.03893954f, -0.00965771f, -0.05907326f,
    0.05078736f, 0.02956824f, -0.03214657f, -0.03165808f, 0.06209144f, 0.02010175f, -0.00436519f, 0.07717358f,
    0.04666441f, 0.01502550f, -0.06429827f, 0.00469702f, 0.00423049f, -0.04450801f, -0.04777401f, 0.03588169f,
    -0.08045934f, 0.07100397f, -0.05114701f, 0.00722760f, -0.00224620f, 0.03246000f, 0.03117801f, -0.06849803f,
    0.07794918f, -0.06784420f, 0.07783663f, -0.08169156f, 0.05952948f, 0.02783076f, -0.00482223f, -0.07722931f,
    0.04682851f, 0.00497745f, -0.03777330f, 0.00901609f, -0.01664066f, 0.02062918f, -0.04069572f, 0.01419514f,
    0.02974415f, 0.05563515f, 0.00271640f, -0.01496994f, -0.06887808f, 0.03446504f, -0.01536199f, 0.08062360f,
    0.02995663f, -0.06797644f, -0.05309008f, 0.03242785f, -0.07271548f, -0.01869187f, -0.01329586f, -0.02034408f,
    -0.06828973f, -0.04667749f, -0.02470393f, -0.00209992f, 0.05803301f, -0.06487475f, 0.06554481f, 0.08161192f,
    -0.01147645f, 0.02915112f, 0.01242757f, 0.07602257f, 0.00541323f, 0.00963663f, 0.02472178f, -0.02292533f,
    -0.03867826f, 0.02255395f, 0.01932408f, -0.00136050f, 0.07306752f, 0.00971759f, -0.03198083f, 0.01152175f,
    -0.06747749f, 0.03787857f, -0.06653501f, -0.05921128f, 0.00320479f, -0.01320780f, 0.04775282f, 0.04638001f,
    -0.00892760f, 0.03951536f, -0.04278848f, -0.02448640f, -0.03994009f, -0.01089765f, -0.03438010f, 0.00014624f,
    0.03391006f, -0.01247978f, -0.07994491f, -0.03830545f, 0.02432658f, 0.00947514f, 0.04447249f, -0.06556395f,
    0.07858597f, 0.02553700f, 0.06976904f, -0.05143560f, -0.04635455f, 0.04215349f, -0.07995030f, -0.06485777f,
    -0.07587375f, -0.06693424f, 0.07758719f, -0.06701999f, 0.00818538f, -0.02117684f, -0.07380097f, -0.04407300f,
    -0.03181022f, 0.06396373f, -0.06376906f, 0.00199594f, 0.02938713f, -0.02731418f, 0.01594292f, -0.01470624f,
    -0.05020903f, 0.05909793f, 0.08311707f, -0.00216598f, -0.03193706f, -0.02124064f, -0.00404955f, 0.01114596f,
    -0.01573466f, 0.01421596f, -0.07044217f, 0.03734329f, -0.04792392f, -0.01567684f, -0.03394666f, 0.08044045f,
    -0.06292820f, 0.04520118f, 0.01758548f, 0.02875274f, -0.02708715f, -0.03707124f, 0.00670009f, -0.02749625f,
    -0.05249044f, -0.00614850f, 0.04211451f, -0.04178216f, -0.00076895f, 0.08230808f, 0.02374662f, -0.07461025f,
    0.08157080f, -0.05203059f, 0.04698160f, -0.07331174f, -0.02601470f, 0.06733622f, -0.02232739f, 0.04895964f,
    -0.05764221f, -0.04061409f, -0.05566209f, 0.02032034f, -0.06791587f, -0.05534702f, 0.03868026f, 0.06753715f,
    0.05690865f, 0.03551788f, -0.03706468f, 0.04571881f, 0.00057457f, 0.03534043f, 0.05010230f, 0.03706052f,
    0.00879569f, -0.01219523f, 0.01452513f, 0.06080304f, 0.07949685f, -0.02468323f, 0.05256137f, 0.06969443f,
    0.05004091f, -0.01054257f, -0.02362545f, -0.05918485f, -0.07545964f, -0.03213251f, 0.02259337f, 0.04690656f,
    -0.04840012f, 0.03952413f, -0.07665956f, 0.02005339f, -0.02034034f, 0.07989162f, -0.05445985f, 0.07113081f,
    0.07812693f, 0.03935689f, 0.03984768f, 0.07821640f, -0.02001939f, 0.03025450f, 0.04447287f, 0.00806313f,
    0.03779801f, 0.07842633f, -0.08077393f, 0.07821035f, 0.01854235f, -0.07661101f, -0.08050840f, 0.03123665f,
    -0.02811685f, -0.08296117f, 0.07789399f, -0.01254317f, 0.00423037f, -0.06394860f, -0.04182471f, 0.03681483f,
    0.06804517f, 0.01836712f, 0.02289968f, -0.03692935f, -0.01920985f, -0.05078569f, -0.01864756f, -0.07956326f,
    -0.03856130f, 0.04144170f, 0.01284727f, -0.07294794f, 0.02142113f, 0.07631107f, 0.05905358f, 0.01536612f,
    0.07635553f, -0.07139215f, 0.02184720f, 0.05815607f, 0.05579649f, -0.03957310f, 0.00574016f, -0.00059783f,
    -0.08320378f, 0.07741639f, 0.02738087f, 0.02166231f, 0.07049729f, -0.04886365f, -0.01216803f, -0.00441309f,
    -0.01838980f, 0.01293314f, 0.03568360f, 0.00107315f, -0.02765441f, 0.02478878f, -0.06511717f, -0.03174595f,
    -0.07754307f, 0.03834274f, -0.05306444f, 0.05524229f, -0.05363087f, -0.00865340f, 0.08230639f, -0.06420317f,
    -0.07744824f, 0.07248169f, 0.01032705f, -0.02871967f, -0.01548856f, 0.00081487f, -0.06724046f, 0.01516544f,
    -0.01784269f, 0.03911328f, 0.06170924f, -0.03990661f, -0.00916349f, -0.04549404f, -0.00756935f, 0.04385158f,
    0.03928512f, 0.07806840f, 0.07754342f, 0.00826859f, 0.03264396f, -0.05598205f, -0.07832679f, -0.08311032f,
    0.05328438f, 0.05799522f, 0.01296244f, -0.08146980f, -0.01175982f, 0.03146807f, -0.07857607f, -0.08328001f,
    0.02779137f, 0.05896228f, 0.03724496f, 0.06176637f, -0.01332567f, 0.00097858f, -0.00748586f, 0.05805483f,
    0.05118456f, 0.04824103f, 0.01098598f, 0.07421815f, 0.06455408f, 0.04224008f, 0.08173656f, -0.02873817f,
    -0.01664729f, -0.01618800f, -0.02954181f, 0.03415578f, -0.04867374f, 0.05415295f, 0.05181482f, -0.03791298f,
    -0.06989279f, 0.07958429f, -0.02810613f, -0.01051527f, 0.07516664f, 0.04260248f, 0.00408408f, -0.06964323f,
    -0.05186573f, -0.04044010f, 0.06081093f, 0.01676857f, -0.05867673f, 0.02715510f, -0.04802200f, 0.07145917f,
    0.02635314f, 0.07868909f, -0.06675520f, -0.03038774f, -0.03291083f, -0.03110392f, 0.07078182f, -0.00642779f,
    0.03978520f, 0.01624049f, -0.03430530f, -0.05810350f, 0.02919574f, 0.07719155f, 0.02552275f, 0.06594943f,
    0.04105886f, 0.05547249f, -0.07054938f, 0.07016943f, 0.07285082f, -0.00089165f, 0.03046291f, -0.02208261f,
    0.05657048f, -0.04864904f, -0.02807849f, 0.00057357f, -0.06249854f, -0.01904796f, -0.05073184f, -0.04272413f,
    -0.06459644f, -0.01390567f, -0.07482892f, 0.06970741f, -0.07172401f, 0.03937453f, 0.04075667f, -0.05753439f,
    0.04620780f, 0.01927061f, -0.05722520f, -0.06556639f, -0.03023908f, -0.02578369f, -0.07728922f, -0.07864536f,
    0.08064031f, 0.03627366f, -0.01414182f, 0.02922329f, 0.00010415f, -0.02263896f, 0.07248839f, 0.08189531f,
    -0.00786310f, 0.02535040f, 0.00230839f, 0.04181461f, 0.05792082f, 0.06874084f, -0.07064813f, 0.08095609f,
    -0.04457553f, -0.06092712f, 0.02247836f, -0.04903519f, -0.00063389f, -0.01390312f, -0.05879951f, 0.02672291f,
    0.00916206f, -0.03497439f, -0.00879530f, -0.05103625f, -0.05159201f, -0.01711552f, -0.06397101f, -0.07603019f,
    0.04856310f, -0.05795121f, -0.04157735f, 0.06565996f, 0.02405858f, -0.00124912f, -0.04863915f, -0.04248844f,
    -0.01066436f, 0.06328674f, -0.05271290f, 0.03810157f, 0.05627805f, 0.02618566f, 0.04728706f, -0.01440514f,
    -0.07760902f, 0.07677314f, 0.00746297f, 0.02213427f, -0.05883376f, -0.01846385f, 0.04856161f, 0.05776083f,
    -0.01699289f, -0.03227951f, -0.05847033f, 0.02194620f, -0.06122553f, -0.01977186f, 0.04431195f, 0.01533630f,
    -0.03443468f, 0.02045117f, 0.07810973f, 0.01799559f, -0.05580891f, 0.01335466f, -0.05914795f, 0.01928056f,
    0.07312631f, -0.01498531f, 0.03841917f, 0.01149250f, -0.02221161f, -0.08007278f, -0.01699218f, 0.07172759f,
    0.03740307f, -0.07121119f, 0.04747816f, 0.02962064f, -0.00268524f, 0.02626350f, 0.00400495f, -0.03084122f,
    -0.02763272f, 0.02991006f, 0.06549537f, -0.02676984f, -0.02627234f, -0.03832587f, 0.06563999f, -0.07079101f,
    0.00778478f, 0.03837847f, 0.00724966f, -0.08131576f, -0.01693889f, -0.01819388f, 0.04004256f, -0.00278382f,
    -0.04968023f, 0.04475325f, 0.01062409f, 0.05339472f, 0.01762317f, -0.00184725f, -0.05225751f, 0.00100426f,
    0.02813218f, -0.05217884f, 0.02811719f, 0.03894112f, -0.04064714f, -0.01782751f, -0.01995014f, 0.02334320f,
    -0.03769873f, 0.05704214f, -0.00991104f, -0.04985354f, -0.02536770f, 0.01137786f, -0.06374654f, 0.06678097f,
    0.00338064f, -0.00231840f, -0.03844604f, 0.04695179f, -0.00422578f, -0.04381024f, 0.06502106f, -0.00386080f,
    0.08172377f, 0.06319879f, 0.01477258f, 0.06853819f, -0.07324086f, -0.04379500f, 0.05846606f, 0.04408062f,
    0.02128039f, 0.04312581f, 0.03819150f, -0.02640816f, 0.05280325f, -0.02666084f, -0.05499371f, -0.07559507f,
    -0.03040662f, -0.05227979f, 0.01170523f, 0.08101495f, 0.04933715f, 0.02854576f, -0.05445641f, 0.07485871f,
    -0.06435111f, -0.03363176f, 0.07662471f, -0.02776913f, 0.05351669f, -0.05480967f, -0.07484790f, -0.08204656f,
    -0.03936341f, 0.04697570f, -0.01355079f, 0.02310690f, 0.04181527f, -0.08332141f, 0.05199931f, 0.05215178f,
    0.05136437f, 0.05684999f, 0.07836193f, -0.00607562f, 0.04321595f, -0.00126807f, -0.00615743f, 0.07748069f,
    -0.07715780f, -0.06446190f, 0.01260681f, 0.02523557f, 0.06895366f, 0.06891465f, 0.01146011f, 0.04382893f,
    -0.06055778f, -0.00898914f, 0.00600121f, 0.06908815f, -0.06086016f, 0.07538938f, 0.04933829f, 0.00426829f,
    0.02962047f, 0.04429179f, 0.00893575f, -0.03477224f, 0.03487407f, 0.06873712f, -0.02122917f, 0.01598435f,
};

// Shape: (16,), dtype: float32
static const float stage0_block0_bn1_gamma[16] = {
    1.00000000f, 1.00000000f, 1.00000000f, 1.00000000f, 1.00000000f, 1.00000000f, 1.00000000f, 1.00000000f,
    1.00000000f, 1.00000000f, 1.00000000f, 1.00000000f, 1.00000000f, 1.00000000f, 1.00000000f, 1.00000000f,
};

// Shape: (16,), dtype: float32
static const float stage0_block0_bn1_beta[16] = {
    0.00000000f, 0.00000000f, 0.00000000f, 0.00000000f, 0.00000000f, 0.00000000f, 0.00000000f, 0.00000000f,
    0.00000000f, 0.00000000f, 0.00000000f, 0.00000000f, 0.00000000f, 0.00000000f, 0.00000000f, 0.00000000f,
};

// Shape: (16,), dtype: float32
static const float stage0_block0_bn1_mean[16] = {
    0.00000000f, 0.00000000f, 0.00000000f, 0.00000000f, 0.00000000f, 0.00000000f, 0.00000000f, 0.00000000f,
    0.00000000f, 0.00000000f, 0.00000000f, 0.00000000f, 0.00000000f, 0.00000000f, 0.00000000f, 0.00000000f,
};

// Shape: (16,), dtype: float32
static const float stage0_block0_bn1_var[16] = {
    1.00000000f, 1.00000000f, 1.00000000f, 1.00000000f, 1.00000000f, 1.00000000f, 1.00000000f, 1.00000000f,
    1.00000000f, 1.00000000f, 1.00000000f, 1.00000000f, 1.00000000f, 1.00000000f, 1.00000000f, 1.00000000f,
};

// Shape: (3, 3, 16, 16), dtype: float32
static const float stage0_block0_conv2_weight[2304] = {
    -0.07861573f, -0.00073270f, -0.00100988f, 0.03912743f, -0.02509869f, 0.08196577f, -0.03696622f, 0.03777562f,
    0.04990116f, 0.06294902f, -0.02763651f, -0.00017665f, 0.00484816f, 0.01659176f, 0.02913406f, 0.05596000f,
    0.05745284f, 0.03948047f, -0.03132594f, 0.01774275f, 0.00434750f, 0.04296532f, 0.07116349f, 0.07935765f,
    -0.00089003f, -0.05426290f, 0.06679931f, 0.08187734f, -0.00773566f, -0.00533931f, -0.01553193f, 0.06856170f,
    0.07609218f, -0.00367129f, 0.07450232f, -0.01605178f, 0.06512823f, -0.05719557f, 0.05694582f, -0.00823871f,
    0.04011570f, -0.01938277f, -0.07879886f, 0.00884830f, -0.00968774f, -0.07083338f, 0.03287816f, -0.04975473f,
    -0.03934490f, 0.07882428f, 0.01367278f, 0.00625029f, 0.08315206f, -0.05805532f, 0.06840061f, 0.06818243f,
    0.02027544f, 0.07142922f, 0.00438584f, 0.07265434f, -0.02279807f, -0.00165163f, -0.05258619f, 0.03519910f,
    -0.03568329f, 0.04449093f, -0.02544439f, 0.07469352f, -0.02308415f, 0.06401585f, -0.03413419f, -0.06486689f,
    0.05662394f, -0.02060607f, 0.00387100f, -0.04044397f, 0.02072596f, -0.07092144f, 0.01606816f, -0.06396722f,
    -0.05094182f, 0.06595760f, -0.05138566f, 0.00862262f, -0.04598063f, -0.01648655f, -0.02770612f, 0.05770578f,
    -0.07811733f, -0.08264385f, 0.05305186f, -0.01645112f, -0.07984303f, -0.00668257f, 0.04101695f, 0.02820199f,
    -0.07161850f, -0.01610242f, 0.06380048f, -0.06623926f, 0.01291576f, 0.04690223f, -0.05873811f, -0.07957098f,
    -0.06349044f, 0.01085218f, 0.00470213f, -0.07878201f, -0.00999121f, -0.04236349f, -0.00332172f, -0.04841574f,
    -0.03612268f, -0.01507370f, -0.00093829f, 0.05952560f, -0.02836866f, 0.04006518f, 0.01635489f, -0.02931026f,
    0.07350716f, 0.06080129f, 0.02328971f, -0.01035504f, -0.01479114f, 0.03305425f, 0.07624111f, 0.04562434f,
    0.04374663f, 0.00181286f, 0.05762019f, -0.06647440f, -0.01524140f, -0.06757058f, 0.07436343f, 0.02046539f,
    0.08123842f, 0.03181944f, -0.05514450f, -0.06241724f, 0.01468419f, 0.07111180f, 0.05462907f, -0.01213903f,
    -0.06002958f, -0.07933170f, -0.03344130f, 0.04874946f, 0.03338840f, 0.00829253f, 0.07336491f, 0.03513892f,
    0.01923664f, -0.04300200f, 0.07650840f, -0.07827337f, 0.05154672f, -0.07664268f, -0.03291118f, 0.02908241f,
    0.04137480f, 0.07848351f, 0.03753420f, -0.08068971f, -0.01860211f, 0.06895941f, 0.01156559f, 0.05153948f,
    -0.01836801f, 0.06318361f, 0.07437979f, -0.03564808f, 0.02964245f, -0.03151120f, -0.01417179f, -0.06098229f,
    0.04028433f, 0.03756743f, 0.05548475f, 0.07285720f, 0.06764662f, -0.02517834f, -0.02446459f, -0.07647504f,
    0.00649331f, -0.00189804f, -0.03696596f, 0.07500883f, 0.07638524f, -0.06333241f, 0.01839217f, -0.01215148f,
    -0.06353083f, -0.04434291f, -0.01704719f, -0.01414310f, 0.05028273f, -0.04512870f, -0.06416608f, -0.05329601f,
    0.08090772f, 0.02409874f, -0.00255390f, 0.00033010f, -0.00479344f, 0.05166928f, 0.02825651f, 0.05265896f,
    -0.01138626f, -0.05090548f, 0.02079280f, -0.01132544f, 0.06347501f, -0.03284676f, -0.04835645f, -0.08073847f,
    0.02713369f, 0.05421848f, -0.05430123f, 0.03579029f, -0.00799698f, -0.06724474f, -0.00769971f, 0.02187250f,
    0.06824731f, -0.07272031f, 0.03368931f, 0.06318799f, 0.05603378f, -0.01094393f, 0.03112398f, -0.00568409f,
    0.03708867f, 0.04386808f, -0.06736390f, -0.02916166f, -0.06585827f, -0.07339343f, -0.05440491f, -0.00711184f,
    -0.02637607f, -0.04405600f, -0.07565887f, -0.02410135f, -0.02615934f, -0.04507767f, -0.07685625f, 0.05791377f,
    0.06176681f, 0.00557671f, 0.07660194f, 0.03922630f, -0.05316786f, -0.03831100f, -0.07686164f, 0.01516485f,
    -0.06692801f, 0.07637702f, -0.00266947f, -0.03100188f, -0.00620035f, -0.07809512f, -0.03297158f, -0.06627741f,
    0.03979148f, 0.01770161f, 0.03518417f, 0.01603292f, -0.00478727f, 0.02885984f, -0.08160009f, -0.03680418f,
    0.07904328f, -0.03166346f, -0.02887263f, -0.04951219f, -0.04696442f, -0.04391659f, -0.04770861f, 0.00641031f,
    -0.04450421f, -0.03836730f, -0.02543835f, 0.04152656f, 0.02121407f, 0.02157743f, -0.04814880f, 0.06919490f,
    -0.01018856f, -0.05774672f, -0.04783047f, -0.06972321f, 0.03750837f, 0.06543153f, 0.02252805f, 0.00723199f,
    0.00500659f, -0.06179802f, 0.02778585f, -0.00339159f, 0.04881189f, -0.02427256f, -0.03644336f, 0.00953069f,
    0.05094066f, 0.02162657f, -0.03912851f, 0.02516149f, -0.02707049f, -0.04739955f, 0.03549818f, 0.07837825f,
    -0.07231666f, 0.00386065f, -0.07272878f, 0.05012537f, 0.03027054f, -0.05800381f, 0.03736984f, -0.00003479f,
    0.06078584f, 0.01602336f, 0.06099167f, 0.05931477f, 0.05040179f, 0.02668480f, 0.06297584f, -0.06474422f,
    -0.05745563f, -0.00827153f, 0.07790992f, 0.05953121f, 0.04529693f, 0.06460529f, 0.04317589f, -0.01004829f,
    -0.07333089f, 0.04828554f, -0.00920860f, 0.04490636f, 0.02488908f, 0.06063939f, -0.02120576f, 0.07181959f,
    -0.02720817f, -0.03905635f, 0.08209544f, 0.04829646f, -0.01174694f, -0.06909328f, -0.06698985f, -0.07142731f,
    -0.02877775f, 0.02892842f, 0.06293122f, 0.08220962f, 0.04630586f, -0.06635398f, 0.06649243f, -0.02223699f,
    0.03117358f, -0.07274358f, -0.02301330f, -0.00724773f, -0.01005484f, 0.06786215f, -0.00277179f, -0.04044256f,
    -0.08212686f, -0.06589834f, 0.04314838f, 0.01084330f, -0.07222168f, -0.02716701f, -0.05912778f, -0.07870769f,
    0.04570946f, 0.08116715f, 0.02682747f, 0.06413128f, -0.08217069f, -0.01366164f, -0.08045900f, -0.06167018f,
    -0.01330519f, -0.04953644f, 0.01494498f, -0.00169142f, 0.00423770f, 0.01021625f, -0.05543783f, -0.02508525f,
    0.07903843f, -0.07829320f, 0.01691924f, 0.08187806f, 0.06418508f, -0.07200022f, -0.03539048f, 0.02113720f,
    0.07856579f, 0.00144027f, -0.03801062f, 0.06511645f, 0.07654361f, -0.05458036f, -0.06939613f, 0.00501997f,
    0.06687733f, -0.04064534f, 0.06691538f, 0.01417388f, -0.05716697f, 0.02837519f, -0.01191897f, -0.02476372f,
    0.03100834f, -0.06162111f, 0.01241666f, -0.03108640f, -0.05700919f, -0.05508014f, 0.07424501f, -0.05358691f,
    -0.00792093f, 0.03443405f, -0.03081141f, 0.04146476f, -0.02002474f, -0.07654031f, 0.05015201f, -0.01875190f,
    -0.08031119f, 0.04928839f, 0.01361936f, 0.03274339f, 0.01974007f, 0.04999103f, -0.07907696f, -0.03704371f,
    0.04247168f, -0.02231584f, 0.05946453f, -0.06333727f, 0.05454199f, -0.07201962f, -0.01299421f, -0.01117546f,
    0.00426218f, 0.03484264f, 0.05029256f, 0.01258346f, 0.03197585f, -0.01719903f, -0.00409664f, 0.06183113f,
    -0.07387688f, 0.07054466f, 0.05463441f, 0.04507828f, 0.05197415f, 0.03299389f, 0.00531985f, 0.07637376f,
    -0.02593466f, 0.00266167f, 0.03928601f, -0.05091769f, -0.07351717f, 0.00378632f, 0.05785028f, -0.06705956f,
    -0.06488686f, 0.05756678f, -0.07334649f, 0.00873230f, 0.05639214f, -0.01037382f, -0.05492887f, 0.03318424f,
    0.03327334f, -0.02950477f, 0.03895704f, 0.05051599f, -0.05288312f, 0.05258042f, 0.00019784f, -0.04419809f,
    0.00982557f, 0.08263429f, -0.05031559f, 0.05557472f, -0.05047336f, -0.04884493f, 0.05967463f, 0.07270195f,
    -0.04843397f, -0.04417583f, 0.04369790f, 0.00493555f, -0.04921313f, -0.02713940f, 0.00320661f, -0.03011536f,
    0.05721094f, 0.07692172f, -0.07595607f, 0.00130055f, -0.05253094f, -0.08148004f, -0.05217230f, -0.03201760f,
    -0.07104131f, -0.01030254f, 0.02218491f, 0.04930770f, 0.05085866f, 0.07853138f, 0.06986938f, -0.06599808f,
    0.06257252f, -0.08322578f, 0.03836184f, 0.04208277f, -0.08255953f, 0.02215563f, 0.01091677f, -0.05102789f,
    -0.03229380f, -0.01596750f, -0.05491936f, -0.05096339f, -0.05320603f, -0.03650328f, -0.05449180f, 0.04659417f,
    0.01282284f, -0.05326635f, -0.04426139f, -0.07950495f, -0.02844013f, -0.01813096f, 0.01167347f, -0.05682730f,
    -0.04497442f, 0.04285840f, -0.08311266f, 0.02457802f, -0.02363696f, -0.03843848f, 0.08072501f, -0.04557898f,
    -0.08206965f, 0.07665627f, 0.06735580f, -0.07966312f, 0.05571168f, -0.02472409f, 0.07962268f, -0.04933767f,
    0.04838059f, 0.04241988f, -0.03536629f, -0.01670888f, -0.03796106f, -0.02788740f, 0.01095889f, 0.02981481f,
    -0.05599151f, 0.04069671f, -0.08237701f, -0.04728892f, 0.07157339f, 0.05119079f, 0.06087874f, -0.07732765f,
    -0.06353953f, 0.05496123f, -0.01501869f, 0.04049454f, 0.00610569f, 0.03342345f, -0.02524408f, -0.07750559f,
    -0.01727425f, 0.04663919f, -0.01094422f, 0.01750504f, 0.03191229f, -0.06416936f, -0.07755554f, 0.08062314f,
    0.05538317f, -0.02872543f, -0.04121628f, 0.05064133f, 0.01287865f, -0.06328746f, 0.05312104f, -0.07963450f,
    0.01788927f, 0.04027894f, 0.00261255f, -0.03158042f, -0.06203123f, -0.00166719f, -0.04496536f, 0.07812393f,
    0.05272054f, -0.02781739f, 0.07679914f, 0.03025754f, 0.01237759f, -0.07823364f, 0.01673763f, -0.00806957f,
    0.01657338f, -0.07031888f, -0.00619155f, -0.04375825f, 0.02608020f, -0.08193706f, 0.07428396f, 0.07642160f,
    -0.07016015f, 0.00942754f, 0.03668747f, 0.01929845f, 0.00214770f, -0.05183461f, 0.02762985f, 0.02869906f,
    0.04069600f, 0.05302243f, -0.08075142f, 0.07298627f, 0.07618186f, 0.02895396f, -0.00695125f, -0.03246875f,
    -0.02075191f, -0.06597130f, -0.08109020f, 0.04123148f, -0.07898839f, 0.04358605f, -0.03788844f, -0.01656460f,
    -0.07354602f, -0.01701188f, 0.01360271f, -0.07941410f, 0.07497595f, 0.01816991f, 0.07951835f, 0.05020772f,
    0.01252238f, -0.02095291f, 0.03355142f, 0.03558266f, -0.06027017f, 0.04852862f, 0.00812992f, -0.05255645f,
    0.06432396f, 0.04497527f, -0.04703467f, -0.05962831f, 0.01196919f, -0.06001884f, 0.07328921f, 0.02096324f,
    -0.07042140f, 0.07168299f, -0.00959492f, -0.02590051f, 0.01055208f, 0.06732826f, -0.06951556f, -0.01893796f,
    -0.00169148f, 0.01720625f, -0.01345082f, -0.04340363f, -0.07475396f, 0.03234459f, 0.05668455f, -0.01077620f,
    -0.04079788f, -0.05936807f, -0.05958028f, 0.01297100f, 0.01285564f, 0.06080277f, 0.00246035f, 0.07906468f,
    -0.02570018f, 0.00583438f, 0.04832613f, -0.02878875f, 0.08004239f, 0.02752499f, -0.03143260f, -0.04935801f,
    0.08122784f, 0.03117270f, -0.04572516f, 0.04359013f, 0.05140894f, -0.07153603f, -0.00018685f, 0.03901399f,
    0.05036791f, -0.04916582f, 0.06765530f, 0.01040112f, -0.07511005f, -0.06717864f, 0.05430899f, -0.05023962f,
    0.07775874f, -0.06157860f, 0.00830469f, -0.06502580f, 0.03809805f, -0.05615377f, -0.04323900f, -0.06457773f,
    0.02400156f, -0.00789659f, -0.03363140f, -0.03835442f, 0.01568085f, -0.07215422f, -0.03098500f, 0.05378231f,
    -0.05609305f, 0.07380032f, -0.05453159f, -0.00196165f, -0.08025393f, -0.00655821f, 0.03585659f, 0.05222689f,
    -0.02327844f, 0.00639817f, -0.08092110f, -0.02331166f, 0.01423483f, 0.05317456f, -0.08003770f, 0.02297877f,
    -0.08077394f, 0.07579428f, -0.07409030f, -0.00339024f, 0.05915467f, -0.07514053f, 0.05126672f, 0.02154690f,
    0.06665216f, -0.05921541f, 0.01721814f, -0.00136757f, -0.06971140f, -0.02034734f, -0.07220788f, 0.07556628f,
    -0.07500291f, 0.00943429f, 0.07172666f, 0.08310145f, 0.07034829f, -0.00090675f, 0.03133374f, -0.01643780f,
    0.08010545f, 0.01819470f, -0.04223549f, 0.05638446f, 0.05159263f, 0.07050558f, 0.03448999f, 0.01518114f,
    0.01213255f, -0.02917877f, 0.05783018f, -0.02300176f, -0.05521747f, 0.03426640f, -0.07414478f, -0.02594481f,
    0.08013362f, -0.01602855f, -0.02875485f, 0.02204167f, 0.01636320f, -0.02314643f, -0.05553195f, -0.02970237f,
    0.07936739f, 0.03764337f, 0.06753089f, -0.06182890f, 0.03169128f, 0.01550070f, -0.07846317f, 0.04486136f,
    -0.02146144f, 0.05887835f, 0.06458734f, 0.04645535f, 0.00227180f, 0.02173864f, 0.06772061f, -0.01766601f,
    0.07589248f, 0.08100825f, -0.01168357f, -0.02893264f, -0.06870389f, 0.03643533f, 0.03392504f, 0.02627697f,
    -0.05424750f, 0.03178889f, 0.07572067f, -0.07221651f, -0.01814373f, -0.01162411f, 0.03746028f, -0.00912543f,
    -0.00167897f, 0.00802547f, -0.00241485f, -0.05462962f, -0.00900894f, 0.02309144f, 0.07404080f, -0.01461978f,
    -0.02988666f, 0.05132915f, -0.04593959f, 0.03436460f, -0.00226164f, 0.00887664f, 0.03546184f, -0.02324922f,
    0.01927678f, 0.07850313f, -0.02422487f, -0.07173785f, 0.08310305f, 0.02005271f, 0.01054268f, 0.04982020f,
    -0.03737525f, 0.02649881f, 0.07335813f, -0.04534046f, 0.06962079f, 0.00054841f, 0.04416173f, -0.01865412f,
    -0.06666020f, -0.03892372f, -0.01548413f, -0.01218508f, 0.03307522f, 0.06837165f, -0.03269590f, 0.00777269f,
    -0.07976483f, 0.02592962f, -0.00962999f, -0.07221583f, 0.06452042f, -0.05125445f, 0.03838735f, 0.05298483f,
    -0.01883571f, -0.05643470f, -0.03592153f, -0.07914677f, 0.05037668f, -0.02632601f, 0.04779164f, -0.03652846f,
    0.00433142f, 0.06125390f, 0.08286612f, 0.05335190f, -0.01019242f, 0.06390693f, -0.03808408f, 0.03392678f,
    -0.06204423f, 0.06144432f, 0.07126786f, 0.01580591f, -0.06699929f, -0.04638233f, 0.07038894f, 0.04961231f,
    -0.01486265f, -0.00248756f, -0.04496554f, 0.05718149f, -0.00745043f, -0.06301379f, -0.02477781f, 0.00225642f,
    -0.01084062f, 0.01673869f, -0.00299480f, -0.01629606f, 0.02385819f, 0.06259005f, -0.02938527f, 0.06053147f,
    -0.02665727f, 0.04141087f, -0.06177758f, 0.03220746f, -0.00012922f, -0.02474375f, -0.03393946f, -0.06281965f,
    -0.01903191f, -0.08206636f, 0.06003797f, -0.02789284f, 0.01758289f, 0.02624148f, 0.01862812f, -0.06368321f,
    0.04650379f, -0.07812960f, 0.04251632f, 0.05505510f, -0.04694963f, -0.01885428f, 0.01826661f, 0.02918737f,
    0.06704128f, 0.08208731f, -0.07381585f, 0.06088302f, -0.06102865f, -0.01517318f, -0.07203141f, 0.05682307f,
    0.06136928f, -0.04651571f, -0.05836928f, 0.03281177f, -0.08037531f, -0.02635937f, 0.02133138f, -0.02963606f,
    -0.02125457f, -0.03661425f, -0.00579773f, -0.07924572f, 0.01960782f, -0.04957839f, -0.05735023f, 0.00660230f,
    0.05600120f, 0.05983075f, 0.04880823f, -0.07049829f, -0.05867033f, -0.04480654f, -0.05893308f, -0.04171938f,
    0.01231187f, -0.03230346f, 0.00311191f, 0.04460922f, 0.04091620f, 0.02493638f, 0.01480885f, 0.00953883f,
    -0.04118340f, 0.02319088f, -0.00211091f, 0.00096942f, -0.03936467f, 0.04461508f, -0.07606824f, -0.07562416f,
    -0.05866849f, 0.05878737f, -0.00981625f, -0.07821380f, 0.00101917f, -0.04173282f, -0.06162373f, -0.07392013f,
    0.00467530f, -0.05743996f, 0.05377076f, -0.02811066f, 0.03778727f, -0.04495348f, -0.06158851f, 0.07022724f,
    -0.03300158f, -0.04240622f, 0.00640498f, 0.00788737f, -0.05863702f, -0.00402654f, -0.06513267f, 0.05100514f,
    0.05873087f, 0.06720235f, -0.06803276f, -0.07492615f, -0.00981144f, -0.07852198f, 0.02235444f, 0.02538764f,
    0.01414027f, -0.04304017f, -0.04917446f, 0.07020666f, 0.02354906f, 0.05963336f, -0.03136637f, -0.07994957f,
    -0.02041098f, 0.01493858f, 0.07299191f, -0.01883721f, -0.01380139f, -0.02985003f, -0.02739450f, -0.03329742f,
    0.03402006f, -0.04526405f, -0.07439604f, -0.02244284f, 0.03789884f, -0.02014635f, 0.05680701f, -0.02032650f,
    -0.01704739f, -0.01158282f, 0.07232678f, -0.02353825f, -0.06022897f, -0.04875983f, 0.03465956f, 0.04871210f,
    -0.00697081f, -0.06407963f, 0.03584652f, 0.03353761f, -0.01082628f, -0.07576425f, -0.03455807f, -0.02392067f,
    -0.02410945f, 0.04257705f, 0.03511992f, 0.03663079f, -0.04107308f, -0.00852716f, -0.02051650f, -0.01197700f,
    -0.01280930f, 0.03112409f, -0.01702817f, 0.00680182f, 0.04567914f, 0.04133952f, 0.04000147f, 0.07313898f,
    -0.07110490f, -0.04718160f, -0.01542002f, 0.01226237f, -0.02472811f, -0.01528056f, -0.07720476f, 0.04151320f,
    -0.04989164f, -0.07424694f, 0.02396215f, -0.06731080f, 0.04569349f, -0.08119141f, 0.00161102f, -0.01590896f,
    0.02661360f, 0.07998758f, 0.04980920f, -0.08272198f, -0.03500576f, -0.00704373f, 0.00067947f, -0.02081843f,
    0.03781992f, -0.07817799f, -0.04795408f, 0.05911406f, 0.03071748f, -0.02454051f, -0.02935258f, -0.01539830f,
    -0.02262840f, -0.06145523f, 0.01864862f, 0.04546071f, 0.01626686f, 0.04198388f, 0.01044178f, 0.02202050f,
    -0.06346090f, -0.02128444f, -0.06375339f, 0.07365438f, -0.03888684f, -0.00154356f, 0.04321879f, 0.02972013f,
    -0.04878435f, 0.01452892f, -0.01555879f, -0.02754976f, -0.06103632f, -0.00121963f, -0.07661520f, 0.06540564f,
    -0.02413659f, -0.03467223f, 0.02271443f, 0.06266697f, -0.08148034f, -0.06416281f, 0.07267608f, 0.01858757f,
    -0.05086453f, 0.06510931f, -0.02316932f, 0.00959139f, 0.05341640f, 0.02442424f, 0.04540869f, 0.06590338f,
    0.01610281f, 0.06926476f, -0.05785757f, 0.02834399f, 0.05969878f, -0.04356965f, -0.05176299f, -0.07341218f,
    0.00393599f, 0.07641535f, 0.04661205f, -0.05969900f, -0.08216812f, 0.06257142f, 0.07391842f, -0.04345207f,
    0.04696993f, -0.02852662f, 0.01500722f, -0.03608822f, 0.07123390f, -0.00726418f, -0.07342084f, -0.08010918f,
    0.06912582f, -0.02046677f, -0.01829839f, 0.07342758f, 0.07597359f, -0.04678160f, -0.04872143f, 0.04992266f,
    0.02062025f, -0.03482954f, -0.07533284f, 0.02772217f, -0.02033361f, -0.04308003f, 0.01068986f, -0.02647107f,
    -0.00669719f, 0.05544615f, 0.01322343f, 0.01003498f, 0.01728840f, -0.05593130f, 0.02640424f, -0.06871205f,
    0.02834678f, 0.06631638f, 0.06910562f, -0.03321868f, -0.06139974f, -0.07934397f, -0.02066004f, -0.01654292f,
    0.04731831f, 0.01201287f, 0.04306322f, -0.06378798f, -0.02098043f, 0.01037879f, 0.03771200f, 0.07563188f,
    0.02411503f, 0.06616213f, -0.01594742f, -0.05239150f, 0.05252551f, 0.00403615f, 0.03898829f, -0.06909507f,
    -0.08209553f, -0.01973012f, -0.07695547f, -0.03364124f, -0.04200138f, -0.04362035f, 0.05264255f, -0.00906709f,
    -0.02119513f, -0.04245850f, 0.06472473f, 0.01774030f, -0.05295951f, -0.03474358f, -0.02557726f, -0.00520700f,
    0.03524802f, -0.03932580f, 0.05404503f, 0.04698481f, 0.02502741f, -0.05075045f, 0.02139225f, -0.01542234f,
    0.08142599f, -0.00181211f, -0.06216234f, 0.01471000f, -0.07485747f, -0.05680619f, -0.00090693f, -0.05376406f,
    0.07768613f, 0.04586643f, -0.07310321f, -0.06546724f, -0.01898871f, 0.00591525f, -0.05689105f, -0.02814069f,
    -0.02367977f, 0.05781025f, 0.03468785f, -0.07650258f, 0.04304130f, 0.07089528f, -0.07160168f, 0.08167960f,
    -0.01693310f, 0.06100273f, -0.02787842f, -0.04242945f, -0.04880538f, 0.07636738f, -0.02046449f, -0.08310233f,
    0.02127156f, -0.02597363f, 0.07444131f, -0.03281252f, 0.02496823f, 0.07551169f, -0.05671850f, 0.01969494f,
    0.06666532f, -0.06918691f, 0.02512994f, -0.03006921f, 0.05519969f, 0.01833759f, 0.06534970f, -0.02752980f,
    0.04703198f, 0.07775789f, -0.06359941f, 0.06371361f, -0.05613366f, 0.07318708f, 0.03821428f, 0.00592683f,
    -0.03551468f, 0.05554169f, -0.01348762f, 0.05451275f, 0.01542853f, 0.04160632f, -0.04049377f, -0.05175602f,
    0.04258249f, -0.03004572f, -0.04216254f, 0.06059213f, -0.03777666f, -0.05020879f, 0.00533809f, -0.03218896f,
    0.07843147f, 0.08142554f, -0.03772118f, -0.03991052f, 0.06904693f, -0.01270007f, -0.00180047f, -0.08327907f,
    -0.01210718f, -0.01355260f, -0.04339129f, 0.01111077f, 0.07554418f, 0.07635939f, 0.06858848f, -0.06030065f,
    0.07131638f, -0.02180451f, -0.08119226f, 0.00198170f, 0.02776461f, -0.02733152f, -0.07661220f, 0.04947003f,
    0.07618102f, -0.05107682f, 0.04545161f, -0.02452238f, 0.07461455f, -0.06067226f, -0.05728671f, 0.03884446f,
    0.01244720f, -0.03465332f, 0.05607254f, -0.05986144f, -0.06292035f, 0.04321241f, -0.05507764f, 0.01293689f,
    -0.07117355f, 0.01064914f, -0.08028426f, -0.02124743f, 0.03435788f, -0.04041987f, 0.07897171f, 0.05375698f,
    0.05465492f, 0.04496232f, -0.03751894f, 0.04832613f, 0.02124848f, -0.03051718f, -0.03903399f, 0.04436395f,
    0.07608794f, 0.05843692f, 0.02207339f, -0.01062785f, 0.02185511f, -0.02355906f, 0.02750396f, -0.07270798f,
    0.02541653f, 0.04426284f, -0.01901463f, 0.03639352f, -0.06252526f, -0.04880825f, 0.01915680f, 0.07706090f,
    0.08151674f, 0.07350849f, -0.03832510f, -0.05909259f, -0.07319846f, -0.07915436f, -0.03106192f, 0.04626868f,
    -0.03342893f, 0.07203697f, 0.07969906f, 0.05633146f, -0.04472934f, 0.06336239f, 0.04095349f, -0.04008346f,
    0.05701992f, -0.03339265f, 0.06386800f, -0.03390936f, 0.01862780f, 0.01180004f, -0.00628401f, -0.00719787f,
    -0.04917194f, 0.03904939f, -0.03910704f, -0.06759577f, 0.07242806f, 0.00720622f, -0.05172420f, -0.05403219f,
    -0.03735891f, 0.05107979f, -0.04377288f, -0.08103889f, -0.06301846f, 0.02018739f, 0.03408551f, -0.06123822f,
    -0.07229277f, 0.03902161f, 0.02427705f, -0.01858453f, -0.07296640f, 0.05198070f, 0.04826134f, 0.02550034f,
    0.00273712f, 0.03085228f, -0.05782844f, 0.06970984f, 0.07330543f, -0.07056496f, 0.08193289f, 0.00366674f,
    -0.06050961f, -0.01274838f, 0.01747309f, 0.07816335f, 0.01313103f, -0.04210669f, -0.02850053f, -0.00833798f,
    0.03592821f, 0.05296706f, -0.06423806f, 0.07684287f, -0.01713654f, -0.00474526f, -0.02689410f, 0.01722961f,
    0.03891761f, 0.00120964f, 0.06327628f, -0.00876650f, -0.08104272f, 0.04362863f, 0.00642734f, 0.08252868f,
    -0.02280776f, -0.06010973f, 0.05814935f, -0.00819497f, 0.01360466f, 0.05807443f, -0.02779065f, 0.07909759f,
    0.08274037f, 0.01980839f, -0.07041639f, -0.02421187f, 0.03844067f, 0.00800252f, -0.02307351f, -0.04198742f,
    -0.04347187f, -0.00816639f, 0.02077779f, -0.06741333f, -0.02156536f, 0.06461850f, 0.01433183f, -0.07498842f,
    0.07752329f, 0.07501416f, 0.02972526f, -0.00705984f, -0.00357784f, -0.00781193f, 0.05822882f, 0.05314603f,
    -0.06427103f, 0.04978985f, -0.00962297f, -0.06575554f, 0.00667387f, -0.00717993f, -0.07334562f, -0.08290517f,
    -0.07661435f, 0.01506139f, -0.04057902f, 0.06239254f, 0.06614465f, -0.07023527f, -0.07914376f, 0.00045276f,
    -0.03738073f, 0.03190637f, -0.07952657f, 0.05151088f, -0.02368794f, -0.00752643f, 0.05949964f, -0.06312778f,
    -0.07350387f, -0.00050624f, 0.00486107f, 0.05888847f, -0.01775118f, -0.01636935f, -0.02479712f, 0.05654719f,
    0.03338411f, -0.02143973f, 0.07843332f, 0.05378946f, -0.00395554f, -0.01564050f, 0.05078882f, -0.02939963f,
    -0.02606503f, 0.01510042f, 0.05464917f, 0.06549312f, -0.06385829f, 0.03453933f, -0.03046721f, 0.03743660f,
    -0.05648629f, -0.08252820f, 0.02192295f, 0.02593493f, 0.00271706f, -0.05507487f, 0.06715288f, -0.08013465f,
    0.01452791f, 0.02954250f, 0.06271252f, 0.03273609f, 0.02008816f, 0.08272302f, 0.02320453f, -0.04379603f,
    -0.08182123f, 0.04084058f, 0.00541897f, 0.05013595f, 0.02563535f, -0.05242756f, -0.05571132f, 0.01702147f,
    -0.07236840f, -0.01941646f, 0.00004944f, -0.06161023f, 0.04444540f, 0.08200543f, 0.06948267f, 0.00647135f,
    0.07854520f, -0.07680565f, 0.00470471f, -0.02590721f, 0.03082336f, -0.06172482f, -0.02263903f, 0.06450120f,
    0.06933898f, -0.07801704f, -0.00336335f, 0.00331270f, 0.05709824f, 0.03689939f, -0.07296218f, 0.01482223f,
    0.04264477f, -0.01801842f, 0.01935092f, -0.06446582f, -0.05050015f, 0.00223545f, 0.05559856f, -0.00271083f,
    0.05755154f, 0.05922503f, -0.00864897f, 0.05856632f, -0.07158890f, -0.01081622f, -0.01303111f, -0.02113075f,
    0.08249565f, -0.01951410f, -0.07598512f, -0.05286254f, 0.07119750f, 0.03094109f, -0.03501608f, 0.05046982f,
    0.04088060f, -0.01728260f, 0.01738965f, -0.02578667f, 0.02651770f, -0.02310008f, -0.06068079f, 0.03737403f,
    0.06591549f, 0.05140557f, -0.02242761f, -0.06672433f, 0.05612892f, -0.00665305f, -0.04315265f, 0.04810882f,
    -0.07275989f, -0.04373731f, 0.04417236f, -0.01362752f, -0.08214476f, 0.06286201f, -0.06702500f, -0.06197545f,
    -0.03274317f, -0.00256625f, -0.06747287f, 0.00933472f, -0.01062511f, 0.06872414f, -0.01268195f, 0.01649824f,
    0.04415032f, 0.04643738f, -0.01638491f, 0.06681196f, -0.06171088f, -0.06525397f, 0.05327922f, -0.08330214f,
    0.06471586f, 0.07330456f, -0.00035788f, 0.06402217f, 0.02728181f, 0.03973794f, 0.04778989f, -0.07079660f,
    -0.00115122f, -0.01787721f, -0.03238898f, -0.03169690f, -0.06727363f, -0.05066859f, 0.03939844f, -0.01220841f,
    -0.06630906f, 0.06566321f, -0.03234858f, -0.00874778f, -0.05343601f, 0.01738521f, 0.02958691f, 0.06029463f,
    0.05198473f, 0.02202306f, -0.04284230f, -0.04065106f, -0.00286579f, -0.02312857f, -0.08236679f, -0.01863324f,
    -0.01144583f, 0.07776384f, -0.08028457f, 0.03541726f, 0.03837080f, 0.06895716f, -0.02258282f, 0.08024424f,
    0.00069471f, -0.03337622f, 0.04285994f, 0.00809744f, 0.05501445f, -0.01185103f, 0.02316058f, 0.05454385f,
    0.08176281f, 0.05575693f, -0.04255820f, -0.01158972f, -0.02743872f, -0.01082704f, -0.05947254f, 0.02239284f,
    -0.07516228f, -0.04689348f, 0.05585042f, -0.00551562f, -0.02290579f, 0.03473774f, -0.06599634f, 0.00554014f,
    0.03166768f, -0.00013381f, 0.02932557f, -0.00342371f, -0.06514712f, -0.02919388f, -0.00053678f, -0.02379313f,
    -0.00717430f, -0.01236309f, 0.06825003f, 0.03357443f, -0.05645964f, -0.02430673f, 0.02170494f, -0.05514944f,
    0.07019038f, 0.01702332f, 0.06828024f, -0.06070855f, 0.04670309f, 0.02789536f, 0.08130829f, 0.04882830f,
    0.07924476f, -0.00210124f, 0.03190457f, 0.01130903f, -0.06917246f, -0.07486450f, 0.07493041f, 0.08314370f,
    -0.01567989f, -0.08229615f, -0.02529611f, -0.06484896f, 0.06791256f, 0.01561425f, -0.04314830f, -0.06809127f,
    0.02495674f, -0.01514941f, 0.05492034f, -0.01995815f, 0.06974107f, 0.06690254f, 0.05177998f, 0.02897074f,
    0.03271310f, 0.05210809f, -0.03329274f, 0.05359013f, 0.02542242f, -0.08126935f, 0.01612633f, 0.07043976f,
    -0.07522008f, 0.02239485f, 0.07526673f, -0.06396567f, 0.01881039f, 0.07709572f, -0.02547253f, -0.00140708f,
    -0.01557441f, 0.06547829f, -0.00159965f, 0.00755272f, -0.07365513f, 0.06183171f, -0.04503199f, -0.01047790f,
    0.00028979f, 0.02720213f, 0.07460274f, 0.03543381f, 0.07084297f, -0.06162255f, -0.04640780f, -0.00716094f,
    -0.00809622f, -0.07169565f, 0.03716164f, -0.04336395f, 0.04427477f, -0.05024774f, -0.04582733f, 0.03373341f,
    0.00972297f, -0.00126299f, -0.02573646f, -0.00876480f, 0.06513169f, -0.02588099f, -0.05791725f, 0.06061640f,
    0.04560841f, 0.00191077f, -0.07529518f, 0.02262178f, -0.01626798f, -0.06479801f, -0.07834651f, 0.00918908f,
    0.08127149f, 0.07708204f, 0.03765948f, 0.04408900f, -0.08007555f, 0.04491806f, 0.06635313f, 0.01222982f,
    -0.05257415f, 0.06464260f, -0.00218312f, -0.00324136f, -0.03411485f, -0.03979745f, -0.04356408f, 0.01176636f,
    0.05641131f, 0.06492385f, 0.01120181f, 0.02003913f, -0.07287163f, 0.08269045f, 0.04889720f, 0.07870917f,
    0.02864422f, 0.04307143f, 0.05005127f, 0.05727867f, -0.01466682f, -0.00910164f, 0.01561685f, -0.02104180f,
    -0.08070293f, 0.01141960f, 0.00923176f, 0.04975403f, 0.04604983f, -0.03939503f, 0.04877433f, -0.02829307f,
    0.00382551f, -0.01509222f, 0.01470776f, 0.07734075f, 0.04130081f, 0.00668889f, -0.07102542f, -0.04844391f,
    0.02324853f, 0.03627055f, 0.00612829f, 0.04104407f, -0.07008206f, -0.06414255f, -0.04202152f, 0.06807785f,
    0.01359507f, -0.01144119f, 0.01928343f, -0.03111318f, -0.01797523f, -0.03649272f, -0.02673833f, -0.02426451f,
    -0.03442933f, 0.04620802f, -0.05337529f, 0.01121623f, 0.02836121f, -0.05775609f, 0.01849156f, -0.05674950f,
    0.07753642f, -0.06906279f, 0.03882713f, -0.05175113f, 0.07355197f, 0.04851704f, 0.07668237f, 0.03832238f,
    0.01485527f, 0.04914868f, 0.05902525f, 0.06131997f, -0.06058145f, -0.07446428f, -0.07412007f, -0.04820808f,
    0.05704243f, -0.07954276f, -0.07666028f, -0.00141927f, 0.03692288f, -0.00371396f, 0.04848647f, 0.07491541f,
    0.05386436f, 0.07834329f, -0.03696325f, 0.03066317f, -0.01084326f, 0.05254281f, 0.04631718f, 0.02761382f,
    0.01930026f, 0.01091710f, 0.03712393f, 0.00199239f, 0.00923818f, -0.03851743f, -0.07023288f, -0.02029502f,
    -0.05746503f, -0.06333076f, 0.00131236f, -0.01063583f, -0.07767238f, 0.07280128f, 0.03976471f, -0.05149978f,
    0.06959697f, -0.05643231f, -0.05051387f, 0.01843855f, 0.06706884f, -0.04645608f, -0.04277230f, -0.03860923f,
    0.07536109f, -0.07268690f, -0.02952760f, -0.01131714f, -0.06448475f, 0.00012860f, -0.06407389f, 0.03427725f,
    -0.00282232f, -0.03218795f, -0.01806073f, 0.06150187f, -0.00874384f, 0.04250317f, -0.00987060f, 0.00970857f,
    -0.03483051f, -0.02922421f, -0.04225277f, -0.05495873f, -0.06584900f, 0.05854609f, -0.03496721f, -0.04021496f,
    -0.06681220f, -0.05547717f, -0.01620257f, 0.01999691f, -0.08033326f, -0.00408998f, -0.02299814f, -0.03782792f,
    0.02636949f, -0.00781625f, 0.05293977f, -0.06896728f, 0.03023884f, 0.04385750f, 0.00683306f, 0.01892490f,
    -0.07577576f, -0.07455516f, 0.06866087f, -0.04267988f, 0.02066375f, 0.07897057f, -0.04846702f, -0.03601547f,
    0.01763107f, -0.04287734f, 0.01929596f, -0.07145604f, 0.08045857f, -0.07972421f, 0.07337591f, 0.03400217f,
    0.00834317f, -0.06584074f, 0.00060286f, 0.04339353f, 0.05341203f, -0.04616690f, -0.02067119f, 0.03124268f,
    0.04269350f, 0.06077131f, -0.05567275f, -0.04821079f, -0.08158927f, 0.03606727f, 0.03008360f, -0.02567038f,
    -0.07156383f, -0.02248492f, 0.04897189f, -0.01770641f, -0.04693647f, -0.06861345f, 0.03035565f, 0.05262342f,
    -0.06282278f, 0.05845404f, 0.01308370f, -0.03398197f, -0.03691252f, -0.08190887f, 0.07863682f, -0.04256703f,
    0.08120140f, 0.05338088f, -0.00983962f, -0.03858082f, 0.06643544f, 0.04799500f, -0.08131653f, 0.05649234f,
    -0.07984542f, -0.04599730f, -0.02085417f, 0.04076482f, 0.03226610f, 0.06624530f, 0.01341113f, 0.02140497f,
    -0.06421255f, 0.06400287f, 0.00854436f, -0.05604511f, 0.04508179f, 0.04042392f, 0.00603027f, 0.00291202f,
    -0.01301772f, -0.03977048f, -0.01383021f, -0.02435912f, -0.07722374f, 0.03385972f, 0.01181333f, 0.04134236f,
    0.06161087f, 0.05942884f, -0.06632392f, -0.06660730f, 0.05265891f, 0.01905289f, 0.07721286f, -0.03838485f,
    -0.07633530f, -0.03103805f, -0.06356493f, -0.08020823f, 0.04963426f, -0.06998287f, -0.03171434f, 0.04309896f,
    0.06211899f, 0.07391372f, 0.04813208f, -0.07056692f, 0.07767703f, -0.03545662f, -0.03076972f, -0.02633867f,
    0.06666934f, 0.03634216f, 0.01002335f, 0.05347192f, -0.04165615f, 0.07170444f, -0.01126780f, 0.06538528f,
    0.07920327f, -0.01150084f, 0.08244540f, -0.02218470f, -0.00427366f, -0.05213457f, 0.04143260f, 0.05788213f,
    -0.05588503f, -0.00935275f, 0.05182946f, -0.00467828f, -0.05590335f, 0.08083446f, -0.02980730f, 0.05942449f,
    -0.08177976f, 0.05425451f, 0.05480459f, 0.05102053f, 0.02760508f, -0.01116437f, 0.01025161f, -0.06423417f,
    -0.00912876f, 0.05826656f, -0.05959056f, -0.00573282f, -0.00014386f, -0.05790859f, 0.01136526f, -0.08159758f,
    -0.07858177f, -0.02897492f, 0.01233685f, 0.02432059f, 0.00658201f, 0.02478886f, -0.05208912f, 0.05407215f,
    0.02071764f, -0.00667017f, 0.05937942f, 0.01405457f, -0.05045521f, 0.03981742f, 0.06234947f, -0.04890465f,
    -0.03162903f, -0.02066312f, -0.02432181f, -0.08294254f, -0.06070274f, 0.05075651f, -0.04690925f, 0.07874374f,
    -0.05063490f, 0.05324819f, 0.01993961f, 0.07167011f, 0.00526063f, 0.00799057f, 0.03463476f, 0.02017015f,
    0.05359384f, 0.02967672f, 0.07740429f, 0.07230791f, -0.07049412f, -0.02123904f, 0.04208140f, 0.02260290f,
    -0.05697627f, -0.02666282f, 0.06377903f, -0.05655504f, 0.02927818f, 0.07198789f, 0.00457367f, -0.03451961f,
    -0.02077689f, 0.05860769f, 0.06550528f, 0.04799189f, 0.04842555f, 0.04130051f, 0.01089354f, 0.06974460f,
    -0.00170747f, -0.06209288f, 0.04012669f, -0.02633240f, -0.01977806f, -0.02497148f, 0.06005752f, -0.06933563f,
    -0.03218148f, -0.04947939f, 0.02977487f, -0.01535925f, 0.00457533f, 0.07686817f, 0.07234843f, 0.08221428f,
    -0.01991974f, 0.02498387f, 0.00219146f, 0.02545346f, 0.00927948f, 0.03585466f, -0.06994259f, 0.06138288f,
    -0.00974384f, -0.00001137f, 0.00886058f, -0.06678587f, 0.06426897f, 0.05940408f, 0.03595428f, -0.01637637f,
