// Auto-generated weights file
// DO NOT EDIT

#ifndef WEIGHTS_H_
#define WEIGHTS_H_

#include <stddef.h>
#include <stdint.h>

// Shape: (5, 5, 6, 16), dtype: float32
static const float stem_conv_weight[2400] = {
    -0.04448432f, 0.03049223f, -0.00494749f, -0.04980925f, 0.00681746f, -0.02584250f, -0.04699851f, -0.04531870f,
    -0.03567805f, -0.06417339f, 0.01332128f, -0.02199461f, 0.06072250f, -0.05323306f, 0.01620856f, -0.01029061f,
    0.06773711f, -0.04033925f, 0.03800366f, -0.03470586f, -0.00610262f, -0.00844852f, 0.05601326f, 0.01253111f,
    0.08096445f, -0.00776347f, 0.07609400f, -0.01880423f, 0.06316538f, -0.05910886f, 0.07323553f, -0.04529654f,
    -0.07841954f, 0.06003411f, 0.03884298f, 0.06323953f, -0.00823075f, -0.01654211f, -0.03303719f, -0.03728858f,
    -0.00748783f, 0.05530670f, -0.05474469f, -0.00831471f, 0.05300229f, -0.07196968f, 0.06879100f, -0.00344426f,
    0.02010467f, 0.06388074f, -0.01766323f, 0.02835030f, 0.03654768f, 0.05094735f, -0.01814402f, 0.03516686f,
    0.04402594f, 0.03313582f, 0.04378820f, -0.03530996f, -0.07144620f, 0.05474792f, 0.07582778f, -0.00158485f,
    0.00813840f, 0.00997956f, -0.04099640f, -0.07317898f, 0.05357179f, 0.01793811f, -0.01407026f, -0.02142368f,
    0.05764695f, -0.00838641f, 0.01655269f, -0.07333203f, -0.06993603f, 0.04367315f, 0.06108090f, -0.06549731f,
    0.05547413f, -0.06573823f, 0.03120041f, 0.07431065f, -0.00183268f, 0.07608935f, 0.04466727f, -0.01232338f,
    -0.05955819f, 0.02141004f, -0.03871966f, 0.03019468f, 0.08031105f, 0.01835131f, 0.04500115f, 0.01631476f,
    0.02318932f, 0.07104740f, 0.00312196f, -0.05218945f, 0.02457882f, 0.00521079f, 0.01619670f, -0.06309604f,
    0.02579803f, -0.06802583f, -0.02663378f, 0.01779379f, -0.06849982f, -0.04060991f, 0.01311325f, 0.02276105f,
    0.08116826f, -0.07755881f, 0.04527816f, 0.00432438f, -0.00960150f, -0.06663211f, -0.00197948f, 0.04492625f,
    -0.01079173f, -0.06282850f, 0.03774301f, -0.02481626f, 0.05740013f, 0.05299396f, -0.05371352f, -0.03512973f,
    0.05384688f, 0.01063928f, -0.00836226f, 0.01051172f, 0.00024426f, 0.04011484f, -0.06499630f, 0.00542707f,
    -0.00086038f, 0.00552194f, 0.04741352f, -0.03722702f, 0.03213260f, -0.04200013f, -0.06833991f, 0.03029834f,
    0.05247448f, -0.07807106f, -0.03614797f, -0.06538625f, -0.07335783f, -0.01767631f, -0.04570164f, 0.01090699f,
    -0.00250429f, -0.04605850f, -0.00201537f, -0.06582464f, -0.01262899f, -0.05848443f, -0.07476440f, 0.02301753f,
    0.03212273f, 0.02045827f, -0.07508258f, 0.06255189f, 0.00792660f, -0.05963956f, 0.01371944f, -0.02326561f,
    -0.04973938f, -0.03854311f, -0.01394191f, -0.01051925f, -0.00936863f, 0.01062659f, 0.04002149f, 0.04623903f,
    0.05830566f, -0.03929216f, 0.06258199f, -0.08013002f, 0.01157672f, -0.00899046f, 0.07972360f, 0.07558224f,
    -0.00254097f, 0.02080650f, -0.01041798f, -0.02031418f, -0.00698913f, -0.04877656f, 0.05762393f, -0.05148590f,
    0.02099806f, 0.07004622f, 0.02170027f, 0.00491038f, 0.02732180f, 0.07136651f, -0.01897494f, 0.02839167f,
    0.06091686f, 0.04345600f, -0.00108477f, -0.04003466f, -0.08075634f, -0.04017289f, -0.05027446f, 0.05501257f,
    0.07820272f, 0.03483384f, -0.02399293f, 0.02482321f, 0.06880053f, -0.05750227f, -0.08154857f, -0.05142649f,
    0.02557879f, 0.08150411f, 0.00937096f, -0.02549306f, 0.03941794f, 0.07857230f, -0.01148678f, 0.02268254f,
    0.05228603f, 0.01429855f, 0.06374335f, -0.00594743f, 0.00871706f, -0.07105252f, 0.00741426f, 0.07783860f,
    0.01987210f, -0.07246211f, -0.07988749f, 0.03328699f, 0.01235997f, -0.01681950f, -0.06403717f, -0.02191255f,
    -0.04839940f, -0.03121282f, -0.04510090f, -0.01668043f, 0.05830786f, -0.08068110f, -0.03066187f, -0.01594671f,
    -0.02488777f, 0.03251270f, -0.01761799f, -0.05717919f, -0.03189217f, -0.05647882f, 0.03708728f, -0.03657392f,
    0.03310726f, 0.06529648f, 0.03799085f, 0.03438612f, 0.07032115f, -0.00765546f, -0.01950572f, 0.06949493f,
    0.00286018f, 0.00964630f, -0.02229983f, -0.07160707f, 0.07203438f, -0.05839637f, -0.01096388f, -0.05915892f,
    -0.06666010f, 0.03519534f, 0.01027670f, 0.01738911f, 0.07062180f, 0.05744220f, 0.06932964f, 0.00894655f,
    0.01542639f, 0.02984279f, 0.00576405f, -0.02317975f, 0.06377992f, 0.01441311f, 0.00872086f, -0.05592887f,
    0.06245080f, 0.07317959f, -0.03815186f, 0.03483864f, -0.02309844f, 0.05283885f, -0.04337848f, -0.00564233f,
    0.02525864f, 0.07349244f, 0.03202780f, -0.05692148f, -0.07225687f, 0.00190527f, 0.01974346f, -0.04579866f,
    0.01670922f, 0.00337987f, -0.07726867f, 0.06949642f, -0.04590160f, -0.06294558f, 0.01798181f, 0.02022623f,
    -0.05417656f, -0.03668390f, -0.00890724f, 0.07607110f, -0.01653551f, -0.02988358f, -0.04695480f, 0.00252692f,
    0.03718854f, -0.02273483f, -0.05851097f, 0.02666757f, 0.04780321f, -0.07042452f, 0.00999507f, 0.05898617f,
    -0.03701317f, -0.02688764f, 0.00014274f, 0.07922547f, 0.00034993f, -0.04335498f, 0.08123177f, -0.00832972f,
    0.05647431f, 0.06475335f, 0.06322980f, 0.07708575f, -0.05597168f, 0.03825815f, -0.07149531f, -0.03633501f,
    0.05613881f, 0.03574586f, 0.05173444f, -0.01645839f, 0.01649226f, 0.04117914f, -0.03646410f, -0.05625611f,
    0.01951201f, 0.07998154f, 0.00116862f, 0.05510535f, -0.00136533f, 0.05925300f, 0.08112556f, -0.03700323f,
    -0.01463386f, 0.06816631f, 0.07933650f, -0.08034568f, 0.06639192f, 0.00381912f, -0.04641496f, -0.06456117f,
    0.05752627f, 0.00768764f, -0.04725274f, -0.05718096f, -0.05930197f, 0.04452098f, 0.01496162f, -0.03295435f,
    0.06196954f, -0.03990541f, -0.02932187f, -0.07184261f, -0.03490306f, -0.05336373f, 0.07959869f, -0.03132333f,
    0.00716995f, 0.01255571f, 0.01829612f, -0.06970230f, 0.05246325f, 0.05232997f, -0.05074167f, -0.01123481f,
    0.05600323f, 0.03870380f, -0.00645757f, 0.02307329f, 0.03839002f, -0.04958684f, -0.01838048f, 0.03610365f,
    -0.04744288f, -0.03163369f, -0.03599357f, -0.07401713f, -0.03255023f, 0.04691041f, 0.06371998f, -0.03662509f,
    -0.07665686f, -0.02855776f, -0.00123754f, 0.00000814f, 0.02721722f, 0.05742252f, -0.03619606f, -0.06904565f,
    -0.03735583f, 0.02403435f, -0.03891419f, -0.06561233f, -0.03981024f, 0.00907443f, 0.07453977f, 0.04955663f,
    0.06516400f, -0.06287330f, -0.05845321f, 0.02261747f, 0.06074425f, 0.05414775f, 0.01991817f, -0.06826419f,
    0.05881312f, 0.07009258f, 0.00148562f, 0.04426720f, -0.03165979f, 0.07270078f, 0.06108736f, -0.02212358f,
    -0.04063272f, 0.01755486f, 0.04911759f, 0.06340896f, -0.00117846f, 0.03169885f, -0.06935997f, 0.00839839f,
    -0.06286652f, -0.08151537f, 0.03482748f, 0.04441930f, 0.02780017f, -0.06083150f, 0.03198232f, 0.01238070f,
    -0.01295999f, 0.02285021f, -0.07011787f, -0.08071799f, -0.06426396f, 0.07175053f, 0.04401507f, 0.07624406f,
    0.07592662f, 0.06728841f, 0.07611486f, -0.01556810f, -0.03107099f, 0.06763333f, 0.07568010f, 0.08128297f,
    -0.05984603f, -0.02020969f, -0.07538635f, -0.04915135f, 0.05037094f, -0.01791468f, 0.07150487f, -0.03080326f,
    -0.07709046f, 0.02853909f, 0.05614890f, 0.03038148f, 0.03183233f, -0.06015500f, -0.02362637f, 0.01269408f,
    -0.03500405f, -0.02746133f, 0.07838140f, -0.03100143f, 0.02011684f, -0.06914764f, 0.01888322f, -0.07235786f,
    0.08149766f, 0.04169912f, 0.03997562f, 0.06835011f, 0.05626442f, 0.02279744f, -0.07876342f, -0.07619377f,
    -0.07364386f, -0.03594759f, 0.03980026f, -0.03572789f, 0.07026462f, -0.00298156f, 0.03658433f, -0.02345461f,
    -0.06077666f, 0.04206972f, -0.07853685f, -0.01170028f, 0.04982155f, 0.05971215f, -0.03787332f, 0.01091187f,
    0.04677565f, -0.00922521f, -0.07213941f, -0.02502399f, 0.04154681f, 0.01847678f, -0.04848123f, -0.06102020f,
    -0.00259180f, -0.07857095f, 0.03694173f, 0.06902254f, 0.04446733f, 0.00255998f, -0.03767929f, 0.01710645f,
    0.07947187f, -0.02339407f, -0.06380448f, 0.01007862f, -0.01798738f, 0.06259870f, 0.01262762f, -0.02117288f,
    0.06997598f, -0.03602748f, -0.03563052f, -0.03818908f, 0.03615037f, 0.07032501f, -0.01266777f, 0.06138406f,
    0.01284779f, 0.05308104f, 0.05605869f, 0.01669125f, 0.02383907f, -0.01489802f, -0.03318148f, -0.01619092f,
    0.01264318f, 0.06675676f, 0.04001240f, 0.04526231f, 0.06094687f, -0.06375324f, -0.07474266f, -0.03302339f,
    0.03797555f, 0.07855376f, -0.02217780f, -0.07160734f, -0.02387561f, 0.00438250f, -0.02806473f, -0.07135490f,
    0.01193195f, -0.07865253f, 0.03274562f, 0.07030801f, 0.07690018f, 0.07486838f, 0.05021319f, -0.04882077f,
    0.02445353f, -0.06866315f, 0.07343419f, -0.03603840f, 0.00277909f, -0.04804470f, -0.02986071f, 0.07634782f,
    -0.08121061f, 0.05660618f, -0.02682361f, 0.04327549f, 0.04752189f, 0.01427102f, 0.00107782f, -0.04229961f,
    0.07039971f, 0.00849960f, 0.03458219f, 0.01596598f, -0.06928034f, 0.01908897f, -0.07695427f, -0.01087764f,
    -0.03357906f, -0.04442388f, 0.00883921f, -0.01550284f, -0.00002289f, -0.07937501f, -0.08003998f, -0.04851343f,
    -0.07673549f, 0.07958143f, 0.02376216f, -0.07266831f, -0.03713319f, -0.06098137f, 0.01660070f, -0.02475842f,
    -0.05003359f, 0.06493072f, -0.03621719f, -0.00291415f, -0.08101482f, -0.03413200f, -0.03261420f, 0.02110254f,
    0.01898540f, -0.03964733f, -0.04415502f, -0.05232980f, 0.05588333f, 0.08158758f, 0.03863286f, 0.06626778f,
    0.08103736f, -0.06053872f, -0.03591621f, 0.07286302f, -0.06118241f, 0.03531285f, 0.05448066f, -0.07964169f,
    -0.05285290f, -0.03898777f, -0.04756112f, -0.02546985f, 0.01989305f, -0.06178373f, -0.04652860f, 0.06944177f,
    -0.07779022f, 0.03340035f, -0.06835759f, -0.04650925f, 0.04252518f, -0.04060543f, 0.08022870f, 0.03542479f,
    -0.00941796f, -0.01712960f, -0.03809487f, -0.06828660f, 0.02260554f, -0.01763466f, -0.05585654f, -0.05129687f,
    -0.06837837f, 0.00039152f, -0.03810237f, 0.04121457f, 0.00609878f, -0.00243616f, -0.04536822f, 0.06806456f,
    0.03762776f, -0.07983565f, 0.02906730f, -0.04793588f, 0.02361986f, 0.05834065f, -0.06327631f, 0.02238994f,
    -0.01976279f, -0.03539569f, -0.03187715f, -0.01959915f, -0.06329998f, -0.07288425f, 0.06203753f, -0.01498356f,
    0.02847062f, 0.03103652f, -0.06335546f, 0.05175234f, 0.07059176f, -0.08097297f, 0.03942115f, -0.00092615f,
    -0.03616979f, 0.04094468f, -0.00377100f, -0.05274564f, 0.00679878f, 0.00523228f, 0.01203504f, 0.07396742f,
    0.02383141f, 0.03846034f, 0.04403204f, -0.06971438f, 0.06870373f, -0.04530270f, 0.03974511f, 0.06682251f,
    -0.02604480f, 0.01568780f, 0.07433622f, -0.01776140f, 0.01569588f, -0.04589401f, 0.03165989f, -0.02169356f,
    0.00327008f, -0.03104784f, -0.04381537f, -0.06815179f, 0.06110553f, -0.03734472f, 0.04569512f, 0.00242117f,
    -0.00100612f, 0.05219753f, -0.00185387f, -0.03304503f, 0.07256015f, 0.03002819f, 0.00299601f, 0.06647126f,
    -0.02494324f, 0.03038806f, -0.00053210f, -0.07897674f, -0.01874027f, 0.03227650f, 0.00433261f, 0.00098852f,
    -0.04081769f, 0.01485558f, 0.01376032f, 0.05912839f, -0.06373975f, 0.06439685f, 0.04155172f, 0.06536819f,
    -0.04957668f, 0.01852383f, 0.06831104f, 0.06263467f, 0.03000214f, -0.05424070f, 0.03803773f, -0.07837224f,
    -0.05422928f, -0.01701438f, 0.05503834f, -0.07394667f, -0.00210649f, -0.00428788f, 0.07156855f, 0.05894569f,
    0.06265935f, -0.04021376f, 0.02046095f, 0.01916861f, 0.00213272f, 0.05467040f, 0.02268569f, -0.06712169f,
    -0.01535295f, -0.03495920f, 0.01596816f, 0.01704118f, 0.06539489f, -0.07322413f, 0.03937086f, 0.07415055f,
    -0.03549233f, 0.04675988f, 0.01546499f, 0.00371211f, -0.01429701f, 0.02543386f, -0.01379108f, 0.04054582f,
    0.03404092f, -0.06942650f, 0.06513920f, 0.00382797f, 0.04327844f, 0.00488704f, 0.04875289f, -0.07470340f,
    -0.06888538f, 0.04039336f, -0.02806348f, 0.02586270f, -0.05502918f, -0.04072727f, 0.00235590f, -0.05787750f,
    0.07507661f, -0.02220305f, 0.01745634f, 0.05108992f, -0.07831338f, 0.01420597f, 0.07539607f, -0.00034505f,
    -0.03272238f, 0.00219767f, -0.05270782f, -0.07924566f, -0.03238393f, 0.01297017f, 0.05912129f, -0.06667338f,
    -0.00358266f, 0.03417290f, 0.05702465f, -0.04979616f, 0.01294163f, 0.04052956f, -0.05902623f, -0.02163369f,
    -0.03103924f, 0.03404164f, 0.02021099f, 0.07700652f, -0.02337752f, -0.01714698f, -0.01687627f, -0.00019753f,
    -0.07622984f, -0.01931019f, 0.04469609f, -0.07528055f, 0.05984770f, 0.07693723f, 0.06150667f, -0.05697539f,
    0.06281418f, 0.02497705f, -0.08099675f, 0.07374573f, -0.06287760f, 0.06889988f, 0.01361032f, -0.05512422f,
    -0.01254709f, 0.07807044f, 0.05087292f, 0.01301514f, 0.02984816f, -0.04329727f, 0.03931418f, -0.04100916f,
    -0.03872167f, -0.07381530f, -0.03348305f, 0.00822067f, 0.07909098f, -0.00867625f, 0.00008254f, -0.06797707f,
    0.06180102f, -0.05866344f, -0.05541286f, 0.07867605f, -0.03581049f, -0.00842194f, -0.06761622f, 0.00667609f,
    0.01683391f, 0.01031602f, 0.06024443f, 0.06097700f, -0.07531001f, -0.07848308f, -0.03955704f, 0.01034049f,
    -0.01952862f, -0.04383893f, 0.04416010f, -0.04149591f, -0.02579958f, -0.01978971f, 0.01803737f, 0.05996554f,
    0.07863963f, 0.07521748f, 0.05547820f, -0.02164183f, -0.06005321f, 0.07636632f, 0.07919785f, -0.04038361f,
    -0.05157869f, -0.07031992f, 0.07297220f, -0.01343419f, -0.01151659f, 0.03710547f, 0.04239435f, -0.00021337f,
    -0.00657709f, 0.03486313f, 0.06442992f, 0.05689044f, 0.08042935f, -0.06102585f, 0.05634165f, 0.05898145f,
    -0.03701559f, 0.01242957f, -0.06932212f, -0.03877050f, -0.01624129f, 0.03587947f, -0.07656295f, -0.05664558f,
    -0.07971527f, 0.04034671f, 0.02535238f, 0.01530553f, -0.00697568f, 0.01209985f, 0.01841976f, 0.06285488f,
    -0.01614758f, -0.05762294f, 0.04985028f, -0.08125944f, 0.07108425f, 0.06093165f, -0.07408369f, -0.01385777f,
    -0.06653600f, 0.01376416f, 0.01228075f, 0.07785337f, 0.06742788f, 0.02774104f, 0.02796817f, 0.01485354f,
    -0.05114490f, -0.05424507f, -0.02037574f, -0.00954863f, -0.07776323f, 0.07836719f, 0.06145752f, -0.06265143f,
    -0.06464194f, -0.00014393f, 0.06927624f, 0.02486511f, 0.04856024f, -0.06008438f, -0.03796345f, -0.01288744f,
    0.07605873f, -0.03853067f, -0.02587705f, -0.07350160f, 0.05822105f, 0.03462471f, 0.07989092f, 0.04481751f,
    0.04626559f, 0.07592549f, 0.05823034f, 0.00361165f, -0.05305024f, -0.02579461f, 0.04548005f, -0.02787571f,
    -0.02654307f, -0.07244490f, 0.05859147f, 0.06881310f, -0.03266310f, -0.04053971f, -0.07072718f, 0.01806522f,
    -0.07753001f, -0.07504506f, 0.04560098f, 0.02670718f, 0.06941847f, 0.03937304f, -0.04203065f, -0.06133021f,
    0.07382249f, 0.01508065f, 0.02871447f, -0.03435861f, 0.04998382f, 0.02538303f, -0.00760948f, -0.02292152f,
    -0.08105754f, -0.00230958f, -0.08134120f, -0.04717359f, 0.05578746f, 0.06383439f, -0.01957405f, 0.07870608f,
    0.04798666f, -0.05963264f, -0.01721716f, -0.03704714f, -0.01518698f, -0.02788329f, -0.06350080f, -0.00481748f,
    0.06948381f, -0.01701993f, -0.00989060f, 0.06223822f, -0.05380544f, -0.01695242f, 0.05706449f, 0.06499357f,
    0.06326439f, 0.04611169f, 0.07779905f, 0.07982348f, 0.07518380f, -0.02641520f, 0.04358313f, -0.03935520f,
    0.05071258f, -0.02144158f, 0.04107764f, 0.05344287f, 0.03893306f, -0.03803449f, 0.02292862f, -0.00526301f,
    -0.00651159f, 0.05037673f, 0.04933025f, 0.03056190f, -0.01433237f, -0.06082484f, 0.05949424f, 0.00613381f,
    -0.01668777f, -0.02629469f, 0.03333465f, 0.06488847f, -0.06903617f, 0.01785400f, 0.01045438f, -0.01391532f,
    -0.06294844f, 0.00026096f, 0.03866165f, 0.02036430f, 0.05444109f, 0.02495841f, -0.00309918f, 0.06068800f,
    -0.01524837f, 0.04133715f, 0.05283129f, 0.04687782f, -0.03881348f, -0.05530010f, 0.07355152f, 0.01758188f,
    0.00284650f, 0.06708448f, -0.02180403f, 0.03099472f, 0.00037304f, -0.04678524f, 0.02656711f, 0.04609744f,
    -0.04124040f, -0.02645977f, -0.02741605f, 0.06067016f, 0.04884359f, 0.00696001f, -0.04731627f, -0.06719960f,
    0.01189937f, -0.00728315f, -0.04307022f, 0.03704340f, 0.05494745f, -0.06256945f, 0.06997208f, -0.02894678f,
    0.07271162f, 0.04305262f, 0.00306924f, -0.00778903f, 0.04570517f, 0.02131149f, -0.06978682f, 0.00628254f,
    -0.03134368f, 0.06422405f, -0.02209829f, -0.05964663f, -0.07676075f, -0.02159204f, -0.06725773f, -0.01867340f,
    0.00320797f, -0.07971912f, -0.07681601f, -0.02830285f, -0.03983923f, -0.05422578f, 0.00948917f, 0.01531045f,
    -0.03527717f, -0.04448288f, -0.08084929f, -0.05087848f, -0.02713467f, 0.06040101f, -0.02681970f, 0.02166180f,
    0.00341315f, -0.02430780f, -0.07042811f, -0.02724239f, 0.07594720f, -0.02363914f, 0.06591412f, 0.02394740f,
    -0.04611649f, -0.06866884f, -0.02486582f, 0.01384447f, 0.04661984f, -0.02720013f, 0.00890580f, -0.06868056f,
    0.06434134f, 0.06509231f, 0.05467517f, -0.05720364f, 0.02127365f, -0.04680181f, -0.05765929f, -0.00622211f,
    0.00037803f, -0.04239003f, -0.07557508f, -0.06429119f, -0.04860455f, 0.07399519f, 0.06527578f, 0.05309112f,
    -0.01963367f, 0.01497484f, 0.05647396f, 0.05628573f, -0.07039186f, 0.06646185f, 0.06482443f, 0.03971365f,
    -0.05119549f, -0.06601214f, 0.05499267f, -0.06221484f, 0.02185857f, 0.05908301f, -0.06846057f, 0.07393643f,
    0.03913245f, -0.00721016f, -0.05964929f, 0.02849852f, 0.06902826f, 0.01375336f, 0.05776355f, 0.05598585f,
    -0.07417974f, 0.07003936f, -0.00487634f, 0.04566732f, -0.02828236f, -0.03273445f, -0.05065478f, 0.04467588f,
    -0.06645212f, 0.05944470f, 0.07381942f, 0.05164399f, 0.00404969f, 0.04672238f, 0.03875249f, 0.01058635f,
    0.05193484f, 0.08035244f, 0.06254648f, -0.06294476f, 0.03625499f, -0.01738881f, 0.03160167f, -0.01760560f,
    0.06344316f, -0.04887763f, -0.01197718f, 0.04847148f, -0.02777486f, 0.04716472f, 0.02025296f, 0.00770875f,
    -0.01642055f, -0.04519539f, 0.00162764f, -0.04042524f, 0.02771601f, -0.03003536f, 0.00050429f, 0.07587437f,
    0.06664154f, 0.05440057f, -0.00272234f, -0.07569478f, 0.03998473f, -0.05239396f, -0.05338040f, -0.03259908f,
    -0.00085008f, -0.04516716f, -0.00097052f, -0.06530288f, 0.04697750f, -0.03585586f, -0.04441941f, 0.06843157f,
    -0.01779328f, 0.06187671f, 0.03075036f, -0.07400763f, 0.01767533f, -0.07989784f, -0.07533465f, -0.07055754f,
    -0.01082583f, 0.01665151f, -0.01019045f, -0.02787158f, -0.01871257f, 0.00167479f, -0.06623685f, 0.03957155f,
    0.01710207f, -0.05729597f, -0.03434196f, 0.05576021f, -0.07404757f, -0.02153765f, 0.07328387f, -0.00284959f,
    -0.06242596f, -0.07302468f, -0.08155379f, 0.04639038f, 0.06699855f, 0.01982697f, -0.05373717f, 0.06514337f,
    -0.03799211f, 0.07399657f, -0.03626034f, 0.05144108f, -0.07622416f, 0.01244052f, -0.07905673f, 0.00863676f,
    -0.01825254f, -0.04633366f, 0.06524465f, 0.02011016f, 0.00891198f, -0.06479798f, 0.00376681f, 0.00268776f,
    -0.05318264f, 0.00193638f, -0.05155988f, -0.01172426f, 0.03759331f, 0.06396280f, -0.02637187f, -0.04194525f,
    -0.03930223f, 0.00086769f, 0.07436318f, 0.01816506f, 0.08058949f, 0.08090678f, 0.05258971f, -0.06047005f,
    -0.06894337f, 0.01705625f, 0.06989609f, -0.03523279f, 0.03457117f, 0.00444594f, -0.02611558f, 0.05829109f,
    -0.04135638f, 0.07077052f, 0.08080948f, -0.02294896f, -0.01395899f, -0.03913590f, 0.05635438f, -0.01984462f,
    0.01742530f, 0.02027341f, -0.02608256f, -0.06643099f, -0.01148063f, 0.06064466f, 0.06441788f, -0.03977576f,
    -0.02624905f, 0.04967463f, -0.02015163f, -0.06136166f, -0.06714178f, 0.06587770f, -0.01508666f, 0.04956628f,
    0.00780668f, 0.06539916f, -0.06529241f, -0.06282251f, -0.03721102f, -0.01171130f, -0.01047869f, 0.08044126f,
    0.03905712f, 0.01049828f, 0.07862867f, -0.03070321f, 0.02637185f, 0.00747561f, -0.02232853f, 0.01212579f,
    0.03987765f, -0.04161806f, -0.04052277f, -0.06402024f, 0.03604106f, -0.05399612f, 0.02222863f, 0.04139735f,
    0.06168832f, 0.02151065f, 0.06924146f, 0.06274022f, -0.07077830f, 0.04045059f, -0.06546891f, 0.02214284f,
    -0.00447937f, 0.00136449f, -0.00638452f, -0.08047423f, 0.06292374f, 0.01632874f, 0.06548437f, 0.04220858f,
    0.02363533f, 0.00416441f, -0.03705882f, 0.06830537f, 0.05390662f, 0.01682151f, 0.00113614f, -0.01520258f,
    -0.05859200f, 0.07693888f, 0.04975696f, -0.00866857f, -0.03723475f, -0.08140925f, 0.01862406f, 0.05896163f,
    -0.00329950f, -0.03165529f, 0.00570438f, -0.07621032f, -0.03718502f, -0.05083159f, -0.01172146f, -0.05876292f,
    -0.00198131f, 0.02188846f, -0.07377159f, -0.06258905f, -0.01736899f, 0.00251536f, 0.01606923f, 0.04148086f,
    -0.04356371f, -0.00931927f, -0.03537457f, 0.02840421f, -0.07705028f, -0.02979045f, 0.01102086f, 0.06531308f,
    -0.05284579f, -0.06581575f, 0.05179884f, 0.02286165f, -0.06582898f, 0.04104120f, 0.07502753f, 0.04541511f,
    -0.00273478f, -0.06728110f, 0.01547872f, -0.07194429f, -0.07889293f, 0.05651883f, -0.07092336f, 0.01311374f,
    -0.02799508f, -0.02012750f, -0.06629127f, 0.00709633f, 0.01064027f, -0.06740340f, -0.05453486f, -0.06613735f,
    0.02570422f, -0.00953044f, 0.05557537f, 0.02541217f, 0.06086695f, -0.04629432f, 0.08036628f, -0.07563791f,
    0.06866536f, 0.02432486f, 0.06454263f, -0.01919712f, 0.02835844f, 0.06644883f, 0.06955326f, 0.02297402f,
    0.04838971f, 0.05593501f, -0.06015178f, 0.03421170f, 0.05501705f, 0.05477533f, -0.02772845f, -0.00540212f,
    -0.02961081f, 0.06730621f, 0.03297271f, 0.05275754f, 0.00881730f, 0.06238018f, -0.02494257f, -0.06463932f,
    -0.00323974f, -0.02532367f, -0.08137059f, -0.00181064f, 0.03396282f, -0.01240217f, 0.02947064f, -0.06785829f,
    -0.02959803f, 0.06652639f, 0.05151978f, -0.06319734f, 0.02181820f, -0.07832582f, -0.04457677f, -0.07552028f,
    0.00898318f, 0.04018802f, -0.07063217f, 0.02575159f, 0.07282946f, 0.05112178f, 0.07567922f, -0.05784127f,
    0.02693256f, -0.07546119f, -0.02974291f, -0.07931230f, 0.04575595f, -0.05102111f, 0.00520650f, -0.06479115f,
    0.06557433f, 0.02630446f, -0.04269236f, 0.06871064f, -0.00443989f, -0.01305894f, 0.07766262f, 0.04547131f,
    -0.06854428f, 0.00705191f, 0.02293673f, 0.01094374f, 0.05317892f, -0.04845877f, 0.06697733f, -0.02252426f,
    -0.00650995f, 0.05556543f, -0.08076650f, 0.05517412f, -0.02265286f, 0.03608274f, -0.06450962f, -0.05089749f,
    0.02297152f, 0.01870205f, -0.04973932f, 0.00594477f, -0.03610555f, 0.08101943f, -0.04867977f, 0.01850132f,
    0.00073918f, -0.07000811f, 0.07750269f, -0.01444292f, -0.02432049f, -0.07678898f, -0.04005577f, -0.02671321f,
    -0.08143339f, 0.07770683f, 0.03474247f, -0.06682166f, 0.01620456f, -0.00604771f, -0.05387725f, -0.01231855f,
    -0.06153780f, 0.04982319f, -0.02000292f, -0.01353351f, -0.07788996f, 0.00106498f, 0.06244798f, -0.03272529f,
    -0.06596311f, -0.02761427f, 0.05994061f, -0.05509489f, 0.07943409f, 0.00107328f, 0.06640059f, 0.03034078f,
    0.02122653f, -0.05917843f, 0.06581983f, -0.07598730f, 0.07789592f, 0.04543905f, 0.03753630f, 0.03434353f,
    0.03323374f, 0.02152021f, -0.04851482f, 0.04944738f, 0.06608460f, 0.05519076f, 0.05235269f, -0.02801704f,
    -0.00953308f, -0.06654511f, -0.03403438f, 0.01609264f, -0.03867469f, 0.01410372f, 0.06352695f, -0.04310309f,
    0.00740813f, 0.04819395f, -0.05974306f, 0.00164961f, -0.00922028f, 0.05076271f, -0.07373055f, 0.05058941f,
    0.04171527f, -0.07158834f, -0.03034336f, -0.05003539f, 0.04878088f, 0.05695277f, 0.00337414f, -0.04728523f,
    -0.03962552f, -0.05956748f, 0.08141553f, 0.02003552f, -0.08122436f, 0.02968371f, -0.05273870f, 0.02834404f,
    -0.05375807f, -0.04264243f, 0.05294500f, -0.03648834f, 0.02469727f, -0.05765847f, -0.04769437f, 0.01480676f,
    0.02668624f, -0.00430840f, 0.06007624f, 0.05176048f, 0.02701951f, 0.07641748f, -0.05316712f, -0.05591801f,
    0.04521975f, -0.01236380f, 0.02595030f, 0.01438766f, -0.03642521f, 0.00480089f, -0.00445666f, -0.01493161f,
    0.05458665f, 0.06581132f, 0.06933922f, -0.07423817f, -0.06416733f, 0.03201506f, 0.05660069f, 0.03125514f,
    0.04369026f, 0.03111006f, 0.05073952f, -0.02372050f, -0.07604845f, -0.01120487f, 0.02929484f, 0.04400919f,
    -0.01302989f, -0.05684585f, 0.02304868f, -0.04844324f, 0.07267023f, 0.01449047f, 0.07738020f, -0.04676443f,
    0.04877523f, -0.07907198f, 0.07682960f, 0.08039932f, -0.03487167f, 0.01886165f, 0.07784934f, -0.03016249f,
    0.03133638f, -0.03026747f, 0.04617013f, -0.00000335f, -0.02862630f, 0.04051204f, 0.07037844f, -0.01799673f,
    -0.03030555f, -0.06894602f, -0.03553449f, -0.06123880f, -0.04977754f, 0.07649189f, 0.03905167f, 0.00120612f,
    -0.05919486f, -0.04010369f, -0.06924151f, -0.06329387f, -0.03113735f, -0.01173046f, -0.01643057f, 0.03145342f,
    -0.02383277f, -0.02428694f, -0.01204797f, -0.04682976f, -0.04917568f, -0.07723825f, -0.02882907f, 0.02367994f,
    0.01529293f, 0.05652454f, -0.03478571f, -0.01606010f, 0.07357916f, 0.06852514f, 0.00131511f, -0.00173148f,
    -0.01982406f, -0.05207568f, -0.04799756f, -0.05156162f, -0.06255320f, -0.04052470f, 0.03915597f, 0.05418001f,
    0.02773680f, 0.02772856f, -0.08146878f, 0.01600262f, -0.07432015f, 0.04700254f, -0.02503487f, 0.03480886f,
    0.02436013f, -0.06512416f, 0.03602870f, 0.05010789f, -0.02704614f, -0.04289233f, -0.05110995f, -0.01704006f,
    -0.03720700f, 0.00465017f, 0.04616705f, -0.00345753f, 0.03756817f, -0.06556170f, 0.00744458f, 0.05064620f,
    -0.07558969f, 0.07273325f, -0.03736895f, -0.04898003f, 0.07180604f, -0.06802297f, -0.00411438f, 0.00735529f,
    0.05718810f, 0.00642304f, 0.04495021f, 0.00580916f, 0.00082897f, -0.00928497f, 0.05989215f, -0.03928728f,
    -0.05907538f, -0.07948919f, 0.01477636f, 0.06629951f, 0.07190570f, -0.04183176f, -0.03743730f, 0.04783531f,
    -0.02247367f, 0.07976627f, -0.04272823f, 0.03515007f, -0.08131450f, 0.01757433f, 0.07477071f, -0.04587563f,
    -0.05597675f, -0.06547447f, -0.05885800f, -0.05800552f, -0.02342128f, -0.02476316f, 0.01514357f, -0.06300090f,
    -0.07732172f, 0.01153291f, 0.02535626f, -0.07710651f, -0.06439001f, 0.07510278f, 0.01952872f, -0.03047645f,
    0.01596202f, -0.06043110f, -0.03859876f, -0.03135386f, 0.05265889f, 0.07151773f, 0.06452376f, 0.02745048f,
    -0.00256896f, 0.03161012f, 0.02561468f, 0.01495342f, 0.05789246f, 0.05562842f, 0.04755155f, 0.03961150f,
    -0.03638985f, 0.00646535f, 0.00109717f, 0.00132393f, 0.06412043f, -0.07773194f, -0.07533736f, 0.06049229f,
    0.00155747f, -0.06309653f, -0.03141643f, 0.08120208f, -0.02513574f, -0.00525219f, 0.06371547f, -0.07165004f,
    -0.01707031f, 0.02693913f, 0.02581576f, 0.01098813f, 0.00523627f, -0.06001125f, -0.04718380f, 0.00324988f,
    -0.04593107f, 0.06576790f, -0.04893341f, -0.04531269f, 0.06808573f, -0.06993195f, -0.00659593f, -0.03083721f,
    -0.02188340f, -0.02216316f, 0.04690666f, -0.07104401f, -0.01659213f, -0.04001252f, 0.05157414f, 0.05757346f,
    0.04803831f, 0.08002485f, 0.04359091f, -0.03345551f, -0.01771887f, -0.02410762f, -0.07861681f, 0.03764432f,
    0.06579515f, 0.05927772f, -0.04776076f, 0.00706523f, -0.03354750f, -0.07950757f, 0.08119243f, 0.04508895f,
    -0.04540067f, 0.00397773f, -0.01812351f, 0.07297970f, 0.00206032f, 0.01768899f, -0.08161570f, 0.00002714f,
    0.07097723f, -0.01823963f, 0.04224461f, 0.05063153f, 0.04000499f, 0.00948065f, 0.06382134f, -0.07478604f,
    0.04493948f, -0.01798227f, 0.01060914f, -0.05123659f, -0.07141764f, -0.03257754f, -0.03258158f, 0.06124841f,
    0.03627088f, 0.04702171f, -0.02435716f, 0.01103996f, -0.04426886f, 0.01382690f, -0.06604956f, -0.05182029f,
    0.04096651f, -0.00503229f, 0.06081903f, -0.07836536f, 0.02447614f, -0.07497377f, 0.07081637f, -0.03448863f,
    -0.00258478f, 0.03576242f, 0.00096291f, 0.03597232f, 0.07330202f, 0.06117636f, -0.07845789f, 0.00695440f,
    -0.02803958f, -0.03407221f, -0.04992132f, 0.05887219f, 0.02871532f, -0.03930459f, -0.07660371f, 0.06589917f,
    0.03230139f, 0.02683475f, 0.06852578f, 0.00228723f, 0.03135420f, 0.04415706f, -0.04951106f, 0.07970482f,
    -0.03261937f, -0.06531016f, 0.03612044f, -0.07826163f, 0.01000095f, 0.05667708f, -0.04725381f, -0.01704127f,
    0.04885454f, 0.07528495f, 0.00285563f, 0.04833017f, -0.03118335f, -0.02221469f, -0.07711700f, -0.07375231f,
    -0.07457603f, -0.06415882f, 0.02666862f, -0.08005163f, 0.05353938f, -0.00286307f, -0.03270472f, 0.04197599f,
    0.03253289f, -0.01372493f, -0.07261491f, -0.00092739f, 0.03841447f, -0.02496260f, 0.03592082f, -0.05404840f,
    -0.03852283f, -0.04473303f, -0.01318423f, -0.07234222f, -0.05199207f, -0.04982970f, -0.06066913f, 0.02562203f,
    0.02914261f, 0.05176401f, -0.00821831f, -0.02402058f, -0.00386526f, -0.03812972f, -0.02862270f, 0.00824222f,
    -0.00933271f, -0.07011605f, -0.00970675f, 0.01065461f, 0.01401162f, 0.04735733f, -0.03896047f, 0.00806922f,
    0.00346478f, -0.01023669f, 0.05699412f, -0.00027340f, 0.00906430f, 0.05410467f, 0.02301060f, -0.02295779f,
    -0.05142362f, 0.01815185f, 0.04960410f, 0.07115623f, -0.00126429f, -0.02162495f, -0.05773345f, -0.01029972f,
    0.07591276f, 0.01336940f, -0.03390425f, 0.05835408f, -0.02488516f, -0.05561970f, 0.06921779f, 0.03625938f,
    0.01945188f, -0.02679281f, -0.03479758f, -0.05792863f, -0.03351908f, 0.00411161f, 0.06388469f, -0.07840309f,
    -0.06757879f, -0.01855708f, 0.02347915f, 0.04512583f, 0.05303314f, -0.06171243f, -0.05837147f, 0.04421808f,
    0.03770540f, 0.05525165f, 0.02501273f, -0.06567685f, -0.03537789f, -0.03175186f, -0.01719060f, 0.06984469f,
    -0.02195953f, 0.01125105f, 0.06417319f, 0.05430574f, 0.00785633f, -0.00052734f, 0.04440254f, 0.04308666f,
    0.03535136f, 0.07118992f, -0.03679413f, -0.00011094f, 0.00598571f, 0.07396270f, 0.01159772f, -0.00716444f,
    0.06717934f, 0.07067887f, 0.06611540f, 0.06972864f, -0.07247829f, 0.02109023f, -0.08148051f, 0.03279284f,
    0.01368410f, 0.06067379f, 0.01277240f, -0.06550041f, 0.06300090f, 0.04677022f, -0.04769512f, -0.04599981f,
    -0.04412998f, -0.07631009f, 0.00273859f, 0.06055961f, 0.03552047f, -0.03778108f, -0.02725419f, 0.02220681f,
    0.03484029f, -0.07275297f, -0.03073698f, -0.07848930f, 0.04962337f, 0.03353895f, -0.02185906f, 0.05552668f,
    0.02565991f, -0.05326454f, -0.02461914f, 0.07609591f, -0.06807560f, -0.00404262f, -0.06518532f, -0.07215817f,
    -0.01821212f, 0.05808621f, -0.04559569f, 0.00896224f, 0.00744424f, 0.06955783f, -0.02001959f, -0.07698917f,
    0.03683924f, 0.05952474f, -0.04806763f, 0.01996122f, 0.07395233f, -0.04468822f, 0.06905745f, 0.06842382f,
    -0.00226026f, -0.01336153f, -0.01038072f, 0.07872567f, 0.06369904f, 0.06234321f, 0.04535140f, -0.01698215f,
    0.02413391f, 0.01714207f, 0.05568411f, -0.01182175f, 0.06147209f, -0.01990137f, 0.02383699f, -0.04006827f,
    -0.00404184f, -0.02920176f, 0.05877155f, -0.00248386f, -0.05049582f, 0.07423513f, 0.02582165f, -0.02467928f,
    -0.02255304f, 0.08133947f, 0.02997573f, -0.01078831f, 0.01478117f, -0.04261649f, 0.05692210f, 0.02118886f,
    -0.03380489f, 0.05973080f, -0.03075135f, -0.01726092f, 0.05093664f, 0.06777947f, 0.01751632f, -0.06841049f,
    0.00318133f, -0.07946689f, 0.02426104f, -0.05065439f, -0.00117087f, 0.03884885f, 0.05626323f, -0.05006137f,
    -0.02062537f, -0.07568572f, -0.02224470f, -0.01112074f, -0.07301182f, 0.02880066f, -0.02725413f, 0.03563451f,
    -0.08009589f, 0.07550605f, 0.01256389f, 0.03425737f, 0.06016678f, 0.07752826f, 0.05177678f, -0.06481467f,
    0.00091144f, -0.05409569f, -0.01623547f, -0.07563857f, -0.00173380f, 0.06603064f, -0.07835112f, -0.02914007f,
    -0.01942494f, -0.06387939f, 0.08092094f, -0.04430745f, 0.06370442f, 0.05723283f, -0.03042683f, -0.07770114f,
    0.04005307f, 0.05889641f, 0.04104096f, 0.02328311f, -0.01826885f, -0.00156067f, 0.00257215f, -0.05242988f,
    0.02216049f, -0.02898105f, 0.01485748f, -0.00233262f, -0.02397230f, -0.05878027f, 0.06116991f, -0.05765992f,
    -0.02514007f, 0.04672887f, 0.07349246f, 0.03705794f, -0.04539774f, 0.05626894f, -0.06734579f, 0.07387354f,
    0.06844325f, -0.03717941f, -0.06712285f, 0.02538034f, 0.08049399f, -0.00850684f, 0.00657048f, -0.04086861f,
    -0.06025100f, -0.02536781f, 0.04634016f, 0.02884709f, 0.03196923f, -0.05138337f, -0.04815327f, 0.04765036f,
    -0.02375616f, -0.04310513f, -0.03288523f, 0.06316047f, 0.04880296f, 0.03696751f, -0.02691552f, -0.06602151f,
    -0.07760365f, 0.06842758f, -0.00743247f, 0.02867859f, -0.06672096f, 0.06039866f, -0.07548161f, 0.02087861f,
    -0.05775518f, -0.08116370f, -0.06219574f, 0.04108356f, -0.04142326f, 0.05133439f, 0.01876215f, 0.03516348f,
    -0.02119331f, 0.04616452f, -0.03522455f, 0.05644639f, 0.03237934f, -0.01442546f, 0.02771923f, -0.05500368f,
    0.03573251f, -0.04147725f, -0.03497506f, -0.04753438f, -0.07981940f, 0.02989061f, -0.00670582f, 0.04957708f,
    0.04184681f, -0.04358722f, 0.07925182f, 0.04418588f, 0.01094346f, -0.01779211f, -0.01134862f, 0.07520150f,
    0.01932266f, 0.06796884f, 0.07432804f, -0.01289921f, -0.00106640f, -0.00529102f, -0.07745666f, 0.00906967f,
    0.01679910f, -0.06914377f, 0.00415727f, -0.07581918f, 0.06468798f, -0.06328476f, 0.01674415f, 0.01988730f,
    0.07662039f, 0.03549290f, 0.00143439f, -0.07751779f, -0.02692502f, -0.00481343f, -0.00096992f, 0.02048647f,
    -0.07531302f, -0.07426875f, -0.01388459f, 0.05757442f, 0.06417170f, -0.04513583f, 0.04276925f, 0.01225808f,
    0.04337093f, 0.03399974f, -0.00018532f, 0.00961663f, -0.04618884f, 0.04515938f, -0.01980842f, 0.06218560f,
    -0.07312469f, 0.03606579f, 0.01470577f, -0.01796094f, -0.04715898f, -0.00158216f, -0.00541891f, -0.07417787f,
    -0.03057588f, -0.01962293f, -0.00937863f, -0.01132248f, 0.01683471f, 0.04628674f, 0.08071907f, 0.01534617f,
    -0.01442190f, 0.02276520f, -0.05735891f, -0.00953335f, -0.06298366f, 0.04210870f, -0.01082194f, -0.02530971f,
    0.00091101f, 0.00692094f, -0.03406511f, 0.05332008f, 0.02120975f, -0.06140726f, 0.03944128f, 0.08112060f,
    0.06270984f, 0.07037923f, 0.00128890f, 0.04374603f, -0.06347513f, 0.01484160f, 0.04997983f, -0.04192991f,
    -0.01121242f, 0.01580042f, -0.06095548f, -0.01719775f, -0.03249045f, -0.01322585f, 0.00997048f, -0.05351985f,
    0.02002984f, 0.04303176f, 0.07140042f, 0.05800021f, 0.06023981f, -0.00870634f, -0.08048939f, -0.05183620f,
    -0.03524428f, 0.05786321f, 0.08003781f, 0.04072795f, 0.06805754f, 0.00782387f, -0.00581164f, 0.02375115f,
    -0.02700964f, -0.03367268f, -0.05117948f, 0.04672674f, -0.01863433f, -0.04597525f, 0.07883248f, 0.03176828f,
};

// Shape: (16,), dtype: float32
static const float stem_bn_gamma[16] = {
    1.00000000f, 1.00000000f, 1.00000000f, 1.00000000f, 1.00000000f, 1.00000000f, 1.00000000f, 1.00000000f,
    1.00000000f, 1.00000000f, 1.00000000f, 1.00000000f, 1.00000000f, 1.00000000f, 1.00000000f, 1.00000000f,
};

// Shape: (16,), dtype: float32
static const float stem_bn_beta[16] = {
    0.00000000f, 0.00000000f, 0.00000000f, 0.00000000f, 0.00000000f, 0.00000000f, 0.00000000f, 0.00000000f,
    0.00000000f, 0.00000000f, 0.00000000f, 0.00000000f, 0.00000000f, 0.00000000f, 0.00000000f, 0.00000000f,
};

// Shape: (16,), dtype: float32
static const float stem_bn_mean[16] = {
    0.00000000f, 0.00000000f, 0.00000000f, 0.00000000f, 0.00000000f, 0.00000000f, 0.00000000f, 0.00000000f,
    0.00000000f, 0.00000000f, 0.00000000f, 0.00000000f, 0.00000000f, 0.00000000f, 0.00000000f, 0.00000000f,
};

// Shape: (16,), dtype: float32
static const float stem_bn_var[16] = {
    1.00000000f, 1.00000000f, 1.00000000f, 1.00000000f, 1.00000000f, 1.00000000f, 1.00000000f, 1.00000000f,
    1.00000000f, 1.00000000f, 1.00000000f, 1.00000000f, 1.00000000f, 1.00000000f, 1.00000000f, 1.00000000f,
};

// Shape: (3, 3, 16, 16), dtype: float32
static const float stage0_block0_conv1_weight[2304] = {
    -0.07261600f, -0.03484468f, 0.02281482f, 0.03927182f, -0.06620067f, -0.02069439f, 0.00736795f, -0.07070699f,
    -0.04916643f, -0.02973622f, 0.03885649f, 0.06777288f, 0.02768894f, 0.01904404f, 0.03652526f, -0.01147164f,
    0.02253803f, 0.00401764f, -0.06788009f, 0.03092264f, -0.00988755f, 0.08251005f, -0.05940472f, -0.01770573f,
    0.06606820f, 0.07848775f, 0.07518943f, 0.04329945f, 0.05946875f, -0.02127155f, 0.00939085f, -0.02069374f,
    -0.07295452f, 0.07301894f, -0.02507464f, -0.02163686f, -0.04876400f, 0.06617744f, -0.05734074f, 0.05854340f,
    0.06530605f, 0.05279116f, -0.07934929f, -0.02863642f, -0.02924058f, 0.02840891f, -0.05239382f, 0.03228598f,
    0.00222593f, -0.03763090f, 0.03512836f, 0.05152131f, 0.07842284f, 0.04373030f, 0.02464558f, -0.07787760f,
    0.06254601f, 0.01849161f, 0.02209249f, -0.02510732f, -0.03293139f, 0.02149177f, 0.02200266f, -0.03547399f,
    0.07314270f, 0.06328616f, -0.01763923f, -0.04861966f, 0.03979557f, -0.07690760f, -0.06042280f, -0.01591331f,
    0.07726448f, -0.05650863f, -0.03911704f, -0.06528470f, 0.03013701f, -0.08272977f, 0.06542783f, -0.06394579f,
    0.03309688f, 0.07865490f, 0.02392260f, -0.03790610f, -0.00557770f, 0.04708482f, -0.03926314f, 0.04732380f,
    0.04829418f, 0.03588199f, 0.06195627f, 0.06645470f, 0.06239520f, -0.03074041f, -0.00208703f, 0.06670763f,
    0.01056049f, 0.04303273f, -0.02270362f, -0.02881927f, 0.05950358f, 0.02267433f, -0.06240172f, -0.06866347f,
    0.07575266f, -0.05278888f, 0.00141065f, 0.02841434f, -0.01856344f, -0.06315805f, 0.05352570f, 0.03921589f,
    0.03483436f, -0.00270573f, -0.03719055f, 0.07459905f, -0.02174860f, 0.05774152f, -0.04930606f, 0.01346109f,
    -0.07117790f, 0.07911795f, -0.01413425f, 0.00735808f, 0.05436358f, 0.02371009f, -0.02204017f, -0.06738095f,
    -0.07159750f, -0.01561436f, 0.05100691f, 0.01078628f, 0.07275855f, -0.04579121f, 0.00948915f, -0.07653822f,
    0.02725853f, -0.04021931f, 0.03312498f, -0.05129600f, -0.06029410f, 0.02010746f, 0.02038137f, -0.00114063f,
    0.01017410f, -0.06299575f, 0.05380454f, 0.02828991f, 0.01587993f, 0.02979168f, 0.02879487f, -0.01560690f,
    0.04651731f, -0.00096528f, -0.04666056f, 0.02175981f, 0.02497723f, 0.01130237f, -0.01075054f, 0.04952819f,
    0.02719101f, -0.05736443f, -0.05884775f, -0.07345736f, 0.00529068f, 0.02612288f, 0.03885256f, -0.04549017f,
    -0.03058687f, 0.06862517f, 0.00661363f, 0.07717346f, 0.00365602f, -0.01485514f, 0.08274621f, 0.03603924f,
    0.05107234f, 0.07810353f, -0.01956950f, 0.01995425f, 0.08261108f, -0.06990066f, -0.05442366f, 0.07009026f,
    -0.04272325f, 0.02223497f, -0.03607787f, 0.07176082f, -0.07048254f, 0.08087665f, -0.02459364f, 0.07589763f,
    0.05778562f, -0.07590173f, 0.06416953f, 0.04813073f, -0.03562673f, -0.01051265f, -0.02014169f, -0.06269549f,
    0.00642624f, -0.04017177f, 0.00577444f, -0.05661990f, -0.02120405f, 0.06354612f, 0.06636234f, -0.02346715f,
    -0.07709791f, -0.04370890f, -0.02728494f, -0.01019694f, 0.07517114f, -0.04337348f, -0.07312479f, 0.01646286f,
    -0.03278375f, -0.02361435f, 0.06006117f, 0.03753211f, 0.01926612f, 0.07872563f, -0.02242634f, 0.00910137f,
    0.06791663f, -0.04812419f, -0.02146419f, -0.06144454f, 0.00508565f, 0.04071299f, -0.05146865f, -0.01369505f,
    0.08077057f, -0.04086355f, 0.01362360f, 0.07134779f, -0.01796412f, -0.00363924f, 0.03963627f, 0.07788123f,
    -0.07488170f, 0.00050800f, -0.03123647f, -0.00622460f, -0.07768371f, -0.06635907f, 0.01501051f, -0.05877094f,
    0.08117445f, 0.01201910f, -0.02235306f, 0.04496348f, 0.04738535f, 0.02780608f, 0.05258135f, 0.05993879f,
    0.06148091f, -0.03062612f, 0.03345114f, -0.05416773f, -0.05460073f, 0.05053713f, -0.07004055f, 0.04593935f,
    0.03203764f, -0.07502755f, -0.00674352f, 0.02295674f, 0.04170406f, 0.00425180f, -0.00093134f, -0.02886567f,
    -0.00038287f, 0.03473539f, -0.07649123f, 0.06168706f, 0.02222526f, 0.03095166f, -0.04675621f, 0.04815727f,
    0.02506606f, 0.01380411f, -0.03741225f, -0.02733331f, -0.05944838f, 0.07420068f, -0.01279282f, -0.02368086f,
    -0.03631641f, -0.07828274f, -0.01182621f, 0.02225388f, 0.02840987f, -0.04652105f, -0.04093974f, -0.04676777f,
    -0.06710795f, -0.00319104f, -0.01565607f, -0.01491686f, -0.05273774f, -0.01782294f, -0.05133494f, -0.01835774f,
    -0.07435104f, -0.03492355f, 0.03328285f, -0.02264564f, 0.07857591f, -0.03087430f, -0.08155936f, 0.04975468f,
    -0.07337957f, 0.03635580f, -0.07106566f, 0.06932122f, -0.06901239f, -0.03715939f, 0.07209216f, -0.01563068f,
    -0.05798357f, 0.04047483f, -0.01173438f, 0.03543314f, 0.07793078f, -0.00069344f, 0.02625529f, -0.01387663f,
    -0.08209312f, 0.01228456f, -0.01684826f, 0.03432915f, 0.05006647f, 0.07637273f, -0.00161739f, 0.07255273f,
    -0.07054381f, -0.02324188f, -0.03910392f, 0.05608952f, 0.06902682f, -0.01641349f, -0.01182681f, -0.06874829f,
    0.03233356f, 0.02131969f, 0.00099636f, -0.05971104f, -0.03768563f, -0.06273846f, -0.04911105f, 0.04619401f,
    -0.01458354f, -0.05211793f, 0.00335817f, 0.04220081f, -0.08113447f, -0.02956336f, 0.08101189f, -0.00650645f,
    -0.02726291f, 0.04367204f, -0.04476584f, 0.04108516f, 0.00634169f, 0.03128010f, 0.02989544f, -0.02855760f,
    0.03535586f, 0.08096521f, 0.00320131f, 0.01158883f, 0.06792986f, 0.05336256f, -0.01042030f, 0.02197348f,
    0.05705193f, 0.02226850f, -0.02899314f, -0.00175672f, 0.05731674f, -0.04986781f, 0.03826873f, 0.03894339f,
    -0.05953874f, 0.00582962f, 0.05682804f, -0.06793027f, 0.03754530f, 0.03125916f, -0.06620115f, -0.01950188f,
    -0.00208293f, 0.05858472f, -0.02146734f, 0.08167445f, 0.07471363f, 0.05534973f, 0.05317309f, -0.06296369f,
    -0.02039935f, 0.00781577f, 0.07156043f, -0.02110426f, -0.04024526f, 0.04098251f, 0.02537723f, -0.03283143f,
    0.02451821f, 0.06496933f, -0.05612377f, -0.05867880f, -0.01523338f, -0.06408289f, -0.06391309f, 0.06843653f,
    0.01085306f, 0.06898629f, 0.02305837f, -0.03498813f, 0.04817609f, -0.03896537f, -0.02105894f, 0.00432237f,
    -0.07019948f, -0.08052935f, -0.04954313f, 0.05930931f, -0.07922195f, 0.08323785f, -0.01966611f, 0.00764144f,
    -0.04933196f, 0.01422135f, -0.05744078f, 0.02458910f, -0.02354431f, -0.04721714f, -0.01860821f, -0.03337621f,
    -0.01537955f, -0.04834867f, 0.00261319f, -0.01365980f, 0.04600471f, 0.05778751f, -0.06834146f, -0.04162630f,
    -0.07992242f, -0.00056323f, 0.08099872f, -0.02714800f, -0.04016499f, -0.00230656f, -0.03594154f, 0.03293043f,
    -0.03535749f, -0.03388226f, -0.08237961f, 0.05507436f, -0.04445162f, 0.04971107f, 0.02782327f, 0.01043230f,
    0.01019558f, -0.02629286f, 0.07303567f, 0.08095130f, -0.04790442f, 0.01765956f, -0.02628583f, 0.08127724f,
    -0.01319333f, -0.02289926f, -0.04002830f, 0.02863534f, -0.02408057f, -0.01031287f, 0.00912251f, -0.06210937f,
    0.07458325f, -0.03897149f, -0.01862636f, -0.05453956f, 0.08124858f, 0.01126696f, 0.06786726f, -0.07987171f,
    0.05113415f, -0.07925080f, -0.07052156f, -0.05781158f, -0.08236035f, -0.00653478f, -0.03168261f, -0.07079443f,
    0.00474990f, -0.03025599f, 0.00148054f, 0.06248019f, 0.02778484f, -0.07703432f, -0.04468434f, -0.07384336f,
    0.00593598f, -0.02896577f, 0.05083146f, -0.04915016f, -0.06555652f, 0.07711980f, 0.04379344f, -0.06894009f,
    -0.04055390f, 0.05905707f, -0.00037171f, 0.08088898f, 0.06385550f, -0.05276904f, 0.05952170f, -0.07368811f,
    0.03693678f, -0.02482529f, -0.05699115f, -0.02792731f, -0.01107913f, 0.04504745f, -0.04290973f, 0.02069111f,
    0.06190265f, 0.05916855f, 0.07041433f, 0.01706441f, -0.05681967f, -0.00383469f, -0.03019006f, -0.00114870f,
    -0.00873815f, 0.07845472f, -0.06902863f, 0.01692582f, 0.00920161f, -0.03957416f, 0.01533191f, 0.06705365f,
    0.02059271f, 0.05312434f, -0.04762918f, -0.06176421f, -0.02289165f, 0.02263610f, 0.02110112f, 0.01819521f,
    0.07150108f, -0.03912396f, 0.05284213f, 0.06179529f, 0.07628314f, -0.00265021f, -0.04940527f, 0.05877572f,
    -0.05170820f, 0.02124981f, 0.00862544f, 0.05186106f, 0.07179027f, -0.06306576f, 0.02522408f, 0.07073320f,
    0.07828748f, -0.04919576f, 0.06291027f, -0.00053316f, -0.07878272f, -0.00364678f, -0.06096653f, 0.00080604f,
    -0.06877558f, -0.07755276f, -0.03785219f, -0.08236559f, 0.05191163f, 0.01131144f, -0.06460294f, -0.02577488f,
    0.07451685f, 0.05417625f, 0.05431611f, -0.05344714f, -0.00977308f, -0.06921988f, 0.04028725f, -0.02067139f,
    0.07069068f, -0.02135947f, 0.06552171f, 0.00573630f, 0.02743300f, -0.05320775f, 0.07392924f, -0.07413035f,
    -0.03799853f, -0.01662119f, -0.01936065f, 0.01006118f, -0.04826626f, 0.05875921f, -0.05283755f, -0.03520333f,
    0.07113429f, -0.05508829f, 0.07757389f, -0.02097367f, 0.03569743f, -0.06407355f, 0.02537904f, 0.04290662f,
    0.04581920f, -0.02053972f, 0.08289726f, 0.02199949f, -0.03219714f, -0.04793075f, 0.06423425f, 0.00655719f,
    -0.02032097f, 0.07819080f, 0.00316543f, -0.07924875f, 0.05217413f, -0.04457533f, -0.01959585f, -0.07366910f,
    -0.04047048f, 0.06945695f, -0.02775934f, 0.00294780f, -0.04724431f, 0.02660655f, -0.06112922f, -0.00379835f,
    -0.02972751f, -0.05436706f, 0.07881896f, 0.05245217f, -0.04861530f, -0.06401619f, -0.03430554f, -0.08232258f,
    -0.00451895f, 0.05168291f, -0.05441901f, -0.02318339f, 0.06340753f, 0.03539858f, 0.05249494f, 0.04144502f,
    0.02503195f, 0.07609487f, 0.01489076f, 0.02498636f, -0.01137578f, 0.08254944f, -0.00156787f, 0.00828688f,
    -0.06054513f, -0.01932432f, 0.02353171f, 0.06885527f, 0.00413024f, 0.03692412f, -0.00417874f, 0.00426733f,
    -0.08238145f, 0.01641714f, 0.07219853f, -0.04115481f, -0.03342728f, 0.05663100f, 0.02012930f, -0.03163763f,
    0.02608632f, -0.01916025f, 0.01248768f, 0.02641466f, -0.05847418f, -0.00586317f, 0.02730702f, -0.01593102f,
    0.06514692f, -0.01697097f, -0.00595327f, -0.07530078f, 0.07075329f, -0.03143775f, -0.03632913f, -0.05069863f,
    0.03558885f, 0.00702810f, -0.03656914f, -0.05169130f, 0.01123030f, -0.06785403f, 0.06844591f, -0.05490038f,
    0.07569649f, -0.01133750f, 0.07787307f, -0.06021984f, -0.07823512f, 0.00300445f, 0.05431066f, -0.07696922f,
    0.00234099f, 0.02017541f, 0.01263236f, -0.05761525f, -0.07923691f, -0.01099877f, 0.05093962f, -0.06741561f,
    0.06966995f, -0.01789256f, -0.04988848f, 0.08073772f, -0.06860059f, 0.01309094f, -0.06394746f, -0.07098939f,
    -0.05591547f, 0.05652128f, 0.00405114f, 0.06062818f, -0.07842821f, 0.03346860f, -0.00284800f, -0.03392088f,
    0.02717077f, -0.02306017f, 0.07698479f, -0.02312171f, -0.04355408f, 0.03500423f, 0.04639402f, 0.04646596f,
    -0.07245986f, -0.03183176f, -0.00563599f, -0.02080028f, -0.06281592f, -0.06014568f, 0.04441614f, 0.05159035f,
    -0.01502845f, 0.04078429f, 0.00145184f, -0.04783444f, -0.03742334f, 0.03163732f, -0.08183300f, -0.02007088f,
    0.01374281f, -0.08261468f, 0.07024804f, 0.02882155f, 0.00260019f, -0.05615234f, -0.00449573f, 0.08240221f,
    0.00080433f, 0.06840833f, -0.06406244f, -0.04751372f, -0.07975128f, -0.03822167f, 0.02766220f, -0.06301980f,
    0.04016893f, 0.05503921f, -0.06757048f, 0.00047313f, 0.03157663f, -0.04579787f, -0.03932675f, 0.06932940f,
    0.01644085f, -0.02529053f, -0.03918542f, -0.02227390f, 0.07247482f, 0.06169409f, 0.03276575f, -0.01460007f,
    0.01593510f, 0.06407002f, 0.08123519f, -0.03742816f, 0.06000112f, 0.08142086f, -0.05087739f, 0.04368409f,
    0.04100380f, 0.04661233f, 0.01728144f, 0.00704657f, 0.06222203f, -0.03250435f, 0.01098266f, -0.05631506f,
    -0.05455046f, -0.05172911f, 0.01930525f, -0.08181709f, 0.06056808f, -0.03811093f, -0.05896730f, -0.02511573f,
    -0.04444816f, -0.05619987f, -0.01742373f, 0.01838350f, -0.04765435f, -0.04021954f, -0.02623503f, -0.02465412f,
    -0.07854424f, -0.00040604f, -0.02367755f, 0.06028508f, 0.05940523f, -0.04084140f, 0.04911789f, -0.07255109f,
    -0.00168028f, 0.06413036f, 0.06040811f, -0.04092928f, 0.07089397f, -0.02806394f, -0.03352157f, -0.00337812f,
    -0.05133461f, 0.05567926f, -0.06037508f, 0.03638956f, -0.03228075f, 0.00193473f, -0.07186630f, -0.04464231f,
    -0.00436784f, 0.05636489f, -0.06990036f, 0.01764253f, -0.07484061f, 0.02277102f, -0.03415605f, 0.07269891f,
    -0.00252128f, -0.00681585f, -0.07410794f, -0.00645033f, -0.04537345f, 0.02694405f, 0.05812665f, 0.02646739f,
    0.00580222f, -0.03372906f, 0.07301178f, 0.07142077f, 0.08021408f, -0.01424628f, -0.02735820f, 0.06892745f,
    0.00767317f, -0.02789333f, 0.08064195f, 0.07735830f, 0.01662295f, -0.04629358f, -0.02482583f, -0.05596447f,
    -0.07230619f, 0.04273773f, 0.04777476f, 0.00030117f, 0.05878497f, 0.02188924f, 0.07079634f, 0.06582572f,
    -0.05892712f, -0.05939712f, -0.06059944f, -0.04366264f, 0.04413881f, -0.08078024f, 0.03571984f, -0.04657611f,
    -0.05008211f, -0.06338724f, 0.08333217f, -0.04267806f, 0.07015937f, -0.05128943f, -0.03401031f, -0.06834473f,
    0.06340545f, -0.02099769f, 0.06317300f, 0.01254138f, 0.04188101f, -0.06812169f, 0.03482473f, -0.04699737f,
    -0.06846416f, -0.04316344f, -0.05105865f, 0.07007073f, 0.07603112f, 0.06150080f, -0.03561176f, 0.07054766f,
    0.03511378f, -0.00793129f, -0.06943892f, 0.03757627f, 0.02130670f, -0.06188511f, -0.03339671f, 0.03569140f,
    0.07694011f, -0.06760249f, 0.02956296f, 0.03007845f, -0.02570380f, 0.06116453f, -0.01094926f, 0.05912108f,
    0.03191382f, -0.06164966f, 0.01019149f, -0.07990843f, 0.05621764f, -0.06650935f, 0.01488083f, -0.06531577f,
    -0.06129953f, -0.00570932f, -0.05709166f, -0.05238382f, -0.03369991f, -0.05921712f, -0.00481231f, 0.02780843f,
    0.01853492f, -0.00271165f, -0.00842810f, 0.02141811f, -0.04647567f, -0.07076299f, -0.02338799f, 0.03254973f,
    0.02005695f, -0.01724096f, -0.07906081f, -0.04106551f, -0.07160565f, -0.04164666f, -0.00924869f, -0.04460868f,
    0.00673762f, -0.06299832f, 0.03508157f, 0.00256929f, 0.05776943f, 0.05957531f, 0.00302427f, -0.01767807f,
    -0.02088990f, 0.03244626f, 0.00516862f, 0.03083268f, -0.00409212f, 0.08275029f, 0.08060550f, 0.02596854f,
    -0.05372097f, 0.03842306f, 0.01693383f, -0.01188852f, 0.07350128f, 0.01336715f, 0.04954957f, 0.02736623f,
    -0.01740771f, -0.08105440f, -0.01974144f, -0.04811597f, 0.01365831f, -0.02709443f, -0.03871010f, 0.03054790f,
    0.01539520f, -0.01666795f, 0.01182224f, 0.07595666f, -0.01681331f, -0.02614232f, -0.01320629f, 0.06203803f,
    0.00855932f, -0.03211525f, 0.00120199f, 0.04105204f, 0.01577989f, 0.06370200f, 0.04233029f, 0.02980922f,
    0.04568415f, -0.02500614f, 0.05842530f, -0.01702749f, 0.00671116f, 0.05229458f, -0.05639789f, 0.05759768f,
    0.03500643f, 0.05158497f, -0.02079341f, -0.04837213f, -0.02467116f, 0.01876628f, -0.04581645f, 0.03466299f,
    0.05000003f, -0.01502086f, -0.07890802f, 0.05500377f, -0.02980411f, -0.05044324f, -0.07403120f, -0.04057770f,
    -0.02499058f, -0.02306302f, -0.03965568f, -0.05814387f, 0.01369232f, -0.03019302f, -0.07188916f, -0.01750669f,
    -0.00438491f, -0.03004020f, -0.01591213f, 0.06784756f, 0.07612538f, -0.06566646f, 0.03683014f, 0.01432361f,
    -0.06068045f, -0.00765204f, 0.00647984f, -0.05557603f, 0.05131503f, 0.05775198f, -0.01039298f, -0.03457382f,
    0.05475727f, 0.08185804f, 0.05600603f, 0.05664271f, 0.08236501f, -0.06383431f, 0.01681019f, -0.01402197f,
    0.07512334f, -0.04943099f, -0.06360532f, -0.00846119f, -0.03050701f, -0.06096851f, 0.04724305f, -0.03902699f,
    0.06031838f, 0.07973635f, -0.03136861f, -0.01532691f, -0.03572520f, -0.06489217f, -0.05559620f, 0.00709837f,
    0.01616202f, 0.05754727f, -0.00050715f, 0.03517570f, 0.06445574f, 0.02735784f, -0.01508871f, -0.02286680f,
    -0.01216762f, -0.06364036f, -0.00827580f, 0.04094067f, 0.02234105f, 0.07268327f, 0.05431268f, 0.06310825f,
    -0.02933997f, 0.05397808f, 0.02916649f, 0.04035484f, 0.01058807f, -0.00852298f, -0.05341955f, 0.05692592f,
    0.01140745f, -0.05995758f, 0.05649171f, 0.04275617f, 0.07182032f, 0.04721987f, -0.07271484f, -0.03983791f,
    -0.01526317f, 0.08140834f, 0.03899628f, -0.07282652f, -0.06849177f, -0.00185613f, -0.01629859f, 0.00893542f,
    0.08316810f, 0.02568130f, 0.04139914f, 0.03189036f, 0.00205823f, -0.06587970f, -0.03942683f, 0.03350415f,
    0.02012372f, -0.05383740f, -0.00236086f, 0.01676763f, 0.03157731f, -0.02517076f, -0.01640392f, -0.04094433f,
    0.06147896f, -0.08223640f, -0.00114091f, 0.01913233f, -0.07124650f, -0.00706274f, 0.03066633f, -0.05770585f,
    0.04224284f, 0.00811940f, -0.01172891f, -0.04208934f, 0.04768298f, -0.03664758f, 0.07437646f, -0.04875953f,
    -0.05330649f, 0.01411809f, 0.00649387f, -0.07952734f, 0.06491224f, -0.06700410f, 0.02869835f, -0.05692568f,
    0.01619065f, -0.01411581f, 0.00828790f, -0.03098871f, -0.01177482f, 0.03708264f, 0.06258251f, -0.01848690f,
    0.01583586f, 0.03536948f, -0.02489784f, 0.06844842f, 0.07918435f, -0.07535844f, 0.04913467f, -0.04990444f,
    -0.03415570f, 0.01402484f, -0.06059068f, -0.02043910f, -0.07850902f, -0.00573561f, 0.08002982f, -0.07714714f,
    -0.00349235f, -0.07630968f, 0.02141526f, -0.06208013f, 0.05229557f, 0.01997341f, -0.00305582f, -0.08081754f,
    0.01491509f, 0.03116680f, -0.04911062f, -0.03582191f, -0.06194469f, 0.06244497f, 0.00256056f, -0.02398054f,
    0.04858623f, 0.07805844f, 0.07725228f, -0.03932371f, -0.04829682f, -0.00932409f, 0.03488703f, -0.01537543f,
    -0.00047935f, 0.03042356f, 0.03964218f, -0.04647925f, -0.02582100f, 0.06054805f, 0.01784834f, 0.03781093f,
    0.02180885f, -0.08202849f, -0.06336917f, -0.02601620f, -0.02691470f, -0.08165465f, 0.04862669f, 0.04109991f,
    -0.02568313f, -0.08032903f, -0.05523130f, -0.00310135f, 0.06606403f, -0.05840927f, 0.02784274f, -0.01445560f,
    0.07811607f, 0.06040915f, -0.04394944f, -0.06099960f, -0.03739662f, -0.00665978f, 0.02978167f, -0.03483170f,
    0.01835062f, 0.06712618f, 0.06945416f, 0.06445038f, 0.02693865f, -0.01244384f, 0.07180431f, 0.02547937f,
    0.07443205f, -0.05343601f, -0.05776405f, -0.03901091f, 0.03985565f, 0.04847489f, 0.07970577f, 0.06864259f,
    -0.02015138f, -0.02527612f, 0.01148820f, -0.04133205f, -0.00770318f, -0.00989887f, 0.06537317f, 0.01677790f,
    0.01495393f, -0.02639646f, -0.06021076f, -0.08065714f, 0.06046295f, -0.06642316f, -0.06208922f, -0.04256956f,
    -0.02990810f, -0.02187186f, -0.00696159f, 0.06267371f, -0.03125193f, -0.02782424f, -0.00830209f, -0.00069377f,
    -0.04739986f, -0.07619455f, -0.01175168f, -0.03766894f, -0.07389420f, 0.05866966f, -0.05498421f, -0.06861289f,
    0.05906246f, 0.06613535f, 0.07440770f, 0.01252964f, -0.02556930f, 0.07778347f, -0.03659267f, 0.05406402f,
    -0.06219975f, 0.03249680f, 0.00159572f, -0.01354665f, 0.05002242f, -0.01863290f, 0.00489040f, -0.04475511f,
    -0.05654421f, 0.02610688f, 0.07333644f, -0.07255464f, 0.08121309f, -0.00221372f, 0.06816401f, -0.01935834f,
    0.01718672f, 0.05229357f, -0.06903954f, 0.02485926f, 0.01329295f, -0.04573826f, 0.02451503f, 0.06405020f,
    0.02149584f, 0.03465686f, 0.06264722f, -0.01187943f, 0.05860474f, -0.00480068f, 0.07544094f, -0.07128521f,
    -0.03599913f, -0.00790129f, 0.01626407f, -0.00321824f, 0.00112586f, -0.02009159f, -0.00893853f, 0.03787100f,
    0.03197601f, 0.04155772f, 0.08042124f, 0.02812642f, -0.05191060f, 0.00970201f, -0.05994271f, -0.02811627f,
    -0.06783973f, 0.03113459f, 0.05499473f, 0.05284269f, 0.03189864f, 0.06080469f, -0.01369119f, 0.07327968f,
    -0.01151077f, 0.01900917f, 0.06838747f, -0.03299318f, -0.04524404f, 0.02423533f, 0.05568638f, -0.00604605f,
    -0.00671850f, 0.01019782f, 0.03713276f, -0.05239059f, 0.02181324f, 0.06748943f, 0.02043784f, -0.01977877f,
    0.01110458f, -0.00450817f, -0.07059817f, -0.03461304f, 0.05115999f, -0.04058877f, -0.07421166f, 0.02114373f,
    0.03116098f, -0.00779100f, -0.00403907f, -0.00851428f, -0.06340055f, -0.04074783f, -0.02069427f, -0.03480847f,
    0.02779338f, -0.03614748f, -0.02021884f, -0.08255404f, 0.00291745f, 0.00839397f, -0.01572118f, 0.01739163f,
    0.02585984f, 0.05927423f, -0.04832911f, 0.03919312f, -0.04813879f, 0.01564011f, -0.04418564f, -0.06349202f,
    0.02490198f, 0.07782508f, 0.02310156f, 0.00906700f, -0.06120363f, 0.07680365f, -0.02326704f, -0.03453092f,
    -0.02090776f, -0.08003878f, -0.07310488f, 0.07152139f, 0.04079755f, -0.02215475f, 0.06397749f, -0.07263600f,
    0.02813619f, 0.06189443f, -0.07078012f, 0.01051610f, 0.05663406f, -0.00014006f, 0.01382408f, -0.04950130f,
    0.04061472f, -0.00751107f, -0.07077828f, -0.05214076f, -0.05110815f, 0.01121902f, -0.00428900f, 0.01460140f,
    0.02750481f, 0.05944118f, -0.01254378f, 0.00708658f, -0.00741483f, -0.00850520f, 0.05831545f, 0.06290065f,
    0.07084291f, 0.02468130f, 0.05991794f, 0.02622348f, -0.04413651f, -0.04874762f, 0.07034509f, 0.01585181f,
    -0.03449756f, -0.00026847f, 0.06764391f, -0.06440523f, 0.06632640f, -0.03246484f, 0.04302767f, -0.03662798f,
    -0.02183123f, 0.01524306f, 0.03946879f, -0.06826515f, 0.07648381f, 0.07393429f, -0.03986669f, -0.03150350f,
    -0.01839457f, -0.00967707f, -0.07639512f, -0.00296361f, 0.01677859f, -0.03802374f, 0.05854082f, -0.07725605f,
    -0.02505858f, -0.06533389f, -0.01595644f, 0.04908904f, 0.01153950f, 0.01390342f, 0.04497923f, -0.02122211f,
    0.08189251f, -0.07183997f, 0.03395294f, 0.00741822f, 0.01165949f, 0.05357788f, 0.03357638f, -0.03009908f,
    0.06974846f, 0.00623885f, -0.01012334f, -0.03243765f, 0.07891589f, -0.01817300f, 0.01809031f, 0.04347092f,
    0.04800473f, -0.03355543f, 0.06954280f, 0.03083086f, -0.06926476f, 0.01473492f, 0.03498827f, -0.04771242f,
    0.05840841f, -0.04165936f, 0.05541823f, 0.07734492f, -0.07746276f, -0.02902008f, -0.02027063f, -0.07704389f,
    -0.06911840f, -0.06965476f, 0.07619992f, 0.00292297f, -0.05001132f, 0.07586114f, 0.05660542f, 0.07271322f,
    0.07587307f, -0.00991452f, -0.01501642f, -0.04190394f, -0.04059168f, 0.05472518f, -0.06248938f, 0.03298625f,
    0.03833938f, 0.06457150f, 0.05071062f, 0.07027070f, 0.06075097f, -0.07132855f, 0.03187700f, 0.04135250f,
    -0.07366940f, -0.03917112f, -0.00124559f, -0.07060333f, 0.04132730f, 0.07059597f, 0.03484419f, -0.06379288f,
    0.06230010f, -0.07296243f, 0.06808299f, -0.05228942f, 0.01685350f, -0.05868749f, -0.01297683f, 0.06475028f,
    0.02755637f, -0.01087564f, 0.04516755f, 0.00437239f, 0.00194841f, -0.07155468f, 0.03119580f, 0.00612530f,
    0.01174735f, -0.04483940f, -0.08049726f, 0.05691488f, -0.00705102f, -0.01918367f, 0.03181021f, -0.06082311f,
    0.03986200f, 0.04565567f, 0.08015843f, 0.07063007f, 0.00750255f, -0.07854980f, -0.02512145f, 0.06557234f,
    0.02419751f, 0.06359752f, -0.07733869f, 0.08117935f, 0.06457414f, 0.03496967f, 0.01586303f, -0.03550427f,
    0.07454208f, 0.03510898f, -0.03680139f, 0.07972866f, -0.02216749f, 0.00270250f, -0.00344159f, -0.06586726f,
    -0.06866854f, 0.06939720f, 0.07485348f, -0.02752747f, 0.07075951f, -0.02499782f, 0.03672999f, -0.05734105f,
    -0.05778829f, -0.01344550f, -0.07396229f, 0.05399423f, -0.04430112f, 0.02842381f, -0.07165115f, -0.07829767f,
    -0.07306298f, -0.00486640f, -0.04200090f, -0.00881505f, -0.05754215f, 0.00831290f, 0.02077842f, -0.07159697f,
    0.04901832f, 0.01176355f, 0.07037088f, -0.07179832f, 0.04116356f, -0.00832935f, -0.05611924f, -0.01619258f,
    -0.04380947f, -0.03160178f, 0.01841838f, 0.07637507f, -0.07042876f, -0.06904514f, -0.01383936f, -0.02848243f,
    -0.06985149f, 0.02910146f, -0.03924657f, 0.00174047f, -0.03287294f, 0.07326760f, -0.00465827f, -0.07988499f,
    -0.08004700f, -0.06118938f, 0.03758213f, -0.05826934f, -0.07303750f, 0.05498581f, 0.05330919f, -0.02309414f,
    0.06142199f, -0.07566869f, -0.01644750f, 0.02737261f, 0.01465233f, -0.03720375f, 0.03358724f, -0.02660077f,
    -0.02557852f, 0.07926908f, -0.02409284f, -0.05966146f, 0.00970667f, -0.06115061f, -0.03607155f, -0.00332284f,
    -0.00401531f, 0.01707204f, -0.05167345f, 0.00261015f, 0.05855685f, 0.00817244f, -0.04320345f, -0.05124427f,
    -0.07525044f, -0.02797576f, -0.03671836f, 0.06074643f, -0.00859872f, 0.01766747f, 0.07603361f, -0.08169025f,
    -0.04291949f, -0.04814952f, 0.03695399f, 0.04821998f, -0.01277216f, -0.05878426f, -0.01719203f, -0.01495916f,
    -0.07339770f, 0.00118726f, 0.08189023f, 0.01909859f, 0.07037466f, -0.04237916f, 0.00632160f, 0.08223042f,
    -0.01514916f, -0.01741235f, -0.05710372f, -0.00138701f, 0.06152577f, -0.03430606f, 0.03559501f, 0.07038635f,
    -0.08323491f, 0.08066697f, 0.00579136f, 0.07941107f, -0.04270780f, 0.02312547f, 0.00212441f, -0.05249409f,
    -0.02001891f, -0.06035862f, 0.01613553f, -0.02197827f, 0.02675462f, 0.03883194f, -0.01181808f, -0.02714663f,
    0.05514724f, 0.00625163f, 0.05758334f, -0.01414655f, -0.03713093f, -0.00078769f, -0.02585616f, 0.05998366f,
    -0.05886894f, -0.05589474f, -0.07811492f, -0.01627999f, -0.07444640f, 0.06466612f, 0.05828979f, -0.01522753f,
    0.00910641f, -0.02418293f, 0.01055291f, 0.01929517f, 0.00613584f, 0.07567157f, 0.05253626f, 0.00465706f,
    0.03346872f, 0.01575955f, 0.06850363f, 0.04375724f, 0.04561886f, -0.01874466f, 0.01980538f, 0.07727717f,
    0.01080361f, 0.03682636f, -0.02251337f, -0.05113645f, -0.07695195f, 0.04522362f, -0.08301431f, -0.04005064f,
    -0.05043347f, -0.07185366f, -0.00407717f, 0.04240751f, 0.03348726f, 0.03108920f, -0.07795551f, -0.04806040f,
    -0.05892537f, 0.04056650f, 0.07397543f, 0.07384695f, -0.07755937f, 0.01216743f, -0.07349461f, 0.08220294f,
    0.02332957f, -0.05118006f, -0.04221355f, -0.05797989f, -0.01002992f, -0.01581020f, 0.01483649f, 0.02786640f,
    -0.04754057f, -0.05979061f, 0.04671249f, 0.05856134f, -0.05457387f, 0.04132494f, 0.03277536f, -0.05281658f,
    -0.05395996f, 0.01427539f, -0.07783909f, 0.04798717f, 0.04304927f, -0.03566006f, 0.07643807f, 0.07642393f,
    -0.01635186f, 0.00164459f, 0.01568155f, -0.02840027f, 0.02385440f, 0.07865883f, 0.05882446f, 0.00586230f,
    -0.08117610f, 0.07281074f, 0.05618171f, 0.01733841f, -0.06381412f, -0.05200499f, 0.05127525f, -0.01362974f,
    -0.01961084f, -0.07875993f, 0.03008577f, -0.07927056f, 0.00730221f, -0.06383772f, 0.06432594f, 0.05451166f,
    -0.00531440f, 0.03377007f, 0.02528348f, 0.02441986f, 0.07815400f, -0.03036163f, -0.00456066f, -0.02395130f,
    0.07436174f, 0.00131079f, 0.07998441f, 0.08086019f, -0.01895645f, -0.02481406f, -0.06592003f, 0.03057637f,
    -0.01068028f, -0.02348247f, -0.00295244f, 0.03260993f, -0.08035864f, 0.06327774f, -0.06243089f, 0.03499565f,
    0.02567291f, -0.07490410f, -0.01363375f, 0.05446544f, 0.01989320f, 0.04765302f, -0.06496343f, 0.06065621f,
    0.03469920f, -0.00462044f, -0.05015857f, -0.03328959f, 0.04120953f, 0.04822163f, -0.01911497f, -0.02252407f,
    -0.07351504f, -0.02787176f, 0.01609917f, 0.03876809f, -0.05434212f, -0.03436567f, 0.06545305f, 0.04496613f,
    -0.03461605f, -0.07979005f, -0.03807530f, -0.05864313f, 0.03587016f, -0.04368204f, -0.01421784f, -0.06495196f,
    -0.07240238f, 0.01588173f, 0.01734573f, 0.02743382f, -0.03298294f, -0.05334800f, 0.06987345f, -0.00590014f,
    0.02094074f, 0.00880771f, 0.06909912f, -0.07274532f, 0.08073704f, 0.05870410f, -0.00470769f, 0.05910344f,
    0.04494750f, -0.02658011f, 0.03386876f, 0.07658182f, 0.04971423f, -0.04322153f, 0.06853133f, 0.06372945f,
    -0.06844965f, 0.05181537f, 0.02960238f, 0.01071714f, -0.01912104f, -0.02868266f, -0.05320228f, 0.08015424f,
    0.04447238f, 0.06153425f, -0.04903200f, -0.02005567f, 0.06241441f, -0.07274701f, 0.03710880f, 0.02463730f,
    0.01528171f, -0.04304507f, 0.05020835f, -0.00116986f, 0.01759650f, 0.07580443f, -0.06981509f, 0.01769511f,
    0.07760559f, 0.05429310f, -0.06332675f, 0.06203828f, -0.00148549f, -0.02919998f, -0.07799749f, -0.06988350f,
    0.06991306f, -0.07635126f, -0.06186523f, 0.06751469f, 0.06136289f, 0.07745165f, -0.02337356f, -0.04895231f,
    -0.00134794f, 0.02740613f, 0.07493364f, -0.05209228f, 0.04656456f, -0.05756823f, -0.01881660f, -0.00415416f,
    -0.01859645f, 0.06575403f, 0.01915218f, -0.07837109f, -0.05195085f, 0.02147586f, 0.01389445f, 0.02399619f,
    -0.04882972f, -0.04570806f, 0.02861157f, 0.05501476f, -0.03855208f, 0.02306296f, 0.05560229f, 0.03151818f,
    0.06918322f, -0.07631056f, 0.08290136f, 0.01881309f, -0.01344809f, -0.05494609f, -0.08237110f, -0.06298134f,
    -0.00966640f, -0.05889323f, -0.04763616f, 0.01595452f, 0.06132546f, 0.02409834f, -0.00965314f, -0.05061101f,
    0.06559898f, -0.01938453f, 0.01514550f, 0.05510646f, 0.00033032f, 0.07621282f, -0.01495970f, 0.07671081f,
    -0.00006089f, 0.04109643f, 0.04549512f, -0.00473710f, -0.07941294f, -0.02048224f, 0.01307294f, 0.05380647f,
    0.08069032f, 0.05435797f, -0.05191557f, -0.04402401f, 0.02392323f, -0.08066433f, -0.00512029f, 0.01312517f,
    0.00576942f, -0.05091359f, -0.00915230f, 0.07107913f, 0.03330994f, 0.02099322f, -0.06631108f, -0.05144309f,
    0.04496816f, -0.07057183f, 0.04697829f, -0.04206632f, 0.03564056f, 0.07809203f, -0.02909296f, -0.06833579f,
    -0.06851637f, 0.06556676f, -0.04171629f, -0.01035205f, -0.04130105f, -0.01933860f, -0.00735583f, 0.04167349f,
    -0.01716845f, -0.00087156f, -0.00250677f, -0.03625304f, 0.07737121f, -0.03964062f, -0.02702511f, 0.00970832f,
    -0.03443561f, -0.07699051f, -0.05271542f, -0.01747290f, -0.04292834f, -0.06033378f, -0.00467758f, -0.00894557f,
    0.06210646f, 0.02236012f, 0.04758170f, -0.04570925f, -0.07530193f, -0.03232136f, -0.00403693f, -0.04059134f,
    -0.02806390f, 0.06583361f, -0.02987066f, 0.02319593f, -0.03552052f, -0.07820462f, 0.05561774f, -0.07103543f,
    -0.00373727f, 0.01775346f, 0.03181268f, -0.08165903f, 0.02862284f, 0.05632829f, 0.04368546f, -0.06255858f,
    0.05578654f, 0.00738228f, -0.07315786f, 0.03183231f, -0.03159308f, -0.01319122f, -0.04122528f, -0.08062874f,
    0.03956571f, 0.05951637f, 0.06237048f, 0.04746937f, -0.04741343f, -0.07877728f, 0.06327673f, 0.03052518f,
    -0.01224229f, -0.00689768f, 0.01298328f, 0.04742932f, -0.00151969f, 0.00058667f, -0.06131483f, 0.03090580f,
    -0.06806269f, -0.03290602f, 0.08142998f, -0.05945794f, 0.04776810f, -0.02098953f, 0.02591166f, 0.07872686f,
    0.07005076f, -0.02424684f, 0.06743181f, -0.00816323f, 0.04385654f, -0.08168338f, 0.07740437f, -0.04668555f,
    0.08327863f, -0.06470318f, 0.04183056f, 0.03914855f, -0.02666978f, -0.02699922f, 0.05473645f, 0.05345488f,
    -0.06746104f, -0.01947389f, -0.05795127f, 0.07954868f, 0.05466899f, -0.05003199f, 0.03273677f, -0.00962397f,
    -0.01437309f, 0.05369524f, -0.03116944f, -0.03884899f, -0.02212460f, -0.06319927f, 0.02942316f, 0.06442246f,
    -0.04602373f, -0.01590303f, 0.03861300f, -0.03860797f, -0.04274249f, 0.03666499f, 0.06209587f, 0.05945517f,
    -0.00815064f, 0.00309735f, 0.00889456f, -0.02870645f, -0.07801159f, 0.04915714f, 0.06155716f, 0.07432711f,
    -0.04740284f, 0.01610457f, -0.01008310f, -0.03401275f, 0.04818609f, 0.02906483f, -0.06794457f, -0.02381364f,
    -0.04898509f, -0.01980933f, -0.01432509f, 0.04634435f, 0.05460373f, -0.03005569f, -0.01694082f, 0.03256613f,
    -0.02963431f, 0.03641021f, -0.05710852f, -0.00739695f, -0.07753852f, -0.02928489f, -0.00138849f, -0.05160019f,
    0.07962161f, 0.04321641f, -0.07353225f, 0.00872631f, 0.03191655f, 0.00166863f, 0.03351758f, -0.01529794f,
    -0.05874663f, -0.06628330f, -0.04255491f, -0.01991780f, -0.06937867f, -0.07585810f, -0.06036059f, -0.00852746f,
    -0.06457647f, 0.07656990f, 0.02949148f, 0.08284172f, 0.00774179f, -0.02746142f, 0.00869213f, -0.01220771f,
    0.03921978f, 0.08107509f, 0.05489842f, 0.06445071f, 0.05974799f, 0.05368073f, 0.03089468f, -0.01708302f,
    0.01526777f, -0.07111599f, 0.07046612f, -0.00938183f, 0.05149783f, -0.06613995f, 0.02650974f, 0.02996717f,
    0.00322779f, -0.02617702f, -0.01834530f, 0.05304725f, 0.05178907f, -0.06099274f, -0.06156043f, 0.00943480f,
    -0.08305316f, -0.05168139f, -0.05842991f, 0.08076724f, 0.01814323f, -0.04826656f, 0.04324636f, 0.02221622f,
    0.01208831f, -0.06721905f, -0.05204263f, -0.07831949f, 0.02155190f, 0.05038917f, 0.02689425f, 0.01095166f,
    -0.04960849f, 0.03398655f, -0.05423200f, -0.05257472f, -0.04116878f, -0.06313264f, -0.06496292f, -0.03389006f,
    0.05634127f, -0.00559317f, -0.06342940f, -0.07797524f, -0.01440675f, 0.02449495f, 0.05015776f, -0.05734591f,
    -0.05295994f, 0.06110674f, -0.03013705f, 0.07712647f, 0.05991147f, -0.07971849f, 0.02196598f, -0.07263300f,
    -0.00859101f, -0.00649379f, 0.05090198f, -0.08295428f, 0.06256267f, -0.07748966f, 0.03048814f, -0.05881842f,
    0.02974201f, 0.04013496f, 0.01091059f, -0.06396252f, 0.00700012f, -0.02456602f, 0.03695960f, -0.03134462f,
    -0.00962607f, -0.06993607f, -0.03602996f, 0.01505822f, 0.05404355f, -0.08268332f, -0.07349771f, -0.06272082f,
    0.05199888f, 0.01554818f, -0.04828462f, 0.07971938f, 0.06762945f, 0.05777596f, 0.07452616f, -0.00714737f,
};

// Shape: (16,), dtype: float32
static const float stage0_block0_bn1_gamma[16] = {
    1.00000000f, 1.00000000f, 1.00000000f, 1.00000000f, 1.00000000f, 1.00000000f, 1.00000000f, 1.00000000f,
    1.00000000f, 1.00000000f, 1.00000000f, 1.00000000f, 1.00000000f, 1.00000000f, 1.00000000f, 1.00000000f,
};

// Shape: (16,), dtype: float32
static const float stage0_block0_bn1_beta[16] = {
    0.00000000f, 0.00000000f, 0.00000000f, 0.00000000f, 0.00000000f, 0.00000000f, 0.00000000f, 0.00000000f,
    0.00000000f, 0.00000000f, 0.00000000f, 0.00000000f, 0.00000000f, 0.00000000f, 0.00000000f, 0.00000000f,
};

// Shape: (16,), dtype: float32
static const float stage0_block0_bn1_mean[16] = {
    0.00000000f, 0.00000000f, 0.00000000f, 0.00000000f, 0.00000000f, 0.00000000f, 0.00000000f, 0.00000000f,
    0.00000000f, 0.00000000f, 0.00000000f, 0.00000000f, 0.00000000f, 0.00000000f, 0.00000000f, 0.00000000f,
};

// Shape: (16,), dtype: float32
static const float stage0_block0_bn1_var[16] = {
    1.00000000f, 1.00000000f, 1.00000000f, 1.00000000f, 1.00000000f, 1.00000000f, 1.00000000f, 1.00000000f,
    1.00000000f, 1.00000000f, 1.00000000f, 1.00000000f, 1.00000000f, 1.00000000f, 1.00000000f, 1.00000000f,
};

// Shape: (3, 3, 16, 16), dtype: float32
static const float stage0_block0_conv2_weight[2304] = {
    -0.00103344f, -0.01548254f, 0.04019164f, -0.02960888f, -0.05690294f, -0.01061736f, 0.04032934f, -0.07415822f,
    0.00806939f, 0.04932116f, -0.03617316f, -0.03605977f, -0.07845215f, -0.03612987f, 0.04708471f, 0.07524872f,
    0.03929673f, -0.02968630f, -0.07273541f, 0.02922570f, -0.00160846f, 0.07485544f, 0.01553751f, -0.04883758f,
    -0.03580516f, -0.06479314f, 0.01910826f, 0.08219396f, -0.04734263f, 0.05127134f, 0.07697330f, 0.07634212f,
    -0.05632921f, 0.03437745f, 0.08103787f, -0.00702388f, -0.08164059f, -0.04268433f, 0.01058598f, 0.00364463f,
    0.05269019f, -0.01662577f, -0.03593089f, 0.05628690f, -0.02577536f, 0.03365472f, 0.02880267f, 0.00330328f,
    -0.01588692f, 0.02356574f, 0.06146499f, -0.00849563f, 0.08270793f, 0.02619199f, -0.02854083f, 0.06880185f,
    -0.06079845f, 0.00086229f, 0.02411559f, 0.03955790f, 0.01268923f, 0.00996087f, -0.00886730f, 0.00746616f,
    0.00890868f, -0.00873196f, 0.01636470f, -0.00656359f, -0.03764170f, 0.03178804f, -0.05053541f, -0.04388636f,
    0.02936291f, 0.01048228f, 0.01938874f, 0.00684811f, -0.06894141f, 0.03644159f, -0.04357032f, -0.01544273f,
    -0.05557592f, 0.07876771f, 0.01145334f, -0.06207712f, -0.00210759f, 0.02500741f, 0.04913891f, -0.03834885f,
    -0.04467171f, -0.03537589f, -0.03026715f, 0.07308298f, 0.03856481f, -0.02724775f, -0.00297998f, -0.02123155f,
    0.01839552f, 0.03540421f, 0.01547335f, 0.00670420f, -0.07312362f, -0.06344959f, 0.03822249f, 0.07184294f,
    0.00233911f, 0.05593579f, -0.07537895f, 0.02840096f, 0.03991257f, 0.07613345f, 0.00102263f, -0.00258729f,
    0.00962674f, 0.06139998f, 0.04326905f, -0.07496645f, 0.01727005f, 0.03087562f, -0.01968086f, 0.03203800f,
    0.03033246f, 0.07568151f, -0.08236482f, 0.00795943f, 0.06713381f, -0.03661727f, 0.02353827f, -0.00780703f,
    -0.06460705f, -0.03427162f, 0.01912330f, 0.04633692f, 0.07235597f, 0.04066752f, -0.07192969f, -0.08102926f,
    0.04705498f, 0.07334931f, -0.01227283f, 0.00332617f, -0.06014588f, -0.04388748f, -0.01889083f, 0.08045314f,
    0.02451935f, 0.07162884f, -0.03612712f, 0.04541783f, 0.03984730f, -0.03323491f, -0.04278007f, -0.04000744f,
    0.07427480f, -0.04682332f, -0.04336851f, -0.06430586f, 0.06577837f, 0.01862523f, -0.00394669f, -0.08085300f,
    -0.07517074f, -0.05747516f, -0.03592548f, 0.02688187f, -0.05179764f, -0.02686245f, 0.04836655f, 0.00024509f,
    -0.03725832f, 0.06234383f, -0.03673279f, 0.04563146f, 0.00071541f, -0.02530902f, -0.03084558f, 0.00561163f,
    -0.06391042f, 0.05490665f, -0.07795423f, -0.08144798f, -0.04961872f, -0.04092025f, 0.05257159f, -0.04022714f,
    0.06782939f, -0.05783473f, 0.07215926f, 0.07218515f, -0.08322240f, 0.03261889f, -0.07648211f, -0.00716086f,
    -0.00243778f, 0.04438256f, 0.00587573f, 0.03932130f, 0.01990363f, 0.08240838f, -0.01207855f, -0.01187274f,
    0.00212525f, -0.01873079f, 0.06528512f, -0.01760358f, -0.02764535f, 0.02402416f, -0.02274776f, -0.07502061f,
    0.00753876f, -0.03503856f, 0.02554797f, 0.05084310f, 0.06484061f, 0.05677382f, 0.04258032f, -0.03416427f,
    0.01652815f, -0.07880802f, 0.06381606f, -0.05164951f, -0.06407744f, 0.04054633f, 0.02561425f, -0.07222702f,
    -0.05047686f, -0.06129492f, 0.02599075f, 0.02382731f, -0.03956702f, 0.04176596f, 0.02928653f, 0.04224814f,
    0.02416119f, 0.07450837f, 0.03436089f, 0.06938588f, -0.07437684f, -0.05422734f, 0.01728818f, 0.02405631f,
    0.06854840f, 0.07332265f, -0.05931322f, 0.00290936f, 0.07210886f, -0.07813360f, -0.02281325f, -0.07431820f,
    0.02739557f, -0.04945716f, -0.00899854f, -0.01301030f, -0.03890858f, -0.07501420f, 0.05182555f, 0.00874637f,
    0.03872331f, 0.06819790f, 0.06438231f, -0.03997894f, 0.06799553f, -0.08040926f, 0.04866081f, -0.05461047f,
    -0.06786375f, -0.08197090f, 0.05251798f, 0.03027860f, 0.06340943f, -0.03427295f, 0.02826979f, -0.03996954f,
    0.06577193f, -0.08049636f, -0.01098780f, 0.02466982f, -0.00009030f, 0.01087462f, -0.01638960f, 0.00098676f,
    -0.01850803f, 0.04163006f, -0.02303066f, 0.05348895f, -0.07590287f, -0.07046630f, 0.07457829f, -0.01628188f,
    0.07730919f, 0.00151256f, 0.07388820f, -0.07783153f, -0.01195394f, -0.01746727f, 0.02685108f, -0.04429625f,
    -0.00177818f, 0.05474364f, -0.03973407f, -0.02993852f, -0.01724662f, 0.00061840f, -0.03152330f, -0.08308959f,
    0.05338299f, 0.00699747f, 0.05144837f, -0.02374548f, -0.00202778f, -0.04053142f, 0.01825300f, -0.02311870f,
    -0.01072840f, 0.07611312f, -0.03450249f, -0.03269184f, -0.02516162f, -0.06787284f, -0.01394233f, -0.02453002f,
    0.01599086f, 0.04170926f, -0.00854531f, 0.00183538f, 0.00501596f, -0.00709355f, -0.03512517f, -0.00489426f,
    0.03917555f, 0.04916015f, 0.06230481f, -0.00410151f, 0.05896124f, -0.00001655f, 0.00578809f, 0.00754187f,
    -0.06968343f, -0.08041915f, 0.02005292f, 0.06750010f, -0.04057038f, -0.01721409f, -0.07829338f, 0.02306012f,
    -0.03459480f, 0.01715512f, -0.00126707f, 0.01566319f, 0.01510400f, 0.05658514f, 0.04164772f, -0.04449251f,
    -0.02271191f, -0.00968949f, 0.00785767f, -0.06583427f, -0.02724703f, 0.02231098f, -0.05946987f, -0.05676241f,
    -0.04011288f, 0.03814412f, 0.07984839f, 0.05011338f, -0.06700814f, 0.05153906f, -0.00024967f, -0.07846177f,
    0.03434248f, -0.07749613f, -0.04867290f, -0.02850120f, 0.00287768f, 0.06231315f, -0.01919947f, 0.02404621f,
    0.01240950f, 0.05593723f, -0.05794659f, -0.04728635f, -0.03730139f, 0.05460798f, 0.07181751f, -0.01677947f,
    -0.07660528f, -0.07090740f, -0.01904980f, -0.05891020f, -0.06309720f, 0.06061217f, -0.00746461f, -0.06614368f,
    -0.01754163f, 0.04432899f, -0.05129045f, -0.07086893f, 0.06880593f, -0.07359506f, 0.00364307f, 0.00405207f,
    0.03001929f, 0.00978625f, -0.05012739f, 0.05917186f, -0.03582597f, 0.03469456f, 0.03978031f, 0.05329904f,
    0.01783768f, -0.05449780f, -0.04624250f, 0.02208464f, 0.06334242f, 0.05970510f, 0.07648369f, 0.08121349f,
    0.05854687f, 0.04802781f, -0.01570424f, 0.05515784f, 0.03353533f, -0.03668070f, -0.00480154f, 0.05020881f,
    -0.02928036f, 0.02133675f, 0.04224512f, -0.01049905f, 0.06532843f, -0.04153618f, 0.07873669f, -0.01583738f,
    0.06380790f, 0.03188585f, 0.07939571f, 0.06705510f, 0.04986196f, 0.03188641f, -0.02573679f, -0.08239671f,
    0.02267451f, 0.06047770f, -0.07010764f, 0.02312238f, -0.08099636f, 0.00424972f, -0.03086265f, 0.02178213f,
    -0.02401348f, -0.06944387f, -0.00683063f, 0.05346067f, 0.07547572f, -0.06336351f, -0.01225779f, -0.05013749f,
    0.08029365f, -0.05176482f, 0.04626314f, -0.03519738f, 0.02489160f, -0.06596129f, -0.02479164f, 0.05379529f,
    -0.01517939f, -0.01791763f, 0.08174019f, 0.06896199f, 0.07952338f, -0.07291207f, 0.02215343f, -0.06846337f,
    0.07763117f, 0.05032140f, -0.01708620f, 0.08023775f, 0.00152074f, 0.00362048f, 0.02069183f, -0.05585911f,
    0.01929817f, -0.00881344f, 0.00198647f, 0.02342682f, -0.00572377f, 0.07284543f, -0.02815698f, 0.06236131f,
    -0.00817848f, 0.02033707f, 0.07182973f, -0.01761305f, -0.07825218f, -0.07917723f, -0.06569671f, -0.01075824f,
    0.02161671f, 0.07445461f, -0.01115190f, 0.07546285f, -0.00550561f, -0.05456316f, 0.00613691f, 0.01724955f,
    0.05390099f, 0.06788710f, -0.05701540f, 0.02513649f, 0.06251132f, -0.07152028f, 0.02466008f, -0.05712801f,
    0.05175667f, 0.07795522f, -0.00695240f, -0.02334358f, -0.06293607f, 0.01038462f, 0.05126005f, -0.07833423f,
    0.02525504f, -0.07187998f, -0.06635492f, -0.03895689f, 0.06872122f, -0.01065470f, -0.04793751f, -0.02447633f,
    -0.04636806f, 0.06418686f, -0.04946071f, -0.00927269f, -0.07477193f, 0.03059967f, 0.04317000f, 0.05479315f,
    0.07383122f, -0.06322032f, 0.03631633f, 0.01647705f, -0.00250379f, 0.00500170f, -0.07040462f, 0.04056064f,
    -0.05418796f, -0.05282447f, -0.07816595f, 0.05312429f, 0.02029576f, -0.03470563f, -0.07998948f, -0.02076005f,
    -0.01133255f, -0.05882950f, -0.08018465f, -0.08251686f, -0.04115310f, 0.06084778f, -0.01730655f, 0.00969372f,
    0.01100841f, -0.05895900f, -0.05477601f, 0.02747514f, 0.03297579f, -0.07979943f, -0.03200371f, -0.03050732f,
    0.03635476f, 0.07760544f, -0.01101350f, 0.01515021f, -0.05388024f, -0.06709975f, 0.01897136f, -0.04316186f,
    -0.06522556f, 0.05359147f, 0.00942699f, -0.07392111f, 0.00013999f, -0.00099070f, -0.01031537f, -0.00698785f,
    0.06939794f, 0.00475830f, -0.05420776f, -0.07723859f, 0.01655073f, 0.04266188f, 0.04660783f, -0.08081406f,
    0.05583155f, -0.02644109f, 0.05043123f, -0.02147658f, 0.03433472f, 0.06306253f, 0.06514831f, -0.00322691f,
    -0.03172838f, 0.06474835f, 0.00893761f, -0.06815629f, 0.01948547f, 0.03099842f, 0.07675608f, 0.05690780f,
    -0.03335185f, 0.04461358f, -0.01484794f, 0.05168398f, -0.03355313f, -0.07753517f, -0.06504177f, 0.03216661f,
    -0.01334376f, -0.02373943f, -0.01581253f, -0.07438710f, -0.01172608f, -0.01112203f, -0.04755501f, -0.03104864f,
    0.04192091f, -0.05665774f, -0.06256571f, 0.05921511f, 0.05491981f, -0.07144647f, -0.04172319f, 0.05602873f,
    0.04729041f, 0.04401121f, 0.07366654f, -0.05393001f, -0.00649656f, 0.01961523f, -0.05125354f, -0.00043486f,
    0.08220922f, -0.08017968f, 0.00566031f, 0.06845772f, 0.05802196f, -0.03480568f, -0.00543431f, 0.06662354f,
    0.06320839f, 0.03321608f, -0.00850693f, 0.00758182f, -0.02372634f, 0.00873134f, 0.07359989f, -0.07991810f,
    -0.05904165f, 0.05006198f, -0.04749508f, 0.02654440f, -0.01959132f, 0.00128179f, 0.05381597f, 0.04626527f,
    -0.04025236f, 0.08013280f, -0.06009175f, -0.01854881f, 0.03441271f, 0.07240218f, -0.07814668f, 0.05034798f,
    0.02788266f, -0.05111469f, -0.07631236f, -0.02025399f, 0.04415998f, -0.00707198f, 0.07222357f, -0.04820076f,
    0.01718207f, 0.03355595f, 0.03696353f, 0.07215300f, -0.02579099f, -0.05715775f, 0.04876367f, 0.02466825f,
    -0.03304314f, 0.01714138f, -0.04126374f, 0.06063990f, -0.07650026f, -0.02436068f, -0.04934787f, 0.08134793f,
    -0.02615376f, 0.07476368f, 0.01453472f, -0.05625751f, -0.00435487f, 0.01847260f, -0.05732614f, 0.08022561f,
    0.03295599f, 0.02503768f, -0.02912044f, -0.07520600f, 0.04166525f, -0.01425599f, -0.01569092f, -0.04129831f,
    -0.03606312f, -0.01918859f, -0.07385691f, -0.07634716f, -0.07074674f, 0.03452710f, 0.06806807f, 0.00582116f,
    -0.07123944f, -0.00527528f, 0.04958896f, -0.03365174f, -0.04905581f, -0.03919305f, -0.03499135f, 0.02461786f,
    -0.03927192f, 0.07580973f, -0.04551284f, 0.03937751f, -0.07535909f, 0.03244164f, -0.03690041f, 0.01652963f,
    0.05520862f, 0.01944220f, -0.01672546f, 0.07124248f, -0.07903467f, -0.05319645f, -0.01632311f, -0.05524987f,
    -0.03844193f, -0.00600897f, 0.03774326f, -0.05576308f, -0.01955935f, 0.03152117f, 0.05271881f, -0.07890303f,
    0.02134906f, 0.04339262f, 0.04762483f, -0.01408596f, -0.06648880f, -0.07674431f, 0.00152396f, 0.07701816f,
    -0.05197477f, -0.06621581f, -0.02288912f, -0.02316668f, -0.00003819f, 0.05892287f, 0.07541257f, -0.02096446f,
    0.04764224f, 0.00733266f, -0.06869121f, 0.04825845f, 0.01264249f, 0.06453716f, 0.02856567f, 0.03022338f,
    0.07271346f, 0.00667924f, 0.02437489f, 0.08009452f, 0.01598861f, 0.03274099f, -0.02679247f, -0.07420540f,
    0.06529541f, 0.04917822f, 0.01980926f, 0.05564299f, 0.06951860f, -0.00231061f, -0.04332663f, 0.01550287f,
    -0.01416378f, 0.03345175f, 0.00113474f, -0.02278884f, -0.01787619f, -0.03555955f, -0.06752535f, -0.01769956f,
    0.02463396f, 0.08233835f, 0.00473910f, 0.04860204f, 0.07637410f, 0.02900789f, -0.03345135f, 0.02766421f,
    -0.06576937f, 0.01360901f, 0.07493956f, 0.05233567f, 0.03287746f, -0.00587619f, 0.02409990f, -0.05965960f,
    -0.02199084f, 0.03167429f, -0.03183321f, 0.01643819f, -0.06613075f, -0.00578621f, -0.01594370f, -0.06686917f,
    -0.08197983f, -0.07784440f, 0.06235439f, 0.07698338f, 0.00046106f, 0.03237852f, 0.07422477f, 0.04335363f,
    0.06321588f, 0.03947079f, -0.06330463f, 0.06311518f, 0.05461397f, -0.06877916f, 0.04704869f, 0.04351294f,
    0.05552784f, -0.02501686f, -0.03670418f, -0.06915675f, 0.02178278f, 0.02328348f, -0.02332329f, -0.06311238f,
    -0.03526668f, 0.05938836f, 0.00817095f, -0.04103240f, 0.04886498f, -0.01038232f, 0.04705439f, 0.00353337f,
    -0.07055134f, 0.05373921f, -0.07103556f, -0.06127816f, 0.07493556f, -0.05924811f, 0.07510564f, 0.02760350f,
    0.05055517f, 0.04568528f, 0.00575757f, -0.02964298f, 0.08299980f, -0.04443578f, -0.05556344f, 0.06966436f,
    0.03485616f, 0.01293506f, 0.07689621f, 0.05213882f, 0.07047444f, -0.06017518f, 0.01889239f, 0.01876392f,
    0.06678380f, -0.04718577f, -0.05995404f, 0.06480020f, -0.07800808f, 0.00455980f, -0.04576845f, -0.04119106f,
    0.01603332f, 0.00125136f, -0.06463566f, 0.03890405f, 0.04675922f, -0.00528190f, -0.02482043f, 0.06530273f,
    0.01883825f, -0.06139169f, -0.00528354f, -0.02670549f, -0.08200294f, 0.04318338f, -0.07799129f, -0.07784243f,
    0.07213417f, 0.04712815f, -0.07470520f, -0.04941947f, 0.06444719f, 0.08273698f, -0.03153205f, -0.01319754f,
    -0.01567424f, 0.01893969f, 0.01047025f, -0.03101695f, -0.00460030f, 0.04491181f, 0.00641476f, 0.06615659f,
    -0.05108881f, -0.07855301f, -0.00582485f, -0.05333567f, -0.06457924f, -0.04285342f, -0.06179997f, 0.07219410f,
    0.06971794f, -0.06459125f, -0.04653984f, -0.05493371f, -0.06127552f, 0.02924817f, 0.01876246f, 0.04409800f,
    0.03141671f, 0.07684201f, 0.05085438f, 0.02219613f, 0.04694170f, 0.06416720f, -0.01382171f, -0.03860414f,
    -0.06497403f, 0.05249979f, -0.04931867f, -0.08177875f, 0.06406774f, -0.01274313f, 0.00817827f, -0.05265791f,
    -0.06762746f, -0.04968070f, 0.04069737f, 0.03761414f, 0.01254581f, 0.05629595f, -0.00185913f, 0.02236385f,
    0.06007662f, 0.00364559f, -0.07737499f, -0.04288287f, -0.01236895f, 0.01732851f, -0.08332518f, 0.05460358f,
    0.00980026f, -0.08218919f, 0.01868606f, -0.03995641f, 0.01019550f, -0.02690665f, -0.01369072f, 0.07439461f,
    0.02036041f, 0.01825640f, -0.00674970f, 0.01103684f, -0.00859320f, 0.02965816f, 0.05494682f, 0.07611459f,
    -0.05887443f, 0.01886734f, 0.06400686f, -0.04076404f, -0.07091521f, -0.03231850f, 0.01230153f, -0.06736520f,
    0.08216330f, -0.02498581f, 0.02970826f, 0.07496401f, 0.05941460f, 0.05287471f, 0.06235610f, 0.05332324f,
    -0.03443119f, 0.01682749f, 0.01594087f, 0.00124999f, -0.06937896f, 0.06830817f, -0.03858575f, -0.03065953f,
    0.03821108f, 0.07875534f, 0.08097436f, 0.00302678f, 0.03703205f, 0.07152805f, -0.01900580f, -0.06087697f,
    -0.00510678f, -0.01850174f, 0.05818785f, -0.02738280f, -0.08283984f, 0.01891510f, 0.01808712f, 0.06745303f,
    0.05590791f, -0.03167170f, 0.02458152f, 0.06039030f, 0.00660562f, 0.01415653f, -0.03575056f, 0.02762513f,
    0.00603638f, -0.07595282f, 0.05191561f, 0.04508741f, -0.08032338f, 0.01625837f, 0.06174228f, -0.00619815f,
    0.03554833f, 0.01129148f, -0.06706428f, -0.03344383f, 0.02365769f, 0.04723122f, 0.07857740f, -0.01683542f,
    -0.07107900f, 0.05294254f, -0.05494957f, 0.01298322f, 0.05692025f, 0.07172655f, -0.00243062f, -0.02095488f,
    -0.01448170f, 0.04949487f, 0.06544039f, 0.05509539f, 0.04841948f, 0.08152692f, 0.07930301f, -0.04515390f,
    -0.06974132f, -0.00000793f, -0.07135295f, 0.06198894f, -0.06978776f, 0.01595589f, 0.06105655f, 0.01868169f,
    0.05534754f, 0.04713091f, 0.07586816f, 0.01387885f, 0.06624313f, 0.02613284f, -0.03862274f, 0.06244028f,
    -0.06209240f, 0.07787170f, 0.01285471f, 0.06351530f, 0.01039005f, 0.06644081f, -0.02791555f, -0.07674282f,
    -0.03428247f, -0.00415105f, -0.04967448f, -0.01337334f, -0.06230083f, -0.01092679f, 0.07013829f, -0.00246046f,
    0.08235431f, -0.00295376f, -0.07753645f, -0.02385765f, -0.02807828f, 0.03044821f, 0.06187442f, 0.02431151f,
    -0.02260353f, -0.03715162f, 0.08087751f, -0.04080203f, -0.01322858f, -0.02245719f, -0.07980050f, 0.05063960f,
    0.03567455f, 0.01962230f, -0.02254900f, -0.07253912f, 0.08059495f, -0.05586677f, -0.03211780f, -0.02586162f,
    -0.01911112f, 0.00846952f, -0.01693689f, 0.00846043f, 0.05329814f, -0.05744886f, 0.08198243f, -0.01482895f,
    0.05539009f, 0.03491941f, 0.08131728f, 0.04473658f, 0.00876257f, -0.04703213f, 0.04232154f, 0.06123891f,
    -0.05492014f, -0.05425482f, -0.07071670f, -0.02284797f, 0.01353469f, -0.03254371f, 0.04815331f, 0.03660219f,
    -0.06717694f, -0.02485695f, -0.02528020f, -0.03961837f, 0.05209082f, 0.02849630f, -0.02683910f, 0.01823303f,
    0.04529638f, 0.05352608f, -0.05111381f, -0.04051610f, 0.07740652f, -0.02952235f, 0.02238584f, 0.06194206f,
    -0.03834003f, 0.03412747f, -0.01483951f, 0.03806890f, 0.04342867f, 0.05633826f, -0.05872784f, -0.01482849f,
    -0.02286907f, -0.08109693f, -0.07764222f, 0.02072553f, 0.03361627f, 0.02104185f, 0.01266755f, 0.05625993f,
    0.06860891f, 0.07351099f, 0.01967281f, -0.05115765f, -0.03823334f, -0.00655537f, -0.06820036f, 0.07406650f,
    -0.06651285f, -0.01306853f, 0.06173214f, -0.02199676f, -0.06466021f, 0.00517252f, -0.01599688f, -0.05808107f,
    0.07316318f, 0.06052646f, -0.04481805f, 0.06596186f, 0.04572725f, -0.01246251f, -0.07385749f, -0.03809455f,
    0.07778586f, -0.08051676f, 0.00862623f, 0.01971382f, 0.00566752f, 0.00003276f, -0.04249940f, 0.00851617f,
    -0.04109806f, 0.04786018f, 0.00700696f, -0.02704325f, -0.03521554f, -0.01364403f, 0.00054812f, 0.02413515f,
    0.00784647f, -0.03895751f, -0.02343025f, 0.04119372f, 0.04817794f, -0.02602442f, -0.05612395f, 0.05307507f,
    0.04008306f, 0.07931831f, 0.06201255f, 0.03659324f, -0.08117297f, -0.01755752f, -0.01928616f, -0.03562086f,
    0.06594077f, -0.06351028f, 0.02378595f, -0.04491450f, -0.00541815f, -0.00392546f, -0.03003854f, 0.06514663f,
    -0.05937546f, -0.02106245f, -0.06942659f, 0.05222025f, 0.06175297f, -0.01949614f, 0.05607525f, 0.03126585f,
    0.01068171f, -0.07707518f, 0.07474925f, -0.05111044f, 0.06746208f, 0.03618170f, -0.04089473f, -0.06156214f,
    0.07446343f, 0.03198307f, -0.04796951f, -0.04622608f, 0.02234695f, 0.00055203f, 0.04236244f, -0.04063582f,
    0.00884352f, 0.00980142f, 0.01338427f, 0.00436830f, 0.04527237f, -0.07679033f, -0.05045947f, -0.02297441f,
    -0.00208042f, -0.07638633f, 0.03632572f, -0.01067744f, -0.04226628f, -0.07284060f, 0.03601296f, -0.01094686f,
    -0.04112709f, 0.02341242f, -0.02800342f, 0.06711268f, -0.05317560f, -0.06108644f, -0.04359170f, -0.05420471f,
    0.06292294f, 0.05042117f, -0.07382935f, -0.05900934f, 0.05148191f, 0.06636302f, -0.01750828f, -0.06759204f,
    -0.00968671f, 0.02341352f, -0.04080686f, 0.05368856f, 0.02739531f, 0.02043933f, 0.06804697f, -0.00214865f,
    0.06190050f, -0.02078556f, -0.03573116f, -0.01213622f, 0.08086830f, 0.07066998f, -0.04887227f, 0.07159594f,
    -0.03956874f, 0.08235609f, 0.00361060f, -0.00231436f, -0.02058713f, -0.04987618f, 0.04229816f, -0.02537038f,
    0.06758694f, 0.05780593f, -0.06704578f, 0.04944714f, -0.01279396f, 0.05112931f, 0.01921719f, -0.01695034f,
    0.06499054f, 0.02313153f, -0.02699243f, 0.03571438f, -0.04281651f, 0.03072756f, -0.06700724f, 0.05883710f,
    0.07719795f, 0.07811156f, 0.01640482f, -0.04900777f, -0.06807422f, -0.07679152f, -0.08007630f, -0.03687164f,
    0.05306742f, -0.02585246f, -0.03705303f, 0.05702486f, 0.00657624f, 0.02170482f, 0.05614863f, -0.06314972f,
    -0.07826217f, 0.01272818f, 0.03043335f, -0.01284063f, 0.02558655f, 0.01683755f, -0.00354854f, -0.01357087f,
    -0.06995690f, -0.07270830f, -0.01027091f, 0.07974240f, -0.07844758f, -0.02763106f, 0.04443040f, -0.01487945f,
    -0.06161695f, -0.00112039f, -0.02805138f, 0.03682889f, -0.05639056f, -0.06250104f, -0.01630559f, 0.04011875f,
    0.04044496f, 0.00317825f, 0.07458574f, -0.00281350f, 0.07452969f, 0.05937865f, -0.02025768f, -0.05268716f,
    0.03043965f, 0.05938562f, 0.02829112f, -0.07652923f, 0.07626633f, 0.06356353f, 0.01561811f, -0.06974819f,
    0.03088492f, 0.07876983f, -0.03395229f, -0.08217409f, -0.00065527f, 0.05925903f, -0.07447976f, 0.03223906f,
    0.02697733f, 0.00173476f, 0.02063398f, -0.00841061f, -0.06712969f, 0.05170385f, -0.05378728f, 0.02494209f,
    -0.00208960f, -0.06994234f, -0.07242434f, -0.01296026f, -0.00510998f, 0.03686933f, 0.07321029f, 0.01037337f,
    0.01795778f, 0.00158843f, -0.05133646f, 0.02086128f, -0.02360996f, -0.00440744f, -0.02409977f, -0.03824270f,
    -0.04639338f, 0.00203499f, 0.03751467f, -0.07392000f, 0.07696083f, -0.06705792f, -0.08178204f, -0.08126968f,
    -0.07301100f, 0.03947283f, -0.05924862f, -0.00050027f, -0.00157962f, -0.02540537f, -0.06443366f, -0.06913688f,
    0.04786034f, 0.04540956f, 0.06284325f, -0.01786677f, 0.00174873f, 0.06439330f, 0.00757458f, -0.07499284f,
    -0.03427717f, 0.03299875f, -0.04069771f, 0.06842940f, 0.03731314f, 0.04193013f, -0.06801319f, -0.02006342f,
    -0.04097605f, 0.05558739f, -0.00683933f, 0.06277896f, 0.03887235f, 0.05300365f, 0.03852239f, 0.04723607f,
    -0.06574516f, -0.04127402f, 0.06380543f, 0.06670170f, -0.05098924f, -0.04586885f, 0.01776829f, -0.01665222f,
    0.03140889f, 0.02103926f, -0.02616128f, 0.03147427f, -0.02816838f, -0.04944238f, 0.04793390f, 0.05451467f,
    0.01656537f, -0.00956978f, 0.05019035f, 0.06941153f, 0.00528227f, 0.02910925f, 0.00041153f, 0.01233904f,
    -0.03088028f, 0.01996478f, -0.01291438f, 0.05494588f, 0.06401598f, 0.01588733f, -0.07420389f, 0.05208679f,
    0.03250902f, 0.00211954f, 0.00343080f, -0.07512657f, 0.07442503f, -0.02306561f, -0.02148983f, 0.07383180f,
    -0.04623185f, -0.02861379f, 0.01758223f, 0.02104076f, -0.04725131f, -0.08008688f, -0.01515526f, 0.06481474f,
    0.02309080f, -0.07317277f, -0.07926708f, 0.06971302f, 0.01322096f, -0.01415943f, -0.03524742f, -0.05053139f,
    0.06603272f, 0.06290563f, -0.07057682f, 0.06212529f, 0.02376766f, -0.06367022f, 0.03859758f, -0.00719561f,
    -0.02012900f, -0.05342485f, 0.06809443f, 0.07940912f, -0.05888632f, 0.07310697f, -0.03318467f, -0.07388882f,
    -0.00172983f, 0.04990906f, -0.03421181f, 0.02438965f, -0.07500234f, -0.05434727f, -0.01049086f, -0.03338077f,
    -0.04687582f, -0.03698325f, -0.06072399f, 0.05127906f, 0.01307645f, 0.01594027f, 0.01392016f, 0.01479257f,
    0.08092302f, -0.01154166f, 0.01292480f, -0.05942671f, 0.01758442f, 0.02344545f, -0.01508506f, 0.04850036f,
    0.04848924f, 0.02391300f, 0.03010785f, 0.02251977f, -0.03388160f, 0.04073077f, -0.07983643f, 0.07375593f,
    -0.07696810f, 0.03602640f, 0.05218866f, 0.01041510f, -0.06035469f, -0.07548143f, 0.03318540f, 0.07210305f,
    0.00587255f, -0.07817893f, 0.04771495f, -0.06118263f, 0.01802515f, 0.04951965f, 0.02456614f, 0.04150843f,
    -0.01212233f, 0.00109369f, 0.07205644f, -0.06698865f, 0.04993453f, -0.07598276f, 0.01122147f, -0.07962076f,
    -0.04317584f, 0.02534254f, -0.07892458f, -0.05744677f, -0.05830991f, 0.05084464f, 0.00381542f, -0.04806998f,
    0.07545562f, -0.03342859f, -0.02407733f, -0.02785535f, 0.06607556f, -0.03834135f, 0.06156233f, 0.08267134f,
    0.01359402f, 0.03129742f, -0.04436492f, 0.06010355f, 0.04188725f, 0.07517074f, 0.04162242f, -0.01722420f,
    -0.02090993f, -0.05774260f, 0.01455342f, -0.04983159f, -0.01441197f, -0.07157680f, -0.05956788f, 0.03114271f,
    -0.01400927f, 0.05847684f, 0.00802214f, -0.02752219f, -0.06218404f, 0.00378405f, 0.02324113f, 0.04775917f,
    0.05305629f, -0.02068284f, -0.07389797f, -0.04881759f, 0.04546225f, 0.03790509f, 0.02275349f, -0.04159561f,
    -0.06342043f, -0.05589818f, -0.07200091f, -0.07459962f, -0.00195623f, 0.05849428f, 0.05158641f, 0.07312149f,
    -0.01612552f, 0.02496543f, 0.01043707f, -0.06385791f, 0.02710438f, 0.01043264f, -0.06054094f, -0.08285301f,
    -0.03902791f, -0.04902003f, -0.06157415f, 0.05322382f, -0.08249192f, 0.01051964f, -0.04822588f, -0.03152191f,
    0.07301583f, -0.00963101f, -0.00220161f, -0.05462978f, 0.04082319f, 0.00454940f, 0.07502271f, -0.04265000f,
    -0.05548987f, -0.04242142f, -0.00619532f, -0.08250978f, 0.07588686f, 0.06796323f, 0.06473004f, 0.00860220f,
    0.00375994f, 0.07451385f, 0.02510263f, 0.06440102f, 0.07780057f, 0.03865967f, 0.04766523f, 0.02319410f,
    0.03936843f, -0.01736274f, 0.08199879f, 0.06180261f, 0.07762178f, -0.01976892f, -0.05347071f, -0.02213157f,
    -0.00922402f, -0.06369504f, 0.03164787f, 0.02854070f, -0.02328585f, 0.01582909f, -0.00224326f, -0.00096518f,
    0.02871884f, 0.07873820f, -0.06877781f, -0.06401086f, 0.00864101f, 0.04546114f, -0.00692355f, -0.04027803f,
    0.01343047f, 0.00613344f, -0.05505902f, -0.03734639f, 0.07584664f, -0.06214088f, -0.00479524f, 0.02177933f,
    0.00775508f, 0.01761220f, 0.08269909f, 0.06641096f, -0.05306492f, -0.06760745f, 0.02338454f, -0.01320731f,
    -0.05236685f, -0.01259834f, 0.03314897f, -0.07471220f, -0.06121119f, 0.05106970f, -0.04892613f, -0.05984881f,
    -0.03259447f, -0.04427898f, -0.07167789f, -0.07470930f, -0.04278251f, -0.06102590f, 0.02800577f, 0.06348731f,
    -0.07993495f, 0.05518889f, 0.00084320f, -0.07296169f, 0.07291250f, -0.02618226f, -0.03375991f, 0.08103375f,
    -0.01445980f, 0.03302879f, 0.02340887f, -0.06074532f, 0.00463413f, 0.08165966f, 0.01115692f, 0.06116290f,
    0.00363597f, 0.03523853f, -0.05672795f, 0.01922361f, 0.00730934f, 0.04753377f, -0.00819603f, 0.02388348f,
    0.03661120f, 0.00640212f, 0.07027094f, -0.01052691f, -0.01742242f, 0.05670830f, -0.03876505f, -0.07951094f,
    -0.01130231f, 0.06659191f, -0.05653661f, -0.00265683f, 0.02200934f, 0.06942935f, -0.07401943f, -0.01490965f,
    0.05709117f, -0.03567269f, 0.01129619f, 0.07193252f, 0.06190337f, 0.03638288f, -0.06188435f, 0.07793540f,
    -0.07440972f, -0.01969090f, 0.05317975f, -0.00384161f, -0.03539846f, 0.00824034f, -0.03583077f, 0.03738518f,
    0.05876007f, 0.06329238f, -0.05436197f, -0.02284141f, -0.03006511f, -0.04518609f, 0.03631648f, -0.07708069f,
    -0.00139416f, 0.07861987f, -0.06143701f, 0.04382266f, 0.04655027f, 0.04368641f, -0.07002483f, 0.08116012f,
    0.00999550f, -0.01573764f, -0.03797179f, -0.05263756f, -0.07283671f, 0.03867121f, 0.02720016f, 0.03185261f,
    -0.00871529f, -0.00687520f, -0.03753262f, 0.04477533f, -0.04808499f, 0.01789480f, -0.00803284f, 0.05216687f,
    -0.00845985f, -0.00733519f, 0.08041053f, -0.02107036f, 0.05414453f, -0.05021092f, -0.06627132f, -0.06037907f,
    -0.00665379f, -0.07824427f, -0.07130015f, -0.03991847f, -0.06972882f, 0.07257556f, -0.03407172f, 0.04893126f,
    0.05351211f, 0.03384171f, -0.05869454f, 0.00651695f, -0.06958108f, 0.02212899f, -0.03116969f, 0.01493947f,
    -0.01182918f, 0.05837357f, -0.04830720f, 0.06515507f, 0.03044318f, 0.06010187f, -0.04018259f, 0.07259440f,
    -0.04289031f, -0.01356214f, 0.03206746f, -0.06308919f, -0.05938103f, -0.00154849f, -0.04849334f, 0.04171659f,
    -0.03299490f, -0.02524639f, -0.01087877f, -0.06518154f, -0.01618946f, -0.05468183f, 0.04890716f, -0.08283388f,
    0.01773127f, -0.05714812f, 0.04709173f, 0.04841965f, -0.02472854f, 0.04685710f, -0.05344744f, -0.06690286f,
    -0.07368354f, 0.03106236f, -0.05977963f, -0.08047532f, 0.07575092f, -0.03915436f, 0.00255528f, 0.02468969f,
    -0.02989045f, -0.04749213f, 0.04039624f, -0.07990280f, 0.00303353f, -0.07104772f, 0.03862848f, -0.04702523f,
    0.01807094f, -0.00957748f, 0.08004969f, 0.03604625f, -0.06301144f, -0.03025620f, -0.04724076f, 0.05379469f,
    -0.00979594f, 0.00196836f, -0.01238785f, -0.04389102f, 0.05244986f, 0.00054412f, -0.06821863f, 0.05619973f,
    0.07839863f, 0.04431848f, 0.02145151f, -0.02719517f, 0.00358367f, -0.07243134f, -0.06542425f, 0.02403879f,
    -0.00662967f, 0.04737100f, 0.04300944f, 0.01275209f, -0.06064540f, 0.04328160f, -0.00389449f, -0.02334923f,
    0.00822709f, -0.03432523f, -0.02931049f, 0.06856786f, 0.04158895f, 0.00618705f, -0.08331288f, 0.03842184f,
    -0.01456064f, 0.07497288f, -0.01638169f, -0.02814865f, 0.03472535f, 0.00086209f, 0.05376124f, -0.07838022f,
    0.04713911f, -0.07426170f, -0.07958731f, -0.02171824f, -0.01166133f, -0.01554137f, -0.05436778f, 0.05577507f,
    0.04497055f, -0.07414770f, -0.02300286f, 0.04287189f, 0.02483362f, 0.04326994f, -0.00623111f, 0.03191822f,
    0.01528959f, 0.06039454f, -0.06543675f, -0.03574741f, 0.03001113f, -0.05390345f, -0.05963072f, -0.04565732f,
    0.01162355f, 0.01509716f, 0.00042788f, 0.06597038f, -0.07851718f, -0.02919297f, -0.00551338f, -0.05142280f,
    -0.02922623f, -0.00993159f, 0.08013606f, 0.03414918f, -0.01096363f, 0.05098241f, 0.03857455f, 0.06559335f,
    0.08269943f, 0.06618851f, 0.08086231f, -0.04336580f, 0.06396907f, -0.04565905f, 0.00117341f, -0.06760645f,
    0.07517052f, 0.07614308f, 0.03943211f, -0.02823280f, 0.04788070f, 0.07280373f, -0.00182167f, -0.00511768f,
    -0.03084972f, 0.00376519f, -0.02483851f, 0.05151674f, 0.04654479f, 0.05859479f, -0.00723545f, -0.05707170f,
    0.05764825f, -0.01598905f, -0.05137191f, 0.01567642f, 0.07646506f, 0.04552516f, 0.00193472f, -0.03298663f,
    -0.03862974f, -0.03246877f, 0.01581117f, 0.02749638f, 0.07248359f, 0.01699991f, -0.00473415f, -0.05961680f,
    0.04947200f, -0.06759413f, 0.04132763f, 0.01788196f, -0.06413260f, -0.06271389f, 0.01337489f, 0.04258400f,
    0.04280538f, 0.05212638f, 0.01903931f, -0.06776448f, 0.01681839f, -0.00979254f, -0.04227912f, -0.07231463f,
    0.00913527f, 0.08182864f, -0.04770223f, -0.03077660f, 0.05602070f, 0.03289759f, 0.01816167f, -0.04542547f,
    0.03815194f, 0.05251657f, -0.05116948f, -0.06183785f, 0.03624951f, -0.01218227f, -0.03864212f, -0.00431507f,
    0.06866422f, 0.05395071f, 0.00389289f, -0.08011480f, 0.05945908f, 0.04725341f, -0.04895517f, 0.04955214f,
    -0.05497668f, 0.01999727f, 0.02566872f, -0.02552895f, -0.08237520f, 0.04757768f, -0.07515563f, 0.06681368f,
    0.02402772f, 0.02595035f, 0.00957069f, 0.00775444f, -0.05189868f, 0.06333324f, 0.08210957f, 0.01511112f,
    -0.06261849f, -0.04856654f, -0.02088574f, -0.05652012f, 0.08191492f, -0.04863669f, -0.03030930f, -0.00558435f,
    -0.04603073f, -0.00691654f, 0.07335860f, 0.05274542f, -0.00461016f, 0.05247452f, -0.01725231f, 0.02211943f,
    -0.00304989f, -0.05238115f, -0.03719279f, -0.02232862f, 0.01865235f, 0.02224627f, 0.07037636f, -0.01959160f,
    -0.00213336f, -0.06313938f, 0.01949567f, 0.03165158f, -0.05665410f, -0.04698662f, -0.04278666f, 0.03972251f,
    -0.00148379f, 0.06827047f, 0.04597949f, -0.02193668f, -0.08173685f, -0.04231760f, -0.04168388f, 0.05760363f,
    0.01164485f, -0.06089824f, -0.04449818f, -0.02747345f, 0.03804555f, -0.02640484f, 0.03607062f, -0.01702371f,
    -0.06054813f, 0.07656895f, 0.04705636f, -0.05681910f, 0.05365242f, -0.07487623f, -0.01886525f, 0.08207469f,
    -0.03743681f, 0.04158569f, -0.07068940f, -0.02715558f, 0.05306737f, 0.03323323f, -0.05208642f, 0.08056708f,
    -0.07507120f, -0.04929906f, -0.04552789f, -0.03349215f, 0.06263766f, -0.01628366f, 0.05239207f, 0.07026143f,
    -0.00328375f, 0.04214641f, -0.01042830f, -0.02368489f, 0.01831837f, -0.03816227f, -0.05483588f, -0.08110507f,
    0.02831557f, -0.05064698f, -0.00023947f, 0.07892588f, 0.00128838f, 0.01322043f, -0.03501728f, 0.01326602f,
    0.01215839f, -0.04881431f, -0.03401187f, -0.05991838f, -0.06589826f, -0.02446473f, 0.05204856f, -0.03807604f,
    0.06072404f, -0.04802394f, -0.01479134f, 0.08178981f, 0.02425689f, -0.07388738f, 0.06763759f, -0.00270198f,
    -0.05879469f, -0.04772139f, 0.00882973f, -0.05128538f, -0.07313158f, 0.06817721f, 0.07186642f, 0.05391078f,
    0.00261072f, -0.06298983f, 0.02655081f, 0.08108880f, 0.06794862f, 0.07410346f, 0.04263783f, -0.05923049f,
    0.05726469f, -0.02718269f, 0.02348486f, -0.01696893f, -0.04976767f, 0.03959480f, 0.04053375f, -0.03206857f,
    0.00360550f, -0.05835491f, 0.02195301f, 0.02974953f, 0.06167024f, 0.03738708f, 0.08099972f, -0.02106352f,
    -0.03562370f, 0.02203879f, -0.07016617f, -0.05826172f, -0.00349484f, 0.01791747f, 0.00440506f, 0.03504233f,
    -0.06820383f, -0.02937421f, -0.03718143f, -0.01269062f, -0.05738194f, -0.03092377f, 0.02941151f, -0.01296298f,
