// Auto-generated weights file
// DO NOT EDIT

#ifndef WEIGHTS_H_
#define WEIGHTS_H_

#include <stddef.h>
#include <stdint.h>

// Shape: (5, 5, 6, 16), dtype: float32
static const float stem_conv_weight[2400] = {
    -0.08086997f, -0.07434957f, 0.01313818f, 0.00739964f, -0.00382261f, -0.05751986f, 0.08122370f, 0.07030109f,
    -0.01385270f, -0.01040638f, 0.08077507f, 0.01853763f, -0.00503556f, -0.01770912f, -0.05742534f, -0.02750534f,
    -0.04377611f, 0.03159948f, -0.03773491f, 0.02346721f, -0.04801105f, -0.04668289f, 0.06223746f, 0.05862401f,
    -0.06655759f, -0.04632746f, 0.06758132f, -0.00525762f, -0.04761130f, 0.05861253f, -0.04853646f, -0.04120458f,
    -0.01281628f, 0.07998605f, 0.06526873f, 0.03886554f, -0.03270035f, -0.04754223f, 0.07077774f, 0.03811940f,
    0.07583578f, -0.08060219f, 0.05035299f, -0.03662082f, -0.05383769f, -0.00199628f, 0.01444849f, 0.06596360f,
    0.01903045f, -0.05607794f, 0.07439319f, 0.02340651f, -0.02928716f, 0.03788148f, 0.05339638f, -0.00631050f,
    0.02644884f, -0.06848355f, 0.01274656f, 0.05184497f, 0.02548523f, -0.01751991f, 0.06670403f, -0.01563006f,
    0.04833755f, -0.00420043f, 0.06160562f, -0.07606579f, 0.05831636f, -0.01993361f, 0.01279546f, 0.03963771f,
    0.00381003f, -0.02422251f, 0.06570353f, -0.07990967f, 0.02947623f, -0.00536551f, -0.07583045f, -0.06576148f,
    -0.00051516f, 0.00689738f, 0.07400353f, 0.01816510f, -0.07283897f, 0.06066734f, -0.03631402f, 0.07886152f,
    -0.04571903f, 0.02169168f, 0.07651269f, -0.03991130f, 0.06318863f, -0.07145009f, -0.07987158f, 0.05202712f,
    -0.05715028f, 0.05563813f, -0.01301947f, 0.01732438f, -0.07613363f, -0.00876732f, 0.02200651f, -0.01838360f,
    -0.03768359f, 0.05553608f, -0.03987196f, 0.05050351f, 0.04268348f, 0.07154728f, -0.02213696f, -0.04801411f,
    -0.05641274f, 0.00197650f, 0.07726318f, 0.08047362f, -0.04010984f, 0.03641625f, -0.06870653f, -0.03053233f,
    -0.02052190f, -0.04202053f, -0.04070973f, -0.08158499f, 0.01421803f, 0.07853421f, -0.03980567f, 0.01125740f,
    0.00412306f, 0.07224263f, -0.04861491f, 0.05110436f, 0.01478429f, 0.05978933f, -0.04020723f, 0.01995216f,
    0.04653919f, -0.05771736f, 0.07177771f, -0.05458802f, -0.06734790f, 0.06973832f, -0.05190225f, 0.00536040f,
    -0.03040038f, 0.00200378f, -0.01013396f, 0.02858163f, 0.02462341f, -0.01541578f, 0.04070365f, 0.06131059f,
    0.05010887f, -0.06468723f, 0.01042917f, 0.01351375f, 0.05195662f, -0.00290870f, -0.01683234f, 0.03192117f,
    -0.01001717f, -0.02668721f, 0.00562391f, -0.03999174f, 0.03640694f, -0.08150475f, -0.04401163f, -0.06788123f,
    0.03473422f, 0.00951691f, -0.00597746f, 0.04872908f, 0.06038360f, 0.00771723f, 0.01815138f, 0.00603566f,
    0.02011744f, 0.02997262f, 0.05986002f, -0.04347523f, -0.03595591f, -0.05477937f, 0.05106436f, -0.03248476f,
    0.03672582f, 0.04089677f, 0.07764048f, 0.06921214f, -0.01962383f, 0.03661681f, -0.07610967f, 0.07614904f,
    0.00941391f, -0.06196258f, -0.00733672f, 0.00749164f, -0.07476179f, -0.02219906f, -0.00210695f, -0.02784602f,
    0.05785818f, 0.02036472f, -0.00444571f, 0.03703387f, 0.01509959f, 0.04485146f, 0.04531664f, 0.00320905f,
    0.07058498f, 0.07490314f, -0.03221937f, 0.03725766f, 0.06172691f, 0.02470620f, 0.02747324f, 0.04333170f,
    0.06914575f, 0.06960519f, 0.03455741f, -0.00666355f, -0.06374872f, 0.04243306f, -0.07642885f, -0.00215439f,
    0.00564105f, -0.03214162f, -0.07000966f, 0.05204234f, -0.01495053f, -0.07333362f, 0.00106360f, 0.04798231f,
    0.01723983f, 0.01279797f, 0.03331130f, -0.00906434f, -0.01634474f, 0.04488731f, 0.00426567f, -0.07168135f,
    -0.02010942f, -0.07509266f, -0.05979688f, -0.01763877f, 0.04363641f, 0.00641702f, -0.07413905f, 0.06659183f,
    -0.00861483f, 0.05726860f, 0.06674450f, -0.02739688f, 0.02424273f, 0.08142340f, -0.04577438f, -0.01645938f,
    0.04329088f, 0.03346109f, 0.00814872f, -0.06935667f, -0.05169702f, -0.01893234f, 0.04356133f, 0.07827764f,
    0.04167258f, -0.00724882f, 0.05811460f, 0.07048429f, -0.05260002f, 0.04614049f, -0.00985945f, -0.07213239f,
    0.04430701f, -0.01845981f, 0.08085826f, -0.05035223f, -0.01811352f, 0.03386845f, -0.01253219f, 0.02941950f,
    0.04884974f, -0.05797342f, 0.01248295f, 0.07320423f, -0.00505673f, -0.07375032f, 0.03237838f, -0.06729378f,
    0.04259757f, -0.07077033f, -0.07086085f, 0.06658591f, 0.06004347f, -0.03644321f, -0.01022048f, 0.03154174f,
    0.07485374f, -0.04716780f, 0.04616018f, 0.02096459f, -0.06669294f, 0.03577041f, 0.02028723f, 0.01391923f,
    0.05710020f, -0.03086095f, 0.06640161f, 0.03754960f, 0.02876818f, -0.02841119f, -0.03388936f, 0.00083039f,
    -0.00830505f, -0.04564591f, 0.04136271f, -0.06164730f, 0.05595034f, 0.00401452f, -0.03023157f, -0.01623090f,
    0.00623056f, -0.05980642f, 0.04814302f, 0.01778853f, -0.05205352f, -0.02649042f, 0.01388619f, 0.02494251f,
    -0.03889434f, 0.06642461f, -0.00705331f, -0.00714737f, -0.02115515f, -0.05657624f, -0.06326503f, -0.00901550f,
    -0.04278798f, 0.00283888f, 0.00401767f, -0.03898004f, 0.05812769f, -0.03794377f, -0.07217889f, 0.03123696f,
    -0.07060254f, 0.03300689f, 0.07600801f, -0.06408755f, 0.04663698f, -0.01640853f, 0.01076011f, -0.06434792f,
    -0.02110974f, 0.02769711f, 0.00157304f, -0.04071017f, -0.06300173f, 0.01471870f, 0.01870782f, 0.00578755f,
    0.00553494f, -0.04561118f, -0.03242531f, -0.04874070f, -0.05265133f, 0.02094030f, 0.03505788f, -0.03049853f,
    0.08064898f, 0.01940149f, 0.00494634f, 0.04739119f, 0.02155321f, -0.03553130f, -0.07509641f, -0.01608785f,
    -0.07227246f, -0.06159757f, 0.06093517f, -0.05371951f, 0.04190382f, -0.04588547f, -0.02589523f, -0.07109513f,
    0.05166549f, 0.07400916f, -0.06875128f, -0.00675969f, -0.03410353f, 0.02304165f, -0.00046053f, 0.04047642f,
    0.00279181f, 0.05295782f, 0.04540430f, 0.00263517f, 0.05194750f, 0.03257202f, -0.00021492f, -0.06903820f,
    -0.04083010f, 0.05419263f, 0.06610981f, -0.06374288f, -0.06748287f, -0.07201741f, 0.04743322f, 0.00234100f,
    -0.02083128f, 0.03699981f, -0.06239037f, 0.01296214f, -0.02257016f, 0.00227939f, 0.03767523f, -0.04861386f,
    0.05846694f, 0.07480359f, 0.02183114f, 0.08064476f, 0.07856958f, 0.04245957f, -0.01967119f, 0.00865600f,
    -0.04896211f, -0.00771559f, 0.04835742f, -0.03983321f, 0.00647088f, -0.04256780f, 0.03597424f, 0.06410389f,
    0.05783577f, -0.07468218f, -0.04961855f, 0.06265337f, 0.00143824f, -0.05878857f, -0.02588306f, -0.03044057f,
    0.01650794f, -0.06034486f, 0.05421225f, -0.00817714f, 0.06853447f, 0.03524572f, 0.01360895f, 0.00717946f,
    0.02384855f, -0.05276572f, 0.04522675f, -0.08139832f, -0.03616909f, 0.07412470f, 0.05452014f, 0.03520764f,
    -0.05090365f, -0.06360287f, 0.00890581f, 0.01374787f, 0.00038861f, 0.02846477f, -0.00039364f, -0.02140216f,
    0.04960278f, 0.04508910f, 0.05564443f, 0.04510366f, 0.04254114f, -0.04073339f, -0.05267083f, -0.01275866f,
    0.06580111f, 0.01910921f, 0.00371399f, -0.02243742f, 0.06808294f, -0.00730692f, 0.02527107f, 0.04934372f,
    0.04060497f, 0.01138755f, 0.04173109f, -0.00388434f, -0.06750935f, -0.05674407f, -0.06534889f, -0.00987943f,
    0.00719973f, -0.05331916f, -0.07797266f, 0.05568360f, 0.02664001f, -0.00352023f, -0.07249884f, -0.04866446f,
    -0.04696954f, 0.07538713f, -0.05272600f, 0.00140186f, -0.03742599f, -0.00774537f, 0.03399000f, -0.02176639f,
    -0.00094158f, -0.07105383f, 0.07960719f, -0.05057330f, 0.01339389f, -0.00099851f, -0.05083122f, 0.06267898f,
    0.04790134f, -0.05235925f, -0.01047847f, 0.06326739f, 0.00013206f, -0.00588856f, -0.00370139f, 0.06520381f,
    0.01995328f, 0.00060937f, 0.01867028f, 0.00348133f, 0.05078429f, -0.04264174f, 0.02805390f, -0.04034427f,
    0.03419550f, -0.04056153f, 0.04855946f, 0.00426956f, -0.06362403f, 0.01611674f, 0.05293183f, -0.04969778f,
    0.08137347f, 0.03506522f, -0.06292564f, 0.06254368f, -0.05699513f, 0.02685547f, 0.03916408f, 0.07973644f,
    0.04379040f, 0.02779382f, -0.02235150f, -0.04750668f, 0.00405834f, -0.06345969f, 0.06617746f, 0.06668489f,
    -0.06815495f, -0.06433607f, 0.00173713f, -0.04021652f, 0.05506394f, 0.00257827f, -0.05612643f, -0.01302434f,
    0.07911538f, -0.00375129f, 0.06461085f, 0.07127687f, -0.02367676f, 0.03161678f, 0.04283297f, -0.06537264f,
    0.01816339f, 0.01970723f, 0.05953061f, -0.06894002f, -0.07341000f, 0.07503881f, 0.06300208f, -0.01867461f,
    -0.02978890f, -0.00451327f, -0.04884777f, 0.03391615f, -0.05538433f, 0.00018560f, -0.03271734f, 0.00394865f,
    0.06917068f, -0.05675129f, -0.02704596f, -0.03750187f, 0.00217200f, 0.07422142f, 0.00911097f, 0.00766023f,
    -0.05340355f, -0.03484732f, -0.01996378f, -0.07340806f, -0.02183579f, -0.00735442f, 0.00469826f, -0.03213244f,
    -0.05386678f, 0.06774763f, -0.03384196f, -0.00474394f, -0.03397351f, -0.00864710f, 0.00815193f, -0.04589165f,
    0.03308334f, 0.01531010f, -0.02704351f, 0.06815691f, 0.01399111f, 0.05787980f, -0.05179554f, 0.06541581f,
    0.05559499f, -0.01861399f, 0.06331736f, -0.00298165f, 0.06614365f, -0.02313062f, 0.02140240f, 0.03205602f,
    0.07728893f, 0.02273721f, -0.01269780f, 0.01632463f, -0.04110370f, 0.00184798f, 0.02121134f, -0.03371086f,
    -0.07779225f, -0.02865807f, -0.04322914f, 0.00633954f, 0.00860704f, 0.00302491f, 0.06406017f, -0.01551092f,
    0.06244140f, -0.00625175f, 0.02786181f, -0.04883489f, -0.04095979f, 0.04319330f, -0.06740230f, 0.02676632f,
    0.05960107f, -0.07393848f, 0.01091356f, 0.00835109f, -0.00759011f, 0.03836874f, 0.04514175f, 0.04333773f,
    -0.05459436f, -0.07168415f, 0.01081787f, 0.05526477f, 0.02329886f, -0.07870196f, -0.07438652f, 0.03112100f,
    0.04369416f, 0.02926092f, -0.01050203f, 0.02941233f, -0.05832265f, 0.04123474f, 0.04758924f, -0.00101061f,
    0.01879495f, 0.04093885f, 0.05165543f, -0.02951978f, 0.07632788f, -0.03935863f, 0.01256227f, -0.00038371f,
    -0.04955972f, 0.01117013f, 0.00264053f, 0.02382371f, 0.01924597f, -0.05555035f, 0.06028657f, 0.08034522f,
    -0.00075342f, 0.04610373f, 0.03581874f, 0.03688523f, 0.00737859f, -0.04070116f, -0.06443375f, -0.04952290f,
    0.06099139f, -0.04989803f, 0.02670952f, -0.06513789f, 0.05998212f, -0.02139294f, -0.01324503f, 0.07212605f,
    -0.00480412f, 0.04057279f, -0.01467129f, 0.02698750f, -0.06144718f, 0.03332736f, -0.03082895f, 0.06381086f,
    0.01259562f, -0.04506891f, -0.01798891f, -0.06811839f, 0.02330826f, 0.03995602f, -0.07931907f, 0.07129713f,
    -0.05077555f, 0.02408687f, -0.00890025f, 0.00860070f, -0.06250981f, 0.04012031f, 0.02087330f, -0.05592373f,
    0.07974742f, 0.06388793f, -0.05282449f, 0.03829835f, 0.05245048f, 0.04537507f, 0.06561162f, -0.07821915f,
    0.02658147f, -0.07546656f, 0.02079232f, -0.03203075f, -0.06550174f, 0.07356685f, -0.02019052f, -0.06086233f,
    0.03928215f, -0.05328960f, -0.07312402f, 0.02662551f, 0.04643517f, 0.06685946f, 0.06953926f, 0.05523246f,
    0.06591925f, 0.05844152f, 0.04627577f, 0.02963769f, -0.02674718f, -0.02325937f, 0.01957789f, -0.00352072f,
    0.03851629f, 0.04416558f, 0.05481633f, 0.02992279f, -0.02366317f, 0.01994349f, 0.02807643f, 0.04543078f,
    -0.00262574f, -0.04072412f, 0.05612890f, -0.02134322f, 0.03340346f, -0.06088600f, 0.01594411f, 0.07674009f,
    -0.07479135f, 0.01973181f, -0.05503381f, 0.01059347f, 0.00341393f, 0.03507219f, 0.01925373f, -0.02653243f,
    -0.01915476f, 0.03712863f, 0.06964728f, -0.02905478f, -0.06903332f, -0.02712017f, 0.03446427f, -0.00292072f,
    -0.02897046f, 0.04540404f, -0.02936451f, -0.07617945f, 0.01665697f, -0.00534461f, -0.00544114f, 0.03749610f,
    0.00524551f, -0.02480054f, 0.06560251f, 0.07925630f, -0.01699583f, -0.02985343f, -0.08087409f, 0.05162306f,
    0.05812583f, 0.00551100f, -0.02827612f, 0.02915010f, -0.06996306f, 0.02583963f, -0.04700428f, 0.01891714f,
    0.04380375f, 0.02335433f, -0.02273743f, -0.04409805f, 0.06619813f, 0.06999405f, -0.01991012f, 0.07396801f,
    -0.00232748f, -0.02574147f, -0.06067194f, -0.01218104f, 0.04745018f, -0.05803119f, -0.03379790f, -0.05448918f,
    -0.08012943f, -0.05292847f, 0.03618900f, 0.04264448f, 0.05512413f, 0.05534603f, -0.05248156f, 0.02322943f,
    -0.02682121f, -0.07522989f, -0.03319610f, 0.06348340f, 0.07040454f, -0.07467562f, 0.00022472f, 0.02142921f,
    -0.01851441f, 0.04453886f, -0.07981188f, -0.02639023f, 0.00222953f, -0.05315618f, 0.03321492f, -0.03722668f,
    0.04543767f, -0.02263926f, 0.03594404f, -0.00538803f, -0.00607506f, 0.06586626f, -0.01210674f, -0.04139636f,
    -0.05033079f, -0.06490579f, -0.02037134f, -0.07941709f, 0.00887814f, -0.04783516f, 0.03598392f, 0.06649232f,
    -0.05832767f, -0.04770147f, -0.04748867f, -0.07268582f, -0.06232899f, 0.01471857f, 0.06577308f, -0.02587896f,
    -0.05666825f, -0.00789863f, -0.03563243f, -0.02860056f, -0.03891207f, 0.05693498f, -0.06034677f, 0.06560542f,
    -0.05050133f, -0.01911163f, -0.06165279f, -0.01310821f, 0.01231381f, 0.05017789f, -0.03338657f, 0.06929793f,
    -0.05824026f, -0.01546384f, -0.03698850f, -0.02162291f, 0.00800367f, 0.06600354f, -0.04601124f, 0.03488413f,
    -0.04017339f, 0.03460328f, -0.01515188f, -0.02740017f, 0.06959338f, -0.02019186f, -0.05006078f, -0.01703405f,
    0.06340770f, -0.07883819f, -0.03046315f, 0.05010735f, -0.01587678f, -0.03242723f, -0.00464985f, 0.06520692f,
    -0.05124439f, -0.00486735f, -0.06388588f, -0.07131698f, 0.03667615f, 0.00419070f, 0.01190891f, -0.05649468f,
    -0.06611100f, -0.07689903f, 0.06995711f, -0.02907413f, 0.01330536f, 0.07277492f, -0.01841530f, -0.00524368f,
    0.06811578f, -0.01759037f, 0.07330198f, -0.03114067f, 0.06974044f, 0.03461117f, 0.04369308f, -0.06567241f,
    0.01019607f, 0.07229286f, -0.07596317f, -0.04880806f, -0.03900705f, 0.05356878f, -0.07319617f, 0.07833295f,
    -0.04028803f, 0.02262409f, -0.02695511f, 0.06918754f, 0.04793052f, 0.01384438f, -0.07195182f, 0.05017392f,
    -0.03622972f, -0.04430634f, -0.03456541f, -0.03714156f, -0.01265642f, -0.03819481f, 0.07062376f, -0.00516874f,
    -0.05601330f, 0.04491698f, 0.03464419f, 0.06296957f, -0.04070900f, 0.07105239f, 0.07444231f, -0.04065428f,
    0.02380919f, -0.05895901f, -0.03596833f, 0.02760573f, -0.04884867f, -0.04736669f, -0.06248753f, -0.00070724f,
    -0.05624290f, 0.02616533f, 0.03845270f, -0.04749487f, -0.02430159f, 0.01294503f, 0.04972833f, 0.01453034f,
    0.00696820f, -0.01656303f, 0.00395146f, -0.07063889f, -0.00937324f, -0.04585530f, 0.00216528f, -0.03796433f,
    -0.02604384f, 0.05507992f, -0.03470685f, -0.07357641f, -0.04550269f, 0.04844940f, -0.03214148f, -0.06374370f,
    0.07519194f, -0.08015803f, -0.00930682f, -0.01738972f, -0.04792121f, 0.01210510f, 0.05278035f, -0.03099053f,
    -0.00512428f, -0.01584463f, -0.05312231f, -0.02597134f, 0.04960906f, -0.01053322f, -0.05371506f, -0.05368210f,
    0.03394263f, 0.00236745f, 0.04512272f, -0.01455416f, 0.03517836f, -0.08073047f, -0.03559686f, -0.08153243f,
    -0.00908526f, 0.02077278f, 0.01590820f, 0.00420329f, 0.02707554f, 0.06393408f, 0.04371679f, 0.00459522f,
    0.01090381f, -0.00550630f, 0.04256658f, 0.05476169f, 0.02551164f, -0.00846555f, 0.00869237f, -0.03987110f,
    -0.04812230f, -0.02202490f, -0.02423705f, 0.06030325f, 0.06531039f, -0.06565164f, 0.03096433f, 0.07493273f,
    0.03855288f, -0.01498781f, 0.04924536f, 0.05685169f, 0.05900708f, -0.06350839f, 0.07230340f, 0.04214118f,
    0.07231887f, 0.03857426f, 0.00930684f, -0.01206001f, -0.05531454f, -0.06322138f, -0.04978186f, -0.06366167f,
    -0.00800041f, 0.06133719f, 0.07921918f, -0.07192820f, -0.05151155f, 0.03249391f, 0.05138312f, -0.01508963f,
    0.04671253f, -0.02669701f, -0.07553264f, 0.03437362f, -0.07196587f, -0.05615298f, 0.07780243f, -0.01054912f,
    -0.03476503f, 0.07925096f, -0.01611912f, -0.05141188f, -0.01762502f, 0.02284141f, 0.06146799f, -0.04381246f,
    0.06013706f, 0.03320407f, -0.08034675f, 0.05666790f, -0.04623606f, -0.00513260f, -0.01894877f, 0.00566750f,
    0.01512066f, -0.00615981f, 0.04437007f, 0.06011782f, 0.05280023f, 0.07372176f, -0.05611673f, 0.03323722f,
    0.07665848f, 0.07040633f, 0.01324838f, -0.06519125f, 0.04192351f, -0.01511761f, -0.05710561f, 0.05412375f,
    0.06516775f, -0.01409329f, 0.03696235f, -0.02550560f, -0.02921704f, 0.04041767f, 0.04815991f, 0.00047719f,
    0.04591221f, -0.00959838f, -0.01584363f, -0.02394731f, 0.03993288f, -0.04616387f, 0.00098405f, 0.05406703f,
    0.01497759f, 0.04167224f, 0.05553271f, -0.02864091f, 0.07252611f, 0.07519724f, 0.05749840f, 0.01667031f,
    -0.08148540f, 0.00148908f, 0.02692729f, 0.03631940f, -0.00466694f, -0.00523806f, 0.04640021f, -0.03962629f,
    0.06239620f, 0.01692871f, 0.04579869f, -0.04733967f, -0.01668783f, -0.00266607f, 0.01043230f, 0.01999104f,
    0.01161158f, 0.07955136f, 0.06566827f, 0.07337166f, -0.05680999f, 0.06381577f, -0.07972100f, -0.01368962f,
    -0.02150458f, -0.02910592f, -0.04520624f, 0.07611658f, -0.05802801f, -0.07425148f, -0.04539795f, -0.06264975f,
    -0.06749726f, 0.00774476f, -0.01612811f, 0.02618216f, -0.00180131f, 0.07348268f, -0.06917726f, 0.03831502f,
    -0.03058158f, -0.02801677f, -0.06835050f, -0.03589987f, 0.02309271f, 0.07406692f, 0.01885423f, -0.06006555f,
    -0.04787443f, 0.04329323f, -0.05573905f, 0.03922241f, 0.04156700f, -0.05587925f, -0.05215529f, 0.03013653f,
    -0.05919573f, -0.01054284f, 0.07650314f, -0.03701381f, 0.05605933f, -0.07711232f, 0.01579043f, -0.04675459f,
    -0.05593288f, 0.05369009f, 0.01421526f, 0.03142269f, -0.02648602f, 0.04348523f, 0.05231071f, -0.04473060f,
    0.03894258f, 0.02524534f, 0.07093410f, 0.04187827f, -0.05621596f, -0.04933089f, -0.08135261f, 0.01545446f,
    -0.00703314f, -0.04504664f, -0.01424877f, -0.01453608f, 0.08028270f, -0.05599434f, 0.02117189f, -0.03494044f,
    0.01635623f, -0.04905430f, 0.01543480f, 0.03897936f, 0.04186496f, -0.03867473f, 0.01915950f, -0.06137258f,
    0.02974850f, -0.01345597f, -0.01435426f, -0.06774375f, 0.02609532f, -0.06657530f, 0.04747063f, -0.07175381f,
    0.05129120f, 0.02989113f, 0.00282705f, -0.03885283f, -0.07965571f, -0.06258012f, 0.02495320f, -0.00687137f,
    -0.06543295f, -0.06113143f, -0.04062467f, 0.01560912f, -0.04486438f, -0.05118728f, 0.01120956f, 0.00806469f,
    0.07522348f, -0.07103550f, 0.05373904f, 0.02442687f, 0.01742920f, 0.07038417f, 0.04040835f, 0.02345135f,
    0.02028579f, -0.01455417f, 0.03949614f, 0.00565757f, 0.06674385f, 0.06073630f, 0.00777689f, 0.04061065f,
    0.00524056f, 0.06133349f, 0.03391184f, -0.01356883f, 0.02156079f, 0.02745814f, -0.00841799f, 0.02650712f,
    -0.03194490f, 0.03528174f, 0.02370148f, 0.06014539f, 0.03429439f, 0.06450094f, -0.07371359f, -0.05457026f,
    -0.04128166f, -0.07205509f, 0.05957487f, 0.03366313f, 0.00460194f, -0.03984636f, -0.03982828f, 0.04655803f,
    -0.03314082f, -0.00945365f, -0.04592598f, -0.00373429f, 0.04029811f, -0.03388757f, 0.01256746f, 0.03044589f,
    -0.04408884f, 0.00023240f, -0.03748105f, -0.00911544f, -0.04791471f, 0.04803306f, 0.04993992f, -0.01766022f,
    -0.05295948f, 0.03509072f, 0.07621503f, -0.01159984f, -0.05687299f, 0.00433459f, 0.03436726f, -0.06291095f,
    0.01117803f, 0.02543463f, 0.04628040f, 0.01170089f, -0.07409989f, 0.00867877f, 0.03270548f, -0.05332705f,
    0.07218800f, 0.04056149f, -0.01844529f, -0.03702935f, -0.03685373f, -0.01273745f, 0.03761437f, -0.01506237f,
    0.01186152f, -0.07349941f, 0.06568025f, -0.06627103f, 0.01195565f, 0.02648283f, -0.01923584f, -0.05958470f,
    0.00933563f, 0.00405662f, -0.02951143f, -0.00456071f, -0.05193955f, 0.00523549f, -0.03950985f, -0.02296291f,
    0.04857672f, -0.05799481f, 0.03399823f, 0.03839369f, -0.03119586f, -0.00895695f, 0.04870639f, 0.03723721f,
    -0.04224063f, -0.03668236f, -0.04245903f, -0.08001977f, -0.02942921f, -0.05890651f, -0.07097154f, -0.06084024f,
    0.02925163f, 0.05513616f, -0.01800127f, -0.05849186f, 0.03542922f, 0.04608424f, 0.05273182f, 0.07400313f,
    0.00724730f, 0.07768101f, 0.07799891f, -0.03063072f, -0.00245314f, -0.00774348f, 0.07619213f, -0.06039518f,
    0.06872773f, 0.05515280f, -0.03471921f, 0.04177067f, -0.06776477f, 0.02836636f, 0.01218069f, -0.07463343f,
    -0.03517439f, -0.00302860f, 0.06515843f, 0.01118639f, 0.06677241f, -0.08065987f, -0.02615549f, -0.05543641f,
    -0.03510754f, -0.06688390f, -0.07271855f, -0.07840642f, 0.04648164f, -0.01762492f, 0.05175923f, 0.05656552f,
    -0.06311265f, 0.05892638f, -0.08062706f, 0.04300458f, -0.07220543f, -0.01411838f, -0.05703199f, 0.08113775f,
    0.06295104f, 0.07516564f, 0.02759862f, 0.06788050f, 0.04097132f, -0.01576768f, -0.07656181f, -0.05500875f,
    -0.02283928f, 0.05761221f, 0.01799040f, -0.07012314f, -0.00693843f, 0.04193271f, 0.00393621f, -0.07551326f,
    -0.06316824f, -0.02315662f, 0.03401617f, 0.01196346f, -0.01414301f, 0.03231442f, 0.07784019f, 0.01637237f,
    0.00246833f, -0.05966721f, -0.02189868f, 0.00828648f, 0.04839525f, 0.07181665f, -0.07301903f, 0.05241929f,
    -0.00041963f, 0.07613485f, 0.01070590f, -0.02938899f, 0.07492142f, 0.00522276f, 0.07397400f, -0.07655860f,
    0.00427037f, -0.04414118f, 0.03865127f, -0.05350511f, -0.07062476f, 0.01062244f, 0.03918032f, 0.05036226f,
    -0.01073717f, -0.02059522f, -0.07845308f, 0.05986593f, 0.04678110f, -0.04949020f, -0.05458352f, -0.06102437f,
    0.04693333f, -0.00262875f, -0.05058073f, 0.01298917f, 0.07631435f, 0.05822686f, -0.07925016f, 0.06621232f,
    0.07541914f, 0.00872796f, 0.04275785f, 0.03830179f, -0.02740234f, 0.06614429f, 0.04939077f, 0.06639442f,
    0.02506007f, 0.02502817f, -0.01392165f, -0.02116956f, -0.00205049f, 0.02561367f, 0.04176471f, 0.06034977f,
    0.04212104f, -0.05611887f, -0.05617053f, -0.04244369f, 0.00146302f, -0.05674919f, -0.05893878f, -0.05887053f,
    0.02868125f, 0.01398970f, -0.07992643f, 0.01642196f, 0.08004630f, -0.04101764f, -0.01730921f, 0.00106740f,
    -0.01069925f, 0.02507558f, 0.07284560f, -0.03431043f, 0.01097680f, -0.05873187f, 0.03327790f, 0.00353207f,
    0.05572291f, 0.03189635f, -0.01964142f, 0.04085131f, -0.07465112f, 0.07278901f, 0.07555588f, 0.06828080f,
    0.02582754f, -0.05676283f, 0.01264101f, -0.04971575f, -0.00395828f, -0.07887048f, -0.04078892f, -0.06401119f,
    -0.04970355f, -0.00984356f, 0.00719149f, 0.04683034f, 0.07575997f, -0.05447330f, -0.03295876f, 0.04020249f,
    -0.02693830f, 0.07533444f, -0.02078257f, -0.07845890f, -0.03997367f, 0.05625489f, 0.00602172f, -0.01318939f,
    -0.04380876f, 0.00373238f, 0.04062337f, -0.03670457f, -0.02366648f, -0.03388277f, -0.04760721f, 0.03287375f,
    -0.05824769f, 0.03739909f, -0.01462555f, 0.06146289f, -0.01977832f, -0.02961213f, 0.05651647f, 0.06724332f,
    -0.05100187f, -0.05371349f, 0.03381622f, -0.01155955f, 0.07247498f, 0.07943982f, -0.02434359f, -0.04475499f,
    0.02502210f, 0.04307493f, -0.01238840f, 0.03556556f, -0.02058027f, -0.02436628f, 0.00107580f, -0.00493609f,
    0.00512942f, -0.06473232f, -0.02826658f, -0.00788637f, 0.07799859f, 0.03014956f, 0.03880866f, -0.07329611f,
    0.07635950f, -0.03777495f, -0.05088249f, -0.07270857f, -0.01608839f, 0.04895213f, -0.07770765f, 0.02832937f,
    -0.00076176f, -0.04966786f, -0.01353582f, 0.07794630f, -0.04036717f, 0.05747027f, 0.05371468f, -0.05400401f,
    -0.00877490f, 0.03751424f, 0.04224449f, 0.02330209f, -0.04834321f, -0.08129005f, -0.06410211f, -0.05779239f,
    0.07141873f, 0.05149029f, 0.00224190f, 0.04271064f, 0.03469376f, 0.04539421f, -0.06416349f, 0.00244353f,
    0.06193750f, 0.06795903f, 0.05418902f, 0.00292077f, -0.07738236f, 0.07733706f, 0.00500089f, 0.05801989f,
    -0.04768795f, 0.05032262f, -0.05339778f, 0.00821183f, -0.08106155f, -0.02175896f, -0.04714104f, -0.02066359f,
    0.05344016f, 0.07466539f, 0.05773127f, -0.01339422f, -0.01990520f, -0.08008065f, -0.02930226f, -0.01583055f,
    0.03557615f, 0.00712054f, 0.00267427f, -0.00073139f, 0.03554768f, 0.02721690f, 0.07300968f, -0.01171644f,
    0.02380290f, 0.08002721f, -0.07407664f, 0.02994836f, 0.06878813f, 0.07605123f, 0.01172463f, -0.00450849f,
    -0.02901084f, 0.01503910f, 0.01970724f, -0.05663803f, 0.06446967f, -0.02235744f, 0.07644483f, -0.04799591f,
    0.00785844f, -0.05489054f, 0.04203844f, 0.03327329f, 0.04475368f, -0.07702100f, 0.00093733f, 0.07958824f,
    0.03018080f, -0.00100272f, -0.03130573f, -0.01991265f, 0.01063089f, -0.05267422f, 0.02674025f, -0.08048685f,
    -0.06002549f, -0.01705100f, -0.06198090f, 0.07901528f, 0.01405234f, 0.05242502f, 0.07040408f, -0.05563941f,
    0.07627910f, -0.07712656f, 0.02241453f, 0.05511786f, 0.00598056f, -0.05570232f, -0.03499452f, 0.00109058f,
    -0.05531102f, 0.02087584f, 0.05967323f, 0.03688796f, 0.07819881f, -0.04404905f, 0.07304619f, -0.01975500f,
    -0.02790790f, -0.00010930f, 0.04880611f, -0.03633510f, 0.04843423f, 0.01924003f, 0.05307684f, 0.06832290f,
    0.07483711f, -0.03920236f, 0.03856082f, -0.02194190f, -0.07283653f, 0.02367567f, 0.00351783f, 0.07977198f,
    0.05303410f, 0.02965840f, -0.00310466f, -0.00377499f, -0.05112333f, -0.07663858f, -0.01577680f, -0.02941395f,
    0.04047161f, 0.01947117f, 0.00643564f, 0.00025536f, 0.04574918f, 0.01283756f, -0.00538808f, 0.01254377f,
    -0.01531583f, 0.03840832f, 0.06267494f, 0.07022264f, 0.03686672f, -0.02941334f, 0.05486742f, 0.07628635f,
    0.01740151f, -0.06672670f, -0.07881404f, -0.02761570f, 0.05837089f, 0.02531652f, 0.05525293f, -0.00866015f,
    -0.04682438f, -0.01000309f, 0.03673287f, 0.02774469f, 0.02074482f, -0.02443508f, -0.04021167f, 0.06976264f,
    -0.04611877f, -0.05110896f, -0.05447942f, -0.00301606f, -0.05663469f, 0.04590740f, 0.07203511f, -0.01656224f,
    -0.06111442f, -0.01489924f, -0.02729110f, 0.00896068f, 0.01322765f, -0.06020357f, 0.06184195f, -0.01021939f,
    0.02711667f, 0.06910304f, -0.06138648f, -0.07663288f, -0.06888080f, 0.08120558f, 0.02821021f, -0.03927620f,
    0.07823147f, -0.04127862f, 0.00072355f, -0.00887936f, 0.05379472f, -0.06072658f, -0.00805557f, 0.06295437f,
    0.00332096f, 0.05766386f, -0.00628217f, 0.05253784f, -0.03521550f, 0.06246930f, 0.01544624f, -0.05512262f,
    0.01645245f, 0.07029664f, -0.02699931f, -0.03433980f, -0.01953353f, -0.02712734f, -0.03749745f, -0.01311900f,
    -0.08111029f, 0.03913943f, -0.02109608f, 0.00599178f, 0.06355047f, -0.03443852f, 0.07403117f, 0.02723353f,
    0.04249432f, 0.02744705f, 0.06597810f, -0.05701235f, -0.06160077f, -0.07377148f, 0.04950871f, 0.02489826f,
    0.04691565f, 0.01212239f, 0.01041897f, 0.00648473f, -0.03581666f, 0.07662175f, -0.06254493f, -0.04829860f,
    -0.06970529f, -0.00656073f, 0.07490408f, 0.03773610f, 0.01599367f, 0.04972873f, -0.07643994f, 0.03879724f,
    -0.07331569f, -0.06144935f, 0.05104729f, 0.04591250f, -0.01455476f, 0.01751894f, 0.05227890f, -0.05997042f,
    0.04390653f, -0.00508566f, -0.00644515f, -0.07486635f, -0.01096616f, 0.01616053f, 0.04334916f, -0.07417630f,
    0.04658201f, -0.00480166f, 0.05701219f, -0.04213475f, 0.03705811f, 0.07619668f, 0.05880082f, -0.06198464f,
    0.06984873f, 0.03126160f, -0.07106005f, -0.02049937f, -0.01480042f, -0.07751986f, -0.03875983f, -0.05425132f,
    -0.03259334f, -0.00863537f, -0.05212235f, 0.00572781f, -0.02148526f, 0.01987564f, 0.02230072f, 0.01910490f,
    0.03176000f, 0.05748205f, -0.04681903f, 0.00026659f, 0.02251785f, 0.06223561f, -0.01799212f, 0.04739556f,
    0.04586842f, -0.04510475f, -0.05613244f, 0.05855050f, -0.05776351f, 0.04024426f, -0.07216755f, -0.02077964f,
    -0.05518569f, 0.02511105f, 0.05272715f, 0.01930137f, -0.04119507f, 0.07083465f, 0.01442025f, -0.03151170f,
    -0.03290667f, -0.01595884f, 0.00370417f, -0.03555263f, 0.07709994f, -0.01625932f, -0.00343761f, -0.05675208f,
    0.01984285f, 0.07972748f, 0.06630404f, -0.02537218f, 0.01700662f, -0.04712807f, -0.06451931f, 0.04012270f,
    -0.00535106f, 0.07567038f, -0.06978154f, -0.01752410f, 0.03716575f, 0.02963137f, -0.06064030f, 0.03695564f,
    -0.07981471f, -0.00030382f, 0.03201840f, 0.00422117f, -0.03412679f, -0.02128717f, -0.00283898f, 0.05721079f,
    -0.00278450f, -0.07844359f, 0.08016043f, 0.07617215f, -0.00439691f, -0.02978358f, -0.01739218f, -0.00979280f,
    -0.07803827f, 0.02890892f, 0.01288310f, 0.06564490f, 0.05345786f, -0.00649837f, 0.01611497f, -0.05478222f,
    -0.04258107f, -0.05596928f, 0.05559613f, 0.00610356f, -0.00972985f, -0.05932319f, 0.04717935f, -0.02899631f,
    0.05199046f, 0.00865524f, 0.01231866f, 0.00739094f, 0.05935694f, -0.07681916f, -0.00773636f, -0.03998871f,
    -0.06569157f, 0.02743576f, 0.04810668f, 0.08120507f, 0.07960543f, -0.02126319f, 0.03287215f, -0.07349661f,
    -0.03480887f, 0.02689619f, 0.06579118f, -0.03172323f, 0.02482243f, 0.03071315f, -0.01372342f, 0.04304627f,
    0.00425297f, 0.04976911f, -0.07306680f, -0.01269456f, 0.02696454f, -0.03348144f, 0.05822950f, -0.06263924f,
    0.04336322f, 0.04436517f, 0.05233411f, -0.00184793f, 0.06563558f, 0.04301170f, 0.03848473f, -0.03948499f,
    0.04847169f, -0.06274138f, -0.05461442f, 0.04021651f, 0.07042568f, -0.00520601f, 0.01969553f, -0.01930993f,
    0.07578115f, -0.05360445f, 0.07657490f, 0.04211788f, -0.03315323f, 0.02203296f, -0.06886096f, -0.06491691f,
    0.03454725f, 0.06479222f, 0.07288460f, -0.02719857f, 0.05957034f, -0.02648119f, -0.03480960f, -0.01147022f,
    -0.05179983f, -0.01998226f, 0.00171167f, -0.06330696f, -0.00957961f, 0.00678862f, 0.05957757f, -0.05948345f,
    0.00612660f, -0.06415519f, -0.07643560f, -0.02621643f, 0.08085850f, -0.04572036f, -0.04726684f, 0.05614471f,
    0.04314044f, 0.03775166f, 0.05895886f, -0.00742495f, -0.05053586f, -0.03994657f, -0.07267559f, 0.03218721f,
    -0.06669097f, 0.07879154f, 0.02174506f, 0.03136639f, -0.05257063f, -0.07797568f, 0.04428750f, -0.06860414f,
    -0.04734517f, 0.04274364f, -0.01225562f, 0.07348029f, -0.04972952f, 0.00316599f, -0.03792445f, 0.06761963f,
    -0.04394326f, 0.05335063f, 0.05771573f, 0.03839049f, -0.03586131f, -0.05729897f, 0.02267092f, -0.05816339f,
    -0.01430110f, -0.03159898f, -0.02113066f, -0.02939350f, 0.06004415f, 0.06620000f, 0.08150264f, -0.04205993f,
    -0.00415562f, 0.00278144f, -0.07115935f, -0.07482620f, -0.03861516f, -0.07833846f, -0.03502022f, -0.07057654f,
    -0.07877623f, -0.05201621f, -0.01500646f, -0.02962403f, 0.05054798f, 0.01987097f, 0.03170887f, -0.04610471f,
    0.05890315f, -0.03127966f, 0.00272012f, -0.01449123f, -0.02212123f, -0.04600156f, 0.04163333f, 0.02409878f,
    0.05403901f, -0.01387154f, 0.05205930f, -0.03437088f, -0.01550305f, 0.04744434f, -0.06690717f, 0.05109583f,
    -0.06762076f, 0.02676552f, -0.04683812f, 0.07811461f, 0.00516221f, -0.02900688f, -0.03681167f, -0.03998799f,
    -0.03122183f, 0.07369926f, -0.00652798f, -0.04328816f, 0.07625213f, -0.07580014f, -0.01947721f, -0.06105815f,
    -0.01901757f, -0.01551172f, 0.04055800f, 0.07256961f, 0.03744567f, -0.02968695f, -0.00831493f, 0.00361989f,
    -0.01842310f, 0.02306460f, 0.07377912f, 0.01757055f, 0.04392947f, 0.07658865f, -0.00552546f, -0.01395032f,
    -0.02767655f, -0.00942532f, -0.06709970f, 0.00634652f, -0.00511064f, -0.06082351f, -0.03549018f, 0.02626924f,
    0.00343527f, 0.05517180f, -0.03267219f, -0.03298869f, -0.07085354f, -0.02996898f, 0.02264121f, -0.06293128f,
    0.07296175f, -0.00481299f, 0.06938720f, -0.01001377f, -0.03061915f, -0.03038578f, -0.07386059f, 0.07210069f,
    0.01727450f, -0.00077438f, 0.06496619f, 0.01068386f, 0.03082088f, -0.06347156f, -0.05637293f, -0.04087205f,
    -0.00609155f, -0.05735317f, 0.06730102f, -0.02162341f, 0.07062452f, -0.00200426f, 0.05722059f, -0.06143055f,
    -0.07660776f, 0.07832684f, -0.05703966f, -0.03016622f, -0.07068402f, 0.06461535f, 0.05277881f, 0.06261366f,
    -0.04518442f, 0.08079256f, -0.04866785f, 0.05183468f, 0.00678796f, -0.00794259f, 0.04101255f, -0.04727108f,
    -0.07931612f, -0.07345478f, -0.05215291f, 0.01681743f, -0.01799758f, -0.01694457f, 0.04741789f, -0.02209591f,
    0.01551982f, -0.06319820f, -0.00568072f, -0.04383159f, 0.00918251f, 0.04892444f, 0.00475563f, 0.00600857f,
    0.05454379f, 0.01155951f, -0.05065284f, 0.01416704f, -0.03944552f, -0.00221770f, -0.00312194f, 0.04704827f,
    0.01254092f, 0.06933375f, 0.00021958f, -0.03691497f, 0.06675573f, -0.02894758f, 0.06582589f, -0.06408533f,
    -0.05620527f, 0.01755060f, 0.01873817f, 0.04114060f, -0.01956919f, -0.01728718f, 0.01118131f, -0.08093254f,
    0.04724364f, 0.02805860f, -0.04189222f, 0.04529852f, -0.01496318f, -0.04010220f, 0.00767268f, 0.03741078f,
    -0.02960575f, 0.01675731f, -0.01276435f, -0.03555920f, 0.04917057f, -0.04250705f, 0.05480755f, 0.00677169f,
    -0.00131916f, -0.05190965f, -0.00095830f, 0.06632186f, -0.06934905f, -0.07291996f, 0.06823257f, -0.04172745f,
    -0.07665562f, 0.01702459f, -0.06530941f, -0.07427143f, -0.05148512f, -0.02722480f, -0.00103681f, -0.03529124f,
    0.04030381f, 0.07710907f, 0.07106896f, -0.01118467f, 0.03304132f, -0.04304476f, 0.07776159f, 0.02968596f,
    0.04255348f, -0.03878955f, -0.06602322f, -0.00382429f, -0.03962139f, -0.06960029f, -0.06618148f, -0.03567381f,
    -0.00316552f, 0.07345156f, -0.08090089f, -0.01853967f, 0.08059081f, -0.01085919f, 0.00493520f, -0.01521351f,
    0.01663901f, -0.01668084f, 0.05205639f, -0.07863300f, -0.02599915f, 0.02177135f, -0.06920857f, -0.04650520f,
    0.06020691f, -0.03239109f, 0.02197864f, 0.08071138f, -0.02333283f, 0.00484904f, 0.08152130f, -0.06839489f,
    -0.07741618f, 0.01865445f, -0.04390816f, -0.07382908f, -0.04675868f, -0.06929388f, -0.04446218f, -0.06538809f,
    0.01070245f, 0.03655002f, -0.05053291f, -0.07225689f, 0.04206859f, 0.04590369f, 0.01371447f, 0.03249580f,
    -0.07625997f, 0.07266488f, 0.03784454f, -0.07379267f, -0.07988892f, 0.02079288f, 0.04639377f, -0.03250886f,
    -0.01574969f, -0.04585361f, -0.02014837f, 0.03164313f, 0.02120232f, 0.04166701f, -0.01005362f, -0.01080884f,
    0.06176479f, -0.02547346f, 0.00386074f, 0.04510571f, 0.04788439f, -0.04217648f, -0.00543651f, -0.04216619f,
    -0.00537816f, 0.06194776f, -0.04186718f, 0.03834050f, -0.07301488f, -0.03226287f, -0.04813099f, -0.05133771f,
    0.00261268f, -0.01980228f, 0.04482567f, -0.01086768f, -0.03564360f, 0.03588668f, -0.03361562f, 0.00311015f,
    0.07190894f, 0.02012419f, -0.01244435f, -0.07594691f, -0.05117441f, -0.02591727f, 0.07309626f, 0.01232872f,
    -0.04279568f, -0.04890691f, 0.06420974f, 0.06468607f, 0.01022945f, -0.03081223f, 0.07196917f, 0.07020156f,
};

// Shape: (16,), dtype: float32
static const float stem_bn_gamma[16] = {
    1.00000000f, 1.00000000f, 1.00000000f, 1.00000000f, 1.00000000f, 1.00000000f, 1.00000000f, 1.00000000f,
    1.00000000f, 1.00000000f, 1.00000000f, 1.00000000f, 1.00000000f, 1.00000000f, 1.00000000f, 1.00000000f,
};

// Shape: (16,), dtype: float32
static const float stem_bn_beta[16] = {
    0.00000000f, 0.00000000f, 0.00000000f, 0.00000000f, 0.00000000f, 0.00000000f, 0.00000000f, 0.00000000f,
    0.00000000f, 0.00000000f, 0.00000000f, 0.00000000f, 0.00000000f, 0.00000000f, 0.00000000f, 0.00000000f,
};

// Shape: (16,), dtype: float32
static const float stem_bn_mean[16] = {
    0.00000000f, 0.00000000f, 0.00000000f, 0.00000000f, 0.00000000f, 0.00000000f, 0.00000000f, 0.00000000f,
    0.00000000f, 0.00000000f, 0.00000000f, 0.00000000f, 0.00000000f, 0.00000000f, 0.00000000f, 0.00000000f,
};

// Shape: (16,), dtype: float32
static const float stem_bn_var[16] = {
    1.00000000f, 1.00000000f, 1.00000000f, 1.00000000f, 1.00000000f, 1.00000000f, 1.00000000f, 1.00000000f,
    1.00000000f, 1.00000000f, 1.00000000f, 1.00000000f, 1.00000000f, 1.00000000f, 1.00000000f, 1.00000000f,
};

// Shape: (3, 3, 16, 16), dtype: float32
static const float stage0_block0_conv1_weight[2304] = {
    0.04484475f, -0.00653412f, 0.05177857f, -0.03670916f, -0.06253766f, -0.04491004f, 0.04187538f, -0.02026400f,
    0.00046589f, 0.04020488f, -0.05534356f, 0.02022642f, 0.03570327f, -0.08302857f, -0.00161641f, -0.04276939f,
    -0.02905315f, 0.02772382f, 0.04035021f, -0.06803834f, -0.01495231f, -0.05491035f, 0.04314079f, -0.06032613f,
    0.07228850f, -0.04996222f, -0.02810266f, -0.01121564f, 0.04867953f, 0.02466266f, -0.05134985f, 0.04255342f,
    -0.03303466f, -0.06403794f, -0.00951104f, 0.00363995f, 0.03887063f, -0.03029751f, -0.00759384f, 0.06562300f,
    0.07755004f, 0.08023742f, 0.00929181f, 0.04458200f, 0.00679970f, -0.02733317f, 0.07816054f, -0.00348134f,
    0.05217082f, 0.03139604f, -0.01911148f, -0.03792851f, 0.07500895f, -0.01028750f, -0.07390764f, -0.03420144f,
    0.01575116f, 0.01522352f, -0.02015859f, -0.01650411f, -0.03943705f, -0.07101234f, 0.02659276f, -0.00605407f,
    0.00067468f, 0.05095630f, 0.02027504f, 0.06461870f, -0.06587072f, 0.07013988f, 0.07014138f, -0.01838049f,
    -0.07258149f, 0.01036147f, 0.05971432f, 0.04222121f, 0.04859969f, 0.03072179f, 0.02461834f, 0.03373739f,
    0.06324509f, -0.04964357f, 0.03963725f, -0.05567060f, -0.06768321f, -0.03346075f, -0.01889920f, 0.01016346f,
    -0.05466881f, 0.01646484f, -0.01097463f, 0.00033326f, 0.07450911f, 0.06350049f, 0.07758231f, 0.06382185f,
    -0.06233481f, -0.01857814f, -0.05485824f, -0.03403144f, 0.07442193f, -0.01597760f, 0.00493574f, -0.05182174f,
    0.02253165f, 0.05312971f, -0.02861621f, 0.01844887f, -0.06410564f, -0.07610988f, -0.05058993f, 0.00628625f,
    0.06065565f, 0.08129974f, 0.02984974f, -0.03323398f, -0.04204611f, 0.03686268f, 0.07067620f, -0.04232414f,
    0.08129008f, -0.06198292f, 0.06646268f, -0.07212180f, -0.00488277f, -0.06720116f, 0.06763473f, -0.04921896f,
    0.06926634f, 0.05940299f, 0.02067937f, 0.03167537f, -0.07580665f, 0.05390213f, -0.08179803f, 0.02848293f,
    0.06222636f, 0.05502893f, -0.07842820f, -0.01241642f, 0.06077954f, 0.04977382f, -0.01228906f, -0.05954907f,
    -0.03217138f, -0.00506624f, -0.04451011f, 0.04140410f, -0.02051960f, -0.00752461f, 0.05567643f, 0.06304465f,
    0.01122516f, -0.05722580f, -0.06446052f, 0.03423674f, -0.06763704f, -0.02632785f, 0.07713788f, 0.02844709f,
    0.05064021f, -0.07229298f, -0.06784331f, -0.00255061f, -0.04348961f, -0.07867210f, 0.07949771f, 0.00043630f,
    -0.02353637f, -0.07539128f, 0.03208648f, -0.00890655f, 0.01103646f, -0.03527385f, -0.06136144f, -0.04781967f,
    -0.08150811f, 0.06064483f, -0.06503943f, 0.07877606f, 0.04671945f, 0.02079196f, -0.01641591f, -0.02420049f,
    0.04867723f, -0.07720652f, 0.03182346f, 0.00481892f, -0.03164952f, 0.05362962f, 0.02971021f, -0.06885473f,
    0.06550144f, -0.04077938f, -0.06837274f, -0.08125138f, 0.03179753f, -0.05165481f, 0.00367246f, -0.00723023f,
    0.06064903f, -0.00305461f, -0.05015743f, -0.04932612f, 0.00853770f, -0.01114519f, -0.04439362f, -0.05462962f,
    -0.00686728f, -0.00507936f, -0.06333758f, 0.05964754f, -0.02628778f, -0.01808395f, -0.01182078f, 0.06368440f,
    0.02441072f, -0.00406765f, -0.06729301f, -0.01309028f, 0.02450107f, 0.04032493f, 0.05922970f, 0.05658828f,
    0.05171090f, 0.08143063f, -0.08267765f, -0.05347988f, 0.07468495f, -0.03536859f, -0.05281113f, 0.01459613f,
    -0.03837050f, 0.08113964f, 0.02191834f, 0.01713419f, 0.03135572f, -0.07950868f, -0.00246976f, -0.02944684f,
    -0.07420407f, 0.00704293f, -0.00860665f, 0.03668511f, -0.06255486f, 0.07166650f, -0.01011100f, -0.06632721f,
    0.02894548f, 0.07574937f, -0.05011445f, 0.04181238f, -0.03988009f, -0.07843800f, 0.04079161f, -0.06300905f,
    -0.04805049f, -0.05169601f, -0.01293390f, -0.04305147f, -0.03859411f, -0.05190124f, 0.07325725f, 0.05981696f,
    0.01215355f, -0.02715875f, -0.03793374f, -0.03202712f, 0.07183629f, 0.05006167f, -0.04962942f, -0.03377458f,
    -0.03295110f, 0.04140426f, 0.00141289f, -0.00525655f, -0.01674345f, 0.06544675f, -0.06482746f, 0.02135242f,
    0.02399933f, -0.07835765f, 0.02400479f, -0.00527206f, -0.05519112f, 0.07535611f, -0.02674178f, 0.02969121f,
    0.03905542f, 0.04735914f, -0.00885421f, -0.00457274f, 0.04699132f, -0.02431185f, 0.02697763f, -0.03454112f,
    -0.00283541f, 0.08072916f, 0.06866436f, 0.03420573f, -0.06368077f, 0.02700678f, -0.01120594f, 0.02963381f,
    0.00347846f, -0.07241556f, -0.04252264f, 0.02352352f, 0.02259647f, 0.02465187f, 0.00763772f, -0.07219473f,
    0.03105094f, 0.06773328f, -0.05527642f, 0.02252103f, -0.07304864f, 0.06705619f, 0.03178908f, 0.04116974f,
    0.02138665f, 0.07832047f, 0.00815671f, 0.04661195f, -0.01039416f, -0.01412484f, 0.07309558f, -0.03547003f,
    0.03889384f, -0.02930536f, 0.02210313f, 0.06841408f, -0.02714295f, -0.02355672f, -0.07531055f, 0.08328106f,
    -0.05962881f, 0.04751427f, 0.05294523f, -0.06782343f, -0.00120165f, -0.00479098f, -0.01999144f, 0.04532620f,
    0.07093634f, 0.05384248f, 0.05579895f, -0.01688445f, -0.06436688f, -0.01644679f, -0.00524390f, 0.07082662f,
    0.00182914f, -0.06173916f, -0.06280699f, -0.07121423f, -0.02876459f, 0.03172324f, -0.03934240f, -0.04138806f,
    -0.00128234f, -0.01183514f, 0.02748718f, 0.00612824f, -0.00244951f, 0.03382146f, -0.07919636f, -0.05942736f,
    0.03378434f, -0.07997971f, 0.01145218f, 0.03868747f, -0.08321545f, 0.08321711f, 0.02393998f, -0.02457852f,
    0.01708456f, -0.05446925f, 0.04653638f, 0.07432797f, -0.00343191f, 0.06113773f, 0.04294928f, 0.06156687f,
    0.02691816f, 0.02051903f, 0.07083228f, 0.00354291f, 0.02465763f, -0.06510695f, 0.02377251f, 0.04595544f,
    -0.03868440f, 0.04005721f, -0.08150184f, 0.07157712f, -0.07231483f, -0.07785197f, 0.05405941f, -0.02965808f,
    -0.03781400f, 0.02195969f, -0.06514892f, -0.03657774f, -0.01504029f, -0.00445329f, 0.07831669f, -0.02097014f,
    -0.07917103f, 0.06287267f, -0.07432429f, -0.02048403f, -0.07866514f, -0.03699880f, 0.07956746f, 0.01487239f,
    -0.01909467f, 0.01189162f, -0.00277231f, -0.01541290f, -0.00055723f, -0.05731438f, 0.06997397f, 0.02040425f,
    -0.01989473f, 0.02569625f, 0.02117310f, 0.07636365f, 0.01888020f, 0.00557009f, 0.06223425f, 0.02929688f,
    0.07134143f, 0.03404689f, 0.02182422f, 0.02505736f, 0.07088037f, -0.08308079f, 0.05569267f, 0.05125477f,
    -0.02037219f, 0.00332888f, 0.06640254f, 0.07546525f, 0.05404679f, -0.03187845f, -0.04605039f, 0.04598910f,
    0.01483732f, -0.05054345f, -0.04555161f, -0.08234215f, 0.08119930f, 0.00554260f, 0.00297394f, -0.03878027f,
    -0.02577841f, 0.02813506f, 0.00728529f, 0.01478317f, -0.07517612f, -0.07140702f, 0.05754085f, -0.06938028f,
    -0.03154224f, -0.00324539f, -0.00670268f, 0.05327402f, -0.08288642f, -0.02410558f, -0.01933174f, -0.03724959f,
    -0.00438798f, 0.06592456f, -0.06473161f, 0.05754268f, 0.06535479f, -0.06421225f, -0.06294455f, -0.00347073f,
    -0.06766073f, -0.06608712f, -0.00326630f, -0.03998194f, -0.03347243f, 0.01561757f, 0.05769953f, 0.00919558f,
    0.03043865f, 0.02553291f, 0.00665854f, 0.04562958f, 0.05292091f, 0.04287802f, 0.03415629f, -0.00929843f,
    -0.08173989f, -0.08239558f, -0.01064623f, 0.03870061f, 0.01203224f, 0.03400462f, -0.01348536f, 0.03698120f,
    -0.01193842f, 0.01599542f, -0.01403256f, -0.03896857f, -0.08190890f, -0.04126665f, 0.07932620f, -0.08057481f,
    -0.06626603f, -0.00996131f, 0.03105752f, -0.04515837f, -0.00577708f, 0.05247977f, 0.04164590f, -0.01598048f,
    0.00697371f, -0.06142803f, 0.03909605f, -0.05369000f, 0.05754384f, 0.05720355f, -0.06651147f, 0.00956855f,
    -0.07962626f, -0.02471712f, -0.02485557f, 0.03833790f, 0.05486774f, 0.03417885f, -0.05855644f, -0.06271490f,
    0.00272792f, 0.07911704f, 0.05939873f, 0.06254598f, 0.02611304f, 0.00334038f, 0.02982901f, 0.04857307f,
    0.02169382f, -0.00441313f, -0.06765216f, -0.04634740f, 0.07852635f, 0.02162772f, -0.02496420f, -0.01986503f,
    -0.05718973f, 0.07681640f, 0.04236284f, -0.03701869f, 0.04949073f, 0.06264549f, 0.04286849f, -0.06031316f,
    0.00002750f, -0.05543981f, 0.05534020f, -0.06823372f, 0.03530788f, -0.03326738f, 0.06074196f, 0.02415445f,
    0.05256501f, -0.02794229f, -0.06318110f, -0.05681962f, 0.03618183f, 0.02655504f, 0.05556458f, -0.06251471f,
    -0.03931247f, 0.00006384f, 0.04569616f, 0.00507409f, 0.00730890f, 0.07868236f, 0.05973707f, -0.02226361f,
    0.05020240f, -0.03312641f, 0.02729855f, 0.00139233f, -0.01329866f, -0.01374453f, -0.06420705f, -0.07896316f,
    0.04236674f, -0.06576412f, 0.08206832f, 0.04840318f, 0.07707024f, 0.07424678f, 0.03198529f, -0.01035351f,
    0.05255911f, -0.04100788f, -0.01085800f, -0.04697553f, -0.04610270f, -0.00512224f, -0.05275490f, -0.04284793f,
    0.00502827f, 0.01264688f, 0.01673102f, 0.00711546f, 0.06206757f, 0.03688695f, -0.00260218f, -0.03773174f,
    0.06420079f, -0.03441436f, -0.06575374f, 0.06459122f, -0.01847294f, 0.02238212f, 0.06101395f, -0.03394141f,
    0.03863006f, 0.05155448f, 0.08327411f, 0.07327108f, 0.01867617f, 0.04138013f, 0.03711764f, 0.03567635f,
    -0.06451029f, -0.07703807f, -0.06366160f, 0.06588512f, 0.01236798f, 0.06729674f, -0.08125823f, -0.04819344f,
    -0.02341980f, -0.00155216f, 0.03880646f, -0.05154085f, -0.02911900f, 0.07946424f, 0.08099099f, 0.03518341f,
    0.01518920f, -0.01003380f, -0.02504496f, 0.04403432f, -0.06464564f, 0.07996592f, 0.00666161f, -0.01861739f,
    -0.03869227f, 0.03219531f, 0.05069142f, 0.02783108f, -0.04425439f, -0.05995324f, -0.06013189f, -0.00418364f,
    -0.06877135f, 0.06492918f, 0.08241888f, -0.00897914f, 0.00862561f, -0.07157637f, 0.00179923f, -0.03067093f,
    -0.02905711f, -0.04999895f, 0.07992943f, 0.08080626f, -0.07973900f, -0.07816042f, -0.05411775f, 0.05971300f,
    -0.04428339f, 0.08263019f, 0.01806455f, 0.01938481f, -0.07367861f, -0.00893512f, -0.06791429f, 0.03716274f,
    0.05931910f, -0.01386783f, 0.02754574f, -0.02472084f, 0.01234295f, 0.06815274f, 0.03368213f, 0.04318765f,
    0.04067024f, 0.02290876f, 0.00944303f, -0.06105023f, -0.01982077f, 0.07256143f, -0.04829469f, -0.00233180f,
    0.00541770f, -0.05988672f, 0.04001626f, 0.04307676f, -0.05553392f, 0.06599057f, -0.01693432f, -0.04478012f,
    0.03713487f, 0.05572269f, -0.00166794f, 0.02905769f, -0.07730620f, -0.07103434f, 0.04937333f, -0.00151434f,
    -0.01368677f, -0.04444047f, 0.08261722f, 0.07373722f, 0.01935896f, -0.04493629f, -0.03784192f, -0.04115984f,
    -0.06692173f, 0.01717578f, -0.05832333f, -0.04713156f, -0.06171578f, 0.04022926f, 0.07786965f, 0.02755007f,
    0.07521581f, 0.02090966f, 0.00068590f, 0.07148099f, -0.04522527f, 0.06466170f, 0.06628611f, -0.03518554f,
    0.07082641f, -0.04585679f, 0.06999037f, 0.05142516f, -0.05810217f, 0.06712881f, -0.07754393f, 0.06420285f,
    -0.04511068f, 0.04099678f, -0.07045769f, 0.02248341f, 0.01348981f, -0.05620759f, 0.06687751f, 0.01579084f,
    -0.00634263f, -0.04992841f, -0.01005903f, 0.06709605f, 0.01677006f, -0.05577851f, -0.07993405f, -0.07334459f,
    0.06996024f, -0.04562436f, -0.05583231f, -0.00833967f, -0.01874936f, 0.04782847f, 0.07737761f, 0.05918479f,
    -0.01757588f, -0.06630456f, -0.00443821f, -0.00792822f, 0.03641140f, -0.00745269f, -0.05855054f, 0.07899544f,
    -0.03208286f, 0.05440248f, -0.06470081f, -0.00133808f, 0.03519079f, -0.05983106f, -0.02615677f, 0.04172770f,
    -0.04275484f, -0.02429426f, -0.03960057f, -0.07589369f, -0.02049636f, -0.06773040f, 0.02263231f, 0.02187727f,
    -0.07104570f, 0.05634001f, -0.07168366f, -0.02449530f, -0.07762619f, 0.06459148f, -0.04637378f, -0.06119245f,
    -0.03371359f, -0.01106248f, -0.00699490f, 0.01663463f, 0.06798799f, -0.02271888f, 0.03339560f, 0.07851125f,
    -0.08162853f, -0.07677990f, -0.07035014f, -0.07870780f, 0.03167897f, 0.02152358f, 0.00396061f, 0.02222764f,
    0.00950560f, 0.02687405f, -0.08026646f, 0.02322116f, 0.02864143f, -0.05898172f, 0.02406396f, 0.05394928f,
    -0.05644964f, -0.05947122f, 0.07157086f, 0.02006985f, -0.02006376f, 0.08019648f, -0.05416126f, -0.08307371f,
    -0.05682858f, 0.03624976f, -0.07008900f, 0.01449858f, -0.01245607f, 0.08065491f, -0.03014630f, -0.05158187f,
    0.05386079f, -0.00857251f, 0.00191161f, -0.01878708f, -0.06905873f, 0.03534003f, -0.03269248f, 0.06471270f,
    -0.02879797f, 0.01875065f, -0.05622775f, 0.02151559f, -0.02262392f, -0.01592809f, 0.00280676f, -0.00504658f,
    -0.04654533f, -0.00523486f, -0.03366163f, 0.05923205f, 0.06342418f, -0.00091856f, 0.03631600f, -0.04271127f,
    0.04303246f, 0.03666733f, 0.06311123f, -0.07139444f, 0.04320307f, 0.07980122f, -0.05891442f, -0.07798511f,
    -0.05563692f, -0.03612980f, 0.01594386f, 0.08268522f, -0.08262935f, 0.01559914f, 0.04116489f, -0.02444435f,
    -0.02110315f, 0.05205428f, -0.04671380f, -0.04046860f, 0.03860215f, 0.03907711f, -0.02261837f, 0.06638356f,
    0.03126174f, 0.04823469f, 0.02396343f, 0.06710120f, -0.06598605f, 0.08305752f, -0.07575743f, -0.07272819f,
    0.04187723f, 0.00542895f, 0.03346851f, -0.05435501f, -0.06354730f, 0.01508587f, -0.03867691f, -0.04800197f,
    -0.06802558f, -0.00083487f, -0.05987588f, 0.05526310f, 0.02365505f, -0.00989769f, 0.02630585f, -0.05518331f,
    -0.06196784f, -0.08045380f, 0.05169561f, 0.07159674f, -0.08266483f, 0.03131046f, 0.04874125f, -0.02303436f,
    0.05215785f, 0.03503934f, 0.03484266f, -0.05417702f, 0.02411155f, 0.00295752f, 0.03346394f, 0.04930216f,
    0.02620035f, 0.04203276f, 0.00488955f, -0.02553112f, 0.02384534f, 0.00452293f, -0.01274520f, 0.04358163f,
    -0.04155583f, 0.01227807f, 0.01102901f, -0.06535974f, 0.07363488f, 0.05629731f, 0.06648819f, -0.07137725f,
    0.00058833f, 0.07678998f, -0.01708665f, 0.00778343f, -0.06038447f, -0.01661984f, 0.06293871f, -0.01813720f,
    0.05773209f, -0.07649910f, 0.02796620f, -0.08146852f, -0.04599049f, 0.06149687f, -0.07481690f, 0.03470860f,
    -0.03708624f, 0.03880961f, 0.02654878f, 0.07941899f, -0.08307325f, -0.06252810f, 0.02022579f, -0.05906978f,
    -0.04264716f, -0.04517006f, 0.07759024f, -0.03950725f, 0.04162567f, -0.02688897f, 0.03631132f, -0.04213174f,
    -0.02622470f, 0.08156562f, -0.02168941f, -0.05512580f, -0.00926539f, -0.07921714f, -0.03022851f, 0.01531801f,
    -0.01140075f, -0.04912109f, 0.05749366f, 0.00503316f, -0.03270533f, -0.03618879f, 0.05692298f, 0.04699708f,
    -0.00368466f, 0.02837955f, -0.01302033f, -0.05742186f, 0.03415337f, -0.05432870f, 0.02445130f, -0.05196034f,
    -0.08264642f, 0.01286548f, 0.08082841f, -0.02928027f, -0.04777751f, 0.04669511f, -0.04197723f, 0.08003426f,
    -0.01229046f, -0.04581389f, 0.03394610f, -0.02459269f, 0.05602203f, -0.05519853f, -0.06610909f, 0.07043871f,
    0.07984127f, -0.01345362f, -0.06112080f, -0.03436273f, -0.00762632f, -0.01809122f, 0.01144046f, -0.06536835f,
    -0.06667864f, -0.05380528f, -0.03891569f, 0.02655502f, -0.06707598f, 0.05899012f, -0.07026239f, -0.04369556f,
    -0.00656298f, -0.00693540f, 0.05939981f, -0.05624860f, 0.04433338f, 0.01819262f, 0.02894435f, -0.02991569f,
    0.01089925f, -0.01418485f, -0.03187428f, -0.04054149f, 0.07441932f, 0.03182381f, 0.02456656f, -0.06921627f,
    -0.06551047f, 0.03246643f, 0.08244970f, -0.05972841f, 0.01068624f, 0.07985317f, 0.08067869f, 0.01154496f,
    -0.05380980f, 0.04931191f, 0.07350793f, -0.03130435f, 0.00580498f, 0.05275797f, 0.06979868f, 0.03364539f,
    -0.08228615f, 0.05154637f, -0.00464079f, 0.03693387f, 0.06708163f, 0.07041554f, -0.06621899f, -0.00002243f,
    0.03102240f, 0.06137925f, 0.00930818f, -0.02970261f, -0.03365605f, -0.05396182f, 0.06864049f, 0.05281551f,
    0.07716807f, 0.00377060f, -0.02752485f, 0.06013795f, -0.08286595f, -0.04068830f, 0.07937133f, 0.05699173f,
    0.04014466f, -0.07084432f, -0.04294015f, -0.08141600f, 0.06153291f, 0.06412014f, -0.08152944f, -0.01425919f,
    -0.04300028f, 0.05910331f, -0.07452701f, 0.03196473f, -0.08034170f, 0.00114196f, -0.05113993f, 0.06986913f,
    -0.02371965f, -0.06501170f, 0.01738186f, -0.00279081f, 0.04364089f, 0.02547128f, -0.05717024f, 0.06047448f,
    -0.03117590f, 0.07384899f, 0.05953093f, 0.01516649f, 0.01205583f, 0.02340789f, 0.06729864f, 0.08007553f,
    0.06253912f, -0.07463343f, -0.07498980f, 0.04231920f, -0.03921158f, -0.03201551f, -0.05983789f, -0.00298401f,
    0.03318717f, 0.07747240f, 0.08218853f, 0.02000730f, -0.06270462f, -0.06222157f, -0.07325777f, -0.02690034f,
    -0.02019449f, 0.05484327f, -0.04426864f, 0.00336585f, 0.07979360f, 0.03087755f, 0.01511263f, -0.01210078f,
    -0.04970815f, 0.06866878f, 0.02657923f, -0.01885054f, -0.01199645f, 0.01780386f, 0.03145640f, -0.07208603f,
    0.01361454f, 0.07867130f, 0.00853997f, 0.00402736f, -0.02154665f, -0.03414299f, 0.00432255f, -0.06158711f,
    0.04602771f, 0.00534099f, 0.01371837f, 0.04285430f, -0.07450529f, 0.07202576f, -0.02571072f, 0.01867961f,
    -0.08236881f, 0.00422617f, 0.06436935f, -0.03515900f, 0.06413760f, 0.05262048f, -0.05563891f, 0.04665495f,
    -0.05783242f, -0.06383240f, 0.03225128f, -0.03713502f, -0.03527043f, -0.01381392f, -0.04155216f, -0.05018476f,
    0.05463295f, 0.04619197f, 0.02585711f, -0.07883689f, -0.06270422f, -0.07302453f, -0.04446627f, 0.02825965f,
    0.07448818f, -0.00694654f, 0.05733039f, -0.00319529f, 0.00334946f, -0.07460718f, -0.08025376f, -0.05420506f,
    -0.04383765f, -0.02248421f, -0.06858950f, -0.05394190f, -0.01266713f, -0.05081838f, -0.06140186f, 0.02023722f,
    0.00681655f, 0.08157912f, -0.03102289f, -0.03158039f, -0.06033071f, -0.06680810f, 0.02180548f, 0.01739500f,
    0.03731947f, 0.04382895f, -0.01620938f, 0.00958408f, -0.06045035f, -0.04297989f, 0.02878771f, 0.00735293f,
    -0.04174079f, -0.08069190f, 0.01113679f, -0.06315446f, -0.07559836f, 0.00577323f, -0.06410401f, 0.04463509f,
    0.03317953f, -0.01570907f, 0.07219615f, -0.07875577f, 0.00868340f, -0.00892792f, 0.03504099f, -0.02430938f,
    0.05344435f, 0.04826440f, 0.05815595f, 0.04048774f, 0.07388151f, -0.00326842f, 0.07001381f, -0.04790556f,
    -0.01431040f, -0.00524355f, 0.03766665f, 0.02590526f, 0.05071454f, -0.02666736f, -0.00818554f, 0.08273089f,
    -0.07157113f, 0.01219380f, -0.06208399f, 0.03106441f, -0.04408796f, 0.08291879f, 0.06363265f, -0.03191223f,
    -0.03159332f, 0.01913755f, 0.01514609f, 0.05884197f, -0.05091105f, -0.07532652f, 0.02590515f, 0.00376240f,
    -0.00850176f, -0.05564431f, -0.02601505f, -0.01513535f, 0.04480467f, 0.08104806f, 0.01589729f, -0.03575106f,
    -0.01147414f, 0.03614273f, -0.06672911f, 0.02001293f, -0.03877967f, -0.01113087f, 0.07823782f, 0.01515373f,
    -0.01121673f, -0.00396857f, 0.07688592f, 0.05278521f, 0.07868376f, -0.08141264f, -0.00462747f, 0.03453162f,
    0.07184803f, -0.05818892f, 0.07067700f, -0.00154120f, -0.06994574f, -0.07258737f, -0.03416168f, 0.03045788f,
    -0.03774304f, -0.00519358f, 0.00600291f, -0.00179312f, 0.03622270f, 0.02740666f, 0.06236060f, 0.02594642f,
    0.05897993f, 0.00371875f, 0.02504390f, 0.04495016f, -0.07911041f, 0.02636532f, -0.05774795f, 0.05739219f,
    0.00547693f, -0.01526538f, -0.02183628f, 0.05427469f, -0.02786290f, 0.02243162f, -0.08164966f, 0.00746462f,
    -0.06227402f, -0.03012245f, 0.08292584f, -0.02422808f, -0.04190078f, 0.07984789f, -0.00955047f, -0.06943445f,
    0.01460900f, -0.04264631f, -0.04155129f, -0.07524630f, 0.02155764f, 0.04506519f, -0.02342530f, -0.06521314f,
    -0.00334023f, -0.02544593f, -0.03907534f, 0.06456533f, -0.03627908f, 0.02947568f, 0.03006917f, 0.07520160f,
    -0.06131856f, -0.04166208f, -0.00569929f, 0.00132504f, -0.05474114f, 0.01308734f, 0.07660227f, -0.00547041f,
    0.00367635f, 0.06741780f, 0.00943306f, -0.07421267f, -0.01437843f, -0.04216778f, -0.05861495f, 0.06872766f,
    0.03841566f, 0.07028283f, 0.06551923f, -0.03616901f, 0.05625305f, 0.03217227f, 0.03339327f, 0.03344455f,
    0.08157593f, -0.07741653f, -0.03762890f, 0.01242235f, -0.05213717f, 0.07053912f, -0.01748300f, -0.02036599f,
    0.03302289f, -0.03441836f, 0.00535836f, 0.05279350f, 0.02880870f, 0.02870911f, -0.06673684f, 0.05524380f,
    -0.05598439f, 0.04379373f, -0.01582591f, 0.07582095f, 0.05261420f, 0.00870242f, 0.05436109f, -0.06546395f,
    0.08298004f, 0.03308670f, -0.03950059f, -0.04308045f, 0.02395046f, 0.04942881f, -0.01934322f, 0.01762096f,
    -0.06611249f, 0.07806726f, -0.06511937f, 0.06885399f, 0.03946904f, 0.00139568f, 0.00389868f, -0.07034998f,
    0.04033151f, 0.00299279f, -0.01820387f, 0.04394145f, 0.03386438f, 0.03874449f, -0.07099399f, -0.03601515f,
    -0.00226901f, -0.07652178f, -0.01498037f, 0.00284838f, 0.02870949f, 0.06278818f, -0.04322341f, -0.05875226f,
    0.03396260f, -0.08197286f, 0.06142056f, -0.02244650f, 0.00987594f, 0.05814476f, 0.07579686f, 0.02784260f,
    -0.00266190f, -0.01613713f, -0.01204089f, 0.03840961f, 0.03419645f, -0.07514304f, 0.05376818f, 0.03051184f,
    -0.06443670f, -0.04569151f, 0.06603231f, 0.04777492f, 0.04229219f, -0.00677120f, 0.04977097f, 0.01704076f,
    0.02976429f, 0.06724744f, 0.02082157f, -0.02999141f, 0.04304314f, -0.08102032f, -0.05161650f, 0.01899225f,
    0.04982192f, 0.06162157f, 0.03447273f, -0.02854836f, 0.08029614f, -0.00081782f, 0.00120076f, -0.01009949f,
    0.02690259f, 0.04375595f, -0.07030417f, 0.00405625f, -0.07430184f, -0.00624686f, 0.01578596f, 0.04437646f,
    0.07218453f, -0.02898533f, -0.02912791f, -0.07860705f, -0.05923980f, 0.02283706f, 0.07312389f, 0.01120058f,
    -0.06386814f, -0.08023323f, 0.06130214f, 0.03500699f, 0.04597362f, -0.02655279f, -0.01367447f, -0.01725324f,
    -0.04269640f, 0.01807405f, 0.02705516f, -0.00890978f, -0.02856961f, -0.06963321f, 0.00501133f, -0.00135114f,
    0.05433857f, 0.00855021f, 0.00181496f, -0.04419585f, 0.02690729f, 0.07243349f, 0.02319866f, -0.05599974f,
    0.03663141f, 0.03019437f, 0.01425873f, -0.01217009f, 0.01868328f, -0.01794408f, 0.01349054f, -0.04552847f,
    0.06392752f, -0.02999678f, -0.05109568f, 0.00365164f, 0.04648943f, -0.07736187f, -0.01182221f, 0.04909183f,
    -0.00871659f, 0.05254540f, -0.01276327f, 0.05971867f, 0.04149440f, 0.06676842f, -0.02464083f, -0.03696979f,
    -0.01279822f, -0.04655751f, 0.02027138f, -0.01561365f, 0.07252079f, 0.00182666f, 0.01232921f, -0.00058751f,
    -0.00822963f, 0.04040722f, -0.03759065f, -0.05197683f, -0.01421241f, 0.07010906f, -0.06974986f, -0.01741424f,
    0.02013270f, -0.06715782f, -0.03918087f, -0.00527303f, -0.02187645f, 0.01352376f, -0.01812830f, 0.02517997f,
    0.05894535f, 0.05887287f, 0.04879165f, 0.04919836f, 0.05204831f, 0.07741373f, -0.03217611f, 0.07470392f,
    0.02684498f, 0.07661898f, 0.01753658f, -0.06604406f, 0.06435087f, 0.00376465f, 0.06460947f, 0.01502837f,
    -0.01715277f, -0.05500100f, -0.05237503f, 0.04773838f, -0.04329821f, -0.06138645f, -0.02442896f, 0.01906409f,
    -0.03463256f, 0.06014055f, -0.02544778f, -0.01678182f, -0.07616226f, -0.02404795f, -0.03655258f, -0.06271558f,
    -0.05923882f, -0.00516031f, -0.03392584f, -0.03583972f, -0.06904361f, 0.03768285f, -0.03923166f, 0.03626360f,
    0.07654305f, -0.00125573f, -0.03333121f, -0.04582298f, 0.02852098f, 0.06838479f, -0.01918423f, 0.00364533f,
    0.01599197f, -0.05215133f, 0.06142060f, -0.06592061f, 0.04208742f, -0.02947341f, -0.03938107f, -0.07037269f,
    -0.03211812f, -0.03907081f, 0.01367010f, 0.07776505f, -0.07521450f, 0.01880080f, 0.04381680f, -0.04479714f,
    0.08225612f, 0.02576357f, -0.00061293f, 0.03196037f, 0.03528259f, -0.05696844f, 0.00280450f, -0.07772161f,
    -0.04136740f, -0.01407541f, -0.02807677f, 0.06079525f, 0.05194812f, -0.07039168f, -0.06105363f, 0.07860204f,
    0.07783916f, -0.02248709f, -0.07175063f, 0.05608666f, 0.01919205f, -0.05629135f, 0.00097086f, -0.04538449f,
    0.01399716f, 0.05858625f, 0.00104040f, -0.00937835f, -0.01000326f, -0.02734999f, -0.02241103f, -0.07387011f,
    0.00198630f, 0.07537538f, 0.01958910f, 0.02745656f, 0.02153324f, -0.01179652f, -0.08143277f, -0.01618751f,
    -0.04031280f, -0.02607661f, -0.03211885f, -0.04370816f, -0.07344766f, 0.05282342f, -0.04388789f, 0.00165640f,
    0.06374966f, -0.06082576f, 0.07943808f, -0.02484788f, 0.00600168f, -0.06169496f, -0.04455179f, 0.02756425f,
    0.03414432f, -0.02994311f, 0.03528942f, -0.04057369f, 0.05840362f, -0.05360269f, -0.02842190f, -0.06018315f,
    -0.05323962f, -0.03848800f, -0.04377111f, -0.01061385f, -0.06098065f, -0.04908887f, -0.06444037f, 0.00527971f,
    0.04205941f, 0.07963701f, 0.03033422f, -0.00074225f, 0.07140794f, 0.00359097f, 0.06598162f, 0.07276898f,
    0.00041407f, 0.01164567f, -0.06169527f, 0.06772792f, 0.08264528f, 0.01852156f, -0.07315695f, -0.07564297f,
    -0.02661794f, -0.04350325f, -0.03163031f, -0.07608277f, -0.04807860f, 0.05872775f, 0.00199312f, 0.07248574f,
    -0.07879441f, -0.07812849f, 0.05252587f, -0.00612093f, -0.05812501f, 0.04987651f, 0.05713256f, -0.05339832f,
    -0.03325927f, -0.07251625f, 0.06465631f, -0.00231494f, -0.00605898f, -0.05275238f, 0.06958842f, -0.00408142f,
    0.00523127f, -0.00612789f, -0.02543842f, -0.00876226f, 0.02714463f, -0.07667540f, -0.03106501f, -0.04969448f,
    -0.01670670f, -0.00831915f, 0.07268545f, -0.00481889f, 0.07207900f, 0.07010651f, 0.04298630f, -0.08016162f,
    -0.08331215f, 0.02334885f, 0.00174563f, -0.02337677f, -0.02157804f, 0.07254389f, 0.05758199f, -0.06832647f,
    0.03973069f, 0.01153936f, 0.02023957f, 0.07126613f, -0.03122596f, 0.00718315f, -0.05292154f, -0.04877236f,
    -0.05612547f, 0.04678479f, 0.00085958f, 0.01593645f, 0.05105147f, 0.06105994f, -0.00418236f, 0.00025974f,
    -0.01821780f, 0.03657858f, -0.02114035f, 0.00910552f, 0.01654646f, 0.02756210f, 0.06655809f, 0.05428756f,
    -0.01984422f, 0.07854447f, 0.07561480f, -0.03534614f, -0.02139564f, -0.00262974f, -0.04755556f, -0.08173014f,
    -0.06554385f, 0.06752348f, 0.03829315f, -0.04566237f, -0.06626483f, 0.02431948f, 0.03398061f, 0.03919610f,
    -0.02715263f, 0.00179844f, -0.02694974f, -0.01488578f, 0.01916548f, -0.02918597f, -0.00800116f, 0.07069382f,
    -0.03281798f, 0.05341849f, -0.03867940f, -0.04333913f, 0.00696770f, -0.04270937f, 0.00448742f, 0.07943711f,
    -0.06927624f, -0.02473239f, -0.03373602f, 0.01746911f, -0.07987901f, -0.02960613f, 0.04104301f, 0.02163919f,
    -0.03068059f, -0.05380151f, -0.01277597f, -0.06994273f, -0.00644889f, -0.06934824f, -0.01818821f, -0.05475446f,
    -0.05020737f, 0.01820468f, -0.03735431f, 0.01444368f, 0.06094508f, 0.04139994f, -0.04410816f, 0.02388885f,
    -0.00132677f, -0.08075313f, 0.04748318f, -0.07204979f, 0.06034888f, 0.06965359f, 0.00705379f, -0.03194054f,
    -0.00956107f, 0.03577241f, -0.00638231f, 0.04046154f, -0.04263241f, 0.01075858f, -0.02057752f, -0.03750028f,
    0.07139134f, -0.04237485f, -0.04025149f, 0.06259679f, -0.05720999f, 0.05691937f, -0.01562169f, -0.08142912f,
    -0.06359874f, -0.07243228f, -0.06277746f, -0.06070447f, -0.06341963f, -0.06246744f, 0.06295559f, -0.00726217f,
    0.01185393f, 0.06619193f, 0.04297836f, -0.05518788f, -0.07057296f, -0.05073140f, -0.03205768f, 0.04098663f,
    0.05465554f, 0.01569737f, 0.08135472f, -0.00597308f, -0.02386811f, 0.03918429f, 0.03129879f, -0.00766883f,
    0.00810591f, -0.02546379f, 0.07378274f, 0.02954211f, -0.04215182f, 0.01614499f, 0.01746864f, 0.07752758f,
    0.05521215f, 0.06260660f, -0.05547559f, 0.07325837f, 0.03012892f, -0.04307085f, -0.00730236f, 0.03737199f,
    0.08255231f, -0.01949323f, -0.07629722f, 0.05870908f, -0.03322497f, -0.07435097f, -0.03267622f, -0.02395899f,
    0.02860561f, 0.07628715f, -0.06149414f, 0.08274689f, -0.03033220f, -0.06287605f, -0.01864532f, -0.07714736f,
    -0.04395139f, -0.01728975f, -0.02103405f, 0.05954075f, 0.01254739f, -0.00354718f, 0.07588945f, 0.02155466f,
    0.02498050f, -0.02740163f, -0.03471370f, 0.08328028f, 0.07296284f, 0.05253455f, 0.01517066f, -0.05360081f,
    0.04342377f, -0.02904642f, 0.08329162f, -0.05489452f, 0.06205298f, -0.07981543f, 0.08092177f, -0.03306824f,
    -0.07136939f, 0.07210295f, -0.00906668f, 0.02153408f, 0.05872880f, 0.03149066f, 0.07273763f, 0.05032411f,
    0.08275422f, 0.07936516f, -0.00098509f, -0.07394509f, -0.04375745f, -0.07072031f, 0.04420030f, 0.01533589f,
    -0.02771140f, -0.07777882f, -0.06373414f, -0.07051846f, -0.07750939f, 0.02815827f, -0.01133789f, -0.08113104f,
    -0.00495080f, 0.04194475f, -0.02187916f, -0.07781591f, -0.04969114f, -0.00360939f, 0.07423624f, 0.01038480f,
    -0.06742655f, 0.02911890f, 0.05893162f, -0.01405019f, -0.05934017f, 0.05722784f, 0.06473103f, -0.03463859f,
    0.07760678f, 0.07400645f, -0.03893956f, 0.07481363f, -0.02758788f, -0.01469948f, 0.04645495f, 0.05103121f,
    0.01173372f, -0.04581808f, 0.06232520f, 0.05144164f, -0.04957699f, -0.03823094f, -0.03494065f, 0.00221824f,
    0.05521578f, -0.07460868f, -0.00802073f, -0.01763015f, 0.06208851f, 0.06473800f, 0.01081689f, 0.02484105f,
    0.05411268f, -0.02896607f, 0.04971682f, -0.07157050f, -0.01616892f, 0.04827977f, 0.04414350f, -0.00261988f,
    0.02757097f, -0.04406077f, 0.01630359f, 0.07871155f, -0.04224330f, 0.05929213f, -0.05505624f, -0.06036296f,
    0.08258373f, -0.02655532f, -0.03664386f, 0.02055472f, -0.02913788f, 0.02108923f, -0.06241133f, -0.03542195f,
    -0.04372108f, -0.06081578f, -0.06666531f, -0.01870570f, -0.03294408f, -0.03475438f, -0.06000416f, 0.00007920f,
    0.01671585f, -0.01695570f, 0.01654315f, 0.02206105f, -0.06025939f, 0.07961494f, 0.07319161f, -0.03262945f,
    0.05695934f, -0.00931576f, 0.03927053f, -0.06071575f, -0.05861753f, -0.06135515f, 0.02472399f, 0.01765009f,
    -0.04142238f, -0.00247471f, -0.04074382f, 0.00566732f, -0.00337954f, 0.04528663f, -0.05679253f, 0.06592968f,
    -0.01722859f, -0.00533627f, -0.05246290f, -0.06426793f, 0.00451298f, 0.04301715f, 0.01636322f, -0.05180873f,
    -0.07122813f, 0.00991963f, -0.00481396f, -0.05135358f, -0.06632090f, -0.03712846f, -0.03680804f, -0.02132416f,
    -0.04020093f, -0.06144213f, 0.00196065f, 0.02086557f, 0.06512687f, 0.07363027f, -0.06149476f, -0.05927327f,
    0.01538875f, -0.07384314f, 0.01737139f, -0.00579157f, -0.07340904f, -0.01902169f, 0.06577922f, -0.01531026f,
    -0.00749488f, -0.07955356f, 0.00973794f, 0.05116565f, -0.05699288f, -0.04283974f, -0.04098102f, 0.04548786f,
    0.01041299f, 0.04338220f, 0.05818450f, -0.03500795f, 0.03533339f, 0.01233069f, -0.02594821f, -0.03857931f,
    -0.08116595f, -0.06963590f, -0.04576054f, 0.03789270f, -0.01739440f, 0.01782352f, -0.05508664f, -0.00245197f,
    0.03366196f, 0.04005614f, 0.05001673f, -0.06913111f, 0.03538929f, 0.03262740f, 0.01708373f, 0.02897548f,
    -0.06562626f, -0.01728219f, -0.08082518f, 0.06308262f, 0.03718434f, 0.02646871f, -0.03113686f, 0.02881164f,
    -0.02626118f, -0.02016877f, 0.08110856f, -0.03703041f, -0.06380497f, -0.03269688f, 0.01362470f, 0.00093132f,
    -0.04963660f, -0.06927606f, -0.00026868f, 0.07571883f, -0.01275048f, 0.01289437f, 0.07177174f, 0.01315997f,
    0.03592805f, -0.04973548f, -0.07626777f, -0.05028835f, 0.03454294f, -0.00777451f, -0.01409243f, -0.01677590f,
    0.00144690f, 0.06597133f, 0.03194427f, 0.00070705f, 0.03765339f, -0.03406069f, 0.03253781f, 0.02658716f,
    0.07604466f, 0.04771873f, -0.05076111f, 0.04218332f, 0.05342817f, 0.02194482f, -0.05382233f, -0.08177489f,
    -0.04157863f, -0.00133302f, -0.08150434f, -0.01491355f, -0.06258893f, 0.05793225f, 0.02802548f, 0.05362798f,
    0.07377660f, -0.02234568f, 0.00713312f, 0.03001952f, 0.06427218f, 0.02806045f, -0.06693341f, -0.05217036f,
    0.00697973f, 0.07187136f, 0.01905106f, -0.00972245f, -0.01289376f, -0.00303363f, -0.06194220f, -0.01668351f,
    0.04186158f, -0.02732842f, 0.06537226f, 0.02177285f, 0.02487518f, -0.00553204f, 0.06385955f, -0.07830396f,
    -0.00352289f, -0.04317117f, 0.02084288f, 0.06530496f, 0.00147629f, 0.03126099f, -0.01636273f, -0.02619200f,
    0.05205983f, 0.03367895f, 0.07373758f, 0.05633064f, -0.03471538f, 0.04216948f, -0.05516347f, -0.07843256f,
    -0.01679411f, -0.01137844f, 0.05426689f, -0.05629563f, 0.00896565f, 0.07301874f, 0.02363931f, -0.05029392f,
    -0.03571321f, 0.06719244f, 0.07672252f, 0.07878073f, -0.00397301f, 0.08147078f, 0.03667158f, 0.03705081f,
    0.05887518f, 0.06330754f, 0.06978019f, -0.07245066f, -0.08327475f, 0.03234127f, 0.07812023f, 0.05228327f,
    0.02634725f, -0.07159092f, -0.03456959f, -0.07744978f, 0.01926305f, 0.01718625f, -0.02274422f, 0.07552341f,
    0.00154733f, -0.01516115f, -0.03786446f, 0.05562307f, -0.07691791f, 0.07747893f, -0.03911248f, 0.02216890f,
    -0.07580014f, -0.00948347f, 0.06079777f, 0.04218198f, 0.03412136f, 0.01354575f, -0.06041155f, -0.01039428f,
    0.00551279f, -0.05390741f, -0.02497625f, 0.03866196f, -0.07442893f, -0.05526761f, 0.06127460f, -0.08131558f,
    -0.00972788f, 0.06949263f, 0.07540952f, -0.04147257f, -0.01786320f, -0.01357077f, -0.04131209f, 0.04113252f,
    -0.01512444f, -0.03301092f, -0.04782990f, 0.04613711f, 0.05578151f, -0.01256081f, -0.01950663f, -0.04715365f,
};

// Shape: (16,), dtype: float32
static const float stage0_block0_bn1_gamma[16] = {
    1.00000000f, 1.00000000f, 1.00000000f, 1.00000000f, 1.00000000f, 1.00000000f, 1.00000000f, 1.00000000f,
    1.00000000f, 1.00000000f, 1.00000000f, 1.00000000f, 1.00000000f, 1.00000000f, 1.00000000f, 1.00000000f,
};

// Shape: (16,), dtype: float32
static const float stage0_block0_bn1_beta[16] = {
    0.00000000f, 0.00000000f, 0.00000000f, 0.00000000f, 0.00000000f, 0.00000000f, 0.00000000f, 0.00000000f,
    0.00000000f, 0.00000000f, 0.00000000f, 0.00000000f, 0.00000000f, 0.00000000f, 0.00000000f, 0.00000000f,
};

// Shape: (16,), dtype: float32
static const float stage0_block0_bn1_mean[16] = {
    0.00000000f, 0.00000000f, 0.00000000f, 0.00000000f, 0.00000000f, 0.00000000f, 0.00000000f, 0.00000000f,
    0.00000000f, 0.00000000f, 0.00000000f, 0.00000000f, 0.00000000f, 0.00000000f, 0.00000000f, 0.00000000f,
};

// Shape: (16,), dtype: float32
static const float stage0_block0_bn1_var[16] = {
    1.00000000f, 1.00000000f, 1.00000000f, 1.00000000f, 1.00000000f, 1.00000000f, 1.00000000f, 1.00000000f,
    1.00000000f, 1.00000000f, 1.00000000f, 1.00000000f, 1.00000000f, 1.00000000f, 1.00000000f, 1.00000000f,
};

// Shape: (3, 3, 16, 16), dtype: float32
static const float stage0_block0_conv2_weight[2304] = {
    0.08145630f, -0.03596600f, -0.00244697f, -0.04668912f, 0.07346405f, 0.06478121f, 0.06412244f, 0.06357469f,
    0.03505173f, -0.06342425f, -0.02919715f, -0.07691097f, -0.05295653f, -0.02967154f, -0.00882054f, -0.04683720f,
    -0.00112962f, -0.05546737f, 0.04311806f, 0.06078862f, 0.01234894f, -0.06414571f, 0.02609335f, -0.04176031f,
    0.00332517f, -0.04023889f, -0.07093122f, -0.06458133f, 0.02835195f, -0.05024488f, 0.06149620f, 0.07674959f,
    0.04629545f, -0.05417719f, -0.07082429f, -0.00427435f, 0.01575417f, -0.07148790f, -0.05250506f, 0.04235564f,
    0.03878189f, -0.03694403f, -0.03703257f, -0.05502380f, -0.04369731f, -0.05050871f, 0.07495859f, 0.06311327f,
    -0.04677228f, -0.06657667f, -0.05631925f, -0.05355131f, 0.02637233f, -0.03907167f, -0.00836681f, -0.07562344f,
    -0.04118457f, 0.02800822f, -0.04661760f, 0.00052908f, -0.07477947f, 0.02026396f, 0.06036937f, 0.02593084f,
    0.07189158f, -0.06161219f, -0.02552108f, -0.00165655f, -0.02063385f, 0.07320627f, -0.03343681f, 0.05855959f,
    0.00265965f, 0.06893174f, 0.06368547f, 0.05854755f, -0.06135324f, 0.04124368f, 0.01518436f, 0.01558006f,
    0.00176841f, 0.05360039f, -0.06286278f, -0.07531455f, -0.01216303f, -0.07393673f, -0.03970718f, -0.00426059f,
    -0.02440856f, 0.03195063f, -0.05203387f, 0.04958324f, -0.00944337f, 0.02837300f, -0.02042817f, -0.04531287f,
    0.01802515f, 0.04535162f, 0.07808807f, 0.04798559f, 0.00459335f, -0.00772965f, 0.00383607f, -0.06168454f,
    0.03867960f, 0.06293707f, 0.01085461f, -0.06125266f, 0.04680027f, 0.03982101f, -0.05960246f, -0.03468077f,
    0.00247698f, -0.04749304f, 0.05489877f, -0.02014684f, 0.05575250f, 0.02775623f, -0.01961021f, -0.02314451f,
    0.04554397f, -0.02892034f, 0.01385137f, 0.05876810f, 0.01330695f, -0.02648304f, 0.07202076f, -0.06607881f,
    -0.07383260f, 0.06431538f, -0.06409936f, 0.04718710f, 0.01456272f, 0.06006452f, -0.04570721f, 0.03268185f,
    -0.06290209f, 0.02002467f, -0.05380415f, -0.04611003f, 0.03871978f, -0.08243659f, 0.05446685f, 0.03658802f,
    -0.04274544f, -0.01403633f, 0.00794298f, -0.07780191f, 0.00712773f, -0.03665406f, -0.02757121f, -0.03541159f,
    0.00058526f, -0.03582213f, -0.00511642f, 0.03273105f, 0.04771991f, 0.07471287f, -0.00031475f, 0.02106759f,
    -0.05920152f, 0.02145287f, 0.00058512f, -0.00676697f, 0.06397472f, -0.00851964f, 0.07474050f, -0.02177334f,
    0.06295844f, 0.02149757f, 0.04629728f, -0.04186393f, -0.06750294f, 0.04292503f, 0.03660747f, 0.07620060f,
    0.04551464f, -0.01776385f, 0.00202482f, -0.00985956f, 0.01178652f, 0.03731695f, -0.04486873f, 0.05403958f,
    0.05063511f, 0.05753146f, -0.05465665f, -0.04426929f, -0.00184569f, 0.03924274f, 0.00525391f, 0.04165161f,
    -0.04380550f, -0.07691281f, -0.08263471f, -0.03576517f, -0.07610801f, 0.01495599f, -0.02717876f, 0.00700450f,
    -0.04202288f, -0.00166229f, -0.01573724f, -0.01489801f, -0.04727124f, 0.07274749f, -0.05242842f, -0.01843565f,
    0.00222841f, -0.07564096f, 0.04391026f, 0.02548073f, -0.01809826f, -0.01790189f, -0.00025248f, 0.02430391f,
    0.06685756f, 0.03911895f, 0.03936380f, 0.01862973f, -0.01582385f, 0.05866730f, -0.06845053f, 0.00905055f,
    0.03178018f, 0.07714675f, 0.02322180f, 0.05058678f, 0.06314820f, 0.01358008f, 0.01209289f, 0.07796003f,
    -0.01531310f, 0.00005493f, -0.02192207f, -0.02111432f, 0.02950845f, 0.04962168f, 0.04051741f, -0.08309867f,
    0.02467872f, -0.00695852f, -0.02391253f, 0.08302441f, 0.04973851f, 0.00194246f, 0.01164412f, 0.05223265f,
    0.07348923f, 0.06961762f, -0.06132615f, 0.00026929f, -0.01045375f, 0.08306648f, 0.08052599f, 0.06532823f,
    -0.04503229f, -0.03812327f, 0.02238782f, -0.02773353f, -0.01081070f, 0.08138306f, -0.07519910f, 0.01322975f,
    0.04900786f, -0.08201587f, -0.04018037f, -0.02055217f, 0.05355663f, 0.06920770f, -0.06908397f, -0.05115225f,
    -0.02563348f, 0.03794688f, -0.06701830f, 0.01556243f, 0.05528862f, 0.00733689f, -0.06395903f, 0.01692760f,
    -0.04502428f, 0.03196106f, 0.00831824f, -0.07646699f, -0.04951132f, 0.02285601f, -0.01496562f, -0.02996303f,
    0.08166274f, -0.01053680f, 0.00285389f, -0.07271685f, -0.00888291f, -0.07762515f, 0.08066544f, -0.02696648f,
    0.00912977f, -0.06288214f, 0.03797136f, 0.02233723f, 0.00449057f, -0.07480168f, -0.05132784f, 0.07325141f,
    -0.01625843f, 0.07558434f, 0.01477636f, 0.08263120f, 0.00071815f, -0.01060082f, -0.05414843f, 0.04004949f,
    0.03721222f, 0.05499192f, -0.05541199f, -0.04617261f, 0.04649700f, 0.05387270f, -0.05633171f, -0.06928592f,
    -0.00536998f, -0.00185834f, -0.06573097f, -0.04935344f, -0.04525035f, 0.00344140f, 0.04832089f, 0.00437919f,
    -0.04637633f, -0.04840406f, 0.05365406f, 0.03074645f, 0.02085145f, -0.05405354f, -0.05083462f, -0.05186742f,
    -0.00691006f, 0.01966641f, -0.04123660f, 0.06866890f, -0.07688926f, 0.07314846f, 0.04378006f, -0.07534741f,
    -0.04412615f, -0.00872712f, 0.00901416f, 0.05908182f, 0.03578837f, -0.04503118f, -0.02829871f, 0.06097695f,
    -0.06130208f, -0.03404544f, -0.04065975f, 0.06151006f, 0.04862579f, 0.05311272f, -0.06753668f, -0.01152635f,
    -0.06695135f, -0.05252426f, 0.00858961f, -0.07286675f, -0.00862978f, 0.07225107f, -0.01846350f, -0.05836527f,
    0.04609459f, -0.01917792f, 0.07099430f, 0.05441776f, -0.05905085f, 0.06323769f, 0.05206976f, -0.02419375f,
    0.02778893f, 0.01736595f, -0.02752616f, 0.01687710f, 0.04859712f, -0.02312542f, 0.06999400f, -0.03261262f,
    0.01122950f, 0.01513184f, 0.04451610f, 0.07580068f, -0.01612312f, -0.05690778f, 0.06246182f, -0.02966180f,
    0.06667530f, 0.04547783f, -0.02622451f, -0.03221556f, 0.03393709f, -0.04925641f, 0.05076381f, 0.03717428f,
    -0.07594857f, -0.06785047f, 0.01343547f, 0.00049652f, -0.02888793f, 0.02803381f, -0.00457220f, 0.01862724f,
    -0.02478992f, 0.05374369f, -0.01940247f, 0.01820350f, 0.07415574f, -0.02976440f, 0.04807153f, 0.01199863f,
    -0.00182614f, -0.05329008f, 0.05975773f, -0.04613531f, -0.03391492f, -0.07453731f, -0.04980673f, -0.00142564f,
    0.05450395f, -0.03879896f, 0.03406532f, -0.04488928f, 0.06987783f, -0.04214013f, -0.07456888f, -0.02820871f,
    -0.01960432f, -0.06345387f, 0.06027253f, -0.07849290f, 0.03348830f, -0.04402497f, -0.02017662f, 0.03981742f,
    0.07019207f, -0.03681152f, 0.00554047f, 0.04737579f, -0.01169116f, 0.07791904f, 0.05434381f, 0.02286176f,
    -0.07446435f, 0.05637806f, -0.00679404f, 0.04350743f, -0.05300962f, 0.04222066f, -0.01273179f, -0.00053680f,
    -0.06048301f, -0.06830798f, -0.05707844f, 0.07583668f, -0.05960053f, 0.03180042f, 0.04724227f, 0.00749294f,
    -0.04302507f, -0.04186038f, -0.03879754f, 0.00375631f, -0.01464058f, -0.05910232f, -0.05792085f, -0.00811472f,
    0.08112621f, 0.07526033f, 0.07370789f, 0.04869656f, 0.02967173f, -0.07855418f, 0.05727353f, -0.05056531f,
    -0.07252657f, -0.00058795f, -0.00268072f, -0.00659473f, -0.01278208f, -0.03603114f, 0.03522244f, -0.06754022f,
    0.02115281f, 0.02251288f, -0.07218506f, 0.01405084f, -0.08163607f, 0.03841034f, -0.01144224f, 0.02974575f,
    -0.03485271f, 0.07366067f, -0.06322676f, -0.00679256f, 0.08080932f, -0.05079646f, 0.01369096f, 0.01342230f,
    -0.05540603f, 0.04208796f, -0.00498636f, -0.01646141f, 0.06769019f, 0.07222706f, -0.01854436f, 0.02061781f,
    0.00100580f, -0.07500961f, 0.01240898f, 0.03401949f, -0.01048460f, -0.03088969f, -0.04021174f, -0.03159777f,
    -0.01902658f, -0.01614481f, -0.05388614f, -0.02374347f, 0.03615502f, 0.04343688f, 0.06066240f, -0.00721988f,
    -0.08149183f, -0.04171515f, -0.00880996f, -0.05872769f, -0.07166550f, -0.01466995f, 0.03240856f, -0.06647079f,
    0.07107264f, 0.07637613f, -0.06889118f, -0.04645199f, 0.00880477f, -0.08119906f, 0.08312811f, -0.02890958f,
    -0.08066852f, 0.03908936f, 0.00751528f, -0.01690736f, -0.07437220f, -0.04909346f, 0.04954830f, 0.03922701f,
    0.07994252f, 0.07415047f, -0.06075416f, -0.06496100f, -0.06839829f, -0.07660844f, 0.03779961f, 0.02315444f,
    -0.06881877f, -0.04287658f, -0.01703484f, 0.00507853f, 0.03735190f, 0.03183973f, 0.06973001f, -0.00015712f,
    0.06271665f, -0.03074505f, 0.03365189f, -0.04814522f, -0.07060832f, 0.05943044f, -0.00245284f, -0.05547194f,
    0.07853289f, -0.02174336f, 0.04748195f, -0.05783460f, 0.07459994f, -0.05966734f, 0.00207046f, -0.04375158f,
    0.05259832f, 0.00465340f, -0.01561167f, 0.01285456f, -0.06125569f, 0.06750154f, -0.07554986f, 0.02330567f,
    0.04197174f, -0.01884021f, -0.05087110f, -0.00304978f, -0.07183684f, 0.03690243f, 0.07035481f, -0.01698120f,
    -0.07407453f, 0.01381542f, 0.04278016f, -0.01644885f, -0.02541704f, -0.03038540f, 0.05415964f, -0.04990486f,
    0.01042328f, 0.03930288f, -0.02791675f, 0.07878709f, -0.05024964f, -0.01435823f, 0.06363855f, 0.00116441f,
    -0.06998135f, -0.06579386f, -0.08035706f, 0.02499180f, 0.00319327f, 0.01220798f, -0.04173906f, 0.04664622f,
    0.05944636f, 0.05806634f, 0.01937184f, 0.00601749f, -0.03848798f, 0.06518614f, 0.04016017f, 0.01601072f,
    0.05760466f, -0.00237974f, 0.01238538f, -0.06984916f, 0.06586107f, -0.02158165f, 0.07718489f, -0.02372222f,
    -0.05373929f, 0.02299261f, -0.04026750f, 0.07120796f, 0.02147599f, 0.00861905f, 0.06631496f, 0.06831132f,
    0.07078522f, 0.08021306f, 0.07179015f, -0.08145709f, 0.05325009f, 0.01926917f, 0.06797948f, 0.06764605f,
    0.02481410f, -0.03899423f, 0.07184009f, 0.01977441f, 0.07724041f, 0.02193841f, 0.02106899f, 0.06689828f,
    0.04433443f, 0.05910891f, -0.02359831f, 0.06159630f, 0.07669073f, 0.04028476f, 0.03510914f, 0.05810624f,
    0.00648025f, -0.07124613f, 0.02100604f, 0.06378627f, -0.01783380f, 0.07066771f, 0.03258401f, -0.02807320f,
    -0.03917008f, 0.05943051f, 0.07843624f, 0.02256553f, 0.03202513f, -0.00386823f, 0.06267717f, -0.02122079f,
    0.06055465f, -0.06056766f, 0.06071063f, -0.00248134f, -0.04385310f, 0.02770140f, -0.05268173f, 0.01737692f,
    -0.02495882f, 0.00795246f, -0.03218296f, -0.06450476f, -0.04798093f, 0.07948827f, 0.07016846f, -0.01930302f,
    0.02015724f, 0.00784331f, -0.04512621f, -0.06510230f, 0.05662660f, -0.00412083f, 0.04751384f, 0.06892963f,
    -0.06427809f, 0.04450630f, 0.00464594f, 0.05322032f, 0.02903110f, -0.03080178f, -0.00242372f, 0.04031706f,
    -0.07100852f, -0.01474352f, 0.00093564f, -0.07075082f, 0.05684692f, 0.06381136f, 0.00553500f, -0.03707835f,
    -0.03936005f, -0.05879910f, -0.04148670f, -0.00578821f, 0.01825671f, -0.04605116f, 0.05192463f, -0.00937649f,
    0.03471395f, -0.07278430f, 0.01927980f, 0.06687319f, 0.02381259f, -0.06094254f, 0.04259682f, -0.01370201f,
    -0.02917594f, 0.00851268f, -0.00673393f, 0.06184496f, -0.02896370f, 0.07740405f, -0.03902667f, -0.00529022f,
    -0.07319559f, 0.00610967f, -0.05529025f, 0.00675439f, 0.04709166f, 0.04830463f, 0.00065759f, -0.02270524f,
    -0.07939304f, -0.04757679f, -0.05655149f, -0.01207010f, 0.07740229f, 0.01263368f, -0.00903469f, 0.00413812f,
    -0.07406896f, -0.06144254f, -0.02429304f, 0.00578430f, -0.01137453f, 0.07556033f, -0.02609345f, -0.05386268f,
    0.03209112f, -0.00655581f, 0.06172499f, -0.00371970f, -0.00273356f, -0.05274118f, 0.00541970f, -0.07051387f,
    -0.03165549f, -0.05242507f, -0.00620037f, -0.01043761f, 0.07190347f, -0.07396561f, 0.01130204f, -0.01881709f,
    -0.04590325f, -0.05453911f, -0.01601799f, -0.04179674f, 0.03915875f, -0.00361964f, -0.01971826f, -0.03242334f,
    0.04436681f, -0.01676433f, 0.07112598f, -0.06733501f, -0.01657144f, -0.06052750f, -0.06906261f, -0.05813311f,
    0.06620749f, 0.01115165f, 0.02737536f, -0.03977613f, -0.06544830f, 0.05340007f, -0.04240047f, -0.01100955f,
    0.02638054f, -0.03848096f, 0.04666090f, 0.05604827f, 0.05126518f, 0.02392580f, 0.07443963f, 0.03385718f,
    0.03311111f, -0.02963142f, -0.02468987f, -0.02648147f, 0.02270990f, 0.03243416f, 0.00095508f, -0.02582120f,
    -0.01665839f, 0.06422934f, -0.07151130f, -0.04679091f, 0.03306545f, 0.00382800f, -0.04705817f, 0.03378671f,
    -0.05710339f, 0.00710012f, -0.03867401f, 0.01629435f, -0.02810239f, -0.00339833f, 0.03788757f, -0.04384937f,
    -0.07283017f, 0.00246655f, -0.01375184f, 0.02468922f, -0.00297232f, 0.02110267f, -0.01048024f, 0.00741976f,
    -0.00607868f, -0.05961860f, -0.07346641f, -0.05898099f, 0.03298935f, 0.08096781f, -0.05390410f, -0.00022961f,
    -0.02010699f, 0.05342206f, 0.03553559f, -0.03615798f, -0.05028201f, 0.04551257f, 0.03054434f, -0.03939066f,
    -0.04730375f, -0.00090775f, -0.05133968f, 0.05544497f, 0.00886106f, 0.06207937f, -0.04621262f, -0.00694028f,
    0.07877301f, -0.04717597f, 0.08293828f, 0.05807499f, -0.01804302f, -0.00758277f, -0.00655488f, -0.04315967f,
    -0.07402059f, -0.03832933f, 0.02166225f, -0.05535467f, 0.02621886f, 0.05963710f, -0.02144158f, -0.08181015f,
    -0.08018291f, 0.04496533f, -0.06195702f, 0.01432741f, 0.00377797f, -0.05418210f, 0.03701250f, -0.05452124f,
    -0.06228189f, 0.03793510f, -0.03599082f, 0.08008699f, -0.01160167f, -0.08032668f, -0.03620952f, 0.03175282f,
    -0.01503313f, 0.01597805f, -0.05540919f, 0.06328900f, -0.02073025f, -0.04684546f, -0.05086347f, 0.02516141f,
    0.03473888f, -0.04073003f, 0.02604414f, 0.00339108f, -0.00383754f, 0.07524297f, 0.04790395f, -0.03688294f,
    0.02962446f, 0.04648953f, -0.08183836f, 0.04096409f, -0.01833421f, 0.03009868f, -0.07811235f, 0.06766566f,
    0.00065977f, -0.02377191f, 0.04537325f, 0.02310029f, 0.08023061f, -0.03544420f, 0.07956114f, 0.04096783f,
    -0.03457321f, 0.04655313f, 0.04358280f, 0.08123933f, -0.03319061f, 0.07929190f, -0.05197157f, -0.02004183f,
    0.07696272f, -0.00184325f, -0.06416257f, 0.05501740f, 0.06252405f, -0.05482980f, -0.01584360f, -0.05587825f,
    -0.03382322f, 0.07179888f, -0.06980114f, 0.00622172f, 0.02326161f, -0.03815229f, -0.02293870f, -0.05429938f,
    0.08269291f, 0.03235537f, -0.06275295f, 0.02436462f, -0.08139129f, -0.05790012f, -0.06671129f, 0.00353913f,
    -0.08314367f, 0.03960432f, 0.05382084f, -0.04908884f, -0.05901400f, -0.03145232f, -0.02439395f, 0.05175358f,
    0.04592001f, -0.07124297f, 0.00012851f, 0.01963769f, 0.02963335f, -0.00123715f, -0.01824422f, 0.06745929f,
    -0.01191857f, 0.00083472f, -0.00908634f, 0.03724751f, 0.07425340f, 0.02872800f, 0.06320308f, 0.02375366f,
    -0.02724266f, -0.06790107f, 0.04451022f, 0.05833378f, -0.05447286f, 0.04513153f, -0.04032820f, 0.05341396f,
    0.07092421f, 0.04160433f, -0.00965755f, -0.03307241f, 0.07514039f, 0.00340924f, -0.07866429f, 0.08000642f,
    -0.06807081f, -0.02774672f, -0.02732318f, -0.06860052f, -0.05777274f, -0.02012993f, 0.04906005f, -0.07380003f,
    -0.03017387f, 0.03549547f, 0.04906204f, 0.07989108f, 0.07866489f, -0.00812548f, 0.06297284f, 0.05413618f,
    0.06236821f, -0.06392087f, -0.05160519f, 0.01758145f, 0.07779306f, 0.01080822f, 0.04984242f, -0.06341447f,
    -0.00500611f, -0.04435870f, 0.01749682f, -0.00466333f, -0.01156357f, -0.04554962f, -0.05479264f, -0.07945640f,
    -0.05699797f, 0.01149368f, -0.05554448f, -0.00414049f, -0.05031747f, 0.04325736f, 0.05398522f, -0.02818403f,
    -0.00872008f, -0.06086877f, -0.03764139f, 0.02176374f, 0.06565319f, -0.05876875f, -0.08131357f, 0.04472952f,
    -0.03925066f, 0.05269536f, -0.03638667f, -0.06591056f, 0.02594569f, -0.03343993f, 0.07639029f, -0.04640081f,
    0.04494628f, -0.08253431f, -0.04596683f, -0.01283349f, 0.02572431f, 0.03451476f, -0.03969492f, 0.04998221f,
    -0.03483802f, -0.02705724f, -0.05538694f, 0.03149807f, -0.02079811f, 0.06441677f, -0.02888001f, -0.01234978f,
    -0.03077488f, 0.07556853f, 0.04652995f, -0.06929807f, -0.05210425f, 0.05724349f, 0.04693216f, -0.03662734f,
    0.06858098f, -0.00427100f, 0.01818451f, -0.05674846f, -0.04603757f, 0.04314261f, -0.07873712f, 0.02104111f,
    0.05256569f, 0.04493351f, -0.00591209f, 0.04891455f, -0.04743692f, 0.05820638f, 0.04048761f, -0.00163238f,
    -0.03204453f, -0.07791242f, 0.07018349f, -0.05220537f, 0.04454511f, 0.03264344f, 0.07339870f, -0.04562761f,
    -0.02452430f, 0.00899576f, 0.05007018f, 0.08150668f, 0.00474491f, -0.00126828f, 0.07380451f, 0.07782695f,
    -0.04133424f, -0.00013807f, 0.00648599f, -0.05683606f, -0.04285976f, -0.04777183f, 0.07911100f, 0.01883506f,
    0.02483559f, 0.08207829f, 0.04262783f, 0.06198407f, 0.03930455f, 0.07950446f, 0.01267324f, -0.06828712f,
    0.02746747f, -0.04288284f, -0.07810825f, -0.04956187f, 0.00294979f, 0.06224133f, -0.08313778f, -0.06724806f,
    0.01493193f, -0.02313723f, 0.01722714f, 0.06888020f, -0.08205142f, 0.00224198f, -0.00613053f, 0.04234639f,
    0.01791807f, 0.02147263f, 0.04129286f, -0.02986171f, -0.03444019f, -0.04479980f, -0.01773848f, -0.07387217f,
    0.06816800f, 0.01449975f, -0.07076614f, -0.07500314f, -0.02432030f, -0.00683163f, 0.02960861f, 0.01676664f,
    0.01578292f, -0.02167109f, 0.08137446f, 0.03578348f, -0.07510187f, -0.04916654f, -0.00674237f, -0.03980614f,
    -0.01795660f, -0.07823055f, 0.03249010f, -0.00640187f, 0.08257963f, 0.05732369f, -0.01661379f, -0.08314817f,
    0.06002745f, -0.03115354f, -0.04728941f, -0.07224120f, 0.02664542f, -0.05584320f, -0.01664671f, -0.00626298f,
    0.01413747f, -0.08005735f, -0.06614178f, 0.01322323f, 0.04485765f, 0.02347596f, -0.06602006f, 0.06645837f,
    -0.04061599f, -0.08287023f, -0.00601123f, 0.07769415f, -0.03616778f, 0.06130549f, -0.02997398f, -0.01722919f,
    -0.04540810f, 0.08079600f, -0.03161478f, -0.07958382f, -0.02034732f, -0.05585125f, -0.06330302f, 0.06701328f,
    -0.03364467f, 0.05218948f, -0.07276975f, 0.03126298f, -0.01471316f, 0.06313290f, -0.05858275f, -0.03733321f,
    -0.00696568f, 0.04623232f, -0.00431759f, -0.03339893f, -0.04697117f, -0.07474320f, 0.01579007f, 0.03419555f,
    0.08230934f, -0.04750543f, 0.03270783f, -0.07686712f, -0.04581713f, -0.01041719f, -0.03218560f, 0.03924673f,
    -0.04097184f, 0.03960453f, -0.08168598f, 0.04881002f, -0.05648167f, 0.00786544f, -0.05167380f, 0.05788734f,
    0.04955530f, -0.03445278f, -0.07748766f, -0.06954094f, -0.01917182f, 0.00958691f, -0.05395502f, 0.01023140f,
    -0.05216225f, -0.07129228f, 0.00369242f, 0.05734240f, -0.05361926f, 0.05896190f, 0.02997912f, -0.05766143f,
    -0.03830829f, 0.03662775f, 0.02868994f, 0.04432476f, 0.06089085f, 0.04352352f, -0.02710715f, -0.03741468f,
    0.01493122f, -0.02701000f, 0.05623603f, 0.02198536f, -0.04758634f, -0.03806208f, 0.03620567f, 0.03013103f,
    -0.07481351f, -0.00774511f, 0.06292284f, 0.02463537f, -0.00791689f, -0.00714090f, -0.01497141f, -0.07166009f,
    0.08257563f, -0.06578037f, 0.07869311f, 0.02106436f, -0.01460818f, -0.06658441f, 0.05101826f, -0.04510699f,
    0.07146319f, 0.01622250f, -0.08245762f, 0.04089485f, 0.03897922f, -0.01393746f, -0.00444823f, 0.02964784f,
    -0.07859114f, 0.02275121f, -0.06200082f, 0.08287641f, -0.04148431f, -0.02315845f, -0.03766425f, 0.02167123f,
    0.03272432f, 0.02847306f, -0.06084070f, 0.00834441f, 0.04603688f, -0.00473947f, -0.02059824f, 0.02492544f,
    -0.07721885f, 0.07245469f, 0.03578083f, -0.06462990f, -0.05486407f, 0.01751047f, -0.00570939f, 0.07582089f,
    -0.07571533f, 0.05429122f, -0.00397259f, -0.03186598f, 0.04949676f, 0.03092049f, -0.07904162f, -0.05723446f,
    -0.01386442f, -0.00653938f, 0.07910924f, 0.04164284f, -0.03678496f, 0.06703636f, -0.02829771f, -0.07205904f,
    -0.06351110f, -0.02811882f, -0.07645100f, -0.04339580f, 0.07400301f, -0.00030704f, -0.03210463f, 0.04348683f,
    0.06682258f, 0.00061546f, 0.03258498f, 0.06157881f, 0.03477326f, 0.01225209f, 0.02287514f, -0.06939109f,
    0.06349544f, 0.07402182f, -0.07185607f, -0.03625529f, -0.06181578f, -0.01961832f, -0.07868809f, 0.01260869f,
    -0.01579624f, -0.03214394f, -0.04983302f, -0.07735910f, -0.02629994f, 0.06332298f, -0.02408342f, 0.02566186f,
    0.06618014f, -0.02088643f, 0.02316296f, 0.07598962f, -0.01610707f, -0.08092599f, -0.04560929f, 0.07198530f,
    -0.03816363f, -0.07798203f, 0.04428297f, 0.00533254f, 0.03424554f, 0.04762171f, 0.08300106f, 0.04692065f,
    -0.03783967f, -0.01386601f, 0.02185156f, 0.06969886f, 0.02690795f, -0.03124151f, -0.02633394f, 0.08108343f,
    0.03743155f, 0.02030158f, 0.02367350f, -0.00510372f, -0.01912460f, 0.07825523f, -0.04343274f, -0.05913883f,
    0.07546960f, 0.06188706f, -0.07869547f, -0.03161165f, 0.03507161f, -0.06795186f, 0.06483653f, 0.06131127f,
    0.04640657f, -0.08173287f, 0.05000138f, 0.02642975f, 0.02244218f, 0.03527921f, -0.02536155f, -0.08239794f,
    -0.03653274f, 0.01699591f, -0.04246705f, 0.01038160f, 0.03230891f, 0.04781337f, -0.01372485f, 0.06889804f,
    -0.07836946f, 0.00844728f, 0.03817695f, 0.05420781f, -0.07081937f, 0.05227660f, 0.01148492f, -0.07660605f,
    0.02291705f, -0.00971113f, 0.06240188f, -0.08021840f, -0.07638143f, -0.00098089f, -0.03075930f, 0.03295218f,
    0.07428458f, 0.00972738f, -0.01486932f, 0.07612689f, 0.00304572f, 0.03085245f, 0.04985633f, -0.06358318f,
    -0.04155967f, 0.02064662f, -0.02659316f, 0.05255861f, -0.01565212f, 0.02468460f, 0.00789084f, 0.04867926f,
    -0.01473682f, -0.00338908f, 0.03566454f, 0.06314696f, -0.05323548f, 0.00991932f, 0.02358922f, 0.06419062f,
    0.05108106f, -0.06206400f, -0.03862002f, -0.06329493f, 0.06757896f, 0.08090940f, 0.04745605f, 0.07012255f,
    -0.01227464f, 0.00224473f, 0.02843368f, 0.04288780f, 0.00827236f, 0.00097086f, -0.04029649f, -0.01117583f,
    -0.07790343f, 0.03669823f, -0.07783911f, 0.04105633f, 0.02229018f, -0.01109997f, -0.03648293f, 0.01572387f,
    -0.07321063f, 0.00544024f, 0.08195287f, 0.03602593f, -0.00555011f, -0.07811012f, 0.04598841f, -0.00255070f,
    0.03316304f, 0.07196437f, -0.01026618f, 0.01637530f, -0.07096171f, -0.04631627f, 0.04459239f, -0.04085072f,
    0.03593308f, -0.04639708f, -0.00655822f, -0.06045213f, 0.05401007f, -0.02349931f, -0.03455152f, 0.02062896f,
    -0.06940271f, 0.02592489f, -0.00069504f, -0.01396723f, 0.06857642f, 0.04851153f, 0.01489240f, 0.04054159f,
    0.03088683f, -0.05192034f, -0.02918878f, 0.01928079f, 0.04929113f, -0.04267558f, 0.02448206f, -0.00975050f,
    0.00692213f, -0.04407844f, -0.07349217f, 0.00782341f, -0.06800212f, 0.01853158f, 0.04627701f, -0.05836943f,
    -0.05425319f, 0.01423554f, -0.04947161f, 0.04150600f, 0.05199492f, -0.02515562f, 0.06139008f, 0.04888168f,
    0.01364643f, 0.06788205f, 0.06738444f, -0.01984391f, -0.00127865f, -0.07261007f, 0.02523779f, -0.00824242f,
    -0.08157640f, 0.06379813f, -0.07320473f, -0.02918258f, -0.06675057f, -0.07536919f, 0.07852589f, -0.04285353f,
    -0.07226568f, 0.04180477f, 0.00153752f, -0.01270462f, -0.04639272f, -0.04341925f, -0.00158404f, 0.01779187f,
    0.04205015f, 0.03080231f, -0.01261399f, -0.04723115f, -0.07577714f, -0.01122287f, 0.02868233f, 0.04536998f,
    -0.04113809f, -0.02003189f, 0.04943168f, 0.04261184f, -0.00676677f, 0.02551388f, -0.07039221f, 0.04756570f,
    -0.01405396f, 0.07551002f, 0.05620980f, 0.03708838f, -0.01855691f, 0.07134773f, -0.02478023f, 0.03952595f,
    -0.00361180f, 0.02340679f, 0.02334316f, 0.03197710f, 0.03717534f, -0.04703772f, 0.03789842f, 0.04410706f,
    0.02462499f, 0.03545968f, 0.03360363f, 0.01457024f, 0.02196394f, -0.07965319f, -0.08139443f, -0.01153197f,
    0.06263909f, 0.02928944f, -0.00203022f, -0.00809904f, -0.01455065f, 0.02115839f, -0.03331780f, -0.07483846f,
    -0.05111865f, -0.04928432f, 0.07105251f, -0.04690342f, 0.02153486f, -0.00114107f, 0.01446399f, 0.01004075f,
    0.06264140f, -0.00343548f, -0.07699659f, -0.06487143f, 0.05953820f, -0.03156736f, -0.07453647f, 0.03307859f,
    0.06617644f, -0.03410745f, -0.02625853f, 0.04457980f, -0.06456506f, -0.02019381f, 0.04867235f, -0.08285861f,
    0.01334998f, 0.08083518f, -0.04118402f, -0.06796561f, -0.02251974f, 0.05717360f, -0.02314904f, 0.00034824f,
    -0.06843277f, 0.06587793f, -0.02548516f, -0.06460486f, -0.01206107f, 0.07203203f, -0.00980955f, 0.06712656f,
    0.02018689f, 0.05424524f, 0.00433861f, 0.05508250f, 0.02441122f, -0.02605082f, -0.04892984f, -0.08155087f,
    -0.03083475f, -0.05775413f, -0.01794156f, -0.02522194f, -0.05998033f, 0.00882443f, 0.08306397f, -0.03113220f,
    -0.02971243f, 0.05209684f, 0.04811917f, 0.08149141f, 0.06499320f, 0.06210358f, -0.07803796f, 0.01656186f,
    -0.02297359f, -0.02829711f, 0.02959956f, 0.02322095f, 0.06637325f, 0.08115403f, -0.01004951f, 0.03592723f,
    -0.01737402f, -0.00687584f, -0.07794277f, -0.04924455f, -0.06090616f, -0.06880200f, -0.02947387f, 0.02475834f,
    -0.05486394f, -0.07727878f, 0.00713864f, -0.08180162f, -0.08314791f, -0.05654332f, 0.02179260f, 0.05292522f,
    0.05842813f, -0.03538312f, -0.04838999f, -0.08331223f, -0.02210298f, -0.02603236f, 0.04464255f, 0.06798032f,
    0.03372930f, -0.00627439f, 0.00169501f, -0.02195290f, 0.00713872f, -0.03707370f, -0.07298424f, 0.04456091f,
    0.06194212f, 0.05010354f, 0.04866844f, 0.07267975f, 0.07053818f, 0.03248187f, 0.04964602f, -0.04647761f,
    0.05593621f, -0.02964579f, -0.01114520f, 0.02792412f, 0.06509264f, 0.00052720f, -0.02828849f, 0.07389338f,
    0.00081336f, -0.05743843f, -0.00475085f, 0.02484136f, 0.00878450f, 0.02298713f, 0.02287191f, 0.05881755f,
    0.04347996f, 0.06963003f, -0.05417833f, 0.00343416f, 0.00912840f, -0.00470154f, 0.07523622f, -0.03367244f,
    -0.03620126f, 0.00336346f, 0.00811609f, -0.02495759f, -0.05647036f, 0.03328678f, 0.03524951f, -0.02024674f,
    -0.01306699f, -0.01099101f, 0.00385626f, 0.05188158f, -0.04683700f, 0.04406238f, 0.03637345f, -0.06018932f,
    -0.02597936f, 0.04705440f, -0.03418759f, -0.05070009f, -0.07714252f, 0.05217038f, -0.07775025f, 0.00638020f,
    -0.04194828f, 0.04572176f, 0.07836714f, 0.03085644f, 0.00871764f, -0.05093321f, 0.04773673f, -0.05693665f,
    0.04250382f, -0.07679841f, -0.01266585f, 0.03526030f, 0.05903583f, 0.03428660f, 0.02957648f, 0.05875274f,
    0.01523819f, -0.02737983f, 0.06308984f, -0.03624715f, 0.04683781f, 0.06921669f, -0.05860592f, -0.00575782f,
    -0.00657121f, -0.03084563f, 0.01221511f, -0.07478096f, 0.03195887f, -0.00999159f, -0.04403894f, -0.05412223f,
    -0.04629704f, 0.08236514f, -0.01888419f, -0.06302322f, 0.07954016f, 0.03127007f, 0.01316421f, 0.00450494f,
    0.05586721f, -0.01871125f, -0.00466370f, -0.00254947f, 0.07623275f, -0.01978560f, 0.01170433f, 0.06832741f,
    -0.04353578f, -0.05583737f, 0.05962723f, -0.07682128f, -0.07565396f, 0.00972783f, 0.03737754f, -0.05161493f,
    -0.00477482f, 0.02877687f, 0.00826410f, 0.03393292f, 0.05206016f, 0.06671716f, -0.01149986f, -0.03622666f,
    0.00008706f, 0.01006041f, -0.03695155f, -0.02626121f, -0.00079535f, -0.00951573f, 0.05032518f, -0.06625592f,
    -0.05273229f, -0.00378951f, -0.00973062f, -0.04239256f, -0.04579644f, -0.04413759f, 0.02525601f, -0.04919440f,
    -0.03212957f, 0.07121017f, 0.05765004f, 0.01661943f, -0.04356418f, -0.02840180f, 0.05584284f, 0.03189098f,
    -0.00291169f, 0.01298915f, -0.00905189f, -0.04526159f, 0.03660189f, 0.03743723f, -0.08147489f, 0.01530030f,
    0.04307244f, 0.08013403f, -0.05964993f, -0.02665956f, 0.06933908f, -0.03880647f, 0.06769728f, 0.05267341f,
    0.01418865f, -0.02027404f, -0.02246900f, -0.05814800f, -0.05129325f, -0.01458463f, -0.05930402f, 0.02645611f,
    0.05856938f, -0.07608394f, 0.01349171f, 0.07833660f, -0.01856467f, -0.03476039f, -0.00047940f, -0.08177086f,
    -0.03638561f, 0.04604649f, 0.00420468f, 0.02061803f, -0.02372960f, 0.02662906f, -0.02956742f, 0.01354911f,
    -0.06300718f, -0.07933770f, 0.05511710f, 0.02450342f, 0.01083355f, 0.00596476f, 0.00084407f, -0.05109131f,
    -0.01646737f, 0.06425536f, -0.00011073f, -0.03659331f, -0.05742726f, 0.01207930f, -0.02549571f, 0.07891086f,
    -0.02069702f, -0.00615389f, -0.06216491f, 0.03221093f, -0.04503074f, 0.02366398f, 0.04358251f, 0.01652219f,
    -0.06274433f, 0.07216340f, -0.06853729f, 0.06900838f, 0.01310084f, 0.00341120f, 0.07257125f, 0.02894771f,
    0.07845529f, -0.04749362f, -0.03282430f, 0.07569017f, -0.01182107f, -0.03372982f, 0.00463260f, 0.03066812f,
    0.03665562f, 0.00275903f, -0.06350033f, 0.02902214f, -0.00209219f, 0.08176723f, -0.01723036f, 0.06651185f,
    -0.08288799f, -0.05194939f, 0.00268576f, -0.06101722f, -0.04634415f, -0.04280920f, 0.07698839f, -0.01378300f,
    0.00941095f, -0.00641680f, -0.02238134f, -0.06638497f, 0.03290583f, 0.08108889f, 0.01925245f, -0.06275572f,
    -0.05044460f, -0.03032295f, -0.00061897f, 0.06407207f, -0.02701920f, -0.00128060f, -0.00009150f, 0.00234338f,
    0.00419495f, 0.06134039f, -0.02089440f, -0.04700318f, -0.07513880f, -0.03977465f, -0.05868712f, 0.01566620f,
    0.07564076f, -0.01381718f, 0.07546909f, -0.07095309f, 0.06867588f, 0.06896111f, -0.05888137f, -0.01539013f,
    -0.01083569f, 0.01418437f, 0.00498334f, 0.04829342f, 0.01585236f, -0.04503165f, -0.07875716f, 0.05032792f,
    0.06236089f, -0.05141833f, 0.07273763f, -0.06373121f, -0.02098545f, 0.01258632f, -0.00160010f, 0.04611006f,
    -0.02836000f, -0.07961799f, 0.07501837f, 0.03585097f, 0.03701206f, 0.00961261f, -0.00201670f, 0.06761269f,
    -0.01249860f, 0.05374750f, 0.07252287f, 0.06181276f, 0.02038152f, -0.06269838f, 0.07628387f, -0.05597819f,
    -0.04589373f, -0.00030975f, 0.05793415f, -0.04658857f, -0.00211613f, 0.01670860f, -0.02008682f, -0.05748852f,
    0.08302471f, 0.05696125f, -0.01330882f, 0.04579232f, -0.05158377f, -0.01641182f, 0.06097957f, -0.05647612f,
    0.03893954f, -0.03065735f, 0.02609831f, -0.01914751f, 0.07850505f, -0.08214235f, 0.05062621f, -0.00116226f,
    -0.06667122f, -0.02166006f, -0.03060049f, 0.07189459f, 0.04812425f, 0.02638617f, 0.03100543f, -0.06904404f,
    0.00627499f, 0.02525125f, 0.04295654f, 0.05215428f, -0.01788192f, 0.02488363f, -0.02950972f, 0.04583272f,
    -0.01620901f, 0.07133459f, 0.07900809f, -0.04472118f, -0.03289021f, -0.03866760f, -0.07907992f, -0.07445457f,
    -0.06795278f, -0.03592727f, 0.04467776f, 0.01396571f, -0.00580553f, 0.06488614f, 0.01013611f, -0.04725973f,
    -0.08224871f, -0.03100782f, 0.06461224f, 0.06934287f, 0.02759835f, 0.05350580f, 0.06090076f, 0.06613612f,
    0.04633757f, 0.07907546f, 0.04631080f, 0.06678389f, 0.04626918f, 0.00215290f, 0.05655921f, -0.06249022f,
    0.02339771f, -0.00498427f, -0.04811118f, -0.00592089f, 0.08251658f, -0.07266007f, -0.02186413f, -0.00547751f,
    0.05384385f, 0.01024002f, 0.03773416f, -0.03517760f, -0.04302396f, -0.03340217f, -0.07173690f, 0.03708945f,
    0.03373052f, -0.00787785f, 0.01662345f, -0.03477842f, 0.05110954f, 0.05122346f, 0.04052774f, 0.08071670f,
    0.06208615f, 0.00884732f, -0.07333671f, -0.07644133f, -0.02297414f, 0.05081274f, 0.01771277f, 0.06221528f,
    0.00326274f, 0.02450330f, 0.01835029f, 0.07603721f, 0.08222084f, -0.01017157f, 0.07588395f, -0.03260952f,
    -0.02458724f, 0.00887177f, -0.05037303f, -0.01222573f, 0.04598496f, 0.04343493f, 0.07056151f, -0.01644721f,
    -0.04409962f, -0.04785414f, 0.04904690f, 0.02696598f, -0.01973366f, 0.01707670f, -0.06802793f, 0.07282187f,
    -0.05508156f, -0.05874357f, -0.05661011f, 0.03493552f, 0.07375400f, 0.05010666f, 0.08149239f, -0.07569087f,
    -0.07186782f, -0.02403317f, -0.04155413f, -0.06344216f, 0.03772460f, -0.05911955f, 0.02855599f, -0.00109836f,
    0.00871955f, 0.07960372f, 0.01562858f, 0.03403472f, 0.08253834f, 0.01564875f, -0.05897319f, -0.04480039f,
    -0.02026752f, -0.01904612f, -0.04713148f, 0.06205503f, -0.05515563f, -0.00659235f, 0.07549163f, 0.06409722f,
    -0.02696159f, 0.02879834f, -0.02801462f, 0.00583542f, 0.07522574f, 0.07330713f, -0.06984028f, -0.05113401f,
    -0.02054493f, 0.05555280f, 0.04273570f, -0.01978861f, 0.04990651f, -0.07049635f, -0.06346719f, 0.00752383f,
    -0.01414058f, -0.07843115f, 0.07068875f, -0.01903358f, -0.06504062f, 0.02505109f, 0.01594882f, 0.01004069f,
    0.00228678f, -0.08140884f, -0.03651237f, -0.07527726f, 0.07148951f, 0.07752433f, -0.07187012f, 0.03760676f,
